3312 128
0 -0.515085 -0.515189 -0.762777 0.227151 -0.137834 -0.849555 -1.26374 -1.01 -0.410492 -0.126228 -1.09442 0.356546 0.950101 -0.0857123 0.259367 -0.19938 -0.302114 -0.73612 0.718959 -0.31822 0.471384 0.746704 0.701248 0.417768 0.4744 -0.475175 0.614306 0.40905 1.06645 -0.305694 -0.274109 0.504171 -1.16374 0.26217 -0.0102434 -0.165319 1.33991 0.505488 -0.362287 0.777701 0.0330674 0.354961 0.216551 0.493606 0.422952 0.0623434 0.622502 1.44803 -0.323107 0.731984 -0.226029 0.00027416 -0.430507 -0.712253 1.03783 0.365661 0.0463823 0.276165 0.310751 -0.148078 0.38185 0.0352948 0.568711 1.00894 0.42315 0.282224 0.0266214 -0.542551 -1.23524 0.562772 0.160518 -0.659331 0.117683 -0.16232 -0.538613 0.538609 0.347854 0.603105 -0.113813 0.312196 0.327514 -0.998727 0.727125 0.438039 -0.102678 0.66198 0.0303217 -0.141921 -1.64961 -0.593161 -0.461291 -0.0273924 -0.219907 0.462062 0.175591 -0.026574 0.0679383 -0.659807 0.143677 0.246928 -0.576312 0.328255 -0.249504 -0.299844 0.319676 0.267066 0.0585597 0.635408 0.700762 -0.734798 -0.381471 -1.40461 -0.375938 0.492181 -0.251948 0.163835 -0.484525 0.282741 -0.73436 -1.25063 0.247316 -0.0698237 -0.16916 -0.53026 0.117153 -0.591392 0.30591 -0.670836 
1 -0.166176 -0.334864 -0.104045 0.170032 0.239901 0.0619023 0.436961 -0.142794 0.0111906 0.36235 -0.341133 0.181142 0.0447054 0.0729477 0.795255 0.07008 0.142454 -0.328557 0.0953253 0.178346 -0.509032 -1.1695 1.0225 -0.000550245 0.61436 -0.315895 0.642393 0.671743 -0.0559696 0.0315249 -1.08572 0.0708979 1.25672 -0.401586 0.225001 -0.101749 0.826613 0.41203 0.0526963 -0.513762 -0.0351463 0.0333934 0.740522 0.777614 -0.638408 -0.233415 1.15523 1.30735 -0.667047 0.709042 -0.224931 -1.02898 -0.475806 0.372143 0.772782 -0.593288 -0.90856 0.649147 -0.0500863 0.569283 0.572083 0.320377 -0.0833083 0.815401 -0.109134 -0.402367 -0.12897 -0.238322 -0.341342 -0.0249816 -0.248399 -0.294083 0.876417 -0.592848 -1.09432 0.0819896 0.396886 -0.0935123 0.549338 -0.547794 0.968685 -0.169738 -0.241831 0.270034 -0.755097 0.385892 0.551899 -0.853811 -0.180568 -0.974699 -1.5623 -0.061704 -0.449701 -0.943866 0.00643339 0.0106048 0.237084 -0.636783 1.48748 0.286034 -0.920278 0.0288743 -0.739055 -0.536658 -0.0260765 0.05761 -1.54506 0.316767 0.328736 -0.44591 1.17486 -0.364496 0.140628 0.264407 0.585841 -0.29058 -0.521869 -0.0196022 -0.14583 -1.36415 0.683674 0.410886 -0.0647382 -0.288778 -0.045239 0.283477 -0.0186272 0.557819 
2 0.391562 0.0768607 0.292823 -0.0125113 -0.233423 -0.613106 -0.0469165 -0.441979 -0.12957 -0.29134 -0.646415 -0.315981 0.146821 -0.0580442 0.0438522 -0.357192 -0.159588 -0.492323 -0.0793187 0.220727 -0.716371 0.326358 0.164374 0.0619661 -0.0470714 -0.197235 0.285517 0.158013 -0.231879 -0.30254 -0.0862185 -0.373545 -0.133171 0.182719 0.00710894 -0.21939 0.151058 0.36408 -0.0611324 0.123229 0.483885 0.318911 -0.122793 0.00959313 -0.426437 0.487929 0.861618 0.385899 -0.223914 0.22793 -0.145813 0.436115 -0.63945 0.255059 0.202863 -0.533209 -0.629656 -0.228402 0.152714 0.028825 -0.112799 0.535841 0.251424 -0.0621561 0.155709 0.305629 0.0724203 -0.103353 -0.178201 -0.0213951 0.276314 -0.56864 0.105186 0.165349 -0.28071 -0.614876 0.297219 0.110044 -0.393741 -0.545196 0.469843 -0.610767 -0.200605 0.140401 0.322365 0.463497 0.305881 -0.178719 -0.142378 -0.51041 -0.380648 0.0324087 -0.0484176 0.187569 -0.102644 0.0526246 -0.176308 -0.133495 -0.154907 -0.205231 -0.474121 -0.320311 0.142784 -0.327416 0.344269 0.336332 -0.492814 -0.479882 0.090596 -0.290601 0.223088 -0.251789 -0.422498 0.550771 0.0710345 0.25906 -0.0956851 0.107017 -0.614683 -0.459823 0.132206 0.451045 0.0956137 -0.288474 -0.142706 -0.171881 0.324561 -0.262868 
3 0.526873 0.0980869 -0.236202 0.0911224 -0.023412 -0.307026 -0.348167 -0.739302 -0.573382 0.993158 -0.484496 -0.179286 0.621648 0.334485 0.0689336 -0.912679 0.385345 -0.091185 0.0997247 0.568773 0.00770364 -0.161259 0.227018 0.183513 0.504021 -0.544626 1.04431 0.542976 0.458339 -0.1444 0.0468322 0.220121 0.23539 0.472215 -0.526891 0.0939916 0.373814 0.222443 -0.272741 0.453323 0.0280274 -0.0102304 0.262226 0.567362 -0.0722135 0.666141 1.0568 1.27218 -0.322778 0.41807 0.378466 -0.374593 -0.062902 0.1118 0.287926 -0.0356398 -0.334571 0.253997 0.71838 0.113348 0.394611 0.422199 -0.308951 0.0593729 0.163077 0.198772 0.145563 -0.172206 -0.179783 -0.192984 -0.505008 -0.105789 0.194407 0.28586 -0.269296 0.05398 0.180376 -0.103427 0.0241753 -0.209446 -0.126238 -0.283458 -0.439901 0.338692 -0.138639 -0.0279527 0.00757553 -0.206554 -0.0596704 -0.644372 -0.385862 -0.288075 0.0555541 -0.153589 0.477109 0.509423 -0.802915 0.0435669 0.599064 -0.116747 -0.62464 0.202509 -0.359728 0.290186 0.725012 0.274001 -0.889358 0.190959 -0.264078 -0.357664 0.246582 -0.378781 -0.166208 0.350206 0.153308 -0.121092 -0.168548 -0.113572 -0.767313 -0.67309 0.512643 -0.0585206 -0.0645595 -0.621948 -0.0416758 -0.245724 -0.439829 -0.125385 
4 -0.131903 0.00131954 -0.208983 0.221708 0.335718 -0.41518 -0.0987252 -0.225198 -0.491483 0.195315 -0.385991 -0.148709 0.720794 -0.0145878 -0.202345 -0.341186 0.461452 0.00533799 0.504432 0.239004 0.102162 0.199409 0.377938 0.726437 0.67614 -0.0822156 0.0279471 0.95691 0.358163 0.109816 -0.719381 0.0350144 -0.183414 -0.0541158 -0.117871 0.688793 0.313173 0.484674 0.215521 0.567398 0.394704 0.218014 0.316735 -0.155277 0.0119082 0.139455 0.48945 1.01176 0.292178 0.670333 -0.0983346 -0.102558 -0.213461 -0.29307 0.451724 -0.0745127 -0.391985 -0.294911 0.0410392 -0.220785 0.486918 0.184789 0.468226 0.441583 -0.297981 0.465667 0.094206 -0.0891597 -0.309233 0.208273 0.0585554 -0.125205 -0.0453276 0.106081 -0.589679 0.318192 0.285682 0.181732 -0.175992 -0.266158 0.470979 -0.231771 0.0754171 0.134653 -0.394545 -0.0118341 0.665913 -0.370804 -0.440962 -0.311343 -0.60286 -0.369821 0.212294 0.219492 -0.037079 -0.224493 -0.551977 -0.549987 0.115828 -0.0417093 -0.204984 0.505264 -0.0955477 -0.0913626 0.47522 0.125587 -0.395836 -0.0789371 0.652381 -0.254626 0.224612 -0.680018 -0.224559 0.00981086 -0.600022 0.255128 0.367977 0.0352335 -0.398227 -0.83616 -0.11319 -0.206554 0.263585 -0.134514 -0.660879 -0.527464 -0.0948201 -0.646428 
5 -0.432891 -0.174684 0.158325 0.217757 0.278534 -0.789937 -0.204163 -1.2424 0.106446 0.184948 -1.37486 -0.715489 -0.270838 -0.462004 -0.0250024 -0.221228 0.794912 -0.177249 0.20193 0.361349 -0.939915 0.441102 0.992364 0.0438382 0.0993783 0.442881 0.917963 0.509775 0.144124 -0.100166 -0.638122 -0.176105 0.0524647 0.552148 -0.107586 -0.0833553 0.858597 0.140335 0.326528 0.168539 0.365207 0.700539 -0.377436 0.24708 -0.208424 0.242971 0.636919 1.41176 -0.39542 0.19518 0.426091 0.053334 -0.728427 0.11206 0.723387 -0.232709 -1.06064 0.568041 0.844622 -0.690673 0.540795 0.355383 0.569571 0.0600311 -0.591153 0.989239 0.716068 -0.906158 -0.63475 -0.777478 -0.862909 0.347693 -0.189912 0.267959 -0.577633 -0.519707 0.361786 -0.0353584 -0.321721 -0.614523 0.334694 -0.559673 -0.166298 0.417887 0.304787 -0.112959 0.23011 -0.0210724 -0.536692 0.082538 -0.635341 -0.235067 0.157444 -0.388134 1.1196 -0.288791 0.067448 0.356511 0.55946 -0.443149 -0.462069 0.078991 0.173618 0.331656 0.213905 -0.144637 -0.782552 -0.383895 0.0274091 -0.603321 -0.211819 -1.35502 -0.157847 0.382579 -0.818835 -0.23223 -0.369279 -0.242028 0.115953 -1.26436 0.084214 -0.329758 -0.328319 -0.83441 -0.107689 0.0299845 0.0723952 -0.202729 
6 0.114471 0.140428 0.215793 0.463285 -0.0455647 -0.916642 -0.0153808 0.0121868 0.419534 0.792572 -1.38246 -0.11814 -0.15839 -0.277892 0.91362 -1.0408 0.0332138 -0.248673 -0.481052 0.470854 -0.739876 0.0606882 0.440391 -0.225347 0.74363 -0.21955 1.06195 -0.0564676 0.758951 -0.0859115 -0.44634 -0.138168 -0.173666 1.08619 0.42819 -0.15446 0.89913 0.0598479 -0.171085 0.184276 0.225826 0.277351 0.479514 0.342135 0.921756 -0.0827953 1.25326 0.941074 -0.721065 0.436601 0.601014 0.88931 0.257174 -0.125007 0.219597 -0.627561 0.0144355 -0.502661 0.446777 -0.264865 1.04483 -0.120723 -0.679319 0.709553 -0.0410827 0.237686 -0.248741 -0.167485 -0.608732 0.523313 -0.397636 -0.342174 0.258934 0.196275 -0.647889 -0.313413 0.27639 0.664722 -0.43604 -0.538957 -0.0538235 -0.0632827 -0.18447 0.518907 -0.357695 -0.244228 0.860803 -0.778512 0.065537 -0.922827 0.114034 -0.528752 0.26437 0.108758 0.296383 -0.113248 -0.708116 0.336254 0.784953 0.0949297 -0.382291 -0.338729 -0.0367175 -0.419839 -0.342119 0.132178 -0.640651 0.129085 -0.281697 -0.0322786 -0.120534 -0.988105 0.0749488 1.08129 -0.0813974 0.210398 -0.777974 -0.559247 -0.432874 -1.29612 -0.243009 -0.405086 0.244317 -0.24533 -0.556663 -0.945157 -0.121109 -0.461248 
7 0.40088 0.114622 -0.732859 0.364794 -0.496596 -0.11082 0.23585 -0.140781 0.0652187 0.039105 0.875205 -0.574468 0.690358 -0.286825 0.519964 -0.689125 0.644334 0.0883372 0.0610711 0.532691 -1.29021 -0.425345 0.250975 0.0600653 -0.188137 0.118029 1.02255 -0.138768 0.114975 0.432859 -0.418299 0.32667 0.449252 0.200767 0.705896 -0.104983 0.64581 -0.26525 -0.502952 0.351321 1.03013 0.516203 0.395453 -0.41563 0.200049 0.352283 0.119814 1.2003 -1.3652 -1.09752 -0.310423 -0.143491 -0.247964 0.27307 0.0616763 -0.575796 -0.712955 0.723876 0.742243 0.337127 -0.936002 -0.228782 0.461619 0.438059 -0.328437 0.298723 0.566568 0.50588 -1.04007 0.895137 0.0264028 -0.667683 0.214453 0.446079 -0.343594 -0.37536 0.0603486 -0.00553659 0.355955 -0.382045 0.811993 0.270025 -0.230216 -0.219078 0.0806692 -0.489997 0.0972016 0.181493 -0.135749 -0.485836 -0.672317 -1.13392 -0.63165 -0.180633 0.0434768 -0.204756 0.267177 -0.00676911 0.371356 0.330115 -0.23148 -0.37123 0.185198 0.0687668 -0.0829243 0.381849 -0.101739 0.848571 0.887771 -0.413972 0.0980118 0.0268327 -0.0297297 0.329299 0.144359 0.0265092 0.296058 -1.55132 0.0299626 -0.508003 0.39481 0.611928 -0.453918 -0.210977 -0.303128 -0.493125 0.564214 -1.16166 
8 -0.174419 -0.010618 0.657885 0.216277 -0.105005 -0.450026 -0.0651357 -1.19225 0.00151803 0.222467 -0.557244 -0.551142 0.721466 0.110991 0.308511 0.158183 0.684034 -0.666109 0.244097 0.301169 -1.06034 0.132999 0.698868 -0.00883694 0.16624 -0.428863 0.486377 0.177496 0.203949 -0.589484 -0.0347829 0.212741 -0.780208 0.601767 0.615297 -0.122012 1.11437 0.479902 -0.267334 0.476935 0.229239 0.566098 0.0621388 0.238311 0.337265 0.0759794 0.651285 0.725331 -0.224999 0.798299 0.247666 0.047075 -0.551744 -0.149737 0.708834 -0.486115 0.142347 -0.00597504 0.350833 0.237236 0.638013 -0.299825 -0.0243741 0.638826 0.179471 0.232306 0.255702 -0.0274347 -0.833783 0.549585 0.521407 -0.443707 0.157501 -0.390017 -0.123065 -0.457469 1.36075 0.694176 0.206411 0.00129676 0.118899 -0.307023 -0.0636144 -0.225829 0.12971 0.093169 0.202544 0.29701 -0.843379 -0.626875 -0.70752 -0.140327 0.138629 -0.319772 -0.0266909 -0.30261 -0.519387 0.0569008 0.302815 -0.563001 -0.00605245 0.229225 0.169234 0.00203073 -0.381366 -0.207746 -0.666009 -0.158621 0.444357 -0.362622 -0.21411 -0.802266 -0.3553 0.571575 -0.489044 0.281541 0.188 0.00165829 -0.249881 -0.816826 -0.311538 0.234357 0.179428 -0.220716 -0.652156 -0.70399 0.0617071 -0.853766 
9 0.269719 -0.424482 0.122451 0.143587 -0.888327 -1.04541 -0.389036 -1.02939 -0.6091 0.31419 -0.492249 0.321515 0.328979 -0.607911 0.120836 0.132536 -0.240529 -0.470841 0.377003 0.755886 0.00516192 0.20454 0.701168 0.108153 -0.0451607 -0.324737 0.427772 0.310964 1.03191 -0.511398 -0.905092 0.256311 -0.492915 0.0805002 0.276757 -0.0145112 1.23546 -0.0778068 0.258396 0.609341 0.610946 -0.257675 0.276115 0.522559 -0.00302025 0.526675 0.780149 0.975326 -0.642368 -0.170803 -0.543704 0.809491 -0.550118 -1.08881 0.218526 0.311696 -0.987039 0.284364 1.16368 -0.302682 0.277448 -0.159067 0.254697 -0.228802 0.0528195 0.199932 0.316715 -0.420547 -0.445874 0.327095 -0.268965 -0.538877 -0.132684 0.156586 -0.241281 0.750244 0.553524 0.520797 -0.575097 -0.460029 -0.104916 -0.397751 -0.497815 1.28953 -0.132572 0.364262 0.166437 -0.924484 -0.180107 -0.895829 -0.301476 0.436682 -0.604124 -0.0631947 0.134841 -0.345745 -0.538017 -0.441911 -0.302487 -0.271669 -0.623127 -0.194204 0.300179 -0.415564 0.172535 0.254005 -0.558897 0.284402 -0.0171897 -0.674101 -0.351718 0.182078 -0.680007 0.455762 -0.00455272 0.498974 -0.242433 -0.388903 -0.104911 -0.811698 0.596576 -0.324745 -0.210584 -0.767098 -0.437551 -0.01244 -0.254546 -0.575985 
10 -0.252431 0.7623 -0.854729 0.572213 0.0529554 -0.370545 0.459644 -0.145387 0.0959187 -0.163167 0.486337 -0.549762 0.436494 0.190017 0.926252 -0.812985 0.140742 -0.110763 0.164578 0.800683 -1.05571 -0.0691842 -0.15484 0.182394 -0.0468426 0.21897 0.763207 0.119355 -0.10434 0.299747 -0.347594 0.246641 0.438368 0.648096 -0.107146 -0.309665 -0.0416648 -0.590152 0.0204703 -0.156582 0.580174 0.562544 0.473768 0.153613 -0.0122551 0.347032 -0.130297 0.789466 -0.347014 -0.350786 0.593327 0.266018 -0.457609 -0.0414552 0.0435669 -0.787755 -0.628478 0.349702 0.522137 0.195526 -0.346485 0.205493 0.473511 1.37088 -0.0607939 0.467557 -0.0713063 0.494995 -0.464165 0.505705 0.316999 -0.420736 0.472176 0.0858483 -0.521605 -0.359821 0.582069 0.615694 0.295857 -0.192701 0.931291 -0.0807739 -0.388499 -0.0420512 -0.101514 -0.550169 -0.115515 0.440746 0.0288719 -0.115857 -1.13353 -0.314177 -0.163452 -0.417675 -0.0185064 0.0498815 -0.0665079 -0.217557 0.331582 0.200126 -1.21908 -0.186071 -0.148166 -0.587989 0.151521 0.238255 0.0729722 0.419778 0.750571 0.0851666 0.320102 -0.0195862 -0.182299 0.572609 0.0092998 -0.270687 0.00147877 -0.582028 -1.09117 -0.833655 0.127547 -0.0700339 -0.678238 -0.326746 -0.404003 -0.140004 0.0133016 -0.752611 
11 0.544663 -0.147342 0.378324 0.399369 -0.566 -0.31375 -0.198362 -0.676803 -1.18756 0.327408 -0.249554 -0.0928137 0.731642 -0.452504 0.195594 -0.238994 0.081106 -0.561864 0.0235984 0.862846 -0.325307 0.306611 0.0847082 0.418726 -0.0932817 -0.751437 0.20536 0.451142 0.506461 -0.0785198 -0.236942 0.133575 0.0635724 0.293448 0.524601 0.0827402 0.458606 0.00964344 0.029923 0.0152628 1.07847 -0.0532921 0.198588 0.30907 0.0236667 0.479885 0.439008 1.05443 -0.227368 0.0205204 -0.454195 0.354421 -0.384863 -0.174846 -0.12699 0.256352 -0.996337 0.663135 0.275937 -0.0395534 0.393978 0.00959858 -0.323009 -0.297271 0.0181236 0.192005 0.24296 -0.336782 0.186762 0.120739 -0.718633 -0.103498 0.188259 0.360818 -0.755523 0.283089 0.39715 0.210502 -0.259853 0.080493 0.68098 -0.0854809 -0.622737 0.885609 -0.20415 0.0729893 -0.0320225 -0.545011 -0.360691 -0.329117 -0.356935 0.0337672 -0.565766 -0.3275 0.191035 -0.621668 -1.2103 -0.268226 0.0286042 -0.506508 -0.223403 -0.110859 0.700385 -0.140437 0.350796 0.544085 -0.441474 -0.0754983 -0.0093119 -0.494662 0.0569867 0.0552026 -0.60436 0.562535 -0.438387 -0.267511 -0.120138 -0.38922 -0.515047 -0.709661 0.573957 -0.451524 -0.269229 -0.234881 0.134524 0.0802887 -0.584174 -0.437051 
12 0.483764 -0.0273258 0.141318 -0.525668 -0.360214 0.0976659 -0.370817 -0.199143 0.402904 0.596516 0.0387343 -0.526352 0.491163 -0.116865 0.906659 -0.472299 -0.598113 0.299082 -0.396557 0.324743 -0.195135 -0.0388088 0.322874 -0.278331 0.268246 0.00263441 0.344781 0.383594 -0.242708 -0.359376 -0.257684 0.091576 -0.229295 0.60553 0.193881 -0.624165 1.21036 0.643434 0.0588546 0.841215 0.362018 -0.233117 -0.0270569 -0.11727 0.295123 -0.167266 1.23171 0.799887 -0.42892 0.712746 -0.330976 0.651098 -0.676204 0.0930516 0.150733 0.0967865 -0.388835 0.132711 0.627798 -0.0222047 0.154081 -0.230854 1.15482 0.593039 0.365064 0.105201 0.659462 -0.199755 -0.0236804 0.300061 -0.468852 -0.138332 0.769159 0.307167 -0.491321 0.242677 0.839532 -0.34981 0.262917 -0.229421 0.00357863 0.494594 0.121503 0.636816 -0.200712 -0.117425 0.482842 -0.707986 0.405469 -0.325346 -0.94421 -0.633554 -0.326345 0.0288238 0.0904816 -0.343688 -0.151347 -0.0463964 0.45495 0.111904 -0.309629 0.524693 0.00224969 -0.0283105 0.452318 -0.322288 0.209914 0.119423 0.642561 -0.488436 0.149216 -0.207614 -0.553824 1.01193 -0.602682 0.0142728 -0.512764 -0.725162 -0.0608582 -0.716453 0.300645 -0.20925 -0.507537 0.392418 0.426517 0.358814 0.1938 -0.314834 
13 -0.259694 -0.218877 -0.229608 0.0432069 -0.0440428 -0.223248 -0.546784 -0.162511 -0.161621 -0.04172 -0.51378 0.165636 0.157667 0.113303 0.281076 -0.575094 -0.281998 -0.25753 0.325262 0.014391 -0.0908332 0.462737 0.298707 0.097312 0.505816 -0.219428 0.316436 0.307381 0.233451 0.304533 -0.093552 0.354904 -0.452242 0.557999 0.360617 0.196386 0.488654 0.29699 -0.0229169 0.0618429 0.273328 0.400599 -0.188999 0.181404 0.381376 0.0866106 0.646179 0.538817 0.0374607 0.496416 -0.132102 0.331675 -0.134604 -0.334369 0.340487 -0.0310389 -0.303295 0.460513 0.133477 -0.198054 0.401625 -0.0276713 0.258318 0.39271 0.2089 0.189271 -0.00311091 -0.115246 -0.625787 0.397949 0.1765 0.255685 -0.239791 0.12291 -0.246048 0.201564 0.435913 -0.0946125 0.0248197 0.0667571 0.166546 -0.371761 0.42177 0.404843 0.0631658 0.340895 -0.162969 -0.19212 -0.66082 -0.257761 -0.162239 0.0696092 0.115342 0.390197 -0.61099 0.303809 0.152448 -0.0466743 -0.055204 -0.122966 -0.439976 0.0754135 0.189836 -0.487207 0.168582 0.32011 -0.380293 0.241969 0.589932 -0.720984 0.22845 -0.532392 -0.292737 0.492063 -0.24577 -0.110321 -0.472828 -0.176881 -0.278904 -0.774196 0.435836 -0.240774 -0.274392 -0.290985 0.083229 -0.385914 0.444673 -0.419881 
14 0.174617 -0.138414 0.983142 0.287369 -0.0181905 -0.551825 -0.0113001 -1.07058 -0.0516173 0.239656 -0.90026 -0.502164 1.03297 0.208021 0.0535093 -0.0155893 0.872322 -0.638652 0.354378 0.266068 -0.990862 0.199481 0.760836 -0.235221 0.215683 -0.260251 0.651189 0.283635 0.0240309 -0.488067 -0.0183243 0.594471 -0.616662 0.679616 0.375002 -0.273392 0.781694 0.573326 -0.554055 0.562552 0.51284 0.699316 -0.125425 0.241759 0.135632 0.142445 0.660575 0.624825 -0.220619 0.660915 0.341088 -0.0945866 -0.497209 -0.147412 0.70892 -0.216063 0.160978 -0.0247655 0.207629 0.0933675 0.351759 -0.193567 0.0469495 0.742815 0.1319 0.236599 0.515608 0.20159 -0.937858 0.508521 0.399981 -0.0406325 0.22246 -0.479382 0.0545712 -0.558929 1.29327 0.871414 -0.298865 0.050391 0.0835502 -0.207072 -0.344541 -0.0509608 0.215308 0.553421 -0.0458727 0.224984 -0.911801 -0.729617 -0.822968 -0.190227 0.252442 -0.262741 -0.1028 -0.593341 -0.573711 -0.253486 0.294767 -0.613881 -0.11263 0.221849 -0.209638 -0.0582648 -0.593122 -0.115621 -0.399475 0.0325689 0.353319 -0.34774 0.207858 -0.874567 -0.475207 0.546393 -0.46649 0.452879 -0.10884 -0.253849 0.0372179 -0.447031 -0.356106 0.2117 0.185476 -0.106555 -0.441977 -0.978532 -0.265211 -0.694081 
15 -0.294758 0.533701 -0.772606 0.494186 -0.0624172 -0.145086 0.465524 -0.149077 -0.0654306 -0.106037 0.443102 -0.501633 0.442046 -0.00483297 0.832132 -0.964894 0.0107892 -0.359936 -0.00652279 0.729423 -0.979374 -0.0869767 0.0654815 0.225151 0.000900795 0.19742 0.832364 0.0398651 -0.0989903 0.372797 -0.0758841 0.209686 0.355469 0.636551 -0.18311 -0.171313 0.262267 -0.455497 -0.0718146 -0.297328 0.745395 0.462924 0.307733 0.244824 0.0243288 0.257422 0.0991699 0.893187 -0.458399 -0.360573 0.315486 0.360274 -0.372851 0.223182 -0.0232403 -0.739667 -0.315667 0.550478 0.661948 0.132757 -0.508977 -0.0437294 0.469199 1.07172 -0.259095 0.30299 0.253224 0.326986 -0.531072 0.601573 -0.0177466 -0.481291 0.109935 0.233584 -0.359872 -0.31578 0.55673 0.861532 0.446273 0.00999167 1.08362 -0.00580311 -0.438729 0.0783137 -0.196874 -0.231071 -0.164875 0.295898 0.0759263 -0.283491 -1.15498 -0.314197 -0.285484 -0.429828 0.0207078 -0.124606 0.0620319 -0.196328 0.454397 0.00153464 -0.799809 -0.334372 -0.116969 -0.342899 0.179422 0.205228 0.0025578 0.121605 0.75484 0.0613721 0.302352 0.0991228 -0.500161 0.398361 0.14943 -0.266322 0.144466 -0.747569 -0.760468 -1.02595 0.437407 0.109677 -0.713215 -0.301576 -0.268977 -0.212457 0.22403 -0.913042 
16 0.488382 0.16996 0.237261 -0.512325 0.0137913 -0.511223 -0.201617 -0.868628 0.00610597 -0.124846 -0.56797 0.0618196 0.506678 -0.153391 -0.0819182 -0.479792 0.338046 -0.584286 -0.518014 0.343584 -0.489265 -0.366347 0.737025 0.580906 0.487946 0.0357032 0.34952 0.346747 0.332358 -0.0906225 -0.261037 0.6213 -0.521995 0.269376 0.0118584 -0.0661681 0.529227 0.352388 0.174679 -0.0259787 0.151985 0.0310888 -0.0548565 0.643737 -0.196679 0.317187 0.787258 0.614665 -0.397158 0.577323 -0.303106 0.237086 -0.333309 0.0424613 -0.342622 -0.181825 -0.334018 0.22934 0.439532 -0.0768203 0.0896139 -0.131907 0.0110775 0.352841 -0.344879 0.492408 1.00393 -0.28705 -0.547056 0.0608577 -0.465441 -0.0177993 0.405637 0.0350155 -0.638505 -0.257567 0.0872135 -0.201374 -0.379981 0.131149 0.400909 -0.691859 0.200656 0.762655 -0.428353 0.0850749 -0.14936 -0.372687 -0.0770487 0.0296624 -0.311929 0.220937 0.016903 0.0806917 0.326434 0.112753 -0.870112 0.120559 0.328047 -0.594183 -0.70016 0.184279 -0.0636206 -0.476299 0.684757 0.2632 -0.0858686 -0.4467 0.0187182 -0.390297 -0.17119 -0.244042 -0.332996 -0.121809 0.356078 0.0645152 0.834834 0.484778 -0.308018 -0.803297 0.621958 -0.249065 -0.131802 -0.21721 -0.21418 0.0635795 0.384589 -0.484628 
17 -0.314219 -0.239999 -0.131927 0.261227 -0.00495306 -1.01468 -0.176728 0.242403 0.361642 0.747542 -0.864414 -0.164217 -0.311327 -0.694338 0.493146 -1.27801 0.12899 -0.161598 -0.224188 0.546442 -0.823308 -0.11164 0.545427 -0.223537 0.68697 -0.367497 0.720697 0.266056 0.858389 0.0870497 -0.927356 -0.161433 -0.00795753 0.641637 0.194628 -0.34515 1.1831 0.317123 -0.251934 0.0794821 0.468303 0.160453 0.671223 0.804192 0.314356 0.202711 0.687137 0.78926 -0.204521 0.417157 0.223543 0.398801 0.246494 -0.130416 0.50316 -0.189842 -0.0557864 -0.161882 0.62506 0.211573 0.745124 0.186865 -0.874696 0.626186 0.137295 0.398072 -0.383307 -0.257299 -0.918363 0.118167 -0.0358461 -0.0453064 0.233742 -0.0503668 -0.743938 -0.635185 0.298683 -0.00727408 -0.0420037 -0.463408 -0.129998 -0.0345678 -0.0400124 0.280575 0.0725651 0.0822539 0.945029 -0.875243 -0.0675494 -0.628079 -0.0137114 -0.735143 0.333989 0.470478 0.262298 -0.224341 -0.332524 -0.52146 0.442425 0.406455 -0.312722 0.226092 -0.336337 -0.571426 0.0881362 -0.140045 -0.920704 0.191669 -0.171685 -0.17638 0.0524646 -1.08576 0.198336 0.963989 -0.438807 0.417398 -0.963546 -0.182823 -0.71415 -0.884819 -0.286949 -0.820467 0.0265711 -0.201391 -0.0794353 -0.612357 0.10235 -1.09596 
18 0.705318 0.255034 0.633387 0.209313 -0.216025 -0.943703 -0.481179 -0.940599 -0.668945 -0.0173054 -1.35785 0.680776 0.105024 -0.106665 -0.188497 -0.830227 0.0816543 -0.206289 -0.13689 0.449355 0.117717 0.534405 1.3006 0.352288 0.211746 0.147563 0.158396 0.715713 0.56189 -0.163004 -0.380749 0.361874 -0.509645 0.685051 0.462828 0.525695 0.655742 0.249076 -0.113121 0.969413 0.565715 -0.250872 -0.576624 0.534245 -0.10016 0.4661 0.597024 1.2823 -0.32674 0.208245 -0.302718 0.48077 -0.447828 -0.403448 0.239021 0.394823 -1.0704 0.718791 0.705431 0.149024 0.0173453 0.125209 0.222779 0.47702 -0.420545 0.49782 0.306288 -0.497348 -0.326518 -0.147835 -0.679494 -0.0102546 -0.245006 0.050953 -0.309328 -0.0183727 0.32607 -0.0572844 -0.895709 0.0404906 0.421514 -0.905945 -0.629124 0.982734 -0.938909 -0.198443 0.314299 -0.0443738 -0.50803 -0.715568 -0.281321 0.131649 -0.148987 -0.0211418 0.21404 -0.306844 -1.20576 0.371735 0.195912 -0.699638 -0.330286 0.229405 -0.239349 -0.396215 0.4569 0.169954 -0.206633 -0.447438 0.287428 -0.933679 -0.148962 -0.50704 0.0147153 -0.0828736 -0.93528 0.313747 0.025133 0.219661 -0.28281 -0.894231 0.566335 -0.596398 0.199721 -0.507457 0.403037 0.133505 0.394031 -0.0281262 
19 -0.0348376 -0.339399 -0.265822 0.146492 -0.151585 -0.586848 -0.200958 -0.633206 0.140294 -0.252752 -0.821702 0.568891 0.516229 -0.143376 0.660068 -1.39533 -0.316167 0.135043 0.647029 0.782787 0.0491617 0.168358 0.417675 0.00220723 -0.226109 -0.240296 0.707969 0.593022 -0.416042 0.0298956 0.23821 -0.135806 -0.429639 1.05426 0.144553 0.256629 0.431386 0.224376 -0.355748 0.119577 0.361489 0.34764 -0.0605023 0.0350415 -0.127101 0.00320785 1.05188 0.970181 -0.663677 0.280841 -0.281195 0.404003 0.0210813 -0.0881561 0.448354 -0.620948 -0.11816 0.0243004 0.616487 -0.148369 0.8227 0.507612 -0.0294751 0.627009 0.283455 -0.194769 -0.030934 -0.321509 -0.376919 -0.209168 -0.0736768 0.139054 0.0169368 -0.197009 -0.527302 -0.0906265 0.678233 0.0481312 0.0153018 -0.175456 0.245537 0.0109034 0.144631 0.0132154 -0.0240382 0.325362 -0.131066 -0.130091 -0.050105 -0.576805 -0.663782 -0.393377 0.109438 0.680044 -0.326972 -0.292547 -0.506661 0.115762 -0.105347 0.301347 -0.639036 0.844684 0.12806 -0.811484 -0.0162484 0.148895 -0.315661 -0.193274 -0.187636 -0.532663 0.269615 -0.658684 -0.546187 0.295536 -0.479069 -0.437719 -0.122194 -0.217524 -0.753111 -1.49204 0.0478667 -0.246873 -0.0559983 -0.21732 0.382893 -0.135738 0.185179 -0.951533 
20 0.0370913 -0.189559 0.111775 0.384698 -0.0644649 -0.912016 -0.0609679 -0.0833256 0.263462 0.645341 -1.18222 -0.15129 -0.16591 -0.357681 0.764961 -1.01894 0.0144418 -0.238632 -0.289798 0.560866 -0.633823 -0.0973549 0.287126 -0.32593 0.582854 -0.291125 1.04016 -0.0233232 0.459101 0.142838 -0.317994 -0.271847 -0.296377 0.932646 0.475289 -0.104888 0.972442 0.0663509 -0.337942 0.304311 0.0882461 0.240451 0.369896 0.411416 0.767784 -0.0495106 1.20067 0.724912 -0.584 0.351925 0.301138 0.799465 0.287697 -0.122997 0.188849 -0.466515 0.117237 -0.406894 0.510139 -0.0611296 0.983986 -0.044492 -0.518781 0.664603 0.0167288 0.282985 -0.185821 -0.242706 -0.571886 0.334453 -0.122243 -0.134793 0.20815 0.168479 -0.575873 -0.39811 0.216048 0.398175 -0.285315 -0.420639 0.0138279 0.180164 -0.172554 0.390846 -0.285225 -0.0610449 0.575429 -0.566585 0.11649 -0.929738 0.00766385 -0.521575 0.087977 0.0395769 0.254592 -0.237869 -0.535596 0.102002 0.566245 0.212517 -0.394392 -0.0981807 -0.21784 -0.462734 -0.370055 0.210511 -0.460227 0.297518 -0.0629403 -0.179135 -0.144291 -0.938539 0.126018 0.871295 -0.229382 0.0547572 -0.868374 -0.354001 -0.438641 -1.12877 -0.0653427 -0.35188 0.285928 -0.0568038 -0.236555 -0.723422 -0.0837416 -0.534542 
21 -0.000191626 0.235645 -0.124371 0.115667 0.0176832 -0.541773 0.395861 -1.05536 -0.243818 0.181636 -0.148435 -0.273429 1.33446 0.237981 -0.319388 0.131589 0.330637 -0.17148 0.0818786 1.4939 -0.561125 0.160174 0.0720955 0.0284646 0.427556 -0.0143467 0.643209 -0.415488 -0.0977719 0.0364256 -0.444357 -0.4045 -0.236554 0.287552 -0.0513242 -0.377095 0.63288 0.760603 -0.148043 0.0722015 0.321259 0.150687 1.34005 0.0934424 -0.544152 -0.490019 0.94696 1.1684 -0.648256 0.164976 0.0396565 0.0960007 -0.373213 -0.359104 0.821126 -1.00364 -0.30598 0.228727 0.582457 -0.279697 0.984126 0.270195 -0.171588 0.377318 -0.236796 -0.0481189 0.0209923 0.25065 -0.0872438 -0.200174 0.324549 -0.557974 -0.325473 -0.81703 -0.00918784 -0.181227 0.653159 0.232602 -0.0631705 -0.207771 0.470004 0.00354078 0.0648337 0.460351 0.0574225 -0.499111 -0.54381 -0.780545 -0.294292 -0.256712 -0.903545 0.3309 0.364428 -0.30332 -0.364046 0.0580656 0.204439 0.0340164 0.615629 -0.516283 -0.887998 0.276816 0.26065 0.056096 -0.191802 0.917282 -0.510376 0.160878 0.666486 0.167295 -0.405896 -0.436937 -0.42419 0.220302 0.198294 0.0656478 0.159678 -0.553011 -0.468313 -0.852196 1.08399 0.31263 -0.791551 -0.784175 -0.169394 -0.090295 -0.236085 -0.812475 
22 -0.639625 0.570938 -0.616032 1.00949 0.24519 -0.405878 0.284645 0.132979 -0.741416 0.0328124 0.463275 -0.3131 0.173973 0.279416 0.42296 -0.708322 0.360768 -0.853769 -0.266283 0.202057 -0.928291 -0.712639 -0.283806 -0.797533 0.363755 0.152441 0.502156 0.708711 -0.46557 -0.134743 0.292704 0.400224 0.106276 0.148033 -0.0126554 0.084759 0.735041 -0.110603 -0.473424 -0.567981 0.910537 0.260532 0.472978 0.713041 -0.288303 -0.126654 -0.387283 0.631242 -0.311008 -0.738184 -0.413908 -0.215072 -0.384041 0.252913 -0.169792 -0.620041 -0.398226 0.694014 0.618119 0.348115 -0.397114 -0.0567093 0.41214 0.752914 0.159457 0.316126 0.592852 0.0472043 -0.573614 0.645539 0.537727 -0.067703 -0.153876 -0.0844668 -0.537608 -0.0810971 0.323673 0.466594 0.216208 0.411446 1.46873 -0.202766 -0.404599 -0.425467 -0.086595 -0.431161 -0.219801 0.0223635 0.108449 -0.676147 -0.984462 -0.62419 -0.236066 -0.73355 0.0413652 0.0180936 -0.520679 -0.0662801 0.281 -0.0659797 -0.83208 -0.422148 0.182927 0.763589 0.351198 0.11446 -0.280793 -0.41476 0.299047 -0.411847 0.472649 0.479432 -0.439561 0.53352 0.452465 0.111069 0.390454 -0.906268 -0.485105 -1.28053 0.591638 -0.408513 -0.164528 -0.142951 0.0414703 0.266259 0.0568699 -1.07606 
23 0.382984 0.438402 0.746823 -0.0571958 0.121199 -0.536763 -0.0859558 -0.209553 -0.177248 0.974264 -0.911948 -0.519182 0.207034 0.111569 0.752193 -0.550262 0.486488 -0.441508 -0.212282 0.333585 -0.808607 0.282934 0.457503 0.110268 0.155879 0.462133 -0.0927865 0.588539 0.766846 -0.115435 -0.104323 0.0367949 -0.325163 0.851366 -0.245113 0.0163466 0.88202 -0.0529408 0.0375885 -0.0387235 0.472281 -0.0032535 0.970461 -0.240015 0.72604 0.273239 0.692495 1.20402 -0.038289 0.424719 0.375082 -0.21115 -0.179895 -0.0856075 0.0103074 -0.0584894 -0.313144 0.173944 0.461263 0.255035 0.429431 -0.167684 -0.305509 0.660485 0.360553 0.243799 -0.0301702 -0.574017 -0.0619278 -0.0313635 -0.54503 -0.353144 0.201565 -0.0781731 -0.293156 0.491721 0.0674448 0.0737716 -0.205186 -0.0919566 0.380766 -0.0677735 -0.913339 0.266333 -0.338887 0.499684 0.628721 -0.355403 -0.694799 -0.160107 0.127022 0.431348 0.185479 0.100409 -0.142081 -0.229709 -0.78573 0.277805 0.596576 -0.0206994 -0.596146 -0.711757 0.401979 -0.589919 0.0378233 0.0835933 -0.102402 -0.39719 0.297772 -0.367491 0.0402428 -0.406706 -0.467885 0.33315 0.0863045 -0.017223 -0.621195 -0.903863 0.208359 -1.32099 0.19452 -0.250939 -0.00251497 -0.648773 -0.639397 -1.02786 0.166378 -0.0812518 
24 -0.437968 -0.20143 -0.0802341 0.335793 0.450727 -0.232113 0.539638 -0.0835931 -1.23615 0.669678 -0.467415 -0.272065 0.601058 0.219394 -0.412614 -0.00621635 0.478156 -0.0376381 0.445047 0.562789 0.0452329 0.0998723 0.822235 0.868389 0.507584 0.0960933 -0.251836 0.866618 0.572537 0.122345 -0.247427 -0.546204 -0.0176985 0.543889 -0.426777 0.222664 0.683086 0.691956 0.324234 0.764769 0.519432 0.153032 0.0350247 -0.117941 -0.05746 0.0512964 0.63858 1.3562 0.552929 1.39086 0.327132 -0.787471 -0.725799 -1.56289 0.376515 -0.387225 -0.771353 -0.267675 0.199337 -0.511403 0.821081 0.181729 0.428604 0.131556 0.273073 0.81744 -0.131273 -0.269835 -0.237419 1.06663 -0.0044431 -0.160872 -0.128149 -0.198679 -0.66211 -0.730972 0.572994 0.112437 -0.457532 -0.037342 0.76676 0.0732426 0.169287 -0.747112 -0.45915 0.106496 0.066937 -0.372611 -0.585771 -0.409837 -1.05457 -0.376007 -0.498334 0.284254 -0.262111 -0.158609 -0.650723 0.301082 0.755047 0.205293 -0.529355 0.58038 0.0922 -0.511376 0.380111 1.03158 -0.101863 -0.405761 0.78313 -0.243735 0.430251 -1.15795 -0.511097 0.347327 -0.478384 -0.339005 0.575902 0.222512 -0.738297 -1.00347 0.00673462 0.0483773 0.102628 -0.461767 -0.694292 0.0423328 -0.662016 -0.568289 
25 0.0607035 -0.0441385 -0.43626 -0.187115 -0.246826 0.303395 -0.677004 -0.496146 0.210892 0.609306 -0.76124 -0.413658 0.833259 -0.0489222 0.125397 -0.900288 -0.389228 -0.0756769 0.519639 -0.35663 0.433635 -0.5283 1.37575 -0.14205 0.477809 -0.575374 0.576347 0.366281 0.295374 -0.153472 0.206077 0.00524369 0.338526 0.14519 -0.690659 -0.462629 0.929731 0.658959 -0.0604726 0.470291 0.116845 0.227389 0.16085 0.355744 -0.526358 -0.255024 0.329058 1.36607 -1.08404 0.646293 -0.0614648 0.392176 -1.02872 -0.256201 0.492533 0.0596026 -0.282035 0.123435 0.438191 -0.273013 0.832505 -0.324992 0.676711 0.668641 0.384044 0.0505646 0.66995 -0.648004 -0.381225 0.519326 -0.623843 -0.0140322 0.951912 1.08627 -0.538848 -0.0951907 0.462915 -0.184384 0.306554 -0.650312 1.55952 -0.199407 0.237723 0.529497 -0.283874 0.265543 0.12404 -0.492932 -0.329658 0.236014 -1.23872 -0.932463 -0.310405 -0.2022 -0.134947 0.43118 0.0237928 -0.177236 0.778203 -0.140769 -0.081614 0.190505 0.492442 -0.0230079 0.671606 -0.307494 -0.253468 -0.467132 0.0319123 0.017462 0.359055 -0.673923 -0.493072 1.10061 -1.10624 -0.996064 -0.198659 0.0211238 -1.00238 -1.0393 0.351918 0.0826252 -0.206089 -0.00538874 0.0131843 -0.526958 0.367778 -0.354676 
26 0.378266 0.258442 -0.299977 -0.0526604 -0.602091 0.173639 0.649649 -0.384508 -0.688557 0.698178 -1.37955 -0.9042 0.572448 -0.436375 0.260296 -0.662272 -0.447643 -0.00927645 -0.204562 0.098839 -0.0769438 -0.222375 1.29801 0.19269 0.511751 -0.213811 0.909391 0.568874 0.996469 0.194891 0.826084 0.719217 -0.542044 0.0170489 -0.140183 -0.100024 0.605238 0.704749 -0.0775209 0.623564 0.554083 0.519325 0.491689 -0.275878 0.910605 0.867324 1.12938 0.745455 -0.291614 0.74799 0.0391851 0.0173986 -0.596319 -0.80317 0.373666 -0.5279 -0.151495 0.296023 1.03458 -0.284556 0.671089 0.428625 -0.590009 0.600282 -0.28675 0.512615 0.173329 -0.320249 -0.28623 0.208089 -0.00488283 -0.671015 0.535914 0.860046 -0.261941 -0.264361 0.76447 0.143766 -0.0887055 -1.22554 0.459912 -0.303297 0.166598 0.13398 0.231995 0.218956 -0.411189 -0.828315 -0.739323 0.150555 -0.28508 -0.997527 -0.0442051 0.41197 0.0574445 -0.782042 0.0206012 0.374766 0.679698 -0.0738995 -0.311155 -0.404195 -0.706579 -0.134393 -0.247771 1.20281 -0.171063 -0.144052 0.103062 -0.0646562 -0.120551 -0.765915 -0.192162 0.521287 -1.45769 -0.385129 0.295397 0.244637 -0.901583 -1.05214 0.198307 0.694364 0.306206 -0.35974 -0.095782 -0.18565 -0.664019 -0.0559524 
27 -0.0455471 0.153737 0.136632 0.297902 -0.240232 -0.0985562 0.26675 -0.0705774 -0.607069 0.122141 -0.379702 -0.202724 0.308565 -0.403047 0.323051 0.0140193 -0.141618 -0.164771 -0.15062 0.595223 -0.280498 0.116783 0.593581 0.638824 0.263296 0.000605744 0.402591 0.595904 0.435 -0.512821 -0.466126 0.297926 -0.124673 -0.218331 0.142482 0.480902 0.417896 0.521655 0.187039 0.755871 0.570938 -0.21 0.0358423 0.00829517 0.121469 0.821025 0.124559 0.885016 0.0221354 0.0912661 -0.31033 0.267703 -0.464993 -0.286604 0.0634407 -0.125944 -0.325917 0.374866 0.0159471 -0.13078 0.154635 -0.0227259 -0.0233334 0.0131882 -0.217141 0.259858 0.173094 -0.116586 -0.00290592 0.00510424 -0.284291 0.128956 -0.0215842 -0.128625 -0.22094 -0.0143625 0.413287 -0.167753 -0.680747 0.342041 0.434883 -0.106002 -0.25646 0.113032 -0.498336 0.0296254 0.128707 -0.111401 -0.36094 0.143204 -0.38425 0.260896 -0.373036 -0.276777 -0.119521 -0.363216 -0.347296 -0.226506 0.012659 -0.9098 -0.426029 0.171945 -0.129063 -0.181348 0.101236 -0.095551 -0.665484 -0.294151 0.0573272 -0.171858 0.0643828 0.0186797 -0.233466 -0.0130851 -0.365019 -0.217354 0.266748 -0.330127 -0.127596 -0.73885 0.369632 0.318745 -0.345163 0.0476526 0.191985 -0.0913698 0.259134 -0.70197 
28 0.1837 0.415586 -1.01951 0.920371 -0.257365 0.207289 0.466805 -0.452893 0.11463 -0.555637 0.166124 -0.595587 0.00980125 -0.22839 0.557343 -0.397637 0.255939 -0.703759 0.105631 -0.0454489 -0.689123 -0.82333 0.138974 -0.114779 0.678165 0.615087 0.72902 0.445696 0.183645 -0.127628 -0.340174 0.0861251 0.340122 0.052944 0.495312 0.534872 0.407572 -0.297673 -0.209522 -0.446752 0.797989 -0.0930767 0.136862 -0.0369751 -0.935732 0.503996 -0.290456 0.812822 -0.851609 0.139836 -0.0569196 0.399923 0.350872 0.391727 0.0814768 -0.581147 -0.368225 0.959087 0.438871 -0.0168727 -0.522803 -0.156948 0.600182 1.80169 -0.135163 0.0751956 0.270634 0.311053 -0.143923 0.466064 0.171822 -0.194518 0.163182 -0.403467 -0.8757 0.177856 0.378096 0.0176029 0.418503 0.272352 1.02156 -0.376226 -0.254949 0.00157691 -0.335667 0.171898 0.310123 0.572995 0.468532 -0.658645 -1.25016 -0.30104 -0.078201 -0.548038 0.248761 -0.215304 -0.446892 -0.104009 0.975449 -0.165245 -0.508646 -0.288428 0.38964 -0.184415 0.00902916 -0.113536 0.218735 0.0365125 0.347312 -0.318006 0.205512 0.0202634 -0.103298 0.374768 0.415324 -0.0486675 0.303656 -0.757635 -0.334248 -1.25792 0.292244 -0.118046 -0.36176 -0.451025 -0.0459075 0.520859 0.806235 -0.330979 
29 0.265803 0.450494 0.102905 -0.484809 -0.326276 -0.776316 -0.766803 -0.11994 -0.495131 0.428566 -0.56252 0.623914 0.523607 0.312744 0.00341686 -0.335997 -0.39053 -0.253263 0.280818 0.757592 -1.05157 0.253718 0.656277 0.481468 -0.207924 0.46028 0.377687 0.190538 0.283718 -0.588756 -0.54057 -0.0260577 0.0240572 0.5504 0.504733 0.0958386 -0.0858179 0.648027 0.264137 0.117698 0.303114 -0.206008 -0.170368 0.371437 0.0842544 0.36751 0.956267 1.24419 -0.249968 0.731976 0.00199847 -0.26405 -0.283971 -0.59875 0.218122 -0.120315 -0.259686 -0.291814 1.27512 0.0234083 0.490591 -0.28446 0.12538 0.617614 0.0072569 1.04702 1.00314 -0.184707 -0.674482 0.521237 -0.0655807 -0.778497 0.499536 0.0694726 -0.676493 0.139693 0.254596 0.150636 -0.259889 -0.131737 0.992296 -0.130219 -0.256341 0.0142872 0.130045 -0.148246 0.388079 -0.18414 -0.414159 -0.606055 -0.5331 -0.229532 0.075468 -0.275162 0.182423 -0.385787 0.171819 0.812146 0.421027 -0.858968 -0.646313 0.458725 0.396599 -0.18525 0.0472781 -0.212141 -0.37452 -0.748286 0.177827 -0.966142 0.424516 -0.143155 -0.268664 0.673409 -0.495764 -0.12483 -0.104028 0.413673 -0.167488 -0.428048 0.070223 0.10464 -0.160248 -0.560507 -0.0406626 0.025445 -0.386896 -0.857959 
30 0.274662 -0.830662 0.833955 0.11209 -0.834092 0.825507 0.40591 -0.376499 0.916642 1.13098 -0.720724 0.166232 0.328498 -0.159949 0.614998 -0.526595 -0.154843 -0.0477721 -0.0733265 0.21228 -0.307644 -0.0749372 1.81905 -0.167911 -0.141954 -0.590783 0.521142 1.25121 0.874048 0.0643566 0.104667 -0.834333 -0.353547 -0.106809 0.145152 -0.304545 1.21828 0.456242 0.0903207 0.793016 1.07516 -0.0668122 -0.618075 1.14373 -0.5732 0.0692454 1.10841 0.71431 -0.573563 1.45114 -0.238358 -0.132811 -0.104001 -0.684464 0.781849 -1.46293 -0.31516 0.0953645 0.433711 -0.435933 -0.0424522 0.240984 -0.269931 0.730214 0.0771427 0.601411 0.392767 0.566149 -0.223372 -0.137947 -1.58942 0.105336 1.41246 0.160416 -0.39426 -0.65046 0.597797 -0.313396 -0.3734 -0.538224 1.4144 0.27259 0.495779 0.326962 -1.16507 0.283524 0.423858 0.410979 -0.234618 0.044425 -1.044 0.156715 -0.181582 -0.72176 0.223203 -0.451379 -0.342845 0.628722 0.803254 -0.238671 -0.384149 -0.190316 -1.07242 -0.85107 -0.0280411 0.0368565 -0.898354 -0.0697306 -0.661535 0.0659496 0.590319 -0.385361 -0.516943 -0.0245314 -0.73406 0.188538 -0.53869 0.347705 0.421408 -0.667074 0.0896629 -0.222456 -0.198033 0.50166 -0.390509 -0.126538 -0.366229 -0.120984 
31 0.149467 0.104094 -0.156922 -0.892757 -0.534644 0.250423 -0.305752 0.393018 -0.148067 0.921791 -1.01342 -0.280062 -0.351202 -0.443463 0.776829 0.11562 0.147425 0.547632 -0.301126 0.241432 0.715295 0.246626 0.885642 -0.187777 0.0191757 -0.756943 0.976468 1.25017 0.40157 0.741776 -1.06515 -0.524813 0.73538 -0.367481 -0.353937 -0.550672 1.77483 1.0197 0.461417 0.694914 0.575576 -0.687164 -0.0550876 1.03746 -0.203591 -0.102346 1.1838 0.919415 0.392246 1.13729 -0.945417 -0.114365 -0.348896 0.210694 0.743879 -1.24248 -0.332591 -0.413153 0.608891 -0.354794 0.286331 0.365616 -0.45756 0.588401 0.102331 -0.345551 0.00529746 0.320845 0.4433 -0.224318 -0.831066 -0.427638 1.58323 -0.305829 -0.436452 -0.922123 0.717799 -0.756583 0.655694 -0.886783 0.874263 0.376741 -0.570375 -0.499602 -0.952011 0.129456 0.674898 -0.208713 -0.739864 -0.170483 -1.65319 -0.0129608 0.0165364 -0.0649943 -0.237619 -0.593282 -0.488158 0.2979 0.0614952 0.564749 -0.516941 0.290383 -1.23256 -0.814187 0.162151 0.0372609 -0.816909 0.223181 0.161196 -0.329711 -0.0859808 -0.981917 -0.233604 -0.326537 -1.03749 0.198156 -0.216981 0.181294 -0.467223 -0.405146 0.203572 0.385806 -0.601483 0.172565 -0.297502 0.187503 -0.0724626 -0.520351 
32 -0.609171 -0.254203 -0.0752962 0.540933 -0.601878 -0.490679 1.34749 0.210635 -0.618563 -0.0758817 -0.654317 -0.91123 1.84161 0.303871 -0.523664 -0.135875 0.465966 -0.0455178 0.413626 0.870453 -0.48592 -0.405398 0.0646885 0.0834417 0.7655 0.0650084 -0.118291 1.02668 0.158903 -0.86417 -0.092803 -0.402192 1.07145 0.640201 -0.117465 -0.0347533 1.05054 0.480899 0.265488 -0.888933 1.16333 0.682407 0.39956 -0.0811883 0.285983 -0.139438 0.843569 1.24067 -0.669147 0.82291 -0.0121126 -0.551365 -0.718423 -0.0276344 -0.388329 -0.692904 -0.493606 -0.6499 0.4276 0.279223 0.895885 -0.187821 0.120827 -0.125872 -0.0911221 0.163765 -0.171308 -0.409508 -0.273136 0.400598 -0.153462 0.119283 -0.261279 -0.878523 0.0174999 0.44446 0.422444 0.665746 -0.178818 -0.564114 0.640661 -0.317794 0.124563 -0.862227 -0.463591 -0.244814 -0.37683 -0.846727 0.161775 -0.417212 -1.00598 -0.049025 0.204621 -0.214625 -0.570114 -0.604801 -0.378671 -0.634507 0.311063 0.917283 -0.916801 0.398758 -0.0472798 -0.468467 0.113158 1.19028 -0.638652 -0.240082 1.25518 -0.700877 -0.302073 -0.63796 -0.980646 -0.0753225 0.0135232 -0.304411 0.62983 -0.00835257 -0.0127567 -1.0609 0.228327 0.41861 -0.306739 -0.996492 0.353095 0.429613 -0.213583 -0.981188 
33 -0.115799 -0.199334 -0.088548 0.409305 -0.319125 -0.60485 -0.375588 -0.771855 -0.378107 -0.00133784 -0.134427 0.0462185 0.408379 -0.533491 0.212646 0.234417 0.093582 -0.271255 0.255326 0.516506 -0.0165091 0.0802719 0.52259 0.152477 0.16882 -0.0198878 0.549705 0.0441822 0.79393 -0.384902 -0.565962 0.343873 -0.266215 0.302624 0.0814747 -0.04525 0.478797 -0.115471 0.205335 0.349847 0.453505 -0.0917092 0.2344 0.216148 0.156682 0.300348 0.743866 0.93707 -0.376712 -0.0479492 -0.0537029 0.547314 -0.514997 -0.866289 0.0629847 0.244351 -0.449376 0.283822 0.56116 -0.367387 0.14958 -0.168653 0.154731 -0.100204 0.0571341 0.1396 0.0427767 -0.0970665 -0.537693 0.291581 -0.101756 -0.33566 -0.0969266 0.161238 -0.305922 0.452139 0.570473 0.358568 -0.178281 -0.321932 0.153224 -0.213028 -0.150186 0.655823 0.279247 0.2461 0.182725 -0.575754 -0.468474 -0.636959 -0.24615 0.425654 -0.763629 0.031361 0.0468932 -0.122248 -0.0995815 -0.342619 -0.164811 -0.196848 -0.413944 -0.0637424 0.237306 -0.321715 0.147566 0.218711 -0.42963 0.294198 0.450662 -0.554883 -0.271321 0.144985 -0.331364 0.301153 -0.0410232 0.0859387 -0.4148 -0.100924 0.0723315 -0.717099 0.40724 -0.0136968 -0.19294 -0.459502 -0.193641 -0.0129445 -0.133812 -0.239773 
34 -0.600237 0.609313 -0.536031 -0.184523 -0.689668 -1.1935 0.0642059 0.341102 0.0451103 -0.503281 0.0141056 -0.876791 -0.0158282 -0.771141 0.956236 0.399899 0.494581 -0.216419 0.386846 0.849026 -0.359399 -0.956362 0.233731 -0.0220089 1.02271 -0.475753 0.194836 0.763365 -0.314235 -1.05178 -0.100293 0.165506 1.42344 0.747951 -0.31562 0.41775 1.10006 0.221362 -0.469957 -1.05073 1.34124 0.751423 -0.115384 0.170024 0.347433 -0.539716 1.17645 0.548561 -0.611427 1.31334 0.158033 0.548279 -0.740023 0.253942 -0.0273271 -0.246915 0.127986 -0.608381 1.08213 -0.0768802 -0.0243936 -0.482754 0.107332 0.92582 0.298203 -0.700644 0.170164 -0.257146 -0.746661 0.707294 0.142419 0.261939 0.0633409 -0.0794711 -0.212758 0.174401 0.349682 0.711579 0.811053 -0.460432 1.17252 0.172853 0.141751 -0.716534 0.0683657 0.17646 0.000521956 -0.172386 -0.603125 -0.552282 -0.605112 0.363071 0.309702 -0.902201 0.103377 -1.0242 0.448489 -0.231608 -0.188094 0.883578 -0.307654 0.548514 -0.385967 0.628073 -0.195628 0.054485 -0.722278 0.29763 0.842866 -0.450949 0.278069 -0.738643 -0.912723 0.550001 -0.00183201 0.539125 0.727988 -0.699884 -0.0898262 -0.736827 0.617662 -0.236093 -0.405607 0.115677 0.333413 -0.348076 0.754811 -0.509749 
35 0.0946981 -0.0816769 0.17319 0.182902 -0.581275 -1.17883 -0.399899 -0.595847 -0.0729233 0.0763805 -1.48687 -0.601771 -0.0177027 -0.142887 -0.0253799 -0.608427 0.323863 -0.636474 -0.665892 0.280493 0.141543 0.375965 1.04341 0.647976 0.423214 -0.0469885 0.556978 0.632613 0.661505 0.0932473 -0.691068 0.415037 -0.797275 0.883854 0.4838 -0.635622 0.994878 0.561618 0.0873861 0.835463 0.436374 -0.129553 -0.171477 0.281888 0.555914 0.421077 1.23702 1.14703 -0.387548 0.681479 0.0447118 0.210931 -0.0418626 -0.109004 0.126341 -0.0884701 -0.700127 0.181413 0.429643 0.100481 0.658307 -0.308365 -0.319105 0.683747 -0.417308 0.407623 -0.200625 -0.365425 -0.265187 0.285943 -0.443211 -0.305489 0.432995 -0.0199289 -0.402045 -0.106839 0.346066 0.55275 -0.838883 -0.333859 0.0317778 -0.229012 -0.359628 0.523089 -0.542414 0.354423 0.422872 -0.584809 -0.117085 -0.693626 -0.64583 -0.104365 -0.10671 0.188379 0.166809 -0.597886 -0.445318 0.75335 0.949177 -0.432995 0.00727252 -0.70962 -0.447498 -0.253169 -0.22357 0.251626 0.175814 0.583422 0.696048 -0.152474 -0.155101 -0.544478 0.0323438 0.3284 -0.198968 -0.0455236 -0.962941 0.570139 -0.300277 -1.03662 0.268599 -0.694301 1.18712 -0.328685 -0.0774663 -0.978263 0.266051 -0.189714 
36 -0.21975 -0.135768 0.203663 0.572495 0.130351 -1.10983 0.0187947 -1.30471 0.033658 0.23593 -1.36032 -0.636929 -0.252933 -0.422573 -0.234544 -0.789636 0.906298 -0.375297 0.00350708 0.400793 -0.857786 0.739989 0.974718 0.185499 -0.187048 0.495867 0.778837 0.616606 0.205489 -0.18661 -0.443174 -0.380494 0.0256727 0.765625 0.217082 -0.111969 0.930972 0.24516 0.23672 0.422193 0.401807 0.584792 -0.0751932 0.284363 -0.0723644 0.23638 1.02942 1.50173 -0.460999 0.223238 0.27388 0.0118245 -0.510047 -0.145895 0.707937 -0.320167 -0.473121 0.476401 0.682967 -0.408844 0.599794 0.164218 0.465233 0.289662 -0.740101 0.528509 0.548395 -0.711257 -0.769923 -0.587044 -0.721828 0.267011 -0.253844 0.232181 -0.519174 -0.384883 0.121677 0.0186504 -0.629118 -0.704992 0.384265 -0.476111 -0.19188 0.467542 0.197989 0.0129258 0.265316 -0.041658 -0.151917 -0.204561 -0.418975 -0.235497 0.0111572 -0.136536 1.00477 -0.073275 -0.344974 0.694482 0.86725 -0.0232888 -0.642658 0.103954 0.279844 0.134807 0.0332338 -0.162476 -0.516568 -0.0757432 0.169674 -0.668932 -0.243801 -1.05362 0.186749 0.414197 -0.631679 -0.342442 -0.724035 0.0154494 0.220572 -1.01688 0.331577 -0.644026 -0.0293039 -0.76965 -0.105136 -0.157596 0.281495 0.328697 
37 -0.61596 0.42861 -0.0962732 -0.47903 0.0967588 -0.0857606 0.345864 -0.649003 -0.735448 -0.0960485 -0.217682 -1.01332 0.876396 -0.397855 0.492268 -0.940342 -0.0840458 0.344502 -0.167408 0.450718 -0.671613 -0.576486 -0.0962701 0.807472 0.564254 -0.0348936 0.442379 1.13446 0.550916 -0.0526098 -0.25875 0.134561 0.081191 0.434691 0.0299315 -0.559863 1.79557 0.918388 0.0399678 -0.240836 0.184202 0.0824802 0.436504 0.416979 0.0218981 -1.10903 0.491579 0.751465 -1.02107 0.975762 0.149942 0.70147 0.403985 -0.23799 -0.073908 -1.63053 -0.565129 0.0745549 0.0223677 0.404936 -0.0139992 0.368599 0.266716 0.744898 0.075663 0.0996081 1.05781 -0.765171 -0.531749 -0.234149 0.572058 -0.586729 0.516483 -0.16047 0.114842 -1.53707 0.597015 0.211757 -0.0868769 -0.197137 1.15805 -0.32484 -1.28771 -0.741067 0.111278 0.767484 0.0733045 -1.19166 -0.585267 0.00633995 -0.403779 0.49573 -0.143873 -0.765675 -0.149512 -0.949948 -0.285352 -0.033474 0.588706 0.726073 -0.790137 0.536765 0.0495003 0.757434 0.163433 -0.0267146 -0.40267 0.141621 -0.0898045 0.206313 0.340697 -0.177447 -0.618582 0.718393 0.0595561 -0.123645 -0.0832792 -0.658405 -0.0990578 -0.939572 0.850827 0.515625 -0.16848 -0.323573 -0.61561 -0.252549 -0.260151 -1.03652 
38 -0.126202 -0.0847218 0.126222 0.241255 -0.444149 -1.25914 -0.166507 -0.39136 -0.308598 0.278527 -1.08492 -0.477147 -0.149827 -0.316805 0.221664 -0.901981 0.260934 -0.447197 -0.166144 0.307379 -0.416825 0.615316 0.878255 0.325232 0.266445 -0.0284902 0.619766 0.354822 0.798686 -0.127191 -0.64576 -0.0269023 -0.74964 0.957625 0.307579 -0.608164 1.11433 0.323182 -0.226048 0.41083 0.40704 0.0647929 0.230086 0.211874 0.60204 0.562587 0.975417 1.07899 -0.44376 0.409819 0.234913 0.246161 0.0709481 -0.221974 0.241573 -0.0808105 -0.444333 -0.0442588 0.628261 0.0474717 0.705997 -0.0935549 -0.169771 0.915393 -0.415394 0.337936 -0.0417844 -0.189839 -0.494493 -0.262882 -0.608854 -0.210055 0.174928 0.318783 -0.366398 -0.520126 0.254003 0.591905 -0.703381 -0.382479 -0.0196009 -0.0289056 -0.242956 0.461766 -0.107816 0.49943 0.431078 -0.407814 0.0145294 -0.741402 -0.350673 -0.172997 -0.0496165 0.0921696 0.356276 -0.404752 -0.658709 0.789086 1.02948 0.0726787 -0.400489 -0.426905 -0.531686 -0.37303 -0.283564 0.217431 -0.0716748 0.316859 0.619794 -0.247868 -0.102871 -0.509095 0.0882674 0.421154 -0.405555 -0.24733 -1.02838 0.157108 -0.14917 -1.2137 0.0775168 -0.796547 0.722096 -0.77444 -0.381988 -0.598845 0.313965 0.0926967 
39 -0.141771 0.118786 -0.159029 -0.406411 -0.419006 -1.20077 -0.2116 0.20665 0.101566 0.598303 -0.729418 -0.00612401 -0.0601351 -0.500127 -0.325667 -0.944345 -0.0309396 -0.0848925 -0.110271 0.205407 -0.785107 0.153946 0.70436 0.00757286 0.791078 -0.306743 0.331432 0.588681 0.709476 -0.00518305 -1.25671 0.0696748 0.0588055 0.53908 -0.0698215 -0.421939 1.40071 0.152779 -0.229312 0.391027 0.806944 0.0288738 0.363401 0.431858 0.110127 -0.0197393 0.410881 1.07214 -0.383335 0.48898 0.185095 0.169801 -0.0991854 -0.25867 0.493388 0.0106136 0.0322214 0.270966 0.622123 0.28772 0.509638 0.033647 -0.378332 0.763784 0.257183 0.259269 -0.134813 0.0710963 -1.11519 0.183608 0.123144 -0.226152 0.187604 0.171675 -0.304879 -0.674558 0.608829 -0.08725 -0.227295 -0.232796 0.420673 -0.404119 -0.0583991 0.513249 0.203418 0.026083 0.997758 -0.901046 -0.208644 -0.307399 -0.360368 -0.358812 0.354332 0.386405 0.666639 -0.270555 0.0562203 -0.281174 0.294851 0.374979 -0.197207 -0.023392 -0.363496 -0.199007 0.568761 -0.242726 -0.734732 0.121896 0.00803804 -0.0816002 0.0648392 -0.606827 0.00673088 1.11969 -0.199302 0.39699 -0.469235 -0.240447 -1.02268 -0.679685 -0.178833 -0.666747 0.208425 -0.315278 -0.137483 -0.46899 0.397417 -1.36807 
40 0.677747 0.251701 0.14021 -0.0150671 0.0367745 -1.61873 -0.723192 -1.51232 0.198375 -0.0739229 -1.39292 1.04824 0.394018 -0.118173 -0.497101 -0.562247 -0.0451699 -0.13285 -0.602192 0.562301 -0.111669 0.977447 1.17955 0.205735 0.98246 -0.0482054 -0.56574 0.744289 0.0958848 -0.667247 -0.402548 1.25297 -0.81897 1.31323 0.231847 0.614881 0.48799 0.244414 -0.250378 1.16526 0.816518 0.0336884 -0.207657 0.0707326 -0.319455 0.132798 0.153847 0.477037 -0.479787 -0.205361 0.121783 0.650435 -0.760139 -0.452052 0.369219 0.503714 -0.88031 0.857054 0.938137 -0.176735 0.475704 0.778677 0.203672 0.49093 -0.579919 0.6515 0.484574 -0.219868 -0.372053 -0.384463 -0.349088 -0.232057 0.07933 0.810221 -0.241207 0.378064 0.558312 -0.357699 -0.752568 0.718567 0.237439 -0.690821 -0.474874 0.949652 -1.09444 -0.209056 -0.495676 -0.250739 -0.0908556 -0.807134 -0.923601 0.721516 0.228559 -0.0742051 0.355892 -0.231867 -1.06045 0.322925 -0.23076 -0.00624179 -0.790127 0.672828 0.0612076 0.0437301 0.121821 0.39135 -0.023328 -0.696705 -0.417385 -0.89328 -0.201656 -0.947868 -0.335162 -0.286829 -0.650687 -0.172421 0.0577511 0.184028 -0.698543 -0.74945 -0.142672 -0.464639 0.389114 0.0825292 0.623739 0.362336 0.187259 -1.03912 
41 0.527569 -0.480566 -0.209474 -0.488507 0.0764631 -1.0499 -0.49956 -0.603372 0.458735 0.0158978 -0.270199 -0.104136 0.372025 -0.0935867 0.105873 -0.107363 0.00987956 -0.285745 -0.0786578 0.48071 -1.30091 -0.222448 0.116512 0.210642 0.852191 0.125504 0.362368 0.0533745 -0.101701 -0.307259 -0.216229 0.55302 -0.881343 0.118987 0.0389732 -0.37794 0.912178 0.294589 -0.0045535 0.150064 0.301095 0.6904 0.0786332 0.322736 -0.229582 -0.0341681 0.694774 0.691375 -0.0977322 0.847601 0.30912 0.418132 -0.256611 -0.306124 0.439782 0.0423669 -0.562054 0.586758 0.647484 0.243904 0.518192 0.0014868 -0.335269 0.32076 -0.642886 0.472065 0.856277 0.284047 -0.485113 0.163117 0.0996599 -0.264726 0.35384 0.0897769 -0.314798 -0.603535 0.0241344 -0.271852 -0.468027 0.123196 0.360012 -0.309278 0.252091 0.425718 -0.27826 0.275611 -0.465129 -0.690427 -0.0534441 -0.507706 -0.95967 0.533123 0.179566 -0.235243 -0.00834787 -0.0822888 0.101309 0.0698039 0.624731 0.399114 -0.969867 0.0911692 0.337607 -0.829782 0.267707 0.430689 -0.192682 -0.459351 -0.0751229 -0.109355 -0.808308 -0.237105 -0.523447 0.0150576 0.196794 0.0818392 0.443124 -0.141424 -0.956461 -1.02676 0.120702 0.114814 -0.436955 0.138047 -0.768621 0.185719 0.404232 -0.662088 
42 -0.27589 0.17427 -0.101889 -0.272348 -0.383391 -1.16889 -0.137065 0.158592 0.0519843 0.710649 -0.660611 -0.1394 0.0493321 -0.578638 -0.199453 -0.951249 -0.00155826 -0.104453 0.00157871 0.051439 -0.699459 0.146173 0.57246 -0.283961 0.793142 -0.190281 0.247281 0.605533 0.689643 -0.0443942 -1.11951 0.0257756 -0.139298 0.576399 -0.0576685 -0.428821 1.30002 0.14124 0.0148056 0.0676765 0.908382 0.415003 0.483426 0.361939 0.0975976 0.169601 0.414215 0.99274 -0.470318 0.453244 0.191627 0.419097 -0.0444105 -0.163417 0.526339 0.0560623 0.0298679 0.327065 0.727023 -0.00207758 0.694514 0.429157 -0.564551 0.924531 0.209708 0.332113 -0.14609 0.127828 -1.31248 -0.166151 0.178695 -0.127538 0.0571338 0.320588 -0.399185 -0.676774 0.640374 -0.0816658 -0.0715724 -0.600585 0.408736 -0.353764 0.082308 0.607874 0.332242 0.331513 0.913909 -0.74846 -0.336323 -0.155511 -0.408585 -0.453267 0.457727 0.488628 0.520553 -0.320398 0.244028 -0.207301 0.628012 0.467355 -0.220235 0.0737742 -0.198841 -0.0753019 0.545939 -0.243118 -0.831299 0.215829 0.217852 -0.227 -0.0383326 -0.612649 -0.230397 1.23436 -0.215291 0.229776 -0.7112 -0.35564 -0.904296 -0.572148 -0.102439 -0.795477 0.300164 -0.510424 -0.357233 -0.545891 0.304201 -1.11053 
43 0.668845 0.235562 0.724863 0.228074 -0.336724 -0.769393 -0.384288 -1.12573 -0.535793 -0.00330028 -1.26067 0.606497 0.234099 -0.214433 -0.113998 -0.888857 0.0150662 -0.368696 -0.28977 0.462664 -0.0367363 0.748739 1.2599 0.599195 0.421223 0.0164816 0.0644706 0.932812 0.55771 -0.225674 -0.342852 0.563498 -0.553867 0.937702 0.393268 0.310131 0.598589 0.216142 0.0421384 0.916949 0.59374 -0.258293 -0.383632 0.368049 -0.141848 0.677501 0.571272 0.978695 -0.390716 0.475565 -0.282816 0.420612 -0.609415 -0.348563 0.34702 0.372749 -1.04011 0.685337 0.728925 -0.0895951 0.188228 0.0149159 0.307931 0.295531 -0.331589 0.463671 0.435603 -0.539149 -0.397318 -0.0236289 -0.491669 0.0447939 -0.130056 0.242825 -0.332015 0.169212 0.389794 -0.115158 -0.942078 0.0749298 0.289765 -0.931945 -0.469295 0.909306 -0.826346 -0.1314 0.223933 -0.069989 -0.644668 -0.532362 -0.220499 0.043295 -0.0484253 0.228189 0.304695 -0.1699 -1.26249 0.276149 0.104616 -0.654266 -0.43643 0.250928 0.0118239 -0.431297 0.453313 0.117962 -0.274351 -0.226222 0.233283 -0.668972 0.0175351 -0.638345 -0.110479 0.067325 -0.79742 0.119775 -0.191242 0.231911 -0.225655 -0.873135 0.399455 -0.5405 0.270353 -0.464682 0.449975 -0.0234373 0.321531 -0.410528 
44 -0.3039 0.134115 0.677091 0.439152 -0.246761 -0.647625 -0.197056 -1.46687 -0.107999 0.161774 -0.572484 -0.441774 1.02565 -0.011064 0.32471 0.0529242 0.451897 -0.624528 0.408938 0.229063 -1.03581 0.381742 0.884425 -0.0791445 0.0465009 -0.402679 0.385137 0.0436885 0.302898 -0.6751 -0.350632 0.193479 -0.975449 0.5336 0.721855 -0.051287 1.05366 0.366047 -0.406683 0.535599 0.168549 0.493481 0.147879 0.29998 0.0835051 0.209892 0.851575 1.02159 -0.176446 0.55977 0.306163 -0.13845 -0.488115 -0.479357 0.778122 -0.158977 0.299874 0.323196 0.330029 0.247845 0.531272 -0.116407 0.0981935 0.361953 0.461327 0.353204 0.280319 -0.176945 -0.74602 0.444418 0.450971 -0.42181 0.114823 -0.405697 -0.0988592 -0.341845 1.16497 0.543168 0.164657 0.345733 0.224688 -0.572938 0.151211 -0.156893 0.0666583 0.217921 0.133732 0.304822 -0.801552 -0.613403 -0.641561 -0.22183 -0.0172797 0.0977153 0.117642 -0.408705 -0.719783 0.0686811 0.330708 -0.574895 -0.0776872 0.360225 -0.0586963 -0.0983846 -0.378971 -0.0563032 -0.678894 -0.0518682 0.414563 -0.595058 -0.0313405 -1.05155 -0.500691 0.639995 -0.606012 0.369699 0.0165024 0.1345 -0.134749 -0.577881 -0.119364 0.131917 -0.125869 -0.267686 -0.21952 -0.827188 -0.0842931 -0.816957 
45 0.283234 0.400945 0.934376 -0.0460119 0.119993 -0.488246 0.00460436 -0.0237328 -0.464674 0.821401 -0.822671 0.062398 0.194038 -0.0784291 0.574949 -0.406469 0.3506 -0.133129 -0.217 0.278119 -0.8128 0.539753 0.757092 0.423215 0.322367 0.290342 0.0443433 0.830071 0.86468 0.0947735 0.0349556 0.5843 -0.278917 0.608592 -0.24089 0.0393988 0.598853 0.222071 0.404176 0.38437 0.567163 0.0794561 0.614042 -0.0357323 0.0541408 0.192502 0.311253 0.954643 -0.106668 -0.0115392 0.442898 0.051404 -0.0869953 -0.165346 -0.0883223 0.0508073 -0.663675 0.39404 0.43591 0.196394 0.184245 -0.246026 -0.2711 0.859982 0.235336 0.252252 0.517683 -0.443741 -0.446705 -0.0954667 -0.319158 -0.586533 -0.182328 -0.391158 -0.385143 0.293594 0.15571 0.0542587 -0.427536 0.218466 0.208897 -0.289745 -0.668284 0.412347 -0.290568 0.55887 0.482128 -0.383009 -0.74152 -0.366449 -0.043864 0.0932457 -0.1282 -0.0976072 -0.131933 -0.363829 -0.919588 0.207468 0.671715 -0.236767 -0.713042 -0.334426 0.327315 -0.224057 0.651396 0.215991 -0.149875 -0.832212 0.269638 -0.507819 0.203165 -0.544976 -0.152993 -0.0711068 -0.207838 0.287879 -0.553217 -0.587399 -0.158836 -1.37119 0.561674 0.105124 -0.0814378 -0.385772 0.00374375 -0.667812 0.140864 0.0393436 
46 0.648953 0.263425 0.773304 0.206238 -0.326697 -0.830741 -0.288211 -1.15266 -0.569604 0.0311857 -1.25155 0.621817 0.267577 -0.234591 -0.130858 -0.86167 0.0364642 -0.329878 -0.256486 0.461876 -0.0733008 0.696068 1.30889 0.573559 0.41139 -0.0283378 0.0961116 0.912678 0.547409 -0.198456 -0.389347 0.593085 -0.541658 0.919943 0.37343 0.351735 0.589501 0.198164 0.0153128 0.903926 0.606627 -0.293093 -0.414125 0.369 -0.192978 0.68271 0.569186 1.00553 -0.377168 0.477028 -0.305437 0.421566 -0.602033 -0.318829 0.329207 0.38234 -1.09886 0.682311 0.777406 -0.102719 0.189308 -0.0932502 0.343213 0.313313 -0.350276 0.426392 0.46133 -0.494658 -0.335737 -0.0799707 -0.506558 0.054504 -0.119789 0.265202 -0.31396 0.22946 0.390434 -0.110904 -0.943565 0.118222 0.274919 -0.948863 -0.414265 0.858993 -0.814615 -0.174562 0.183648 -0.0890062 -0.580644 -0.55518 -0.272157 0.0830292 -0.117043 0.304835 0.284235 -0.17903 -1.29712 0.265174 0.105327 -0.628397 -0.449384 0.297903 0.0545989 -0.43096 0.42102 0.0469409 -0.311278 -0.301818 0.153287 -0.635893 0.0253343 -0.627723 -0.177653 0.0549264 -0.792244 0.13867 -0.147278 0.220275 -0.212294 -0.862944 0.403786 -0.519609 0.309292 -0.446918 0.410764 -0.0513642 0.352365 -0.360834 
47 0.487038 0.302682 0.0104042 -0.0172886 -0.310497 -0.905669 -0.0135827 -0.558962 -0.0226445 -0.151494 -0.894409 -0.0366534 0.296256 0.169676 -0.236545 -0.870571 0.258928 -0.230741 -0.141768 0.342998 -0.60961 0.339943 1.08529 0.552317 0.177407 -0.337086 0.477985 0.350417 0.539296 0.288349 -0.0899951 -0.117263 0.204802 0.657971 -0.615974 0.296184 0.433849 0.334101 0.011306 0.963578 0.309847 0.0678022 -0.104126 0.610416 0.449807 -0.443228 0.64483 1.29775 -0.451653 0.709163 0.497917 -0.140804 -0.000788485 -0.704082 0.112972 -0.0721523 -0.481531 -0.229573 0.489839 0.124287 0.456195 -0.431156 0.898989 0.194008 0.216377 -0.520286 0.343511 0.212101 -0.149953 0.592769 0.279068 -0.629382 0.424301 -0.149248 -0.0665891 0.121227 0.929386 -0.181825 -0.229917 0.165317 0.87948 -0.212902 0.0387164 0.498873 -0.297339 -0.104729 0.0172423 -0.247874 -0.0818711 -0.365042 -0.652288 0.131078 -0.390515 -0.128291 0.0979624 0.127161 -0.276314 -0.0439069 -0.112918 -0.0177348 -0.434931 0.0682117 0.492843 -0.0399149 0.00486033 -0.264275 -0.363317 -0.0873764 -0.220533 -0.292945 -0.129276 -0.176241 -0.279828 0.859419 -0.779566 -0.484014 -0.109139 -0.696591 -0.324671 -1.40092 0.107126 -0.210423 -0.340161 -0.132097 0.291831 -0.157602 0.424454 -0.767268 
48 0.313286 0.135008 -0.313731 0.170059 -0.82108 -0.195181 0.217687 -0.390623 0.133467 -0.395122 -0.615025 -0.315235 0.410191 -0.0937797 0.183447 -0.330091 0.0795154 -1.08147 -0.357011 -0.330869 -0.56062 -1.30638 0.222692 -0.408134 1.382 0.320424 0.738327 0.851359 0.682258 -0.727004 -0.928791 0.0958417 0.776446 0.327063 0.714486 0.702947 0.199086 0.177617 -0.104241 -0.126663 0.887682 0.393844 0.210235 0.129279 -0.534349 0.552195 0.77828 1.12063 -0.802944 0.657274 -0.502254 -0.481163 -0.31752 0.698814 -0.314077 -0.451106 -0.561997 0.451315 0.323766 -0.126815 0.335023 0.281455 0.0595352 1.27213 0.42762 -0.0094709 0.329035 -0.257325 0.0658567 0.554922 0.865993 0.0282621 -0.213024 -0.300609 -1.25053 -0.572794 0.648099 0.155433 0.0777911 0.22398 1.19304 -0.258251 0.0137135 0.553033 -0.638496 0.573224 0.414735 -0.383703 -0.466381 -0.34 -0.967514 0.36883 0.21798 -0.53882 0.227921 0.0536566 0.110461 0.00487958 1.2215 0.241604 -0.73499 -0.383311 0.384496 -0.330658 -0.0186721 0.118394 -0.245546 -0.205842 0.345529 -0.378925 0.350849 -0.28739 -0.275631 0.635759 0.0771166 -0.313488 0.353317 -0.696023 0.289708 -1.70985 0.255806 0.324649 0.164997 -0.074469 0.110824 0.218597 -0.0544845 -0.19999 
49 0.609291 0.283257 0.762327 0.21869 -0.295107 -0.842791 -0.289569 -1.16425 -0.558364 0.0795778 -1.24018 0.635183 0.297317 -0.31209 -0.155764 -0.891811 -0.0132345 -0.335257 -0.31244 0.413444 -0.0518858 0.715059 1.24448 0.541517 0.453733 -0.0347071 0.107313 0.914075 0.533399 -0.282257 -0.370115 0.567542 -0.512563 0.89869 0.350455 0.349804 0.642928 0.204038 0.0211121 0.908776 0.576927 -0.324486 -0.393466 0.356014 -0.132778 0.674808 0.521094 0.963638 -0.373271 0.500481 -0.297996 0.418824 -0.555529 -0.360589 0.393651 0.337989 -1.06015 0.711197 0.710493 -0.0610054 0.185065 -0.0519369 0.217193 0.265659 -0.363774 0.415218 0.43921 -0.465007 -0.351781 -0.0868744 -0.526377 0.0740242 -0.177977 0.214428 -0.294993 0.219063 0.376895 -0.108653 -1.01014 0.0460178 0.318146 -0.983303 -0.487116 0.85662 -0.891141 -0.197676 0.239608 -0.0633735 -0.551761 -0.457543 -0.25362 0.0605282 -0.117134 0.255693 0.266296 -0.167057 -1.29203 0.315261 0.162182 -0.670435 -0.405711 0.298544 -0.00236666 -0.446036 0.45186 0.120051 -0.27078 -0.327321 0.151701 -0.675319 -0.0581602 -0.635528 -0.0995516 0.0540656 -0.808411 0.193035 -0.168899 0.28395 -0.165752 -0.863363 0.402177 -0.485981 0.295405 -0.435834 0.403322 -0.0428557 0.334727 -0.339507 
50 0.180838 0.450519 0.181465 -0.238581 -0.117119 -0.71394 -0.0519153 -0.376391 -0.432885 0.229738 -0.622379 -0.0698436 0.287449 0.226814 -0.224368 -0.463465 -0.154834 -0.486362 -0.313838 0.620823 -0.893613 -0.074823 0.479897 0.130497 0.0297163 -0.266542 0.458556 0.193648 0.272138 -0.0573248 -0.0386478 -0.00634566 0.0905653 0.971532 -0.373551 0.0875479 1.14018 0.770013 0.181543 0.205403 -0.00142039 0.452759 -0.151287 -0.295094 -0.0399633 0.0547442 0.380998 0.645623 -0.609088 0.293451 -0.0187695 0.495369 -0.180159 0.247244 0.754597 -0.103926 -0.768171 -0.181143 0.593691 -0.458177 0.540792 -0.011341 0.0772057 0.282979 -0.270658 -0.205817 0.621531 -0.311498 -0.600147 -0.266889 0.246129 -0.402977 0.294225 0.619764 0.269692 -0.195473 0.539844 0.140989 -0.649848 -0.00660768 0.694852 -0.349995 0.204451 0.00443582 0.0477807 -0.188333 -0.0180448 -0.159857 -0.236124 0.132889 -0.719844 0.278505 -0.589463 -0.580743 0.0644113 0.0437755 -0.448467 0.25727 0.155083 -0.0692227 -0.263712 0.516196 0.391701 -0.188064 0.281875 0.319173 -0.560762 0.137913 -0.444692 -0.194362 0.339335 0.0627307 0.0509868 0.573607 -0.841498 -0.568256 -0.208451 -0.151259 -0.648631 -0.655992 0.605081 0.142329 -0.266492 -0.296582 -0.4335 -0.525959 -0.0380338 -0.731814 
51 -0.014372 -0.0124882 -1.11831 0.285958 -0.102738 -0.405918 0.426637 -0.485231 0.620848 0.244617 0.809921 -0.796663 1.08542 0.00535194 0.304769 -0.434482 0.261842 0.228848 0.39118 0.470123 -0.771321 -0.357547 0.224195 0.456829 -0.395763 -0.445271 0.757398 -0.140614 0.343146 0.00523844 -0.284323 0.626897 -0.133004 0.951324 -0.0321742 0.102471 1.04065 -0.0738931 -0.130709 -0.201658 0.605451 -0.12762 0.420111 -0.217516 -0.0650543 -0.445708 0.309591 0.875555 -1.08888 -0.878388 -0.241899 0.305388 -0.541111 0.238843 0.535536 -0.332223 -0.313373 0.0250782 0.496842 -0.136184 -0.802558 -0.56398 -0.0365445 0.605159 -0.0942922 -0.425073 0.464713 0.426656 -0.610424 0.340344 -0.129413 -1.05689 -0.465824 0.440008 0.135342 -0.629746 0.464595 0.163973 0.323248 0.164133 1.41953 0.121808 0.323338 0.146949 0.452253 -0.441792 0.581306 0.365474 -0.279359 0.365934 -0.185715 -0.593401 0.573101 -0.31649 0.026614 -0.314942 0.137174 0.247956 0.550054 0.0999358 -0.0968521 -0.35266 -0.149987 -0.296217 0.0503465 0.149432 0.0365556 0.0382091 0.775819 -0.451378 0.352657 -0.294282 -0.400609 -0.175457 0.286197 -0.128254 -0.40668 -1.16865 -0.113215 -1.01031 0.525859 -0.197115 -0.576522 -0.614045 0.0868842 -0.197601 0.778058 -0.826648 
52 0.276552 0.508462 0.236949 -0.0235927 -0.657891 -0.790257 -0.270407 -0.0267584 -0.295126 0.472791 -0.572941 0.27527 0.148397 -0.228593 -0.135528 -0.623621 -0.451165 -0.497899 0.054649 0.584693 -0.472278 0.368093 0.678566 0.0510138 0.0510436 -0.452241 0.124444 0.341743 0.74427 -0.558842 -1.21604 0.336749 -0.0788737 0.578776 0.112437 -0.464266 1.03987 0.297295 -0.201258 0.323756 0.783394 0.292344 0.20281 0.50879 0.222678 0.440304 -0.107203 0.900619 -0.320564 0.0165265 -0.39432 0.771885 0.0657148 -0.153244 0.325352 0.328563 -0.43188 0.305334 0.500235 -0.254621 0.339574 0.283678 -0.428998 0.663027 -0.0840913 0.446047 0.0338571 -0.066114 -0.555064 0.242307 -0.155383 0.150721 -0.040806 0.607727 -0.129386 0.00278065 0.367975 0.13496 -0.485549 -0.573261 -0.0482497 -0.698934 0.0522369 0.877576 -0.339605 0.160719 0.66811 -0.622639 0.0641682 -0.352883 -0.339878 -0.248733 0.455684 0.342171 0.274839 -0.422607 -0.462535 -0.0921226 0.431278 -0.224948 -0.274622 0.0453843 -0.142158 -0.127444 0.172506 0.100673 -0.475992 0.0669733 0.0338441 -0.328225 0.00265962 -0.502348 -0.234737 0.715577 -0.0856214 0.00499242 -0.52498 -0.362785 -0.449819 -0.285911 0.258335 -0.745447 0.0755337 -0.552669 -0.394426 -0.324254 0.263183 -0.777845 
53 0.412649 0.309487 0.494737 -0.117299 0.251155 -0.549399 -0.179211 -0.478472 -0.238106 0.859629 -0.662315 -0.515719 0.489545 0.0416043 0.425065 -0.684689 0.345545 -0.393756 0.0213725 0.391158 -0.56699 -0.00381862 0.393906 0.0399178 0.143428 0.337831 -0.0619361 0.616592 0.461328 -0.161145 -0.113016 -0.156367 -0.513866 0.702099 0.0313373 0.31665 0.687253 -0.049723 -0.213465 -0.11636 0.456682 -0.106097 0.954225 -0.148228 0.678359 0.388157 0.654661 1.14831 -0.179152 0.580376 0.0656331 -0.15599 -0.492628 -0.0160676 0.0175045 0.0787019 -0.142404 0.171595 0.27973 0.459479 0.341665 -0.0716251 -0.0588716 0.244555 0.477266 0.187898 -0.319892 -0.6517 -0.100064 0.106393 -0.404467 -0.102112 0.294076 0.239063 -0.191102 0.491238 0.0181412 0.0710738 -0.000592195 -0.047447 0.592605 0.199196 -0.798031 0.13306 -0.523454 0.222938 0.437498 -0.289965 -0.615717 0.0292621 -0.0485565 0.53312 0.315404 0.0330921 -0.22955 -0.0712801 -0.560658 -0.00940232 0.261025 0.136399 -0.34275 -0.275789 0.144607 -0.58783 -0.262703 -0.0425584 -0.230393 -0.0187183 0.389931 -0.380323 -0.127786 -0.352375 -0.708468 0.337777 0.0886184 -0.0646695 -0.358518 -0.806875 0.241566 -0.934829 0.091306 -0.191133 0.0831124 -0.562115 -0.605195 -0.780004 0.22204 -0.259861 
54 -0.239445 0.326124 -0.95018 0.640829 -0.0869903 0.267789 0.711678 -0.182053 0.0304295 -0.248286 0.203666 -0.521274 0.184809 -0.0180972 0.32615 -0.591144 0.203894 -0.634497 -0.339345 -0.0710128 -1.00686 -0.97344 0.0188991 -0.148668 1.03052 0.323418 0.789999 0.538032 0.270587 -0.282753 -0.0536425 0.464742 0.407723 0.112277 0.544085 0.427239 -0.00307557 -0.392529 -0.154273 -0.581313 0.863303 0.192901 -0.442818 0.313019 -0.348069 0.60561 -0.11566 0.995211 -1.04317 -0.159824 -0.107714 0.204945 -0.0342769 0.395249 -0.0848668 -0.531892 -0.242629 0.761532 0.159312 -0.223915 -0.460507 0.0742883 0.0817455 1.48848 -0.0994372 -0.637765 0.579706 0.31989 -0.34602 0.501773 0.058909 0.181925 0.0408069 -0.267943 -0.592565 -0.0482241 0.605404 0.262886 0.44497 0.389516 1.06199 -0.28768 -0.20437 -0.0379537 -0.545765 0.267735 -0.184382 0.255769 0.24545 -0.29028 -1.10068 -0.649443 -0.0522784 -0.430606 0.211721 -0.411756 -0.241233 -0.170779 0.722848 0.271315 -0.481404 -0.342537 0.387174 0.219919 -0.0148293 -0.18771 0.295384 -0.22133 0.75332 -0.436899 0.0902619 -0.167718 -0.235858 0.544131 0.548958 -0.0637557 0.244514 -1.05244 -0.836999 -0.825617 0.382996 0.129361 0.0224319 -0.201757 -0.234554 0.101113 0.714267 -0.531544 
55 0.342558 0.177752 -0.185088 -0.0470034 -0.105501 -1.26251 -0.260399 -0.0650559 0.190183 0.292593 -0.410568 -0.51806 0.700957 0.0871693 0.0521283 -0.197932 0.199541 -0.325269 0.0512382 0.424846 -0.957856 -0.00681899 0.724301 0.80988 0.316674 -0.207774 0.730606 -0.0368181 0.324858 -0.376594 -0.613566 0.41859 -0.755604 0.983887 0.331052 0.237747 0.0485681 0.37286 0.184245 -0.12038 0.952752 0.561602 0.25322 0.0643807 -0.589097 0.108435 0.800221 0.711871 -0.240284 0.544666 0.888826 0.162051 0.0792687 -0.573245 0.769465 -0.12183 -0.462116 -0.060981 0.738038 -0.259304 0.69904 0.318573 -0.340917 0.171884 -0.421734 0.107577 -0.00913781 0.299503 -0.559037 0.243284 -0.3731 -0.0522255 -0.496855 -0.345397 -0.189483 -0.273164 0.659674 -0.283608 0.00165577 -0.372801 -0.183468 0.0839836 0.0907218 0.590442 -0.881284 -0.131503 0.922566 -0.538218 -0.0900652 -0.333108 -0.635464 -0.53449 -0.0976351 -0.467938 -0.451381 -0.195158 -0.420572 -0.132768 0.769551 -0.695701 0.225878 -0.0451592 0.213128 -0.140795 0.281479 -0.246033 -0.333075 0.377934 -0.246184 -0.209883 0.663655 -0.220449 -0.656595 0.954153 -0.579396 -0.54644 -0.0229196 -0.179425 -0.32151 -0.739862 0.107356 -0.00820561 0.145012 -0.321382 0.150207 -0.228702 0.0353588 -0.223969 
56 0.0795031 -0.111846 0.242034 0.295059 0.120984 0.573227 -0.621578 -0.7076 0.349009 1.06854 -0.152262 0.213659 0.607336 -0.558756 0.495565 -1.03193 0.385547 0.355177 0.449595 0.465494 -0.235304 -0.357711 0.772473 0.23182 0.127754 -0.218645 0.970618 0.662185 0.778609 -0.213084 -0.406314 0.0575075 0.0948812 0.70883 0.121046 -0.63657 1.08513 0.925779 -0.201981 0.510526 0.644567 0.285105 0.00872487 0.279685 0.0886952 -0.294757 0.653478 0.668345 -0.368324 0.208466 0.0142879 -0.0657606 -0.794013 -0.495368 0.979432 -0.252736 -0.141197 0.409669 0.488769 0.361145 0.65042 0.215378 0.0788742 0.61453 -0.0826658 0.749311 0.0248277 -0.39238 -0.00769189 -0.327921 -0.493997 -0.15688 0.608415 0.283531 -0.441451 0.506341 0.00692788 -0.171868 -0.186769 -0.00754554 1.28088 -0.444121 -0.07793 0.719412 -0.683253 0.0467246 0.648603 0.0898596 -0.192845 -0.669936 -0.407723 -0.386314 -0.305649 -0.537651 0.483848 0.0377949 -0.528464 0.244864 0.697533 0.346106 -0.51525 -0.652795 -0.665285 -0.617827 0.339349 -0.56336 -1.02438 -0.284441 -0.153127 0.209431 0.509226 -0.450973 -0.198488 0.313718 -1.11038 -0.0733076 -0.889928 0.575554 0.162156 -0.933138 0.352533 -0.0045096 0.0308464 -0.0345761 -0.0289479 -0.331069 -0.128144 -0.311452 
57 0.168789 -0.124746 0.0203285 0.045844 0.141596 -0.325113 -0.745626 -0.626077 -0.312178 0.602397 -0.850386 0.479099 0.281458 -0.289404 0.219205 0.0498968 0.451138 0.0481461 -0.186284 0.613138 0.132486 0.145479 0.973527 0.343516 0.738366 0.64561 0.355436 0.269719 0.411909 0.167306 -0.0859283 0.149005 -0.670693 1.41796 -0.134437 -0.601622 0.483284 0.153432 -0.00145823 0.192012 0.361472 -0.148713 0.179067 0.632975 0.240593 0.662382 1.11521 1.49811 -0.086085 0.943723 -0.025332 -0.12906 -0.386186 -0.620794 0.137486 -0.063163 -0.264874 -0.154788 0.701109 0.195706 -0.141744 0.300687 0.101522 -0.000412171 0.142817 -0.215588 -0.224423 -0.0460324 -0.880433 0.103306 -0.894888 -0.0845837 0.0760593 0.580642 -0.0318613 -0.0708406 0.882307 0.363039 0.150138 -0.148942 0.422958 -0.421795 -0.066348 1.0832 0.0785656 0.404034 0.457783 -0.70443 -0.563698 -0.690662 -0.585848 0.242422 -0.466749 -0.40801 0.454817 -0.874461 0.00801663 0.00611282 0.269643 -0.176298 0.0395828 -0.0947332 0.22531 -0.320568 0.199151 0.0199241 -0.59905 -0.144399 1.11717 -0.235003 -1.02821 0.130763 -0.515413 0.747302 -0.570971 -0.0105394 -0.155271 -0.235324 0.401162 -0.805836 0.689943 -0.00501117 0.269154 -0.396403 -0.366711 -0.121836 -0.0459081 -0.341009 
58 -0.306561 0.464672 -0.918241 0.676119 0.31846 -0.524392 0.733258 0.203268 -0.351762 -0.869624 0.105418 -1.32173 1.02673 -0.0892244 0.09826 -0.567904 0.0576749 0.31059 -0.327776 1.35948 -0.944459 -0.25107 0.496814 0.139021 0.0548251 -0.450142 0.184184 -0.419674 -0.0297945 -0.248022 -0.386391 -0.116962 0.894625 0.314917 -0.390813 0.0440486 1.07449 -0.578779 -0.324065 -0.68887 1.14228 -0.264996 0.0725502 -0.11889 -0.130179 -0.582585 0.530493 0.337823 0.0176779 -0.398389 -0.108327 0.344029 -0.860183 0.837392 -0.403352 -0.228091 -0.169728 0.787025 0.192726 -0.342235 -0.463783 -0.414162 0.332507 0.858407 -0.255381 0.465016 0.530829 0.134765 -0.312814 1.06441 0.62472 0.096434 -0.673091 0.0262085 0.117824 -0.114197 0.829604 0.722452 0.214131 0.323105 1.10997 0.0304919 -0.508778 -1.02236 0.0148594 -0.194357 -0.0582268 0.347646 -0.144912 -0.0660284 -0.81985 -0.285129 0.317586 -0.552836 0.197198 0.199669 -0.534205 -0.207922 0.368729 -0.0950144 -0.553389 -0.288057 0.279432 -0.150461 -0.0356704 0.0575565 -0.0372591 0.131483 0.864295 -0.299968 0.36731 -0.186608 -0.537855 0.331098 0.33393 -0.468683 0.677221 -0.576968 -0.241818 -1.06623 0.614401 -0.55314 -0.438621 -0.211055 -0.0255104 -0.0874452 0.113226 -0.747491 
59 0.601849 0.196874 0.635144 0.306311 -0.0639002 -0.863625 -0.630829 -0.906766 -0.723148 -0.0178463 -1.44895 0.693966 0.112218 0.00986534 -0.163033 -0.869166 0.10278 -0.146063 -0.0283867 0.35712 0.224016 0.455821 1.17624 0.228966 0.226626 0.217932 0.173414 0.568649 0.518297 -0.181995 -0.438185 0.219417 -0.596183 0.664256 0.648126 0.504658 0.688437 0.203787 -0.0563196 1.02112 0.583401 -0.164623 -0.668069 0.610961 -0.220081 0.407257 0.654345 1.43508 -0.464041 0.253435 -0.341945 0.413575 -0.438629 -0.363034 0.257158 0.365433 -0.916385 0.636506 0.708221 0.250203 -0.0767924 0.124931 0.247082 0.532059 -0.441522 0.502864 0.17032 -0.369939 -0.337023 -0.21163 -0.63015 -0.0743559 -0.441834 0.0328343 -0.126465 -0.100271 0.340254 -0.0177277 -0.876514 0.106408 0.558306 -0.872984 -0.684123 0.934264 -1.04659 -0.38899 0.364071 0.0349298 -0.442198 -0.939199 -0.158082 -0.000718405 -0.141731 -0.0232595 0.260378 -0.412258 -1.08335 0.395239 0.252684 -0.715598 -0.273118 0.0817229 -0.0807626 -0.561848 0.500859 0.0432852 -0.289672 -0.504722 0.331696 -0.840825 -0.291964 -0.496786 0.176021 0.0781673 -0.990531 0.305472 0.096187 0.251499 -0.280281 -0.994253 0.645449 -0.499022 0.216614 -0.38683 0.297271 0.0595534 0.382899 0.207254 
60 0.231836 0.346908 0.0707927 0.370989 -0.614189 -0.26094 -0.176147 -0.189553 -0.345786 0.48813 -1.18532 -0.272417 0.714727 0.0245064 0.0532745 0.0352924 -0.179706 -0.78827 -0.0845849 0.279515 -0.0209578 -0.504742 0.359441 -0.0868888 0.877218 0.238881 0.463631 0.873427 0.116974 -0.296002 -0.519722 -0.0755112 -0.395509 -0.0437635 0.0895081 0.168195 0.120664 0.447611 0.048056 0.452413 0.886782 0.650588 0.223592 0.423417 -0.301713 0.0618286 0.254777 0.934253 -0.515947 0.710851 0.191287 -0.545791 -0.545468 0.186707 -0.377275 -0.485095 -0.230341 -0.14643 0.785783 -0.338836 0.73758 0.340911 -0.40347 0.408217 0.228397 0.341903 -0.0490361 -0.22361 0.0531697 0.0893393 -0.0242373 0.249855 0.0128043 -0.0810688 -0.735732 0.154148 0.294823 -0.129602 -0.218465 -0.107933 0.631626 -0.588148 -0.647475 0.298032 -0.534709 0.0133729 0.0398641 -0.286232 -0.665103 -0.534655 -0.769869 -0.0215532 0.56904 -0.474409 0.379528 0.189514 -0.661812 0.34269 0.551245 -0.0649208 -0.851852 -0.0783284 0.627343 -0.25722 0.139539 -0.164951 -0.873469 -0.251146 0.403394 -0.34242 0.0675424 -0.429119 -0.711399 0.490675 -0.878554 0.329094 0.422118 0.116057 -0.251788 -0.628277 0.0341489 -0.0389342 -0.0729937 0.444375 0.25535 -0.0605966 0.229846 -0.479146 
61 0.312527 -0.187382 -0.605762 -0.0976577 -0.809739 -0.268198 0.0589752 -0.523726 -0.0882174 0.130775 -1.1546 0.422331 0.0340209 0.421547 0.432625 -0.987987 0.0914245 0.181643 0.511696 0.701717 -0.0860774 0.285757 0.91038 -0.278466 0.402463 -0.664616 0.763996 0.74515 -0.132726 0.222305 0.110808 0.146345 -0.372733 1.24534 0.128747 0.676615 0.773779 0.376538 -0.20564 0.357525 0.521041 0.308878 -0.105358 0.414371 0.361166 0.359035 0.985507 1.0853 -0.550565 0.24482 -0.0228072 0.810564 -0.115467 -0.16597 0.811333 0.0744096 -0.540905 0.310851 0.862141 0.0250582 0.547556 0.90657 0.583506 0.408473 0.417737 -0.11054 -0.137463 -0.301801 -0.582271 0.0678364 0.321712 0.0587959 0.017797 -0.156595 0.00462228 -0.211522 0.757358 0.199116 -0.0425708 -0.556101 -0.00421615 0.407924 0.120936 0.473475 -0.240117 -0.061423 -0.120442 -0.205074 -0.678687 -0.761484 -0.860927 -0.621728 0.125374 0.122387 -0.405569 -0.0974316 -0.571801 -0.228248 -0.51497 0.340922 -0.600568 0.892619 0.276519 -0.0502218 0.163748 -0.40464 -0.0660445 0.35529 -0.0160006 -0.829414 0.345934 -0.454561 -0.909088 0.169922 -0.191923 0.265743 -0.0317199 -0.539654 -0.573395 -1.08419 0.0226479 -0.152459 0.0739717 0.0287916 0.429446 0.129194 -0.105474 -0.893726 
62 -0.358306 -0.0122843 0.225985 -0.171865 0.0301851 -0.456596 0.171166 -0.180789 -0.321114 0.253065 -0.629741 -0.300894 -0.0118685 -0.864005 0.689135 -0.914719 0.0488133 -0.0511197 0.0595636 0.897375 -0.58408 0.389425 1.06285 -0.169957 0.81184 -0.195981 0.82525 0.67824 0.376275 0.283322 -0.108442 -0.51302 0.657045 0.241444 -0.0831626 -0.608138 0.984451 -0.0764119 -0.411405 0.00388163 0.439004 0.689947 0.663229 0.176699 -0.124884 0.0587223 0.996496 0.967491 -0.509232 0.414522 -0.332934 -0.669402 0.855642 -0.909687 0.292215 -0.420951 -0.210158 0.0844174 0.189261 0.00866683 0.108479 0.134263 0.77862 0.30611 0.219602 0.296688 0.640891 0.268138 -0.581644 -0.294196 0.0589289 -0.576023 0.80429 -0.411084 -0.234124 -1.05129 -0.22605 0.274633 0.000565689 -0.173399 1.00723 0.694144 0.119799 0.314863 0.061014 -0.293381 -0.359042 0.0687112 -0.166482 -0.954373 -0.620806 -0.587302 -0.20436 -0.267409 -0.56023 -0.689754 -1.00585 0.983099 0.281637 0.145586 -0.0997829 -0.106689 -0.725363 -0.249434 0.467926 0.131332 -0.117318 0.521407 0.301619 -0.72935 0.338637 -0.13674 -0.294355 0.292224 -0.361788 -0.59513 0.145572 -0.895876 -0.386849 -0.56912 0.628768 0.0217569 -0.56266 -0.245274 0.279805 0.280694 -0.223717 -0.531715 
63 -0.30245 -0.108456 0.173173 0.582032 0.228486 -1.12265 -0.0491852 -1.22745 0.0249722 0.275973 -1.36072 -0.73714 -0.245323 -0.508392 -0.247076 -0.742763 0.93156 -0.386299 0.00762576 0.360557 -0.872918 0.734177 0.89856 0.197949 -0.218387 0.542095 0.809944 0.554767 0.154836 -0.106171 -0.406422 -0.403296 -0.0155524 0.669503 0.162095 -0.13056 0.953281 0.241977 0.303688 0.420265 0.299184 0.626001 -0.101488 0.286971 -0.0287625 0.182366 0.963827 1.4396 -0.497399 0.206254 0.21564 -0.0325237 -0.525973 -0.0957778 0.677332 -0.345919 -0.498982 0.436695 0.701818 -0.395891 0.647869 0.188231 0.421354 0.30441 -0.767979 0.591759 0.564735 -0.669646 -0.701779 -0.617036 -0.791718 0.259956 -0.278213 0.196307 -0.502558 -0.455683 0.0748475 0.0505039 -0.658284 -0.745384 0.310203 -0.394807 -0.166105 0.402986 0.193125 0.10156 0.326934 -0.0710326 -0.178523 -0.14027 -0.451947 -0.255093 0.0309068 -0.175099 1.07001 -0.129143 -0.196706 0.742355 0.904619 -0.0723638 -0.647918 0.0623756 0.261552 0.158478 0.0523113 -0.166231 -0.570894 -0.00474812 0.177386 -0.570278 -0.194837 -1.05702 0.27305 0.434416 -0.692291 -0.388555 -0.722491 0.0453081 0.303237 -1.03537 0.268213 -0.625794 -0.00227029 -0.722929 -0.0592405 -0.148451 0.312481 0.382448 
64 0.286106 0.0773533 0.128925 0.230047 -0.233234 -1.0861 -0.340561 -0.00256537 -0.264222 0.441321 -1.21263 -0.481394 0.126915 -0.0770681 0.315998 -1.01786 0.370457 -0.737048 -0.32935 0.324706 -0.496474 0.600603 0.630688 -0.143324 0.0528754 -0.182899 0.0334706 0.132356 1.06307 -0.472533 -0.775343 0.478784 -0.623987 0.99777 0.432664 -0.794631 0.788299 0.434153 -0.128835 0.210187 0.715649 0.121296 0.481991 0.011836 1.04938 0.464103 0.708544 0.745025 -0.392123 0.20128 0.556485 0.411793 -0.085534 -0.197178 0.388412 -0.478619 -0.0103189 -0.404217 0.906807 -0.0977285 0.876893 -0.106558 -0.608573 0.898046 -0.581967 0.197598 0.0339135 -0.0606095 -0.687001 0.287276 -0.856967 -0.413254 0.298866 0.229994 -0.512048 -0.547209 0.270578 0.58286 -0.478517 -0.428041 -0.0231112 -0.40079 -0.263298 1.09951 -0.170008 0.292887 0.739712 -0.385101 -0.108004 -0.53289 -0.173981 -0.258677 0.230391 0.239922 0.595749 -0.461588 -0.577237 0.825244 0.873017 0.207757 -0.547326 -0.691684 -0.528233 -0.355839 -0.539332 0.129098 -0.280759 -0.117114 0.0964507 -0.399305 0.103632 -0.77819 0.306492 0.560211 0.064466 -0.0928193 -0.78272 -0.446577 -0.163993 -1.34581 -0.0921962 -0.986847 0.516123 -0.861499 -0.900585 -0.63464 -0.0891734 -0.25445 
65 -0.0413297 0.00431581 0.440836 -0.575345 -0.103335 -0.403401 0.344687 -0.799027 -0.52114 0.81387 -0.56482 0.378891 -0.288221 -0.220303 0.772157 -0.0886607 -0.173972 -0.49092 0.67799 0.531705 0.46972 0.114116 0.97503 0.805488 0.264457 -0.107591 0.511936 0.158722 0.157747 -0.317853 -0.797646 0.0355427 0.0738912 1.00516 -0.531512 -0.943107 0.878323 0.677237 -0.18137 0.169297 0.212505 0.82953 0.488456 0.492304 0.24925 0.265271 0.624017 1.29911 0.0157446 0.928859 -0.0339356 0.0379098 -0.0993526 0.209434 0.776673 -1.07973 -0.849231 0.13747 1.17604 -0.03775 0.619939 0.63591 0.651741 0.403358 0.583702 0.2302 0.0834699 -0.192722 -0.604801 0.891518 -0.224125 -0.476918 0.0913191 -0.3212 -0.594812 -1.10431 -0.341243 0.175375 0.606244 -0.372887 0.372525 0.747357 -0.935237 -0.0261961 -0.0718356 0.880802 0.176158 -0.303788 -0.75577 -0.598791 -1.39637 0.394282 0.218376 -0.344243 -0.837222 -0.451093 -0.440892 -0.117414 1.04342 0.587278 -0.255331 0.229907 -0.915068 0.137048 0.689985 0.279083 -0.984929 -0.430193 -0.089078 -0.110639 1.03723 -0.42911 -0.670821 0.659412 -0.0986142 -0.672003 -0.257615 -0.159275 -0.182319 -0.982637 0.531263 0.9935 -0.533348 -0.0878368 -0.214722 0.452999 -0.147741 -0.0530872 
66 0.0411464 0.280684 0.0199392 -0.0474558 -0.295629 -0.574747 0.448959 -0.164217 -0.295459 0.0122619 0.161009 0.140626 0.516254 -0.298064 0.337083 -0.108448 0.0642243 0.0022499 0.244669 0.195404 0.114323 0.0192658 0.21043 -0.267118 0.0784824 -0.0437302 0.256542 0.522529 0.49063 0.0439428 -0.473248 -0.136273 -0.572236 0.147645 -0.159258 0.200874 0.631358 0.0409552 -0.279831 -0.0921085 0.153621 0.446648 -0.204002 -0.229775 -0.0549371 0.314212 0.579306 0.431436 -0.155747 -0.0955352 0.203362 -0.135964 -0.476558 -0.0404179 0.105294 -0.530593 -0.154859 0.2899 0.395908 0.041089 0.291101 0.112744 -0.00779959 0.120104 0.466068 0.199888 -0.110078 -0.079696 -0.186496 -0.26349 -0.469617 -0.3159 -0.183564 0.514425 -0.339845 -0.164107 0.229148 -0.0585928 0.178876 -0.262091 0.188248 0.0425079 0.180393 -0.146435 -0.199919 -0.0143015 0.259888 -0.0652498 0.135259 -0.0459953 -0.388812 0.224812 -0.229097 -0.0576141 0.4385 -0.253984 -0.24381 0.0389591 -0.0518132 -0.136192 -0.14256 0.13664 0.17023 -0.192256 0.0807341 -0.246528 0.0432444 -0.192783 0.204643 -0.094475 -0.381174 -0.100603 -0.362143 0.203263 -0.233689 0.119795 0.43144 0.0504082 -0.462779 -0.563395 0.162041 0.11714 0.131557 0.332422 -0.0346391 -0.293885 0.421967 -0.224418 
67 0.881883 0.244368 -0.626385 0.329517 0.263152 -0.373914 -0.0965354 -0.511864 -0.216803 -0.362171 -0.199381 0.0350075 0.0794831 -0.729402 0.248359 -0.0970604 0.41734 -1.09915 0.0922994 0.19612 -1.2827 -0.967079 -0.0480139 -0.41552 1.1567 -0.696865 0.49878 0.425049 0.69039 -0.451453 -0.331837 -0.202929 1.17841 0.430925 0.485568 0.176448 -0.0696744 -0.0605685 -0.487524 -0.375537 1.06558 -0.00913315 0.461467 -0.551926 -0.404755 0.376678 1.22072 1.25906 -0.661186 -0.311349 -0.286114 0.508905 -0.327672 0.268546 0.0357634 0.462296 -0.342054 0.130263 0.989124 0.132308 -0.593865 0.0275247 0.54715 0.55223 -0.290225 -0.183877 1.01674 -0.262768 -0.804672 0.534168 0.516261 -6.47629e-05 0.357309 -0.12365 -1.77675 -1.03212 0.910929 0.0381281 0.383037 -0.143774 1.2604 -0.416437 -0.303283 -0.104542 -0.84584 0.189762 -0.221929 -0.330422 -0.401287 0.296017 -0.247265 -0.325592 -0.604945 0.0402061 0.862452 0.455253 0.591535 -0.200366 0.578901 0.35091 -0.42152 0.00904662 0.352156 -0.271663 0.270322 -0.354968 0.376197 -0.238908 0.833088 -0.0129005 0.642972 -0.566511 -0.497861 -0.190191 0.343829 0.0736634 -0.167846 -0.306598 -0.481671 -1.60248 1.03593 1.15968 0.146347 -0.278204 0.143815 0.154644 1.01639 -0.136936 
68 0.259025 0.128203 -0.170746 -0.542292 -0.125498 -0.439706 -0.489324 -0.173313 -0.268953 0.447931 -0.293801 -0.325152 0.102887 0.173803 0.264047 -0.246317 0.179656 0.012158 0.17913 0.36932 -0.474273 0.00603011 0.174742 0.218749 0.526361 -0.118822 0.471592 0.041426 0.1638 -0.230672 -0.268219 0.374487 -0.436033 0.146429 0.266453 -0.243495 0.483435 0.261148 -0.115193 0.0278206 1.00074 0.364334 0.0680632 0.0741425 -0.113245 0.0334897 0.295899 0.684022 -0.171537 0.541509 0.355015 0.0072082 0.131078 0.282361 -0.0340277 0.103453 -0.242007 0.382365 0.354552 -0.700785 0.173791 0.628426 -0.248648 0.466984 -0.0137927 0.282407 0.0811249 0.319336 0.0455062 0.220106 -0.21044 0.124492 0.187757 -0.00693046 -0.437058 -0.118264 0.316336 0.366551 -0.258972 -0.610286 0.0381145 0.0354918 0.299975 0.162474 -0.212046 -0.0378428 -0.588676 -0.21954 -0.189557 -0.2885 -0.32933 0.305644 0.0442952 -0.160503 0.159909 -0.471404 -0.591553 -0.0395827 -0.385352 -0.120923 -0.538325 -0.229638 -0.0121765 -0.478867 -0.0093716 0.0414157 -0.543754 -0.407538 0.38388 -0.356914 -0.00733456 0.0266488 -0.366694 0.448046 -0.525054 -0.315524 -0.165129 -0.51914 0.0179441 -0.414078 -0.199883 -0.539169 0.15999 -0.133886 -0.00480489 -0.447016 -0.0172408 -0.361204 
69 -0.139791 -0.118552 0.128882 0.895444 -0.162743 0.987883 -0.552564 -0.533747 1.00215 0.140008 -0.0123307 0.156819 1.46506 -0.122341 0.558358 -0.649657 -0.0999945 0.289172 0.888677 0.354932 0.132823 -0.693972 1.09406 -0.0287331 0.606735 -0.104931 1.56005 0.332284 -0.176874 -0.0775573 -1.00312 -0.537758 0.903675 -0.129011 -0.25056 -0.0593951 1.40009 0.339924 -0.0665556 0.575214 0.752706 -0.48467 0.153411 -0.286097 -0.439315 -0.312804 0.603489 0.705466 -1.16385 0.547211 -0.730056 -0.0980623 -0.519058 0.164939 1.02073 0.117765 -0.661226 0.258941 0.404021 0.148085 1.09946 -0.193375 -0.134646 1.07096 0.246782 -0.101547 0.854502 -1.00116 -0.963993 -0.20714 -0.196352 -0.221312 0.959195 1.25629 0.0853237 -0.130977 0.753499 0.345438 -0.151393 -0.0614116 1.75769 0.0882096 0.237399 0.0427129 -0.501993 0.109961 0.0780882 -0.61804 -0.180411 0.426297 -0.479201 -0.957486 -0.559912 -0.195685 0.0608843 0.241273 -0.124877 0.10096 0.877388 -0.201792 -0.36007 0.0155675 -0.383013 -0.144752 0.636773 0.35657 -0.610162 -0.114524 0.194478 0.330618 0.651565 -0.00394255 -0.202921 0.826596 -1.32744 -1.62497 -0.325477 -0.792894 -0.468259 -1.03308 0.244427 0.158982 -0.129632 -1.29341 0.447517 -0.275403 -0.293792 0.588158 
70 0.49884 -0.010066 -0.193399 0.382723 -0.780064 -0.819728 -0.615211 -1.03459 -0.178063 0.209748 -1.63443 0.807655 0.600348 -0.375311 -0.119488 -1.2004 0.0327912 -0.112297 -0.0108688 0.286473 -0.38396 0.508642 0.938088 -0.278016 -0.465612 -0.369666 -0.00280241 0.654805 -0.445805 0.041725 0.16312 0.0206698 -0.538579 1.28599 0.106753 0.283462 0.387476 0.220683 0.0695162 0.726691 0.305764 0.676449 0.291553 0.0701812 -0.142341 -0.0235282 0.841708 1.16686 -0.846438 0.73024 -0.168951 0.597417 -0.0656688 -0.388784 0.877937 -0.218622 -0.0771596 0.468374 0.817773 -0.177392 1.24519 0.998544 0.308064 0.779038 0.197099 0.0300028 0.317886 -0.567998 -0.409886 -0.381589 -0.303498 0.278315 0.0433941 0.0278768 -0.258296 -0.154045 0.67466 0.118649 -0.493905 -0.28519 0.450706 -0.556417 0.115368 0.655804 -0.242391 -0.222501 0.102596 0.0582679 0.191777 -0.353331 -0.930212 0.0715476 0.153054 0.459501 -0.0230749 -0.330394 -0.762154 0.285549 -0.107108 -0.340292 -0.492995 0.955059 0.600648 -0.218868 -0.213045 -0.263818 -0.210921 -0.0970989 0.0544286 -0.644369 0.249987 -0.609169 -0.445489 -0.112454 -0.356946 0.00912746 -0.86999 -0.172876 -0.539186 -1.06775 0.244907 -0.423069 0.166528 0.132988 0.848882 0.409503 0.169049 -1.0789 
71 0.0072763 0.274648 0.0772496 0.147436 -0.336659 -0.0965975 0.253742 -0.0560056 -0.705985 0.196008 -0.452814 -0.26151 0.358459 -0.65906 0.387931 -0.119715 -0.236411 -0.0212827 -0.00436702 0.603188 -0.285117 0.315305 0.830793 0.628956 0.40911 0.0594572 0.326722 0.778582 0.320835 -0.554384 -0.641389 0.293841 -0.446891 -0.400323 0.138558 0.617836 0.56605 0.623533 -0.00484415 0.850149 0.823115 -0.0880509 0.283479 0.106708 0.253801 0.915788 0.337109 1.0768 -0.0368948 0.123309 -0.307386 0.329558 -0.538105 -0.366046 0.103575 -0.341857 -0.669775 0.611859 -0.00147281 0.0175506 0.0685391 0.0312419 0.234142 0.0554679 -0.337744 0.40548 0.41613 -0.094591 0.0634358 -0.05507 -0.550656 0.178438 -0.0740526 -0.232782 -0.356209 -0.197014 0.249353 -0.137181 -0.843478 0.307696 0.614881 -0.241066 -0.125883 0.343788 -0.589515 -0.0232633 0.0880378 -0.0283784 -0.5312 0.0741316 -0.640673 0.370681 -0.463836 -0.368745 -0.248719 -0.2184 -0.435927 -0.228159 -0.0956331 -0.963583 -0.52278 0.243577 -0.0844902 -0.0377451 -0.0349246 0.145938 -0.68856 -0.364783 0.108406 -0.137771 0.259487 0.0585373 -0.281585 0.135024 -0.644153 -0.323895 0.396886 -0.415628 -0.314217 -0.974765 0.338971 0.21203 -0.217581 0.0708869 0.267522 -0.100632 0.254541 -0.817063 
72 0.0316651 -0.251596 -0.0856044 0.176196 0.170899 -0.686224 0.115047 -0.672919 -0.0765999 0.0412866 -0.810246 -0.817433 0.224732 -0.370871 0.100959 -0.660227 0.474907 -0.62024 0.0728317 -0.0104206 -0.584264 0.0532939 0.200086 -0.0767172 -0.0836485 0.4453 0.543593 0.194736 0.203924 -0.147028 -0.103019 -0.509346 -0.0938114 0.455573 0.215303 -0.182138 0.615749 0.0653651 0.279143 0.551641 0.231204 0.2895 -0.00459262 0.144024 0.189029 0.246282 0.57249 0.890656 -0.233525 0.0944532 0.270698 0.0726133 -0.494467 -0.0884732 0.425982 -0.227643 -0.0105893 0.433135 0.514434 0.0505098 0.377291 0.285326 0.27113 0.486245 -0.171054 0.229461 0.266458 -0.518655 -0.27467 -0.210457 -0.382729 0.068503 -0.205723 -0.345368 -0.256626 -0.347136 -0.0640561 -0.0306648 -0.283756 -0.474776 0.442651 0.298488 -0.219004 0.447743 0.163265 -0.0620302 0.153175 0.0271146 -0.00724194 -0.349398 -0.417393 -0.114376 0.108993 -0.0290939 0.689918 -0.165903 0.132294 0.399924 0.161542 0.787317 -0.181639 -0.161796 0.20748 -0.0545164 -0.152978 0.000852677 -0.264723 0.0245255 0.2072 -0.186978 -0.0628908 -0.409207 -0.252411 0.491349 -0.341871 -0.486137 -0.282665 0.348086 0.039877 -0.958789 0.397126 -0.581959 0.206799 -0.416105 -0.341157 -0.270383 0.0116473 0.0676182 
73 -0.026673 -0.0279476 0.273161 -0.016359 -0.0235705 -0.0180716 -0.243694 -0.118178 0.119896 -0.189163 -0.322184 -0.171107 0.343883 -0.351603 0.00383664 -0.373617 0.235671 -0.13513 0.0654503 -0.306635 -0.184449 -0.0521664 0.308042 0.435532 0.21249 -0.172413 0.237053 0.0388352 -0.232444 -0.122498 -0.479777 -0.0890183 -0.297531 -0.0906341 -0.0487143 0.00572356 0.61444 -0.0256811 0.225946 0.227346 0.454118 -0.0171913 0.0307026 -0.140279 -0.143824 0.00906397 0.473928 0.471478 0.200764 0.23808 0.00800203 -0.0129244 -0.390179 0.0826892 -0.159005 -0.417869 0.0801881 0.296228 0.438688 -0.297877 0.410751 -0.0265311 0.0206865 -0.123412 0.208218 0.383683 0.427338 -0.124258 -0.412435 0.0400498 0.379883 -0.196999 0.0516839 0.0494195 -0.317599 -0.0532419 0.807466 0.159853 -0.193689 -0.447767 0.14369 -0.299235 0.3971 0.359442 -0.516723 0.180036 -0.01516 -0.401737 0.00588705 -0.579244 -0.0335208 0.0255729 0.0817856 -0.399937 0.280135 -0.000497725 -0.398904 0.103193 -0.0243494 -0.211258 -0.51165 0.01186 0.185397 0.316593 -0.100618 0.3147 -0.070701 0.101547 0.299843 0.0550534 0.0531685 0.0135901 -0.599156 -0.201814 0.154636 0.300592 -0.362145 -0.271816 -0.506067 -0.375044 0.300056 0.146909 0.00703269 -0.00269256 -0.117481 -0.0890953 0.189936 -0.168218 
74 0.391964 0.0452206 -0.0959646 0.327202 -0.150546 -0.59533 0.100371 -0.385532 -0.264908 -0.148022 -0.353534 -0.113865 0.0411876 -0.236094 0.136106 -0.168724 0.0970694 0.148844 0.181478 0.521554 -0.409601 -0.219573 0.270487 -0.307786 0.0289015 -0.242674 -0.0189162 0.154512 0.174865 -0.396649 -0.267614 0.271184 -0.247231 -0.161593 -0.000421637 -0.328702 0.240137 0.256922 -0.0358607 0.190363 0.544181 0.383736 -0.057012 0.236606 -0.102105 0.20371 0.546045 0.677198 0.111605 0.502596 0.0879102 0.282686 0.0780494 -0.228856 0.178574 0.326806 -0.143155 0.143196 -0.11352 0.179081 0.120083 0.0237507 -0.0958395 0.542082 -0.292492 0.127524 -0.334243 0.0344782 -0.381024 0.113992 -0.0495984 0.268745 0.0376694 0.43677 -0.171519 -0.204281 -0.0434788 0.338125 0.0646657 -0.139194 0.665169 0.0557979 -0.490066 -0.0919906 0.0370684 0.0567916 0.0824947 -0.185563 -0.369618 -0.254154 -0.481219 -0.219663 0.202116 0.0811504 -0.379008 -0.369228 -0.256744 0.151731 0.0559968 -0.0704413 -0.170351 0.154906 0.163617 0.0783142 -0.0498793 0.253681 0.13316 -0.380059 -0.32737 0.0576091 0.339624 -0.399802 -0.348921 0.414908 0.278222 -0.142275 0.288548 -0.0371816 0.24683 -0.267011 0.227249 0.134203 -0.00774908 -0.42403 -0.0894588 -0.336883 -0.0395157 -0.315313 
75 -0.00287538 -0.314165 -0.258567 0.159888 -0.143086 -0.569655 -0.27414 -0.611342 0.174659 -0.205622 -0.79493 0.572978 0.561741 -0.0989117 0.647445 -1.35071 -0.276174 0.124411 0.611708 0.825255 -0.0608184 0.192509 0.437844 0.00634149 -0.242877 -0.196842 0.710781 0.619563 -0.421561 0.00976147 0.288204 -0.0871318 -0.424225 1.08448 0.112135 0.239965 0.414285 0.237628 -0.314697 0.0720095 0.344127 0.357938 -0.0637894 0.0154634 -0.16031 -0.0512546 1.04495 0.936935 -0.660396 0.244067 -0.244719 0.406817 -0.000441236 -0.10822 0.488671 -0.60469 -0.154842 0.0137333 0.576311 -0.121952 0.79135 0.564706 -0.0122218 0.617385 0.318079 -0.221371 -0.0751874 -0.349488 -0.417752 -0.202166 -0.0691026 0.204674 0.0251174 -0.212331 -0.51127 -0.0978327 0.715934 0.00436602 0.0639603 -0.206652 0.245069 -0.021254 0.15853 0.019183 0.0347694 0.353229 -0.158784 -0.182482 -0.050701 -0.571059 -0.641581 -0.437268 0.131514 0.654611 -0.309827 -0.24556 -0.505231 0.137166 -0.0947951 0.307195 -0.653555 0.898868 0.146265 -0.789566 -0.0124877 0.095368 -0.290697 -0.204305 -0.125745 -0.590429 0.284892 -0.665143 -0.593123 0.30768 -0.511248 -0.437265 -0.151593 -0.288549 -0.760774 -1.49215 0.0811667 -0.209877 -0.0618811 -0.246585 0.34452 -0.147302 0.192458 -0.945912 
76 0.0693942 -0.2531 -0.0564813 0.159339 0.191238 -0.653486 0.103858 -0.67506 -0.0538018 0.00524557 -0.754284 -0.779971 0.245149 -0.34824 0.0517729 -0.700092 0.469077 -0.597426 0.0832539 0.0255093 -0.597714 0.00675278 0.211063 -0.115747 -0.087191 0.453057 0.540043 0.189975 0.173036 -0.110709 -0.0707864 -0.518709 -0.0740482 0.452344 0.204528 -0.236785 0.653666 0.0565709 0.284248 0.575418 0.203019 0.32035 0.00837861 0.191542 0.215297 0.277136 0.505391 0.887746 -0.232268 0.125047 0.256504 0.0699448 -0.529169 -0.0722269 0.415345 -0.184455 -0.0104963 0.40221 0.495671 0.0647882 0.338644 0.334251 0.239984 0.526929 -0.112087 0.238712 0.242382 -0.518993 -0.286053 -0.183739 -0.342616 0.0659152 -0.232063 -0.3529 -0.260135 -0.39134 -0.113896 -0.0563032 -0.272156 -0.484289 0.455897 0.267839 -0.198459 0.45362 0.162307 -0.0645219 0.139215 0.0531536 0.00920903 -0.350238 -0.452885 -0.147693 0.0522732 -0.0154857 0.740113 -0.166664 0.184835 0.393101 0.153951 0.79793 -0.161714 -0.193667 0.196009 -0.00157511 -0.169881 -0.00845642 -0.24493 0.0090952 0.16604 -0.181213 -0.035015 -0.41093 -0.263469 0.528739 -0.376427 -0.481881 -0.256393 0.374271 0.0595505 -0.975758 0.379592 -0.551515 0.244742 -0.39329 -0.323872 -0.246196 0.0382657 0.0861495 
77 0.172924 0.276577 0.382741 0.475002 -0.427438 -0.649392 0.0509515 -1.17844 0.263215 0.107858 -1.36018 -0.601033 -0.124414 -0.275985 0.0236081 -0.508929 0.685174 -0.0836688 -0.087301 0.386874 -0.688419 0.800207 0.932926 -0.0826887 -0.141242 0.631077 0.565384 0.348489 0.320436 -0.0768389 -0.50885 -0.625907 -0.107073 1.07863 0.30863 -0.115351 0.727953 0.213634 0.138383 0.380601 0.512202 0.828199 -0.520665 0.222319 -0.247517 0.283399 0.860729 1.15445 -0.38786 0.00579537 0.39765 -0.154417 -0.651129 0.12816 0.531095 -0.0129518 -0.795986 0.644814 0.560883 -0.655674 0.312465 0.569472 0.753942 0.021582 -0.467298 0.62871 0.442437 -0.689895 -0.738791 -0.355652 -0.713294 0.24477 0.0567001 0.442592 -0.380341 -0.185693 0.242282 0.011626 -0.422027 -0.391318 0.446452 -0.464086 0.110622 0.283411 0.212274 -0.44771 -0.0178618 -0.301247 -0.0976313 0.215965 -0.432893 -0.198546 0.343281 -0.17759 0.792877 -0.115795 -0.327802 0.307195 0.211429 -0.209538 -0.703342 -0.040676 0.144741 0.21858 0.0999812 0.286223 -0.791995 -0.143206 0.236047 -0.628638 0.0384028 -1.25673 -0.361805 0.336724 -0.612915 0.0605579 -0.619069 -0.112136 0.298417 -0.942592 0.158271 -0.182181 -0.0835557 -1.19544 -0.411783 0.00513484 -0.00524085 -0.0908066 
78 -0.0687802 -0.29849 0.152702 -0.0301733 0.0877013 0.463297 -0.538539 -0.268569 0.346508 1.39891 -0.539488 0.303423 0.178001 -0.202257 0.758329 -0.562346 0.361125 0.153774 0.591062 0.495693 0.137241 -0.314222 1.15451 0.271672 0.149828 -0.443809 0.871037 0.727547 0.38084 0.0904716 -0.684494 -0.319809 0.669811 0.287008 -0.365438 -0.41049 1.41178 0.939431 -0.054564 -0.0751914 0.23592 0.251914 0.46611 0.517759 -0.267386 -0.576867 0.929381 0.858394 -0.165264 1.11514 -0.0932137 -0.313622 -0.552305 -0.535567 0.85194 -0.594799 -0.330091 0.42079 0.524367 0.0941107 0.72624 0.257967 -0.000152097 0.233131 0.0346959 0.30768 0.136588 -0.457747 -0.225695 -0.221556 -0.394833 -0.0752543 0.784671 0.108774 -0.5215 -0.106651 0.236477 -0.239071 0.152821 -0.485854 1.0258 -0.0614154 -0.192832 0.0689471 -0.953587 0.431793 0.702226 -0.464823 -0.470305 -1.16688 -0.960553 -0.337514 -0.459025 -0.652592 0.25982 -0.111809 -0.436521 -0.0438191 0.934176 0.50212 -0.736601 -0.0955968 -0.939761 -0.599794 0.316803 -0.209985 -1.27197 -0.0769428 0.0677916 -0.0186771 0.97617 -0.572191 -0.161464 0.356006 -0.550163 -0.381258 -0.825297 0.373989 0.100881 -0.621017 0.125392 0.0739537 -0.404507 -0.273506 -0.0852128 -0.251677 -0.0983084 0.268481 
79 -0.312181 0.365677 0.109038 0.121791 -0.099341 -0.0510859 0.398255 -0.0883523 -0.0436479 -0.268563 -0.17167 -0.682636 0.212576 -0.768117 0.66241 -0.668914 -1.01673 0.186687 0.118571 0.514564 -0.359602 -0.141625 0.152671 1.10113 0.920065 0.191708 0.792235 1.3175 -0.131814 -0.235836 -0.471155 0.248842 -0.000664497 0.488607 0.432013 -0.649585 1.8496 1.03243 -0.090979 -0.0789932 0.361935 0.358883 0.629582 0.15912 -0.266473 0.0103404 1.16115 0.584504 -0.617366 0.688733 0.347726 0.868928 0.305389 -0.991581 -0.20751 -0.759112 -0.490555 -0.307986 0.187071 0.0320448 0.141987 0.587283 0.175212 0.63199 0.223542 -0.176582 0.283247 -0.972329 -0.374321 0.262083 -0.0727911 -0.89976 0.698109 -0.477109 0.380575 -1.15689 0.383886 -0.355909 0.300361 -0.486436 1.30745 -0.0381304 -0.962703 -0.43944 0.497206 1.09416 -0.10567 -0.70985 -0.823189 0.15033 -0.789107 0.0200151 0.341505 0.388822 0.487398 -1.59129 -1.01004 -0.450535 1.29776 0.578402 -0.966088 -0.193519 -0.361102 0.735141 0.498285 0.60929 -0.363202 -0.0453722 0.0841894 -0.0914241 0.415546 -0.683197 -1.08158 0.987849 -0.625258 0.0898214 -0.133261 -0.481841 -0.297699 -0.646673 0.297047 0.290971 -0.115825 -0.184741 0.11997 -0.36858 0.460445 -0.437416 
80 0.222842 0.319034 -0.0612519 -0.105269 0.191934 -0.151213 0.0746931 -0.661085 -0.30897 0.364638 -0.880224 0.0273483 0.132282 -0.466042 0.237633 -0.185538 0.223515 0.180175 0.275029 0.333464 -0.482949 0.217691 -0.0974837 -0.152051 0.41319 0.135608 0.469059 -0.0278824 0.147323 0.284141 -0.724642 0.525102 -0.321201 0.45833 0.173946 -0.413131 0.435801 0.627435 -0.381368 0.821722 0.696878 -0.110933 -0.44716 -0.148502 -0.0773282 0.455973 0.730123 0.0512038 -0.341644 -0.158243 0.412376 -0.0699713 -0.19894 -0.367655 0.305753 0.172535 -0.179067 0.578107 -0.0916235 -0.334973 0.543894 0.575197 -0.0804387 0.323405 -0.147468 0.837139 0.275214 -0.102407 -0.998707 0.276331 0.0578951 0.0275724 -0.0718414 0.437637 -0.371113 -0.294042 0.0503408 0.230502 -0.334989 -0.0794628 0.382252 -0.289582 -0.154619 0.667593 -0.21789 0.186549 0.776984 -0.516996 -0.604103 -0.647789 -0.955738 0.00938431 0.469529 -0.292764 0.0315291 0.302138 0.328071 -0.593145 -0.108954 -0.0808056 -0.788141 0.186717 0.295975 -0.450865 -0.250595 -0.163951 -0.68241 -1.04988 0.357656 -0.482793 0.482719 -0.098499 -0.406169 -0.146425 -0.578769 -0.296091 -0.440914 -0.270071 -0.493644 -0.757189 0.542487 -0.0896257 -0.0817732 0.270363 -0.371635 -0.077889 0.268708 -0.613707 
