3312 128
0 -0.535149 -0.557199 -0.777592 0.227716 -0.171308 -0.876735 -1.33487 -1.07671 -0.414114 -0.118492 -1.18164 0.379493 1.00606 -0.0483441 0.288218 -0.159915 -0.28708 -0.767258 0.722551 -0.372049 0.547255 0.807758 0.707101 0.371662 0.472161 -0.499557 0.659966 0.396054 1.12091 -0.356457 -0.267211 0.496727 -1.2196 0.256263 0.0072434 -0.183094 1.395 0.567024 -0.386473 0.821061 0.0154494 0.379215 0.224258 0.535789 0.462713 0.0700812 0.601549 1.44944 -0.33854 0.77662 -0.266695 -0.0150793 -0.442546 -0.705795 1.09537 0.404971 0.0507982 0.256143 0.296578 -0.108163 0.37681 0.0372113 0.588245 1.05291 0.449532 0.305254 -0.0043123 -0.559995 -1.25896 0.539874 0.164568 -0.731155 0.121665 -0.191039 -0.549602 0.575237 0.361957 0.66275 -0.133298 0.301364 0.322405 -1.04658 0.754069 0.463523 -0.119142 0.710364 0.049063 -0.11734 -1.74988 -0.625283 -0.481711 -0.0163267 -0.231617 0.434065 0.201375 -0.0251019 0.100104 -0.680119 0.12987 0.288311 -0.603099 0.347281 -0.258341 -0.278726 0.306585 0.213914 0.103045 0.668544 0.706322 -0.776515 -0.426338 -1.49896 -0.382921 0.485515 -0.245652 0.202729 -0.500628 0.31551 -0.747036 -1.2523 0.250783 -0.0649478 -0.177468 -0.528892 0.137904 -0.61537 0.303073 -0.664447 
1 -0.146826 -0.370464 -0.0633817 0.162809 0.248594 -0.0143408 0.467963 -0.19688 -0.0490921 0.362977 -0.354058 0.177015 0.0827844 0.0920675 0.810274 0.00390505 0.110773 -0.338258 0.125235 0.203156 -0.599513 -1.16202 1.10218 0.0162162 0.618323 -0.330186 0.630863 0.69949 -0.0461956 0.00772422 -1.0707 0.0918228 1.26151 -0.35777 0.187738 -0.119996 0.838796 0.418494 0.0520448 -0.471254 -0.0467757 0.0533619 0.734141 0.782419 -0.652851 -0.27961 1.21853 1.41883 -0.740862 0.6637 -0.260131 -1.04292 -0.502552 0.349249 0.81154 -0.562797 -0.970416 0.661926 -0.0819635 0.612186 0.590541 0.387625 -0.0697575 0.830859 -0.147177 -0.447231 -0.167278 -0.226922 -0.370122 -0.0209068 -0.25068 -0.283949 0.919966 -0.51271 -1.09027 0.0730835 0.422299 -0.0759731 0.482577 -0.536317 1.04558 -0.147223 -0.195516 0.324673 -0.787642 0.299567 0.577015 -0.861163 -0.249253 -0.969489 -1.59127 -0.0718899 -0.49368 -0.930912 -0.022775 0.0124884 0.21755 -0.643877 1.49923 0.26948 -0.895097 0.0163885 -0.700334 -0.555043 -0.0102647 0.0700224 -1.58475 0.296189 0.327839 -0.480348 1.21067 -0.428524 0.162408 0.26163 0.593674 -0.296476 -0.525904 -0.0244139 -0.24336 -1.48269 0.720232 0.404342 -0.00371315 -0.2622 -0.0886527 0.280127 -0.0254228 0.526616 
2 0.403457 0.082747 0.310689 -0.0168115 -0.235185 -0.649254 -0.0426055 -0.459265 -0.140316 -0.301746 -0.687788 -0.324405 0.162885 -0.0579631 0.043763 -0.369928 -0.165001 -0.51258 -0.092033 0.2349 -0.73563 0.335576 0.173248 0.0565635 -0.0608478 -0.200187 0.293304 0.178501 -0.222816 -0.321304 -0.0924999 -0.394499 -0.143029 0.178657 0.0131899 -0.219418 0.158066 0.390338 -0.0599119 0.123335 0.499132 0.312792 -0.134132 -0.00364145 -0.432099 0.519142 0.901639 0.387189 -0.235436 0.239028 -0.145752 0.45534 -0.64901 0.265922 0.214102 -0.552942 -0.652366 -0.240665 0.164011 0.0383519 -0.107446 0.547818 0.256097 -0.0787886 0.167146 0.318454 0.0693985 -0.107616 -0.180406 -0.0472898 0.297134 -0.597538 0.11909 0.172432 -0.290225 -0.645088 0.309057 0.109961 -0.411422 -0.564188 0.487005 -0.639734 -0.213636 0.149383 0.341742 0.489505 0.311507 -0.197595 -0.156977 -0.543631 -0.406318 0.0425871 -0.052422 0.207842 -0.104069 0.0489223 -0.187404 -0.132131 -0.15253 -0.213048 -0.494948 -0.325829 0.162916 -0.346071 0.367653 0.338456 -0.529914 -0.494556 0.103969 -0.32121 0.233815 -0.265615 -0.441987 0.575242 0.0677146 0.275053 -0.112139 0.123083 -0.626176 -0.473985 0.135746 0.464055 0.0905493 -0.284441 -0.147703 -0.177823 0.334197 -0.272388 
3 0.540116 0.102966 -0.243347 0.101899 -0.0403997 -0.330513 -0.366839 -0.745691 -0.579143 1 -0.527675 -0.180046 0.631445 0.32593 0.0887056 -0.93673 0.403327 -0.110209 0.10003 0.584451 -0.0109841 -0.16227 0.255925 0.194444 0.538058 -0.554448 1.06306 0.573413 0.469771 -0.158624 0.0212667 0.22915 0.229473 0.455964 -0.529032 0.0978222 0.405921 0.246559 -0.270353 0.466985 0.0509275 0.00936241 0.266152 0.557473 -0.075574 0.664302 1.0985 1.31687 -0.339262 0.431991 0.397993 -0.372668 -0.0740955 0.0947242 0.317026 -0.0445562 -0.336325 0.261725 0.737888 0.124975 0.421865 0.427318 -0.318977 0.0734356 0.169807 0.205643 0.139198 -0.189873 -0.195134 -0.203445 -0.517486 -0.112095 0.210978 0.295457 -0.287235 0.0304381 0.200826 -0.114295 0.0255679 -0.211839 -0.104204 -0.288713 -0.438932 0.362637 -0.148784 -0.0108984 -0.00741275 -0.225314 -0.0669719 -0.66693 -0.401371 -0.267259 0.0464147 -0.186316 0.479412 0.500754 -0.816069 0.0395648 0.620973 -0.119057 -0.643683 0.222369 -0.354437 0.277847 0.724417 0.269783 -0.906539 0.194715 -0.242053 -0.373102 0.250109 -0.408795 -0.196713 0.376633 0.133212 -0.123028 -0.152901 -0.107318 -0.781664 -0.702021 0.515651 -0.0692898 -0.06577 -0.635225 -0.0454618 -0.266533 -0.424712 -0.141304 
4 -0.128268 -0.00729694 -0.213546 0.20979 0.318563 -0.450094 -0.114654 -0.231961 -0.4769 0.220353 -0.422913 -0.165648 0.758078 -0.0140794 -0.178951 -0.375071 0.491144 -0.00597236 0.539718 0.227233 0.105429 0.207317 0.395021 0.721652 0.697077 -0.100588 0.0662304 0.984159 0.361737 0.11496 -0.747615 0.0427294 -0.196937 -0.0518968 -0.118407 0.739079 0.304373 0.492681 0.229278 0.607435 0.42252 0.222986 0.345651 -0.148701 0.00669661 0.136261 0.502932 1.05281 0.291698 0.691313 -0.0981605 -0.0942875 -0.220939 -0.251306 0.470161 -0.0895951 -0.402902 -0.317578 0.0515012 -0.214012 0.502672 0.18163 0.470257 0.454024 -0.319354 0.458571 0.10799 -0.074775 -0.348152 0.17673 0.0832647 -0.129998 -0.0148178 0.128601 -0.6279 0.338619 0.3134 0.179716 -0.164986 -0.275171 0.489914 -0.21715 0.0690023 0.191057 -0.399927 -0.0185999 0.702711 -0.388108 -0.471335 -0.327011 -0.633474 -0.348672 0.212316 0.206888 -0.00693334 -0.229035 -0.584753 -0.589369 0.104263 -0.055605 -0.221469 0.512503 -0.112657 -0.0969934 0.507079 0.0908819 -0.432323 -0.0819405 0.678924 -0.27686 0.236572 -0.706379 -0.200084 0.023269 -0.616007 0.296039 0.367644 0.0176456 -0.403676 -0.87464 -0.0974173 -0.229223 0.269964 -0.119721 -0.676167 -0.560445 -0.0814033 -0.670904 
5 -0.462244 -0.18466 0.209834 0.188959 0.277076 -0.820507 -0.251313 -1.25767 0.123347 0.18024 -1.38997 -0.677868 -0.254921 -0.437116 0.00848328 -0.18617 0.795621 -0.181689 0.206333 0.377686 -0.940579 0.388156 1.02344 0.0520791 0.167079 0.436606 0.935186 0.502594 0.145083 -0.0574842 -0.688642 -0.154774 -0.000160718 0.538661 -0.100726 -0.0823509 0.878785 0.130923 0.325288 0.152037 0.401372 0.729105 -0.371971 0.251161 -0.214657 0.24059 0.639639 1.43058 -0.41675 0.198826 0.451234 0.0755832 -0.742123 0.0967254 0.766907 -0.211025 -1.089 0.549169 0.868685 -0.709934 0.571652 0.351942 0.550265 0.048905 -0.600405 1.04048 0.691734 -0.914642 -0.643359 -0.763303 -0.876955 0.367524 -0.169865 0.283174 -0.591974 -0.541712 0.378422 -0.0376467 -0.322974 -0.64482 0.320762 -0.546009 -0.163709 0.455344 0.292057 -0.106362 0.24939 -0.0289495 -0.558361 0.0659699 -0.684823 -0.256991 0.144256 -0.402244 1.09069 -0.302705 0.101452 0.364758 0.595824 -0.447037 -0.470525 0.0412301 0.181569 0.328826 0.192382 -0.134622 -0.843464 -0.419107 0.0298236 -0.5596 -0.239596 -1.38262 -0.217073 0.401623 -0.829085 -0.210924 -0.362004 -0.278942 0.10098 -1.32213 0.101039 -0.313192 -0.338935 -0.84572 -0.111375 0.0410855 0.0525937 -0.232346 
6 0.135541 0.172926 0.21504 0.489513 -0.0206776 -0.947239 -0.0177689 -0.0116836 0.42406 0.795402 -1.42863 -0.104384 -0.154273 -0.290651 0.920612 -1.0749 0.0315254 -0.245547 -0.509419 0.471664 -0.7628 0.0658561 0.490975 -0.233509 0.806682 -0.202593 1.06266 -0.0145199 0.784118 -0.0801762 -0.448629 -0.141159 -0.170116 1.10562 0.431618 -0.147244 0.910609 0.0696782 -0.148859 0.21386 0.247353 0.298787 0.466313 0.370038 0.919939 -0.0733011 1.28324 1.01508 -0.732251 0.469875 0.613389 0.889153 0.229553 -0.15206 0.241034 -0.621194 -0.0222291 -0.483894 0.450645 -0.28647 1.05966 -0.118902 -0.674194 0.664603 -0.0689245 0.252332 -0.234543 -0.168088 -0.633189 0.546799 -0.386214 -0.357011 0.243508 0.196031 -0.69652 -0.307528 0.323324 0.660812 -0.431955 -0.538765 -0.0196931 -0.0889943 -0.154787 0.558969 -0.380352 -0.254994 0.873952 -0.795654 0.0285653 -0.945036 0.101576 -0.550537 0.259893 0.104435 0.282363 -0.115523 -0.722107 0.340118 0.803993 0.0789751 -0.384637 -0.309928 -0.00819792 -0.431727 -0.32529 0.101737 -0.677371 0.102394 -0.297127 -0.0417289 -0.124041 -0.995955 0.0436543 1.10935 -0.10094 0.233864 -0.747053 -0.559633 -0.436567 -1.33594 -0.242756 -0.420819 0.232136 -0.246798 -0.577662 -0.953638 -0.123521 -0.491271 
7 0.457201 0.0848107 -0.609657 0.366877 -0.523534 -0.161764 0.130905 -0.232046 0.0202172 0.198664 0.909332 -0.619378 0.730639 -0.329389 0.439601 -0.723203 0.636826 0.0539857 0.0961702 0.486077 -1.20299 -0.38769 0.277348 0.171907 -0.244724 0.139541 1.03468 -0.132921 0.151383 0.44193 -0.383146 0.207481 0.438404 0.204919 0.66062 -0.103852 0.611308 -0.310163 -0.509645 0.449715 0.976169 0.544602 0.361512 -0.352516 0.141319 0.370506 0.0489619 1.21836 -1.3638 -1.13915 -0.324431 -0.118782 -0.188665 0.163089 0.0645605 -0.544939 -0.707375 0.655501 0.67686 0.338575 -0.954622 -0.240695 0.408043 0.416556 -0.372291 0.344585 0.502377 0.482358 -0.996124 0.862337 -0.00156421 -0.680663 0.284272 0.432198 -0.280158 -0.368806 0.0818244 0.0178589 0.290217 -0.458109 0.762436 0.274289 -0.154266 -0.155407 0.0225433 -0.5796 0.0945144 0.196282 -0.205433 -0.510947 -0.644581 -1.15963 -0.591211 -0.171108 -0.0392566 -0.186307 0.265741 -0.109646 0.277986 0.288049 -0.224417 -0.361014 0.260508 0.0652347 -0.000893241 0.441398 -0.0709458 0.813736 0.831937 -0.342487 0.0295361 -0.00232287 0.0291683 0.309658 0.150065 0.0629644 0.302692 -1.5345 0.0683385 -0.511211 0.319693 0.583373 -0.467552 -0.128567 -0.303358 -0.483431 0.598613 -1.1451 
8 -0.176909 -0.0249164 0.642966 0.197837 -0.096619 -0.455318 -0.047164 -1.21019 -0.00625674 0.242447 -0.585315 -0.531719 0.702262 0.120776 0.331449 0.161917 0.692337 -0.696329 0.244481 0.319815 -1.04869 0.130023 0.698729 0.00529298 0.214765 -0.436205 0.512015 0.193696 0.213208 -0.613196 -0.0204909 0.226283 -0.797845 0.614149 0.614225 -0.132999 1.13098 0.51115 -0.247047 0.511849 0.259096 0.606199 0.0682191 0.233243 0.364419 0.097931 0.674645 0.755977 -0.219726 0.830702 0.251992 0.0681843 -0.593148 -0.147032 0.716326 -0.518197 0.11496 -0.00776767 0.385451 0.235494 0.671977 -0.316022 -0.0208007 0.660841 0.153398 0.235089 0.25768 -0.0407514 -0.879997 0.550477 0.519337 -0.469588 0.168628 -0.375066 -0.144242 -0.457999 1.40119 0.7006 0.203032 -0.0393353 0.115364 -0.281733 -0.0591086 -0.219419 0.118172 0.106262 0.210637 0.275143 -0.872121 -0.638144 -0.725279 -0.146655 0.132291 -0.338279 -0.0459592 -0.289146 -0.518506 0.0794158 0.332043 -0.558961 -0.0208936 0.233184 0.181138 0.00510813 -0.355534 -0.204955 -0.697743 -0.17048 0.462767 -0.368777 -0.235095 -0.810474 -0.363305 0.591028 -0.511207 0.255511 0.186487 0.0100651 -0.282722 -0.871761 -0.320187 0.234961 0.202694 -0.240329 -0.697744 -0.706993 0.0912677 -0.87988 
9 0.296163 -0.437339 0.113996 0.106273 -0.919561 -1.09642 -0.389477 -1.0621 -0.612972 0.360154 -0.547519 0.387497 0.282568 -0.616416 0.0856553 0.152079 -0.282009 -0.482651 0.316596 0.786864 0.0347721 0.2382 0.671438 0.0848411 -0.0601096 -0.32486 0.397505 0.377083 1.03953 -0.491042 -0.92422 0.261571 -0.486795 0.0293963 0.289562 0.0218944 1.32104 -0.0846407 0.262477 0.624642 0.629813 -0.27196 0.287503 0.534431 -0.00052574 0.601403 0.766908 0.945263 -0.634316 -0.134182 -0.587389 0.807338 -0.521447 -1.0972 0.22552 0.279079 -1.02773 0.270459 1.15447 -0.244193 0.298377 -0.164699 0.231119 -0.255913 0.0576071 0.195386 0.357565 -0.431399 -0.422484 0.304106 -0.289322 -0.559852 -0.127297 0.171056 -0.282849 0.769985 0.537678 0.52855 -0.652009 -0.431862 -0.154473 -0.445281 -0.49397 1.31929 -0.219973 0.369738 0.123077 -0.939363 -0.177251 -0.90436 -0.280096 0.44633 -0.583123 -0.0749861 0.146076 -0.391149 -0.599543 -0.455745 -0.301431 -0.280753 -0.585047 -0.230332 0.312082 -0.461863 0.184775 0.255305 -0.533375 0.280285 -0.0889428 -0.679718 -0.35345 0.222594 -0.672551 0.467169 -0.0333308 0.510942 -0.253481 -0.402069 -0.116953 -0.797297 0.602067 -0.354342 -0.192858 -0.832395 -0.424611 -0.0138919 -0.278573 -0.55093 
10 -0.173771 0.75455 -0.77445 0.518225 0.0363179 -0.392791 0.435494 -0.208724 0.0699879 -0.1236 0.456464 -0.587478 0.480231 0.193323 0.909546 -0.857687 0.106948 -0.0665766 0.181399 0.797308 -1.04881 -0.0136405 -0.141902 0.180093 -0.0144158 0.278557 0.795149 0.123307 -0.0536468 0.313345 -0.401087 0.188713 0.372886 0.657291 -0.0750734 -0.329207 -0.00200059 -0.540991 -0.00665843 -0.126164 0.562381 0.586599 0.467771 0.127449 -0.019368 0.362751 -0.151554 0.839103 -0.409208 -0.320482 0.571257 0.291143 -0.472552 -0.0919195 0.0591685 -0.801142 -0.702028 0.335846 0.531049 0.235102 -0.32115 0.249913 0.389353 1.41985 -0.0285706 0.434998 -0.0732637 0.512335 -0.453319 0.453239 0.343735 -0.450988 0.482127 0.0744576 -0.544556 -0.335526 0.576157 0.623993 0.246112 -0.204056 0.9118 -0.0862442 -0.402942 -0.0137499 -0.172856 -0.572368 -0.112144 0.415935 -0.075534 -0.135946 -1.09433 -0.283651 -0.107331 -0.366943 -0.0706638 0.0552239 -0.0308189 -0.220511 0.249825 0.144117 -1.25323 -0.117715 -0.171366 -0.568731 0.171996 0.287161 0.0842452 0.448973 0.679122 0.109896 0.273666 -0.0437837 -0.180326 0.569859 0.0161869 -0.282393 -0.0353275 -0.571661 -1.16316 -0.825639 0.0584656 -0.0939813 -0.641082 -0.353955 -0.4054 -0.0986197 0.0133737 -0.748981 
11 0.545728 -0.156968 0.389204 0.41462 -0.572182 -0.328421 -0.203071 -0.695015 -1.21021 0.348292 -0.283089 -0.0813096 0.745413 -0.470565 0.189036 -0.245334 0.0819876 -0.566797 0.0097884 0.88205 -0.333785 0.313092 0.078954 0.435865 -0.0666687 -0.751717 0.209866 0.473919 0.533135 -0.0762541 -0.233132 0.130284 0.0595495 0.286222 0.554667 0.0902998 0.469059 0.0270679 0.0364887 0.033541 1.12663 -0.0310532 0.209477 0.316939 0.0188978 0.50635 0.477991 1.07279 -0.24114 0.0440946 -0.461855 0.346133 -0.405502 -0.184523 -0.135339 0.256125 -1.02584 0.683505 0.291636 -0.0272213 0.427314 0.00698199 -0.330163 -0.328555 0.0118074 0.202353 0.241528 -0.347883 0.190168 0.11515 -0.716851 -0.103292 0.20212 0.368217 -0.78713 0.280605 0.409526 0.200149 -0.265717 0.0777774 0.700049 -0.090533 -0.639311 0.907129 -0.228534 0.0819514 -0.0439204 -0.565767 -0.375778 -0.340649 -0.362548 0.0411883 -0.580196 -0.3472 0.206382 -0.637737 -1.2423 -0.279244 0.0377317 -0.531758 -0.236357 -0.103407 0.73168 -0.148711 0.356561 0.541907 -0.454097 -0.0872433 -0.00803748 -0.512289 0.0709183 0.0582427 -0.637118 0.583064 -0.472723 -0.286721 -0.128012 -0.393553 -0.512543 -0.738824 0.580386 -0.456048 -0.27559 -0.262475 0.12996 0.0757235 -0.596147 -0.43673 
12 0.4743 -0.00998224 0.157595 -0.529879 -0.398189 0.0762615 -0.373035 -0.227283 0.418158 0.588335 0.000775775 -0.522411 0.501932 -0.108139 0.931515 -0.502076 -0.644221 0.281849 -0.429995 0.353056 -0.228693 -0.0333755 0.341782 -0.303642 0.296653 0.0241233 0.371964 0.433812 -0.258579 -0.37011 -0.261839 0.0894818 -0.247105 0.613981 0.194098 -0.665664 1.24452 0.680982 0.077571 0.878922 0.371508 -0.184234 -0.0201165 -0.106671 0.31716 -0.145001 1.26497 0.829062 -0.449827 0.744798 -0.323278 0.652521 -0.689093 0.0726243 0.147898 0.117435 -0.413642 0.14498 0.643836 0.00348081 0.18872 -0.234968 1.18514 0.608989 0.376195 0.109634 0.661062 -0.230592 -0.0145939 0.312772 -0.490851 -0.156847 0.790764 0.300381 -0.520345 0.259564 0.866904 -0.371585 0.287578 -0.244903 0.00235177 0.480721 0.111409 0.697811 -0.220628 -0.104542 0.4689 -0.718451 0.412786 -0.35725 -0.986862 -0.641886 -0.347617 0.00477786 0.0872313 -0.36205 -0.143484 -0.0722452 0.484893 0.122472 -0.350081 0.557705 0.0188069 -0.0331528 0.482222 -0.347261 0.221896 0.123066 0.653972 -0.521814 0.16877 -0.207651 -0.594294 1.07547 -0.656887 0.0337423 -0.511504 -0.735703 -0.0613508 -0.774177 0.304722 -0.205461 -0.498067 0.413786 0.424391 0.375891 0.21146 -0.348371 
13 -0.238572 -0.196965 -0.203995 0.0358871 -0.0479556 -0.225744 -0.558526 -0.161489 -0.187668 -0.00310463 -0.540368 0.140524 0.178413 0.107916 0.313522 -0.604075 -0.275925 -0.264447 0.327046 0.0370704 -0.127424 0.465876 0.327957 0.104183 0.536354 -0.204807 0.343775 0.322363 0.241091 0.308835 -0.122397 0.341713 -0.439696 0.575067 0.383747 0.196815 0.524615 0.320714 -0.0181166 0.0523781 0.317829 0.426638 -0.188664 0.1837 0.37779 0.0925261 0.683244 0.562207 0.0298478 0.52017 -0.127781 0.346662 -0.156659 -0.316369 0.347581 -0.057568 -0.335149 0.479124 0.159081 -0.196821 0.41056 -0.0328979 0.271271 0.421929 0.22731 0.20961 0.0197656 -0.117154 -0.638318 0.421054 0.174043 0.264019 -0.24891 0.135678 -0.271318 0.180631 0.467755 -0.0945369 0.0376 0.0451966 0.215866 -0.369192 0.412456 0.421224 0.0406384 0.337118 -0.152217 -0.224794 -0.665012 -0.284467 -0.174096 0.0729276 0.118357 0.373597 -0.626966 0.296192 0.139818 -0.0330902 -0.0195228 -0.124585 -0.491616 0.0664148 0.204295 -0.50557 0.187962 0.33665 -0.412634 0.219726 0.60378 -0.747658 0.249739 -0.542835 -0.315894 0.51522 -0.255927 -0.12666 -0.469675 -0.201683 -0.288103 -0.831614 0.459155 -0.236095 -0.294076 -0.291896 0.0468128 -0.403325 0.449506 -0.43428 
14 0.174486 -0.136264 0.985299 0.279286 -0.0137553 -0.568874 -0.00775094 -1.08862 -0.0658166 0.247267 -0.942432 -0.491116 1.04254 0.197898 0.0778701 -0.0233631 0.885451 -0.649558 0.35921 0.270139 -1.00091 0.213526 0.765587 -0.229214 0.243652 -0.265898 0.661612 0.296274 0.0498349 -0.500575 -0.0271888 0.606066 -0.634848 0.694883 0.371041 -0.28757 0.796291 0.597483 -0.547236 0.5909 0.543172 0.729695 -0.116276 0.248992 0.139006 0.160223 0.703488 0.668364 -0.224727 0.67976 0.340975 -0.09753 -0.513648 -0.163542 0.714054 -0.22398 0.142372 -0.00133741 0.238031 0.101103 0.388349 -0.191139 0.0577329 0.751105 0.125596 0.264137 0.513834 0.206937 -0.970754 0.505967 0.388767 -0.0561162 0.237614 -0.469702 0.0283857 -0.567037 1.32908 0.871464 -0.314248 0.0257246 0.099601 -0.208735 -0.342878 -0.019645 0.197221 0.568779 -0.0443885 0.200602 -0.935251 -0.739581 -0.846406 -0.179745 0.244815 -0.2662 -0.104819 -0.59215 -0.567227 -0.247172 0.333873 -0.619079 -0.136635 0.232849 -0.21725 -0.0849211 -0.588827 -0.115356 -0.413868 0.0294303 0.369342 -0.360419 0.221034 -0.910836 -0.494265 0.570684 -0.49323 0.441148 -0.125214 -0.253555 0.0199487 -0.484733 -0.348426 0.220005 0.191453 -0.131155 -0.460996 -0.992766 -0.264322 -0.715199 
15 -0.194406 0.579629 -0.687424 0.44284 -0.0424171 -0.144189 0.393402 -0.26369 -0.148558 -0.0755188 0.498352 -0.557555 0.437349 -0.00399346 0.787425 -0.996625 0.0193884 -0.295756 0.0352641 0.71768 -0.975927 -0.0583895 0.067956 0.247834 -0.0761613 0.222049 0.753403 0.0654329 -0.0853879 0.454335 -0.105547 0.175454 0.333938 0.680712 -0.233458 -0.158828 0.225875 -0.430215 -0.0547334 -0.296377 0.705816 0.452539 0.284064 0.272003 0.025976 0.243202 0.06627 0.886409 -0.47019 -0.348805 0.360622 0.446238 -0.323723 0.132783 -0.0348208 -0.675749 -0.349443 0.538399 0.609646 0.0527568 -0.484054 0.017423 0.497032 1.10935 -0.225014 0.306618 0.273694 0.301262 -0.536992 0.590583 -0.0107567 -0.442594 0.185188 0.228837 -0.345219 -0.212865 0.585425 0.836543 0.335647 -0.0458989 1.09913 -0.0275576 -0.391589 0.115004 -0.200307 -0.314508 -0.152285 0.35646 0.0577993 -0.353755 -1.07215 -0.373713 -0.291601 -0.431393 -0.0006051 -0.195281 0.116499 -0.214972 0.464174 -0.00226758 -0.792758 -0.380902 -0.178264 -0.276855 0.210646 0.220791 0.00260178 0.0930245 0.683573 0.079707 0.277839 0.0812176 -0.444806 0.418625 0.146637 -0.217347 0.177662 -0.762099 -0.801077 -0.990992 0.410332 0.0822854 -0.733659 -0.19378 -0.32446 -0.196358 0.221814 -0.943723 
16 0.509239 0.19042 0.278398 -0.535288 0.025842 -0.507756 -0.215404 -0.900423 -0.00127303 -0.116849 -0.60755 0.0635159 0.5241 -0.144032 -0.0896232 -0.49204 0.35644 -0.591306 -0.532172 0.346428 -0.506424 -0.377853 0.777475 0.595933 0.502908 0.0399602 0.370293 0.353794 0.359917 -0.0970464 -0.276561 0.634116 -0.544333 0.277627 0.015925 -0.0624221 0.536497 0.362762 0.209492 -0.0158772 0.165316 0.0379147 -0.0429522 0.667755 -0.20762 0.344582 0.819686 0.613157 -0.421859 0.605055 -0.336681 0.223515 -0.34609 0.0402081 -0.382613 -0.195755 -0.334821 0.226655 0.461644 -0.079561 0.0752008 -0.13649 0.0133725 0.352316 -0.353523 0.527982 1.01989 -0.297773 -0.563948 0.0495723 -0.490492 -0.0119946 0.425918 0.0341147 -0.660188 -0.26419 0.105812 -0.207143 -0.386993 0.113913 0.410677 -0.710172 0.204122 0.793143 -0.43158 0.0835069 -0.138002 -0.394176 -0.0824073 0.0335688 -0.318532 0.233289 0.00954621 0.0837242 0.359773 0.12913 -0.909752 0.128622 0.33526 -0.62755 -0.707192 0.199352 -0.0708558 -0.473183 0.72279 0.248905 -0.105366 -0.48058 0.0259023 -0.405776 -0.156842 -0.267038 -0.341521 -0.124095 0.374248 0.0765462 0.869947 0.504409 -0.309006 -0.822142 0.659441 -0.262724 -0.138628 -0.214122 -0.231667 0.0667277 0.391964 -0.490116 
17 -0.317165 -0.23059 -0.132494 0.305593 -0.0316173 -1.00629 -0.18101 0.185761 0.330481 0.75817 -0.902278 -0.187216 -0.266856 -0.713089 0.549734 -1.3143 0.120572 -0.181264 -0.214907 0.593468 -0.871718 -0.122763 0.575586 -0.195269 0.701405 -0.384724 0.741367 0.284674 0.8647 0.0662418 -0.938178 -0.169683 -0.00355149 0.625724 0.181101 -0.331341 1.16995 0.342329 -0.245264 0.0878458 0.499414 0.228377 0.678284 0.816506 0.255835 0.261408 0.699681 0.826537 -0.189562 0.433109 0.196294 0.407878 0.264561 -0.124494 0.520402 -0.186051 -0.0843193 -0.144602 0.666148 0.175565 0.789076 0.217616 -0.879348 0.653628 0.175693 0.421346 -0.383606 -0.266653 -0.928472 0.115408 -0.0254216 -0.0351129 0.260642 -0.0510132 -0.791794 -0.68175 0.313816 -0.0129368 -0.0193477 -0.478522 -0.100015 -0.0179697 -0.0384292 0.26935 0.0605547 0.0797785 0.925496 -0.905564 -0.0929723 -0.641085 -0.0224471 -0.736515 0.341345 0.457499 0.228296 -0.219929 -0.349971 -0.564571 0.474276 0.385149 -0.358559 0.271496 -0.286757 -0.59313 0.078186 -0.129711 -0.957839 0.157805 -0.153279 -0.187626 0.0641035 -1.1462 0.160406 0.956489 -0.512748 0.422916 -0.971206 -0.18917 -0.714374 -0.917204 -0.276276 -0.835165 -0.0243597 -0.191218 -0.0901372 -0.617196 0.103931 -1.11518 
18 0.656325 0.239587 0.696198 0.218258 -0.243232 -0.952611 -0.505136 -1.01922 -0.641977 0.0327529 -1.38163 0.705844 0.139436 -0.128458 -0.156969 -0.82709 0.0869522 -0.211638 -0.103586 0.476499 0.103022 0.511461 1.30605 0.386285 0.2272 0.170719 0.14154 0.745569 0.560763 -0.146512 -0.342484 0.406027 -0.526519 0.691423 0.46304 0.530254 0.608525 0.26366 -0.0968104 1.00175 0.565922 -0.22403 -0.550883 0.564615 -0.0817136 0.479723 0.647737 1.28122 -0.304338 0.22095 -0.258559 0.451481 -0.411089 -0.42694 0.233802 0.374481 -1.02298 0.727095 0.748776 0.116304 0.0743133 0.122192 0.249958 0.480318 -0.38499 0.537954 0.315788 -0.51109 -0.313474 -0.138411 -0.666815 -0.00571583 -0.187743 0.0309316 -0.347838 -0.026538 0.294659 -0.089297 -0.880596 0.0686166 0.382737 -0.909546 -0.633505 0.992522 -0.941055 -0.162065 0.258346 -0.0661573 -0.576388 -0.749104 -0.218883 0.153701 -0.183767 0.0176212 0.212661 -0.302435 -1.2661 0.365931 0.184542 -0.721397 -0.366572 0.246443 -0.229271 -0.413061 0.477737 0.176244 -0.218303 -0.46307 0.291984 -0.924988 -0.13197 -0.502591 -0.03062 -0.0845753 -0.972632 0.321026 -0.0181648 0.232873 -0.269803 -0.927119 0.576287 -0.601691 0.164212 -0.515342 0.450398 0.106921 0.354643 0.00262987 
19 -0.0441684 -0.345037 -0.252094 0.153327 -0.136945 -0.599541 -0.21592 -0.638584 0.144655 -0.240695 -0.856728 0.555035 0.538581 -0.141686 0.689649 -1.41867 -0.332905 0.137175 0.660567 0.812842 0.0452693 0.167121 0.437673 0.021707 -0.214162 -0.219849 0.744788 0.617543 -0.392057 0.0102484 0.22236 -0.145918 -0.450886 1.05605 0.134123 0.241802 0.453997 0.235028 -0.380973 0.141337 0.401379 0.37154 -0.0583461 0.0340633 -0.11559 0.000617574 1.08507 1.01076 -0.656111 0.280962 -0.264341 0.382266 0.00502898 -0.0952318 0.44158 -0.656565 -0.132578 0.0175457 0.644498 -0.14797 0.836245 0.51379 -0.028473 0.633479 0.305843 -0.177312 -0.0491166 -0.330016 -0.380094 -0.189743 -0.0698905 0.133013 0.0214563 -0.199536 -0.569863 -0.0924368 0.69724 0.0561947 0.0370405 -0.18691 0.269101 0.0391758 0.119271 -0.00539325 -0.0235506 0.362331 -0.123593 -0.179593 -0.0494585 -0.624469 -0.690987 -0.408964 0.103016 0.657874 -0.33198 -0.32093 -0.505354 0.138687 -0.0786209 0.317947 -0.665327 0.868561 0.116956 -0.838416 -0.0259064 0.163322 -0.340182 -0.217783 -0.163669 -0.554569 0.260091 -0.689473 -0.58274 0.352413 -0.51032 -0.479075 -0.108758 -0.248251 -0.775442 -1.55745 0.063212 -0.250871 -0.0654968 -0.247049 0.356363 -0.185694 0.17648 -0.965316 
20 0.0515531 -0.180692 0.136241 0.39164 -0.0824094 -0.930401 -0.0683965 -0.0996413 0.278704 0.672901 -1.22264 -0.115897 -0.153488 -0.34348 0.791752 -1.04013 -0.00704831 -0.235032 -0.292657 0.580038 -0.65092 -0.111395 0.290294 -0.341671 0.612015 -0.307575 1.10825 -0.0264738 0.459186 0.149059 -0.320578 -0.288666 -0.294026 0.937155 0.504352 -0.0749158 1.00772 0.0669244 -0.351107 0.326273 0.0723593 0.258605 0.37633 0.417689 0.764727 -0.0738531 1.24388 0.734183 -0.606819 0.354062 0.294982 0.844213 0.2913 -0.12149 0.198636 -0.488757 0.123441 -0.425148 0.516613 -0.0558291 1.01729 -0.0380841 -0.524922 0.682085 0.0445586 0.307851 -0.212812 -0.256324 -0.578981 0.350201 -0.112716 -0.121772 0.197023 0.177747 -0.581815 -0.397491 0.202273 0.40637 -0.309893 -0.454254 0.00184416 0.195856 -0.186242 0.397831 -0.310998 -0.104564 0.609929 -0.591883 0.126193 -0.962569 0.0182172 -0.542847 0.103652 0.0426286 0.251915 -0.240403 -0.567399 0.0743157 0.549891 0.216783 -0.398015 -0.0986442 -0.209359 -0.474897 -0.378403 0.217001 -0.496154 0.317828 -0.0968061 -0.175277 -0.153824 -0.966194 0.120143 0.914585 -0.244877 0.0448442 -0.888472 -0.364521 -0.465615 -1.15353 -0.0753009 -0.331134 0.291134 -0.0385066 -0.22729 -0.738645 -0.0985004 -0.548397 
21 0.0242137 0.247326 -0.12529 0.113789 0.0299016 -0.562881 0.380673 -1.10295 -0.258293 0.198572 -0.172166 -0.257986 1.35042 0.22228 -0.31292 0.0998819 0.32191 -0.18677 0.0980334 1.53201 -0.594538 0.160581 0.0880067 0.0503886 0.464493 -0.00700954 0.663118 -0.394282 -0.0870305 0.00482708 -0.468111 -0.428575 -0.245704 0.277629 -0.0400574 -0.37514 0.659676 0.80686 -0.122206 0.126485 0.332946 0.168331 1.33168 0.117868 -0.593901 -0.501501 0.965451 1.24212 -0.699794 0.194198 0.0554 0.0860568 -0.379811 -0.372658 0.842975 -1.03218 -0.308365 0.237423 0.612633 -0.266079 0.992993 0.305752 -0.199409 0.380462 -0.214039 -0.0444761 0.0172954 0.242245 -0.0740287 -0.204393 0.318486 -0.570683 -0.305523 -0.824223 -0.070121 -0.189583 0.68303 0.219309 -0.0717261 -0.203983 0.493354 -0.00696557 0.0826934 0.480598 0.0248594 -0.495858 -0.556417 -0.811679 -0.32554 -0.259728 -0.917643 0.355238 0.355709 -0.323561 -0.389575 0.0457586 0.206592 0.0607029 0.668603 -0.520339 -0.908723 0.305198 0.274782 0.0799755 -0.172568 0.922074 -0.53216 0.157453 0.651723 0.171318 -0.401195 -0.450372 -0.436705 0.24815 0.194538 0.0735882 0.17422 -0.584363 -0.489647 -0.88538 1.10985 0.310725 -0.780554 -0.79795 -0.178028 -0.109576 -0.257363 -0.81671 
22 -0.514029 0.580344 -0.512325 1.00585 0.236506 -0.4435 0.0959968 0.010193 -0.746804 0.0257644 0.54766 -0.394638 0.0413096 0.254053 0.357788 -0.747248 0.298505 -0.838293 -0.226003 0.13549 -0.853519 -0.615152 -0.228116 -0.817565 0.334886 0.156384 0.526303 0.675352 -0.480347 -0.0991787 0.316162 0.431721 0.0656264 0.202429 -0.0175011 0.101037 0.736856 -0.0911857 -0.478806 -0.527841 0.910795 0.303614 0.451481 0.756082 -0.278514 -0.161448 -0.350051 0.694949 -0.278054 -0.813904 -0.382456 -0.172735 -0.404746 0.244772 -0.1887 -0.565359 -0.420929 0.622796 0.521214 0.36482 -0.437015 0.00741791 0.333921 0.769945 0.089925 0.296134 0.526334 -0.0491684 -0.60261 0.628499 0.550714 -0.103255 -0.0906894 -0.117681 -0.459818 -0.0262546 0.297902 0.51488 0.122002 0.394283 1.4412 -0.180363 -0.39436 -0.366223 -0.115656 -0.52712 -0.182504 0.128386 0.0264332 -0.649565 -1.00086 -0.663798 -0.232623 -0.72194 -0.0227956 -0.058854 -0.45821 -0.137352 0.215935 -0.0602649 -0.847771 -0.464182 0.190883 0.788456 0.369472 0.105328 -0.257131 -0.449898 0.185661 -0.369333 0.505019 0.476125 -0.350058 0.486172 0.430147 0.251077 0.423002 -0.885048 -0.500079 -1.2333 0.619253 -0.399447 -0.160036 -0.0684292 0.0391734 0.273047 0.0903163 -1.15023 
23 0.387701 0.44786 0.7576 -0.0586996 0.113173 -0.560175 -0.0974327 -0.240631 -0.186303 1.00155 -0.943198 -0.55161 0.236282 0.115908 0.770462 -0.573845 0.511409 -0.472966 -0.206873 0.357476 -0.821404 0.273526 0.465088 0.114546 0.170692 0.47397 -0.0673264 0.599934 0.782174 -0.121409 -0.138387 0.0287789 -0.334268 0.875227 -0.241094 0.0112185 0.930095 -0.0381543 0.0261824 -0.0453214 0.499877 0.0210153 0.979098 -0.241432 0.763405 0.295357 0.730134 1.24501 -0.0346398 0.471875 0.383798 -0.217596 -0.176345 -0.0914372 0.0295182 -0.085997 -0.320947 0.172006 0.476596 0.242381 0.469691 -0.169207 -0.29724 0.687417 0.368249 0.271813 -0.0282 -0.576425 -0.0531678 -0.0252303 -0.558645 -0.365234 0.233562 -0.0550033 -0.335989 0.483642 0.07809 0.0661337 -0.218595 -0.117344 0.404361 -0.0636693 -0.92406 0.275977 -0.342387 0.512646 0.643036 -0.387318 -0.712182 -0.174279 0.117411 0.442861 0.191911 0.0951345 -0.125516 -0.248036 -0.798284 0.296388 0.615546 -0.0238247 -0.61509 -0.726216 0.394635 -0.62333 0.0282456 0.0848998 -0.128719 -0.387629 0.326027 -0.370546 0.0286555 -0.414064 -0.490838 0.372314 0.08477 -0.0429547 -0.626556 -0.918175 0.210893 -1.36847 0.180569 -0.27783 -0.00390764 -0.679104 -0.67736 -1.05857 0.170735 -0.103103 
24 -0.432047 -0.238377 -0.0639997 0.34159 0.449792 -0.211828 0.565395 -0.0803183 -1.23946 0.698292 -0.499329 -0.267486 0.5954 0.285157 -0.394862 0.00773976 0.555916 -0.0300301 0.463426 0.572691 0.0380543 0.073945 0.821357 0.858065 0.496799 0.115415 -0.268546 0.89862 0.562178 0.134729 -0.244029 -0.564922 0.00300978 0.578676 -0.424265 0.232353 0.632513 0.699822 0.359791 0.782781 0.540511 0.140372 0.031608 -0.128335 -0.0529896 0.0530857 0.64582 1.40163 0.560122 1.40724 0.362885 -0.823401 -0.791577 -1.59718 0.364698 -0.400677 -0.773614 -0.328277 0.202131 -0.534225 0.89224 0.190479 0.385071 0.116202 0.299964 0.854892 -0.162088 -0.272652 -0.267319 1.12792 0.00330518 -0.127001 -0.128112 -0.200645 -0.678791 -0.717749 0.583164 0.10951 -0.491884 -0.0512731 0.77643 0.0516 0.194952 -0.749456 -0.525613 0.103696 0.0364618 -0.335983 -0.59022 -0.434488 -1.10684 -0.373127 -0.543615 0.27223 -0.25544 -0.147203 -0.700253 0.32607 0.803221 0.214166 -0.569053 0.549674 0.0770341 -0.58613 0.395151 1.05386 -0.111931 -0.466383 0.791661 -0.252645 0.430985 -1.20777 -0.511819 0.374644 -0.474024 -0.326097 0.594339 0.226444 -0.755169 -1.02187 0.0549597 0.0469017 0.105817 -0.470544 -0.70174 0.0469897 -0.675247 -0.610446 
25 0.0157518 -0.0380562 -0.429821 -0.199492 -0.285775 0.266503 -0.680214 -0.491402 0.174877 0.613681 -0.860114 -0.414207 0.84367 -0.0773017 0.140117 -0.914784 -0.364985 -0.0929712 0.528962 -0.371492 0.437198 -0.522163 1.44192 -0.150414 0.511541 -0.574535 0.599293 0.395347 0.301954 -0.171166 0.197165 0.0285466 0.273549 0.151102 -0.707513 -0.465292 0.924744 0.704651 -0.0222183 0.467676 0.174704 0.26912 0.177722 0.384138 -0.495253 -0.253057 0.380233 1.38173 -1.07327 0.674738 -0.052158 0.375937 -1.0829 -0.249746 0.529495 -0.00302942 -0.2856 0.104449 0.451797 -0.284286 0.860952 -0.340018 0.675376 0.680222 0.418869 0.096834 0.66646 -0.65447 -0.375878 0.519024 -0.64351 -0.0120396 0.935481 1.06853 -0.581186 -0.107696 0.469583 -0.199424 0.324567 -0.677697 1.62252 -0.229611 0.234534 0.560758 -0.281046 0.301954 0.127666 -0.527809 -0.329271 0.207095 -1.28325 -0.933521 -0.310258 -0.236297 -0.144752 0.415552 -0.0130874 -0.184341 0.793678 -0.125868 -0.112846 0.199397 0.526336 -0.0600315 0.656688 -0.336145 -0.269672 -0.478684 0.0521749 -0.0183497 0.35055 -0.727265 -0.51587 1.11698 -1.10733 -0.995322 -0.179593 0.036963 -1.00501 -1.09354 0.340873 0.0454346 -0.220523 -0.0390861 -0.0116627 -0.543992 0.385265 -0.40294 
26 0.343283 0.260161 -0.333329 -0.0546144 -0.584905 0.202257 0.648924 -0.355705 -0.702682 0.75015 -1.3878 -0.91534 0.575048 -0.430022 0.26415 -0.674808 -0.458315 0.0125788 -0.18972 0.0944369 -0.106046 -0.22021 1.31095 0.177433 0.507619 -0.216698 0.886813 0.560721 1.00946 0.200023 0.825381 0.769632 -0.571717 0.000242316 -0.162373 -0.0936485 0.587156 0.736525 -0.0952936 0.633075 0.559401 0.519938 0.482619 -0.284867 0.912498 0.892481 1.14308 0.78206 -0.322993 0.741288 0.0503595 0.0280079 -0.580121 -0.841123 0.394575 -0.547134 -0.158291 0.291571 1.06858 -0.288184 0.718552 0.451431 -0.564941 0.568145 -0.300645 0.516398 0.16022 -0.335945 -0.292229 0.231693 0.0145858 -0.693311 0.537643 0.859008 -0.301699 -0.262222 0.781336 0.15173 -0.101409 -1.25426 0.476867 -0.311476 0.141116 0.125091 0.242704 0.243172 -0.406098 -0.856034 -0.777782 0.164918 -0.308899 -1.00245 -0.0554941 0.440523 0.0450196 -0.777845 -0.0124768 0.378098 0.722942 -0.0757077 -0.325143 -0.39721 -0.671988 -0.118298 -0.251526 1.23067 -0.167837 -0.112804 0.142617 -0.0857623 -0.128807 -0.756344 -0.203167 0.555683 -1.49186 -0.378301 0.302949 0.262522 -0.886677 -1.0732 0.207109 0.713339 0.316553 -0.341631 -0.0793467 -0.242134 -0.641334 -0.0677773 
27 -0.0586607 0.170244 0.13585 0.302464 -0.239353 -0.102464 0.285913 -0.0626758 -0.621859 0.137287 -0.396037 -0.220167 0.334526 -0.418379 0.348065 0.0171464 -0.143421 -0.178043 -0.14694 0.623694 -0.298436 0.111902 0.616218 0.662748 0.284743 0.00238545 0.441335 0.611148 0.463933 -0.545432 -0.498019 0.29575 -0.123199 -0.229561 0.141593 0.494709 0.444668 0.567289 0.199366 0.795091 0.59477 -0.193624 0.0486497 0.000425103 0.133749 0.850041 0.138092 0.926848 0.0250306 0.101697 -0.311502 0.2648 -0.488057 -0.308246 0.0667322 -0.152502 -0.319541 0.383008 0.0253116 -0.142994 0.178014 -0.0314725 -0.0256156 0.0329154 -0.216885 0.277859 0.158939 -0.126543 -0.024598 0.00779416 -0.285776 0.126359 -0.0108571 -0.127709 -0.235865 -0.029132 0.459671 -0.17699 -0.689787 0.349046 0.457593 -0.0968908 -0.257304 0.107636 -0.50659 0.0286104 0.14388 -0.121197 -0.37379 0.136879 -0.405165 0.268608 -0.383331 -0.301505 -0.134864 -0.381305 -0.342125 -0.233714 0.0260834 -0.937507 -0.451829 0.184327 -0.139218 -0.195806 0.102856 -0.122012 -0.704198 -0.304359 0.0684667 -0.170058 0.0801834 0.00589814 -0.261287 -0.00390852 -0.374773 -0.229493 0.278838 -0.340087 -0.123668 -0.776496 0.381366 0.343476 -0.372914 0.0467431 0.185551 -0.103196 0.268294 -0.738349 
28 0.297145 0.421279 -0.837053 0.885695 -0.249066 0.214789 0.36873 -0.622591 0.0544044 -0.484429 0.229915 -0.640115 0.0280843 -0.222346 0.437553 -0.439539 0.210921 -0.681253 0.102771 0.00764831 -0.664068 -0.744805 0.137385 -0.0497772 0.587748 0.632142 0.753405 0.395965 0.146363 -0.0599976 -0.331242 -0.00566468 0.3307 0.205131 0.384006 0.532435 0.400662 -0.295474 -0.193961 -0.453597 0.683732 -0.130206 0.154058 -0.0495367 -0.86738 0.531018 -0.270858 0.94868 -0.831845 0.147338 -0.0173795 0.446767 0.374586 0.335523 0.0580566 -0.421846 -0.474321 0.942321 0.446464 -0.0543197 -0.568141 -0.110746 0.569915 1.76775 -0.220804 0.131022 0.248816 0.278041 -0.0974133 0.476592 0.150629 -0.23542 0.179852 -0.4097 -0.755949 0.199547 0.380607 0.0273799 0.33302 0.270351 1.00563 -0.340923 -0.224638 0.0565587 -0.385691 0.0729256 0.357036 0.639148 0.384483 -0.68577 -1.15123 -0.318831 -0.035066 -0.487621 0.161627 -0.23557 -0.339118 -0.195074 0.894038 -0.173246 -0.569755 -0.285786 0.405634 -0.134039 0.0489668 -0.0553722 0.199214 0.0438735 0.187695 -0.291546 0.233622 -0.0177937 -0.0713022 0.299784 0.404662 0.0429802 0.389969 -0.777839 -0.376804 -1.21214 0.19996 -0.145086 -0.322849 -0.35454 -0.0654428 0.535275 0.760012 -0.353498 
29 0.282073 0.451277 0.122089 -0.490412 -0.333014 -0.794624 -0.778521 -0.13149 -0.50004 0.452805 -0.590437 0.632818 0.535844 0.309155 0.00940128 -0.351796 -0.388369 -0.268943 0.288289 0.768746 -1.05336 0.270863 0.674813 0.489542 -0.192591 0.465332 0.393529 0.200548 0.294373 -0.599233 -0.550676 -0.0413349 0.0157984 0.557413 0.511319 0.0977398 -0.0801955 0.674339 0.27387 0.134779 0.317917 -0.198084 -0.167183 0.375787 0.0844118 0.37688 0.980911 1.26573 -0.255594 0.753775 -0.000244124 -0.271755 -0.291993 -0.611692 0.216703 -0.131166 -0.259404 -0.30228 1.28411 0.0289172 0.509005 -0.291554 0.123098 0.626446 0.00538654 1.07081 1.02004 -0.199525 -0.686366 0.52121 -0.0632456 -0.789733 0.512739 0.0743995 -0.687615 0.137285 0.265865 0.138025 -0.262135 -0.149917 1.007 -0.140524 -0.261643 0.0361085 0.134528 -0.142511 0.393548 -0.199351 -0.418813 -0.624296 -0.541403 -0.228935 0.0705722 -0.280453 0.184403 -0.395579 0.169955 0.830951 0.437385 -0.87323 -0.661311 0.467611 0.409064 -0.193039 0.051738 -0.224697 -0.396504 -0.767671 0.183712 -0.984822 0.430595 -0.159892 -0.282917 0.692704 -0.505443 -0.124586 -0.105872 0.41575 -0.174464 -0.438985 0.0674017 0.1073 -0.152423 -0.577272 -0.0488661 0.0219479 -0.399532 -0.878987 
30 0.267504 -0.826528 0.85612 0.114926 -0.834879 0.777696 0.42403 -0.389871 0.909897 1.09 -0.816669 0.175096 0.258417 -0.15042 0.609022 -0.53051 -0.1668 -0.0447022 -0.0654719 0.210957 -0.371195 -0.0732801 1.80677 -0.201905 -0.134455 -0.598065 0.561293 1.28131 0.877254 0.0166984 0.117447 -0.868288 -0.353837 -0.145537 0.138168 -0.296523 1.24853 0.482083 0.143826 0.796007 1.11338 0.010365 -0.6281 1.1577 -0.576382 0.0875764 1.10412 0.722464 -0.571629 1.46312 -0.309425 -0.145174 -0.10671 -0.679687 0.745762 -1.4522 -0.34752 0.0730573 0.41909 -0.485641 -0.0288454 0.280081 -0.29155 0.769958 0.134721 0.583408 0.411288 0.586249 -0.195505 -0.124506 -1.62238 0.0902788 1.40859 0.200436 -0.412278 -0.667147 0.588387 -0.338086 -0.336652 -0.531232 1.42088 0.285592 0.52974 0.259201 -1.17041 0.318128 0.432685 0.406171 -0.237084 0.0349117 -1.09842 0.231684 -0.196705 -0.750656 0.224047 -0.451814 -0.340131 0.684806 0.828491 -0.232515 -0.407782 -0.1671 -1.05896 -0.887518 0.00203744 0.0402784 -0.869171 -0.128343 -0.70149 0.0491278 0.584745 -0.376014 -0.552802 -0.04037 -0.765514 0.179961 -0.575947 0.347394 0.471285 -0.656515 0.145882 -0.206747 -0.194752 0.530414 -0.473339 -0.172232 -0.410571 -0.148564 
31 0.197523 0.0586571 -0.154802 -0.86531 -0.60727 0.171044 -0.289333 0.33232 -0.20184 0.918006 -0.987079 -0.28847 -0.311317 -0.393752 0.75985 0.0898484 0.17293 0.497995 -0.309271 0.235584 0.68967 0.24676 0.882994 -0.137225 0.0505908 -0.7204 0.997966 1.2462 0.388986 0.705894 -1.06258 -0.486119 0.745493 -0.332791 -0.360959 -0.518031 1.79712 1.0252 0.45174 0.66479 0.651635 -0.619783 -0.0655709 1.05401 -0.22934 -0.0425909 1.24957 0.987645 0.361239 1.14211 -0.901708 -0.0990229 -0.371191 0.188093 0.762995 -1.25917 -0.364835 -0.367352 0.627492 -0.388365 0.292257 0.410826 -0.454625 0.619457 0.0760037 -0.26695 0.0174024 0.305828 0.418242 -0.269817 -0.804198 -0.472686 1.54615 -0.299082 -0.452122 -0.938977 0.799525 -0.741549 0.638389 -0.911487 0.873737 0.346031 -0.563127 -0.402223 -0.933228 0.118754 0.772982 -0.2106 -0.778041 -0.216275 -1.69153 -0.00415863 -0.00829219 -0.114996 -0.233251 -0.608635 -0.491398 0.262939 0.0557474 0.551097 -0.571137 0.263863 -1.25407 -0.80906 0.215996 0.00633754 -0.846774 0.200035 0.206187 -0.305537 -0.0999923 -0.966656 -0.248252 -0.347143 -1.04625 0.228738 -0.204724 0.155897 -0.44376 -0.506445 0.185354 0.364198 -0.578333 0.155024 -0.293354 0.160095 -0.0272028 -0.576627 
32 -0.587816 -0.320139 -0.00967656 0.561382 -0.635162 -0.541943 1.38867 0.151328 -0.593558 -0.0646318 -0.690277 -0.955883 1.83652 0.340215 -0.549713 -0.172552 0.473662 -0.0908513 0.391973 0.876208 -0.470584 -0.383576 0.0926093 0.10483 0.773688 0.0684011 -0.143306 1.06273 0.221579 -0.901121 -0.0711013 -0.449091 1.09352 0.672335 -0.0715675 -0.0151455 1.05918 0.478508 0.328829 -0.90346 1.17738 0.68867 0.355163 -0.0442904 0.286762 -0.151493 0.80699 1.28981 -0.702714 0.810696 -0.000729557 -0.570593 -0.7419 -0.0320242 -0.4348 -0.682427 -0.47671 -0.650963 0.364658 0.335653 0.918883 -0.217284 0.0990691 -0.123017 -0.077189 0.157225 -0.188464 -0.431349 -0.267999 0.419091 -0.242024 0.116566 -0.256751 -0.882757 0.035457 0.487601 0.42089 0.675857 -0.229848 -0.58267 0.618758 -0.332552 0.170437 -0.828162 -0.47875 -0.268277 -0.348989 -0.834665 0.137649 -0.429921 -0.991426 -0.00372582 0.183335 -0.201465 -0.602218 -0.586468 -0.397655 -0.687282 0.315374 0.933099 -0.909805 0.405863 -0.048739 -0.495949 0.126517 1.25221 -0.656985 -0.310149 1.26084 -0.754584 -0.31142 -0.655578 -1.00669 -0.0583623 0.0146016 -0.275515 0.653854 0.0305662 -0.0398478 -1.08412 0.213496 0.401744 -0.362142 -0.954043 0.428738 0.449449 -0.206934 -1.0127 
33 -0.115217 -0.190529 -0.0947615 0.415026 -0.324663 -0.630215 -0.377511 -0.791006 -0.388324 0.0126367 -0.156724 0.0340694 0.439967 -0.543324 0.230482 0.211939 0.103423 -0.280666 0.261653 0.545174 -0.0331125 0.0770025 0.549971 0.162272 0.189919 -0.0101277 0.582111 0.0614848 0.813211 -0.399945 -0.592213 0.33831 -0.272646 0.321162 0.0723496 -0.0519157 0.510078 -0.0903454 0.205638 0.366439 0.485036 -0.0707812 0.2402 0.22649 0.163917 0.313442 0.78204 0.977187 -0.39181 -0.0273046 -0.0483106 0.552888 -0.525788 -0.872209 0.0689465 0.228713 -0.457673 0.286634 0.580235 -0.38083 0.166079 -0.162472 0.153393 -0.070774 0.0559102 0.16397 0.0504602 -0.100998 -0.564928 0.289087 -0.103007 -0.34586 -0.0854243 0.163672 -0.332017 0.433676 0.604381 0.360748 -0.180376 -0.350933 0.178374 -0.209654 -0.157998 0.666243 0.279986 0.251704 0.196464 -0.593926 -0.491008 -0.663303 -0.274545 0.427744 -0.773049 0.0186829 0.0511212 -0.129557 -0.107366 -0.343073 -0.150827 -0.187646 -0.439057 -0.0502834 0.234788 -0.329938 0.153108 0.210393 -0.455831 0.29336 0.471861 -0.575294 -0.262222 0.125926 -0.351481 0.318684 -0.0521649 0.0708929 -0.420839 -0.109342 0.0616419 -0.765674 0.412726 -0.00874382 -0.204953 -0.467311 -0.209337 -0.0168803 -0.139343 -0.264558 
34 -0.547995 0.636813 -0.492763 -0.219962 -0.679183 -1.23226 0.00806368 0.297232 0.046995 -0.452773 0.085106 -0.854406 -0.0265361 -0.814334 0.952492 0.383102 0.535188 -0.254891 0.380133 0.864282 -0.316972 -0.950727 0.208492 -0.0321847 1.03129 -0.486681 0.181719 0.769732 -0.272342 -1.02502 -0.086725 0.142753 1.43871 0.851235 -0.406299 0.448976 1.10129 0.229834 -0.47228 -1.00995 1.33722 0.77945 -0.155324 0.207425 0.358285 -0.532732 1.15855 0.56252 -0.587036 1.31748 0.211388 0.598302 -0.74069 0.212719 -0.0492673 -0.231727 0.0974877 -0.654721 1.07763 -0.102221 -0.00954571 -0.512491 0.114816 0.981068 0.233091 -0.681902 0.175628 -0.270339 -0.776933 0.744628 0.161287 0.273172 0.0582182 -0.0471585 -0.24305 0.170852 0.377747 0.784393 0.719638 -0.497851 1.21531 0.179235 0.162517 -0.680318 0.124543 0.124133 0.000349059 -0.12864 -0.605132 -0.628836 -0.525728 0.345497 0.282461 -0.989624 0.0737969 -1.02505 0.510512 -0.227465 -0.234594 0.86073 -0.294095 0.51091 -0.334099 0.601912 -0.198253 0.0439519 -0.754155 0.286679 0.807252 -0.438974 0.297664 -0.77653 -0.86972 0.565108 0.0297464 0.620695 0.73679 -0.710472 -0.13971 -0.730155 0.651818 -0.295393 -0.371045 0.183244 0.319507 -0.382141 0.784424 -0.542069 
35 0.0785387 -0.0839519 0.164571 0.155785 -0.60069 -1.18578 -0.419771 -0.611724 -0.0601913 0.107783 -1.55295 -0.613116 0.00769607 -0.100309 -0.0127322 -0.632946 0.368689 -0.661724 -0.665598 0.285269 0.160913 0.343277 1.06514 0.643336 0.448782 -0.0189501 0.592083 0.634083 0.662073 0.125474 -0.70633 0.440137 -0.82075 0.899578 0.511707 -0.635607 1.02922 0.627382 0.0903714 0.875445 0.486211 -0.0922375 -0.170149 0.281023 0.540247 0.423534 1.28233 1.2188 -0.399293 0.70539 0.0362872 0.218978 -0.0623818 -0.121592 0.139729 -0.0700862 -0.732096 0.222696 0.431716 0.0971901 0.661278 -0.298241 -0.338501 0.676537 -0.424557 0.44264 -0.213341 -0.387349 -0.255869 0.314034 -0.420431 -0.331803 0.466275 -0.0468771 -0.405626 -0.133171 0.38434 0.545165 -0.807803 -0.371553 0.0475539 -0.236562 -0.351129 0.504542 -0.540211 0.383486 0.421481 -0.639415 -0.145332 -0.711524 -0.72586 -0.133979 -0.0695185 0.196666 0.161316 -0.627653 -0.404178 0.756327 0.964416 -0.42588 -0.0161483 -0.70805 -0.436286 -0.272797 -0.186529 0.233805 0.175024 0.605663 0.671784 -0.168633 -0.110349 -0.591869 0.0168799 0.322272 -0.185501 -0.0578133 -0.938221 0.569177 -0.359747 -1.05789 0.279455 -0.69497 1.19773 -0.319563 -0.0905127 -1.00278 0.279882 -0.269457 
36 -0.217695 -0.133419 0.199527 0.599116 0.154149 -1.14035 0.0187874 -1.34208 0.0360616 0.266761 -1.37912 -0.640028 -0.250092 -0.427567 -0.251946 -0.828712 0.948866 -0.401351 -0.00555876 0.428194 -0.887009 0.76095 1.01167 0.227858 -0.218885 0.491378 0.803851 0.626259 0.173913 -0.185755 -0.418968 -0.361701 0.0509215 0.767239 0.220957 -0.115076 0.926878 0.280589 0.252334 0.435424 0.420372 0.618491 0.00419202 0.287643 -0.0612885 0.223208 1.08695 1.54437 -0.489909 0.253444 0.255515 0.0236249 -0.499735 -0.168627 0.739149 -0.354899 -0.439905 0.430959 0.695097 -0.394176 0.688466 0.150741 0.452785 0.321125 -0.774726 0.513592 0.546471 -0.699661 -0.771548 -0.592542 -0.722829 0.262917 -0.238999 0.231871 -0.551267 -0.392701 0.125702 0.0338248 -0.655654 -0.760203 0.400907 -0.506749 -0.203236 0.499271 0.215862 0.0684311 0.275946 -0.0564098 -0.153863 -0.223293 -0.423138 -0.261053 -0.00436467 -0.13245 1.0026 -0.064942 -0.326157 0.743167 0.925945 -0.00510719 -0.686954 0.122517 0.29465 0.127599 0.0305803 -0.192799 -0.508739 -0.0518005 0.176859 -0.667334 -0.255685 -1.05947 0.239762 0.411651 -0.630914 -0.365629 -0.750488 0.00627373 0.227255 -1.02033 0.366286 -0.646861 -0.0581986 -0.73953 -0.0804953 -0.16738 0.305565 0.365457 
37 -0.590726 0.433039 -0.0673037 -0.462936 0.0565909 -0.13304 0.300251 -0.722733 -0.752301 -0.120399 -0.2413 -1.0158 0.883962 -0.384952 0.516191 -1.00221 -0.0659679 0.392367 -0.164491 0.458863 -0.701752 -0.56764 -0.0859727 0.784891 0.57542 -0.0406272 0.431743 1.18981 0.582052 -0.0269512 -0.243151 0.148231 0.0333133 0.417084 0.0280852 -0.546791 1.83398 0.97909 0.0532074 -0.215227 0.205232 0.0848169 0.441574 0.444449 0.0674957 -1.14855 0.505754 0.802743 -1.05422 0.984467 0.141898 0.691553 0.436782 -0.221645 -0.076807 -1.65833 -0.579207 0.0789361 0.011244 0.447528 -0.0267007 0.415806 0.29388 0.781607 0.0921124 0.153215 1.08272 -0.755783 -0.545417 -0.21964 0.569438 -0.570571 0.504414 -0.190195 0.0823514 -1.55006 0.627814 0.228114 -0.157304 -0.197727 1.19197 -0.331169 -1.34796 -0.734347 0.0934393 0.78771 0.133332 -1.25417 -0.643075 -0.00857962 -0.414008 0.481573 -0.174382 -0.780084 -0.1596 -0.939328 -0.307975 -0.0493016 0.559049 0.729454 -0.810206 0.530803 0.109192 0.761433 0.134602 -0.0519839 -0.399807 0.126336 -0.0700953 0.221339 0.331336 -0.201285 -0.63599 0.722152 0.0855011 -0.109434 -0.0796566 -0.680727 -0.0938801 -0.990714 0.873591 0.508993 -0.177019 -0.299087 -0.642198 -0.278439 -0.229148 -1.08669 
38 -0.131672 -0.0676074 0.139486 0.239444 -0.485643 -1.25953 -0.198618 -0.399027 -0.336739 0.291082 -1.08914 -0.474035 -0.142492 -0.30915 0.229832 -0.911788 0.26682 -0.439463 -0.130398 0.313515 -0.425188 0.634184 0.904026 0.350757 0.290904 -0.0432851 0.638012 0.375254 0.814746 -0.134947 -0.692615 -0.0129402 -0.779586 0.987797 0.305626 -0.613159 1.14968 0.341972 -0.248219 0.392757 0.438165 0.0766841 0.242418 0.209575 0.583411 0.585021 1.00142 1.0976 -0.440882 0.434331 0.239743 0.235734 0.0692733 -0.229349 0.250114 -0.0792777 -0.470291 -0.0423659 0.668144 0.0291728 0.727791 -0.0764882 -0.149767 0.93308 -0.397712 0.371935 -0.0405599 -0.184072 -0.519181 -0.271087 -0.604941 -0.209136 0.191291 0.350145 -0.372186 -0.552354 0.284871 0.600401 -0.715412 -0.36665 -0.0272461 -0.0266413 -0.244018 0.455635 -0.0942588 0.512211 0.421496 -0.43827 0.0108407 -0.773972 -0.35508 -0.170285 -0.0524253 0.0802308 0.36161 -0.427425 -0.684265 0.778539 1.0357 0.0555498 -0.428231 -0.419882 -0.549609 -0.387324 -0.284487 0.232729 -0.0953577 0.32959 0.61017 -0.238184 -0.103078 -0.508591 0.0625498 0.435176 -0.433198 -0.254992 -1.03249 0.138195 -0.166655 -1.25167 0.0626343 -0.808122 0.72395 -0.794236 -0.393746 -0.593131 0.323804 0.0575382 
39 -0.135299 0.128329 -0.143884 -0.431899 -0.424382 -1.23112 -0.217413 0.202416 0.108837 0.62668 -0.770535 0.025489 -0.0791866 -0.512681 -0.356513 -0.968476 -0.0214897 -0.0841507 -0.12515 0.210265 -0.787551 0.161732 0.728692 0.0180982 0.834092 -0.316265 0.344847 0.622863 0.715039 0.0194883 -1.28693 0.0398005 0.064135 0.541654 -0.0796359 -0.41107 1.44472 0.148079 -0.23222 0.438786 0.808173 0.0232465 0.35959 0.443008 0.0916886 -0.0329327 0.423215 1.09772 -0.387923 0.514396 0.189275 0.160547 -0.0985847 -0.280001 0.495715 0.00941206 0.0504657 0.27037 0.635479 0.312553 0.539106 0.0186079 -0.371451 0.773632 0.284101 0.273124 -0.153167 0.0733335 -1.14315 0.177905 0.153998 -0.22668 0.189186 0.170892 -0.316674 -0.69565 0.62596 -0.106729 -0.237877 -0.239797 0.432366 -0.428072 -0.0744412 0.525716 0.212009 0.0155072 1.03263 -0.925969 -0.211437 -0.312288 -0.353627 -0.362403 0.351802 0.392764 0.685387 -0.258 0.0406585 -0.309113 0.280888 0.379313 -0.201038 -0.0167867 -0.363951 -0.225192 0.598816 -0.259772 -0.766254 0.132165 -0.00135676 -0.0603517 0.0632764 -0.624687 0.0203627 1.15745 -0.220872 0.396553 -0.473496 -0.223537 -1.05675 -0.687934 -0.19433 -0.668771 0.231763 -0.299343 -0.119653 -0.480728 0.413925 -1.40351 
40 0.733658 0.214345 0.127302 -0.0154697 0.0516609 -1.63259 -0.715236 -1.54683 0.228823 -0.0393581 -1.39245 1.05016 0.420967 -0.102088 -0.458124 -0.596658 -0.0483176 -0.18704 -0.554659 0.557401 -0.119729 1.00045 1.21756 0.202496 1.02343 -0.0298829 -0.51976 0.776699 0.101391 -0.704865 -0.416782 1.23099 -0.848012 1.30123 0.255795 0.636929 0.521227 0.285529 -0.243489 1.21319 0.883852 0.0437466 -0.196068 0.105094 -0.320056 0.205752 0.189208 0.489699 -0.48602 -0.228835 0.105223 0.650646 -0.79368 -0.481504 0.349012 0.485819 -0.858495 0.892458 0.926959 -0.233389 0.483493 0.799999 0.25418 0.514197 -0.579132 0.683241 0.428119 -0.248391 -0.402665 -0.381568 -0.349923 -0.221684 0.101332 0.819672 -0.306185 0.313489 0.631035 -0.371173 -0.774982 0.69159 0.233683 -0.670144 -0.490776 0.986224 -1.07 -0.223342 -0.495889 -0.304878 -0.118764 -0.823771 -0.940974 0.724149 0.189582 -0.113033 0.385766 -0.246092 -1.08767 0.330049 -0.219329 -0.00609321 -0.798241 0.738921 0.032545 0.0537511 0.124377 0.339015 -0.0970956 -0.712762 -0.41388 -0.899435 -0.175268 -1.00146 -0.319094 -0.237146 -0.688216 -0.194777 0.0452516 0.21128 -0.6749 -0.759937 -0.16432 -0.506445 0.388708 0.101841 0.645787 0.355 0.158053 -1.06374 
41 0.545005 -0.482371 -0.181171 -0.483865 0.0931152 -1.08143 -0.530188 -0.602466 0.466567 0.0489772 -0.305439 -0.11905 0.379559 -0.0805807 0.124143 -0.098854 -0.000814128 -0.262481 -0.0730663 0.499294 -1.35484 -0.214892 0.127583 0.201234 0.90499 0.148382 0.380285 0.0681068 -0.0910867 -0.343176 -0.236885 0.538763 -0.90635 0.130621 0.0551848 -0.406048 0.950519 0.30641 0.000625698 0.201542 0.341232 0.732769 0.0899995 0.304584 -0.229929 0.00193274 0.726354 0.717755 -0.0970832 0.890301 0.329768 0.408629 -0.268605 -0.31557 0.456047 0.056761 -0.582916 0.604552 0.67736 0.253472 0.530062 -0.00581973 -0.338201 0.338148 -0.659114 0.507887 0.847297 0.32167 -0.494877 0.157289 0.124795 -0.291459 0.364754 0.105473 -0.324745 -0.646365 0.0512434 -0.259305 -0.481366 0.0748262 0.381085 -0.271241 0.250625 0.42737 -0.271592 0.282226 -0.451317 -0.736692 -0.0771549 -0.548831 -1.00394 0.55695 0.15942 -0.253846 -0.00174347 -0.0912519 0.126453 0.080238 0.675012 0.430739 -0.991098 0.106044 0.343942 -0.835297 0.26585 0.418978 -0.22652 -0.493329 -0.0533235 -0.125139 -0.809625 -0.261641 -0.541648 0.046805 0.182644 0.0815061 0.423692 -0.16827 -0.984991 -1.07502 0.120818 0.10977 -0.457158 0.157804 -0.80511 0.184534 0.396653 -0.679212 
42 -0.252168 0.182546 -0.0529425 -0.274219 -0.343161 -1.18094 -0.123758 0.132644 0.0650925 0.749213 -0.684404 -0.131487 0.0565742 -0.592862 -0.185952 -0.977575 0.036721 -0.0859572 -0.0147322 0.0607469 -0.701804 0.14033 0.590593 -0.289575 0.850103 -0.145324 0.270862 0.638859 0.68245 -0.0252638 -1.10984 0.00829116 -0.139848 0.604482 -0.0458585 -0.39797 1.31426 0.150396 0.0471643 0.0654258 0.928094 0.437997 0.494287 0.343891 0.0791065 0.175853 0.461621 1.03132 -0.491695 0.481844 0.203594 0.426408 -0.0927214 -0.173453 0.523164 0.0303561 0.00673774 0.334569 0.743164 -0.0140916 0.714461 0.418431 -0.563032 0.929155 0.200559 0.357773 -0.146623 0.145446 -1.33211 -0.164699 0.180972 -0.146956 0.0422126 0.3172 -0.427642 -0.690674 0.680018 -0.0866081 -0.0642853 -0.619766 0.468727 -0.379508 0.075711 0.641838 0.330069 0.315849 0.941797 -0.756989 -0.347085 -0.17925 -0.41514 -0.473536 0.455351 0.48362 0.517542 -0.316757 0.227603 -0.209354 0.635083 0.459984 -0.261678 0.081436 -0.178972 -0.0982205 0.575793 -0.265739 -0.879436 0.197371 0.204749 -0.218246 -0.0426174 -0.613563 -0.259389 1.2762 -0.239397 0.22292 -0.683508 -0.36661 -0.915003 -0.618111 -0.0804122 -0.77355 0.300126 -0.50399 -0.364929 -0.555549 0.286708 -1.11964 
43 0.679434 0.252032 0.76677 0.19842 -0.349025 -0.834876 -0.392134 -1.14058 -0.536266 0.0262716 -1.29926 0.653747 0.22638 -0.23706 -0.142532 -0.892912 0.0337796 -0.374858 -0.304316 0.486797 -0.0263187 0.754607 1.26812 0.62505 0.422378 0.0143719 0.0808415 0.924848 0.577875 -0.195047 -0.391079 0.57845 -0.525145 0.916659 0.389574 0.3179 0.613618 0.230082 0.035607 0.913936 0.597735 -0.248345 -0.395171 0.373918 -0.175569 0.660136 0.592147 0.997768 -0.388054 0.517918 -0.265856 0.384103 -0.602823 -0.382094 0.349986 0.359062 -1.06656 0.660971 0.738156 -0.0664154 0.2134 0.00106605 0.290954 0.256577 -0.319217 0.493569 0.423786 -0.543268 -0.394133 -0.0113312 -0.480647 0.00683037 -0.0959452 0.281174 -0.338731 0.177849 0.399859 -0.12976 -0.955387 0.0448918 0.282488 -0.975779 -0.457992 0.955607 -0.837069 -0.129388 0.246868 -0.113428 -0.627286 -0.544911 -0.231712 0.0642525 -0.0553981 0.228567 0.306203 -0.18804 -1.27006 0.257305 0.105327 -0.66014 -0.453931 0.260028 0.0412877 -0.444484 0.481368 0.109649 -0.288606 -0.241739 0.185034 -0.673067 0.0136387 -0.668799 -0.11791 0.0865906 -0.84216 0.162765 -0.172716 0.220689 -0.249136 -0.846408 0.388483 -0.547181 0.277228 -0.490244 0.442587 -0.0133466 0.326037 -0.407007 
44 -0.298207 0.14815 0.682641 0.461355 -0.274343 -0.659556 -0.190839 -1.51031 -0.114878 0.175437 -0.597119 -0.437746 1.04464 -0.0260122 0.335634 0.0341509 0.43703 -0.620086 0.4055 0.24434 -1.05362 0.407807 0.929373 -0.0728565 0.0423114 -0.403144 0.399641 0.0423952 0.311587 -0.695804 -0.395046 0.178906 -1.003 0.541102 0.747595 -0.039342 1.05427 0.368774 -0.416016 0.558935 0.158426 0.506768 0.166484 0.303301 0.076402 0.216022 0.891637 1.05515 -0.171504 0.545264 0.307461 -0.154098 -0.482311 -0.519932 0.786093 -0.160422 0.307587 0.35228 0.345244 0.261372 0.558392 -0.0948991 0.104014 0.333151 0.490531 0.384002 0.286677 -0.202683 -0.732202 0.436767 0.461512 -0.422518 0.114203 -0.407411 -0.126585 -0.350399 1.16583 0.51084 0.179484 0.347799 0.223044 -0.606011 0.166837 -0.146099 0.055957 0.23504 0.147822 0.286777 -0.786296 -0.600776 -0.640197 -0.238119 -0.0412778 0.107147 0.132906 -0.421083 -0.752784 0.0742375 0.326358 -0.576951 -0.0813661 0.386218 -0.0666628 -0.104499 -0.361354 -0.0441116 -0.703123 -0.0688774 0.423486 -0.630877 -0.0194048 -1.08274 -0.52225 0.655187 -0.621483 0.367602 0.0255253 0.1716 -0.136205 -0.586297 -0.110171 0.127743 -0.153885 -0.27402 -0.194354 -0.84326 -0.0901951 -0.813302 
45 0.287719 0.417897 0.966555 -0.0657656 0.124559 -0.495947 0.00287458 -0.0148502 -0.488 0.847665 -0.842127 0.078428 0.207176 -0.0797418 0.590061 -0.40559 0.365713 -0.129597 -0.220451 0.291156 -0.817978 0.5612 0.769082 0.447692 0.334873 0.297083 0.0408299 0.862602 0.884375 0.105965 0.0375433 0.618544 -0.277852 0.604392 -0.261333 0.0299395 0.608948 0.243917 0.430803 0.40482 0.58459 0.100819 0.620982 -0.0301489 0.0405367 0.195561 0.303027 0.960143 -0.0919515 -0.0129682 0.454707 0.0461304 -0.0822494 -0.174739 -0.0946834 0.054251 -0.68602 0.398468 0.446424 0.195481 0.195408 -0.249132 -0.27733 0.885987 0.247474 0.268717 0.552643 -0.440958 -0.467195 -0.107249 -0.308158 -0.616368 -0.190086 -0.40177 -0.407702 0.292999 0.173037 0.0368452 -0.447408 0.224655 0.209579 -0.302164 -0.680917 0.418988 -0.289633 0.577375 0.490108 -0.401936 -0.7608 -0.382908 -0.042083 0.086383 -0.144588 -0.0969987 -0.137866 -0.389375 -0.944137 0.20914 0.68426 -0.240763 -0.743184 -0.333379 0.338408 -0.218188 0.683875 0.22608 -0.159446 -0.870027 0.282511 -0.526597 0.21296 -0.566484 -0.151236 -0.08587 -0.229899 0.293424 -0.560469 -0.587538 -0.171517 -1.40626 0.585848 0.119888 -0.0812794 -0.385818 0.0220376 -0.674014 0.141044 0.0387548 
46 0.686671 0.257376 0.758638 0.192684 -0.328301 -0.867067 -0.330417 -1.13809 -0.554706 0.053275 -1.32811 0.660918 0.263595 -0.250897 -0.137833 -0.915772 0.00233387 -0.352341 -0.262387 0.470019 -0.0683689 0.714811 1.33242 0.579357 0.429647 -0.0265648 0.0981974 0.911366 0.572174 -0.18574 -0.415022 0.596386 -0.508335 0.900517 0.353576 0.346738 0.591299 0.218878 0.00364381 0.964052 0.611334 -0.274986 -0.433348 0.387463 -0.132976 0.682537 0.573118 1.01338 -0.360129 0.526808 -0.314546 0.45111 -0.606718 -0.348645 0.318981 0.383974 -1.09563 0.652761 0.812358 -0.0766965 0.224889 -0.0755688 0.316748 0.313096 -0.342873 0.429145 0.438279 -0.449268 -0.333954 -0.0647081 -0.478524 0.0360804 -0.115208 0.236301 -0.315023 0.202987 0.356224 -0.15381 -0.947388 0.056959 0.281022 -0.993891 -0.42275 0.911608 -0.812828 -0.165891 0.193076 -0.0847703 -0.654828 -0.547108 -0.295203 0.089627 -0.0940743 0.333616 0.286077 -0.204616 -1.27376 0.269954 0.0676926 -0.598481 -0.439092 0.301812 0.0395067 -0.465368 0.425947 0.0848618 -0.31353 -0.274921 0.156823 -0.667804 0.00587614 -0.650761 -0.165988 0.0724664 -0.825819 0.110675 -0.140815 0.216911 -0.236557 -0.889777 0.394734 -0.521114 0.353351 -0.406359 0.391626 -0.062878 0.356187 -0.401723 
47 0.502129 0.309657 0.0104158 -0.0233136 -0.317228 -0.944584 -0.0056283 -0.561496 -0.0132594 -0.169203 -0.939979 -0.0201799 0.309128 0.165964 -0.245693 -0.880632 0.272835 -0.239748 -0.147394 0.342378 -0.615085 0.358834 1.12353 0.580395 0.19583 -0.346808 0.474896 0.368361 0.566909 0.293943 -0.102225 -0.132102 0.194611 0.660217 -0.625598 0.312608 0.430823 0.349805 0.0152226 1.01364 0.332073 0.0716713 -0.102818 0.629497 0.483509 -0.462364 0.673714 1.32621 -0.445889 0.748938 0.527365 -0.163977 0.00976276 -0.752004 0.112154 -0.0750421 -0.482204 -0.253962 0.487713 0.131837 0.481883 -0.456127 0.932252 0.186914 0.240215 -0.532066 0.351304 0.222169 -0.141373 0.603658 0.297197 -0.641548 0.436319 -0.165481 -0.0902549 0.118608 0.957298 -0.211598 -0.237503 0.164778 0.885876 -0.221297 0.038488 0.514185 -0.294861 -0.0823693 0.012478 -0.279218 -0.0669742 -0.37932 -0.637296 0.151136 -0.406438 -0.117522 0.0957391 0.132379 -0.296692 -0.0390775 -0.121756 -0.0232275 -0.427652 0.0737965 0.510424 -0.0425737 -0.00316899 -0.290343 -0.376627 -0.0930275 -0.220324 -0.308193 -0.14006 -0.182416 -0.293456 0.890914 -0.802936 -0.507275 -0.120925 -0.704774 -0.311204 -1.44448 0.0939386 -0.220526 -0.333267 -0.145982 0.302747 -0.156094 0.435116 -0.777073 
48 0.315198 0.12444 -0.299115 0.147352 -0.817462 -0.187324 0.208837 -0.417879 0.158434 -0.418375 -0.620551 -0.305174 0.419018 -0.0723472 0.219074 -0.341487 0.0780888 -1.07439 -0.349158 -0.344345 -0.57505 -1.30954 0.253188 -0.381835 1.35672 0.304716 0.714923 0.863432 0.690199 -0.725023 -0.94514 0.148152 0.762847 0.349893 0.730993 0.703448 0.153289 0.184422 -0.0974653 -0.121622 0.892851 0.391911 0.214697 0.150761 -0.513791 0.559886 0.792306 1.16529 -0.850893 0.688606 -0.534495 -0.512138 -0.321138 0.665939 -0.284061 -0.4634 -0.610048 0.499629 0.341941 -0.114304 0.358526 0.288991 0.0695984 1.30026 0.462894 -0.0443076 0.325599 -0.287433 0.0600115 0.582198 0.87648 -0.0078029 -0.222437 -0.264547 -1.24566 -0.565868 0.653072 0.173145 0.0485106 0.186799 1.18801 -0.235559 0.00950497 0.614812 -0.619794 0.556042 0.447133 -0.406921 -0.470953 -0.312923 -0.960969 0.409954 0.209351 -0.503459 0.223532 0.069102 0.093599 0.0255201 1.24199 0.214904 -0.707605 -0.380399 0.330971 -0.352411 -0.0553136 0.157465 -0.274748 -0.210317 0.347073 -0.404017 0.354327 -0.298521 -0.267982 0.680859 0.0663917 -0.30452 0.363951 -0.721998 0.283301 -1.7415 0.282891 0.320455 0.168367 -0.0844379 0.109451 0.218824 -0.0839278 -0.221482 
49 0.619177 0.289977 0.784585 0.230852 -0.329986 -0.844588 -0.296597 -1.17391 -0.52666 0.0787796 -1.26888 0.647407 0.288076 -0.322544 -0.150601 -0.937988 -0.000532586 -0.342765 -0.284118 0.423243 -0.0706402 0.735527 1.24821 0.533759 0.477656 -0.018062 0.109397 0.930558 0.55296 -0.309498 -0.386097 0.540671 -0.481534 0.898978 0.354034 0.339996 0.651325 0.219182 0.0489179 0.89031 0.623748 -0.282211 -0.391252 0.396977 -0.113322 0.686522 0.532222 0.982443 -0.413204 0.496619 -0.281649 0.438808 -0.563854 -0.367961 0.38612 0.360064 -1.07048 0.713883 0.726281 -0.0384582 0.204367 -0.0529496 0.230851 0.241408 -0.363545 0.450764 0.409582 -0.507245 -0.366826 -0.115993 -0.518829 0.133288 -0.167244 0.233985 -0.288105 0.213233 0.368516 -0.122083 -1.0002 0.0250809 0.30657 -1.00712 -0.47349 0.876369 -0.84104 -0.181602 0.242369 -0.0824752 -0.578466 -0.457875 -0.267532 0.0747746 -0.0967305 0.248908 0.251682 -0.14011 -1.29467 0.298337 0.122703 -0.688387 -0.421444 0.317518 0.0476857 -0.461474 0.506219 0.126666 -0.309716 -0.342955 0.140888 -0.677726 -0.0348295 -0.674734 -0.133136 0.0517102 -0.828311 0.170689 -0.177043 0.276089 -0.153391 -0.896672 0.390142 -0.493391 0.287268 -0.43706 0.390943 -0.013578 0.325034 -0.37143 
50 0.195849 0.472299 0.192461 -0.251246 -0.119439 -0.761729 -0.0435488 -0.381715 -0.461402 0.234088 -0.687557 -0.0572519 0.268166 0.245278 -0.248689 -0.462308 -0.164262 -0.519623 -0.341311 0.625672 -0.942179 -0.0678322 0.497968 0.128271 0.0434684 -0.277877 0.468665 0.19498 0.280943 -0.0486826 -0.038004 0.00807593 0.0903078 0.973083 -0.375733 0.0909382 1.15832 0.826872 0.200794 0.228923 -0.00920003 0.485443 -0.170431 -0.320754 -0.0398511 0.0689139 0.398008 0.646499 -0.623729 0.317849 -0.0119563 0.491029 -0.163755 0.238372 0.780716 -0.120499 -0.78505 -0.196873 0.627213 -0.462983 0.597307 0.00959236 0.0806954 0.266723 -0.279868 -0.208261 0.620533 -0.327518 -0.607586 -0.31543 0.261612 -0.409528 0.301693 0.633458 0.253912 -0.192334 0.547461 0.117425 -0.666981 -0.0263712 0.696151 -0.371708 0.198912 0.0136753 0.0532407 -0.157344 -0.0199735 -0.167239 -0.233902 0.149126 -0.761432 0.311226 -0.630159 -0.603172 0.0865978 0.0495377 -0.478052 0.276659 0.173869 -0.0683868 -0.265922 0.546124 0.417751 -0.214786 0.281661 0.306487 -0.587442 0.143687 -0.470535 -0.209337 0.353115 0.0594578 0.0437208 0.61238 -0.8804 -0.593189 -0.219283 -0.135241 -0.672203 -0.682644 0.607098 0.166624 -0.258231 -0.30986 -0.454161 -0.549355 -0.0439105 -0.751202 
51 0.215338 -0.0208592 -0.861637 0.166331 -0.0787631 -0.381665 0.278001 -0.86857 0.58555 0.415738 1.08464 -0.886768 1.02438 -0.0833373 0.161619 -0.49742 0.205567 0.267888 0.50355 0.417063 -0.61826 -0.191963 0.0435732 0.633815 -0.44378 -0.437412 0.741209 -0.217983 0.293252 0.0776738 -0.320328 0.326748 -0.0813119 1.00304 -0.227855 0.227809 1.00693 -0.102407 -0.186989 -0.218762 0.392434 -0.000563645 0.400063 -0.263333 -0.0816197 -0.491358 0.121812 1.04604 -1.0442 -0.990852 -0.24294 0.414203 -0.492073 0.167434 0.316055 -0.202729 -0.367406 -0.0507849 0.309716 -0.141995 -0.993849 -0.483962 -0.174174 0.581077 -0.211817 -0.484215 0.479495 0.36751 -0.471747 0.346164 -0.11076 -0.985646 -0.36498 0.54975 0.312519 -0.55946 0.549199 0.272262 0.188775 0.203169 1.33056 0.191906 0.497666 0.209353 0.368826 -0.648561 0.619852 0.480056 -0.432317 0.259862 -0.0868243 -0.703805 0.580002 -0.301794 -0.157512 -0.377445 0.379009 0.148399 0.422162 0.00980381 -0.241681 -0.443284 -0.169956 -0.166647 0.219874 0.292992 0.171505 -0.0448712 0.54542 -0.232051 0.36763 -0.333242 -0.225171 -0.285709 0.284284 -0.106836 -0.309965 -1.24788 -0.173888 -0.828991 0.499174 -0.246246 -0.58599 -0.423326 0.0471406 -0.0973484 0.741774 -0.783107 
52 0.285024 0.524697 0.257045 -0.0167473 -0.691457 -0.809846 -0.27812 -0.0439378 -0.312978 0.484657 -0.606155 0.30573 0.16054 -0.247807 -0.124791 -0.63955 -0.459769 -0.525354 0.0644635 0.610219 -0.48172 0.360853 0.714323 0.0568212 0.0632035 -0.453778 0.146847 0.369851 0.758453 -0.565667 -1.24764 0.332567 -0.0780147 0.580377 0.127047 -0.459268 1.08178 0.31343 -0.202351 0.342519 0.809805 0.313783 0.202719 0.522142 0.185047 0.481925 -0.107996 0.938507 -0.335706 0.0184418 -0.429998 0.789344 0.0726947 -0.155246 0.339563 0.357651 -0.450587 0.330493 0.527186 -0.259091 0.340231 0.293285 -0.436174 0.678626 -0.0711362 0.469496 0.0431562 -0.0766018 -0.566518 0.231683 -0.138652 0.169739 -0.0549623 0.625657 -0.136843 -0.0124033 0.375408 0.128578 -0.494411 -0.597848 -0.0243881 -0.728073 0.051386 0.878155 -0.357005 0.179439 0.665268 -0.640496 0.0491585 -0.36828 -0.355877 -0.256416 0.46667 0.339868 0.279227 -0.43258 -0.488688 -0.0971903 0.463837 -0.244461 -0.307268 0.0624616 -0.129257 -0.14923 0.189096 0.101333 -0.497722 0.0629117 0.0441083 -0.33269 0.00136032 -0.532959 -0.253501 0.718299 -0.114071 -0.00633644 -0.533371 -0.364345 -0.450152 -0.283392 0.286684 -0.740974 0.0746681 -0.562685 -0.400485 -0.322653 0.278327 -0.786609 
53 0.425225 0.319752 0.511345 -0.124345 0.259287 -0.565307 -0.186415 -0.507542 -0.250031 0.894923 -0.686705 -0.530192 0.522539 0.0442875 0.435589 -0.707288 0.359106 -0.407162 0.0244139 0.40624 -0.57499 -0.0120218 0.406987 0.0448819 0.145907 0.349941 -0.0495745 0.637508 0.468692 -0.161968 -0.122294 -0.171839 -0.540906 0.714281 0.0303814 0.325824 0.705965 -0.0382791 -0.225285 -0.117501 0.477196 -0.091218 0.977822 -0.146855 0.696555 0.409624 0.68251 1.17826 -0.179286 0.619052 0.0660209 -0.164049 -0.512319 -0.0263183 0.0238893 0.0756768 -0.140446 0.175346 0.285492 0.473464 0.362067 -0.0711163 -0.053486 0.242245 0.494888 0.210436 -0.334937 -0.668491 -0.103855 0.105632 -0.412484 -0.102006 0.313565 0.256213 -0.209112 0.495794 0.0272394 0.067684 0.00167646 -0.0564137 0.619653 0.210563 -0.824818 0.134974 -0.54256 0.231594 0.445201 -0.309547 -0.635383 0.0249964 -0.0563809 0.552689 0.316492 0.0242102 -0.237004 -0.071166 -0.577095 -0.0154209 0.260909 0.138758 -0.354961 -0.26545 0.145277 -0.608724 -0.271793 -0.0528805 -0.250127 -0.0119523 0.407087 -0.388406 -0.14058 -0.36318 -0.741244 0.357253 0.0866746 -0.0743646 -0.361962 -0.822847 0.24564 -0.9557 0.0896259 -0.191235 0.081653 -0.575267 -0.628199 -0.800579 0.222262 -0.278712 
54 -0.20744 0.30565 -0.816979 0.628684 -0.122458 0.222525 0.561944 -0.259015 -0.0217808 -0.149967 0.233266 -0.587526 0.21882 -0.00501884 0.312224 -0.686069 0.18628 -0.634952 -0.290512 0.0153343 -0.951464 -0.805024 0.0395831 -0.035941 0.919399 0.34055 0.85136 0.609003 0.314276 -0.283652 -0.0625101 0.441334 0.309325 0.217553 0.511625 0.38879 0.0666073 -0.348389 -0.204668 -0.535617 0.775429 0.230475 -0.512896 0.34623 -0.353691 0.626624 -0.113595 1.00671 -0.969094 -0.124954 -0.112534 0.306867 0.0100584 0.24185 -0.0547477 -0.475624 -0.297398 0.744175 0.186569 -0.225316 -0.426044 0.0930943 0.0800035 1.42631 -0.148454 -0.558025 0.535291 0.277476 -0.355489 0.493592 0.0507939 0.123255 0.0757834 -0.201079 -0.4585 -0.0702179 0.601103 0.273401 0.283459 0.381163 1.08038 -0.287204 -0.24258 0.027031 -0.528156 0.146926 -0.118827 0.29838 0.152682 -0.29173 -1.06233 -0.664171 -0.0471287 -0.388118 0.142923 -0.456022 -0.208419 -0.160159 0.613016 0.205736 -0.494617 -0.37327 0.315954 0.272999 0.131391 -0.0967007 0.247045 -0.268532 0.57191 -0.371093 0.113618 -0.18635 -0.263014 0.516591 0.445184 -0.0500945 0.251657 -1.04571 -0.883873 -0.854454 0.43805 0.0183014 -0.0389017 -0.133293 -0.172349 0.0819362 0.627264 -0.53937 
55 0.353562 0.181164 -0.16311 -0.0521737 -0.11371 -1.27048 -0.261123 -0.105766 0.162317 0.319965 -0.464341 -0.512426 0.721803 0.06578 0.0668248 -0.234322 0.210288 -0.335483 0.0578812 0.446269 -0.964498 0.00347478 0.751367 0.805826 0.348827 -0.202485 0.756623 -0.00641583 0.34995 -0.376792 -0.629528 0.405977 -0.760856 0.997599 0.32613 0.233516 0.103532 0.407164 0.182861 -0.085036 0.977842 0.583921 0.254875 0.0721811 -0.569247 0.122361 0.842175 0.772052 -0.252321 0.569944 0.865799 0.167521 0.0474354 -0.573308 0.764613 -0.142422 -0.486744 -0.0428209 0.763172 -0.256591 0.725175 0.317316 -0.331784 0.198838 -0.405756 0.139329 0.011927 0.27602 -0.584006 0.239517 -0.37445 -0.0667423 -0.464372 -0.327194 -0.223434 -0.295637 0.683118 -0.284051 -0.0107058 -0.389793 -0.140488 0.0684972 0.0807975 0.607706 -0.880131 -0.119422 0.906056 -0.556147 -0.109713 -0.365203 -0.654166 -0.518212 -0.0981321 -0.469459 -0.440944 -0.208044 -0.440948 -0.12149 0.76377 -0.679586 0.17574 -0.0211197 0.218165 -0.157862 0.293275 -0.241069 -0.361627 0.358406 -0.229162 -0.231142 0.655924 -0.247738 -0.678173 0.955664 -0.598333 -0.54318 -0.0290275 -0.183965 -0.33089 -0.791774 0.123273 -0.0145016 0.13196 -0.333317 0.132727 -0.237532 0.0254495 -0.264248 
56 0.0985364 -0.111431 0.265982 0.257614 0.123091 0.590154 -0.65816 -0.71257 0.352802 1.08982 -0.11907 0.265194 0.623775 -0.58931 0.505377 -1.02986 0.415477 0.374475 0.453392 0.471453 -0.220006 -0.339467 0.759643 0.225168 0.156973 -0.208863 0.98746 0.648733 0.808754 -0.21354 -0.433035 0.0650929 0.0873656 0.717531 0.133326 -0.664458 1.12436 0.941846 -0.212641 0.506458 0.649134 0.274929 0.0241147 0.30063 0.126871 -0.282479 0.66138 0.652153 -0.372589 0.200614 0.0251402 -0.10397 -0.833601 -0.513809 0.999288 -0.259589 -0.124803 0.402594 0.494831 0.390086 0.675817 0.233718 0.0927893 0.619501 -0.117397 0.791195 0.0213297 -0.371633 0.0110844 -0.334455 -0.4963 -0.136147 0.600043 0.279004 -0.484882 0.545159 -0.0304452 -0.169362 -0.171173 -0.0284557 1.30008 -0.485902 -0.0901035 0.755107 -0.698826 0.0805399 0.656471 0.123398 -0.16207 -0.705499 -0.417118 -0.397903 -0.335046 -0.570887 0.512193 0.04396 -0.577671 0.265139 0.701605 0.381292 -0.549322 -0.685372 -0.718421 -0.643685 0.329073 -0.587573 -1.03354 -0.263243 -0.172092 0.238276 0.517401 -0.452829 -0.214326 0.325002 -1.148 -0.0760599 -0.928687 0.618547 0.201402 -0.954183 0.332174 0.00411585 0.06076 -0.0528751 -0.000957004 -0.327181 -0.13342 -0.311085 
57 0.208277 -0.13195 0.0384153 0.0665145 0.0936618 -0.266049 -0.816634 -0.602224 -0.339024 0.623261 -0.851025 0.523431 0.292921 -0.241244 0.168955 -0.00483822 0.458456 0.0119438 -0.177503 0.607604 0.133983 0.120965 1.00101 0.335362 0.728885 0.641068 0.319602 0.317262 0.383859 0.196309 -0.0882096 0.0397477 -0.718361 1.43749 -0.180017 -0.57986 0.498378 0.257102 -0.0293102 0.188781 0.394554 -0.118044 0.186105 0.652061 0.211387 0.725915 1.11044 1.56164 -0.059914 0.99523 -0.0372747 -0.192865 -0.343473 -0.574867 0.162503 -0.105265 -0.277003 -0.202848 0.688071 0.192972 -0.190577 0.342088 0.190489 0.0631459 0.175478 -0.273623 -0.18698 -0.0976724 -0.912286 0.0953375 -0.904813 -0.06255 0.0753322 0.583275 -0.0186152 -0.0622025 0.904648 0.344092 0.129169 -0.100358 0.394168 -0.434067 -0.0784115 1.12464 0.0849145 0.428517 0.470508 -0.75288 -0.592686 -0.711907 -0.613845 0.305644 -0.410002 -0.47332 0.427388 -0.866602 -0.0241851 -0.00453572 0.299702 -0.227789 0.020181 -0.0961209 0.227584 -0.360914 0.196975 -0.0284356 -0.632173 -0.197351 1.11008 -0.211186 -1.02513 0.110009 -0.489777 0.768418 -0.565934 -0.0419777 -0.0823122 -0.234856 0.451564 -0.813436 0.750772 0.00932917 0.311444 -0.438217 -0.38723 -0.0682177 -0.0199378 -0.383139 
58 -0.050528 0.433149 -0.645138 0.604086 0.255921 -0.565398 0.537866 -0.150285 -0.481193 -0.767022 0.203264 -1.41378 0.960346 -0.160479 -0.0555671 -0.650086 -0.062154 0.342879 -0.20877 1.27678 -0.926309 -0.0936517 0.571589 0.222355 0.00911089 -0.433067 0.201955 -0.323611 -0.0593864 -0.248478 -0.44529 -0.308777 0.846839 0.36307 -0.436067 0.0418725 1.14126 -0.469161 -0.306494 -0.628744 1.00617 -0.244907 0.0554111 -0.123167 -0.167343 -0.565958 0.495691 0.580807 -0.0483905 -0.406274 -0.0881203 0.443022 -0.862381 0.836552 -0.594088 -0.0724642 -0.262732 0.761699 0.0775759 -0.358805 -0.517754 -0.327826 0.228022 0.876849 -0.321866 0.456789 0.439781 0.0260457 -0.226444 1.08182 0.601105 0.14633 -0.558504 0.0115671 0.197539 0.0253661 0.805661 0.714721 0.0293912 0.346546 1.06718 -0.0560398 -0.368083 -0.876588 -0.160729 -0.443539 0.0190571 0.513018 -0.37558 -0.100799 -0.739264 -0.291691 0.398783 -0.566423 0.0504215 0.122444 -0.34924 -0.324634 0.273267 -0.0920563 -0.65902 -0.387045 0.303886 -0.0324929 0.103368 0.163089 -0.000971934 0.124952 0.595123 -0.177319 0.407947 -0.268633 -0.438135 0.238386 0.254713 -0.267521 0.791698 -0.648024 -0.255326 -1.08983 0.534394 -0.609321 -0.399022 -0.00221686 0.0390174 -0.052159 0.128316 -0.710991 
59 0.605171 0.183804 0.651646 0.320328 -0.108844 -0.890626 -0.660314 -0.926344 -0.755018 0.0265961 -1.46461 0.757257 0.110718 -0.0162736 -0.146033 -0.882332 0.0788664 -0.131589 0.00420052 0.371997 0.261643 0.451807 1.18857 0.226891 0.262267 0.205775 0.169156 0.585203 0.54996 -0.171361 -0.430884 0.22937 -0.606082 0.653307 0.648057 0.524011 0.669928 0.238195 -0.0525592 1.08002 0.587832 -0.162774 -0.681258 0.647593 -0.181171 0.439715 0.672844 1.43918 -0.431446 0.293646 -0.313072 0.427293 -0.419283 -0.407488 0.26365 0.360508 -0.923947 0.626582 0.740171 0.238578 -0.00303038 0.150396 0.219663 0.517716 -0.43913 0.533276 0.166992 -0.329975 -0.34578 -0.216892 -0.598906 -0.105377 -0.420327 0.0427779 -0.125861 -0.120334 0.325528 -0.0508964 -0.906704 0.0898637 0.510145 -0.886793 -0.696417 0.969668 -1.05428 -0.371172 0.30743 0.00092842 -0.505212 -0.973859 -0.126778 0.020717 -0.161508 0.0134373 0.217159 -0.465139 -1.11615 0.397247 0.225202 -0.707731 -0.279179 0.14377 -0.0832138 -0.573878 0.496635 0.0347485 -0.296067 -0.518448 0.332706 -0.82802 -0.306059 -0.489436 0.144843 0.124949 -1.04442 0.332031 0.0820305 0.269093 -0.303949 -0.954855 0.586397 -0.499331 0.248904 -0.373057 0.341504 0.0801181 0.357622 0.186788 
60 0.233324 0.345199 0.0873939 0.383629 -0.605766 -0.253225 -0.190975 -0.168628 -0.345941 0.499628 -1.23195 -0.261514 0.719063 0.0239345 0.0431417 0.0565531 -0.190596 -0.80063 -0.108581 0.286646 -0.00901287 -0.522229 0.357442 -0.103619 0.896295 0.245253 0.469222 0.911666 0.116915 -0.292234 -0.52692 -0.0778382 -0.43375 -0.0775213 0.0983374 0.158048 0.104837 0.461921 0.0418459 0.479414 0.886067 0.651278 0.227995 0.439376 -0.314628 0.0402245 0.235212 0.947334 -0.535591 0.722472 0.189872 -0.578252 -0.556085 0.198796 -0.411183 -0.504259 -0.206827 -0.156082 0.815537 -0.356628 0.775982 0.351292 -0.419815 0.41709 0.238365 0.35392 -0.0671695 -0.228077 0.0663538 0.0931062 -0.0252668 0.258798 -0.0125905 -0.085029 -0.753946 0.161724 0.284169 -0.134534 -0.242941 -0.103293 0.634397 -0.619243 -0.689604 0.301858 -0.536596 0.0249581 0.0228189 -0.289947 -0.675829 -0.538178 -0.78801 -0.0140006 0.604872 -0.494504 0.395619 0.231975 -0.685457 0.355163 0.581637 -0.0822146 -0.860651 -0.0878921 0.666882 -0.268743 0.130051 -0.190946 -0.923379 -0.247619 0.416995 -0.352372 0.0814936 -0.428789 -0.725537 0.492679 -0.923552 0.355974 0.439185 0.142634 -0.260135 -0.625013 0.0258039 -0.052991 -0.0772064 0.457704 0.268073 -0.0514913 0.232465 -0.504899 
61 0.340459 -0.213916 -0.633083 -0.123046 -0.828054 -0.273836 0.0650858 -0.538278 -0.0859582 0.106898 -1.20151 0.446702 0.0143362 0.437896 0.449544 -1.00893 0.110499 0.201981 0.547418 0.69618 -0.0411493 0.342941 0.950729 -0.295251 0.412345 -0.699915 0.774248 0.770362 -0.136688 0.235316 0.140859 0.141722 -0.414543 1.28716 0.106337 0.71213 0.7651 0.395122 -0.210297 0.362919 0.523841 0.316227 -0.125603 0.463675 0.388841 0.347656 0.994171 1.08907 -0.561244 0.240412 -0.0212453 0.834662 -0.11056 -0.174369 0.819244 0.0771959 -0.561806 0.291539 0.861825 0.0339283 0.574276 0.935382 0.603473 0.411244 0.459212 -0.109061 -0.144504 -0.314481 -0.589414 0.0177715 0.341205 0.0862825 0.0174913 -0.155894 0.0127477 -0.198796 0.755134 0.194913 -0.0657403 -0.567081 -0.0417032 0.432601 0.135991 0.495681 -0.236599 -0.0274215 -0.155357 -0.225095 -0.714302 -0.790999 -0.872979 -0.596198 0.1049 0.134514 -0.418742 -0.0847481 -0.601647 -0.227328 -0.527954 0.353204 -0.629677 0.960485 0.273516 -0.0409665 0.186005 -0.440274 -0.0517652 0.348348 -0.00926203 -0.850845 0.345306 -0.465195 -0.950561 0.143964 -0.201168 0.248127 -0.0278762 -0.528929 -0.576156 -1.08839 -0.0277281 -0.161833 0.1186 0.0231611 0.455965 0.166227 -0.147278 -0.92389 
62 -0.33723 3.54768e-06 0.25499 -0.162737 0.0362145 -0.499397 0.144554 -0.205896 -0.299744 0.252528 -0.632315 -0.322941 0.0543548 -0.907217 0.679631 -0.977305 0.0140556 -0.0655849 0.0626637 0.919415 -0.601663 0.394145 1.0664 -0.144113 0.844992 -0.182819 0.862697 0.691971 0.403552 0.268968 -0.130574 -0.521364 0.68316 0.276737 -0.0657186 -0.594404 1.0245 -0.0792445 -0.422607 0.0171794 0.471669 0.72368 0.689929 0.181793 -0.134093 0.0624647 1.01826 1.0143 -0.581093 0.436325 -0.32672 -0.659962 0.855636 -0.931708 0.29844 -0.394154 -0.224117 0.0902294 0.197973 0.0279364 0.0813786 0.131431 0.773664 0.354764 0.212267 0.298878 0.657348 0.226438 -0.590093 -0.350997 0.0915311 -0.601948 0.867465 -0.419581 -0.227677 -1.07517 -0.181988 0.299515 -0.00809643 -0.144459 1.03964 0.676265 0.153555 0.337421 0.0424949 -0.379463 -0.364168 0.046054 -0.215969 -0.988518 -0.635037 -0.597617 -0.200057 -0.272404 -0.553944 -0.714913 -0.979585 1.00017 0.309544 0.15247 -0.108744 -0.104155 -0.711183 -0.278127 0.507758 0.12247 -0.147576 0.541827 0.301426 -0.730169 0.381187 -0.156678 -0.31639 0.284317 -0.35276 -0.587326 0.171596 -0.967949 -0.427307 -0.59893 0.644607 0.0230448 -0.550317 -0.242748 0.270906 0.271686 -0.195308 -0.530994 
63 -0.282518 -0.0898109 0.208528 0.606317 0.217198 -1.16432 -0.0338752 -1.27778 0.00638706 0.299544 -1.38312 -0.713689 -0.25209 -0.504599 -0.222657 -0.77022 0.945538 -0.40355 -0.0306086 0.405708 -0.89768 0.760288 0.965362 0.240444 -0.172428 0.542085 0.827224 0.576649 0.17109 -0.102392 -0.435382 -0.402004 -0.00397169 0.695072 0.156532 -0.117204 0.959775 0.268974 0.307937 0.4271 0.344435 0.652257 -0.0442249 0.340494 -0.0328399 0.177456 1.01167 1.47564 -0.500462 0.218863 0.18879 -0.012603 -0.538019 -0.115741 0.706562 -0.367215 -0.490812 0.418817 0.71397 -0.396634 0.697422 0.150081 0.425266 0.287584 -0.80329 0.57885 0.557718 -0.671397 -0.723832 -0.581944 -0.78008 0.247898 -0.251938 0.240571 -0.560364 -0.440167 0.107143 0.0471215 -0.696555 -0.773379 0.307366 -0.420878 -0.143592 0.400107 0.187144 0.127314 0.316416 -0.127398 -0.182159 -0.158162 -0.48655 -0.261738 0.00697448 -0.182465 1.04255 -0.126246 -0.201248 0.776682 0.940817 -0.056364 -0.700838 0.0871876 0.266745 0.149453 0.05926 -0.129458 -0.597083 0.0394606 0.177321 -0.561287 -0.188304 -1.06654 0.274227 0.464655 -0.697975 -0.360061 -0.71618 0.0364588 0.330974 -1.03686 0.29133 -0.609171 -0.0373571 -0.713766 -0.0474164 -0.166961 0.319243 0.381299 
64 0.311076 0.0451898 0.0979576 0.274601 -0.239061 -1.14217 -0.322079 0.0266892 -0.292558 0.468718 -1.24673 -0.545535 0.127 -0.0788604 0.361209 -1.06326 0.4122 -0.798487 -0.352941 0.357338 -0.521338 0.651994 0.645969 -0.152679 0.0632455 -0.164049 0.0572132 0.125772 1.12171 -0.49366 -0.764994 0.458878 -0.666002 1.02426 0.424144 -0.834464 0.810573 0.456252 -0.159695 0.207456 0.706309 0.11538 0.493652 0.012517 1.12048 0.492436 0.76283 0.750544 -0.397858 0.227207 0.613691 0.396225 -0.0499913 -0.221735 0.377452 -0.538378 0.038647 -0.456663 0.905619 -0.100158 0.936366 -0.110563 -0.639465 0.896178 -0.632376 0.202232 0.029045 -0.0557904 -0.666149 0.275118 -0.915216 -0.443258 0.322903 0.261054 -0.553284 -0.59534 0.231813 0.617707 -0.474371 -0.459587 -0.0698321 -0.371261 -0.237452 1.12366 -0.135775 0.318699 0.740938 -0.399896 -0.114215 -0.568339 -0.173224 -0.265669 0.220223 0.225254 0.608691 -0.457599 -0.612789 0.880529 0.91272 0.251678 -0.57705 -0.724627 -0.536989 -0.384316 -0.617014 0.141343 -0.26542 -0.0945588 0.0848413 -0.415338 0.11313 -0.751106 0.353251 0.532597 0.0628531 -0.103328 -0.781411 -0.453588 -0.146445 -1.38533 -0.108954 -1.03632 0.561683 -0.892646 -0.969825 -0.635897 -0.103193 -0.213266 
65 -0.0347101 0.00661662 0.452614 -0.576663 -0.155978 -0.432457 0.331567 -0.792332 -0.515679 0.842254 -0.578213 0.424492 -0.315666 -0.303247 0.811292 -0.105618 -0.213186 -0.489356 0.704493 0.496739 0.461322 0.153192 1.02852 0.811837 0.262115 -0.116059 0.574836 0.158386 0.148362 -0.340514 -0.837488 0.0832872 0.0236888 1.01931 -0.542779 -0.943051 0.966963 0.709164 -0.19765 0.20299 0.25339 0.833884 0.441051 0.521323 0.283549 0.259764 0.628507 1.33841 -0.0293243 0.911645 -0.090262 0.0354537 -0.132009 0.255003 0.82151 -1.1207 -0.86849 0.132964 1.22357 -0.0169647 0.644239 0.631038 0.681964 0.4379 0.593243 0.235918 0.102499 -0.174957 -0.604302 0.928814 -0.227041 -0.484578 0.0719086 -0.32487 -0.612563 -1.11088 -0.334852 0.147338 0.59987 -0.359967 0.395066 0.73183 -0.967656 0.00816586 -0.0993242 0.904384 0.216928 -0.289576 -0.813521 -0.663678 -1.44732 0.414406 0.19318 -0.361545 -0.857243 -0.494048 -0.4543 -0.10948 1.07167 0.590438 -0.241272 0.251921 -0.913868 0.134818 0.658125 0.266515 -1.04297 -0.413698 -0.0744266 -0.110576 1.06827 -0.445956 -0.719218 0.709281 -0.136442 -0.69455 -0.288736 -0.222706 -0.2339 -1.01062 0.553139 0.981307 -0.575229 -0.0984998 -0.228074 0.409651 -0.14494 -0.110453 
66 0.0482182 0.301992 0.0222069 -0.0549223 -0.306855 -0.621922 0.479841 -0.184722 -0.317086 0.0239364 0.154877 0.150179 0.558726 -0.317806 0.363029 -0.132494 0.0706721 -0.00373443 0.257242 0.219168 0.118829 0.0219236 0.228513 -0.286473 0.095866 -0.0398879 0.283174 0.567316 0.530471 0.0532522 -0.515946 -0.143099 -0.620205 0.158651 -0.163966 0.214359 0.685013 0.0661642 -0.301784 -0.0903277 0.174404 0.492342 -0.211295 -0.247952 -0.0541815 0.337921 0.629375 0.474374 -0.170643 -0.094298 0.218662 -0.141802 -0.51495 -0.0486705 0.119654 -0.567549 -0.170616 0.310991 0.430415 0.0434537 0.33147 0.118098 -0.00336824 0.128678 0.494993 0.224441 -0.115604 -0.0935354 -0.208819 -0.28368 -0.502441 -0.338274 -0.193473 0.548711 -0.377321 -0.183725 0.253697 -0.0615502 0.185481 -0.290556 0.203586 0.0384152 0.184848 -0.142223 -0.209056 -0.00286332 0.28269 -0.0850378 0.142682 -0.0617838 -0.418508 0.242829 -0.247313 -0.0617164 0.472063 -0.270201 -0.268802 0.0452435 -0.0461664 -0.145132 -0.162921 0.152276 0.18917 -0.208909 0.0894076 -0.267063 0.0360526 -0.205696 0.226165 -0.105417 -0.406102 -0.116826 -0.39801 0.223164 -0.253325 0.121106 0.460113 0.0531366 -0.495512 -0.61815 0.177437 0.121179 0.135958 0.341396 -0.0399042 -0.318262 0.446522 -0.24449 
67 0.857231 0.224995 -0.600515 0.333419 0.276905 -0.425926 -0.0971072 -0.494501 -0.256987 -0.355166 -0.201778 0.0169574 0.0739605 -0.793406 0.203071 -0.0922317 0.380121 -1.10622 0.0637006 0.221443 -1.32964 -0.910767 -0.034716 -0.368918 1.11892 -0.713382 0.476749 0.460829 0.700716 -0.443973 -0.287116 -0.177704 1.15938 0.469154 0.507169 0.196596 -0.0508579 -0.0939333 -0.493941 -0.378905 0.994946 -0.0345766 0.467688 -0.479827 -0.421133 0.382124 1.20888 1.276 -0.697746 -0.282622 -0.274767 0.56271 -0.290529 0.242238 0.0961049 0.505052 -0.369917 0.132353 0.968068 0.152013 -0.572335 0.0312669 0.538125 0.566671 -0.288096 -0.203377 0.945427 -0.302197 -0.831044 0.556365 0.549586 0.00581346 0.399673 -0.133535 -1.74789 -1.02092 0.908938 0.0176478 0.347149 -0.154019 1.23176 -0.410179 -0.361874 -0.0559456 -0.827917 0.154657 -0.120984 -0.289948 -0.461319 0.35682 -0.24106 -0.3045 -0.592114 0.017759 0.825078 0.453556 0.593558 -0.209367 0.614039 0.362425 -0.385186 0.0190802 0.359739 -0.282982 0.266694 -0.370542 0.335452 -0.188386 0.761236 0.0344199 0.641704 -0.620186 -0.532449 -0.211843 0.348116 0.120031 -0.125193 -0.318089 -0.494572 -1.61892 1.06037 1.10748 0.143476 -0.285403 0.129268 0.0778474 1.0276 -0.183118 
68 0.269833 0.128172 -0.171917 -0.571542 -0.12349 -0.462301 -0.511678 -0.181372 -0.284903 0.468116 -0.312444 -0.337417 0.103042 0.175644 0.2641 -0.253253 0.189298 0.0105976 0.187137 0.382929 -0.490333 0.00941573 0.177293 0.234147 0.547003 -0.131251 0.49175 0.0367247 0.173864 -0.244184 -0.287696 0.393931 -0.463234 0.148862 0.272816 -0.254407 0.497333 0.276066 -0.118308 0.0322775 1.03733 0.380103 0.0715172 0.0816807 -0.1185 0.0389799 0.303856 0.701676 -0.176762 0.570754 0.363271 0.00284171 0.148106 0.287213 -0.0415782 0.10863 -0.251559 0.390889 0.374823 -0.731693 0.19473 0.66201 -0.261634 0.482989 -0.0149408 0.297582 0.0752879 0.3363 0.0492083 0.229765 -0.218143 0.122756 0.197235 -0.00673473 -0.464033 -0.134059 0.33 0.379698 -0.275093 -0.640593 0.0280007 0.0402764 0.313694 0.172283 -0.214131 -0.022492 -0.626184 -0.238813 -0.195022 -0.304157 -0.338816 0.317645 0.0458524 -0.164056 0.160304 -0.490007 -0.621971 -0.0416912 -0.403677 -0.129575 -0.559437 -0.238119 -0.00722374 -0.507326 -0.00652837 0.0388435 -0.566452 -0.430765 0.402768 -0.372743 -0.00286602 0.0262822 -0.386649 0.469393 -0.544907 -0.332426 -0.175636 -0.541834 0.028561 -0.429781 -0.21377 -0.552814 0.167474 -0.140201 -0.00813663 -0.471791 -0.0240427 -0.368551 
69 -0.182069 -0.0704355 0.163614 0.952177 -0.192427 0.98874 -0.564319 -0.530306 1.03935 0.139887 -0.0119121 0.189204 1.4889 -0.116437 0.577881 -0.666831 -0.0787998 0.344864 0.917651 0.338946 0.13024 -0.685501 1.08601 -0.0428008 0.611792 -0.0968918 1.57063 0.282698 -0.182822 -0.091873 -0.99924 -0.557077 0.889796 -0.121603 -0.284448 -0.0686832 1.36864 0.319557 -0.0463809 0.665386 0.782657 -0.484334 0.132977 -0.274931 -0.446666 -0.329678 0.626747 0.682696 -1.16198 0.570144 -0.733163 -0.08251 -0.546871 0.137029 1.02082 0.114936 -0.680443 0.256137 0.425629 0.17438 1.12914 -0.247628 -0.175952 1.06704 0.27163 -0.134622 0.868818 -1.03784 -1.02758 -0.220818 -0.1823 -0.235515 0.968474 1.30039 0.110527 -0.160156 0.782725 0.346756 -0.126095 -0.0464219 1.76669 0.0826357 0.244292 0.0739253 -0.494424 0.111646 0.0590714 -0.616127 -0.179193 0.445443 -0.479614 -0.956117 -0.579763 -0.189087 0.0584421 0.278846 -0.109384 0.070755 0.854438 -0.207367 -0.384103 0.0583935 -0.37605 -0.12687 0.655436 0.320217 -0.599979 -0.126396 0.163837 0.319937 0.61647 0.0171126 -0.203891 0.860417 -1.34432 -1.63248 -0.322281 -0.852585 -0.468708 -1.07736 0.234495 0.138375 -0.181713 -1.32924 0.424402 -0.317149 -0.321735 0.555437 
70 0.528948 0.000716175 -0.188174 0.40513 -0.821806 -0.806213 -0.653961 -1.05535 -0.194006 0.259482 -1.68323 0.790761 0.608107 -0.398835 -0.124528 -1.25053 0.0482333 -0.143238 -0.0521706 0.289149 -0.459431 0.494081 0.958475 -0.303973 -0.403511 -0.355217 0.014872 0.670235 -0.430077 0.0350844 0.13141 0.0362946 -0.533218 1.28074 0.105111 0.243677 0.423264 0.23992 0.0739409 0.748732 0.353677 0.717738 0.296706 0.103963 -0.139764 -0.0350709 0.886332 1.22324 -0.819078 0.7729 -0.154238 0.608125 -0.0707501 -0.381865 0.876978 -0.233136 -0.0578355 0.505071 0.851792 -0.18915 1.28262 0.952259 0.331797 0.798896 0.218045 0.0603605 0.345405 -0.599452 -0.437145 -0.360043 -0.299377 0.276127 0.0728353 0.030308 -0.284998 -0.21815 0.683903 0.0869787 -0.477597 -0.328305 0.495101 -0.57964 0.101264 0.683959 -0.260257 -0.271463 0.129163 0.0366819 0.129469 -0.351714 -0.934453 0.0861436 0.139426 0.438078 -0.00985339 -0.360272 -0.771519 0.281457 -0.0729734 -0.403777 -0.487113 0.935908 0.585483 -0.239934 -0.193622 -0.232646 -0.230725 -0.06728 0.100942 -0.643616 0.248227 -0.63502 -0.4368 -0.0907579 -0.378299 0.0131706 -0.892246 -0.160641 -0.538389 -1.12425 0.273712 -0.400465 0.149209 0.175655 0.831201 0.390762 0.145132 -1.10692 
71 0.000222738 0.29841 0.0844541 0.148838 -0.335278 -0.0920858 0.273563 -0.0552142 -0.726174 0.225418 -0.479301 -0.266446 0.37673 -0.688087 0.393841 -0.109218 -0.244671 -0.0163038 0.00304331 0.621081 -0.281999 0.323878 0.851126 0.642124 0.438189 0.0652838 0.329232 0.798705 0.337999 -0.581517 -0.680971 0.289261 -0.466869 -0.436231 0.137326 0.639765 0.581639 0.663056 -0.00113211 0.891062 0.85559 -0.079905 0.301532 0.109626 0.266946 0.955417 0.35153 1.10271 -0.0325207 0.136402 -0.319767 0.333666 -0.557908 -0.374844 0.0910943 -0.354059 -0.686672 0.621546 -0.00403345 0.0326889 0.0776019 0.0311708 0.236095 0.0362613 -0.354164 0.429687 0.430527 -0.0871983 0.069089 -0.0728496 -0.560765 0.183573 -0.0787535 -0.240535 -0.385612 -0.213274 0.260591 -0.14643 -0.871199 0.31382 0.632177 -0.244287 -0.121656 0.347094 -0.592072 -0.0201604 0.089092 -0.0422628 -0.546045 0.0716833 -0.655246 0.38489 -0.481228 -0.386221 -0.270455 -0.213334 -0.449039 -0.235989 -0.0939654 -0.991619 -0.536315 0.26388 -0.0733234 -0.0445593 -0.0317369 0.139107 -0.726198 -0.380417 0.114893 -0.123238 0.265353 0.0651225 -0.294547 0.14516 -0.661037 -0.346955 0.415197 -0.428916 -0.316629 -0.998951 0.334492 0.226724 -0.220529 0.0758386 0.269384 -0.112684 0.261725 -0.832799 
72 0.0512478 -0.255587 -0.0885729 0.166231 0.169816 -0.68888 0.129066 -0.693142 -0.0985204 0.0417552 -0.813136 -0.866095 0.275201 -0.371884 0.118053 -0.697942 0.494444 -0.672287 0.089984 -0.00281519 -0.605526 0.00871238 0.194712 -0.055954 -0.0699916 0.464122 0.571262 0.191173 0.199934 -0.152807 -0.116914 -0.513732 -0.0966034 0.467051 0.222165 -0.184905 0.624509 0.0806348 0.290798 0.595366 0.253641 0.288353 0.0179009 0.159394 0.199141 0.280644 0.594105 0.918892 -0.232513 0.119117 0.265985 0.0689684 -0.529565 -0.088502 0.440684 -0.245704 0.0161669 0.450548 0.538559 0.076064 0.394595 0.291242 0.280054 0.539245 -0.1434 0.230555 0.26307 -0.528018 -0.242218 -0.192155 -0.367821 0.0547363 -0.205777 -0.385724 -0.258854 -0.376278 -0.0602943 -0.0504932 -0.300944 -0.511497 0.479712 0.356987 -0.227152 0.484146 0.180886 -0.0578168 0.151826 0.0157643 -0.00726715 -0.406947 -0.438309 -0.098118 0.0930243 -0.00520674 0.695892 -0.183728 0.172333 0.408106 0.139965 0.872078 -0.193074 -0.170024 0.204591 -0.0754809 -0.158773 0.0172715 -0.277094 0.052631 0.21707 -0.161409 -0.0603111 -0.393138 -0.301069 0.51099 -0.356116 -0.516123 -0.244895 0.391621 0.0210855 -1.01106 0.454946 -0.612197 0.212951 -0.395018 -0.36587 -0.292741 0.0156077 0.0643025 
73 -0.0272071 -0.031267 0.297093 -0.0176717 -0.0250106 -0.0302369 -0.264245 -0.130652 0.120869 -0.200944 -0.367765 -0.182039 0.36758 -0.370331 0.0153805 -0.405545 0.258561 -0.142085 0.0635664 -0.316888 -0.206149 -0.046916 0.339254 0.471468 0.230763 -0.18473 0.265099 0.0501065 -0.249058 -0.131703 -0.523224 -0.080843 -0.331092 -0.10195 -0.0557835 0.0102001 0.66083 -0.0193381 0.239782 0.25013 0.497958 -0.0117114 0.0325358 -0.150288 -0.145132 0.0144671 0.514175 0.514415 0.20936 0.261566 0.00992464 -0.00427878 -0.417974 0.0861354 -0.166597 -0.456987 0.0856768 0.321801 0.480876 -0.320126 0.455347 -0.0254414 0.0286165 -0.122967 0.222318 0.421051 0.449266 -0.137227 -0.447809 0.0422793 0.403724 -0.222062 0.0519975 0.0571797 -0.349922 -0.0634999 0.867458 0.175421 -0.199736 -0.488874 0.152579 -0.322377 0.413043 0.39454 -0.554013 0.19965 -0.0157758 -0.436632 0.00486522 -0.625821 -0.0497312 0.0392431 0.0783407 -0.425875 0.308079 0.00199215 -0.440393 0.111888 -0.0133689 -0.223189 -0.555677 0.0100229 0.195276 0.329036 -0.108761 0.328118 -0.0825883 0.105514 0.325437 0.0586619 0.0631578 0.00536015 -0.649033 -0.203345 0.152378 0.317469 -0.389892 -0.292161 -0.549365 -0.417482 0.327392 0.153818 0.00808544 -0.0102443 -0.131781 -0.101052 0.199436 -0.191623 
74 0.432908 0.0513753 -0.0884776 0.342072 -0.166437 -0.646559 0.102577 -0.427635 -0.273117 -0.140614 -0.39113 -0.123829 0.0554318 -0.262124 0.144538 -0.190397 0.120919 0.152371 0.196509 0.560474 -0.43661 -0.225999 0.285867 -0.327325 0.0389328 -0.260284 -0.00369185 0.169723 0.195657 -0.427596 -0.301535 0.287115 -0.281899 -0.172189 0.00670769 -0.351555 0.264663 0.295467 -0.0317732 0.224436 0.590224 0.416229 -0.0515058 0.256241 -0.108209 0.222395 0.599604 0.74301 0.117592 0.548201 0.0893369 0.306994 0.0820012 -0.247981 0.19159 0.340012 -0.157084 0.146834 -0.123219 0.197344 0.140903 0.0215263 -0.10401 0.585396 -0.31367 0.143679 -0.34933 0.0329475 -0.416048 0.110507 -0.0475636 0.284828 0.0491395 0.474935 -0.201167 -0.232117 -0.0365706 0.348129 0.0688912 -0.158237 0.715157 0.0558848 -0.520835 -0.0780189 0.0362896 0.0615464 0.0919292 -0.209941 -0.396851 -0.283682 -0.520101 -0.231404 0.206321 0.079803 -0.407326 -0.386929 -0.281081 0.16729 0.0590858 -0.0813706 -0.190308 0.1715 0.183284 0.0613785 -0.0511878 0.25863 0.134628 -0.407516 -0.343944 0.0627867 0.366791 -0.442561 -0.37914 0.452326 0.297607 -0.143989 0.304499 -0.0480245 0.266216 -0.29825 0.242273 0.132337 -0.0176111 -0.458471 -0.0931449 -0.367386 -0.0550791 -0.34575 
75 -0.0201013 -0.328919 -0.262089 0.160475 -0.114455 -0.579411 -0.287038 -0.607209 0.200961 -0.21641 -0.815899 0.587623 0.588321 -0.101213 0.68105 -1.38745 -0.312681 0.13599 0.636686 0.850864 -0.0510685 0.180768 0.420528 0.0177768 -0.256246 -0.180017 0.731283 0.633899 -0.43475 -0.00397042 0.294731 -0.0972829 -0.444926 1.07825 0.121128 0.226986 0.420607 0.254498 -0.342078 0.0724972 0.350327 0.373303 -0.0575272 -0.011256 -0.153987 -0.0497581 1.08043 0.949176 -0.663213 0.246105 -0.25509 0.388968 0.0141714 -0.111789 0.476826 -0.654171 -0.134202 0.00471272 0.582291 -0.124019 0.824155 0.575363 -0.0387622 0.628238 0.332662 -0.223957 -0.103676 -0.344979 -0.408011 -0.198412 -0.0673859 0.204657 0.0289877 -0.237189 -0.555867 -0.100736 0.730102 -0.0076848 0.0932985 -0.215673 0.239526 -0.00463982 0.141432 -0.0124539 0.0492173 0.380618 -0.154842 -0.201579 -0.0357592 -0.592782 -0.64224 -0.467952 0.137229 0.663182 -0.317302 -0.264134 -0.492661 0.159856 -0.0866388 0.341438 -0.665563 0.924743 0.129694 -0.836552 -0.0311432 0.123313 -0.317817 -0.213642 -0.139858 -0.602223 0.289119 -0.690725 -0.607823 0.34323 -0.535186 -0.467066 -0.147617 -0.290885 -0.78249 -1.54398 0.0807921 -0.204986 -0.0742325 -0.265865 0.339765 -0.201264 0.200986 -0.949904 
76 0.0912217 -0.258069 -0.0628467 0.15079 0.181927 -0.65617 0.119789 -0.697203 -0.072695 0.00626997 -0.768617 -0.829184 0.293562 -0.35162 0.0709796 -0.738757 0.484154 -0.643248 0.0933344 0.0359342 -0.621846 -0.0298203 0.213476 -0.0968221 -0.0827565 0.476441 0.573122 0.182756 0.170899 -0.11657 -0.0818366 -0.52242 -0.0840325 0.471296 0.217846 -0.241131 0.665917 0.0750572 0.296767 0.619648 0.224034 0.323737 0.020149 0.208683 0.219506 0.313201 0.5281 0.91564 -0.234103 0.155363 0.252559 0.0709381 -0.562751 -0.0689198 0.433047 -0.196457 0.00343167 0.426115 0.522326 0.077426 0.364879 0.351113 0.258073 0.574902 -0.0891625 0.244282 0.23649 -0.534417 -0.257096 -0.170148 -0.342851 0.0551006 -0.225084 -0.390436 -0.265372 -0.414126 -0.106695 -0.078482 -0.285234 -0.522897 0.489684 0.315752 -0.21014 0.487508 0.186407 -0.059379 0.129719 0.0336351 0.00389813 -0.390935 -0.473981 -0.138188 0.0487975 0.00785954 0.754184 -0.184124 0.221772 0.39866 0.129279 0.872243 -0.169862 -0.201379 0.191083 -0.0202688 -0.175177 0.00455761 -0.263706 0.03778 0.180908 -0.161564 -0.0301624 -0.406486 -0.313936 0.549742 -0.399212 -0.503916 -0.227837 0.415185 0.0419349 -1.02442 0.426843 -0.576689 0.250989 -0.38594 -0.349141 -0.265568 0.0396729 0.0731595 
77 0.194571 0.305435 0.429567 0.49489 -0.449074 -0.662253 0.0656934 -1.20216 0.255801 0.108816 -1.41188 -0.590602 -0.168472 -0.260711 0.0481198 -0.516351 0.697766 -0.0637597 -0.131264 0.408199 -0.692472 0.834587 0.977263 -0.0650943 -0.130447 0.64407 0.568142 0.347229 0.352086 -0.0882898 -0.550495 -0.633241 -0.0974171 1.10435 0.316026 -0.101598 0.736511 0.223163 0.131592 0.385118 0.53796 0.855413 -0.544223 0.259847 -0.259454 0.301521 0.86798 1.16512 -0.368555 -0.0116569 0.392848 -0.161851 -0.670146 0.142763 0.534952 -0.0194911 -0.832969 0.659648 0.567387 -0.66894 0.3103 0.557794 0.790677 0.0132332 -0.484133 0.634938 0.432352 -0.718913 -0.757321 -0.364721 -0.728416 0.234658 0.0619076 0.460772 -0.400116 -0.172911 0.281952 0.00229565 -0.425505 -0.401192 0.429523 -0.505291 0.108608 0.274289 0.21321 -0.451104 -0.0452028 -0.346683 -0.101543 0.214208 -0.445624 -0.192535 0.345084 -0.176712 0.811327 -0.120012 -0.353748 0.30708 0.212837 -0.250494 -0.719529 -0.0478814 0.124961 0.210536 0.104956 0.320889 -0.819466 -0.123756 0.229961 -0.653122 0.057172 -1.3047 -0.37248 0.361532 -0.630155 0.0913519 -0.611856 -0.114549 0.323049 -0.945229 0.153927 -0.157629 -0.0801238 -1.22347 -0.446554 -0.00490708 -0.0180483 -0.106461 
78 -0.0699589 -0.267488 0.140381 -0.0332868 0.0918607 0.475758 -0.540813 -0.275773 0.345653 1.41781 -0.53305 0.342087 0.166195 -0.209808 0.793477 -0.561908 0.366017 0.14976 0.577528 0.498253 0.109788 -0.305394 1.17647 0.301684 0.160059 -0.434526 0.89984 0.726024 0.37158 0.0992476 -0.726709 -0.307475 0.663561 0.310741 -0.363581 -0.381457 1.41935 0.994105 -0.0116175 -0.0545047 0.220891 0.277665 0.490538 0.588104 -0.279679 -0.585766 0.941277 0.858022 -0.145161 1.14466 -0.0765792 -0.325828 -0.546058 -0.52759 0.880243 -0.605087 -0.358693 0.440016 0.531076 0.108662 0.759193 0.283615 0.00035241 0.227421 0.0289396 0.318134 0.141805 -0.487883 -0.237367 -0.205722 -0.372247 -0.060792 0.781293 0.0753764 -0.550146 -0.116949 0.248216 -0.267305 0.157338 -0.49425 1.01538 -0.0486434 -0.192883 0.0647694 -0.966235 0.454929 0.690468 -0.478015 -0.489248 -1.19861 -0.990273 -0.335697 -0.46028 -0.682685 0.280322 -0.13472 -0.473756 -0.0498206 0.958035 0.525937 -0.778543 -0.118951 -0.979779 -0.622896 0.280597 -0.209391 -1.27737 -0.110663 0.113703 -0.0234836 0.965771 -0.574643 -0.148574 0.380854 -0.518445 -0.360114 -0.852261 0.379827 0.149959 -0.605518 0.134213 0.0892435 -0.452295 -0.29258 -0.0936832 -0.247407 -0.104679 0.266787 
79 -0.308161 0.367166 0.137903 0.146217 -0.0912914 -0.107371 0.415671 -0.165014 -0.0126323 -0.215487 -0.157499 -0.722577 0.235632 -0.790711 0.664889 -0.714638 -1.07959 0.157077 0.0831728 0.567663 -0.345346 -0.0895832 0.117882 1.15419 0.920822 0.215654 0.814817 1.36056 -0.131954 -0.262269 -0.473416 0.207339 0.0366702 0.51197 0.446265 -0.680381 1.91301 1.06984 -0.0973687 -0.101047 0.372094 0.415488 0.66302 0.145641 -0.281573 0.0366046 1.20686 0.620963 -0.595766 0.712302 0.382552 0.934646 0.278727 -1.05926 -0.270186 -0.772555 -0.523745 -0.310527 0.135459 0.010703 0.130343 0.569872 0.155454 0.609167 0.263984 -0.179073 0.308158 -0.997532 -0.384362 0.26558 -0.0748516 -0.936792 0.748338 -0.463176 0.391006 -1.21341 0.394559 -0.365166 0.308909 -0.513988 1.29755 -0.0184083 -0.9704 -0.413441 0.527335 1.09128 -0.119038 -0.711859 -0.909021 0.157238 -0.778825 0.0283331 0.353835 0.408723 0.537956 -1.61514 -0.996667 -0.468307 1.34068 0.569902 -1.02096 -0.185473 -0.367531 0.763233 0.534133 0.641313 -0.426606 -0.0459653 0.0713524 -0.0983052 0.467629 -0.669786 -1.13433 1.03385 -0.660331 0.0500022 -0.196691 -0.477855 -0.306711 -0.665311 0.303258 0.255829 -0.118465 -0.144394 0.12845 -0.388351 0.484881 -0.428071 
80 0.223086 0.338406 -0.0496084 -0.111118 0.203696 -0.16564 0.0846825 -0.691844 -0.309526 0.367517 -0.918137 0.0342595 0.129487 -0.464761 0.252424 -0.185609 0.244245 0.176839 0.297119 0.32597 -0.491972 0.227488 -0.100119 -0.14191 0.444159 0.143094 0.486581 -0.021158 0.164804 0.293395 -0.745313 0.536886 -0.343039 0.469611 0.187499 -0.430476 0.450794 0.649749 -0.395346 0.849881 0.719845 -0.101965 -0.454547 -0.152994 -0.0723476 0.473837 0.763995 0.0340063 -0.35659 -0.167769 0.425276 -0.0813195 -0.196655 -0.375217 0.307976 0.173099 -0.155416 0.584943 -0.0895078 -0.352433 0.565127 0.591709 -0.0788522 0.324041 -0.152465 0.88218 0.289797 -0.111331 -1.03056 0.287762 0.0534791 0.0209243 -0.0861148 0.464885 -0.389456 -0.311575 0.0418808 0.223397 -0.347819 -0.0893132 0.385446 -0.313269 -0.175955 0.692834 -0.230263 0.210059 0.809706 -0.55867 -0.614507 -0.673718 -0.995408 0.0170421 0.482033 -0.304297 0.0232072 0.309936 0.335974 -0.620748 -0.107552 -0.0670289 -0.804254 0.1975 0.306011 -0.457628 -0.259978 -0.162581 -0.713643 -1.09945 0.363523 -0.487048 0.487999 -0.0960249 -0.410014 -0.141163 -0.598177 -0.314163 -0.455776 -0.266795 -0.500535 -0.760321 0.541912 -0.0807031 -0.0768303 0.283394 -0.392235 -0.0720075 0.274864 -0.630087 
