3312 128
0 -0.540317 -0.586894 -0.826321 0.223608 -0.150926 -0.920049 -1.35238 -1.10657 -0.434098 -0.119383 -1.22333 0.369254 1.04488 -0.0685317 0.310334 -0.194268 -0.287083 -0.816454 0.72986 -0.371286 0.597939 0.835463 0.695089 0.387398 0.521039 -0.500601 0.675647 0.421856 1.15795 -0.359079 -0.265313 0.500909 -1.23417 0.252578 -0.0346532 -0.194263 1.45717 0.624454 -0.371783 0.871317 0.0348122 0.401041 0.228062 0.541919 0.492635 0.0687039 0.639253 1.5015 -0.339479 0.817275 -0.291071 -0.0401133 -0.478309 -0.717605 1.09466 0.373439 0.0402434 0.228016 0.271058 -0.0982311 0.391066 0.0193769 0.597093 1.06846 0.437258 0.33391 0.0277623 -0.572407 -1.31293 0.517355 0.184507 -0.749494 0.140269 -0.16908 -0.612224 0.583398 0.374257 0.663314 -0.149337 0.288076 0.325785 -1.05072 0.777815 0.503078 -0.105708 0.760015 0.0490654 -0.160082 -1.79754 -0.653723 -0.533307 0.0135492 -0.251077 0.410947 0.19619 -0.0172657 0.120139 -0.681305 0.145219 0.308935 -0.628664 0.38083 -0.248296 -0.323601 0.342331 0.221528 0.0924656 0.678292 0.744609 -0.804242 -0.432426 -1.53788 -0.395276 0.495251 -0.246545 0.19478 -0.502204 0.34091 -0.790409 -1.28715 0.258768 -0.0817437 -0.179359 -0.519559 0.121111 -0.634368 0.308459 -0.675799 
1 -0.112152 -0.360538 -0.00256337 0.170928 0.278073 -0.0339537 0.462206 -0.19344 -0.0700544 0.387705 -0.337475 0.219055 0.119674 0.104727 0.77666 -0.00811268 0.07811 -0.32114 0.125564 0.191799 -0.621155 -1.18501 1.13139 0.0244784 0.603913 -0.355629 0.60841 0.692246 -0.0476128 0.0228392 -1.11084 0.0859651 1.31365 -0.373007 0.183636 -0.119536 0.860981 0.439357 0.0872388 -0.438898 -0.0911636 0.0625012 0.773855 0.805521 -0.663542 -0.330483 1.24126 1.47939 -0.784473 0.631336 -0.272767 -1.04168 -0.562905 0.360076 0.801214 -0.541121 -1.00469 0.673035 -0.144747 0.635799 0.614587 0.443385 -0.102101 0.818635 -0.156992 -0.506395 -0.169537 -0.262598 -0.393241 -0.0513834 -0.285844 -0.274199 0.952476 -0.500962 -1.07039 0.0597885 0.437675 -0.0961135 0.430264 -0.554929 1.05846 -0.174539 -0.169365 0.328192 -0.80681 0.309324 0.581768 -0.860865 -0.24702 -1.00214 -1.6106 -0.0927731 -0.469828 -0.966407 -0.0751321 0.0286993 0.222792 -0.670605 1.52614 0.291358 -0.88667 0.0308211 -0.718676 -0.579719 -0.00529508 0.0582106 -1.62429 0.278068 0.311457 -0.482627 1.26282 -0.461753 0.205406 0.249438 0.623713 -0.250377 -0.528012 -0.0524152 -0.240995 -1.459 0.734406 0.394893 0.0178325 -0.21773 -0.121855 0.282827 -0.0256597 0.545066 
2 0.408296 0.0843059 0.321613 -0.0156398 -0.240136 -0.684049 -0.0363361 -0.465904 -0.145675 -0.3132 -0.728865 -0.325752 0.17574 -0.052846 0.0432087 -0.379116 -0.166756 -0.528541 -0.107061 0.249159 -0.760591 0.347143 0.183356 0.050553 -0.0737847 -0.204498 0.300477 0.188466 -0.215665 -0.335121 -0.0975123 -0.407037 -0.153887 0.172996 0.0201639 -0.225285 0.164494 0.41256 -0.0573233 0.128866 0.515151 0.307709 -0.141879 -0.011846 -0.44152 0.54497 0.938906 0.383467 -0.246378 0.250329 -0.149122 0.465372 -0.661916 0.275288 0.225111 -0.571721 -0.667499 -0.249035 0.172788 0.04659 -0.101238 0.56168 0.263332 -0.0958436 0.175895 0.331797 0.0660201 -0.109815 -0.183482 -0.0674576 0.308344 -0.622672 0.127502 0.171862 -0.293587 -0.670287 0.31211 0.104802 -0.425369 -0.583709 0.498144 -0.666936 -0.225079 0.157126 0.361917 0.514738 0.322668 -0.212111 -0.16508 -0.575823 -0.425178 0.0516673 -0.0511503 0.227112 -0.104045 0.0472062 -0.201318 -0.128229 -0.155522 -0.219244 -0.50926 -0.331327 0.178323 -0.363254 0.385061 0.341778 -0.561979 -0.507855 0.11461 -0.351469 0.239827 -0.276614 -0.460806 0.597327 0.0641841 0.294467 -0.121078 0.139188 -0.639725 -0.488733 0.136451 0.476492 0.0914274 -0.287662 -0.151847 -0.182789 0.343006 -0.280306 
3 0.565765 0.104672 -0.26668 0.110191 -0.040643 -0.335186 -0.391555 -0.748232 -0.591337 1.02768 -0.553793 -0.170798 0.648026 0.35424 0.0905241 -0.955361 0.426196 -0.116724 0.103382 0.590587 -0.00655259 -0.164484 0.248827 0.192822 0.54916 -0.580569 1.10307 0.600568 0.485928 -0.166842 0.0250401 0.261374 0.234157 0.449064 -0.540786 0.109629 0.40022 0.240597 -0.269938 0.486505 0.037664 0.00333033 0.268935 0.57543 -0.0834506 0.689066 1.14501 1.34652 -0.345721 0.438123 0.426433 -0.392806 -0.0740528 0.10338 0.327338 -0.0514923 -0.336752 0.258812 0.75059 0.142722 0.44526 0.454803 -0.343232 0.0553887 0.185164 0.19984 0.129388 -0.20264 -0.198927 -0.226987 -0.546554 -0.108914 0.213612 0.317914 -0.285183 0.028698 0.194531 -0.122583 0.0244323 -0.209813 -0.132474 -0.30552 -0.46249 0.378834 -0.133255 -0.00784216 -0.0262601 -0.227201 -0.0527178 -0.682546 -0.387715 -0.270097 0.0612769 -0.192851 0.49891 0.538808 -0.842499 0.0447623 0.650214 -0.122222 -0.645555 0.240197 -0.367572 0.291024 0.740074 0.275395 -0.937124 0.211528 -0.255553 -0.390494 0.250603 -0.423248 -0.194051 0.39198 0.144449 -0.117711 -0.140249 -0.0937421 -0.803529 -0.696724 0.527249 -0.0800207 -0.0636152 -0.664168 -0.043882 -0.286033 -0.437512 -0.126989 
4 -0.139838 -0.010683 -0.22755 0.211173 0.324782 -0.469168 -0.11788 -0.220651 -0.48106 0.233228 -0.448572 -0.167881 0.783498 -0.0118969 -0.182068 -0.385568 0.514634 -0.00638132 0.563075 0.217994 0.118908 0.21857 0.397599 0.729713 0.714775 -0.11003 0.0686019 1.01584 0.367753 0.121081 -0.773802 0.0442628 -0.205055 -0.0659536 -0.118432 0.779631 0.296023 0.503984 0.243582 0.635841 0.435158 0.223215 0.363584 -0.148913 0.00201899 0.136393 0.513128 1.07062 0.296476 0.718961 -0.108608 -0.0956369 -0.216474 -0.232811 0.493242 -0.099966 -0.409469 -0.341654 0.055468 -0.207676 0.521639 0.189174 0.479708 0.457408 -0.335568 0.456989 0.110256 -0.0765695 -0.361209 0.155522 0.089842 -0.129927 -0.00975683 0.131749 -0.657902 0.361612 0.319081 0.184495 -0.154965 -0.291019 0.49496 -0.211803 0.0657115 0.207114 -0.405506 -0.0161572 0.732365 -0.402769 -0.482787 -0.329776 -0.651989 -0.344067 0.225412 0.214443 -0.00168328 -0.235702 -0.614394 -0.619495 0.0953039 -0.0503984 -0.220435 0.534646 -0.117684 -0.0987084 0.523791 0.0772165 -0.447684 -0.0832297 0.704597 -0.292167 0.238594 -0.725618 -0.199544 0.0234374 -0.63331 0.318875 0.381321 0.0158177 -0.404301 -0.89637 -0.107977 -0.236877 0.287705 -0.123116 -0.706093 -0.58144 -0.0812989 -0.687269 
5 -0.45464 -0.17448 0.265813 0.176673 0.278252 -0.834251 -0.278023 -1.29057 0.131683 0.151284 -1.43272 -0.626698 -0.267584 -0.40704 0.0193043 -0.153098 0.789211 -0.176984 0.219944 0.353446 -0.926288 0.383263 1.04815 0.0367083 0.21551 0.454188 0.917287 0.516768 0.149202 -0.0377855 -0.738661 -0.177398 -0.0370952 0.543306 -0.0906037 -0.067172 0.903287 0.115185 0.335343 0.151034 0.440237 0.750582 -0.402295 0.261707 -0.259067 0.229143 0.621799 1.43856 -0.417646 0.169145 0.477779 0.0855361 -0.761042 0.0942663 0.803349 -0.180545 -1.11965 0.558972 0.887969 -0.72734 0.578251 0.348686 0.557277 -0.0132494 -0.61052 1.07419 0.672533 -0.925734 -0.664494 -0.762466 -0.878495 0.402067 -0.180992 0.305155 -0.595478 -0.528416 0.377411 -0.057243 -0.357301 -0.654232 0.304063 -0.547879 -0.138203 0.468649 0.267702 -0.153673 0.241945 -0.0269265 -0.560363 0.0901111 -0.71174 -0.253014 0.151304 -0.43062 1.08951 -0.304225 0.107979 0.360989 0.585867 -0.461443 -0.47436 0.0344681 0.204783 0.345547 0.199152 -0.099401 -0.907742 -0.445575 0.0217112 -0.544961 -0.275872 -1.40689 -0.269145 0.427018 -0.847205 -0.187756 -0.352182 -0.276879 0.123739 -1.34363 0.100435 -0.290427 -0.354062 -0.877031 -0.101632 0.0563868 0.0295572 -0.240316 
6 0.15562 0.200292 0.25666 0.481311 -0.0171891 -0.925583 -0.0130219 -0.0177257 0.418046 0.83086 -1.47039 -0.105876 -0.137518 -0.278234 0.935345 -1.07482 0.0280997 -0.230076 -0.534441 0.468422 -0.775939 0.0397274 0.490866 -0.245538 0.850667 -0.205799 1.08583 -0.027688 0.798118 -0.0756467 -0.458731 -0.138192 -0.159784 1.11811 0.451017 -0.136247 0.910831 0.065181 -0.130544 0.207632 0.24823 0.309345 0.47217 0.348993 0.931818 -0.0958854 1.30288 1.02958 -0.737933 0.469855 0.648973 0.908143 0.21557 -0.151004 0.249386 -0.650565 -0.0120111 -0.51219 0.475319 -0.307508 1.07859 -0.146434 -0.689227 0.681585 -0.0547092 0.247656 -0.245036 -0.175763 -0.642578 0.593411 -0.391089 -0.37026 0.252619 0.189902 -0.703528 -0.29151 0.324526 0.661749 -0.439085 -0.567636 0.0110829 -0.0926459 -0.168621 0.573742 -0.413882 -0.295026 0.894155 -0.812798 0.0243895 -0.951578 0.111631 -0.55175 0.282705 0.0978237 0.296326 -0.111669 -0.727027 0.352435 0.815513 0.0690579 -0.393297 -0.346339 0.0133201 -0.42278 -0.325581 0.110333 -0.712297 0.0700597 -0.319555 -0.039601 -0.133217 -1.0283 0.0353142 1.14425 -0.0926855 0.24086 -0.729837 -0.599517 -0.441783 -1.3787 -0.27176 -0.394698 0.226622 -0.229207 -0.594328 -0.983683 -0.161746 -0.500617 
7 0.576823 0.148919 -0.460466 0.359438 -0.510031 -0.172796 0.0447607 -0.426881 -0.0262933 0.347973 0.894196 -0.625149 0.659643 -0.311684 0.435761 -0.804996 0.647477 0.0351551 0.0980882 0.418935 -1.09383 -0.220409 0.237841 0.223159 -0.219176 0.150945 1.07986 -0.0530789 0.0788423 0.432042 -0.384741 0.0976434 0.398262 0.193176 0.618321 -0.0933225 0.550118 -0.290952 -0.525766 0.497427 0.908417 0.606193 0.28636 -0.387812 0.189473 0.402932 -0.0112512 1.24601 -1.35593 -1.13914 -0.269816 -0.00765437 -0.159123 0.0779916 -0.024375 -0.50576 -0.696744 0.596798 0.676806 0.343179 -0.938288 -0.166144 0.321818 0.374654 -0.366894 0.405974 0.467179 0.491262 -0.990909 0.794154 -0.000248568 -0.669652 0.326214 0.529648 -0.37234 -0.363568 0.134183 -0.0306688 0.221107 -0.494625 0.719654 0.284937 -0.141571 -0.0370436 -0.00438171 -0.550812 0.0304959 0.221242 -0.260224 -0.574017 -0.673475 -1.20627 -0.711106 -0.135645 -0.129793 -0.194228 0.424421 -0.12143 0.236922 0.205466 -0.317909 -0.432988 0.213164 0.0706746 0.0662567 0.437015 -0.0233905 0.800236 0.729668 -0.21755 0.0536604 -0.022003 0.0558778 0.304937 0.10535 0.0325644 0.319065 -1.52133 0.0365598 -0.397832 0.245881 0.560268 -0.472499 -0.0417207 -0.329258 -0.487385 0.538638 -1.08367 
8 -0.177938 -0.044043 0.679462 0.188862 -0.113606 -0.444318 -0.0277193 -1.21362 -0.00267253 0.254925 -0.585718 -0.541559 0.678048 0.147893 0.352837 0.189602 0.711874 -0.730869 0.23916 0.310078 -1.07239 0.130314 0.720805 0.00546042 0.250945 -0.444676 0.516535 0.225293 0.223916 -0.627383 0.00302551 0.246524 -0.812941 0.638802 0.616734 -0.156512 1.13803 0.538161 -0.225148 0.519957 0.254126 0.631767 0.0657535 0.246312 0.398707 0.106644 0.687156 0.752739 -0.214303 0.848912 0.25012 0.0965267 -0.6112 -0.143748 0.726258 -0.560187 0.123083 -0.0141946 0.396044 0.243773 0.714851 -0.336262 -0.0126723 0.687413 0.116035 0.224744 0.26361 -0.0320772 -0.911818 0.540509 0.541538 -0.484531 0.171457 -0.384561 -0.139162 -0.471197 1.44033 0.692878 0.205208 -0.0597335 0.115147 -0.263666 -0.0698974 -0.23686 0.114477 0.1259 0.219068 0.269574 -0.873762 -0.659357 -0.724328 -0.145437 0.14838 -0.349816 -0.0681219 -0.290221 -0.522484 0.0853983 0.357603 -0.567541 -0.00988553 0.216452 0.20681 0.0205331 -0.34591 -0.226425 -0.717473 -0.177965 0.491244 -0.358682 -0.237899 -0.826478 -0.341534 0.596427 -0.513774 0.251661 0.196781 0.0225534 -0.295545 -0.911291 -0.322401 0.247311 0.216809 -0.240883 -0.732222 -0.732793 0.0990412 -0.8893 
9 0.30626 -0.444963 0.0909083 0.061504 -0.935417 -1.15468 -0.384169 -1.08127 -0.61239 0.382781 -0.609068 0.431829 0.2794 -0.605117 0.107592 0.138053 -0.306424 -0.502581 0.29155 0.806375 0.0622012 0.229444 0.67262 0.0594765 -0.0785503 -0.323418 0.417894 0.406223 1.03709 -0.497498 -0.959703 0.249788 -0.489567 0.0134059 0.277936 0.0356554 1.4025 -0.0904815 0.275588 0.638321 0.653377 -0.258375 0.318954 0.522706 -0.00794312 0.65386 0.774773 0.94743 -0.64639 -0.0942248 -0.625473 0.794455 -0.503042 -1.09636 0.242151 0.228079 -1.03361 0.240617 1.18919 -0.228413 0.321148 -0.168788 0.223494 -0.225941 0.0614367 0.198912 0.381729 -0.408483 -0.45113 0.290366 -0.301202 -0.588671 -0.126875 0.172499 -0.309053 0.745113 0.579146 0.544542 -0.68846 -0.454194 -0.157124 -0.461781 -0.476274 1.32334 -0.250343 0.374989 0.112578 -0.956843 -0.178876 -0.910646 -0.307536 0.453419 -0.565265 -0.0885648 0.163832 -0.422998 -0.606257 -0.441705 -0.286285 -0.254274 -0.586147 -0.253955 0.306265 -0.496123 0.177652 0.254319 -0.550766 0.301798 -0.112987 -0.704087 -0.338535 0.202837 -0.675338 0.493389 -0.03074 0.52132 -0.259393 -0.42063 -0.126664 -0.840231 0.627773 -0.341848 -0.17283 -0.851562 -0.435089 -0.0158804 -0.284153 -0.561231 
10 -0.192738 0.732648 -0.71398 0.496081 0.016719 -0.458099 0.445867 -0.230565 0.0495511 -0.156853 0.436331 -0.607846 0.507631 0.184977 0.909496 -0.842249 0.0756206 -0.0668695 0.168112 0.802437 -1.03271 0.0168609 -0.154634 0.224714 0.0113415 0.248908 0.753701 0.125778 -0.0692215 0.318202 -0.372393 0.190838 0.381075 0.63351 -0.0850234 -0.318564 -0.0273813 -0.486886 -0.0151704 -0.128638 0.542181 0.566944 0.458979 0.129432 -0.0624952 0.381168 -0.179611 0.846789 -0.398747 -0.355264 0.572834 0.310864 -0.445723 -0.135814 0.0892925 -0.753468 -0.647293 0.276384 0.508458 0.222935 -0.281547 0.310966 0.409497 1.42911 -0.0308652 0.445381 -0.134758 0.512292 -0.390184 0.435518 0.361105 -0.486577 0.535541 0.0835866 -0.53322 -0.318717 0.5309 0.614312 0.209961 -0.201794 0.884411 -0.127434 -0.360534 -0.016912 -0.160373 -0.577487 -0.0850692 0.45264 -0.0375932 -0.159149 -1.11078 -0.29738 -0.0994334 -0.349178 -0.0792286 0.0366219 -0.0269624 -0.237059 0.200249 0.129427 -1.25481 -0.152531 -0.152321 -0.578889 0.196457 0.300133 0.11483 0.478454 0.610573 0.103362 0.275705 -0.022844 -0.145037 0.55613 -0.0177689 -0.271333 -0.0266919 -0.591438 -1.15828 -0.802996 0.0358347 -0.149688 -0.649145 -0.34728 -0.388581 -0.136213 0.0535834 -0.730319 
11 0.555544 -0.156507 0.388001 0.412899 -0.574001 -0.335262 -0.200162 -0.684591 -1.23686 0.351186 -0.311722 -0.0880498 0.779882 -0.476051 0.218467 -0.261301 0.0905136 -0.582133 0.00682419 0.902361 -0.347275 0.304477 0.0890731 0.446861 -0.063264 -0.766476 0.234232 0.48164 0.533717 -0.0855682 -0.242523 0.133884 0.0526813 0.294863 0.561734 0.0874685 0.468885 0.050642 0.0406182 0.045351 1.17588 -0.0120902 0.228175 0.308497 0.0294567 0.523489 0.502748 1.10262 -0.240333 0.0733258 -0.471011 0.321978 -0.404874 -0.167979 -0.123389 0.240149 -1.0386 0.69327 0.290029 -0.032438 0.458364 0.0158957 -0.3489 -0.320034 0.0145181 0.217565 0.245478 -0.344162 0.179443 0.100297 -0.751557 -0.100435 0.217383 0.364945 -0.823199 0.245363 0.439624 0.181572 -0.261357 0.0626015 0.742943 -0.0774907 -0.658259 0.915904 -0.223364 0.0961775 -0.0384736 -0.583483 -0.402622 -0.332568 -0.392829 0.0402036 -0.589767 -0.355127 0.221106 -0.661162 -1.27279 -0.27392 0.0623983 -0.531821 -0.238077 -0.0864973 0.742365 -0.151859 0.345125 0.551635 -0.493785 -0.0910716 0.00635076 -0.536924 0.091622 0.0339971 -0.658327 0.607898 -0.489975 -0.310887 -0.131021 -0.398572 -0.523622 -0.784189 0.591242 -0.435971 -0.290506 -0.244135 0.124859 0.0689661 -0.611883 -0.459066 
12 0.478832 -0.00915321 0.199991 -0.522444 -0.444059 0.0633986 -0.37962 -0.277649 0.442064 0.575768 -0.0353614 -0.536023 0.499105 -0.108921 0.958037 -0.508991 -0.681084 0.260579 -0.44669 0.398696 -0.245814 -0.0140822 0.368418 -0.321484 0.316377 0.054789 0.403065 0.475679 -0.284271 -0.372371 -0.293097 0.0809498 -0.275209 0.623204 0.204639 -0.696724 1.27303 0.697793 0.0973943 0.896846 0.382634 -0.167426 -0.0177311 -0.118212 0.353333 -0.116209 1.31308 0.851901 -0.440491 0.762163 -0.317321 0.676105 -0.693022 0.073061 0.166984 0.114193 -0.435106 0.156243 0.645522 0.0345502 0.210354 -0.243916 1.18765 0.621003 0.405631 0.0960881 0.669888 -0.234881 -0.00943558 0.324401 -0.506907 -0.180495 0.794245 0.280581 -0.531004 0.290638 0.901324 -0.37163 0.304847 -0.2513 0.00678789 0.474559 0.10815 0.736536 -0.24732 -0.0925312 0.451283 -0.697397 0.41559 -0.379633 -1.02256 -0.641055 -0.362848 -0.00108813 0.0918945 -0.398988 -0.156088 -0.0933097 0.508748 0.113132 -0.402235 0.567513 0.0173639 -0.0554826 0.492402 -0.352154 0.236451 0.121596 0.666619 -0.550132 0.189232 -0.215219 -0.619063 1.1082 -0.697975 0.0738412 -0.511143 -0.743211 -0.0522962 -0.815053 0.297632 -0.204097 -0.489405 0.430771 0.418362 0.397696 0.241523 -0.365044 
13 -0.256014 -0.204806 -0.217067 0.0310026 -0.0433328 -0.215572 -0.587368 -0.146879 -0.197156 1.68479e-05 -0.555321 0.144149 0.173908 0.120708 0.331196 -0.619129 -0.289884 -0.279931 0.337925 0.0295039 -0.12847 0.490174 0.322465 0.0981297 0.555267 -0.212787 0.352778 0.330022 0.239962 0.328168 -0.127674 0.349942 -0.447905 0.591179 0.412889 0.207731 0.540903 0.332363 -0.0171252 0.0363287 0.327579 0.444305 -0.206006 0.187428 0.392359 0.0949675 0.699814 0.551209 0.0385095 0.541744 -0.135612 0.367806 -0.155355 -0.313901 0.361996 -0.0676085 -0.343397 0.501709 0.158958 -0.195647 0.421828 -0.034737 0.274953 0.439389 0.245926 0.217994 0.0223481 -0.120524 -0.655961 0.435236 0.187449 0.294304 -0.272957 0.14652 -0.282793 0.190435 0.478594 -0.102077 0.0518132 0.0451548 0.211138 -0.38465 0.435296 0.435374 0.0473335 0.352208 -0.159053 -0.233823 -0.69378 -0.284655 -0.159906 0.0875093 0.125721 0.391719 -0.667543 0.321553 0.149351 -0.0335407 -0.0237291 -0.123857 -0.514722 0.0586645 0.214139 -0.531424 0.200156 0.363532 -0.427543 0.232414 0.630994 -0.778971 0.264801 -0.555326 -0.32135 0.529401 -0.254586 -0.136776 -0.491696 -0.205313 -0.292616 -0.850764 0.473383 -0.24302 -0.306998 -0.301847 0.0441562 -0.428303 0.474576 -0.43557 
14 0.170851 -0.135834 1.0053 0.289598 -0.000720541 -0.570392 0.00555024 -1.10112 -0.0620691 0.248532 -0.970325 -0.489788 1.05089 0.196286 0.0871692 -0.0103783 0.901568 -0.655469 0.353959 0.264303 -1.01239 0.237457 0.775519 -0.229106 0.245328 -0.276681 0.662513 0.29303 0.0610207 -0.523105 -0.0302632 0.625262 -0.656203 0.708413 0.380797 -0.292965 0.795207 0.612878 -0.556821 0.618777 0.545457 0.754376 -0.107167 0.244035 0.149614 0.1607 0.727496 0.671348 -0.212172 0.678578 0.340474 -0.115096 -0.517091 -0.186935 0.718606 -0.223483 0.145783 0.0109055 0.24075 0.114465 0.412647 -0.19939 0.065312 0.744196 0.130682 0.287859 0.520343 0.216453 -0.990147 0.514494 0.40039 -0.0581518 0.239802 -0.472962 0.0235499 -0.572537 1.3591 0.873598 -0.320901 0.0120185 0.0871938 -0.229869 -0.343251 -0.0150249 0.193026 0.588373 -0.0405895 0.191165 -0.953796 -0.730508 -0.852384 -0.175276 0.239133 -0.276754 -0.107136 -0.597231 -0.554826 -0.260565 0.350454 -0.639867 -0.12643 0.247048 -0.228475 -0.104539 -0.599514 -0.112679 -0.418948 0.0208289 0.391543 -0.373244 0.228199 -0.947731 -0.506512 0.600371 -0.504163 0.451318 -0.13319 -0.236578 0.0167938 -0.477755 -0.363732 0.233928 0.201095 -0.142372 -0.468045 -1.03108 -0.264829 -0.713042 
15 -0.160013 0.537593 -0.610999 0.426828 -0.0552192 -0.1957 0.316769 -0.344006 -0.190477 -0.0207452 0.432349 -0.504827 0.457003 -0.00385619 0.681058 -0.981325 0.00148226 -0.329399 0.0246603 0.747365 -0.847877 -0.0102893 0.0520121 0.216116 -0.0575379 0.168033 0.798745 0.123779 -0.114059 0.46502 -0.103379 0.122542 0.285941 0.661121 -0.214893 -0.184566 0.241714 -0.4124 -0.00835748 -0.229643 0.676597 0.534453 0.221537 0.271118 0.0220079 0.267988 0.0709189 0.937316 -0.471552 -0.307717 0.336476 0.43266 -0.267217 0.0934219 -0.0241133 -0.645275 -0.364478 0.498449 0.634647 0.0416954 -0.417185 -0.00939511 0.505585 1.1743 -0.267861 0.331467 0.194628 0.277998 -0.5403 0.549714 -0.0217007 -0.420297 0.179234 0.273529 -0.333607 -0.212658 0.573052 0.793286 0.294566 -0.0975736 1.09247 -0.0492203 -0.341376 0.147437 -0.214658 -0.378098 -0.128388 0.323298 0.052837 -0.363247 -1.09395 -0.336951 -0.366425 -0.441981 -0.0283988 -0.148532 0.124149 -0.274004 0.401859 -0.0310555 -0.79985 -0.374117 -0.119501 -0.293577 0.301381 0.246743 0.0446786 0.126295 0.566451 0.12218 0.288298 0.0766688 -0.469876 0.379085 0.0943428 -0.171915 0.147407 -0.731655 -0.808587 -0.921821 0.424093 0.0233564 -0.762353 -0.169842 -0.369919 -0.209274 0.2381 -0.931579 
16 0.518943 0.214188 0.310075 -0.545472 0.0330558 -0.503185 -0.218923 -0.918914 -0.0175244 -0.0968505 -0.649005 0.0478714 0.551118 -0.129613 -0.0775722 -0.50275 0.37128 -0.588689 -0.538274 0.366003 -0.53654 -0.386581 0.81826 0.608241 0.516647 0.0396803 0.398004 0.361186 0.393888 -0.114871 -0.29695 0.628411 -0.55518 0.301096 0.0190588 -0.0591838 0.551347 0.376147 0.244007 0.011473 0.19187 0.0562163 -0.0236941 0.678936 -0.215401 0.37127 0.855866 0.619973 -0.44678 0.631284 -0.358138 0.21521 -0.358957 0.0364001 -0.410019 -0.211377 -0.33851 0.221143 0.47625 -0.0866681 0.0606766 -0.139161 0.0282876 0.362008 -0.347375 0.570412 1.02664 -0.305142 -0.585011 0.041582 -0.508655 -0.0144753 0.441801 0.0370298 -0.674603 -0.281136 0.137595 -0.199575 -0.375368 0.0830047 0.438445 -0.700707 0.184581 0.810753 -0.434165 0.0748318 -0.115304 -0.422797 -0.0853729 0.0240056 -0.344125 0.238643 -0.00402656 0.0705661 0.387724 0.129261 -0.936851 0.138219 0.349287 -0.646234 -0.715325 0.213205 -0.0714012 -0.46012 0.747617 0.229676 -0.135782 -0.516537 0.0446989 -0.428783 -0.123997 -0.291125 -0.363411 -0.103927 0.380908 0.0824551 0.896531 0.500424 -0.318363 -0.863762 0.69354 -0.275253 -0.162267 -0.211752 -0.257654 0.0712534 0.385673 -0.517018 
17 -0.319986 -0.250368 -0.15189 0.363472 -0.00554758 -1.02474 -0.19495 0.169606 0.339034 0.742603 -0.937208 -0.237913 -0.249135 -0.739058 0.62285 -1.34913 0.136122 -0.212609 -0.233891 0.596936 -0.889108 -0.105162 0.600039 -0.177042 0.702378 -0.385682 0.731081 0.284178 0.914092 0.0383733 -0.953362 -0.141894 -0.0215378 0.621846 0.163898 -0.365832 1.12471 0.357919 -0.191132 0.0686427 0.533362 0.261691 0.679684 0.854579 0.266337 0.303981 0.677905 0.83981 -0.135042 0.450674 0.223818 0.390267 0.254629 -0.131501 0.534176 -0.195899 -0.108986 -0.180324 0.696677 0.15892 0.795132 0.233395 -0.89752 0.646636 0.15071 0.428212 -0.372619 -0.277888 -0.945487 0.132103 -0.0472742 -0.0621255 0.269173 -0.0605851 -0.84806 -0.697142 0.328833 -0.0142298 -0.028559 -0.456503 -0.110457 -0.0265562 -0.0337451 0.290911 0.0433024 0.0770276 0.917923 -0.924354 -0.109529 -0.650614 -0.0345407 -0.734303 0.335225 0.461745 0.204797 -0.204796 -0.347373 -0.565875 0.505271 0.353206 -0.360163 0.298257 -0.269845 -0.587433 0.0574446 -0.139316 -0.967315 0.122318 -0.137461 -0.223318 0.0621263 -1.19199 0.143631 0.959626 -0.550192 0.477158 -0.973307 -0.172771 -0.692668 -0.946599 -0.292033 -0.886792 -0.0607753 -0.211114 -0.0897959 -0.627761 0.093903 -1.12847 
18 0.640745 0.263406 0.717174 0.220941 -0.263817 -0.958532 -0.532803 -1.01057 -0.68233 0.0141715 -1.4417 0.711389 0.131219 -0.11303 -0.174523 -0.832595 0.0875372 -0.191042 -0.074674 0.441518 0.148354 0.545836 1.34706 0.393076 0.212976 0.175999 0.126371 0.742306 0.591158 -0.171847 -0.407978 0.388586 -0.507144 0.682875 0.454768 0.529518 0.618193 0.304635 -0.0920126 1.01438 0.611638 -0.186347 -0.549847 0.603559 -0.0465863 0.468075 0.647165 1.26597 -0.31314 0.211351 -0.257911 0.444891 -0.43261 -0.419022 0.20397 0.401978 -1.04848 0.706548 0.754131 0.145405 0.0520635 0.141543 0.251917 0.480778 -0.385953 0.558309 0.28438 -0.528405 -0.329712 -0.174762 -0.68515 0.0229787 -0.185617 0.0583407 -0.359249 -0.0504873 0.315149 -0.0638244 -0.906159 0.0777427 0.37101 -0.903075 -0.633849 0.984688 -0.918571 -0.157051 0.273124 -0.0871878 -0.607401 -0.781503 -0.223158 0.175127 -0.203259 -0.00244782 0.22753 -0.311205 -1.25701 0.377064 0.196255 -0.747979 -0.346703 0.291344 -0.250177 -0.404217 0.511843 0.189928 -0.225266 -0.46941 0.33085 -0.941338 -0.130875 -0.557256 -0.032906 -0.0921184 -0.982188 0.307178 -0.0397831 0.241575 -0.273234 -0.956346 0.539737 -0.621609 0.157116 -0.514404 0.482798 0.119913 0.343173 -0.004838 
19 -0.0512378 -0.366318 -0.270911 0.153319 -0.125275 -0.594116 -0.214527 -0.643625 0.145518 -0.259004 -0.876675 0.576984 0.545754 -0.135353 0.718028 -1.44901 -0.343534 0.140595 0.690984 0.836675 0.0559822 0.184685 0.42658 0.0263088 -0.225021 -0.222598 0.776273 0.627232 -0.398662 0.0188118 0.243879 -0.156815 -0.483605 1.08132 0.124848 0.243965 0.465325 0.219415 -0.394504 0.131266 0.428542 0.383261 -0.0667779 0.0383814 -0.12587 0.0022632 1.10322 1.02172 -0.664367 0.291222 -0.266664 0.406443 0.0112067 -0.0954113 0.465564 -0.679861 -0.133594 0.0106623 0.650403 -0.148926 0.846913 0.532986 -0.0394601 0.631081 0.322345 -0.1751 -0.0558032 -0.336793 -0.393531 -0.200103 -0.0605732 0.146656 0.0110931 -0.209503 -0.60645 -0.0817796 0.68665 0.0563494 0.0394831 -0.192551 0.265231 0.0446019 0.113956 -0.0208474 -0.0037114 0.396351 -0.141454 -0.1983 -0.068278 -0.635629 -0.687916 -0.429044 0.100234 0.675352 -0.325911 -0.313943 -0.524502 0.142225 -0.0767825 0.342449 -0.672821 0.907346 0.111119 -0.857529 -0.0110686 0.166111 -0.348907 -0.210564 -0.164811 -0.571441 0.258353 -0.702367 -0.592299 0.369267 -0.533898 -0.515273 -0.100811 -0.263886 -0.783723 -1.5971 0.048529 -0.244868 -0.0615248 -0.28292 0.368858 -0.209418 0.175386 -0.98727 
20 0.059123 -0.166895 0.147836 0.38973 -0.107169 -0.959404 -0.0523886 -0.118475 0.276471 0.697433 -1.25467 -0.106067 -0.142688 -0.340915 0.811543 -1.04989 -0.0200401 -0.226089 -0.291341 0.595329 -0.670069 -0.105087 0.313791 -0.348449 0.647505 -0.297738 1.1563 -0.0121894 0.459319 0.134499 -0.320103 -0.305827 -0.29767 0.943595 0.510829 -0.068205 1.02327 0.0744228 -0.346901 0.355178 0.0688068 0.280406 0.383679 0.42578 0.753018 -0.0849581 1.29297 0.773631 -0.63225 0.370721 0.286776 0.87153 0.282866 -0.127225 0.209142 -0.494269 0.109384 -0.406583 0.516212 -0.0577701 1.05923 -0.0321888 -0.515137 0.689269 0.0412141 0.327647 -0.217481 -0.261636 -0.588141 0.346639 -0.129947 -0.125864 0.192397 0.18672 -0.592778 -0.403753 0.205093 0.429917 -0.330005 -0.475177 0.0119752 0.199723 -0.196888 0.406227 -0.33534 -0.117955 0.635425 -0.613778 0.117005 -0.992481 0.000182125 -0.548183 0.102534 0.0300668 0.237794 -0.244808 -0.58746 0.0839527 0.562553 0.215696 -0.408371 -0.0896847 -0.190028 -0.471221 -0.376801 0.220119 -0.515552 0.3274 -0.0906557 -0.176991 -0.15045 -0.978247 0.101399 0.942492 -0.264773 0.0410126 -0.906241 -0.368928 -0.477843 -1.18201 -0.0706757 -0.326969 0.300901 -0.0403759 -0.239774 -0.747693 -0.0925465 -0.540341 
21 0.0258166 0.257359 -0.0987614 0.119754 0.0400026 -0.560937 0.379565 -1.13902 -0.288074 0.195396 -0.170461 -0.258034 1.38774 0.227961 -0.330506 0.0891246 0.334586 -0.175285 0.0861555 1.57689 -0.603162 0.188558 0.0882818 0.0569189 0.498045 0.0204971 0.6779 -0.388584 -0.0805093 0.010432 -0.476807 -0.438417 -0.254273 0.267208 -0.0263435 -0.384411 0.671866 0.852718 -0.109467 0.130105 0.343728 0.198846 1.32303 0.131557 -0.623331 -0.51653 0.981219 1.29881 -0.743543 0.218762 0.0485603 0.0830804 -0.400889 -0.370525 0.8391 -1.0795 -0.313938 0.226867 0.614752 -0.247417 1.01495 0.33008 -0.214649 0.397937 -0.220083 -0.0329501 0.012617 0.247971 -0.0453942 -0.19949 0.34809 -0.58408 -0.320386 -0.844643 -0.105062 -0.188802 0.698072 0.227434 -0.0981921 -0.209609 0.50304 -0.0295727 0.0944279 0.496984 -0.0190457 -0.515029 -0.608002 -0.840303 -0.341255 -0.268502 -0.926118 0.363305 0.319513 -0.356108 -0.409437 0.0473293 0.223696 0.0683579 0.689928 -0.52031 -0.923632 0.299233 0.284269 0.12463 -0.155787 0.949244 -0.552921 0.167297 0.644985 0.180595 -0.412081 -0.465386 -0.442651 0.290828 0.183349 0.0666694 0.191107 -0.618775 -0.505083 -0.908893 1.12947 0.315581 -0.77846 -0.844007 -0.181612 -0.107113 -0.289095 -0.838416 
22 -0.38428 0.578653 -0.32013 0.917993 0.189744 -0.47772 -0.0434973 -0.167109 -0.83149 0.0937874 0.629 -0.424435 0.0319844 0.221597 0.318519 -0.779232 0.270693 -0.829706 -0.134752 0.142947 -0.79459 -0.528763 -0.30848 -0.725327 0.329212 0.208996 0.514595 0.748041 -0.537951 -0.115699 0.291396 0.377804 0.0608563 0.123622 -0.0819896 0.172719 0.686766 0.003688 -0.45988 -0.528267 0.886497 0.377663 0.429717 0.768019 -0.288159 -0.127964 -0.436701 0.748326 -0.385377 -0.796057 -0.36766 -0.200841 -0.381301 0.136575 -0.283346 -0.524344 -0.432698 0.594016 0.486339 0.405475 -0.409869 0.0189473 0.291618 0.786075 0.139596 0.30989 0.408085 -0.0888749 -0.565406 0.569932 0.524414 -0.049072 0.0144541 -0.108105 -0.455793 -0.00604171 0.313501 0.498807 0.0277481 0.370184 1.4158 -0.276322 -0.321582 -0.274449 -0.128689 -0.583169 -0.154553 0.11948 -0.0711512 -0.651339 -1.02402 -0.649505 -0.3109 -0.690549 -0.111365 -0.093674 -0.310628 -0.214398 0.179467 -0.0329841 -0.914438 -0.510099 0.090423 0.814917 0.459629 0.14934 -0.238115 -0.486725 0.113884 -0.280631 0.491278 0.432062 -0.284621 0.479685 0.432109 0.326622 0.459994 -0.921178 -0.441546 -1.18501 0.510699 -0.42755 -0.168291 -0.0995205 0.0865666 0.258528 0.112466 -1.15574 
23 0.395179 0.473535 0.764707 -0.0764511 0.124865 -0.566394 -0.102713 -0.233448 -0.192354 1.02402 -0.963406 -0.573062 0.251187 0.126406 0.800121 -0.579544 0.542506 -0.492527 -0.215916 0.372465 -0.845278 0.281776 0.460284 0.114632 0.176287 0.49022 -0.0740463 0.611434 0.790566 -0.123268 -0.153997 0.0390665 -0.331916 0.875623 -0.26276 0.00605643 0.957393 -0.0405986 0.0212361 -0.0464078 0.511263 0.0396673 1.0029 -0.249274 0.798358 0.305287 0.746052 1.2661 -0.0108863 0.492473 0.395993 -0.244132 -0.182755 -0.0935254 0.0372195 -0.103024 -0.332169 0.176304 0.484037 0.229393 0.49175 -0.167566 -0.292496 0.698628 0.385447 0.283504 -0.0171876 -0.586244 -0.041159 -0.0142779 -0.568834 -0.382497 0.253075 -0.0550512 -0.35044 0.494356 0.0846986 0.0400921 -0.219766 -0.125426 0.419782 -0.0626377 -0.955541 0.272758 -0.343691 0.525202 0.654454 -0.412611 -0.732567 -0.173655 0.128414 0.459082 0.192223 0.107515 -0.130399 -0.261478 -0.810307 0.299491 0.629763 -0.0244708 -0.636579 -0.762247 0.41558 -0.649366 0.0258721 0.0743268 -0.139467 -0.410022 0.328167 -0.381222 0.034398 -0.419223 -0.518325 0.390618 0.0878675 -0.0487894 -0.630848 -0.942345 0.21743 -1.39864 0.17774 -0.280878 -0.0103941 -0.70493 -0.701492 -1.08267 0.17828 -0.121228 
24 -0.45089 -0.233947 -0.0689984 0.344694 0.486423 -0.208985 0.555494 -0.105579 -1.24239 0.707448 -0.554187 -0.239016 0.599951 0.338736 -0.393116 0.0180397 0.594871 -0.00505819 0.457739 0.578823 0.0183204 0.067664 0.807593 0.839647 0.522248 0.12355 -0.266172 0.910294 0.525189 0.152775 -0.275962 -0.518531 -0.0349092 0.5999 -0.393468 0.198551 0.586707 0.729753 0.385722 0.834234 0.520456 0.132003 0.0812974 -0.171084 -0.0408361 0.0667839 0.64604 1.4549 0.559426 1.38925 0.410466 -0.838985 -0.819764 -1.65801 0.399989 -0.405236 -0.774893 -0.337887 0.244332 -0.533778 0.954104 0.192495 0.396168 0.104344 0.319123 0.89083 -0.166745 -0.302286 -0.318723 1.16735 0.017002 -0.131296 -0.138636 -0.206337 -0.698235 -0.692074 0.593693 0.082114 -0.496332 -0.0542043 0.785597 0.0430393 0.186994 -0.710708 -0.528885 0.121508 0.00954177 -0.371103 -0.562388 -0.448758 -1.12366 -0.374521 -0.594384 0.277478 -0.230307 -0.162451 -0.752174 0.344625 0.879738 0.179831 -0.594958 0.513605 0.0681785 -0.632272 0.396056 1.04858 -0.147238 -0.507871 0.829965 -0.259796 0.453492 -1.26322 -0.535189 0.438116 -0.469518 -0.299904 0.563536 0.250472 -0.751232 -1.06903 0.0932402 0.0687228 0.115708 -0.49799 -0.722042 0.0275274 -0.658922 -0.648038 
25 -0.0013679 -0.045247 -0.465417 -0.231397 -0.309194 0.259506 -0.656594 -0.489877 0.192322 0.609702 -0.907459 -0.392347 0.862785 -0.107767 0.147116 -0.907939 -0.372814 -0.101259 0.536095 -0.399926 0.455292 -0.546881 1.47768 -0.15975 0.538069 -0.594931 0.598388 0.382453 0.295796 -0.20479 0.197826 0.0526388 0.229126 0.15188 -0.733048 -0.487415 0.915375 0.748387 -0.017788 0.480055 0.1789 0.282439 0.206438 0.406639 -0.496785 -0.260835 0.388146 1.40151 -1.10621 0.697989 -0.0378344 0.370186 -1.12514 -0.253331 0.543034 -0.000171998 -0.278515 0.0868855 0.458678 -0.292547 0.874313 -0.368357 0.711383 0.681561 0.443127 0.104561 0.68337 -0.663227 -0.371045 0.538321 -0.661072 -0.0106589 0.945327 1.10703 -0.619166 -0.124344 0.483183 -0.232025 0.342627 -0.702504 1.66948 -0.238525 0.236163 0.583508 -0.265945 0.329575 0.109385 -0.547952 -0.323514 0.227857 -1.29156 -0.943048 -0.316469 -0.251503 -0.148073 0.443345 -0.0202063 -0.191452 0.826175 -0.134499 -0.100663 0.215247 0.568886 -0.0780441 0.668956 -0.358566 -0.276161 -0.485827 0.0576576 -0.0274443 0.371105 -0.771687 -0.539885 1.1486 -1.10072 -0.999497 -0.201829 0.0620355 -1.0176 -1.13509 0.331078 0.0377118 -0.209598 -0.0482396 -0.0076893 -0.572586 0.430864 -0.399917 
26 0.325213 0.262782 -0.363885 -0.0641838 -0.575239 0.243371 0.671472 -0.346413 -0.698872 0.748297 -1.41339 -0.961119 0.562828 -0.471121 0.272165 -0.657939 -0.479515 0.0518989 -0.187249 0.0751215 -0.0711537 -0.19115 1.30252 0.174737 0.543019 -0.250701 0.878241 0.595841 1.01234 0.245063 0.833195 0.780464 -0.582923 -0.0057122 -0.153443 -0.132562 0.605422 0.717116 -0.129266 0.65729 0.564409 0.508565 0.503383 -0.306249 0.971542 0.909667 1.24566 0.809454 -0.273129 0.698675 0.0304237 0.0264566 -0.578655 -0.815579 0.419921 -0.549602 -0.144299 0.282043 1.11073 -0.25537 0.730027 0.464571 -0.578524 0.533955 -0.299089 0.566138 0.121456 -0.329215 -0.300997 0.244376 0.0375996 -0.681595 0.500193 0.846666 -0.304975 -0.239212 0.762658 0.125822 -0.120981 -1.30314 0.474699 -0.302973 0.128029 0.134258 0.254384 0.237856 -0.401229 -0.888401 -0.788404 0.18252 -0.352184 -0.991436 -0.039176 0.497606 0.0656668 -0.806463 -0.0140759 0.381482 0.724874 -0.0737714 -0.308762 -0.407285 -0.642037 -0.0823909 -0.269895 1.24973 -0.194439 -0.111685 0.1317 -0.140585 -0.147098 -0.759349 -0.234237 0.583075 -1.48606 -0.397395 0.279047 0.252481 -0.891682 -1.08311 0.185432 0.728943 0.353735 -0.366523 -0.12788 -0.234781 -0.647629 -0.0991574 
27 -0.0666408 0.176864 0.134646 0.306862 -0.237835 -0.108751 0.297489 -0.0608908 -0.634375 0.1538 -0.414995 -0.233135 0.36129 -0.426819 0.368032 0.0177378 -0.136319 -0.191839 -0.14276 0.647339 -0.315146 0.101877 0.631477 0.677221 0.303477 -0.00042431 0.472053 0.614771 0.491865 -0.564708 -0.520007 0.289626 -0.118256 -0.227945 0.142861 0.49431 0.466911 0.600683 0.209406 0.816794 0.611287 -0.179441 0.0598918 -0.00205271 0.138543 0.863521 0.157138 0.959941 0.0252932 0.114299 -0.311282 0.260601 -0.510267 -0.322762 0.0712537 -0.169435 -0.310702 0.384086 0.0398401 -0.155108 0.203109 -0.0375057 -0.0294701 0.0496916 -0.212111 0.29114 0.148681 -0.128983 -0.0480272 0.0150546 -0.282001 0.117289 0.0025912 -0.128996 -0.248576 -0.0417551 0.499193 -0.18331 -0.683688 0.344744 0.475722 -0.0843515 -0.264084 0.105655 -0.507736 0.0338104 0.156857 -0.140301 -0.378547 0.123881 -0.420684 0.27088 -0.38503 -0.317866 -0.146905 -0.398558 -0.340193 -0.233533 0.0464972 -0.946259 -0.471755 0.192514 -0.14251 -0.211011 0.109627 -0.146104 -0.732637 -0.310664 0.0794329 -0.170905 0.0860536 -0.00736384 -0.285448 0.00661985 -0.379925 -0.238311 0.28104 -0.342696 -0.123957 -0.81001 0.390542 0.362784 -0.390996 0.0431378 0.171698 -0.113006 0.271769 -0.766088 
28 0.40009 0.436015 -0.727108 0.842892 -0.22547 0.220629 0.282042 -0.734802 0.0328409 -0.422884 0.279899 -0.701477 -0.00767953 -0.233099 0.375921 -0.427483 0.184426 -0.612064 0.212575 -0.011175 -0.656583 -0.653336 0.16124 0.0746935 0.571656 0.646622 0.738936 0.398992 0.159651 -0.0357343 -0.352072 -0.0698831 0.333737 0.181293 0.358873 0.576884 0.408572 -0.24975 -0.170057 -0.472149 0.62037 -0.019153 0.101734 -0.0526215 -0.895074 0.504532 -0.279652 1.042 -0.846616 0.111961 -0.00235093 0.437277 0.390821 0.294444 0.0161489 -0.355826 -0.510166 0.879068 0.453946 -0.0263464 -0.519074 -0.0763142 0.558999 1.75895 -0.20419 0.0857445 0.234935 0.252282 -0.0974456 0.492323 0.171413 -0.233297 0.225348 -0.362746 -0.714595 0.209152 0.419088 0.000345995 0.272989 0.218246 0.980625 -0.370423 -0.174236 0.135937 -0.349193 0.00759218 0.366695 0.624914 0.291503 -0.739326 -1.16736 -0.302517 -0.0912184 -0.490274 0.0766539 -0.26789 -0.28286 -0.242578 0.859771 -0.172878 -0.533 -0.303611 0.366198 -0.0802219 0.135183 -0.00967371 0.142349 0.0390953 0.0978509 -0.235732 0.236246 -0.0608328 -0.00806402 0.295475 0.371326 0.0978164 0.410857 -0.782522 -0.365946 -1.24209 0.20105 -0.147061 -0.317884 -0.344295 -0.0773025 0.477975 0.773563 -0.404035 
29 0.288634 0.460325 0.132659 -0.504157 -0.338758 -0.811456 -0.796935 -0.123965 -0.503267 0.470004 -0.612253 0.657976 0.541392 0.314728 0.00346979 -0.350144 -0.397637 -0.278055 0.293577 0.775808 -1.06056 0.283354 0.686452 0.49657 -0.196003 0.477858 0.394389 0.198372 0.30069 -0.617665 -0.558152 -0.0515433 0.0155177 0.561578 0.525995 0.100311 -0.0980546 0.695655 0.284469 0.145306 0.317752 -0.208971 -0.16597 0.376806 0.0850397 0.383332 0.999458 1.27263 -0.251511 0.775416 -0.00135405 -0.29244 -0.293048 -0.627813 0.214823 -0.130506 -0.253943 -0.323294 1.29855 0.0365776 0.522778 -0.303613 0.119812 0.627064 0.00784899 1.0975 1.04373 -0.209063 -0.692998 0.522413 -0.0605794 -0.80794 0.525745 0.0746573 -0.695842 0.143564 0.264788 0.129279 -0.26385 -0.155028 1.01561 -0.14604 -0.26624 0.0439581 0.151942 -0.140246 0.401227 -0.208706 -0.42028 -0.636274 -0.539205 -0.229011 0.0710962 -0.28738 0.188409 -0.402942 0.177889 0.856315 0.448003 -0.897169 -0.665709 0.480116 0.425013 -0.198234 0.0466017 -0.240401 -0.408548 -0.791071 0.185541 -1.01086 0.441041 -0.16506 -0.283385 0.707887 -0.512768 -0.124215 -0.11089 0.434445 -0.170522 -0.42714 0.0564852 0.111816 -0.145803 -0.594378 -0.0490457 0.0250111 -0.417301 -0.890112 
30 0.293265 -0.871864 0.883821 0.151597 -0.857848 0.738713 0.447853 -0.390345 0.927429 1.1174 -0.815746 0.177783 0.246803 -0.147114 0.637961 -0.53024 -0.146839 -0.0716749 -0.076147 0.16198 -0.379848 -0.092666 1.83564 -0.202452 -0.180418 -0.584877 0.552894 1.23762 0.907481 -0.0174043 0.167436 -0.856929 -0.368636 -0.126189 0.148783 -0.287909 1.22427 0.488215 0.139682 0.818027 1.19248 0.0290428 -0.609325 1.1314 -0.552202 0.0926365 1.1468 0.731784 -0.564524 1.47495 -0.310533 -0.168984 -0.168815 -0.684124 0.793964 -1.45493 -0.352487 0.041507 0.417172 -0.48845 0.00144742 0.332355 -0.272444 0.795779 0.135928 0.602942 0.390641 0.575419 -0.204127 -0.124258 -1.62838 0.10286 1.40046 0.173 -0.451551 -0.681188 0.618782 -0.305927 -0.34868 -0.527518 1.3954 0.268696 0.545015 0.303861 -1.15316 0.315055 0.497324 0.429729 -0.192982 0.0136307 -1.12801 0.242588 -0.216551 -0.745377 0.237715 -0.423211 -0.329419 0.659487 0.863067 -0.278773 -0.424605 -0.167523 -1.06034 -0.900506 0.0352049 0.0529617 -0.907782 -0.146721 -0.673308 0.0498936 0.56417 -0.399448 -0.538822 -0.0632236 -0.768092 0.185889 -0.583032 0.348011 0.46046 -0.748861 0.151863 -0.218155 -0.228135 0.538315 -0.469992 -0.173483 -0.40837 -0.156885 
31 0.16192 0.0353446 -0.178474 -0.871505 -0.591089 0.168235 -0.279319 0.363366 -0.191721 0.933875 -1.03732 -0.227127 -0.401958 -0.355528 0.770057 0.0798271 0.202898 0.474172 -0.334201 0.1752 0.773733 0.236395 0.892918 -0.169799 0.0351419 -0.70963 0.941715 1.23947 0.340001 0.730962 -0.99401 -0.474172 0.737454 -0.388179 -0.340764 -0.535336 1.77722 0.992527 0.452073 0.692218 0.607029 -0.601123 -0.0589378 1.05946 -0.245798 -0.0737574 1.2128 0.896497 0.394004 1.13934 -0.878841 -0.147843 -0.323084 0.219697 0.80268 -1.28583 -0.341038 -0.398807 0.590453 -0.371468 0.304769 0.409631 -0.498108 0.54871 0.0955258 -0.269832 0.00362928 0.324554 0.451352 -0.302322 -0.798815 -0.485484 1.58571 -0.310271 -0.514252 -0.948854 0.774328 -0.778177 0.641968 -0.936907 0.835711 0.359059 -0.564968 -0.430084 -0.909276 0.153794 0.764361 -0.202766 -0.812954 -0.22062 -1.71615 0.0392623 -0.0517327 -0.116344 -0.237357 -0.589117 -0.49949 0.271971 0.0621808 0.54674 -0.499915 0.266617 -1.2874 -0.838124 0.204016 0.0184057 -0.886754 0.206634 0.166007 -0.329457 -0.0809888 -0.988724 -0.271959 -0.360311 -1.05496 0.170988 -0.226994 0.16879 -0.440784 -0.464584 0.213625 0.410589 -0.580634 0.106925 -0.327316 0.140507 -0.0579893 -0.536499 
32 -0.55786 -0.377128 -0.012203 0.542958 -0.655126 -0.608627 1.34785 0.106834 -0.576802 -0.0601469 -0.709609 -0.972988 1.83739 0.334695 -0.567089 -0.188104 0.464063 -0.0586105 0.39895 0.906215 -0.490409 -0.341875 0.113032 0.130648 0.737566 0.0768673 -0.123079 1.10833 0.200319 -0.881533 -0.057656 -0.38607 1.06557 0.6848 -0.0244591 0.00875212 1.0698 0.471968 0.318321 -0.874743 1.16956 0.718248 0.334469 -0.0270085 0.276397 -0.125657 0.783232 1.29807 -0.745872 0.791858 0.022746 -0.553443 -0.744125 -0.02005 -0.440177 -0.690902 -0.461752 -0.629875 0.397985 0.395281 0.961177 -0.240952 0.0706571 -0.134702 -0.0949737 0.154459 -0.22797 -0.47189 -0.273426 0.417379 -0.227498 0.0857385 -0.280156 -0.859086 0.0613577 0.571062 0.419938 0.732208 -0.304733 -0.617831 0.63611 -0.352539 0.127198 -0.756175 -0.494911 -0.300713 -0.368155 -0.852685 0.131965 -0.389234 -0.984015 -0.0118823 0.15328 -0.171306 -0.603839 -0.598541 -0.409239 -0.736327 0.31346 0.929066 -0.892707 0.388606 -0.0542265 -0.51147 0.13575 1.266 -0.699006 -0.333351 1.26091 -0.776716 -0.312732 -0.683251 -1.0395 -0.0378426 0.00820827 -0.252785 0.664891 0.0487469 -0.0402082 -1.1162 0.194895 0.405063 -0.431599 -0.981921 0.466498 0.440724 -0.188278 -1.04138 
33 -0.122424 -0.192544 -0.103413 0.426441 -0.334537 -0.647047 -0.382411 -0.809863 -0.394372 0.0160046 -0.165851 0.0303852 0.459663 -0.558975 0.24279 0.217 0.116505 -0.288728 0.270415 0.568753 -0.0371783 0.0723059 0.572597 0.169618 0.205235 0.000163025 0.605119 0.0636118 0.836929 -0.413675 -0.614238 0.342073 -0.281628 0.3327 0.0679724 -0.0587528 0.523348 -0.0782834 0.216528 0.380392 0.500584 -0.066779 0.25011 0.237609 0.172375 0.32126 0.815372 1.00225 -0.3996 -0.0199219 -0.0444002 0.561625 -0.5367 -0.894368 0.0707749 0.229964 -0.463658 0.288099 0.591081 -0.397601 0.17891 -0.161152 0.151345 -0.0671007 0.0600951 0.177438 0.0526074 -0.106976 -0.58266 0.289077 -0.10863 -0.352989 -0.0813799 0.165187 -0.346659 0.435431 0.626131 0.362186 -0.178536 -0.376288 0.188178 -0.203279 -0.169659 0.682616 0.297907 0.266196 0.203306 -0.61733 -0.511712 -0.68863 -0.285293 0.442652 -0.796118 0.0160953 0.0553725 -0.133507 -0.107262 -0.346566 -0.150349 -0.180193 -0.451775 -0.0417232 0.241059 -0.339201 0.152262 0.206264 -0.484125 0.297235 0.494994 -0.594218 -0.268849 0.130036 -0.369901 0.329461 -0.0594042 0.0641102 -0.430666 -0.114721 0.0610026 -0.795005 0.419316 -0.00399469 -0.217402 -0.476021 -0.224431 -0.0144834 -0.153438 -0.277125 
34 -0.472381 0.599682 -0.395082 -0.237813 -0.758339 -1.28782 -0.0225709 0.212489 0.0172158 -0.452411 0.0618204 -0.864884 -0.0331323 -0.835496 0.96491 0.298107 0.509595 -0.239249 0.380287 0.848315 -0.302374 -0.876896 0.201149 0.0120232 1.06701 -0.459092 0.203267 0.750973 -0.193803 -1.04806 -0.110794 0.124203 1.42292 0.881341 -0.400478 0.476162 1.17015 0.289013 -0.411417 -0.996539 1.33244 0.835106 -0.218323 0.197245 0.356753 -0.535877 1.15404 0.613479 -0.588356 1.32804 0.16334 0.628426 -0.780798 0.210094 -0.102964 -0.229428 0.0921834 -0.66684 0.974129 0.000384647 0.0175598 -0.470482 0.108317 0.991894 0.265831 -0.652629 0.160433 -0.285889 -0.749777 0.739257 0.116823 0.280134 0.117421 0.0228071 -0.232128 0.17391 0.41498 0.817408 0.644436 -0.517138 1.24705 0.156759 0.224454 -0.619356 0.0922689 0.137025 -0.0108851 -0.173532 -0.627694 -0.621115 -0.51971 0.362697 0.23374 -1.01034 0.0143963 -1.04732 0.587026 -0.261965 -0.259483 0.824922 -0.303716 0.470251 -0.370893 0.621947 -0.152162 0.064246 -0.755728 0.24133 0.772904 -0.368684 0.313676 -0.777936 -0.850128 0.562654 0.00038402 0.603224 0.760606 -0.698908 -0.191138 -0.766971 0.662608 -0.338224 -0.359642 0.138206 0.323022 -0.367676 0.735837 -0.542982 
35 0.0365316 -0.111421 0.148752 0.137971 -0.604097 -1.21671 -0.47129 -0.606149 -0.0550224 0.107059 -1.62013 -0.583912 -0.0443337 -0.0814978 -0.0339636 -0.640719 0.396771 -0.674166 -0.671384 0.245288 0.218339 0.40245 1.09499 0.652549 0.458067 -0.00673463 0.585298 0.62703 0.692407 0.147429 -0.731211 0.480731 -0.847728 0.908435 0.505971 -0.663583 1.02549 0.649608 0.0575772 0.923657 0.488624 -0.103438 -0.178677 0.301655 0.580295 0.415905 1.29276 1.23558 -0.364908 0.732324 0.0407445 0.211813 -0.0560173 -0.173496 0.129606 -0.0294572 -0.755307 0.218033 0.452208 0.114257 0.655052 -0.292447 -0.373158 0.620375 -0.419956 0.420565 -0.251925 -0.388852 -0.245603 0.322336 -0.423125 -0.35434 0.470785 -0.0403981 -0.396245 -0.137376 0.392262 0.557953 -0.821876 -0.346512 -0.0287215 -0.259735 -0.354697 0.50112 -0.528423 0.416962 0.437018 -0.666948 -0.187551 -0.732501 -0.719198 -0.12452 -0.0953786 0.229281 0.201846 -0.666613 -0.374694 0.746584 0.967524 -0.418872 0.0223844 -0.706755 -0.473387 -0.278232 -0.194788 0.231001 0.209497 0.649874 0.66857 -0.1777 -0.137839 -0.614745 0.0492777 0.328285 -0.199402 -0.0562731 -0.954864 0.588727 -0.374606 -1.04573 0.228579 -0.74124 1.24283 -0.325889 -0.0786798 -1.04307 0.280172 -0.304464 
36 -0.190999 -0.120605 0.230553 0.630061 0.134432 -1.16318 0.0383609 -1.38264 0.0651892 0.269807 -1.42278 -0.688032 -0.253677 -0.430567 -0.253347 -0.85478 0.977702 -0.417458 -0.037573 0.404317 -0.909415 0.803645 1.00864 0.217198 -0.241762 0.518181 0.806867 0.625208 0.178417 -0.181309 -0.400201 -0.386383 0.0581337 0.800938 0.226928 -0.132413 0.914881 0.286455 0.291258 0.450702 0.416772 0.619715 0.014587 0.283754 -0.03873 0.223584 1.09441 1.51645 -0.515806 0.243191 0.269466 0.012299 -0.517937 -0.166363 0.762439 -0.363112 -0.406402 0.436509 0.697017 -0.394539 0.692619 0.186665 0.476098 0.300535 -0.799045 0.516276 0.555781 -0.727172 -0.77573 -0.603466 -0.759994 0.278158 -0.253785 0.235402 -0.571247 -0.390075 0.0751131 0.0207392 -0.670146 -0.787721 0.384283 -0.519499 -0.200517 0.483367 0.250323 0.0564815 0.287791 -0.0772983 -0.152898 -0.168941 -0.409381 -0.282003 0.0243845 -0.133523 1.05088 -0.0504864 -0.301448 0.78041 0.919802 0.0371638 -0.713396 0.0933068 0.307075 0.137395 0.0242562 -0.206259 -0.553773 -0.0419244 0.156372 -0.679841 -0.244373 -1.08807 0.254821 0.423964 -0.633751 -0.36067 -0.784083 0.0150567 0.276031 -1.02061 0.371291 -0.654032 -0.0487057 -0.79578 -0.0960472 -0.163039 0.294324 0.399325 
37 -0.581005 0.466614 -0.07306 -0.429172 0.076201 -0.162477 0.279899 -0.736335 -0.814018 -0.119489 -0.271346 -1.01363 0.955616 -0.375284 0.533143 -1.04673 -0.0624188 0.39051 -0.169846 0.494129 -0.74509 -0.550784 -0.0355681 0.772882 0.585598 -0.0194215 0.406394 1.19839 0.609145 -0.0393889 -0.256321 0.125301 -0.0345659 0.430788 0.0586986 -0.551819 1.8515 0.985223 0.0408098 -0.223747 0.234773 0.0741396 0.437657 0.439774 0.0616871 -1.1753 0.515332 0.811891 -1.08974 0.992417 0.194146 0.652884 0.408239 -0.233494 -0.0266155 -1.63054 -0.566342 0.12469 0.0456701 0.466759 -0.0328067 0.444921 0.284202 0.786243 0.0691712 0.161269 1.09713 -0.742673 -0.593649 -0.241763 0.579573 -0.560091 0.52232 -0.173046 0.0546139 -1.54292 0.630545 0.224623 -0.195381 -0.213819 1.2048 -0.368371 -1.37124 -0.760454 0.048638 0.801185 0.157046 -1.26682 -0.64164 -0.0497664 -0.403442 0.455395 -0.187485 -0.779838 -0.11593 -0.943425 -0.360479 -0.0543293 0.566784 0.716946 -0.879219 0.555871 0.150914 0.767473 0.159092 -0.0470374 -0.38525 0.12108 -0.0790004 0.222591 0.303022 -0.20442 -0.690917 0.707735 0.0830714 -0.135531 -0.0991444 -0.684023 -0.080446 -1.05906 0.913436 0.5293 -0.174587 -0.297852 -0.644716 -0.298002 -0.228419 -1.14464 
38 -0.130132 -0.0673419 0.149912 0.245396 -0.490667 -1.27009 -0.21266 -0.420919 -0.335942 0.294319 -1.09725 -0.494851 -0.121844 -0.29231 0.234509 -0.929603 0.301197 -0.44759 -0.102881 0.332239 -0.445605 0.630881 0.9156 0.350807 0.29181 -0.0291938 0.687516 0.37455 0.815342 -0.133578 -0.697738 -0.0249252 -0.795861 0.997881 0.332646 -0.605383 1.17824 0.364581 -0.256826 0.393411 0.452933 0.0903843 0.249732 0.208339 0.57492 0.60074 1.0271 1.12161 -0.455671 0.434055 0.242348 0.225139 0.0456539 -0.222083 0.269812 -0.0908999 -0.482207 -0.0362247 0.668957 0.0353527 0.731067 -0.0708545 -0.118318 0.956383 -0.392224 0.391914 -0.0481388 -0.192724 -0.523548 -0.290603 -0.620907 -0.191288 0.195418 0.354861 -0.368725 -0.580014 0.292943 0.591784 -0.705259 -0.392667 -0.0166331 -0.0186015 -0.25846 0.448818 -0.0719907 0.5135 0.429542 -0.444411 0.0198849 -0.78595 -0.370661 -0.188576 -0.0358871 0.0723068 0.386702 -0.441023 -0.695448 0.774494 1.02666 0.0514184 -0.447111 -0.435521 -0.552137 -0.409453 -0.290455 0.219809 -0.134417 0.332728 0.597653 -0.235825 -0.089857 -0.518404 0.0532 0.435973 -0.44855 -0.278213 -1.02761 0.13653 -0.173427 -1.30305 0.075327 -0.810128 0.734574 -0.810941 -0.411945 -0.573978 0.315536 0.0494407 
39 -0.116511 0.131695 -0.127812 -0.423139 -0.416382 -1.23289 -0.217318 0.156797 0.1135 0.658989 -0.829828 0.0334596 -0.0479641 -0.50613 -0.325313 -0.98072 0.00476435 -0.0913533 -0.124147 0.234887 -0.785294 0.15589 0.747553 0.025125 0.866403 -0.30485 0.379148 0.649323 0.716116 0.0168538 -1.27561 0.0152704 0.0370957 0.574531 -0.0839794 -0.407417 1.46571 0.15589 -0.210341 0.461398 0.822533 0.0584623 0.363565 0.441244 0.0719296 -0.0292154 0.470547 1.14791 -0.396226 0.549291 0.196302 0.163857 -0.114007 -0.291322 0.510212 -0.0185475 0.0331045 0.271808 0.665896 0.300664 0.581336 0.0183909 -0.351653 0.793497 0.29281 0.307099 -0.144042 0.0774732 -1.15783 0.178952 0.15448 -0.24332 0.203807 0.17058 -0.338774 -0.72609 0.657343 -0.103192 -0.242076 -0.259344 0.46846 -0.437097 -0.0921526 0.547831 0.197521 0.00785153 1.038 -0.941721 -0.220497 -0.347961 -0.370864 -0.361961 0.345335 0.375363 0.673462 -0.248603 0.0119623 -0.303877 0.282733 0.362551 -0.244507 0.000560324 -0.343013 -0.248029 0.613523 -0.267728 -0.795571 0.131123 0.0058448 -0.060361 0.0621438 -0.646345 -0.00977948 1.17383 -0.26001 0.372915 -0.472389 -0.217052 -1.06343 -0.736608 -0.178028 -0.646234 0.232866 -0.298209 -0.125941 -0.487088 0.413579 -1.40455 
40 0.728435 0.210409 0.106465 -0.0285719 0.072956 -1.65614 -0.750539 -1.53491 0.29111 -0.0138466 -1.46285 1.07024 0.424982 -0.11782 -0.502143 -0.567235 -0.0205161 -0.189164 -0.586307 0.564098 -0.122605 1.00058 1.22827 0.188434 1.03816 -0.0097707 -0.534106 0.769368 0.111411 -0.708497 -0.479026 1.23251 -0.865433 1.26476 0.245049 0.641007 0.519995 0.324869 -0.271472 1.25809 0.903325 0.0594511 -0.172117 0.104361 -0.313301 0.167931 0.217983 0.481788 -0.482611 -0.248532 0.0991321 0.619493 -0.821804 -0.499065 0.313055 0.472369 -0.835856 0.85686 0.90355 -0.26791 0.507368 0.818535 0.2848 0.459648 -0.552846 0.72374 0.418155 -0.208945 -0.404834 -0.38036 -0.364348 -0.247985 0.155794 0.82868 -0.351245 0.314234 0.610177 -0.378346 -0.746924 0.639899 0.233596 -0.656225 -0.488982 1.04862 -1.06991 -0.208208 -0.472063 -0.363211 -0.0985371 -0.830417 -0.956579 0.759275 0.185268 -0.137298 0.418943 -0.235978 -1.05846 0.330209 -0.192041 -0.0121496 -0.808151 0.788935 0.0434639 0.0593925 0.106543 0.33288 -0.137386 -0.74983 -0.451962 -0.93915 -0.20147 -1.02321 -0.336643 -0.241167 -0.696172 -0.213022 0.0648055 0.205682 -0.697429 -0.774499 -0.183064 -0.53165 0.365783 0.0985344 0.631432 0.354761 0.123628 -1.08493 
41 0.568666 -0.492359 -0.16719 -0.497648 0.103541 -1.10975 -0.554741 -0.60609 0.486519 0.0555483 -0.328612 -0.115996 0.382163 -0.0651743 0.136038 -0.0857867 -0.0124718 -0.258069 -0.072254 0.514176 -1.4006 -0.207322 0.127307 0.191542 0.943009 0.160818 0.38133 0.0695039 -0.0853199 -0.369639 -0.244872 0.536938 -0.933544 0.135401 0.0683768 -0.42737 0.974486 0.310233 -0.00253161 0.229887 0.365646 0.775434 0.0879058 0.299753 -0.229848 0.0137092 0.737063 0.718349 -0.0896632 0.923608 0.348702 0.406654 -0.273743 -0.328888 0.47298 0.0770261 -0.59374 0.616851 0.707108 0.26192 0.532345 -0.00998575 -0.3379 0.344749 -0.670769 0.526574 0.848271 0.34324 -0.497088 0.149163 0.140891 -0.306054 0.364885 0.119148 -0.330224 -0.676471 0.0670045 -0.260777 -0.50745 0.0606825 0.378763 -0.258919 0.25127 0.424065 -0.270551 0.286642 -0.46238 -0.769766 -0.078638 -0.581765 -1.0287 0.582647 0.150187 -0.259954 -0.000226757 -0.09255 0.133179 0.08527 0.711179 0.459246 -1.01191 0.108495 0.353567 -0.858465 0.26986 0.419356 -0.240155 -0.506603 -0.0452384 -0.129161 -0.834821 -0.275202 -0.561296 0.0578782 0.184984 0.085925 0.417107 -0.184075 -1.00241 -1.10202 0.115806 0.10754 -0.472498 0.167441 -0.840724 0.185596 0.390071 -0.69647 
42 -0.256229 0.161678 -0.0292606 -0.276627 -0.325051 -1.18243 -0.115357 0.101933 0.0584239 0.783335 -0.711552 -0.123694 0.0656487 -0.608352 -0.165788 -0.982674 0.0689197 -0.0834219 0.00136448 0.0790375 -0.700506 0.128489 0.607011 -0.302129 0.870681 -0.108137 0.301258 0.649856 0.676435 -0.0160506 -1.0968 -0.00757374 -0.158833 0.617651 -0.0329142 -0.379336 1.33823 0.17006 0.0708283 0.0623929 0.932812 0.472885 0.510027 0.331902 0.0587477 0.183836 0.503823 1.05897 -0.501974 0.497216 0.19618 0.441805 -0.122667 -0.183641 0.536875 0.0159252 -0.0206743 0.363411 0.770618 -0.0227555 0.749013 0.427214 -0.561673 0.945836 0.198239 0.381368 -0.1388 0.142148 -1.35568 -0.181173 0.175223 -0.15235 0.0319542 0.31423 -0.445544 -0.699724 0.693764 -0.0888556 -0.0578362 -0.652936 0.5107 -0.386681 0.0766656 0.659007 0.332079 0.323384 0.943046 -0.756532 -0.363306 -0.196076 -0.441292 -0.47843 0.44871 0.468363 0.494282 -0.314557 0.212383 -0.206864 0.653426 0.459034 -0.306477 0.0923079 -0.163495 -0.123437 0.589291 -0.258172 -0.902997 0.192621 0.227547 -0.229878 -0.0413053 -0.634726 -0.298695 1.29814 -0.260795 0.207174 -0.690326 -0.365252 -0.918803 -0.652009 -0.0505679 -0.749312 0.296871 -0.51677 -0.368209 -0.55844 0.272303 -1.11477 
43 0.69693 0.262991 0.771628 0.206608 -0.341049 -0.841068 -0.364984 -1.12087 -0.526909 0.00592573 -1.3129 0.674616 0.245285 -0.274719 -0.122656 -0.966228 0.0581132 -0.351055 -0.274508 0.483468 -0.0124191 0.730686 1.28971 0.572488 0.433098 -0.000742963 0.0931584 0.952764 0.54381 -0.240368 -0.378794 0.539492 -0.56165 0.889653 0.39019 0.317954 0.603926 0.24879 0.0566608 0.891857 0.615569 -0.244215 -0.404999 0.408427 -0.15713 0.708137 0.619056 1.0266 -0.407665 0.529363 -0.286427 0.411652 -0.591994 -0.374857 0.345217 0.361093 -1.05807 0.661931 0.720919 -0.0257486 0.229905 0.0291375 0.305868 0.25734 -0.343717 0.505544 0.440549 -0.543918 -0.404352 -0.0827178 -0.495924 0.0500353 -0.0723837 0.233848 -0.359629 0.110685 0.422755 -0.15233 -0.967064 0.0278277 0.291787 -0.973386 -0.440059 0.979387 -0.831892 -0.118214 0.215141 -0.125866 -0.617454 -0.543057 -0.269065 0.0703849 -0.0814905 0.219812 0.280789 -0.187241 -1.31472 0.281451 0.134056 -0.656895 -0.477209 0.335817 0.0384755 -0.466835 0.480824 0.0641175 -0.33084 -0.29357 0.169455 -0.631777 0.0151251 -0.688091 -0.135721 0.0616201 -0.857732 0.14049 -0.139057 0.236254 -0.261108 -0.862632 0.362939 -0.541327 0.29249 -0.469625 0.404846 0.0402533 0.331458 -0.417015 
44 -0.299936 0.154735 0.675096 0.471385 -0.283102 -0.675845 -0.200579 -1.56442 -0.131542 0.190904 -0.625706 -0.423602 1.07871 -0.0253044 0.347798 0.0216227 0.443202 -0.634304 0.416823 0.270347 -1.06258 0.413107 0.946015 -0.069284 0.0474446 -0.412135 0.429128 0.0352073 0.308094 -0.71131 -0.420562 0.1667 -1.03103 0.545741 0.774383 -0.0247294 1.07248 0.365875 -0.439557 0.582626 0.15769 0.525415 0.175258 0.305503 0.0609893 0.231913 0.914564 1.09311 -0.170984 0.557299 0.32607 -0.164223 -0.509349 -0.535005 0.800957 -0.155843 0.312831 0.363884 0.360849 0.274044 0.559553 -0.085883 0.104252 0.317248 0.520116 0.402321 0.291969 -0.232911 -0.747555 0.443843 0.463923 -0.423165 0.111422 -0.414914 -0.138146 -0.354889 1.18392 0.541458 0.17435 0.351437 0.212364 -0.608839 0.192168 -0.146947 0.0661545 0.256102 0.144976 0.28976 -0.802367 -0.607686 -0.653481 -0.246524 -0.0563858 0.103038 0.147889 -0.438919 -0.7871 0.0876408 0.325045 -0.578292 -0.103935 0.412138 -0.0745921 -0.101549 -0.363166 -0.0387604 -0.720457 -0.069581 0.414959 -0.670479 -0.0196401 -1.0953 -0.539855 0.65948 -0.657833 0.3593 0.0211955 0.187965 -0.139689 -0.599215 -0.119419 0.116578 -0.164842 -0.28433 -0.198039 -0.842266 -0.0910711 -0.840612 
45 0.292071 0.423047 0.993267 -0.0715887 0.12627 -0.505536 -0.00723339 -0.0264158 -0.509798 0.87152 -0.868933 0.0898336 0.23321 -0.0823111 0.602479 -0.411487 0.375314 -0.119627 -0.215537 0.308572 -0.821864 0.561356 0.794008 0.472493 0.345223 0.295743 0.0489072 0.88967 0.898113 0.115663 0.0375786 0.63816 -0.293709 0.620295 -0.258869 0.0358483 0.616737 0.270613 0.451415 0.415568 0.61067 0.118829 0.622804 -0.0206487 0.0310113 0.200602 0.307422 0.981167 -0.0930808 -0.00131476 0.466885 0.0531697 -0.0831645 -0.189835 -0.0897233 0.0535033 -0.704048 0.403458 0.461761 0.201579 0.214295 -0.257615 -0.275165 0.917662 0.260699 0.298981 0.586011 -0.438754 -0.497088 -0.119018 -0.293526 -0.637787 -0.187397 -0.40869 -0.443292 0.300107 0.190794 0.0300839 -0.455691 0.235793 0.226279 -0.305118 -0.685487 0.436125 -0.292512 0.593275 0.488302 -0.413063 -0.780849 -0.403646 -0.0559811 0.0864308 -0.161782 -0.115606 -0.135689 -0.419171 -0.972533 0.209632 0.690774 -0.24425 -0.770362 -0.315109 0.329752 -0.216684 0.711365 0.244348 -0.179804 -0.890359 0.317941 -0.543887 0.209286 -0.586418 -0.157643 -0.0867905 -0.253121 0.287168 -0.565636 -0.586605 -0.184173 -1.46019 0.607153 0.129489 -0.0844662 -0.378133 0.0313227 -0.680027 0.137482 0.026357 
46 0.641622 0.229148 0.76237 0.213875 -0.322422 -0.856857 -0.350537 -1.15836 -0.578913 0.0488851 -1.34013 0.678074 0.244049 -0.281909 -0.168223 -0.920799 0.00960605 -0.377436 -0.296892 0.462476 -0.0474068 0.733714 1.29303 0.572904 0.456852 -0.0301151 0.085466 0.925242 0.582338 -0.184287 -0.410762 0.593077 -0.521562 0.876807 0.376743 0.340766 0.618828 0.212445 0.0201191 0.956807 0.617057 -0.264983 -0.43902 0.391213 -0.110619 0.718596 0.607915 1.00147 -0.346034 0.542399 -0.290916 0.478081 -0.642951 -0.383604 0.349897 0.37221 -1.12765 0.680714 0.835344 -0.044749 0.24847 -0.0650018 0.300657 0.252338 -0.372694 0.452346 0.452124 -0.47974 -0.345061 -0.0620107 -0.475021 0.0419924 -0.1164 0.275437 -0.33723 0.205956 0.334536 -0.160156 -0.967766 0.0725497 0.261332 -0.970049 -0.459559 0.927803 -0.828748 -0.153439 0.170843 -0.107196 -0.628687 -0.571116 -0.280598 0.0907024 -0.0966808 0.297281 0.274175 -0.187114 -1.27616 0.292326 0.0792027 -0.592759 -0.428967 0.290659 0.0738008 -0.495242 0.417708 0.0978713 -0.299232 -0.274245 0.143612 -0.653106 -0.0291432 -0.650992 -0.169108 0.115904 -0.87801 0.0618092 -0.15908 0.229148 -0.218058 -0.874548 0.350897 -0.527071 0.370015 -0.472761 0.402812 -0.0869623 0.374079 -0.388248 
47 0.493982 0.316161 0.00813188 -0.0160357 -0.318475 -0.950134 -0.0107436 -0.564398 0.00961326 -0.145691 -0.982087 -0.00797736 0.359454 0.138497 -0.240263 -0.895793 0.279325 -0.263573 -0.145653 0.347646 -0.609784 0.333489 1.13897 0.574518 0.237884 -0.34634 0.491211 0.36956 0.587115 0.277223 -0.122191 -0.152193 0.18811 0.681977 -0.620402 0.305315 0.452762 0.362243 0.0201946 1.03225 0.357499 0.0807999 -0.0722109 0.634391 0.488138 -0.466014 0.707405 1.36315 -0.443505 0.794682 0.549535 -0.170954 -0.00996518 -0.759157 0.125873 -0.0939042 -0.498011 -0.270417 0.499584 0.134126 0.525578 -0.477536 0.949172 0.189004 0.2507 -0.518098 0.3851 0.210053 -0.169474 0.593633 0.298387 -0.633671 0.470807 -0.168615 -0.133533 0.0848219 1.00369 -0.220171 -0.228808 0.147673 0.884756 -0.237129 0.0333267 0.525941 -0.293682 -0.0401919 0.0144328 -0.320399 -0.0585085 -0.407409 -0.638041 0.149697 -0.41779 -0.119712 0.0987745 0.142196 -0.321033 -0.0128468 -0.0883285 -0.0253627 -0.446329 0.110762 0.520042 -0.0483634 -0.00309382 -0.305822 -0.408939 -0.114185 -0.207563 -0.323097 -0.139118 -0.193713 -0.325898 0.922481 -0.83231 -0.538574 -0.142961 -0.704959 -0.309125 -1.49021 0.0977961 -0.214013 -0.337459 -0.170813 0.294821 -0.159094 0.436172 -0.771241 
48 0.329339 0.128219 -0.29464 0.150677 -0.809146 -0.191612 0.250452 -0.393598 0.169112 -0.420896 -0.627983 -0.286347 0.424131 -0.0865905 0.229196 -0.342116 0.0537312 -1.08427 -0.393796 -0.344717 -0.589131 -1.34831 0.252722 -0.374434 1.34705 0.302757 0.693327 0.832782 0.697029 -0.726428 -0.942006 0.15627 0.787909 0.355386 0.7114 0.681685 0.160558 0.164831 -0.0932959 -0.0797271 0.868217 0.400189 0.218847 0.17485 -0.52662 0.575611 0.791146 1.1862 -0.888415 0.732376 -0.519789 -0.527804 -0.322191 0.680746 -0.293819 -0.413989 -0.596679 0.491171 0.343802 -0.156676 0.394725 0.315903 0.0475632 1.27651 0.485211 -0.0104266 0.320667 -0.28296 0.0618171 0.596982 0.874731 -0.0117696 -0.226433 -0.253316 -1.22111 -0.609309 0.665214 0.158374 0.0433094 0.199863 1.18876 -0.221073 -0.00147141 0.624074 -0.634858 0.582302 0.459256 -0.39736 -0.527452 -0.329958 -0.996325 0.445239 0.259572 -0.498603 0.216314 0.0934467 0.102816 0.0395473 1.30224 0.205435 -0.699463 -0.350564 0.329011 -0.349359 -0.0912996 0.163174 -0.28078 -0.201136 0.342141 -0.402585 0.339857 -0.27419 -0.256007 0.693396 0.0520462 -0.298208 0.352794 -0.706452 0.25284 -1.73499 0.29855 0.347704 0.145091 -0.107591 0.128884 0.181378 -0.0536371 -0.274284 
49 0.589398 0.269138 0.747937 0.225332 -0.310303 -0.863231 -0.347085 -1.18769 -0.53023 0.0807762 -1.30272 0.658125 0.300394 -0.31683 -0.137201 -0.941912 0.0251389 -0.389188 -0.295614 0.421001 -0.0703298 0.732012 1.25428 0.548921 0.496748 -0.0276669 0.130145 0.911201 0.560381 -0.231384 -0.370432 0.555879 -0.519899 0.873176 0.370479 0.34228 0.662514 0.262086 0.0172625 0.941066 0.614107 -0.237272 -0.400716 0.415629 -0.100653 0.647029 0.606382 0.98785 -0.380595 0.556708 -0.262701 0.398936 -0.587791 -0.399116 0.417779 0.336207 -1.08325 0.691547 0.720956 -0.0365999 0.241676 -0.0460271 0.258557 0.232025 -0.347551 0.438219 0.4135 -0.507727 -0.377592 -0.0654023 -0.49293 0.0758226 -0.137188 0.223919 -0.321091 0.184652 0.406988 -0.12457 -0.952416 0.0376413 0.317496 -0.988352 -0.485529 0.921463 -0.865996 -0.187621 0.229104 -0.106726 -0.609922 -0.515748 -0.288559 0.039935 -0.105413 0.250516 0.240778 -0.174269 -1.26078 0.326946 0.152964 -0.668421 -0.430485 0.331843 0.0333319 -0.503757 0.492475 0.111889 -0.297842 -0.300844 0.162897 -0.685261 -0.0752405 -0.67228 -0.163787 0.0759471 -0.871219 0.154465 -0.153913 0.301054 -0.203308 -0.925627 0.379997 -0.514006 0.279099 -0.458035 0.396604 -0.0408614 0.301862 -0.384582 
50 0.201818 0.489258 0.197331 -0.248916 -0.131921 -0.786059 -0.0419557 -0.378778 -0.473188 0.247169 -0.738741 -0.0403342 0.270685 0.248629 -0.262113 -0.465166 -0.169574 -0.545605 -0.35848 0.63405 -0.975346 -0.0665322 0.514888 0.126295 0.0627191 -0.284095 0.47888 0.195653 0.29031 -0.0411539 -0.0451277 0.0167608 0.0876166 0.985452 -0.369371 0.0774718 1.17444 0.856357 0.206379 0.258271 0.00210056 0.497962 -0.16713 -0.323354 -0.0380373 0.079432 0.421605 0.659714 -0.625877 0.349944 -0.00411415 0.477969 -0.166756 0.227584 0.798304 -0.13812 -0.804915 -0.196626 0.659384 -0.459558 0.633783 0.00915434 0.0943939 0.258389 -0.288076 -0.205579 0.624526 -0.338286 -0.610614 -0.33311 0.25742 -0.421378 0.31263 0.628515 0.237442 -0.197135 0.558186 0.106959 -0.669162 -0.0379745 0.704031 -0.386898 0.199627 0.0317004 0.0544211 -0.133755 -0.018963 -0.175849 -0.221203 0.149312 -0.795381 0.324827 -0.640885 -0.617227 0.104631 0.0482809 -0.506812 0.289086 0.203923 -0.0693881 -0.277961 0.570335 0.434451 -0.233586 0.278486 0.291677 -0.612682 0.153265 -0.46828 -0.23234 0.362439 0.0531267 0.0337462 0.632941 -0.908008 -0.597288 -0.22938 -0.135292 -0.682878 -0.727604 0.596541 0.172693 -0.253998 -0.325412 -0.459602 -0.563178 -0.0431532 -0.768295 
51 0.480871 0.0237382 -0.535079 0.0367762 -0.0722138 -0.433794 0.0783301 -1.1094 0.487063 0.515343 1.07331 -0.883669 0.903465 -0.129664 0.096506 -0.52904 0.226132 0.31352 0.509376 0.32941 -0.469931 0.0262543 -0.0397054 0.828866 -0.359144 -0.357075 0.702047 -0.0438106 0.290949 0.169406 -0.416444 0.231093 -0.171754 0.852186 -0.29615 0.312931 0.93404 0.0935846 -0.139206 -0.122548 0.40791 0.204191 0.225879 -0.288935 -0.0541896 -0.265055 0.101879 1.26956 -1.05581 -0.952494 -0.246343 0.533282 -0.517979 0.0101206 0.172062 -0.195406 -0.387088 -0.188138 0.266667 -0.0421232 -0.871409 -0.427436 -0.265392 0.568536 -0.241687 -0.462395 0.303264 0.278744 -0.347283 0.232394 -0.0340136 -0.952522 -0.276183 0.658139 0.158943 -0.42106 0.592147 0.155692 -0.0215585 0.102837 1.26178 0.0318724 0.579256 0.334029 0.168438 -0.713464 0.597723 0.467132 -0.5562 0.155267 -0.129403 -0.730284 0.392332 -0.330728 -0.287631 -0.385173 0.536255 -0.0291133 0.277585 0.0580922 -0.303238 -0.422313 -0.138607 -0.093652 0.449034 0.216121 0.249565 -0.110871 0.403596 -0.0771414 0.332402 -0.410913 -0.180008 -0.304007 0.259029 -0.0552491 -0.302299 -1.1839 -0.0594734 -0.686495 0.362118 -0.343818 -0.597679 -0.425205 0.0305413 -0.0877202 0.671825 -0.779707 
52 0.294493 0.554482 0.281393 0.0102167 -0.709851 -0.829231 -0.294053 -0.0356961 -0.304628 0.495961 -0.647527 0.33711 0.15011 -0.248317 -0.0981728 -0.660818 -0.459705 -0.554684 0.0504364 0.617741 -0.48397 0.357563 0.739807 0.0539001 0.074368 -0.452774 0.14835 0.388033 0.786027 -0.571546 -1.27264 0.339501 -0.0804059 0.598082 0.149119 -0.472398 1.11098 0.316867 -0.191758 0.356687 0.825197 0.331389 0.202155 0.537738 0.170669 0.525672 -0.123028 0.970426 -0.345165 0.0204074 -0.43834 0.808355 0.0918676 -0.154763 0.36018 0.388972 -0.457197 0.325193 0.538511 -0.275474 0.332706 0.291087 -0.454953 0.695159 -0.0698085 0.500084 0.0439133 -0.0647835 -0.571703 0.244008 -0.125197 0.17234 -0.0811844 0.648969 -0.138497 -0.0244984 0.380416 0.137196 -0.512117 -0.622554 -0.0146273 -0.767462 0.0578208 0.892118 -0.374112 0.198518 0.685904 -0.659113 0.0418961 -0.388105 -0.349572 -0.286934 0.489449 0.360902 0.295897 -0.438749 -0.518524 -0.0903491 0.512943 -0.27065 -0.327526 0.0574395 -0.129342 -0.165951 0.196125 0.0794298 -0.524963 0.0660809 0.0382478 -0.31763 -0.0144298 -0.56121 -0.260174 0.74252 -0.134762 -0.0143962 -0.552082 -0.368304 -0.449316 -0.271562 0.301523 -0.750858 0.0825131 -0.576368 -0.429885 -0.340867 0.285424 -0.785514 
53 0.434204 0.323181 0.512598 -0.127397 0.260551 -0.58285 -0.192543 -0.537335 -0.261489 0.915891 -0.709851 -0.536075 0.560252 0.0422587 0.435578 -0.727199 0.365146 -0.416229 0.0318722 0.426326 -0.582382 -0.023538 0.42264 0.0494447 0.160166 0.352048 -0.0231469 0.656307 0.471491 -0.164803 -0.139907 -0.179281 -0.565118 0.723897 0.0373867 0.331827 0.72846 -0.0214333 -0.23556 -0.113812 0.50088 -0.0741621 0.988434 -0.139203 0.699003 0.42536 0.71459 1.20812 -0.189263 0.653017 0.0555212 -0.166237 -0.53516 -0.0343768 0.0385893 0.0704695 -0.147409 0.187026 0.297054 0.480154 0.381269 -0.0672067 -0.0344969 0.244397 0.504934 0.232556 -0.339286 -0.677115 -0.117157 0.106759 -0.412876 -0.102887 0.330107 0.269508 -0.227857 0.486976 0.043505 0.0597268 0.00372273 -0.0680898 0.652379 0.21772 -0.835787 0.138424 -0.557221 0.2339 0.44784 -0.328601 -0.644654 0.0133637 -0.0761627 0.563345 0.315464 0.0110282 -0.241757 -0.0753372 -0.59051 -0.0237661 0.257368 0.137844 -0.36677 -0.241424 0.143954 -0.617643 -0.277848 -0.0600161 -0.275753 -0.000975969 0.422469 -0.398422 -0.14821 -0.374551 -0.775104 0.376434 0.0760408 -0.0808174 -0.35847 -0.824763 0.239469 -0.980471 0.0919525 -0.186346 0.0786655 -0.578659 -0.637278 -0.806339 0.222742 -0.306432 
54 -0.0110006 0.310926 -0.70875 0.546276 -0.147895 0.282942 0.478212 -0.410223 -0.147694 -0.102363 0.268099 -0.60666 0.0925523 -0.0307507 0.192513 -0.591028 0.209601 -0.54855 -0.182779 -0.0616485 -0.926347 -0.736835 0.025583 -0.013489 0.991772 0.34153 0.826927 0.69053 0.278907 -0.281166 -0.118396 0.363901 0.310669 0.209853 0.447678 0.424852 -0.0213629 -0.394659 -0.179947 -0.577322 0.684725 0.28576 -0.591284 0.233639 -0.349118 0.692101 -0.133318 1.11346 -1.00398 -0.227486 -0.0986385 0.287214 0.0150426 0.21199 -0.148226 -0.386259 -0.316719 0.694637 0.115592 -0.234888 -0.442069 0.230158 -0.0315524 1.39273 -0.168147 -0.628642 0.496914 0.248011 -0.294112 0.468368 0.0723926 0.151114 0.0507645 -0.236344 -0.455982 0.0371218 0.527949 0.227556 0.24022 0.407627 1.07369 -0.303195 -0.206055 0.0631696 -0.628347 0.127182 -0.145173 0.356203 0.126412 -0.392254 -0.986796 -0.714911 -0.0550112 -0.315561 0.0766514 -0.501974 -0.144791 -0.309818 0.543257 0.247571 -0.485949 -0.391483 0.353216 0.3449 0.170451 -0.1199 0.340148 -0.210357 0.547077 -0.280343 0.0933348 -0.148601 -0.137401 0.432725 0.455816 0.0091036 0.230011 -1.08637 -0.769378 -0.684201 0.33554 0.0558119 -0.0313019 -0.155957 -0.191817 0.113236 0.68584 -0.525791 
55 0.361214 0.189258 -0.166056 -0.0584011 -0.110582 -1.30764 -0.269979 -0.0961346 0.173339 0.326114 -0.479145 -0.519513 0.729756 0.0724359 0.0574575 -0.224107 0.220564 -0.345629 0.0515655 0.445175 -0.980932 0.00496382 0.762882 0.827389 0.357949 -0.207806 0.769548 -0.0146439 0.35847 -0.387421 -0.64356 0.414807 -0.78684 1.01408 0.337225 0.239644 0.0901047 0.421609 0.195422 -0.0873627 0.995338 0.601668 0.260008 0.0696294 -0.584103 0.121512 0.856679 0.768726 -0.246467 0.587341 0.895826 0.161366 0.062804 -0.595856 0.780563 -0.144727 -0.494202 -0.0567575 0.772544 -0.261694 0.750348 0.328273 -0.351901 0.186839 -0.414648 0.140691 0.00660654 0.285726 -0.593104 0.236388 -0.383147 -0.0584591 -0.483072 -0.339728 -0.227847 -0.301367 0.690354 -0.30508 -0.0108923 -0.401029 -0.170118 0.0705266 0.0880576 0.620198 -0.903274 -0.117817 0.928152 -0.569234 -0.1076 -0.370989 -0.651132 -0.525774 -0.105977 -0.481247 -0.45688 -0.206907 -0.452609 -0.129114 0.775905 -0.697839 0.195482 -0.0155291 0.226855 -0.1594 0.301031 -0.257782 -0.369813 0.374193 -0.245535 -0.232524 0.673969 -0.250817 -0.691521 0.978944 -0.62025 -0.558707 -0.0294147 -0.175326 -0.328785 -0.787134 0.112327 -0.0100604 0.144288 -0.340926 0.139182 -0.239745 0.0143691 -0.256472 
56 0.0956335 -0.111322 0.250771 0.233668 0.125145 0.569564 -0.668777 -0.728189 0.359707 1.1067 -0.141243 0.271664 0.641015 -0.605465 0.509983 -1.05744 0.424598 0.357501 0.471322 0.497054 -0.231597 -0.337514 0.748437 0.222558 0.178916 -0.195753 0.987821 0.662174 0.836241 -0.219065 -0.450157 0.0659409 0.0881286 0.734701 0.152747 -0.676885 1.14921 0.954785 -0.232673 0.509396 0.675532 0.285361 0.0406139 0.294572 0.144326 -0.286999 0.691434 0.674655 -0.395773 0.209157 0.0374368 -0.111517 -0.859587 -0.518511 0.993005 -0.271142 -0.125644 0.424365 0.526106 0.402376 0.699957 0.256972 0.10279 0.648561 -0.12197 0.836286 0.00397004 -0.363744 0.00366076 -0.332923 -0.508565 -0.141895 0.600365 0.276286 -0.508575 0.53991 -0.04284 -0.169863 -0.160549 -0.034166 1.32723 -0.512302 -0.0935655 0.787054 -0.713507 0.0945873 0.668307 0.132182 -0.159399 -0.737346 -0.426189 -0.383518 -0.354458 -0.579165 0.512752 0.0296958 -0.618355 0.292593 0.709091 0.405102 -0.56723 -0.667281 -0.72174 -0.676414 0.339272 -0.607249 -1.04688 -0.243159 -0.17342 0.224671 0.524957 -0.473916 -0.253311 0.344938 -1.16562 -0.0789387 -0.931357 0.619345 0.19797 -1.01284 0.318599 0.0128037 0.0759394 -0.0411816 0.000837113 -0.339025 -0.116142 -0.326825 
57 0.213638 -0.164024 0.0440614 0.0839309 0.0609509 -0.256013 -0.885661 -0.580676 -0.353611 0.622843 -0.85536 0.558757 0.283542 -0.226158 0.138375 -0.0307904 0.459147 -0.0122164 -0.156536 0.590882 0.15006 0.11454 1.01896 0.327591 0.724277 0.643993 0.297326 0.361557 0.380719 0.197017 -0.105856 -0.0244482 -0.756005 1.4531 -0.194851 -0.579914 0.532175 0.335971 -0.0500728 0.196893 0.432307 -0.0755402 0.202037 0.642242 0.205335 0.765608 1.1477 1.62786 -0.0559491 1.02574 -0.0382052 -0.245067 -0.301003 -0.562304 0.18973 -0.162013 -0.253813 -0.22154 0.657555 0.167318 -0.194719 0.366666 0.229573 0.139169 0.185722 -0.307647 -0.159675 -0.126801 -0.95195 0.0713894 -0.90639 -0.0645939 0.0797314 0.593313 0.00258286 -0.0394609 0.937707 0.330962 0.0976407 -0.0761287 0.359568 -0.447746 -0.0946358 1.15714 0.107321 0.451942 0.492085 -0.789709 -0.615966 -0.746652 -0.64198 0.370135 -0.389208 -0.514429 0.411254 -0.857099 -0.0367225 -0.00302904 0.324982 -0.253018 -0.000343505 -0.129357 0.229377 -0.395826 0.204446 -0.0515648 -0.680006 -0.221716 1.12904 -0.214693 -1.04223 0.0899065 -0.469054 0.802043 -0.544801 -0.075098 -0.0450031 -0.213529 0.488287 -0.846065 0.796586 0.0178134 0.359759 -0.516465 -0.39906 -0.0274763 0.0015341 -0.429467 
58 0.192464 0.463483 -0.397915 0.518121 0.233555 -0.573164 0.311596 -0.330727 -0.570707 -0.649695 0.271076 -1.51644 0.887482 -0.191052 -0.0719287 -0.734216 -0.00532475 0.395826 -0.0826566 1.17478 -0.805513 0.050747 0.460565 0.370341 0.0463873 -0.414819 0.240939 -0.301692 -0.069144 -0.166065 -0.508098 -0.412816 0.847337 0.336766 -0.550238 0.122581 1.08062 -0.372525 -0.272923 -0.609652 1.01376 -0.0351403 -0.0977804 -0.202653 -0.158011 -0.454808 0.454305 0.752795 -0.100428 -0.503659 -0.090901 0.587114 -0.839801 0.747274 -0.679488 -0.0542158 -0.262602 0.648396 -0.000333926 -0.322543 -0.533527 -0.204789 0.120881 0.877237 -0.323735 0.485801 0.35158 0.00312198 -0.171607 0.953879 0.608221 0.12463 -0.432881 0.155554 0.168814 0.0730114 0.847117 0.763371 -0.00783994 0.250029 1.04378 -0.0962666 -0.259178 -0.824099 -0.312966 -0.490246 -0.000544427 0.531509 -0.496921 -0.181489 -0.830144 -0.344549 0.268002 -0.564734 -0.00897391 0.0766921 -0.192851 -0.423938 0.126344 -0.088175 -0.754986 -0.432896 0.231731 0.0621412 0.277654 0.112887 0.0988966 0.0699723 0.481157 -0.0425573 0.41203 -0.288044 -0.368397 0.202343 0.232533 -0.295335 0.838448 -0.660374 -0.256709 -1.00823 0.437202 -0.596632 -0.468292 0.0167572 0.00544249 0.023198 0.141909 -0.685933 
59 0.643647 0.192908 0.688132 0.301069 -0.108573 -0.881259 -0.666864 -0.952651 -0.723418 0.0552732 -1.51034 0.758803 0.118699 -0.0214931 -0.176892 -0.91788 0.0829246 -0.121638 0.0328851 0.352601 0.269748 0.46401 1.20269 0.261224 0.294276 0.237518 0.147694 0.615993 0.54486 -0.201971 -0.480599 0.220257 -0.616266 0.665471 0.614024 0.496658 0.65511 0.264458 0.00130679 1.07357 0.621527 -0.144046 -0.680404 0.672913 -0.1804 0.458996 0.699859 1.43534 -0.44403 0.335083 -0.302874 0.396639 -0.424176 -0.377062 0.225753 0.343308 -0.924816 0.607851 0.756266 0.253562 0.00136701 0.1459 0.229729 0.482135 -0.465015 0.57763 0.152836 -0.339711 -0.35944 -0.243923 -0.615941 -0.0966704 -0.399127 0.0688805 -0.175316 -0.147206 0.336526 -0.0597565 -0.955392 0.10168 0.51065 -0.924393 -0.675742 0.968925 -1.00782 -0.374314 0.301363 -0.0126547 -0.524403 -0.965458 -0.107319 0.0162208 -0.145996 0.00911148 0.267885 -0.43171 -1.13491 0.408535 0.223041 -0.725907 -0.272902 0.206115 -0.0674814 -0.572777 0.525637 0.0337459 -0.366013 -0.540816 0.305742 -0.806068 -0.315798 -0.519722 0.141832 0.129466 -1.06346 0.299478 0.0879175 0.29042 -0.277241 -0.978993 0.574981 -0.486974 0.214483 -0.342156 0.331926 0.0548921 0.369082 0.194524 
60 0.245848 0.338982 0.121626 0.386531 -0.598461 -0.279525 -0.203021 -0.170621 -0.360382 0.529464 -1.24892 -0.255008 0.730891 0.0192315 0.0552901 0.0337787 -0.181836 -0.803247 -0.110498 0.303079 -0.0180343 -0.503018 0.369982 -0.104164 0.892034 0.253466 0.482616 0.916654 0.122602 -0.280107 -0.545571 -0.0740774 -0.472102 -0.0706472 0.0987267 0.144759 0.125009 0.485012 0.0420726 0.5208 0.895491 0.66739 0.231827 0.447398 -0.321333 0.0282886 0.256839 0.985853 -0.557131 0.725892 0.18839 -0.58847 -0.580519 0.186264 -0.410976 -0.525424 -0.217573 -0.160705 0.845897 -0.35008 0.812993 0.357705 -0.413944 0.41691 0.236409 0.372644 -0.0881731 -0.236874 0.0523845 0.0808825 -0.0387227 0.239149 -0.00195622 -0.051839 -0.761919 0.135694 0.292262 -0.12847 -0.266872 -0.112837 0.643703 -0.626192 -0.711506 0.327545 -0.525125 0.0246361 0.0132085 -0.298146 -0.684184 -0.549431 -0.820015 0.00740498 0.614729 -0.516101 0.386688 0.241261 -0.702753 0.366624 0.590704 -0.100639 -0.870351 -0.0863244 0.672173 -0.282191 0.135039 -0.201895 -0.968191 -0.252718 0.426043 -0.343405 0.0996437 -0.426848 -0.736752 0.50084 -0.951896 0.365267 0.440649 0.148384 -0.279881 -0.651336 0.0400288 -0.0541647 -0.0982842 0.444864 0.269278 -0.0535767 0.227883 -0.561219 
61 0.357751 -0.21053 -0.615489 -0.149128 -0.846771 -0.285035 0.0898502 -0.547171 -0.116335 0.119999 -1.23721 0.412497 0.0255184 0.441514 0.461054 -1.02118 0.132442 0.188842 0.553584 0.701271 -0.0441119 0.36083 0.989306 -0.279581 0.461261 -0.714625 0.818457 0.777133 -0.0865622 0.213802 0.109206 0.151175 -0.409821 1.2902 0.105439 0.715703 0.786037 0.443431 -0.193927 0.384413 0.557311 0.329867 -0.132565 0.494626 0.402463 0.361211 1.02401 1.12545 -0.560691 0.272987 -0.00151472 0.823169 -0.139997 -0.192021 0.823978 0.0858614 -0.595537 0.297439 0.888236 0.0302215 0.598494 0.90627 0.642778 0.417579 0.46101 -0.0739358 -0.130003 -0.309842 -0.626666 0.0328433 0.374189 0.0683193 0.0257311 -0.156318 0.0224666 -0.234439 0.774917 0.179577 -0.0626543 -0.592067 -0.0202195 0.437542 0.139522 0.528718 -0.241215 -0.0242314 -0.148012 -0.265474 -0.741689 -0.817793 -0.900388 -0.587602 0.0839496 0.104465 -0.431977 -0.0803249 -0.614287 -0.223295 -0.50024 0.343149 -0.675281 0.954593 0.289237 -0.0475838 0.216813 -0.458187 -0.0684918 0.349794 0.0228823 -0.855529 0.351075 -0.476132 -0.978502 0.181501 -0.226001 0.24588 -0.0266738 -0.528467 -0.583764 -1.10337 -0.0249675 -0.154559 0.12856 0.034234 0.418456 0.161856 -0.151332 -0.926671 
62 -0.351026 0.0217195 0.279001 -0.160324 0.0383863 -0.501742 0.128226 -0.220912 -0.313561 0.262653 -0.655404 -0.319184 0.0580653 -0.919253 0.677934 -1.0083 -0.00446359 -0.0963217 0.0224731 0.933173 -0.620179 0.408362 1.09409 -0.130988 0.876589 -0.219253 0.885972 0.72185 0.444539 0.275876 -0.149328 -0.533515 0.69923 0.306826 -0.0720536 -0.636743 1.04063 -0.0837994 -0.448107 -0.0124486 0.485995 0.766504 0.70236 0.195217 -0.133484 0.0770945 1.0522 1.03522 -0.560027 0.449966 -0.341507 -0.651034 0.881311 -0.992494 0.281424 -0.382867 -0.217774 0.0988309 0.206958 0.0363222 0.091101 0.15894 0.794279 0.397182 0.20974 0.30735 0.688611 0.229927 -0.579695 -0.360606 0.120937 -0.609549 0.886629 -0.438206 -0.217089 -1.0952 -0.194017 0.303201 -0.00599989 -0.179186 1.09874 0.654525 0.153165 0.357271 0.0359414 -0.380424 -0.369902 0.0560958 -0.217899 -1.00709 -0.633699 -0.632483 -0.206485 -0.290089 -0.569454 -0.722431 -0.999152 1.02309 0.304659 0.147206 -0.139999 -0.108376 -0.750856 -0.27208 0.543398 0.11652 -0.118828 0.556486 0.268508 -0.749045 0.401795 -0.154693 -0.333712 0.291192 -0.360204 -0.578338 0.183799 -0.973785 -0.435732 -0.615969 0.66489 0.00054353 -0.555774 -0.240725 0.288283 0.297263 -0.199985 -0.534728 
63 -0.259187 -0.0912132 0.230821 0.615496 0.257759 -1.19288 -0.0218041 -1.31755 0.00426837 0.282623 -1.41656 -0.73086 -0.201779 -0.543016 -0.255744 -0.79967 0.928887 -0.425607 -0.00182397 0.361748 -0.89618 0.770895 0.964458 0.242753 -0.146148 0.57173 0.823045 0.620117 0.183322 -0.107057 -0.422043 -0.432892 0.00374738 0.688136 0.191659 -0.118381 1.01131 0.268113 0.369666 0.452038 0.361517 0.625684 -0.0609923 0.332103 -0.0208702 0.168901 1.0345 1.48495 -0.521693 0.22111 0.198721 0.00120031 -0.578991 -0.14994 0.708517 -0.366857 -0.478192 0.433026 0.730477 -0.357617 0.69707 0.187881 0.423687 0.274712 -0.800841 0.593122 0.553834 -0.687555 -0.748642 -0.596639 -0.772246 0.291762 -0.271035 0.209638 -0.577663 -0.446264 0.0651874 0.0198673 -0.712074 -0.802416 0.337332 -0.403058 -0.144164 0.437214 0.165146 0.0884068 0.311319 -0.116419 -0.202932 -0.134893 -0.513511 -0.261386 -0.00361757 -0.223643 1.06451 -0.126682 -0.19139 0.781497 0.927377 -0.0171207 -0.687846 0.110325 0.286916 0.149433 0.102238 -0.134588 -0.623241 0.0241834 0.198335 -0.585161 -0.203848 -1.05904 0.266644 0.505046 -0.712157 -0.40503 -0.726275 0.0960811 0.339625 -1.064 0.312881 -0.640871 -0.0440391 -0.734039 -0.0303124 -0.160038 0.324963 0.375141 
64 0.322284 0.0319318 0.110717 0.287339 -0.251766 -1.15218 -0.351124 -0.00893405 -0.336536 0.474454 -1.27817 -0.528474 0.165876 -0.0738699 0.365995 -1.08339 0.43797 -0.844902 -0.309999 0.387525 -0.534962 0.650042 0.684001 -0.132683 0.0277593 -0.189453 0.0642825 0.173496 1.17056 -0.517511 -0.830021 0.506677 -0.64762 1.01994 0.40343 -0.843705 0.900791 0.508424 -0.191256 0.221775 0.785235 0.150474 0.503424 0.00861006 1.0856 0.518393 0.780491 0.792927 -0.413895 0.250236 0.604294 0.387704 -0.0512416 -0.19839 0.408439 -0.541073 0.0110664 -0.405003 0.978134 -0.107582 0.93852 -0.0648946 -0.666351 0.94034 -0.624304 0.233002 0.0456319 -0.0496901 -0.693836 0.267999 -0.8971 -0.447633 0.316517 0.281487 -0.573115 -0.607912 0.237527 0.588184 -0.479234 -0.493277 -0.0467488 -0.368565 -0.241478 1.1174 -0.17425 0.328664 0.74015 -0.41806 -0.145893 -0.568341 -0.234658 -0.305602 0.254181 0.232732 0.636189 -0.504387 -0.625186 0.826218 0.911249 0.27517 -0.633139 -0.703402 -0.549858 -0.408978 -0.582829 0.156927 -0.277401 -0.0743701 0.0515913 -0.451596 0.127704 -0.753886 0.345637 0.551742 0.0390517 -0.12886 -0.755057 -0.462607 -0.181252 -1.39721 -0.0692442 -1.02778 0.525996 -0.923798 -0.967076 -0.610487 -0.100192 -0.27372 
65 -0.0828245 -0.00871223 0.447586 -0.627873 -0.193151 -0.411645 0.373574 -0.79046 -0.553269 0.818291 -0.619966 0.487906 -0.329525 -0.328785 0.789193 -0.0673744 -0.283958 -0.457716 0.714315 0.467443 0.498613 0.163156 1.08106 0.793575 0.229897 -0.151371 0.577106 0.170304 0.11309 -0.319358 -0.909944 0.114775 -0.0102283 1.08026 -0.564977 -0.960524 0.986654 0.747454 -0.162979 0.192796 0.21189 0.848403 0.459251 0.53974 0.285632 0.278201 0.57653 1.35648 -0.0243336 0.93059 -0.136865 0.00369856 -0.139811 0.269427 0.866087 -1.10165 -0.863298 0.154871 1.20119 -0.0425312 0.684464 0.589273 0.748995 0.414089 0.621616 0.257906 0.161443 -0.153512 -0.603332 0.980921 -0.230988 -0.487691 0.0254036 -0.378522 -0.582275 -1.14156 -0.340717 0.110734 0.559345 -0.333118 0.384974 0.768222 -1.01521 0.0554509 -0.0754964 0.896185 0.243148 -0.303936 -0.840177 -0.698715 -1.44659 0.421681 0.182385 -0.370046 -0.838613 -0.478047 -0.510132 -0.105736 1.05792 0.548098 -0.18489 0.221432 -0.913748 0.116567 0.64569 0.269785 -1.08568 -0.4205 -0.0608901 -0.141623 1.06405 -0.483991 -0.690195 0.744643 -0.179744 -0.738078 -0.319381 -0.226566 -0.251732 -1.02014 0.575414 1.0023 -0.611037 -0.111036 -0.225434 0.425946 -0.14428 -0.122869 
66 0.0517078 0.31752 0.019624 -0.0625249 -0.32473 -0.661521 0.504846 -0.196623 -0.331188 0.0307998 0.141818 0.160133 0.592123 -0.334743 0.381645 -0.146638 0.0765645 -0.0104862 0.265904 0.23668 0.126358 0.0215287 0.248784 -0.302846 0.109868 -0.0393674 0.299707 0.604425 0.562104 0.0510819 -0.543837 -0.14873 -0.66017 0.172832 -0.170217 0.221649 0.730697 0.0829557 -0.316473 -0.0889219 0.193285 0.522794 -0.217619 -0.254959 -0.0477531 0.352046 0.676766 0.496871 -0.181669 -0.0839336 0.231948 -0.152969 -0.544318 -0.0516563 0.137772 -0.593982 -0.180983 0.321302 0.45437 0.0381822 0.364512 0.122634 0.00144091 0.135687 0.521113 0.245854 -0.117683 -0.100033 -0.223668 -0.302555 -0.524794 -0.352944 -0.199988 0.5699 -0.405421 -0.198491 0.273991 -0.0700035 0.189833 -0.313583 0.217002 0.0372201 0.191789 -0.14261 -0.217057 0.00963074 0.300248 -0.104522 0.149003 -0.0717283 -0.436206 0.262332 -0.256635 -0.0648285 0.498259 -0.286037 -0.291262 0.0543517 -0.0395433 -0.149648 -0.176777 0.168174 0.200706 -0.222968 0.0925015 -0.283103 0.0225929 -0.213639 0.244372 -0.116308 -0.424449 -0.128886 -0.425224 0.238334 -0.274972 0.121318 0.479509 0.0578277 -0.519415 -0.656639 0.189349 0.125751 0.142107 0.349957 -0.0401223 -0.337687 0.45804 -0.259276 
67 0.941476 0.199754 -0.556444 0.348209 0.32965 -0.464637 -0.154549 -0.570673 -0.250805 -0.282511 -0.181891 0.0426156 0.0607455 -0.714184 0.169533 -0.067221 0.340956 -1.10441 0.120611 0.209846 -1.30774 -0.877892 0.000357972 -0.347835 1.08196 -0.728451 0.438018 0.429337 0.731627 -0.420309 -0.355168 -0.209743 1.14237 0.461932 0.496917 0.195803 -0.070753 -0.0781871 -0.532361 -0.344224 0.992097 -0.0847367 0.476454 -0.507248 -0.410282 0.335268 1.19231 1.27923 -0.712024 -0.28643 -0.286213 0.534202 -0.277216 0.202949 0.0954433 0.524665 -0.42533 0.14593 0.992669 0.136549 -0.539165 0.0446736 0.472203 0.513911 -0.270213 -0.2132 0.924138 -0.324417 -0.871725 0.524659 0.510273 0.0375692 0.404912 -0.102534 -1.74616 -1.01221 0.931307 0.0289527 0.294088 -0.16163 1.1954 -0.382832 -0.365441 -0.00428777 -0.851103 0.138971 -0.0741476 -0.264857 -0.460211 0.340458 -0.145397 -0.313854 -0.600782 0.0891731 0.840879 0.4428 0.614222 -0.240304 0.607904 0.335157 -0.383108 -0.00877972 0.406464 -0.315297 0.252244 -0.338019 0.335664 -0.241484 0.718842 0.0431213 0.581776 -0.669574 -0.485547 -0.217318 0.326256 0.102957 -0.0708463 -0.332124 -0.499331 -1.59 1.07711 1.05735 0.120503 -0.26206 0.146903 0.0689584 1.00518 -0.203154 
68 0.27016 0.126519 -0.16911 -0.571801 -0.12948 -0.493646 -0.512964 -0.194186 -0.301035 0.481018 -0.346592 -0.338165 0.118635 0.163997 0.263416 -0.270275 0.191857 -0.00193378 0.195453 0.402355 -0.510854 0.0120775 0.198811 0.246009 0.558849 -0.135771 0.511875 0.0460098 0.186591 -0.255371 -0.305656 0.40964 -0.47839 0.163779 0.268575 -0.256855 0.518892 0.292443 -0.111444 0.0444489 1.06166 0.392733 0.0777567 0.0885709 -0.120454 0.0487718 0.330255 0.727421 -0.191087 0.590118 0.354048 0.00126726 0.141192 0.279148 -0.0355653 0.10275 -0.26782 0.393561 0.411332 -0.734466 0.227697 0.67274 -0.256108 0.49911 -0.0147037 0.316167 0.0728585 0.325536 0.0272851 0.238203 -0.230064 0.110149 0.207682 -0.00480811 -0.482533 -0.15418 0.348701 0.376814 -0.281935 -0.655266 0.0470319 0.0381704 0.306504 0.194229 -0.218948 -0.000694155 -0.625974 -0.258636 -0.199838 -0.329296 -0.36538 0.316212 0.0524222 -0.170434 0.15252 -0.498188 -0.642586 -0.0370443 -0.389978 -0.132513 -0.57683 -0.2314 0.00253014 -0.524924 0.000387753 0.0385656 -0.581394 -0.440439 0.416282 -0.393539 0.0038715 0.0142604 -0.408076 0.482792 -0.563808 -0.339889 -0.175973 -0.54848 0.0197018 -0.473727 -0.201241 -0.546852 0.162316 -0.151755 -0.0206439 -0.487951 -0.0222692 -0.381732 
69 -0.202805 -0.0499543 0.16673 1.00304 -0.190862 1.00294 -0.583449 -0.537117 1.03979 0.140627 -0.00657967 0.178008 1.52558 -0.114069 0.56632 -0.663867 -0.0740316 0.370352 0.971705 0.306727 0.201416 -0.686307 1.10587 -0.0760663 0.595176 -0.109721 1.57849 0.28421 -0.175731 -0.085864 -1.01021 -0.548129 0.858199 -0.104601 -0.318603 -0.0823696 1.3318 0.304471 -0.0133811 0.697883 0.778702 -0.477768 0.137366 -0.267656 -0.440079 -0.330935 0.618397 0.683238 -1.14263 0.574266 -0.734741 -0.0875797 -0.551076 0.0932978 1.00003 0.103779 -0.67152 0.277135 0.433885 0.204475 1.19659 -0.262639 -0.191084 1.06317 0.292152 -0.111171 0.860821 -1.06643 -1.07041 -0.221561 -0.188286 -0.181762 0.984076 1.32321 0.118388 -0.11763 0.746031 0.336402 -0.0966379 -0.087243 1.76122 0.0632335 0.229227 0.0896693 -0.459024 0.125777 0.0695502 -0.61482 -0.175064 0.497293 -0.45259 -0.99543 -0.571681 -0.194791 0.0682154 0.318721 -0.101053 0.0701407 0.843572 -0.208178 -0.360568 0.0457522 -0.353183 -0.147485 0.640161 0.282616 -0.621797 -0.159261 0.150692 0.333409 0.626229 -0.047485 -0.24495 0.881461 -1.40693 -1.64432 -0.324326 -0.805603 -0.529973 -1.10087 0.181433 0.114995 -0.179201 -1.34036 0.417203 -0.349827 -0.34523 0.568506 
70 0.485511 -0.0211629 -0.252388 0.404077 -0.851379 -0.81552 -0.710339 -1.07868 -0.15424 0.263399 -1.70499 0.831617 0.618675 -0.377432 -0.116216 -1.28111 0.0537359 -0.145511 -0.0128728 0.289553 -0.460664 0.494458 0.956787 -0.312133 -0.442022 -0.361805 -0.0126791 0.656387 -0.510959 0.0892509 0.140344 0.0280071 -0.553706 1.31309 0.0861512 0.237955 0.424937 0.239906 0.0509227 0.728836 0.317064 0.778655 0.343257 0.101256 -0.162851 -0.12464 0.971482 1.19476 -0.842211 0.758212 -0.166994 0.585919 -0.0202194 -0.372624 0.857991 -0.293099 -0.0124621 0.464284 0.886167 -0.216005 1.33742 0.982565 0.320061 0.779042 0.262441 0.021173 0.334703 -0.621237 -0.447732 -0.39301 -0.303552 0.286858 0.0775246 0.0398929 -0.29681 -0.217187 0.692863 0.113049 -0.468539 -0.294984 0.466238 -0.558782 0.0933135 0.682329 -0.267679 -0.262322 0.114462 0.0509059 0.165406 -0.380931 -0.916044 0.0915114 0.152197 0.468807 0.00378096 -0.35318 -0.739508 0.273305 -0.0699737 -0.387749 -0.486809 0.953206 0.568867 -0.282212 -0.203194 -0.197718 -0.233718 -0.0336045 0.101367 -0.663458 0.206123 -0.630709 -0.444607 -0.112035 -0.361137 -0.0367838 -0.892946 -0.183752 -0.569756 -1.17923 0.247531 -0.390243 0.114723 0.181362 0.858179 0.398869 0.118961 -1.14657 
71 -0.00844125 0.313517 0.0767218 0.141677 -0.333959 -0.0979916 0.282344 -0.0610978 -0.736428 0.262575 -0.510543 -0.272485 0.408168 -0.706772 0.405139 -0.117597 -0.241359 -0.0141443 0.0147424 0.639342 -0.287337 0.318924 0.863913 0.640085 0.468821 0.0678095 0.338899 0.807515 0.350062 -0.589002 -0.7137 0.278533 -0.488646 -0.443892 0.134406 0.642039 0.604078 0.687397 -0.00975725 0.906037 0.888803 -0.0555697 0.330221 0.123161 0.272171 0.965554 0.392518 1.12472 -0.0422585 0.157049 -0.320425 0.335959 -0.573215 -0.370735 0.0912268 -0.366419 -0.70048 0.628882 0.0194032 0.0436863 0.0911472 0.0312389 0.249557 0.0379526 -0.362033 0.452029 0.445319 -0.0759129 0.0573293 -0.0784604 -0.565477 0.180592 -0.0729167 -0.248904 -0.415639 -0.241169 0.276161 -0.14408 -0.86872 0.293303 0.664876 -0.243986 -0.118292 0.352257 -0.5837 -0.0149041 0.0867198 -0.066372 -0.555675 0.0457208 -0.679066 0.383342 -0.483229 -0.400023 -0.285555 -0.207792 -0.460416 -0.23177 -0.079501 -0.98146 -0.555064 0.279812 -0.0522143 -0.0554283 -0.0236912 0.139638 -0.759377 -0.384788 0.133757 -0.116185 0.272933 0.0567122 -0.322657 0.173258 -0.672756 -0.366492 0.41683 -0.440464 -0.327754 -1.03669 0.332429 0.232452 -0.216898 0.0778836 0.257475 -0.122992 0.254988 -0.849767 
72 0.0775603 -0.252024 -0.0880608 0.158324 0.155039 -0.678503 0.13531 -0.712217 -0.123008 0.0446328 -0.81882 -0.896719 0.324835 -0.365487 0.137546 -0.725141 0.50775 -0.707879 0.106119 0.0069307 -0.625741 -0.026705 0.193556 -0.0387969 -0.0574366 0.476031 0.593825 0.193931 0.192238 -0.158616 -0.130709 -0.511413 -0.100465 0.486605 0.228011 -0.176401 0.630861 0.0945922 0.301991 0.627057 0.278448 0.289559 0.0365714 0.167725 0.19081 0.304458 0.612321 0.938981 -0.229165 0.144305 0.261622 0.0677964 -0.561902 -0.0844443 0.459952 -0.266115 0.0323747 0.472676 0.565996 0.0834957 0.414849 0.302788 0.295575 0.584695 -0.110661 0.23976 0.267812 -0.53717 -0.21979 -0.171633 -0.354825 0.0415566 -0.199331 -0.413996 -0.262328 -0.392858 -0.0507829 -0.0705601 -0.316319 -0.535778 0.516144 0.396731 -0.234617 0.512058 0.197811 -0.06146 0.141256 0.00220993 -0.00617477 -0.447686 -0.456149 -0.0821294 0.0876567 0.0134064 0.702145 -0.197797 0.200294 0.401819 0.103933 0.934362 -0.20856 -0.169293 0.211 -0.0882964 -0.158691 0.0334802 -0.29249 0.0760677 0.220857 -0.143867 -0.0587113 -0.379391 -0.356013 0.529138 -0.369473 -0.535969 -0.211789 0.413317 0.00258602 -1.05343 0.500635 -0.625785 0.203462 -0.379916 -0.379876 -0.306251 0.0167351 0.0444772 
73 -0.0319307 -0.0345815 0.311776 -0.0178714 -0.0314107 -0.0431969 -0.27701 -0.136165 0.120286 -0.210319 -0.40476 -0.18467 0.386194 -0.388394 0.01716 -0.429017 0.277236 -0.148675 0.0616383 -0.331886 -0.222519 -0.0450239 0.367829 0.495756 0.243159 -0.18995 0.281199 0.0558814 -0.260603 -0.140906 -0.551816 -0.0692684 -0.357729 -0.111022 -0.0583488 0.0158799 0.696642 -0.0156988 0.254373 0.27579 0.524669 -0.0102259 0.0370762 -0.153797 -0.154041 0.0208856 0.54665 0.543095 0.212693 0.279789 0.01202 -0.0063813 -0.439939 0.0879175 -0.167175 -0.486425 0.0874657 0.341079 0.51407 -0.335452 0.494107 -0.0226718 0.0324805 -0.124295 0.230922 0.447681 0.462695 -0.152237 -0.474305 0.0422314 0.422797 -0.24056 0.0580993 0.0599937 -0.375778 -0.071377 0.91162 0.181589 -0.209621 -0.514835 0.161534 -0.340544 0.423164 0.422189 -0.582895 0.217179 -0.0155164 -0.462159 0.0021674 -0.662087 -0.0640792 0.0505981 0.0783694 -0.450655 0.325305 0.00405915 -0.472132 0.121401 -0.00442779 -0.233189 -0.581815 0.00938114 0.207789 0.339937 -0.116815 0.339026 -0.0930433 0.113363 0.347394 0.0599106 0.0672798 0.000766707 -0.687345 -0.20715 0.152731 0.335351 -0.413921 -0.309484 -0.578253 -0.452147 0.34891 0.160812 0.00841678 -0.0165176 -0.141731 -0.115778 0.210724 -0.214649 
74 0.457856 0.0523091 -0.0830405 0.35574 -0.18029 -0.680643 0.104775 -0.452814 -0.281628 -0.132648 -0.427306 -0.127024 0.0709102 -0.277757 0.153194 -0.208793 0.142392 0.153292 0.199553 0.590079 -0.454378 -0.232211 0.300544 -0.341333 0.0419359 -0.273498 0.00353381 0.182231 0.213875 -0.449227 -0.327061 0.299002 -0.312108 -0.176972 0.0139107 -0.373646 0.284608 0.322432 -0.032088 0.25135 0.622671 0.439566 -0.0466635 0.271706 -0.110354 0.240446 0.642696 0.78849 0.126031 0.589607 0.0947133 0.326396 0.0826168 -0.268802 0.207049 0.348664 -0.171775 0.152039 -0.128367 0.209229 0.162908 0.0182991 -0.106748 0.6135 -0.329206 0.162739 -0.363995 0.0340125 -0.445655 0.106024 -0.0555572 0.288873 0.0515789 0.503501 -0.226782 -0.255789 -0.0284841 0.35345 0.0739235 -0.175795 0.749336 0.057645 -0.549771 -0.0713935 0.0373857 0.0703317 0.0944839 -0.235474 -0.417267 -0.300436 -0.549204 -0.239536 0.21515 0.0820579 -0.426997 -0.397143 -0.30654 0.181529 0.0698314 -0.0892625 -0.207225 0.191182 0.200489 0.0479536 -0.0547988 0.258566 0.133127 -0.431311 -0.353511 0.0601661 0.383314 -0.476421 -0.406991 0.482399 0.305157 -0.152815 0.314356 -0.0450489 0.282363 -0.324561 0.254076 0.131629 -0.0229539 -0.487133 -0.0943397 -0.386159 -0.0695389 -0.370002 
75 -0.0257972 -0.324055 -0.241212 0.155791 -0.0913401 -0.592136 -0.274583 -0.607725 0.204069 -0.21892 -0.835385 0.573789 0.621138 -0.120216 0.71328 -1.41647 -0.326369 0.131423 0.650567 0.885465 -0.0632557 0.153812 0.412468 0.0421626 -0.246198 -0.157563 0.766022 0.65312 -0.411759 -0.0285637 0.284463 -0.101183 -0.447263 1.06293 0.121778 0.194465 0.452961 0.279809 -0.360828 0.0795379 0.384316 0.389531 -0.0568151 -0.0192907 -0.149323 -0.0282054 1.11986 0.995945 -0.666172 0.252206 -0.251687 0.377145 0.00650797 -0.10679 0.469428 -0.687527 -0.148381 0.0156608 0.603758 -0.123786 0.834119 0.561508 -0.0564318 0.645938 0.327793 -0.204282 -0.0994977 -0.334583 -0.410563 -0.177763 -0.067423 0.18798 0.0431263 -0.257023 -0.600832 -0.126353 0.742913 -0.0274966 0.119674 -0.229516 0.262826 -0.000470699 0.116156 -0.0202523 0.0552267 0.395717 -0.136334 -0.23738 -0.0425094 -0.60891 -0.655738 -0.49381 0.136076 0.646573 -0.314598 -0.286968 -0.500901 0.182839 -0.0480895 0.357657 -0.684664 0.923093 0.11177 -0.871485 -0.0237909 0.154551 -0.359053 -0.223805 -0.138052 -0.598989 0.297481 -0.7013 -0.627393 0.385634 -0.557408 -0.484654 -0.12825 -0.295601 -0.798032 -1.61114 0.089435 -0.194154 -0.0848714 -0.29603 0.307569 -0.263729 0.213793 -0.951608 
76 0.111329 -0.253575 -0.0539821 0.152671 0.179895 -0.655908 0.129971 -0.711089 -0.0914893 0.00606779 -0.782253 -0.851915 0.330522 -0.348059 0.0905862 -0.766553 0.503706 -0.673857 0.0986732 0.0446308 -0.637318 -0.0553362 0.222226 -0.0817889 -0.0776187 0.485295 0.587921 0.178098 0.173855 -0.123073 -0.095183 -0.523721 -0.0890043 0.491595 0.233984 -0.236166 0.674143 0.0836566 0.310618 0.653315 0.244581 0.328571 0.0434632 0.217482 0.224452 0.335475 0.545885 0.939338 -0.233284 0.170704 0.247838 0.0779742 -0.594294 -0.0668707 0.451396 -0.212778 0.0149447 0.445812 0.545993 0.0907101 0.382546 0.358407 0.270666 0.619331 -0.0685935 0.2497 0.237799 -0.549684 -0.238882 -0.158613 -0.338543 0.0454918 -0.224103 -0.416027 -0.265583 -0.426062 -0.0947753 -0.0937827 -0.301617 -0.55122 0.51879 0.345416 -0.219127 0.517865 0.199897 -0.0626977 0.120956 0.024821 0.00431148 -0.423764 -0.487461 -0.133275 0.0451498 0.0308071 0.762757 -0.200224 0.242111 0.401741 0.10838 0.925122 -0.183072 -0.206888 0.192856 -0.0364382 -0.173584 0.0171052 -0.274856 0.0572416 0.188319 -0.149624 -0.0290898 -0.405075 -0.353125 0.566375 -0.411922 -0.523189 -0.203334 0.439486 0.0271094 -1.06918 0.471466 -0.592561 0.247442 -0.379863 -0.367217 -0.27722 0.0413277 0.062505 
77 0.192002 0.318122 0.438153 0.499071 -0.479745 -0.670084 0.065013 -1.20161 0.242774 0.131516 -1.43796 -0.595934 -0.133774 -0.285293 0.0764722 -0.553383 0.688451 -0.0538696 -0.118529 0.440925 -0.695954 0.83029 1.00284 -0.0464736 -0.114977 0.63674 0.598522 0.353882 0.368821 -0.106267 -0.577598 -0.609396 -0.105431 1.14135 0.338458 -0.0967945 0.764496 0.246649 0.129766 0.38412 0.570592 0.87449 -0.562148 0.262732 -0.25823 0.329732 0.910162 1.18576 -0.383109 0.0182889 0.379982 -0.174124 -0.687698 0.142057 0.522533 -0.0313781 -0.865911 0.671744 0.587172 -0.672909 0.316047 0.589032 0.806894 0.0506712 -0.459988 0.660804 0.442811 -0.734021 -0.76632 -0.367373 -0.728178 0.226064 0.0925345 0.449841 -0.421221 -0.202455 0.323683 0.0164708 -0.394393 -0.398231 0.440435 -0.508523 0.108621 0.288978 0.216578 -0.441509 -0.0627 -0.382871 -0.118338 0.181202 -0.480544 -0.182841 0.333007 -0.175945 0.7917 -0.132495 -0.378305 0.288203 0.221837 -0.27409 -0.73561 -0.0195412 0.121198 0.173521 0.109685 0.30106 -0.841766 -0.125989 0.2493 -0.692403 0.0862473 -1.30807 -0.412296 0.377291 -0.660477 0.0956093 -0.60471 -0.142168 0.27761 -0.992209 0.159896 -0.155784 -0.0829852 -1.2171 -0.474574 -0.00692674 0.00595218 -0.168101 
78 -0.0919165 -0.283695 0.119905 -0.00224386 0.0914829 0.445918 -0.527115 -0.255748 0.367116 1.43881 -0.572183 0.361478 0.156929 -0.200982 0.863532 -0.574124 0.378747 0.149156 0.567232 0.521277 0.083126 -0.298592 1.22573 0.312498 0.168231 -0.43043 0.911908 0.726605 0.394785 0.103334 -0.760342 -0.287552 0.685754 0.323332 -0.35901 -0.381142 1.43471 1.00865 -0.0118508 -0.0394167 0.218257 0.277167 0.504714 0.615619 -0.29343 -0.601519 0.945499 0.863039 -0.118071 1.17372 -0.0799673 -0.357314 -0.551345 -0.511834 0.905702 -0.613336 -0.361071 0.452728 0.527115 0.113851 0.776463 0.282458 -0.0196819 0.211004 0.0224632 0.323987 0.159214 -0.493382 -0.25533 -0.193492 -0.358075 -0.0332462 0.777285 0.0713837 -0.576146 -0.136458 0.264788 -0.303714 0.169211 -0.484886 1.02343 -0.0452598 -0.196199 0.0356329 -0.995499 0.472771 0.663727 -0.487151 -0.505997 -1.25124 -1.01796 -0.334056 -0.463897 -0.687667 0.311285 -0.121742 -0.501813 -0.0499058 0.985559 0.54345 -0.777172 -0.136124 -0.982875 -0.667017 0.256889 -0.212992 -1.31861 -0.141107 0.104617 -0.0533516 0.976786 -0.599829 -0.165013 0.386737 -0.513053 -0.365384 -0.871657 0.393488 0.150452 -0.652604 0.15158 0.0645778 -0.474305 -0.300282 -0.0991508 -0.267405 -0.112089 0.266378 
79 -0.273957 0.405358 0.187292 0.135801 -0.112731 -0.145852 0.396345 -0.209457 0.0249757 -0.189747 -0.195028 -0.736116 0.269333 -0.785231 0.662317 -0.751728 -1.06571 0.171715 0.0934132 0.576167 -0.347631 -0.100273 0.122328 1.13629 0.925473 0.199932 0.877268 1.37915 -0.155322 -0.253818 -0.479312 0.173437 0.0184575 0.526218 0.449564 -0.655899 1.96134 1.09942 -0.11815 -0.0696956 0.441732 0.475612 0.612551 0.178366 -0.251767 0.100682 1.21898 0.677921 -0.579173 0.702984 0.390837 0.958887 0.276894 -1.06525 -0.351999 -0.762289 -0.568129 -0.352772 0.138647 0.017487 0.117734 0.58854 0.136895 0.638012 0.286022 -0.156512 0.316658 -0.998527 -0.421952 0.271342 -0.0851794 -0.920999 0.778441 -0.488638 0.341358 -1.23558 0.50378 -0.340912 0.264965 -0.53964 1.34877 -0.013167 -0.968264 -0.350074 0.52528 1.09509 -0.100339 -0.752682 -0.932824 0.117683 -0.853297 0.006568 0.334218 0.450922 0.515497 -1.62792 -1.0123 -0.461364 1.32972 0.609123 -1.05161 -0.19135 -0.363337 0.77591 0.543516 0.58543 -0.475278 -0.0759472 0.0672317 -0.149821 0.48686 -0.702052 -1.14632 1.07787 -0.640161 0.0227771 -0.225135 -0.467606 -0.307337 -0.668703 0.28886 0.228959 -0.100574 -0.132273 0.0960526 -0.402458 0.506667 -0.455186 
80 0.220818 0.35318 -0.0470871 -0.117724 0.213642 -0.185871 0.0957689 -0.715117 -0.311587 0.372931 -0.952024 0.038715 0.130024 -0.460727 0.264601 -0.194831 0.254752 0.170056 0.306032 0.327757 -0.501034 0.232145 -0.0966674 -0.136925 0.467575 0.14818 0.50584 -0.0158295 0.184686 0.297012 -0.760973 0.538598 -0.361837 0.480109 0.193638 -0.437254 0.46179 0.661965 -0.403021 0.871202 0.743315 -0.0930796 -0.452723 -0.152029 -0.0705282 0.485232 0.791563 0.0269923 -0.370131 -0.168842 0.43622 -0.0895495 -0.195902 -0.380493 0.309255 0.170801 -0.142633 0.588017 -0.0803039 -0.362794 0.587781 0.59405 -0.0813101 0.323662 -0.157196 0.917672 0.303871 -0.11621 -1.0567 0.29882 0.0483494 0.0193634 -0.0950812 0.482658 -0.408415 -0.329893 0.0415525 0.212558 -0.35718 -0.103581 0.388809 -0.328018 -0.194826 0.711361 -0.241695 0.228589 0.838104 -0.59711 -0.619811 -0.696599 -1.02482 0.0315392 0.488454 -0.309898 0.0207494 0.313027 0.336024 -0.638712 -0.102404 -0.0579487 -0.821539 0.212794 0.313325 -0.462224 -0.26533 -0.155818 -0.736839 -1.13859 0.369463 -0.495125 0.492632 -0.100515 -0.422291 -0.132071 -0.616159 -0.319271 -0.459542 -0.267229 -0.506076 -0.765993 0.541975 -0.0748356 -0.0740771 0.29288 -0.414965 -0.0750918 0.283499 -0.647538 
