3312 128
0 -0.556003 -0.472372 -0.681435 0.239154 -0.0858413 -0.798494 -1.19697 -0.940594 -0.37203 -0.153527 -0.993058 0.371431 0.862089 -0.0657333 0.235906 -0.108383 -0.298509 -0.671856 0.686314 -0.318475 0.453949 0.693605 0.682275 0.401752 0.417701 -0.463657 0.540834 0.331661 1.00329 -0.332895 -0.213091 0.529373 -1.12575 0.226749 0.0208807 -0.153462 1.2119 0.429324 -0.347452 0.742722 0.0124822 0.313477 0.221992 0.45812 0.404013 0.0611509 0.592834 1.34204 -0.281051 0.670772 -0.163174 0.00426486 -0.415426 -0.726053 1.01025 0.3786 0.0521172 0.290716 0.28272 -0.162934 0.346283 0.00600722 0.57684 0.917056 0.414564 0.210773 -0.0217426 -0.485363 -1.14653 0.6033 0.142824 -0.619801 0.0721204 -0.173388 -0.426867 0.5578 0.338517 0.587705 -0.0866394 0.334925 0.257966 -0.932841 0.651074 0.362034 -0.079632 0.621275 0.0228531 -0.0981442 -1.57303 -0.553581 -0.389217 -0.0432724 -0.235075 0.501794 0.176386 -0.0304025 0.0490555 -0.622239 0.165053 0.17829 -0.462116 0.28824 -0.24867 -0.237934 0.263219 0.258933 0.0368469 0.611965 0.66054 -0.669983 -0.396485 -1.33476 -0.369529 0.504396 -0.25609 0.167181 -0.481849 0.251719 -0.676543 -1.16614 0.1872 -0.0563987 -0.14087 -0.538705 0.107526 -0.563604 0.270902 -0.658345 
1 -0.178246 -0.300563 -0.12158 0.156499 0.202252 0.065938 0.393196 -0.0883684 0.0350462 0.346522 -0.365814 0.16719 -0.00891447 0.0583433 0.834459 0.1266 0.203699 -0.305952 0.107792 0.14891 -0.47696 -1.14468 0.941778 -0.0744794 0.613538 -0.285828 0.673908 0.696976 -0.0764432 0.0124375 -1.00096 0.0607082 1.18863 -0.418763 0.257052 -0.0219097 0.79022 0.377211 0.0333175 -0.532773 0.0270192 0.0563912 0.663718 0.720413 -0.598308 -0.151516 1.15913 1.22845 -0.618739 0.732748 -0.233591 -0.958914 -0.465398 0.380643 0.741825 -0.657921 -0.849091 0.595832 -0.0122391 0.501724 0.5931 0.273907 -0.0707073 0.799671 -0.0477855 -0.355375 -0.11071 -0.198892 -0.307471 -0.0354553 -0.205543 -0.311014 0.831803 -0.550614 -1.10138 0.0908707 0.405985 -0.0942667 0.597516 -0.506564 0.955442 -0.181927 -0.250572 0.227547 -0.772347 0.462705 0.510161 -0.843317 -0.122004 -0.973275 -1.57934 -0.0562256 -0.47918 -0.910511 0.053209 -0.0188246 0.286592 -0.552911 1.45527 0.291768 -0.902062 0.0169432 -0.752308 -0.523292 -0.000937244 0.0162035 -1.43836 0.327626 0.314581 -0.380662 1.14061 -0.321255 0.0781912 0.254801 0.583785 -0.297027 -0.505716 -0.0431946 -0.055159 -1.29414 0.665961 0.394781 -0.113765 -0.33544 -0.0584261 0.265717 -0.00867775 0.55616 
2 0.377643 0.067265 0.276462 -0.0154767 -0.227948 -0.572527 -0.0484966 -0.414616 -0.116684 -0.296195 -0.600168 -0.31028 0.123153 -0.0571504 0.037139 -0.327815 -0.157041 -0.476921 -0.0776665 0.194059 -0.682671 0.313265 0.147036 0.0622575 -0.0450908 -0.194917 0.26192 0.132602 -0.246314 -0.292908 -0.0729659 -0.358721 -0.124529 0.174026 0.00678643 -0.220862 0.131126 0.334243 -0.0617409 0.114865 0.455646 0.310691 -0.11832 0.0206192 -0.424711 0.459371 0.813553 0.358156 -0.203237 0.212527 -0.144779 0.416771 -0.620263 0.253907 0.191711 -0.51226 -0.601957 -0.225787 0.129073 0.0247479 -0.122185 0.524675 0.250879 -0.0629925 0.148749 0.283503 0.0689813 -0.0991516 -0.169743 -0.00131975 0.265361 -0.535472 0.0935975 0.159848 -0.267339 -0.587793 0.272804 0.108671 -0.377202 -0.523669 0.437892 -0.583881 -0.191337 0.122931 0.316263 0.448744 0.296912 -0.16097 -0.12429 -0.463345 -0.344983 0.0269296 -0.043888 0.173137 -0.100945 0.0616294 -0.163015 -0.134101 -0.162193 -0.199078 -0.439756 -0.315325 0.12769 -0.303347 0.32058 0.334175 -0.459187 -0.467427 0.0744397 -0.260305 0.20992 -0.232398 -0.402072 0.524389 0.0836168 0.246891 -0.086582 0.102123 -0.594007 -0.424903 0.124147 0.445463 0.105246 -0.28727 -0.129852 -0.16375 0.318974 -0.241162 
3 0.49309 0.0873189 -0.230524 0.0837528 -0.0164751 -0.287191 -0.325245 -0.713902 -0.555331 0.966661 -0.448587 -0.180092 0.590464 0.322787 0.0584228 -0.877544 0.361644 -0.0718147 0.087516 0.55188 0.0295948 -0.163904 0.222638 0.178971 0.48123 -0.534855 0.999914 0.503801 0.438782 -0.129042 0.0634623 0.189087 0.248766 0.45723 -0.527864 0.0810921 0.358707 0.208436 -0.278472 0.433814 0.00618209 -0.040614 0.266207 0.557793 -0.0700245 0.637711 0.99872 1.21034 -0.305272 0.409435 0.355079 -0.38043 -0.0431924 0.109688 0.281696 -0.020264 -0.320112 0.257275 0.700456 0.10252 0.360534 0.397958 -0.290025 0.0546513 0.147357 0.188054 0.150102 -0.159016 -0.158022 -0.178499 -0.486391 -0.102322 0.186463 0.252467 -0.258747 0.0704143 0.159706 -0.108216 0.0389669 -0.208987 -0.128217 -0.26301 -0.431109 0.304742 -0.14628 -0.0240451 0.0260309 -0.190931 -0.0543536 -0.620959 -0.38715 -0.281406 0.0372892 -0.140423 0.469042 0.490348 -0.791007 0.0420028 0.57583 -0.110488 -0.605866 0.182002 -0.355663 0.285411 0.703824 0.268961 -0.870767 0.182725 -0.261471 -0.336562 0.246239 -0.354103 -0.155711 0.31813 0.15974 -0.119595 -0.189097 -0.114385 -0.751055 -0.653521 0.487731 -0.0408404 -0.0630568 -0.5961 -0.0390572 -0.222724 -0.433853 -0.118566 
4 -0.133989 0.005587 -0.196267 0.22563 0.327571 -0.385717 -0.0689319 -0.21622 -0.493724 0.174329 -0.366416 -0.135823 0.679206 -0.012476 -0.207508 -0.310515 0.434926 0.0112887 0.464504 0.252334 0.0845431 0.185607 0.359969 0.700879 0.651611 -0.0647592 0.00688656 0.913153 0.346175 0.0924945 -0.677967 0.0296039 -0.172487 -0.0417246 -0.113341 0.62897 0.325785 0.471179 0.197663 0.519878 0.375207 0.211251 0.286069 -0.153253 0.0138972 0.139314 0.480208 0.970583 0.273558 0.646261 -0.0942815 -0.108379 -0.216062 -0.315143 0.428657 -0.0739166 -0.382487 -0.26273 0.0424964 -0.219207 0.470013 0.178532 0.444267 0.422764 -0.274849 0.456499 0.0856463 -0.0985675 -0.281144 0.22965 0.0370736 -0.118331 -0.0617856 0.0867436 -0.554806 0.286155 0.274449 0.177976 -0.177176 -0.261043 0.454995 -0.237603 0.0761501 0.0899399 -0.38078 -0.00596392 0.608229 -0.35709 -0.404097 -0.30467 -0.575408 -0.378434 0.199182 0.215449 -0.0619863 -0.219585 -0.518776 -0.497187 0.132264 -0.0300429 -0.199128 0.480689 -0.0805848 -0.0988189 0.43943 0.144993 -0.370809 -0.0860201 0.622605 -0.235206 0.209452 -0.640583 -0.248933 0.0125394 -0.568018 0.217142 0.35215 0.046655 -0.389942 -0.799821 -0.114455 -0.176744 0.248008 -0.150874 -0.627213 -0.489238 -0.102435 -0.620366 
5 -0.4056 -0.157719 0.118125 0.247237 0.274599 -0.763709 -0.147566 -1.21872 0.10654 0.189012 -1.36137 -0.73394 -0.258709 -0.483444 -0.0450899 -0.258477 0.782052 -0.193394 0.181636 0.329684 -0.924773 0.471774 0.929872 0.0165023 0.0376332 0.454266 0.879819 0.503903 0.145064 -0.135883 -0.581834 -0.199756 0.0992076 0.56997 -0.107911 -0.0895936 0.839845 0.130948 0.336042 0.180646 0.328526 0.684403 -0.373475 0.219989 -0.188283 0.225416 0.647476 1.37384 -0.385209 0.177138 0.42029 0.0437431 -0.717635 0.121308 0.680611 -0.240196 -0.998809 0.585639 0.826687 -0.671539 0.515828 0.357856 0.56102 0.083872 -0.574886 0.926578 0.731096 -0.884576 -0.645471 -0.766043 -0.83964 0.327327 -0.21445 0.23361 -0.554344 -0.49132 0.317173 -0.0292337 -0.327567 -0.583898 0.361992 -0.538158 -0.173454 0.386645 0.290928 -0.139547 0.218624 -0.00722791 -0.492742 0.0926611 -0.577882 -0.214907 0.170772 -0.363107 1.12149 -0.250622 0.0280537 0.353106 0.53011 -0.395069 -0.462363 0.0972525 0.192195 0.328211 0.207414 -0.14445 -0.729152 -0.360209 0.0350335 -0.622363 -0.180014 -1.30575 -0.114384 0.399216 -0.785272 -0.256693 -0.403893 -0.19694 0.144028 -1.20033 0.0818536 -0.345263 -0.306683 -0.829275 -0.115489 0.00416848 0.0937421 -0.159022 
6 0.104972 0.125406 0.187275 0.447196 -0.064822 -0.889946 -0.0291223 0.0328863 0.402106 0.757252 -1.32952 -0.134917 -0.147297 -0.26351 0.882947 -1.00103 0.026604 -0.25101 -0.452849 0.45731 -0.705499 0.0719424 0.41168 -0.215826 0.673482 -0.229551 1.00269 -0.0823364 0.73103 -0.098317 -0.44855 -0.110915 -0.19029 1.0705 0.41325 -0.173975 0.855303 0.0497765 -0.174891 0.155252 0.231293 0.253788 0.477514 0.312482 0.921725 -0.0727054 1.19286 0.87447 -0.699518 0.414256 0.585575 0.876082 0.266307 -0.113257 0.210492 -0.620414 0.0429822 -0.505531 0.44913 -0.261527 1.02109 -0.114333 -0.674506 0.719287 -0.0548538 0.21076 -0.239016 -0.141817 -0.597252 0.511617 -0.403149 -0.340453 0.274317 0.204312 -0.611801 -0.321317 0.263465 0.676678 -0.424675 -0.510543 -0.0554767 -0.0661467 -0.178562 0.503808 -0.32506 -0.226698 0.823082 -0.733995 0.0844998 -0.881268 0.112898 -0.497934 0.259625 0.108339 0.300596 -0.12037 -0.677962 0.349203 0.778092 0.0911541 -0.377452 -0.33802 -0.0641611 -0.388142 -0.360905 0.153794 -0.589991 0.143524 -0.245899 -0.030496 -0.12126 -0.969437 0.0937505 1.02652 -0.045813 0.205086 -0.78349 -0.555729 -0.410114 -1.24629 -0.235236 -0.411004 0.245979 -0.257532 -0.554268 -0.914697 -0.113298 -0.440146 
7 0.217083 0.131864 -0.81977 0.352653 -0.497519 -0.0483918 0.368683 0.0104773 0.0887146 -0.0480861 0.84902 -0.525065 0.700107 -0.265569 0.601479 -0.655103 0.717414 0.0031971 0.0324748 0.555266 -1.27751 -0.469646 0.239782 -0.00493003 -0.189638 0.126011 1.06338 -0.159753 0.0986581 0.443083 -0.415645 0.423256 0.499932 0.045471 0.71703 -0.121479 0.61339 -0.235024 -0.46708 0.274411 1.11329 0.588315 0.352784 -0.383741 0.219684 0.455534 0.212563 1.11871 -1.35125 -1.07666 -0.377094 -0.216726 -0.239015 0.297412 0.10052 -0.67877 -0.654977 0.688819 0.839283 0.376022 -0.857624 -0.191327 0.540164 0.423601 -0.287506 0.30245 0.568935 0.639201 -0.993665 0.870681 -0.00138969 -0.750887 0.128857 0.460823 -0.4774 -0.454202 0.055744 -0.0629709 0.410479 -0.374289 0.846265 0.256192 -0.188433 -0.287869 0.120101 -0.389679 0.0658768 0.0780315 -0.0890136 -0.440211 -0.818207 -1.13252 -0.62379 -0.233128 0.0454373 -0.141708 0.180697 0.0374344 0.387874 0.393965 -0.165066 -0.244278 0.158943 0.00563608 -0.0957871 0.278163 -0.0729332 0.865993 0.993923 -0.412211 0.0680081 0.0867716 -0.0950238 0.343394 0.206339 -0.0223256 0.241081 -1.55724 0.126967 -0.490585 0.361365 0.666987 -0.425534 -0.299911 -0.215286 -0.469394 0.496039 -1.11521 
8 -0.178613 -0.00107426 0.642737 0.231083 -0.097349 -0.456137 -0.0695383 -1.15693 0.000749384 0.198396 -0.535128 -0.546095 0.738577 0.0975402 0.286934 0.135679 0.653382 -0.633712 0.242815 0.292712 -1.02425 0.130051 0.682503 -0.0190023 0.130985 -0.409859 0.457668 0.165437 0.201208 -0.571975 -0.043198 0.223515 -0.754783 0.579655 0.589937 -0.111156 1.08164 0.447673 -0.279106 0.456971 0.231339 0.530369 0.0601799 0.230366 0.309643 0.0713961 0.638387 0.705412 -0.220456 0.756835 0.239033 0.0278566 -0.52675 -0.148686 0.693367 -0.437757 0.140933 0.0169024 0.324144 0.215104 0.586083 -0.290336 -0.0186987 0.614154 0.187496 0.228294 0.260442 -0.0146019 -0.803214 0.543782 0.501344 -0.413063 0.148373 -0.382343 -0.10362 -0.432763 1.30876 0.677307 0.188571 0.0275 0.127864 -0.318362 -0.0675542 -0.221939 0.121824 0.0858411 0.181944 0.298538 -0.826472 -0.613391 -0.691149 -0.143437 0.132784 -0.294245 -0.019123 -0.301776 -0.502162 0.0357681 0.288147 -0.555198 -0.00647442 0.222621 0.135367 -0.0129885 -0.385361 -0.181999 -0.642005 -0.140501 0.434841 -0.361368 -0.18978 -0.787354 -0.357734 0.566093 -0.473429 0.290709 0.164835 -0.012867 -0.233671 -0.758607 -0.287863 0.217591 0.157023 -0.211875 -0.592672 -0.699095 0.0503805 -0.822569 
9 0.251179 -0.425241 0.141726 0.21508 -0.87188 -0.979747 -0.390744 -1.02071 -0.61366 0.283364 -0.424374 0.321563 0.323014 -0.615071 0.0832032 0.176737 -0.215061 -0.462586 0.380906 0.735853 -0.0105116 0.204046 0.697714 0.133986 -0.0323706 -0.325049 0.403292 0.272799 1.04082 -0.487457 -0.865874 0.291259 -0.478168 0.0876282 0.311022 0.00149721 1.12231 -0.101165 0.258498 0.600059 0.591176 -0.302549 0.240563 0.521487 -0.0295747 0.481961 0.75859 0.94977 -0.63226 -0.219 -0.511479 0.831259 -0.590596 -1.10924 0.190422 0.3627 -1.0044 0.334791 1.13274 -0.31693 0.255026 -0.200294 0.258605 -0.292595 0.0358569 0.189612 0.296218 -0.422862 -0.401031 0.350262 -0.23777 -0.504629 -0.145792 0.160654 -0.206446 0.782046 0.502835 0.499654 -0.538239 -0.42315 -0.115726 -0.388193 -0.511161 1.28458 -0.104721 0.348675 0.173794 -0.917525 -0.159577 -0.870462 -0.238795 0.461642 -0.629738 -0.0432447 0.126594 -0.291203 -0.547581 -0.447965 -0.336432 -0.323828 -0.624286 -0.185922 0.332909 -0.380685 0.165583 0.257782 -0.519825 0.266868 -0.00186464 -0.653703 -0.374917 0.21616 -0.66238 0.419975 0.00164498 0.509583 -0.232197 -0.357112 -0.0792126 -0.737102 0.575548 -0.331079 -0.199499 -0.758824 -0.394955 0.00367405 -0.245335 -0.53093 
10 -0.275627 0.742006 -0.840511 0.604742 0.0608207 -0.324368 0.534542 -0.083464 0.0706192 -0.119688 0.394862 -0.572961 0.435558 0.171454 0.921882 -0.806046 0.130476 -0.181225 0.135936 0.759506 -1.06573 -0.104471 -0.152055 0.177731 0.0133601 0.199433 0.771145 0.0787043 -0.111137 0.311146 -0.28901 0.241085 0.446998 0.59955 -0.115386 -0.285902 0.0188935 -0.560027 0.0905004 -0.152726 0.642627 0.631913 0.483258 0.144344 -0.0167266 0.334808 -0.0808266 0.794096 -0.29798 -0.325867 0.574419 0.215829 -0.442052 -0.0346227 0.0171707 -0.77256 -0.566133 0.350179 0.543042 0.221209 -0.355236 0.169914 0.476027 1.29471 0.00898896 0.482328 -0.0556894 0.489576 -0.456268 0.483456 0.322496 -0.414847 0.449215 0.126724 -0.584721 -0.410691 0.60322 0.633207 0.425684 -0.222368 0.936673 -0.0147293 -0.357172 -0.0106242 -0.0972378 -0.463882 -0.200767 0.395771 0.041315 -0.123636 -1.16828 -0.292427 -0.198765 -0.413617 -0.000322655 0.0379687 -0.0580118 -0.16206 0.37618 0.172139 -1.20037 -0.187319 -0.167823 -0.584122 0.112629 0.258408 0.00373167 0.368689 0.774136 0.0574179 0.340742 -0.0755805 -0.275808 0.538678 0.0253244 -0.32662 0.0437338 -0.597304 -1.04417 -0.832314 0.135043 -0.0808423 -0.648336 -0.378355 -0.412649 -0.16685 0.0346042 -0.767158 
11 0.541957 -0.146839 0.362778 0.384756 -0.565158 -0.292363 -0.188422 -0.648034 -1.16026 0.303343 -0.209218 -0.0989137 0.706394 -0.437124 0.192088 -0.212471 0.071585 -0.551377 0.0278746 0.842429 -0.311523 0.308219 0.0814757 0.398164 -0.127263 -0.75325 0.184531 0.419057 0.481839 -0.0811678 -0.235558 0.147484 0.0643598 0.28592 0.506335 0.0751401 0.441084 -0.0142183 0.0220018 0.000808335 1.01995 -0.0931183 0.183708 0.302241 0.0327462 0.447421 0.392071 1.00916 -0.206121 -0.0146806 -0.448075 0.366562 -0.361112 -0.173023 -0.118947 0.269193 -0.967398 0.645862 0.255057 -0.048059 0.358925 0.00518181 -0.305064 -0.286722 0.0311492 0.171843 0.242116 -0.335608 0.196338 0.126588 -0.720129 -0.104921 0.167721 0.351096 -0.719197 0.30526 0.365286 0.218412 -0.258033 0.0943093 0.634849 -0.0799507 -0.616401 0.864117 -0.179318 0.0711511 -0.0294565 -0.524034 -0.329967 -0.312061 -0.329137 0.0344125 -0.553985 -0.305304 0.17624 -0.602999 -1.18808 -0.262559 0.00885038 -0.492482 -0.194822 -0.120119 0.67027 -0.130952 0.337433 0.546664 -0.416368 -0.0609032 -0.0160062 -0.476634 0.0382413 0.0783586 -0.573529 0.538102 -0.400964 -0.240873 -0.115982 -0.376906 -0.506592 -0.660513 0.563356 -0.449964 -0.267915 -0.220032 0.144203 0.084362 -0.574576 -0.429601 
12 0.489462 -0.0300879 0.113351 -0.511414 -0.319694 0.112932 -0.363771 -0.169334 0.358065 0.607413 0.0552393 -0.509768 0.483313 -0.117409 0.882539 -0.449553 -0.538658 0.308693 -0.35758 0.28601 -0.167035 -0.0769516 0.309072 -0.250063 0.234569 -0.0145194 0.320705 0.330501 -0.213473 -0.351366 -0.228481 0.0992283 -0.217712 0.585547 0.166783 -0.597429 1.13715 0.618947 0.0273844 0.782709 0.355557 -0.252687 -0.049306 -0.115166 0.268734 -0.182084 1.18427 0.760111 -0.404668 0.674858 -0.324465 0.627207 -0.652056 0.11075 0.140823 0.0530067 -0.371029 0.130655 0.61438 -0.0583319 0.152797 -0.211954 1.11245 0.583523 0.344775 0.123117 0.631051 -0.165836 -0.0377971 0.288711 -0.438624 -0.104101 0.737097 0.326554 -0.485245 0.202593 0.82477 -0.304551 0.220811 -0.234525 0.0222891 0.474962 0.0979251 0.601629 -0.190216 -0.110327 0.500931 -0.706424 0.401754 -0.317604 -0.909809 -0.636101 -0.31601 0.0421405 0.0858457 -0.296842 -0.155249 -0.0241075 0.431428 0.100403 -0.266396 0.490952 -0.00317608 -0.0365897 0.420139 -0.310576 0.179574 0.0932389 0.629973 -0.471528 0.127993 -0.172072 -0.499935 0.964336 -0.5213 -0.0226404 -0.508675 -0.716025 -0.0607103 -0.671218 0.314861 -0.200639 -0.525875 0.368287 0.430195 0.329705 0.182573 -0.294555 
13 -0.256156 -0.209998 -0.221588 0.0520699 -0.0427344 -0.22938 -0.507628 -0.174695 -0.156752 -0.049062 -0.489874 0.164749 0.169233 0.0943486 0.26021 -0.539083 -0.26488 -0.242238 0.3087 0.0215295 -0.0811028 0.432411 0.297127 0.0967565 0.473094 -0.211772 0.302025 0.299856 0.231057 0.276305 -0.0902187 0.346772 -0.433502 0.531506 0.32427 0.17744 0.471092 0.280888 -0.0271651 0.0749659 0.253122 0.376513 -0.167097 0.172722 0.355365 0.085008 0.616037 0.538973 0.035168 0.461856 -0.128524 0.302517 -0.136488 -0.330519 0.325403 -0.0171988 -0.282982 0.440232 0.125629 -0.197164 0.389997 -0.0291159 0.242233 0.372606 0.187561 0.181864 -0.00565798 -0.114899 -0.605011 0.369987 0.156403 0.226376 -0.208764 0.112268 -0.235608 0.188463 0.410882 -0.0832154 0.0123672 0.0713045 0.16262 -0.35859 0.393682 0.381419 0.0562779 0.326497 -0.153044 -0.18035 -0.62984 -0.251958 -0.165924 0.0567423 0.100191 0.376347 -0.562303 0.278626 0.132323 -0.0494095 -0.052699 -0.125067 -0.395798 0.0836191 0.165878 -0.463441 0.154601 0.29529 -0.358773 0.232161 0.568387 -0.676911 0.212866 -0.515374 -0.27563 0.470154 -0.241912 -0.104871 -0.452407 -0.15461 -0.266414 -0.73936 0.419375 -0.229879 -0.249372 -0.28771 0.0958043 -0.358557 0.413695 -0.410218 
14 0.151251 -0.127341 0.941491 0.280507 -0.029514 -0.550506 -0.0170581 -1.04069 -0.0544374 0.226699 -0.837939 -0.505709 1.01161 0.199716 0.0578787 -0.0298155 0.818324 -0.622485 0.341095 0.269173 -0.957037 0.17675 0.741544 -0.229426 0.201997 -0.243389 0.620128 0.279765 0.0360358 -0.473057 -0.0155147 0.570037 -0.599169 0.655633 0.363099 -0.25173 0.778093 0.54481 -0.527063 0.52518 0.497502 0.653763 -0.119765 0.238608 0.124585 0.145714 0.648368 0.613879 -0.218969 0.636201 0.326855 -0.0775784 -0.491434 -0.130015 0.697887 -0.202651 0.14861 -0.0024297 0.196854 0.0785714 0.320391 -0.194205 0.0518319 0.729368 0.117415 0.215781 0.506633 0.186597 -0.904439 0.491501 0.384295 -0.0431868 0.208072 -0.459372 0.0697936 -0.527743 1.24231 0.829717 -0.278977 0.0679636 0.107654 -0.198067 -0.335566 -0.0618275 0.203893 0.517572 -0.0489853 0.226149 -0.87356 -0.726024 -0.794626 -0.19403 0.246388 -0.241105 -0.102454 -0.573797 -0.574872 -0.232697 0.289903 -0.591508 -0.112636 0.203842 -0.197364 -0.0476351 -0.557125 -0.106797 -0.405206 0.0367247 0.349027 -0.341963 0.193345 -0.836451 -0.462231 0.529574 -0.446647 0.439444 -0.110974 -0.24896 0.0251271 -0.442785 -0.317275 0.187441 0.164466 -0.100287 -0.407658 -0.945698 -0.244287 -0.683475 
15 -0.336459 0.547404 -0.79887 0.468058 -0.0175175 -0.0896096 0.525447 -0.0892868 -0.0834205 -0.147684 0.456733 -0.492995 0.480921 -0.023579 0.885009 -0.961831 0.00748136 -0.385379 -0.041606 0.674263 -0.979773 -0.158545 0.0329086 0.162721 0.0255115 0.144133 0.836883 -0.0150488 -0.0678633 0.377574 -0.0635754 0.223029 0.396518 0.584141 -0.141872 -0.167633 0.246386 -0.422242 -0.056167 -0.36288 0.810787 0.518466 0.316373 0.25109 0.0830266 0.277081 0.137463 0.850643 -0.465053 -0.352151 0.312873 0.333238 -0.384287 0.225434 -0.0395715 -0.758567 -0.319117 0.500051 0.648894 0.0972067 -0.467867 -0.0501193 0.548664 1.08376 -0.207504 0.298069 0.280564 0.346508 -0.547671 0.565463 0.0547629 -0.475514 0.095701 0.228013 -0.426038 -0.35706 0.598874 0.813654 0.494638 0.00265895 1.12739 -0.0221665 -0.404062 0.07781 -0.117145 -0.219936 -0.154623 0.203757 0.119519 -0.265803 -1.21242 -0.321474 -0.348693 -0.557242 0.0235698 -0.112118 0.0840137 -0.146116 0.489023 0.0482735 -0.78639 -0.348749 -0.142341 -0.362904 0.163507 0.1982 0.0446642 0.131581 0.776094 0.0168973 0.301755 0.134845 -0.479695 0.488261 0.196322 -0.27968 0.152034 -0.719622 -0.741522 -0.964937 0.517343 0.0829498 -0.693128 -0.355426 -0.278965 -0.229113 0.209666 -0.871961 
16 0.474546 0.152302 0.189431 -0.487624 0.00468014 -0.51604 -0.188657 -0.826951 0.0167856 -0.143679 -0.525187 0.0701509 0.482454 -0.166444 -0.0807489 -0.458867 0.315755 -0.57377 -0.499002 0.332253 -0.461834 -0.352393 0.693014 0.561067 0.470592 0.0343146 0.317809 0.340849 0.306441 -0.0859545 -0.243856 0.616252 -0.50017 0.252866 0.008427 -0.0710522 0.515993 0.336307 0.13812 -0.0395312 0.137254 0.0145306 -0.0708545 0.61543 -0.178766 0.29381 0.74835 0.610501 -0.371219 0.537546 -0.268237 0.245346 -0.319422 0.0446338 -0.302665 -0.167449 -0.329471 0.233299 0.416858 -0.0728129 0.103112 -0.128708 0.00893236 0.348318 -0.340454 0.452058 0.981386 -0.279265 -0.522444 0.0729826 -0.446195 -0.0231026 0.38572 0.0303712 -0.619978 -0.250469 0.0671257 -0.198038 -0.375858 0.154203 0.378621 -0.680376 0.205254 0.739216 -0.419856 0.0899169 -0.15732 -0.346303 -0.0744261 0.0301148 -0.293657 0.211995 0.0229593 0.0828654 0.299706 0.105843 -0.834006 0.110373 0.316909 -0.563428 -0.683342 0.172901 -0.0659274 -0.475621 0.648448 0.277882 -0.0638628 -0.415831 0.00671093 -0.373285 -0.183555 -0.222918 -0.312081 -0.126987 0.338364 0.0483628 0.789565 0.480181 -0.302728 -0.775473 0.582794 -0.233396 -0.119711 -0.221308 -0.191915 0.0594041 0.381654 -0.468462 
17 -0.324087 -0.243567 -0.0988844 0.21596 -0.0376061 -0.972089 -0.15348 0.22813 0.324477 0.768926 -0.820935 -0.144735 -0.313199 -0.64665 0.441536 -1.20203 0.138617 -0.145292 -0.187104 0.568062 -0.794654 -0.124726 0.530226 -0.226733 0.654275 -0.333032 0.733076 0.241922 0.847177 0.0645988 -0.906321 -0.162788 -0.0182593 0.631188 0.207402 -0.336957 1.20509 0.328931 -0.296071 0.0879745 0.425851 0.147288 0.653473 0.781054 0.296361 0.166393 0.699921 0.789581 -0.24639 0.393908 0.190382 0.402158 0.237075 -0.122923 0.514015 -0.178679 -0.0733963 -0.104156 0.619313 0.213974 0.727817 0.151454 -0.833348 0.628964 0.132852 0.426023 -0.36667 -0.239131 -0.883193 0.106121 -0.0664794 -0.0452309 0.211977 -0.0578114 -0.671704 -0.583372 0.251674 0.0104675 -0.0521825 -0.508492 -0.112824 -0.0341133 -0.0410286 0.281678 0.0526874 0.0868822 0.952242 -0.845663 -0.0687047 -0.635014 -0.0342545 -0.696423 0.312892 0.432639 0.263131 -0.229731 -0.368146 -0.500399 0.408472 0.419125 -0.343528 0.16651 -0.359283 -0.574062 0.09881 -0.106964 -0.887416 0.210311 -0.162858 -0.164145 0.0684557 -1.03082 0.201236 0.953752 -0.399825 0.357989 -0.972902 -0.167091 -0.688969 -0.876174 -0.240904 -0.750396 0.0522942 -0.220537 -0.108729 -0.60068 0.0867551 -1.03469 
18 0.655601 0.263228 0.630141 0.248285 -0.237599 -0.877454 -0.464242 -0.916149 -0.645881 -0.0398981 -1.29234 0.672815 0.142907 -0.103506 -0.171436 -0.8591 0.0432243 -0.213068 -0.144436 0.453248 0.0616796 0.510316 1.26058 0.345947 0.237017 0.136618 0.150929 0.716907 0.528606 -0.199946 -0.382217 0.383604 -0.519996 0.770441 0.480677 0.484895 0.616703 0.214517 -0.128683 0.930087 0.577834 -0.259942 -0.555476 0.467857 -0.11264 0.486101 0.582579 1.23999 -0.344364 0.208779 -0.284953 0.492166 -0.454835 -0.381609 0.282718 0.392285 -0.994822 0.749289 0.711744 0.122036 0.0366167 0.0833313 0.26236 0.472768 -0.374549 0.459667 0.2913 -0.495998 -0.305956 -0.106329 -0.642241 0.0414259 -0.25486 0.0908647 -0.284962 -0.0151153 0.351062 -0.0312506 -0.818456 0.0569109 0.419831 -0.892423 -0.585973 0.906078 -0.918953 -0.212511 0.291816 -0.0304675 -0.472821 -0.716597 -0.242679 0.086656 -0.128279 -0.000927004 0.225939 -0.294916 -1.21511 0.333817 0.213923 -0.708095 -0.365653 0.189911 -0.198977 -0.45822 0.46121 0.195778 -0.190929 -0.397355 0.284386 -0.883218 -0.107072 -0.504669 0.00174536 -0.0741059 -0.906552 0.24868 -0.0220427 0.215311 -0.281182 -0.918207 0.572876 -0.56463 0.187554 -0.51753 0.37129 0.12499 0.379618 -0.0660342 
19 -0.0332842 -0.31867 -0.267142 0.137574 -0.177501 -0.581717 -0.193513 -0.615483 0.142956 -0.257521 -0.799997 0.577153 0.491089 -0.146791 0.609293 -1.34 -0.288884 0.124954 0.617788 0.746224 0.0479727 0.163761 0.427634 -0.01439 -0.232239 -0.274919 0.647579 0.570461 -0.416064 0.0396356 0.237485 -0.107877 -0.404636 1.04986 0.163347 0.266861 0.408576 0.223648 -0.325196 0.119574 0.315454 0.316785 -0.0681217 0.0417744 -0.110504 0.0106202 1.01957 0.92273 -0.668208 0.281084 -0.289498 0.403994 0.0314743 -0.0982915 0.448865 -0.568086 -0.12615 0.0435991 0.597107 -0.152213 0.800835 0.488446 -0.00369107 0.624311 0.256099 -0.201662 -0.0108501 -0.312082 -0.36772 -0.207747 -0.0870374 0.137612 0.0207084 -0.18042 -0.4626 -0.0838435 0.667135 0.0417599 -0.00708922 -0.160239 0.220279 -0.0172584 0.172252 0.051122 -0.0419773 0.286418 -0.128596 -0.0876723 -0.0424475 -0.53916 -0.645583 -0.355245 0.110395 0.684941 -0.338694 -0.269085 -0.509948 0.0947117 -0.120915 0.26154 -0.613124 0.807231 0.132866 -0.760812 -0.0160258 0.127284 -0.294541 -0.178814 -0.191604 -0.518276 0.279418 -0.631553 -0.530568 0.234846 -0.436463 -0.375159 -0.150152 -0.184745 -0.72943 -1.41062 0.0435634 -0.257571 -0.055925 -0.188345 0.397402 -0.0726828 0.193088 -0.926145 
20 0.0391282 -0.182414 0.0880967 0.369176 -0.0491786 -0.886801 -0.0595442 -0.0830804 0.241736 0.59659 -1.13469 -0.168935 -0.150485 -0.359081 0.731474 -0.989283 0.0254694 -0.249066 -0.277736 0.547071 -0.609955 -0.0693463 0.292727 -0.291479 0.545326 -0.281232 0.959554 -0.00511984 0.446653 0.123135 -0.314484 -0.236028 -0.294402 0.926347 0.43844 -0.115583 0.934473 0.0678558 -0.320263 0.281266 0.117443 0.221728 0.350527 0.391254 0.74755 -0.0155213 1.14856 0.714869 -0.554409 0.353872 0.286307 0.751576 0.266532 -0.126849 0.182691 -0.447835 0.0959722 -0.37342 0.502483 -0.0704999 0.930326 -0.0472597 -0.487957 0.649371 -0.00333626 0.259412 -0.150911 -0.217803 -0.562612 0.323592 -0.134268 -0.149428 0.214057 0.166836 -0.558959 -0.391472 0.246151 0.380167 -0.268431 -0.382598 0.0388913 0.145592 -0.159414 0.389535 -0.267405 -0.0333489 0.538617 -0.541192 0.103055 -0.881832 -0.012874 -0.490127 0.0751156 0.0458689 0.249263 -0.234366 -0.497571 0.120931 0.563901 0.196823 -0.391503 -0.0866649 -0.2121 -0.441955 -0.346261 0.210263 -0.435234 0.272328 -0.0359267 -0.193791 -0.128998 -0.894845 0.109754 0.820815 -0.216054 0.0532881 -0.827728 -0.342842 -0.420651 -1.09781 -0.0451565 -0.360688 0.267374 -0.0824458 -0.235905 -0.692752 -0.0634692 -0.527693 
21 -0.00795674 0.217512 -0.116598 0.106128 0.00188193 -0.524505 0.384448 -0.986107 -0.240663 0.154172 -0.147164 -0.283362 1.3067 0.229642 -0.277197 0.142474 0.337516 -0.159244 0.0693597 1.44685 -0.54163 0.137809 0.0822357 0.0199518 0.39337 -0.0369173 0.62552 -0.402362 -0.102218 0.0448013 -0.437473 -0.366665 -0.232887 0.290833 -0.0546677 -0.369525 0.615534 0.697337 -0.16603 0.0325873 0.320745 0.123167 1.29778 0.0819552 -0.492379 -0.456783 0.940391 1.09567 -0.589139 0.158596 0.0390405 0.0999477 -0.361548 -0.336634 0.787622 -0.953662 -0.310034 0.253416 0.560904 -0.2823 0.973666 0.229965 -0.127856 0.385573 -0.242375 -0.0493696 0.0302782 0.23784 -0.115335 -0.178657 0.305049 -0.549051 -0.329336 -0.784119 0.0291987 -0.16835 0.627304 0.241751 -0.0346622 -0.212972 0.479204 0.00849505 0.0288003 0.430728 0.0766111 -0.477651 -0.511076 -0.744995 -0.2357 -0.247678 -0.880791 0.292761 0.372381 -0.276752 -0.317066 0.0616136 0.183904 0.0131663 0.560397 -0.510065 -0.869778 0.273721 0.240533 0.0205488 -0.196236 0.874589 -0.492794 0.156607 0.664103 0.146998 -0.394138 -0.400704 -0.417665 0.181744 0.188333 0.0494966 0.123728 -0.503357 -0.441777 -0.829738 1.04889 0.293205 -0.782056 -0.763073 -0.1569 -0.0770151 -0.214485 -0.795664 
22 -0.713671 0.580558 -0.747875 0.966425 0.391601 -0.322067 0.416019 0.25504 -0.688495 -0.0785921 0.475795 -0.331888 0.188954 0.276497 0.543058 -0.691278 0.414574 -0.844372 -0.265411 0.232422 -0.90235 -0.799087 -0.314394 -0.810555 0.393507 0.124882 0.58204 0.632223 -0.451797 -0.0635891 0.273082 0.447566 0.186379 -0.029993 0.00176183 0.099946 0.676347 -0.0842756 -0.444644 -0.609497 1.02098 0.395305 0.439001 0.686431 -0.226978 -0.0227229 -0.369288 0.591142 -0.230041 -0.761958 -0.422611 -0.200495 -0.385736 0.287565 -0.262648 -0.700883 -0.344287 0.581608 0.626281 0.39591 -0.376014 -0.144153 0.50535 0.782651 0.160397 0.287382 0.613288 0.0694935 -0.546094 0.654948 0.604777 -0.0649791 -0.202462 0.0292109 -0.683548 -0.172778 0.344042 0.471817 0.329967 0.367619 1.51771 -0.192505 -0.382498 -0.468526 -0.0417313 -0.277496 -0.278434 -0.0451155 0.227828 -0.627305 -1.05628 -0.586593 -0.353252 -0.84851 0.122164 0.047439 -0.47572 0.00264127 0.324556 -0.027315 -0.828586 -0.347243 0.190495 0.675223 0.334147 0.0520557 -0.25747 -0.364467 0.380732 -0.42927 0.502752 0.497838 -0.537494 0.573123 0.480159 -0.0395802 0.376922 -0.891958 -0.418237 -1.21427 0.575587 -0.379755 -0.140006 -0.316061 -0.00372406 0.263742 -0.055836 -1.01877 
23 0.364015 0.40816 0.718647 -0.0424095 0.115919 -0.522009 -0.0752948 -0.201102 -0.16763 0.927526 -0.884538 -0.487564 0.191269 0.0968313 0.721716 -0.540069 0.45914 -0.421745 -0.209339 0.319531 -0.785098 0.267492 0.455637 0.102712 0.147161 0.442006 -0.10208 0.581479 0.747091 -0.112413 -0.0776821 0.0405778 -0.309666 0.839724 -0.219241 0.0240282 0.83647 -0.0604383 0.0463843 -0.0309654 0.458929 -0.0313057 0.940587 -0.230714 0.680506 0.258807 0.661194 1.16988 -0.0636897 0.397744 0.351817 -0.193975 -0.182523 -0.0775516 0.0102814 -0.0357522 -0.298889 0.173908 0.458892 0.263593 0.396606 -0.168095 -0.301658 0.630508 0.339442 0.220306 -0.0296277 -0.554753 -0.0802482 -0.0290988 -0.52555 -0.335128 0.169239 -0.085249 -0.276615 0.475882 0.0585885 0.0874211 -0.187523 -0.0756057 0.373194 -0.0792627 -0.882194 0.265019 -0.331251 0.478762 0.607209 -0.319755 -0.668758 -0.150403 0.109514 0.410838 0.188182 0.0977142 -0.127034 -0.211645 -0.771224 0.271411 0.573286 -0.0108211 -0.571027 -0.674215 0.387009 -0.561257 0.0360907 0.0930104 -0.0918996 -0.379594 0.291964 -0.36115 0.0388918 -0.39734 -0.432274 0.307803 0.0822467 -0.00354433 -0.601309 -0.875527 0.206466 -1.27581 0.206791 -0.245726 0.00412918 -0.621362 -0.606755 -0.992392 0.161031 -0.0660402 
24 -0.433956 -0.211947 -0.0761652 0.294214 0.423212 -0.217019 0.532937 -0.0604925 -1.20396 0.638444 -0.44733 -0.256424 0.603107 0.128424 -0.415262 0.0169023 0.429687 -0.0556554 0.422477 0.551515 0.0632805 0.130506 0.860765 0.855188 0.504242 0.082029 -0.212991 0.839288 0.578434 0.107349 -0.185923 -0.544733 -0.00396873 0.497241 -0.432942 0.195499 0.737894 0.664158 0.2598 0.714104 0.483159 0.175325 0.0188324 -0.112659 -0.0507646 0.0316638 0.658106 1.27516 0.541289 1.37027 0.258804 -0.766447 -0.670161 -1.48817 0.370462 -0.374619 -0.77078 -0.244518 0.187722 -0.486581 0.794457 0.169204 0.44286 0.0964444 0.259304 0.792588 -0.107519 -0.22572 -0.229766 1.03185 -0.0320725 -0.161802 -0.104123 -0.203334 -0.639158 -0.744214 0.524928 0.113849 -0.441307 -0.061686 0.712483 0.0824749 0.145074 -0.744509 -0.44401 0.0930764 0.0581032 -0.375176 -0.581697 -0.386775 -1.01366 -0.37915 -0.457815 0.277954 -0.264141 -0.140303 -0.616783 0.293807 0.676864 0.207129 -0.482216 0.578983 0.0674929 -0.464341 0.368039 1.02815 -0.130419 -0.324786 0.764801 -0.279895 0.414942 -1.12839 -0.48421 0.281026 -0.453252 -0.376531 0.553207 0.224906 -0.69969 -0.948949 -0.0241251 0.0620735 0.118556 -0.484307 -0.643978 0.0689658 -0.646847 -0.509107 
25 0.0635712 -0.0381042 -0.411551 -0.174471 -0.259277 0.30823 -0.670552 -0.460978 0.208822 0.57693 -0.692296 -0.402048 0.809003 -0.0157137 0.109074 -0.88255 -0.371356 -0.0756942 0.465086 -0.313149 0.412042 -0.528292 1.35858 -0.12832 0.463558 -0.549845 0.575764 0.366677 0.277717 -0.157626 0.208945 0.0291358 0.371315 0.14635 -0.645574 -0.427934 0.954189 0.594554 -0.0993989 0.464156 0.0832906 0.176636 0.131207 0.317476 -0.538284 -0.245975 0.323614 1.28281 -1.09293 0.604354 -0.0877044 0.392442 -0.956463 -0.243249 0.533897 0.0759318 -0.291672 0.151307 0.418965 -0.271877 0.810638 -0.315302 0.653046 0.670753 0.335071 0.00317711 0.679883 -0.649562 -0.397104 0.500971 -0.590545 -0.0411563 0.954827 1.0135 -0.499666 -0.0825829 0.437126 -0.162808 0.268808 -0.610452 1.51221 -0.150742 0.228863 0.500669 -0.302076 0.201369 0.0955453 -0.467225 -0.364667 0.219429 -1.17586 -0.907488 -0.305258 -0.179242 -0.124165 0.396989 -0.0173781 -0.181852 0.74253 -0.15783 -0.0763471 0.172289 0.457855 -0.0150782 0.633985 -0.242905 -0.245344 -0.428821 0.0723498 0.0133653 0.298691 -0.594059 -0.444386 1.09033 -1.09444 -0.958625 -0.163525 -0.028801 -0.925517 -0.962634 0.3789 0.0902778 -0.220123 0.0463052 0.0619795 -0.480473 0.371996 -0.33256 
26 0.373494 0.255489 -0.286524 -0.0630432 -0.541424 0.208 0.612168 -0.370561 -0.671047 0.669181 -1.30996 -0.865899 0.554708 -0.393823 0.238422 -0.66866 -0.411086 -0.0461889 -0.20057 0.112283 -0.109199 -0.201512 1.25662 0.176895 0.463199 -0.193629 0.885441 0.531676 0.993931 0.192831 0.829821 0.731429 -0.556243 -0.00740231 -0.157273 -0.0575799 0.584284 0.692001 -0.0438273 0.619895 0.493264 0.497538 0.452579 -0.271223 0.830613 0.84928 1.03729 0.725157 -0.293556 0.749141 0.0591254 0.0319662 -0.559453 -0.834166 0.371349 -0.541826 -0.129179 0.282235 0.989092 -0.302385 0.635176 0.418005 -0.56737 0.567713 -0.292923 0.490214 0.209179 -0.303993 -0.3017 0.227671 -0.0347491 -0.659692 0.572198 0.852706 -0.25014 -0.242426 0.771224 0.132229 -0.0927364 -1.19238 0.419291 -0.307636 0.200129 0.09234 0.199089 0.197181 -0.449571 -0.77761 -0.737934 0.166086 -0.256998 -0.960233 -0.0784559 0.377724 0.0280425 -0.716609 0.029226 0.389077 0.618841 -0.101978 -0.305342 -0.381173 -0.725318 -0.162317 -0.244689 1.22456 -0.192095 -0.1342 0.134758 -0.0100828 -0.120119 -0.761121 -0.173984 0.495839 -1.41699 -0.312759 0.297365 0.285739 -0.889134 -0.979403 0.161034 0.678215 0.318737 -0.329803 -0.0379763 -0.200987 -0.680466 -0.042296 
27 -0.0326147 0.138084 0.132667 0.282087 -0.23712 -0.106537 0.244305 -0.0814436 -0.577471 0.106185 -0.369027 -0.183454 0.282351 -0.382979 0.2982 -0.000575134 -0.136163 -0.151836 -0.151329 0.565388 -0.267855 0.119094 0.570315 0.603107 0.244117 0.000543577 0.367693 0.577607 0.401638 -0.471888 -0.431576 0.297442 -0.129882 -0.186606 0.138669 0.455557 0.398812 0.470614 0.167917 0.709954 0.545298 -0.21627 0.0275168 0.0187365 0.112797 0.772283 0.127177 0.839533 0.0114565 0.0873268 -0.298089 0.269938 -0.43812 -0.261194 0.0669557 -0.104062 -0.331807 0.363102 0.0248323 -0.121675 0.140287 -0.0178221 -0.0112726 0.00941186 -0.206794 0.24499 0.183657 -0.109358 0.0063544 0.00624202 -0.274944 0.123512 -0.0278867 -0.119668 -0.205384 -0.00948506 0.367078 -0.153369 -0.65319 0.322063 0.41673 -0.114561 -0.249531 0.121695 -0.480531 0.0280374 0.11366 -0.105602 -0.341184 0.140929 -0.367686 0.248835 -0.350586 -0.252735 -0.0956542 -0.338786 -0.348765 -0.211248 0.0085836 -0.862548 -0.402884 0.158885 -0.118058 -0.172788 0.0959735 -0.067598 -0.62029 -0.279801 0.0542386 -0.180504 0.0550481 0.0182214 -0.213302 -0.0158961 -0.356714 -0.200985 0.247589 -0.314704 -0.134153 -0.707658 0.357873 0.281839 -0.315994 0.0413881 0.190582 -0.0822204 0.24387 -0.663735 
28 0.111273 0.415527 -1.05077 0.914925 -0.189735 0.239453 0.603799 -0.381741 0.141046 -0.578128 0.145958 -0.579971 0.0350092 -0.285215 0.667664 -0.413547 0.336638 -0.706064 0.0331189 -0.0446911 -0.704563 -0.924847 0.0333828 -0.13598 0.773019 0.618787 0.823296 0.306806 0.173741 -0.0984384 -0.336137 0.087426 0.400023 0.00307173 0.513985 0.562123 0.391919 -0.207199 -0.209306 -0.508475 0.908607 -0.0180945 0.118719 0.0133447 -0.89704 0.550569 -0.23447 0.818122 -0.851463 0.1191 -0.0569219 0.396324 0.297524 0.489699 0.0770576 -0.657862 -0.365045 0.969097 0.427939 0.0145957 -0.444812 -0.162331 0.637171 1.83442 -0.108553 0.0710973 0.25218 0.37853 -0.155491 0.43017 0.193681 -0.179868 0.157345 -0.378176 -1.00822 0.0971912 0.518455 0.0755556 0.513292 0.233086 1.00809 -0.436411 -0.215508 0.0345022 -0.341042 0.286278 0.26735 0.497102 0.492595 -0.667547 -1.33226 -0.306044 -0.174303 -0.533864 0.300589 -0.172567 -0.399416 -0.089016 1.00024 -0.143574 -0.57038 -0.246928 0.377896 -0.206309 -0.0135623 -0.157699 0.198962 0.0498312 0.423511 -0.261275 0.215862 -0.00263759 -0.165528 0.397005 0.523268 -0.134051 0.259348 -0.784784 -0.314009 -1.20264 0.30952 -0.101773 -0.406492 -0.569524 -0.0604423 0.45134 0.766557 -0.296057 
29 0.244758 0.450915 0.0759537 -0.477833 -0.318392 -0.753492 -0.747599 -0.0990987 -0.486615 0.401237 -0.536441 0.612957 0.510806 0.313279 -0.00117449 -0.316323 -0.391389 -0.234018 0.267258 0.743103 -1.04131 0.234632 0.634255 0.468172 -0.227589 0.453651 0.355299 0.176722 0.272266 -0.5772 -0.525054 -0.0101273 0.0340567 0.542788 0.496006 0.092391 -0.0938181 0.618419 0.252089 0.0991648 0.287388 -0.220352 -0.170352 0.359503 0.081188 0.354918 0.930082 1.21412 -0.244039 0.707995 0.00450344 -0.261191 -0.277361 -0.581172 0.21717 -0.107112 -0.259605 -0.284081 1.26448 0.0210186 0.471197 -0.282687 0.129737 0.607729 0.0120917 1.01536 0.984864 -0.169124 -0.660744 0.517314 -0.0677941 -0.76742 0.48516 0.0684355 -0.662868 0.141542 0.241222 0.161522 -0.254902 -0.107796 0.975914 -0.12262 -0.252436 -0.0073852 0.127949 -0.151209 0.378477 -0.170009 -0.406354 -0.581571 -0.519312 -0.224347 0.0812706 -0.273871 0.179848 -0.368418 0.175338 0.789081 0.402446 -0.842327 -0.623483 0.447984 0.380895 -0.175826 0.0405177 -0.201704 -0.347407 -0.72424 0.171167 -0.945751 0.419436 -0.124862 -0.256057 0.651243 -0.483484 -0.126114 -0.107736 0.416981 -0.154426 -0.408554 0.0708486 0.100832 -0.16857 -0.54643 -0.0289725 0.0303763 -0.375183 -0.833153 
30 0.197508 -0.782723 0.784672 0.102773 -0.804062 0.826382 0.399935 -0.407635 0.828854 1.118 -0.694167 0.18227 0.37181 -0.147401 0.531833 -0.52347 -0.167285 -0.0681575 -0.0639401 0.245702 -0.278219 -0.115468 1.75079 -0.136809 -0.0896839 -0.597185 0.514932 1.25797 0.866819 0.0845884 0.0511562 -0.848534 -0.332009 -0.114227 0.134379 -0.323384 1.21495 0.432773 0.0635899 0.781276 1.01564 -0.0938516 -0.620265 1.18253 -0.558319 0.0773961 1.03696 0.678735 -0.520339 1.38938 -0.229563 -0.116532 -0.0592122 -0.694282 0.762839 -1.41414 -0.329635 0.151194 0.454461 -0.449961 -0.0256478 0.189267 -0.268423 0.694897 0.0891495 0.581563 0.377118 0.568791 -0.215946 -0.0795682 -1.54511 0.061599 1.38091 0.165469 -0.340294 -0.650234 0.528519 -0.313164 -0.325445 -0.515157 1.39559 0.277398 0.458496 0.27979 -1.10136 0.279479 0.364628 0.412136 -0.307959 0.0868417 -0.965433 0.0937348 -0.120609 -0.72278 0.170474 -0.499852 -0.344684 0.591729 0.800038 -0.169439 -0.371739 -0.182851 -1.00829 -0.795135 -0.069304 0.0702697 -0.857905 -0.0654746 -0.64206 0.0029264 0.571819 -0.3674 -0.484078 -0.0224605 -0.724298 0.153423 -0.522643 0.314542 0.35786 -0.595093 0.138849 -0.208372 -0.147527 0.495444 -0.34631 -0.113323 -0.363097 -0.157405 
31 0.126676 0.0751939 -0.156721 -0.90039 -0.540051 0.247745 -0.240645 0.377143 -0.182367 0.933067 -0.984462 -0.309591 -0.258022 -0.471008 0.743944 0.0836596 0.146757 0.51188 -0.272069 0.268843 0.684466 0.292465 0.906345 -0.155428 0.00484041 -0.753774 1.02922 1.19085 0.442401 0.746277 -1.06064 -0.498529 0.727803 -0.30315 -0.354652 -0.513929 1.72628 0.982118 0.446281 0.71123 0.592529 -0.648811 0.00563694 1.0041 -0.215161 -0.0345809 1.16621 0.975735 0.346085 1.1566 -0.935342 -0.160855 -0.389064 0.200671 0.75931 -1.22026 -0.353819 -0.392653 0.63613 -0.310835 0.259551 0.322985 -0.419416 0.620524 0.0621434 -0.344506 0.0399087 0.352313 0.368059 -0.198697 -0.798085 -0.454143 1.50195 -0.282248 -0.457388 -0.914098 0.661064 -0.721587 0.671509 -0.914788 0.884595 0.378925 -0.574055 -0.504442 -0.877633 0.12816 0.695966 -0.211962 -0.727387 -0.14634 -1.67783 -0.0211691 0.0523534 -0.0968807 -0.242181 -0.621275 -0.493655 0.291357 0.096262 0.544241 -0.555874 0.267845 -1.19581 -0.710881 0.164419 0.0673572 -0.789053 0.193383 0.134375 -0.335805 -0.0329336 -0.925171 -0.223123 -0.314656 -1.01145 0.16531 -0.219794 0.163464 -0.437513 -0.471096 0.205311 0.391192 -0.611549 0.128139 -0.305288 0.209573 -0.114258 -0.545827 
32 -0.617716 -0.179768 -0.14694 0.531787 -0.526063 -0.413547 1.29574 0.269352 -0.546428 -0.0511111 -0.615724 -0.864013 1.79838 0.305209 -0.470751 -0.118017 0.50962 -0.0360124 0.420765 0.851664 -0.484306 -0.413056 0.0138742 0.057153 0.764714 0.0876417 -0.0937631 0.911462 0.188338 -0.783709 -0.127776 -0.352388 1.02018 0.615261 -0.101655 0.00167404 0.975652 0.434663 0.230625 -0.843135 1.22357 0.690197 0.412872 -0.0990963 0.328998 -0.11885 0.846609 1.16072 -0.640639 0.82872 -0.0143973 -0.543054 -0.735602 0.0441083 -0.435737 -0.752273 -0.4555 -0.645864 0.442292 0.242833 0.8589 -0.177817 0.114718 -0.0646926 -0.0758475 0.170799 -0.118894 -0.328485 -0.323466 0.392572 -0.0486017 0.117056 -0.301665 -0.823223 -0.0200875 0.389688 0.43493 0.593747 -0.0910778 -0.581439 0.656671 -0.350982 0.146849 -0.87342 -0.403356 -0.174804 -0.351092 -0.860275 0.186838 -0.427387 -1.01443 -0.0550717 0.216683 -0.240501 -0.520579 -0.540712 -0.368455 -0.492702 0.315207 0.977462 -0.91157 0.391673 -0.0479094 -0.507142 0.0802968 1.09999 -0.587739 -0.190831 1.25668 -0.668838 -0.30394 -0.608969 -0.994987 -0.0860486 0.0132149 -0.282252 0.614417 -0.012833 0.0226974 -1.06499 0.1905 0.41451 -0.250425 -0.996616 0.324289 0.350955 -0.253305 -0.976993 
33 -0.107898 -0.193472 -0.0858092 0.390179 -0.310227 -0.573241 -0.349957 -0.729844 -0.362683 -0.00525379 -0.119904 0.0446548 0.386127 -0.506416 0.19628 0.22378 0.0789596 -0.25495 0.241539 0.490482 -0.0249801 0.0816796 0.492302 0.139191 0.146741 -0.0350324 0.51498 0.0362804 0.754775 -0.362599 -0.531597 0.343324 -0.253784 0.291272 0.0862039 -0.0366015 0.458776 -0.122206 0.187592 0.327211 0.430253 -0.100798 0.223215 0.198928 0.144406 0.282186 0.695619 0.893106 -0.361725 -0.0601879 -0.0534049 0.5354 -0.495338 -0.826377 0.0629974 0.238144 -0.437661 0.284554 0.5389 -0.341738 0.139945 -0.169621 0.158053 -0.0973863 0.0541359 0.121134 0.0461163 -0.0958784 -0.511549 0.294454 -0.104061 -0.324984 -0.0984376 0.154252 -0.289156 0.434743 0.536099 0.347141 -0.170892 -0.286451 0.141168 -0.212178 -0.140523 0.626496 0.261391 0.225984 0.171007 -0.543811 -0.434994 -0.598258 -0.227417 0.403492 -0.721391 0.0432799 0.0408625 -0.110043 -0.105724 -0.328281 -0.158839 -0.201535 -0.388865 -0.0671797 0.225084 -0.308423 0.143466 0.222194 -0.400445 0.285615 0.423148 -0.52827 -0.259379 0.146306 -0.31102 0.278183 -0.0326177 0.0889594 -0.404502 -0.0939487 0.0681852 -0.681354 0.397427 -0.0176638 -0.17967 -0.442952 -0.17019 -0.0154782 -0.11558 -0.230432 
34 -0.602153 0.60484 -0.555417 -0.155352 -0.604748 -1.05587 0.166915 0.393871 0.0450415 -0.533937 -0.0116069 -0.887671 0.0254671 -0.750992 0.96219 0.427162 0.530749 -0.214331 0.411793 0.774047 -0.318274 -1.00942 0.245937 -0.0486971 1.03486 -0.454405 0.21433 0.758446 -0.317762 -1.01206 -0.0994175 0.157111 1.43056 0.609342 -0.287303 0.466276 1.02531 0.250287 -0.446913 -1.0772 1.36689 0.700373 -0.0733998 0.196882 0.348351 -0.484203 1.16197 0.474312 -0.592511 1.28464 0.0961367 0.498527 -0.698608 0.229289 -0.0481585 -0.321901 0.181 -0.637076 1.04267 -0.094442 -0.00747811 -0.468992 0.07156 0.837961 0.314906 -0.641905 0.182873 -0.226875 -0.718057 0.635601 0.226855 0.289679 0.0528116 -0.103233 -0.299383 0.11138 0.39048 0.648823 0.781072 -0.407348 1.1913 0.14694 0.117514 -0.740885 0.0644978 0.251424 -0.00816845 -0.226957 -0.566709 -0.54662 -0.674957 0.348704 0.274148 -0.918196 0.113385 -1.02741 0.436472 -0.23322 -0.149791 0.896175 -0.326282 0.528958 -0.313409 0.580685 -0.219115 0.0286538 -0.709935 0.309043 0.810317 -0.459746 0.250491 -0.704413 -0.84091 0.571205 0.0378218 0.46624 0.727633 -0.741426 -0.0213694 -0.62619 0.58873 -0.18465 -0.397288 0.0860511 0.308552 -0.349397 0.76465 -0.446605 
35 0.113315 -0.0810036 0.149753 0.181657 -0.540025 -1.15462 -0.401305 -0.55602 -0.0798765 0.0312698 -1.41124 -0.588093 -0.0196646 -0.147801 -0.0242694 -0.617884 0.27853 -0.617793 -0.653314 0.265235 0.114328 0.389838 0.993665 0.620251 0.408701 -0.0856537 0.50873 0.639689 0.662666 0.085091 -0.655258 0.399308 -0.780914 0.867315 0.470023 -0.594378 0.973316 0.532192 0.0910328 0.797075 0.412179 -0.144568 -0.192738 0.294617 0.569009 0.403864 1.1891 1.08902 -0.365914 0.654316 0.0559204 0.188735 -0.0376428 -0.0875011 0.128765 -0.0968238 -0.70571 0.180083 0.408391 0.0967701 0.648648 -0.318948 -0.271125 0.706623 -0.395203 0.377164 -0.153107 -0.366786 -0.287146 0.263512 -0.411885 -0.288615 0.396953 -0.0261585 -0.407387 -0.0715892 0.351207 0.511468 -0.830795 -0.285281 0.0364119 -0.221288 -0.354938 0.542466 -0.540109 0.347717 0.412687 -0.528274 -0.124011 -0.663642 -0.604503 -0.0778296 -0.113216 0.19776 0.127308 -0.531534 -0.472203 0.736042 0.899996 -0.445656 0.0245456 -0.682541 -0.429726 -0.267537 -0.219186 0.23684 0.176933 0.551568 0.690821 -0.180564 -0.136953 -0.50822 0.0161039 0.3294 -0.19324 -0.0335585 -0.950907 0.578184 -0.272643 -1.05069 0.257328 -0.69895 1.13479 -0.323727 -0.0370687 -0.941866 0.281163 -0.186908 
36 -0.245711 -0.157934 0.145817 0.55553 0.134053 -1.06468 0.0296548 -1.21846 0.0625636 0.22482 -1.3635 -0.666792 -0.273984 -0.435091 -0.187435 -0.748326 0.877266 -0.360364 -0.00303946 0.341261 -0.855576 0.70298 0.899012 0.107112 -0.215261 0.486992 0.767546 0.566177 0.204158 -0.201871 -0.40305 -0.37152 0.0248119 0.760813 0.18158 -0.142861 0.904565 0.2011 0.237422 0.389984 0.346801 0.579505 -0.0804863 0.236266 -0.0417509 0.213776 0.985963 1.43891 -0.44312 0.204542 0.323152 0.0320881 -0.477348 -0.106218 0.687468 -0.315345 -0.456394 0.468224 0.694454 -0.422712 0.617941 0.18304 0.42148 0.307627 -0.708387 0.52501 0.550896 -0.702009 -0.765987 -0.600563 -0.747572 0.252682 -0.267771 0.18061 -0.478469 -0.381252 0.0763706 0.0472769 -0.589463 -0.66357 0.364189 -0.43259 -0.212 0.444653 0.197568 -0.0100136 0.27129 -0.00929988 -0.151509 -0.171617 -0.371683 -0.245793 0.0562542 -0.142683 1.02844 -0.0670394 -0.310947 0.679289 0.842722 -0.00836726 -0.590489 0.0544144 0.279252 0.160708 -0.000634734 -0.18841 -0.483916 -0.0999489 0.183417 -0.657174 -0.245475 -1.03498 0.192463 0.441272 -0.595551 -0.33681 -0.762115 -0.00210412 0.221242 -1.00693 0.275922 -0.641181 -0.00601334 -0.789853 -0.140296 -0.176268 0.267479 0.317016 
37 -0.597948 0.377355 -0.0926391 -0.466305 0.022129 -0.0781446 0.341526 -0.630252 -0.683961 -0.0905909 -0.211255 -0.961025 0.78573 -0.413698 0.518261 -0.918422 -0.0894284 0.345409 -0.175685 0.464098 -0.659635 -0.571063 -0.0616549 0.745254 0.576559 -0.0626524 0.44097 1.10675 0.527193 -0.066016 -0.262781 0.174845 0.126536 0.450231 0.0197501 -0.530429 1.7548 0.873052 0.0347704 -0.213641 0.184956 0.0848366 0.406913 0.42258 -0.0250404 -1.03584 0.531202 0.752238 -0.987096 0.934284 0.10897 0.663874 0.410128 -0.214286 -0.0387572 -1.62742 -0.567833 0.0382105 0.0145258 0.382974 -0.0357602 0.386425 0.263641 0.745118 0.0271429 0.0814078 1.03206 -0.743801 -0.492316 -0.142172 0.521342 -0.577302 0.473588 -0.199506 0.11664 -1.45565 0.570697 0.188209 -0.044776 -0.161853 1.1861 -0.288575 -1.24409 -0.739233 0.100563 0.735873 0.0803605 -1.14054 -0.558112 -0.0103249 -0.433685 0.431671 -0.135965 -0.711907 -0.141705 -0.905345 -0.269678 -0.074097 0.608531 0.705885 -0.718843 0.49638 -0.00914495 0.700288 0.165827 -0.0351592 -0.388412 0.168565 -0.0599838 0.195433 0.364998 -0.15179 -0.538322 0.73064 0.0798166 -0.0822973 -0.0775768 -0.655103 -0.129809 -0.874105 0.855623 0.48686 -0.159732 -0.301929 -0.588626 -0.260184 -0.210413 -0.954988 
38 -0.109449 -0.0952704 0.102194 0.231198 -0.384468 -1.22188 -0.188459 -0.366921 -0.319113 0.233323 -1.04681 -0.462979 -0.155516 -0.3224 0.195131 -0.869111 0.25109 -0.438196 -0.18857 0.273257 -0.363098 0.610464 0.849817 0.330432 0.264762 -0.0458126 0.565921 0.35566 0.783994 -0.11304 -0.62846 0.00762169 -0.751608 0.946142 0.277497 -0.609274 1.07633 0.296618 -0.219175 0.399895 0.395247 0.0336538 0.208687 0.209522 0.62941 0.546969 0.954681 1.03842 -0.40136 0.406973 0.232363 0.22823 0.0655953 -0.230605 0.219796 -0.0919865 -0.440189 -0.0538732 0.622291 0.0569674 0.67035 -0.126431 -0.184093 0.885959 -0.408929 0.301218 -0.0387165 -0.170799 -0.500061 -0.224527 -0.579878 -0.229475 0.169132 0.303261 -0.35575 -0.478712 0.2666 0.57742 -0.697132 -0.332914 -0.00276357 -0.0227907 -0.238782 0.486412 -0.137193 0.474509 0.411511 -0.370852 0.00960708 -0.733056 -0.315794 -0.137059 -0.101679 0.0957223 0.316564 -0.409875 -0.635456 0.755257 0.98971 0.0440132 -0.357962 -0.431427 -0.540251 -0.370845 -0.284781 0.227591 -0.0254291 0.304543 0.638553 -0.246461 -0.145705 -0.460769 0.100182 0.422793 -0.38089 -0.254593 -0.994499 0.185619 -0.123815 -1.19682 0.0834684 -0.783952 0.716061 -0.735802 -0.339675 -0.609124 0.313384 0.082918 
39 -0.144293 0.131641 -0.17723 -0.393227 -0.423384 -1.1673 -0.190982 0.223169 0.101178 0.573417 -0.666002 -0.0317875 -0.0342061 -0.488912 -0.319827 -0.929913 -0.0547855 -0.0828158 -0.115435 0.202131 -0.791135 0.143783 0.669714 -0.0209327 0.759568 -0.300229 0.310182 0.561568 0.689634 -0.0273849 -1.22991 0.0915992 0.0703168 0.530067 -0.0643284 -0.423776 1.34971 0.141538 -0.237887 0.345283 0.806322 0.0217471 0.360637 0.415122 0.119109 -0.0151874 0.371678 1.03317 -0.38943 0.453496 0.17933 0.188338 -0.097042 -0.226047 0.475186 0.0115205 0.0327873 0.277878 0.602712 0.260723 0.475526 0.0438292 -0.383597 0.745322 0.241775 0.233425 -0.130377 0.0791834 -1.0807 0.185544 0.106345 -0.215424 0.179743 0.184594 -0.292844 -0.662571 0.595753 -0.0784738 -0.205344 -0.228603 0.396453 -0.38399 -0.0468229 0.497979 0.212232 0.0285058 0.975067 -0.877091 -0.180645 -0.289214 -0.356693 -0.346832 0.366534 0.382431 0.656494 -0.273643 0.0647074 -0.264063 0.295585 0.382011 -0.172683 -0.024171 -0.349533 -0.165809 0.535539 -0.236761 -0.71679 0.112493 -0.00192134 -0.0920872 0.0706632 -0.555083 -0.00156169 1.08425 -0.172839 0.40236 -0.448544 -0.266594 -1.00062 -0.648101 -0.172394 -0.675325 0.190616 -0.318822 -0.161031 -0.457718 0.385774 -1.34298 
40 0.663841 0.275861 0.0585459 -0.0167146 -0.0119187 -1.58686 -0.694201 -1.42402 0.152993 -0.11041 -1.34882 0.941588 0.408211 -0.0946732 -0.447683 -0.521159 -0.0243301 -0.11484 -0.585426 0.609369 -0.178183 0.884688 1.16651 0.2416 0.944504 -0.0586903 -0.526642 0.691707 0.0812655 -0.580817 -0.3856 1.18929 -0.80278 1.30307 0.19751 0.546648 0.508485 0.236063 -0.281098 1.12055 0.777736 0.0917399 -0.217868 0.0998746 -0.246623 0.132871 0.14591 0.504785 -0.433909 -0.129728 0.169117 0.621218 -0.725429 -0.393463 0.400571 0.497902 -0.879715 0.825518 0.912398 -0.161225 0.381724 0.797978 0.21114 0.523203 -0.545957 0.643712 0.530484 -0.208748 -0.3903 -0.322841 -0.321509 -0.236997 0.0795195 0.766941 -0.264631 0.321482 0.579094 -0.306772 -0.69257 0.690488 0.284513 -0.671581 -0.424896 0.882717 -1.01382 -0.17976 -0.485704 -0.227966 -0.118757 -0.772176 -0.969051 0.667684 0.246527 -0.0657205 0.384921 -0.22435 -1.03035 0.254738 -0.207979 0.034254 -0.74162 0.645377 0.0551125 0.0628042 0.112029 0.349823 -0.0144031 -0.614159 -0.342037 -0.903221 -0.161872 -0.930479 -0.354941 -0.26194 -0.579418 -0.173409 0.0581638 0.131522 -0.698776 -0.809602 -0.0924944 -0.428976 0.298156 0.0645713 0.591543 0.373896 0.249504 -1.07839 
41 0.477904 -0.466426 -0.238541 -0.460262 0.06412 -1.00436 -0.481496 -0.585611 0.427137 0.0165588 -0.2564 -0.0996526 0.371688 -0.110703 0.0912557 -0.136423 0.0230473 -0.267073 -0.0743256 0.45582 -1.23016 -0.231005 0.114447 0.197261 0.790008 0.114477 0.363067 0.0455622 -0.107193 -0.262085 -0.193062 0.557356 -0.857331 0.129522 0.0258586 -0.34712 0.874657 0.2652 -0.000703281 0.11991 0.296788 0.660677 0.0835387 0.326669 -0.220022 -0.0488779 0.677974 0.686189 -0.109617 0.809709 0.29784 0.42229 -0.2413 -0.300181 0.435588 0.00520406 -0.537371 0.578461 0.633161 0.226528 0.50249 0.0132688 -0.31824 0.315728 -0.631672 0.446923 0.836046 0.260487 -0.462219 0.165443 0.0888328 -0.235614 0.341908 0.0664429 -0.283557 -0.580397 0.0225024 -0.275961 -0.437987 0.139412 0.357587 -0.311204 0.25498 0.413372 -0.267778 0.271485 -0.463365 -0.644477 -0.047806 -0.471061 -0.935488 0.498241 0.200539 -0.219931 0.00175919 -0.0760798 0.0966468 0.0748031 0.573321 0.351556 -0.937652 0.0792088 0.318176 -0.78892 0.257299 0.424716 -0.189519 -0.418912 -0.071615 -0.10415 -0.763897 -0.23896 -0.495708 -0.0106978 0.185861 0.0716468 0.415116 -0.124077 -0.925524 -0.995937 0.11725 0.126824 -0.394287 0.144681 -0.722072 0.171255 0.413408 -0.639611 
42 -0.285901 0.153076 -0.134818 -0.257515 -0.393058 -1.13319 -0.126917 0.173522 0.0521198 0.685071 -0.634457 -0.153507 0.0583319 -0.557578 -0.177184 -0.927158 -0.0172036 -0.112839 0.0157803 0.0695665 -0.703194 0.135127 0.542082 -0.293399 0.742012 -0.208843 0.246946 0.565266 0.682239 -0.0681875 -1.09012 0.036342 -0.144569 0.56399 -0.056771 -0.441267 1.25987 0.142564 -0.0077525 0.0479728 0.884502 0.401555 0.481719 0.373755 0.122395 0.160443 0.400086 0.955588 -0.456011 0.430708 0.184091 0.419092 -0.0143388 -0.149965 0.517344 0.0456929 0.0391962 0.312211 0.71012 0.000114245 0.681785 0.429155 -0.559962 0.906075 0.200361 0.316965 -0.137719 0.113128 -1.27239 -0.154236 0.15131 -0.122786 0.0779063 0.31461 -0.392233 -0.664138 0.60292 -0.0712634 -0.0631258 -0.586897 0.3611 -0.318158 0.0787738 0.579758 0.319945 0.334802 0.881949 -0.736291 -0.316754 -0.16198 -0.404395 -0.436585 0.450906 0.476432 0.49762 -0.31463 0.232764 -0.194396 0.609149 0.468956 -0.200778 0.0793458 -0.208034 -0.0670423 0.497988 -0.228599 -0.792852 0.224993 0.216278 -0.238793 -0.0250321 -0.598632 -0.216758 1.18711 -0.194761 0.22928 -0.718709 -0.356388 -0.880858 -0.550922 -0.108563 -0.790906 0.285752 -0.510813 -0.359251 -0.535492 0.300025 -1.0861 
43 0.637148 0.241076 0.683181 0.221031 -0.365446 -0.765419 -0.360732 -1.08344 -0.524306 0.0037447 -1.22169 0.560464 0.256498 -0.223926 -0.0832515 -0.882698 0.02754 -0.327405 -0.290538 0.48805 -0.0409426 0.725202 1.22085 0.601465 0.413977 0.000827994 0.0632659 0.906621 0.571144 -0.227972 -0.372281 0.553686 -0.503825 0.951743 0.381417 0.284438 0.647891 0.224668 0.0431947 0.850985 0.603369 -0.280818 -0.34171 0.352728 -0.114454 0.661429 0.572248 0.975165 -0.412503 0.453803 -0.291701 0.423548 -0.610498 -0.291796 0.343377 0.359597 -1.06462 0.667835 0.735502 -0.091537 0.178347 0.0156209 0.28792 0.316431 -0.32064 0.440784 0.455349 -0.523629 -0.416914 -0.0217783 -0.477701 0.0302119 -0.120119 0.249667 -0.294966 0.168013 0.430224 -0.0884262 -0.937786 0.0690584 0.311061 -0.88886 -0.489733 0.889812 -0.808014 -0.130839 0.240913 -0.0718129 -0.591871 -0.512179 -0.247403 0.0629169 -0.0389499 0.219087 0.25054 -0.178079 -1.24993 0.259432 0.116264 -0.661982 -0.452527 0.219443 0.0494639 -0.406212 0.439419 0.129142 -0.279752 -0.235943 0.236889 -0.658938 0.0387426 -0.624149 -0.160642 0.0766427 -0.774708 0.13845 -0.223305 0.182254 -0.227783 -0.886748 0.377623 -0.519993 0.27383 -0.479128 0.434939 -0.034838 0.324154 -0.451588 
44 -0.308685 0.117112 0.643017 0.417295 -0.200072 -0.625695 -0.185606 -1.39809 -0.0869886 0.132669 -0.55547 -0.444468 0.999433 -0.00954156 0.310109 0.0672341 0.473412 -0.608308 0.401102 0.207412 -0.997058 0.361848 0.828011 -0.0863667 0.0428557 -0.405645 0.366163 0.0412154 0.291553 -0.666758 -0.299113 0.212084 -0.931559 0.545576 0.681875 -0.0811923 1.04593 0.366687 -0.393762 0.513725 0.191101 0.478309 0.137642 0.306772 0.111024 0.177052 0.800034 0.961772 -0.171193 0.567492 0.289005 -0.131642 -0.473573 -0.445875 0.759085 -0.171414 0.287146 0.2843 0.314136 0.235396 0.508984 -0.142159 0.10639 0.392358 0.427508 0.320787 0.266622 -0.140163 -0.749896 0.456988 0.437476 -0.429669 0.126296 -0.401028 -0.0785852 -0.33911 1.16369 0.559516 0.153886 0.329071 0.213842 -0.553432 0.121916 -0.159741 0.0652347 0.19843 0.132946 0.315557 -0.806148 -0.599297 -0.636347 -0.202538 0.000743704 0.0813645 0.0998289 -0.380712 -0.657648 0.0530415 0.322555 -0.571226 -0.0543171 0.337188 -0.04922 -0.0957324 -0.401675 -0.0612317 -0.65293 -0.0451516 0.417286 -0.546604 -0.0475586 -1.02637 -0.482009 0.628093 -0.574714 0.362258 0.0202447 0.101834 -0.145441 -0.570554 -0.13091 0.141276 -0.0937478 -0.265544 -0.248842 -0.807152 -0.067452 -0.808499 
45 0.281531 0.390013 0.911386 -0.0315256 0.123471 -0.474652 0.0146954 -0.00942086 -0.432587 0.787148 -0.802049 0.0625893 0.154677 -0.0689176 0.560905 -0.396969 0.336716 -0.142088 -0.233006 0.253637 -0.794019 0.541703 0.727859 0.395378 0.300043 0.289967 0.0147623 0.794585 0.850584 0.08621 0.0438296 0.562638 -0.264767 0.60294 -0.228141 0.0420878 0.574414 0.178055 0.382176 0.372438 0.528845 0.0385945 0.612888 -0.0495465 0.0774477 0.188671 0.285806 0.914431 -0.10336 -0.0316774 0.438757 0.0509664 -0.0748849 -0.156123 -0.0923806 0.0578996 -0.636517 0.379807 0.423288 0.190435 0.16585 -0.244677 -0.280661 0.82162 0.215526 0.219366 0.477399 -0.442893 -0.409041 -0.0852639 -0.337821 -0.554593 -0.192486 -0.386118 -0.343868 0.30416 0.11986 0.0675518 -0.418536 0.212396 0.174041 -0.292533 -0.668435 0.403927 -0.284305 0.546616 0.479481 -0.350449 -0.718132 -0.333509 -0.0140068 0.10055 -0.107594 -0.0718927 -0.116785 -0.327651 -0.89637 0.211889 0.661186 -0.231725 -0.676386 -0.361349 0.331349 -0.228021 0.613727 0.199687 -0.124034 -0.809587 0.240031 -0.491784 0.197797 -0.521302 -0.129246 -0.0759983 -0.177628 0.295984 -0.558083 -0.584301 -0.131575 -1.30888 0.531815 0.0800053 -0.0647014 -0.393163 -0.00434494 -0.667632 0.141607 0.0676727 
46 0.653469 0.265234 0.717905 0.180246 -0.327994 -0.825918 -0.300776 -1.10726 -0.567529 0.0395257 -1.21974 0.596089 0.293221 -0.207197 -0.0954427 -0.861433 0.0218113 -0.349127 -0.251901 0.485255 -0.0813104 0.647743 1.26311 0.544806 0.397145 -0.0143192 0.103445 0.880893 0.530137 -0.183078 -0.405388 0.59966 -0.526455 0.939001 0.360554 0.34571 0.613685 0.193387 -0.0225582 0.872721 0.589902 -0.292047 -0.415717 0.346159 -0.191944 0.662214 0.571536 0.998552 -0.369393 0.448384 -0.304272 0.41686 -0.580638 -0.281406 0.330635 0.357299 -1.07312 0.680978 0.790826 -0.10522 0.165076 -0.0789299 0.329488 0.382868 -0.3104 0.431804 0.473909 -0.480359 -0.361074 -0.0559742 -0.487289 0.0194158 -0.125195 0.270682 -0.306195 0.209987 0.399846 -0.107596 -0.904901 0.0981307 0.311129 -0.931003 -0.413502 0.835495 -0.784066 -0.172888 0.208758 -0.0690618 -0.576287 -0.553669 -0.275455 0.0850462 -0.100326 0.287237 0.291505 -0.181402 -1.26544 0.236035 0.0899187 -0.578833 -0.450263 0.281241 0.0497533 -0.425083 0.406468 0.063301 -0.306861 -0.260843 0.161836 -0.664472 0.0515952 -0.616022 -0.152543 0.0604482 -0.764278 0.124102 -0.155632 0.214571 -0.205947 -0.874744 0.41811 -0.50691 0.287022 -0.431833 0.415194 -0.0727458 0.377716 -0.385467 
47 0.467837 0.294727 -0.0100327 -0.00945851 -0.300662 -0.875904 -0.0131565 -0.532616 -0.030491 -0.166549 -0.838556 -0.0453475 0.255753 0.19033 -0.242149 -0.856688 0.240566 -0.213683 -0.148155 0.330964 -0.603997 0.332774 1.05776 0.538751 0.132966 -0.344476 0.464274 0.325228 0.519956 0.294415 -0.059782 -0.0916384 0.229455 0.639217 -0.615615 0.287765 0.41865 0.299224 0.0104472 0.927349 0.273054 0.0366859 -0.11601 0.604833 0.419975 -0.4432 0.598999 1.24457 -0.451588 0.652394 0.471349 -0.135283 0.0046636 -0.667309 0.104209 -0.053544 -0.46201 -0.211812 0.470284 0.121095 0.412347 -0.41558 0.883261 0.192614 0.197039 -0.530534 0.326465 0.209097 -0.130712 0.601989 0.265046 -0.63074 0.395519 -0.148322 -0.0196457 0.144454 0.874278 -0.159317 -0.21511 0.192269 0.867814 -0.195104 0.0363426 0.479552 -0.286577 -0.133522 0.0218858 -0.208091 -0.0815191 -0.322793 -0.65559 0.125542 -0.385698 -0.125414 0.107224 0.130756 -0.26233 -0.0560206 -0.114303 -0.0205859 -0.407771 0.0418705 0.473962 -0.0384443 6.16877e-05 -0.239373 -0.335237 -0.0697998 -0.21813 -0.270573 -0.130347 -0.159974 -0.245 0.828747 -0.751543 -0.461876 -0.0948668 -0.687477 -0.334052 -1.35177 0.112432 -0.207797 -0.339232 -0.115442 0.297638 -0.163215 0.415656 -0.758566 
48 0.272603 0.115409 -0.320826 0.16727 -0.779229 -0.188244 0.216258 -0.315985 0.161886 -0.423437 -0.603974 -0.311318 0.377018 -0.141607 0.227813 -0.308783 0.103064 -1.04942 -0.32188 -0.343746 -0.58118 -1.30146 0.236329 -0.408654 1.39305 0.33329 0.751039 0.869786 0.62626 -0.719401 -0.901231 0.11933 0.783831 0.257509 0.725267 0.729731 0.191549 0.159711 -0.130111 -0.182305 0.8866 0.411881 0.196871 0.0722806 -0.555422 0.536489 0.746756 1.09265 -0.784209 0.562088 -0.472732 -0.468578 -0.323411 0.718855 -0.308581 -0.478177 -0.505041 0.383252 0.332781 -0.109753 0.315007 0.212223 0.0542143 1.24252 0.386505 -0.0332142 0.287315 -0.209332 0.0669441 0.500102 0.848872 0.0465731 -0.195071 -0.295928 -1.24952 -0.575108 0.62026 0.213541 0.10986 0.255652 1.14068 -0.296534 0.00375987 0.535673 -0.619512 0.573565 0.377509 -0.393996 -0.396518 -0.325312 -1.01385 0.373551 0.172268 -0.596321 0.258485 0.0314498 0.160178 -0.0302352 1.20742 0.238169 -0.705096 -0.399286 0.40772 -0.335556 0.00946008 0.0637609 -0.276947 -0.202551 0.385898 -0.366255 0.386853 -0.278705 -0.297401 0.607618 0.0726682 -0.323798 0.331611 -0.678804 0.295147 -1.71794 0.296538 0.324623 0.157824 -0.091733 0.09525 0.231145 -0.0551482 -0.18029 
49 0.617361 0.270933 0.690609 0.220275 -0.327157 -0.800385 -0.309527 -1.12981 -0.495511 0.0437949 -1.20693 0.604688 0.281191 -0.271617 -0.142288 -0.882659 0.0188921 -0.349224 -0.291519 0.445177 -0.0852235 0.686894 1.20865 0.520607 0.435042 -0.0510999 0.110661 0.872184 0.549302 -0.264157 -0.339673 0.555388 -0.470244 0.96253 0.347628 0.321781 0.667587 0.225475 -0.00761964 0.874105 0.596347 -0.290867 -0.422986 0.357645 -0.121605 0.603426 0.575647 0.946724 -0.411923 0.485222 -0.263145 0.385408 -0.568084 -0.348975 0.386066 0.330629 -1.07244 0.717365 0.75847 -0.0857586 0.179006 -0.0951554 0.268882 0.299699 -0.34352 0.379235 0.409792 -0.495677 -0.398821 -0.0217989 -0.49146 0.0641047 -0.162369 0.233144 -0.268872 0.210594 0.418989 -0.0854937 -0.92873 0.0384454 0.322247 -0.972948 -0.490284 0.825926 -0.834745 -0.250441 0.25252 -0.0595281 -0.55087 -0.497641 -0.234078 0.021944 -0.097499 0.230423 0.226588 -0.16143 -1.27553 0.278297 0.145933 -0.660816 -0.421152 0.300815 0.00633194 -0.412806 0.433751 0.127302 -0.258651 -0.283399 0.176863 -0.690541 -0.0358732 -0.628422 -0.144666 0.0444659 -0.776362 0.202176 -0.212962 0.283198 -0.165784 -0.881182 0.426005 -0.490039 0.252224 -0.450322 0.375717 -0.027567 0.310536 -0.341429 
50 0.162983 0.424386 0.130787 -0.215379 -0.111488 -0.659744 -0.047331 -0.346385 -0.404931 0.212442 -0.565045 -0.071153 0.312559 0.214895 -0.202198 -0.463467 -0.149364 -0.446356 -0.29906 0.609497 -0.861714 -0.0982872 0.465228 0.122489 0.00781301 -0.256435 0.455615 0.183847 0.258738 -0.0685832 -0.0362688 0.0020728 0.0841785 0.969986 -0.372422 0.0776553 1.11835 0.7168 0.16267 0.191088 0.00821253 0.409029 -0.143162 -0.284921 -0.0495886 0.029615 0.373636 0.614435 -0.5872 0.260916 -0.0295685 0.483138 -0.191769 0.274328 0.749818 -0.0790205 -0.733827 -0.15772 0.574789 -0.456442 0.463086 -0.0259624 0.0836719 0.299038 -0.264042 -0.206831 0.625128 -0.295882 -0.599374 -0.232208 0.233604 -0.399289 0.276133 0.602886 0.293187 -0.192061 0.528261 0.168832 -0.629372 0.0182664 0.693478 -0.323911 0.20339 -0.0253671 0.0445779 -0.229549 -0.0159731 -0.150252 -0.23466 0.128338 -0.663454 0.244189 -0.538733 -0.549359 0.0419734 0.0303102 -0.423216 0.239185 0.134508 -0.068133 -0.246749 0.484016 0.357159 -0.162473 0.272778 0.331896 -0.536672 0.132329 -0.406201 -0.193506 0.329979 0.0801987 0.0607214 0.518915 -0.789903 -0.540131 -0.208528 -0.154869 -0.631789 -0.629267 0.614594 0.127826 -0.276506 -0.308421 -0.41037 -0.502923 -0.0134056 -0.707121 
51 -0.244651 0.0667288 -1.33512 0.273961 0.0855165 -0.290557 0.649266 -0.267264 0.669922 0.0982012 0.895089 -0.754364 1.0907 -0.0365289 0.5513 -0.388094 0.337455 0.23252 0.347251 0.512645 -0.807085 -0.532392 0.119243 0.340725 -0.297089 -0.502329 0.722319 -0.22584 0.262236 0.0733694 -0.251611 0.707995 0.104649 0.778278 0.0420692 0.130356 0.961114 -0.0471748 -0.115046 -0.400097 0.749594 -0.041954 0.422978 -0.373908 -0.0311596 -0.508845 0.250867 0.730439 -1.06283 -0.916393 -0.274648 0.272009 -0.516028 0.29671 0.449199 -0.518451 -0.22566 -0.00442815 0.571297 -0.195818 -0.7924 -0.652572 0.0745555 0.63763 0.0449615 -0.430495 0.486809 0.652249 -0.639555 0.327222 0.0230106 -1.04942 -0.526887 0.489608 -0.0521136 -0.778277 0.519096 0.277099 0.528617 0.213222 1.43407 0.138958 0.319737 0.00569466 0.641727 -0.279374 0.475566 0.20735 -0.200848 0.433862 -0.3113 -0.525008 0.401428 -0.415503 0.144413 -0.287781 0.201186 0.299849 0.614183 0.137381 -0.037507 -0.324929 -0.292882 -0.368667 -0.078313 0.0964039 0.0835359 0.11781 0.938444 -0.40281 0.376219 -0.198365 -0.449142 -0.0712554 0.437295 -0.30785 -0.456818 -1.18141 0.0320123 -0.920076 0.606479 -0.156278 -0.655238 -0.854419 0.0128242 -0.259465 0.680028 -0.846067 
52 0.252416 0.471774 0.203936 -0.0428547 -0.634166 -0.770363 -0.258149 -0.00843743 -0.276293 0.45356 -0.528157 0.258491 0.133079 -0.222337 -0.160435 -0.599841 -0.44142 -0.462283 0.0505759 0.557342 -0.457508 0.368729 0.641052 0.0391 0.0375467 -0.448099 0.106108 0.319393 0.715086 -0.53857 -1.18164 0.332608 -0.0812052 0.558083 0.0967204 -0.454946 0.997735 0.272522 -0.20542 0.302855 0.752493 0.255495 0.201824 0.497997 0.233871 0.396978 -0.109084 0.839151 -0.3043 0.0123058 -0.372954 0.750038 0.0628031 -0.153153 0.311875 0.309128 -0.40852 0.296209 0.481715 -0.235907 0.332075 0.277106 -0.417815 0.63641 -0.084812 0.413795 0.0254432 -0.0605995 -0.547837 0.225864 -0.161711 0.139352 -0.0324357 0.584717 -0.116618 0.00726739 0.349851 0.126951 -0.467429 -0.536896 -0.0765859 -0.661984 0.0475814 0.855351 -0.302686 0.146674 0.660064 -0.602131 0.0763553 -0.324078 -0.320124 -0.228954 0.441711 0.342084 0.265683 -0.405302 -0.428085 -0.0987932 0.386122 -0.195338 -0.236253 0.0457025 -0.147759 -0.105763 0.161175 0.100558 -0.447976 0.078638 0.0276578 -0.325846 0.00427837 -0.466492 -0.211541 0.695985 -0.0600465 0.0318989 -0.515687 -0.344753 -0.452728 -0.265223 0.221491 -0.741449 0.0819964 -0.537468 -0.362491 -0.310761 0.256362 -0.771079 
53 0.392448 0.301187 0.475364 -0.111486 0.23952 -0.527662 -0.169626 -0.434593 -0.222916 0.815598 -0.634302 -0.493501 0.451419 0.0390985 0.419075 -0.652832 0.331202 -0.373774 0.0148267 0.369023 -0.555141 0.00718215 0.383452 0.0347266 0.132796 0.324568 -0.0838878 0.594523 0.4495 -0.155358 -0.095732 -0.137446 -0.482824 0.688072 0.0306156 0.3037 0.656226 -0.0659441 -0.200653 -0.11192 0.431524 -0.125057 0.930174 -0.149285 0.658906 0.361321 0.615158 1.10096 -0.17357 0.535856 0.0721187 -0.149842 -0.468022 -0.0046447 0.0117074 0.0824579 -0.143773 0.162305 0.272125 0.443258 0.317723 -0.078184 -0.0690657 0.243463 0.459328 0.161953 -0.299025 -0.631127 -0.0982249 0.103919 -0.39641 -0.0983327 0.269591 0.218232 -0.171069 0.488839 0.00503926 0.0772694 -0.00418589 -0.0355077 0.559344 0.187513 -0.772855 0.129178 -0.501438 0.214022 0.419749 -0.263047 -0.593474 0.0348364 -0.0355053 0.515214 0.311026 0.0422001 -0.219623 -0.0722982 -0.546265 -0.00261747 0.258148 0.131971 -0.327925 -0.287408 0.139546 -0.560665 -0.25061 -0.0309765 -0.206963 -0.0314435 0.373694 -0.373408 -0.113717 -0.337123 -0.664982 0.310894 0.0880026 -0.0538872 -0.358902 -0.782442 0.234108 -0.90595 0.0973823 -0.18768 0.0807736 -0.546382 -0.577361 -0.757025 0.218309 -0.235489 
54 -0.288573 0.382633 -1.05154 0.618646 -0.0694462 0.245237 0.82673 -0.110692 0.0167541 -0.176775 0.162927 -0.527896 0.258612 0.0104349 0.471639 -0.603204 0.263066 -0.748037 -0.322916 -0.0962048 -1.02281 -0.967175 -0.0546893 -0.172385 1.07981 0.361534 0.839622 0.556586 0.225516 -0.312606 -0.103069 0.558965 0.382711 -0.042551 0.537088 0.448579 -0.00953713 -0.333399 -0.211778 -0.621708 1.06042 0.35384 -0.468921 0.289948 -0.32608 0.674441 -0.0533935 0.97157 -1.01863 -0.183191 -0.0279817 0.145879 6.63241e-05 0.368499 -0.121396 -0.673031 -0.244863 0.638974 0.225956 -0.195789 -0.412879 0.115755 0.088303 1.47758 -0.0743738 -0.54825 0.614001 0.386049 -0.386966 0.449011 0.0421302 0.141955 0.100613 -0.223091 -0.835427 -0.194399 0.724358 0.281326 0.517693 0.308436 1.11312 -0.290375 -0.183289 -0.0136994 -0.491705 0.327812 -0.276583 0.166675 0.336577 -0.359773 -1.19657 -0.705448 -0.105387 -0.47707 0.237693 -0.428981 -0.199789 -0.104142 0.74751 0.317517 -0.531057 -0.264321 0.397142 0.174619 0.0449226 -0.228402 0.259851 -0.203902 0.838105 -0.414096 0.0581953 -0.0900929 -0.323804 0.630428 0.558183 -0.171923 0.228131 -1.13111 -0.807615 -0.806834 0.367034 0.177454 -0.00348827 -0.217909 -0.194978 0.0317634 0.620434 -0.528522 
55 0.322259 0.167729 -0.190652 -0.038301 -0.109052 -1.21625 -0.243677 -0.0586045 0.180667 0.274293 -0.394647 -0.504323 0.688268 0.0826539 0.0623803 -0.201783 0.188361 -0.311932 0.0497758 0.423622 -0.934923 -0.0165902 0.70592 0.782377 0.30665 -0.202023 0.705337 -0.0257931 0.311784 -0.364442 -0.593029 0.409884 -0.721524 0.957701 0.318442 0.231304 0.0575637 0.351974 0.169088 -0.120736 0.928113 0.534714 0.247504 0.0641319 -0.568525 0.105839 0.776083 0.696564 -0.245455 0.521323 0.853605 0.163515 0.0681184 -0.543504 0.754682 -0.117679 -0.449308 -0.0449404 0.723428 -0.253924 0.665901 0.303169 -0.315654 0.179761 -0.409207 0.103261 -0.00249392 0.293804 -0.547274 0.24274 -0.362048 -0.0580835 -0.479823 -0.332851 -0.181085 -0.264808 0.641057 -0.261057 0.00560081 -0.356211 -0.153833 0.0803137 0.0779021 0.566464 -0.851713 -0.131772 0.891771 -0.519028 -0.0865765 -0.32255 -0.63261 -0.521504 -0.0888788 -0.455422 -0.427832 -0.194796 -0.40895 -0.124173 0.753843 -0.67145 0.210848 -0.0506455 0.203377 -0.135254 0.265989 -0.226483 -0.322702 0.360577 -0.221323 -0.211339 0.642309 -0.212395 -0.639469 0.9255 -0.55329 -0.530687 -0.0226492 -0.187513 -0.319114 -0.737058 0.120625 -0.0110277 0.130644 -0.315204 0.141036 -0.22395 0.0485097 -0.229923 
56 0.0784379 -0.131325 0.274036 0.32648 0.138691 0.601845 -0.613372 -0.68141 0.313106 1.05057 -0.129146 0.201097 0.573809 -0.530405 0.493642 -0.992169 0.388959 0.386304 0.428438 0.433972 -0.23161 -0.385127 0.796144 0.226652 0.109859 -0.241358 0.962658 0.645953 0.761127 -0.209605 -0.402688 0.0648938 0.0752439 0.657309 0.12304 -0.658353 1.06596 0.911644 -0.175443 0.508742 0.61852 0.215925 -0.00683364 0.284752 0.0658432 -0.288555 0.612825 0.633394 -0.348407 0.189541 -0.0208863 -0.0736717 -0.766553 -0.49829 1.02261 -0.235445 -0.157409 0.384106 0.440938 0.34387 0.614899 0.184723 0.0611846 0.581948 -0.0837614 0.690739 0.0385419 -0.401206 0.0102039 -0.320356 -0.509113 -0.143816 0.599415 0.282248 -0.409662 0.523642 0.0107138 -0.182475 -0.193604 -0.0156488 1.23813 -0.42029 -0.107812 0.673341 -0.66879 0.0404332 0.655097 0.0957878 -0.188483 -0.617794 -0.412475 -0.404496 -0.269346 -0.523481 0.485164 0.0650693 -0.507582 0.192486 0.689377 0.332324 -0.507634 -0.6751 -0.664971 -0.581791 0.325532 -0.526832 -1.03051 -0.295345 -0.185659 0.1983 0.52407 -0.415957 -0.15235 0.290559 -1.11792 -0.0793942 -0.903007 0.601331 0.168262 -0.885785 0.383273 -0.0243492 0.0170735 -0.071808 -0.0283773 -0.310108 -0.16672 -0.288717 
57 0.160589 -0.103677 -0.0172046 0.0282159 0.189353 -0.364294 -0.6766 -0.62586 -0.295332 0.581444 -0.855422 0.420792 0.271501 -0.320324 0.262902 0.0729336 0.472043 0.0800792 -0.232999 0.624548 0.101097 0.144385 0.960365 0.344439 0.776119 0.651153 0.380594 0.25438 0.432196 0.149945 -0.063256 0.227934 -0.630223 1.44057 -0.103911 -0.603214 0.463337 0.0866488 0.0252284 0.19385 0.347272 -0.197267 0.187359 0.632265 0.22738 0.618139 1.12421 1.47574 -0.112255 0.916689 -0.0134163 -0.0829144 -0.448139 -0.665514 0.151381 -0.0197948 -0.280825 -0.114793 0.741836 0.206959 -0.116505 0.258272 0.0358232 -0.0698698 0.141353 -0.1856 -0.243709 -0.0019407 -0.855551 0.14147 -0.898048 -0.102896 0.0915561 0.597487 -0.0680156 -0.0837927 0.867316 0.382198 0.192248 -0.170051 0.483483 -0.418765 -0.0588991 1.05905 0.0606975 0.377819 0.456459 -0.641683 -0.544424 -0.673725 -0.58048 0.178936 -0.500736 -0.356999 0.464345 -0.906104 0.0199364 0.0024892 0.235324 -0.144798 0.0515846 -0.0837073 0.216656 -0.290665 0.191187 0.0654572 -0.570139 -0.100585 1.11556 -0.231677 -1.02309 0.162489 -0.516994 0.731216 -0.57623 0.0185863 -0.210316 -0.263127 0.362681 -0.813866 0.653389 -0.0205534 0.230739 -0.350388 -0.353089 -0.157042 -0.0431603 -0.29585 
58 -0.489337 0.420233 -1.09343 0.590739 0.453062 -0.39185 0.942422 0.383728 -0.283266 -0.986937 -0.00155611 -1.27244 1.02057 -0.165716 0.308163 -0.526572 0.175996 0.228249 -0.365842 1.30894 -0.99856 -0.3783 0.344705 0.148201 0.112578 -0.419047 0.212072 -0.39272 -0.0861883 -0.227295 -0.406902 0.053219 0.954227 0.127423 -0.23944 0.0905711 0.935961 -0.430952 -0.209184 -0.856347 1.30708 -0.0759622 0.045146 -0.183285 -0.00359541 -0.539017 0.550487 0.263392 0.00445197 -0.322408 -0.131339 0.212482 -0.811666 0.833118 -0.433363 -0.445012 -0.150096 0.617627 0.328887 -0.30977 -0.361423 -0.498862 0.447774 0.855046 -0.158576 0.509461 0.508656 0.250565 -0.374946 0.998007 0.75022 0.000747281 -0.79052 0.116276 -0.205161 -0.191695 0.888929 0.685068 0.392562 0.207182 1.09413 -0.0339124 -0.527693 -1.05877 0.181348 0.0315422 -0.192371 0.140854 -0.0142094 0.0240775 -0.935994 -0.125805 0.14569 -0.594697 0.316039 0.301556 -0.569934 -0.108575 0.425516 -0.0329457 -0.471297 -0.0865917 0.237076 -0.271684 -0.113174 -0.0638885 -0.0452494 0.1395 1.07538 -0.318956 0.366423 -0.119213 -0.718423 0.457283 0.457343 -0.59369 0.540138 -0.560782 -0.0535705 -1.01722 0.666643 -0.491738 -0.519479 -0.453623 -0.0256694 -0.125775 0.0633159 -0.729012 
59 0.588236 0.218547 0.588344 0.327172 -0.0486712 -0.832787 -0.582666 -0.844097 -0.725637 -0.0721508 -1.39922 0.669476 0.102264 0.0228901 -0.124765 -0.882311 0.0988625 -0.151845 -0.0593323 0.35643 0.191856 0.442019 1.17727 0.2074 0.215602 0.179849 0.191614 0.553307 0.481104 -0.188228 -0.390413 0.232585 -0.592846 0.696922 0.635926 0.514317 0.672134 0.19278 -0.10156 1.01429 0.569317 -0.185012 -0.659493 0.552095 -0.19014 0.376041 0.613249 1.41167 -0.442018 0.228957 -0.331278 0.437161 -0.445685 -0.359008 0.298034 0.362205 -0.898476 0.635958 0.680217 0.255311 -0.0786796 0.104787 0.245276 0.559869 -0.442369 0.47122 0.173182 -0.373128 -0.335041 -0.198894 -0.656047 -0.0465277 -0.458877 0.00443326 -0.122893 -0.112834 0.328128 0.00328553 -0.821111 0.099076 0.556962 -0.832762 -0.675465 0.884404 -1.04693 -0.380963 0.373875 0.0381309 -0.407731 -0.925249 -0.188833 -0.0346834 -0.137513 -0.021247 0.221545 -0.416001 -1.06121 0.407111 0.27225 -0.683093 -0.252522 0.0572381 -0.119852 -0.585048 0.462599 0.0687522 -0.263225 -0.493656 0.382957 -0.834366 -0.292772 -0.502568 0.173547 0.0641051 -0.953367 0.279518 0.0942641 0.221507 -0.304589 -1.01005 0.636602 -0.481244 0.225403 -0.391515 0.270711 0.0728205 0.369062 0.172345 
60 0.232223 0.344406 0.0556275 0.354311 -0.626428 -0.243145 -0.162617 -0.193957 -0.341857 0.457218 -1.14454 -0.281758 0.687002 0.024319 0.0455216 0.037645 -0.170131 -0.781107 -0.0747443 0.255414 -0.00938366 -0.50386 0.349847 -0.0873282 0.877873 0.231056 0.457486 0.837138 0.116594 -0.300652 -0.516501 -0.0654371 -0.363407 -0.0365892 0.101291 0.192348 0.107272 0.430467 0.0559208 0.430185 0.875369 0.630355 0.222976 0.402262 -0.301512 0.0766713 0.263349 0.904474 -0.485599 0.684043 0.17954 -0.509948 -0.533447 0.201714 -0.360438 -0.466114 -0.230686 -0.153536 0.737298 -0.326175 0.706717 0.338465 -0.393382 0.405097 0.222917 0.311566 -0.0361226 -0.218263 0.0544482 0.0964758 -0.00997947 0.247425 0.0148397 -0.0926434 -0.72583 0.159926 0.287094 -0.131942 -0.187806 -0.102918 0.6203 -0.559752 -0.61558 0.273537 -0.538444 0.0146869 0.0374655 -0.275733 -0.649667 -0.498349 -0.747939 -0.0346595 0.540336 -0.464899 0.381748 0.166362 -0.649487 0.329762 0.532628 -0.0534523 -0.837819 -0.0931707 0.601229 -0.253066 0.141219 -0.160259 -0.812469 -0.258752 0.398273 -0.326799 0.0572987 -0.431578 -0.685679 0.489786 -0.845077 0.320965 0.406122 0.106164 -0.235572 -0.608787 0.0306327 -0.0171181 -0.057119 0.448893 0.243923 -0.0537217 0.221254 -0.434042 
61 0.263071 -0.188976 -0.592651 -0.0510431 -0.782409 -0.25558 0.0294064 -0.485114 -0.0237242 0.0763961 -1.13443 0.472537 0.0112825 0.415907 0.43506 -0.985122 0.0704442 0.169112 0.506543 0.686274 -0.0541283 0.257759 0.88341 -0.28799 0.344586 -0.661323 0.693758 0.725577 -0.148585 0.226617 0.155175 0.141045 -0.377659 1.23658 0.154933 0.661474 0.727597 0.333661 -0.212115 0.356942 0.473791 0.276463 -0.127614 0.394638 0.387903 0.345991 0.969882 1.01924 -0.561109 0.212462 -0.050779 0.788708 -0.0748087 -0.163988 0.772847 0.0954627 -0.522509 0.288817 0.836079 0.0230791 0.505143 0.888379 0.556638 0.407849 0.399599 -0.154812 -0.158424 -0.303472 -0.546346 0.0490864 0.284992 0.0932594 0.00377881 -0.164232 0.0316974 -0.175059 0.741853 0.198253 -0.0451946 -0.504188 -0.0487473 0.381289 0.118305 0.433157 -0.218868 -0.0663165 -0.121608 -0.157615 -0.649256 -0.741462 -0.825501 -0.617404 0.144835 0.18702 -0.405789 -0.0946849 -0.572789 -0.217629 -0.542464 0.32682 -0.56619 0.887389 0.255789 -0.0584868 0.113924 -0.374982 -0.0864506 0.3471 -0.0349846 -0.810045 0.335651 -0.44836 -0.886183 0.131316 -0.170268 0.270337 -0.0551527 -0.517973 -0.573109 -1.07009 0.0206818 -0.189531 0.061601 0.0125286 0.457357 0.118007 -0.0819132 -0.877089 
62 -0.338008 -0.0159805 0.202757 -0.141295 0.0358382 -0.449656 0.15984 -0.1718 -0.306645 0.24683 -0.599321 -0.287062 0.00113041 -0.788615 0.671986 -0.882585 0.0690114 -0.0219163 0.110869 0.895785 -0.574146 0.340495 1.02679 -0.162136 0.788346 -0.17516 0.789779 0.650433 0.302269 0.25911 -0.100832 -0.469987 0.645554 0.187574 -0.094708 -0.555773 0.951263 -0.0558066 -0.393936 0.0105083 0.437126 0.679311 0.635608 0.158365 -0.0972409 0.0383883 0.964475 0.941521 -0.518651 0.399336 -0.340719 -0.635421 0.806425 -0.851511 0.334779 -0.401705 -0.215794 0.0784138 0.197916 -0.0327629 0.111865 0.0910749 0.737547 0.278608 0.179689 0.292831 0.60655 0.276409 -0.568137 -0.26864 0.0336866 -0.522361 0.758201 -0.393459 -0.225035 -0.98891 -0.222115 0.251099 0.00275078 -0.175771 0.963961 0.693325 0.125205 0.291012 0.0443519 -0.277897 -0.312049 0.0432001 -0.152241 -0.966338 -0.63893 -0.548652 -0.201788 -0.253862 -0.513876 -0.682444 -0.984502 0.924361 0.264224 0.137727 -0.112001 -0.0992286 -0.672283 -0.235529 0.441154 0.12452 -0.129484 0.485292 0.313743 -0.693574 0.313805 -0.138473 -0.27421 0.279573 -0.378706 -0.598587 0.147841 -0.85996 -0.33705 -0.542404 0.602163 0.0151588 -0.552289 -0.242404 0.251467 0.247947 -0.206084 -0.519259 
63 -0.330414 -0.155995 0.134736 0.561488 0.231243 -1.11646 -0.0616335 -1.15491 0.00131591 0.236535 -1.34188 -0.717539 -0.238071 -0.515194 -0.18476 -0.712427 0.900029 -0.360401 0.029068 0.339198 -0.861856 0.680364 0.870342 0.1451 -0.197818 0.511144 0.797934 0.541335 0.189018 -0.108165 -0.39369 -0.419591 -0.0536097 0.645964 0.166231 -0.120035 0.975468 0.202905 0.282889 0.414825 0.284426 0.618375 -0.133678 0.28788 -0.0187233 0.190284 0.915108 1.42967 -0.457719 0.181736 0.242185 -0.0134387 -0.536487 -0.0851866 0.679606 -0.328384 -0.534767 0.461028 0.698589 -0.386706 0.621706 0.213083 0.427498 0.313035 -0.723655 0.602473 0.578581 -0.70401 -0.713323 -0.617283 -0.77788 0.246855 -0.286103 0.167892 -0.465697 -0.467808 0.104032 0.0562228 -0.600701 -0.68734 0.295357 -0.370465 -0.167921 0.401642 0.20527 0.0767337 0.27766 -0.0364098 -0.181023 -0.15302 -0.489711 -0.25839 0.0407645 -0.167328 1.06452 -0.158788 -0.204935 0.693311 0.845121 -0.0522194 -0.586166 0.0647004 0.270158 0.168187 0.0202286 -0.165324 -0.542001 -0.0278882 0.179499 -0.581716 -0.194843 -1.03895 0.212052 0.446369 -0.687677 -0.392116 -0.699145 0.0265664 0.240394 -1.06295 0.232543 -0.634989 0.018758 -0.720998 -0.0836995 -0.128554 0.295574 0.288104 
64 0.238479 0.114855 0.157318 0.227994 -0.265865 -1.09753 -0.282535 -0.00358692 -0.197227 0.449862 -1.17815 -0.481452 0.0665076 -0.0948006 0.313243 -0.963498 0.31706 -0.663623 -0.350783 0.295879 -0.485235 0.591095 0.622088 -0.0843731 0.126334 -0.160149 0.110347 0.12331 1.03793 -0.458328 -0.750709 0.411922 -0.58686 0.989872 0.405439 -0.76354 0.776595 0.360345 -0.0961162 0.205189 0.645705 0.097427 0.44826 0.0373482 0.983121 0.406788 0.714745 0.776924 -0.404021 0.204945 0.540954 0.424194 -0.050556 -0.176157 0.347817 -0.431274 -0.0606417 -0.376371 0.817365 -0.0928511 0.845851 -0.149579 -0.573269 0.902153 -0.527906 0.195478 0.00197201 -0.0648886 -0.651716 0.260404 -0.850427 -0.42215 0.278697 0.23003 -0.463642 -0.506369 0.25028 0.626037 -0.53697 -0.423446 -0.0570214 -0.377429 -0.272642 1.04102 -0.17984 0.26934 0.790327 -0.424732 -0.0733314 -0.535369 -0.165909 -0.228807 0.21191 0.238147 0.56235 -0.397433 -0.546219 0.841201 0.891431 0.157199 -0.467062 -0.70118 -0.48994 -0.30402 -0.489455 0.120539 -0.275011 -0.0717535 0.166044 -0.356612 0.0741685 -0.736756 0.270939 0.610304 0.0398342 -0.0388014 -0.815671 -0.39881 -0.183618 -1.29081 -0.115699 -0.959384 0.527204 -0.818015 -0.844324 -0.691233 -0.0403003 -0.187435 
65 -0.0387149 0.0388501 0.432212 -0.552598 -0.0557493 -0.376195 0.278323 -0.766891 -0.537675 0.843182 -0.531875 0.342472 -0.247344 -0.18281 0.752346 -0.09704 -0.101053 -0.479151 0.654427 0.5283 0.435171 0.121925 0.941178 0.804098 0.293568 -0.0804144 0.522025 0.192179 0.168139 -0.253417 -0.737989 -0.00718435 0.0744248 1.01156 -0.508567 -0.908294 0.853322 0.649692 -0.134703 0.176729 0.208745 0.755041 0.502923 0.501915 0.231137 0.238236 0.659951 1.27179 0.0359241 0.92386 -0.0111622 0.04411 -0.104439 0.171114 0.736289 -1.08436 -0.860284 0.129926 1.11488 -0.0235296 0.612334 0.646783 0.618363 0.406033 0.525928 0.231002 0.0389973 -0.206311 -0.591222 0.863119 -0.205158 -0.47129 0.122247 -0.288765 -0.609251 -1.07817 -0.309893 0.198362 0.60857 -0.365144 0.421202 0.707512 -0.887831 -0.046071 -0.123632 0.811532 0.150406 -0.310341 -0.731687 -0.589819 -1.35959 0.337733 0.199115 -0.342338 -0.830512 -0.440864 -0.432942 -0.111374 1.00842 0.591024 -0.313869 0.220361 -0.861321 0.0863558 0.68343 0.278401 -0.926781 -0.397496 -0.0723182 -0.103011 0.990421 -0.428847 -0.641436 0.624491 -0.0823636 -0.645161 -0.256673 -0.133265 -0.179213 -0.985288 0.501162 0.948537 -0.5034 -0.113841 -0.228166 0.436702 -0.161397 -0.0477446 
66 0.0258859 0.248367 0.0190958 -0.0273873 -0.262545 -0.506011 0.403882 -0.132279 -0.266573 -0.0022829 0.151278 0.133677 0.455684 -0.262975 0.296388 -0.0741087 0.062551 0.0137917 0.221047 0.173475 0.0994145 0.0131 0.182308 -0.23927 0.0606996 -0.0439011 0.216371 0.452306 0.427084 0.0343939 -0.415247 -0.120582 -0.496537 0.125076 -0.145829 0.178623 0.552562 0.024619 -0.250198 -0.0840932 0.130314 0.384281 -0.184012 -0.20725 -0.0506615 0.280254 0.507025 0.373767 -0.134504 -0.0900975 0.172914 -0.128778 -0.422346 -0.028908 0.0817071 -0.473178 -0.136725 0.259648 0.352917 0.0401233 0.241705 0.105436 -0.0153322 0.0986869 0.414042 0.168297 -0.0937291 -0.0691241 -0.155262 -0.232328 -0.423111 -0.275793 -0.168636 0.457572 -0.2896 -0.134561 0.193712 -0.0571501 0.167176 -0.226848 0.160083 0.039145 0.171907 -0.148165 -0.181515 -0.020041 0.232363 -0.0408203 0.133672 -0.0342389 -0.349394 0.193788 -0.20388 -0.0492422 0.388313 -0.227382 -0.218513 0.035393 -0.0537728 -0.118104 -0.121703 0.123626 0.143382 -0.164851 0.0698677 -0.217848 0.050422 -0.169719 0.174196 -0.0883518 -0.345455 -0.0784895 -0.317891 0.170045 -0.204532 0.112761 0.386977 0.0510731 -0.405309 -0.482892 0.141276 0.111654 0.126242 0.303235 -0.0336676 -0.258598 0.377855 -0.195781 
67 0.853185 0.295884 -0.641808 0.339175 0.20682 -0.36116 -0.0626081 -0.470287 -0.184995 -0.384473 -0.249172 -0.0129464 0.117072 -0.724585 0.307477 -0.14584 0.428088 -1.09368 0.0845196 0.216985 -1.2674 -0.967604 -0.055094 -0.417197 1.2265 -0.658617 0.514577 0.371591 0.646905 -0.48626 -0.311158 -0.203197 1.20778 0.333282 0.482753 0.231633 -0.0713567 -0.041079 -0.47612 -0.400323 1.10414 0.0844726 0.414737 -0.539245 -0.418066 0.39682 1.21106 1.21325 -0.624946 -0.313387 -0.269157 0.506996 -0.362703 0.310938 0.024654 0.395328 -0.297709 0.134235 1.00073 0.223407 -0.53191 -0.015145 0.536851 0.545011 -0.273163 -0.106262 0.990621 -0.233196 -0.764381 0.519133 0.538155 0.0410265 0.32655 -0.109424 -1.83671 -1.03319 0.956652 0.0534582 0.454761 -0.127975 1.30576 -0.417717 -0.322759 -0.0943792 -0.803754 0.307511 -0.272374 -0.424152 -0.379772 0.347095 -0.317771 -0.322061 -0.614278 -0.00792113 0.877347 0.426706 0.650968 -0.181327 0.623556 0.351138 -0.431933 0.00691839 0.325103 -0.282188 0.313783 -0.390147 0.337575 -0.234902 0.837841 0.0335377 0.657219 -0.537559 -0.585825 -0.127873 0.364218 -0.035299 -0.201919 -0.282646 -0.480509 -1.6112 0.991847 1.16008 0.145353 -0.326316 0.165857 0.101257 0.996788 -0.0773569 
68 0.243708 0.125108 -0.170719 -0.514161 -0.118887 -0.406508 -0.461999 -0.157563 -0.2482 0.420414 -0.271244 -0.307955 0.095509 0.177767 0.25999 -0.229658 0.168617 0.0179411 0.164268 0.349753 -0.448006 0.00188506 0.166763 0.197858 0.500922 -0.105877 0.439713 0.0396672 0.150667 -0.210721 -0.245859 0.354835 -0.409334 0.134966 0.262197 -0.229849 0.457992 0.244025 -0.113768 0.0211265 0.954202 0.344376 0.0667348 0.0648869 -0.109111 0.0279449 0.28157 0.646879 -0.159276 0.512928 0.345779 0.00539779 0.122721 0.275152 -0.0250089 0.0960897 -0.228008 0.369256 0.327858 -0.668891 0.152034 0.590709 -0.23304 0.444929 -0.0125918 0.262909 0.083741 0.307797 0.0449512 0.207562 -0.199707 0.126954 0.17387 -0.00903989 -0.411606 -0.101515 0.29605 0.35203 -0.240513 -0.578895 0.0366684 0.0325917 0.283043 0.142106 -0.203378 -0.0485895 -0.558417 -0.199261 -0.180445 -0.265724 -0.31015 0.29445 0.0431337 -0.153173 0.160252 -0.450332 -0.563262 -0.0336438 -0.369073 -0.111668 -0.506598 -0.223928 -0.0201817 -0.446468 -0.0183194 0.0401744 -0.51913 -0.382286 0.367203 -0.339114 -0.0122103 0.0304991 -0.342985 0.421737 -0.497569 -0.300352 -0.156816 -0.48752 0.0135647 -0.386417 -0.190001 -0.518506 0.153916 -0.125721 0.00178296 -0.416713 -0.0140238 -0.348323 
69 -0.133554 -0.117593 0.109653 0.875593 -0.134151 0.968743 -0.52744 -0.514691 1.04874 0.148872 -0.0032017 0.129223 1.42264 -0.126943 0.543934 -0.644529 -0.118269 0.249172 0.844297 0.391868 0.0921641 -0.709265 1.09407 0.00991218 0.57171 -0.12937 1.53265 0.308693 -0.163508 -0.0115386 -0.920566 -0.508707 0.952657 -0.152807 -0.212493 -0.0660277 1.39585 0.323632 -0.0986121 0.508101 0.739985 -0.508226 0.157503 -0.254815 -0.425485 -0.318974 0.568799 0.710679 -1.16204 0.5319 -0.714146 -0.0606625 -0.537906 0.147772 0.985227 0.0904125 -0.606467 0.230278 0.449211 0.157702 1.0593 -0.179521 -0.123467 1.05506 0.213329 -0.0993562 0.829179 -0.94687 -0.919512 -0.194484 -0.224109 -0.272714 0.922579 1.19038 0.0495325 -0.104929 0.759654 0.324013 -0.153908 -0.0531483 1.79134 0.101549 0.21987 0.0183289 -0.557205 0.112469 0.0704513 -0.550615 -0.136266 0.386847 -0.530609 -0.919801 -0.53263 -0.202776 0.0798578 0.237879 -0.102064 0.0919738 0.895085 -0.208676 -0.390026 -0.00117681 -0.35338 -0.172301 0.630192 0.356548 -0.589746 -0.0752037 0.214733 0.320295 0.624267 0.0199988 -0.20408 0.81702 -1.27899 -1.59294 -0.347231 -0.780235 -0.431646 -0.984762 0.262714 0.201213 -0.122056 -1.2471 0.420399 -0.266835 -0.225774 0.581858 
70 0.456381 0.00308514 -0.188083 0.347787 -0.763353 -0.781922 -0.545518 -1.00186 -0.210433 0.234154 -1.54302 0.760586 0.616517 -0.342738 -0.103109 -1.14312 0.0508277 -0.101374 0.0113161 0.328567 -0.372498 0.481976 0.923896 -0.254569 -0.420939 -0.363632 0.0474838 0.64061 -0.40975 0.0499756 0.115401 0.00497018 -0.5329 1.31607 0.127019 0.303421 0.398863 0.214316 0.0716285 0.685972 0.323121 0.636178 0.265234 0.0497302 -0.181549 -0.00100434 0.815761 1.14973 -0.832057 0.720308 -0.178643 0.578652 -0.102759 -0.36426 0.882454 -0.204828 -0.130833 0.444741 0.797408 -0.164614 1.1607 0.950659 0.317288 0.762561 0.182952 0.0433743 0.305503 -0.525449 -0.437215 -0.353198 -0.273266 0.247838 0.0389405 0.0531545 -0.239053 -0.146761 0.688903 0.14098 -0.469569 -0.280622 0.49417 -0.523522 0.124705 0.628429 -0.235918 -0.19001 0.109664 0.0567393 0.187905 -0.376776 -0.947896 0.0528569 0.160231 0.441138 -0.0437036 -0.312796 -0.749488 0.256508 -0.119535 -0.319232 -0.527845 0.912221 0.626247 -0.220857 -0.180261 -0.30073 -0.211033 -0.1093 0.0511112 -0.647963 0.269448 -0.581147 -0.484524 -0.109585 -0.34939 0.0154273 -0.810705 -0.209441 -0.532072 -1.06741 0.272107 -0.421892 0.146692 0.0869981 0.809455 0.406105 0.188515 -1.06354 
71 0.0115553 0.252813 0.0726417 0.150953 -0.336719 -0.0974552 0.24332 -0.0470343 -0.682763 0.155817 -0.427144 -0.248525 0.32794 -0.633394 0.372512 -0.107334 -0.22968 -0.0265935 -0.0196968 0.584169 -0.283997 0.308608 0.806963 0.619881 0.381324 0.0486528 0.30937 0.758485 0.311833 -0.538629 -0.60001 0.308839 -0.425241 -0.379121 0.146448 0.59477 0.549041 0.588281 -0.00332479 0.816446 0.788464 -0.111379 0.256328 0.105035 0.243403 0.88344 0.312194 1.03243 -0.0341316 0.110677 -0.299025 0.324468 -0.518739 -0.358402 0.109095 -0.322505 -0.654042 0.6009 -0.00820743 0.00448976 0.0576653 0.0173957 0.221529 0.0538319 -0.326539 0.380383 0.405194 -0.100551 0.0637673 -0.0431387 -0.539938 0.175778 -0.0761835 -0.221117 -0.32745 -0.16893 0.229654 -0.13565 -0.824521 0.319065 0.583039 -0.243491 -0.136642 0.337861 -0.586835 -0.0213467 0.083744 -0.0151447 -0.50949 0.0857674 -0.611147 0.369437 -0.448045 -0.352236 -0.224683 -0.223655 -0.431186 -0.22506 -0.0976826 -0.947111 -0.497506 0.225178 -0.0948954 -0.0321693 -0.0370378 0.153375 -0.651379 -0.35445 0.0995059 -0.151499 0.243609 0.0657382 -0.260469 0.116874 -0.622376 -0.303823 0.37946 -0.391322 -0.306261 -0.933581 0.337556 0.200649 -0.219301 0.0595643 0.26971 -0.0870585 0.250869 -0.786154 
72 -0.00883499 -0.250054 -0.0827766 0.190866 0.185102 -0.692003 0.108157 -0.634748 -0.0464671 0.0382708 -0.797254 -0.766632 0.149147 -0.370176 0.0819787 -0.607278 0.462343 -0.562502 0.0418624 -0.0097553 -0.55794 0.0960913 0.222276 -0.0900954 -0.0892975 0.421653 0.509726 0.192029 0.217323 -0.137806 -0.0979492 -0.49937 -0.0845548 0.431987 0.209121 -0.181878 0.598389 0.0469445 0.2652 0.500547 0.199295 0.285428 -0.0164273 0.140551 0.191464 0.213493 0.545853 0.860274 -0.226226 0.0674593 0.273901 0.0689886 -0.44896 -0.0890021 0.404743 -0.20538 -0.0403091 0.400907 0.472896 0.0248345 0.354922 0.258634 0.259717 0.42289 -0.214223 0.225553 0.262242 -0.513423 -0.299172 -0.23452 -0.397494 0.0841796 -0.201951 -0.295992 -0.251684 -0.322675 -0.0567799 -0.00572687 -0.270698 -0.443202 0.384315 0.230686 -0.206893 0.409916 0.160247 -0.0454561 0.158775 0.0347553 -0.00959812 -0.297632 -0.3887 -0.131658 0.107802 -0.0470796 0.678301 -0.157506 0.0931462 0.40426 0.205403 0.690454 -0.16106 -0.158481 0.199117 -0.0280204 -0.14653 -0.00868811 -0.242506 0.00383625 0.202523 -0.204014 -0.0708142 -0.44015 -0.187022 0.459611 -0.32431 -0.445529 -0.317907 0.306238 0.0590158 -0.895173 0.334119 -0.556517 0.202132 -0.435548 -0.317813 -0.248652 0.0123031 0.0855889 
73 -0.0258251 -0.023016 0.234496 -0.015531 -0.0194823 -0.00660318 -0.20997 -0.102364 0.112768 -0.170396 -0.260904 -0.153958 0.308747 -0.317731 -0.00528799 -0.332302 0.200181 -0.121337 0.0645493 -0.281018 -0.169169 -0.0586284 0.263294 0.379554 0.190473 -0.155798 0.200182 0.0314276 -0.211681 -0.112964 -0.418378 -0.0893682 -0.255319 -0.0652829 -0.0396208 0.00371223 0.549508 -0.036218 0.200454 0.193423 0.395683 -0.0259715 0.0320158 -0.124871 -0.131699 -0.00193491 0.418692 0.411571 0.183052 0.205538 0.00824534 -0.0147204 -0.3457 0.0769364 -0.137467 -0.359698 0.0743112 0.26089 0.378565 -0.269582 0.347812 -0.0284906 0.0198007 -0.114206 0.187263 0.333625 0.400499 -0.101937 -0.366827 0.0452613 0.339079 -0.169786 0.0437602 0.0383459 -0.264212 -0.042907 0.714281 0.141664 -0.169045 -0.384201 0.131235 -0.258654 0.359447 0.308018 -0.449317 0.152546 -0.0108672 -0.357157 0.0126164 -0.50732 -0.0135504 0.00974389 0.0828054 -0.355922 0.245864 -0.00998645 -0.346239 0.0907622 -0.0274187 -0.193638 -0.45595 0.0137456 0.170736 0.28707 -0.0936974 0.289644 -0.0514375 0.0938421 0.266552 0.0452324 0.0395009 0.0150153 -0.525779 -0.186573 0.140799 0.272186 -0.31912 -0.243712 -0.441539 -0.322866 0.263682 0.130236 -0.000305662 -0.0061723 -0.0945213 -0.0718336 0.17237 -0.142245 
74 0.33782 0.0349357 -0.0983814 0.302797 -0.125278 -0.521307 0.0957059 -0.334066 -0.23466 -0.143705 -0.299488 -0.104243 0.0212499 -0.202548 0.121195 -0.141363 0.0807801 0.13484 0.159605 0.458507 -0.369327 -0.196465 0.240578 -0.275389 0.0171896 -0.215204 -0.0267082 0.122865 0.148859 -0.351102 -0.225537 0.251192 -0.215038 -0.149773 -0.00437819 -0.29695 0.203147 0.210242 -0.0315781 0.155666 0.476291 0.331443 -0.0597087 0.209339 -0.0897181 0.172291 0.47302 0.586967 0.10035 0.437866 0.0753955 0.251762 0.0746662 -0.199862 0.158993 0.291833 -0.125667 0.133572 -0.104742 0.159954 0.0924606 0.0234633 -0.0778596 0.484702 -0.266495 0.105667 -0.303656 0.0388784 -0.336961 0.114913 -0.052578 0.239832 0.0334683 0.390252 -0.138053 -0.171409 -0.0575098 0.311947 0.0584761 -0.116334 0.583448 0.0540593 -0.443103 -0.0981112 0.0377702 0.0497966 0.0762239 -0.151671 -0.326209 -0.217496 -0.422966 -0.194362 0.183892 0.0781963 -0.338432 -0.32899 -0.220157 0.141245 0.0404213 -0.0584438 -0.142587 0.1318 0.136609 0.0816873 -0.0502406 0.241266 0.129091 -0.338786 -0.295095 0.0531646 0.30675 -0.344998 -0.307842 0.365623 0.255438 -0.12702 0.260431 -0.0291794 0.215314 -0.223317 0.199197 0.128232 -0.00162708 -0.375048 -0.0720837 -0.299001 -0.0222188 -0.273889 
75 0.00550109 -0.299997 -0.271366 0.153226 -0.175616 -0.559118 -0.251493 -0.594286 0.170594 -0.222433 -0.776028 0.590928 0.524821 -0.101378 0.604758 -1.30505 -0.233814 0.116643 0.578204 0.785809 -0.0494093 0.179763 0.437277 -0.0205435 -0.249821 -0.225526 0.643821 0.600044 -0.429475 0.034202 0.314389 -0.0659801 -0.404762 1.08556 0.123999 0.253547 0.381388 0.229135 -0.282454 0.0697126 0.292686 0.326952 -0.0795314 0.0300613 -0.147404 -0.0388301 1.01169 0.887874 -0.667989 0.242434 -0.259126 0.420923 0.0238967 -0.108325 0.497349 -0.544339 -0.165051 0.028008 0.551606 -0.120011 0.766753 0.556659 0.00528598 0.611247 0.288174 -0.240834 -0.0513901 -0.331181 -0.40541 -0.227243 -0.0774731 0.205274 0.024069 -0.206029 -0.440519 -0.0950005 0.697988 -0.0131838 0.0289448 -0.202384 0.211105 -0.0573461 0.17535 0.0549631 0.0215064 0.309684 -0.166585 -0.123425 -0.0608862 -0.521053 -0.626872 -0.407248 0.141219 0.672197 -0.297141 -0.212327 -0.518949 0.112797 -0.128472 0.280839 -0.617799 0.867954 0.155636 -0.734943 -0.0036665 0.0626113 -0.272994 -0.18022 -0.149554 -0.568713 0.300374 -0.613178 -0.57171 0.22876 -0.463303 -0.368763 -0.166835 -0.243905 -0.729177 -1.41535 0.0613825 -0.216943 -0.0430929 -0.214449 0.372943 -0.0796201 0.199861 -0.928406 
76 0.043572 -0.241162 -0.0450292 0.17099 0.195659 -0.640287 0.0911125 -0.658716 -0.0285904 -0.00723965 -0.741212 -0.723307 0.199074 -0.335962 0.0202647 -0.649123 0.457238 -0.545635 0.0647784 0.0208191 -0.574 0.0475836 0.22004 -0.122191 -0.0967689 0.430165 0.501555 0.199304 0.17116 -0.0973428 -0.0620164 -0.502897 -0.0571474 0.428116 0.200345 -0.227752 0.634403 0.0423085 0.276987 0.530118 0.179788 0.311104 -0.0122947 0.174713 0.205819 0.249008 0.468221 0.842926 -0.232378 0.100777 0.25671 0.0618303 -0.500217 -0.0683883 0.399796 -0.166146 -0.0391818 0.384563 0.467004 0.0448829 0.301342 0.324804 0.235959 0.473276 -0.137131 0.239881 0.249007 -0.509259 -0.309929 -0.203764 -0.351427 0.090693 -0.234929 -0.30999 -0.250115 -0.359235 -0.117831 -0.0458484 -0.256925 -0.45543 0.421783 0.198932 -0.190308 0.419551 0.155856 -0.064642 0.146852 0.0728087 0.0102216 -0.289178 -0.429165 -0.159221 0.0620459 -0.0283415 0.734781 -0.155098 0.143737 0.381986 0.170707 0.706323 -0.148281 -0.188636 0.19422 0.0245922 -0.153647 -0.0178562 -0.234036 -0.014928 0.151025 -0.200375 -0.0411388 -0.432088 -0.21589 0.497023 -0.355632 -0.454643 -0.283068 0.338121 0.0794106 -0.915608 0.329935 -0.522265 0.237838 -0.415812 -0.289479 -0.215361 0.0364074 0.0997698 
77 0.171604 0.248208 0.340573 0.458661 -0.395006 -0.647392 0.0533958 -1.14125 0.274193 0.091593 -1.30528 -0.60256 -0.107306 -0.277356 0.00840225 -0.498903 0.668812 -0.108362 -0.0833371 0.365261 -0.679189 0.775851 0.893762 -0.09599 -0.155438 0.617856 0.544621 0.34978 0.312102 -0.0689354 -0.454755 -0.631699 -0.106276 1.0502 0.314818 -0.130087 0.720303 0.200319 0.13921 0.383051 0.481866 0.787831 -0.479103 0.199264 -0.221235 0.257866 0.837239 1.13003 -0.383481 -0.00563832 0.407084 -0.135546 -0.62857 0.112326 0.517617 -0.00204393 -0.753213 0.6237 0.536604 -0.622481 0.308921 0.541459 0.720858 0.0292802 -0.450296 0.592719 0.431199 -0.66297 -0.71952 -0.327912 -0.692746 0.243836 0.0530112 0.422483 -0.358925 -0.176414 0.208563 0.0223728 -0.42831 -0.386386 0.447893 -0.430432 0.0960855 0.285195 0.203146 -0.429806 -0.00644131 -0.25468 -0.0743705 0.218636 -0.415117 -0.204454 0.345486 -0.179861 0.790151 -0.113443 -0.323518 0.314707 0.21075 -0.170495 -0.671913 -0.0612305 0.155883 0.228688 0.0945856 0.289092 -0.742668 -0.14157 0.239643 -0.594698 0.0257627 -1.21342 -0.338357 0.324986 -0.578121 0.0258286 -0.633557 -0.0876724 0.291897 -0.922722 0.162297 -0.192554 -0.0728642 -1.17239 -0.384325 0.00444427 -0.0077305 -0.0605148 
78 -0.0747971 -0.320606 0.175438 -0.0233277 0.116977 0.449308 -0.537505 -0.235117 0.326697 1.36403 -0.532231 0.309111 0.15175 -0.232978 0.75177 -0.501927 0.372587 0.14235 0.576978 0.471064 0.161 -0.32873 1.12137 0.241108 0.149166 -0.41012 0.85369 0.707874 0.398148 0.0950735 -0.699067 -0.337174 0.67447 0.258503 -0.340228 -0.401148 1.39395 0.886164 -0.0642215 -0.112775 0.244988 0.204763 0.468945 0.486203 -0.279819 -0.575365 0.90695 0.835006 -0.131061 1.07939 -0.100436 -0.324296 -0.539396 -0.480644 0.83426 -0.5876 -0.3257 0.4018 0.496177 0.09073 0.700694 0.250037 -0.0352525 0.247156 0.0434329 0.282799 0.120531 -0.453409 -0.221281 -0.218517 -0.425493 -0.0807666 0.787091 0.078613 -0.503332 -0.129117 0.204584 -0.200157 0.171307 -0.482883 0.975995 -0.0844363 -0.196572 0.0438391 -0.925931 0.434913 0.715976 -0.457405 -0.429806 -1.15038 -0.938744 -0.356143 -0.440326 -0.63205 0.210592 -0.0992409 -0.386926 -0.0582454 0.900837 0.469494 -0.730897 -0.0477481 -0.925865 -0.570114 0.31861 -0.182839 -1.26715 -0.0616226 0.0255614 -0.0249591 0.960666 -0.539397 -0.163931 0.311927 -0.556232 -0.38237 -0.799662 0.354592 0.0911267 -0.643267 0.140236 0.0639676 -0.406262 -0.255192 -0.0759238 -0.228994 -0.094211 0.286191 
79 -0.349335 0.327301 0.0739443 0.0702579 -0.048459 -0.0332831 0.400742 -0.020261 -0.0677774 -0.270672 -0.205751 -0.633328 0.177698 -0.750619 0.670417 -0.572417 -0.916549 0.169578 0.11908 0.510516 -0.388527 -0.151412 0.13543 1.06424 0.911371 0.1667 0.74952 1.27053 -0.109672 -0.229469 -0.485382 0.284969 -0.0293114 0.417475 0.437663 -0.626146 1.75836 1.0121 -0.103154 -0.129988 0.365336 0.323392 0.531128 0.18102 -0.269412 0.00704718 1.13229 0.562324 -0.649961 0.736921 0.287894 0.854301 0.32835 -0.94898 -0.15346 -0.789142 -0.481098 -0.287767 0.24001 0.0215445 0.168614 0.567623 0.207038 0.649956 0.163292 -0.173159 0.286256 -0.908759 -0.362019 0.259611 -0.0908548 -0.826575 0.675468 -0.41367 0.342498 -1.12387 0.341275 -0.352909 0.264579 -0.467447 1.26181 -0.0929313 -0.977637 -0.477774 0.437546 1.10128 -0.052162 -0.681454 -0.726154 0.136428 -0.805262 0.0176963 0.301262 0.377674 0.499158 -1.51607 -0.994816 -0.359422 1.19318 0.592501 -0.90938 -0.132576 -0.388438 0.711952 0.438006 0.530578 -0.322779 -0.0244655 0.066955 -0.0758827 0.386813 -0.673672 -1.06012 0.932156 -0.573399 0.125193 -0.109746 -0.428499 -0.236842 -0.617968 0.301452 0.316714 -0.163108 -0.168561 0.117246 -0.396135 0.408194 -0.446115 
80 0.212914 0.29981 -0.0797881 -0.10086 0.187244 -0.136359 0.0718619 -0.626077 -0.304571 0.35438 -0.838597 0.0238679 0.129541 -0.461389 0.223784 -0.18152 0.199048 0.184708 0.253194 0.334008 -0.467962 0.208489 -0.0998457 -0.159737 0.381219 0.128317 0.452937 -0.0372024 0.131681 0.279008 -0.698641 0.517613 -0.301404 0.435779 0.163152 -0.3951 0.413092 0.597585 -0.365594 0.79133 0.671206 -0.11679 -0.433209 -0.145574 -0.0833453 0.433315 0.69145 0.0540978 -0.330314 -0.155761 0.396777 -0.0644948 -0.195377 -0.354247 0.29664 0.168101 -0.190976 0.568505 -0.0962751 -0.314054 0.51932 0.551154 -0.0770134 0.3182 -0.13958 0.793098 0.2609 -0.0938259 -0.961265 0.268515 0.0629183 0.0352947 -0.0664801 0.414355 -0.354328 -0.280818 0.0543602 0.228824 -0.317644 -0.0718481 0.376235 -0.265509 -0.146346 0.635939 -0.203776 0.170949 0.746017 -0.479306 -0.583594 -0.611355 -0.916248 0.00729499 0.452849 -0.279943 0.0430092 0.29569 0.315617 -0.566185 -0.105022 -0.0944693 -0.761749 0.17712 0.285442 -0.434438 -0.245377 -0.163413 -0.65015 -1.00535 0.348235 -0.473837 0.475803 -0.0972132 -0.399393 -0.149144 -0.559769 -0.275414 -0.421188 -0.267881 -0.486101 -0.74051 0.535658 -0.0939186 -0.0850012 0.25622 -0.359191 -0.0857713 0.262324 -0.592067 
