3312 128
0 -0.638211 -0.265283 -0.383825 0.239759 0.00240716 -0.719392 -0.665154 -0.818888 -0.267397 -0.205995 -0.732893 0.259271 0.685597 -0.172093 0.262682 -0.137238 -0.249258 -0.577619 0.568539 -0.176433 0.334124 0.580192 0.585195 0.286613 0.36347 -0.426836 0.394225 0.391277 0.803699 -0.407806 -0.0477581 0.605813 -0.957051 0.19308 0.00402896 -0.129093 0.984885 0.313924 -0.258712 0.722539 0.130709 0.328194 0.217212 0.416145 0.369618 0.170633 0.649726 1.16011 -0.0539767 0.622065 -0.0385829 0.0135258 -0.412646 -0.776819 0.787382 0.187549 -0.00689841 0.422012 0.242332 -0.268179 0.499085 -0.120872 0.530081 0.661465 0.248122 0.171595 -0.0266147 -0.286909 -1.08952 0.515481 0.0729981 -0.49967 0.185778 -0.128515 -0.328745 0.380126 0.513284 0.336605 -0.168434 0.214261 0.225822 -0.794511 0.474686 0.207564 -0.0578583 0.465202 -0.130716 -0.0836576 -1.37227 -0.401719 -0.369814 -0.153518 -0.283772 0.631327 0.0365729 0.0345962 0.0436674 -0.438617 0.324197 -0.0747097 -0.251971 0.252648 -0.250517 -0.26246 0.0988005 0.296442 -0.227934 0.49092 0.664111 -0.553437 -0.229485 -1.13431 -0.348959 0.680721 -0.355043 0.0603904 -0.592516 0.201799 -0.575958 -0.925603 0.170581 -0.150251 -0.0484948 -0.554354 0.203394 -0.600757 0.257378 -0.658589 
1 -0.0105681 -0.245791 -0.0476375 0.0599063 0.0954704 0.178796 0.191763 -0.183374 -0.025553 0.315993 -0.373088 0.0401996 -0.0554128 -0.0900011 0.8452 0.116655 0.327557 -0.349784 0.191466 0.102864 -0.315339 -1.03732 0.657386 -0.0349675 0.700936 -0.169862 0.710821 0.682082 -0.00934963 -0.0582605 -0.991816 -0.109726 0.994684 -0.51823 0.271579 0.174376 0.608213 0.422395 -0.0585419 -0.618068 0.16804 0.170293 0.517954 0.538225 -0.611545 0.10818 0.934204 1.13565 -0.444081 0.75333 -0.188141 -0.751603 -0.362034 0.353226 0.602424 -0.60977 -0.58344 0.419941 0.134895 0.323393 0.506331 0.222659 -0.0825741 0.768391 0.0134619 -0.197816 -0.0620941 -0.163549 -0.197528 0.0136475 -0.111394 -0.267813 0.66911 -0.531573 -1.16027 0.0332371 0.407861 -0.0450826 0.572637 -0.50114 0.810174 -0.268699 -0.280415 0.187084 -0.695031 0.564887 0.518001 -0.711947 -0.0954141 -0.904192 -1.42219 -0.125156 -0.424138 -0.827031 0.120391 -0.0627381 0.312008 -0.474016 1.22609 0.287305 -0.960076 -0.00894279 -0.710557 -0.352337 0.0679765 -0.0488271 -1.12465 0.216712 0.217919 -0.195814 0.919902 -0.211198 -0.00969541 0.25604 0.425108 -0.34875 -0.422177 -0.0346258 0.0888203 -1.09818 0.527064 0.385211 -0.173179 -0.324001 -0.05693 0.184981 -0.034193 0.515064 
2 0.300583 0.0433683 0.196303 -0.0144773 -0.181766 -0.441066 -0.025247 -0.319165 -0.0870819 -0.272821 -0.445301 -0.259103 0.0760334 -0.0496064 0.0284806 -0.250397 -0.13565 -0.391145 -0.0627875 0.136716 -0.549517 0.247969 0.100446 0.0538099 -0.0299234 -0.166374 0.1978 0.0809374 -0.222708 -0.228243 -0.0479872 -0.274585 -0.0929802 0.137284 0.0120621 -0.190032 0.0818538 0.247722 -0.0459971 0.0783116 0.363929 0.27139 -0.0936157 0.0290239 -0.361393 0.360381 0.637665 0.272549 -0.161705 0.156094 -0.119008 0.333498 -0.508917 0.21747 0.151818 -0.42308 -0.495555 -0.18152 0.0847563 0.0131659 -0.117348 0.437024 0.214838 -0.0414214 0.111623 0.218593 0.067998 -0.0861041 -0.139175 0.0254834 0.211719 -0.415739 0.0511018 0.134081 -0.221977 -0.466849 0.20755 0.0972196 -0.302192 -0.420909 0.348136 -0.4782 -0.155468 0.0744296 0.265454 0.364073 0.23094 -0.112399 -0.0828238 -0.333812 -0.265174 0.0218016 -0.0341125 0.121476 -0.0733087 0.064493 -0.124813 -0.114379 -0.140387 -0.145675 -0.343974 -0.261717 0.0847697 -0.230028 0.244185 0.284715 -0.33914 -0.380308 0.0530694 -0.184381 0.164533 -0.167685 -0.323611 0.410968 0.100789 0.193064 -0.0639737 0.0869236 -0.48395 -0.320402 0.106417 0.378363 0.0936024 -0.248738 -0.103325 -0.140893 0.2622 -0.183656 
3 0.378366 0.0547888 -0.187932 0.0499384 0.00203977 -0.225936 -0.238364 -0.618269 -0.476986 0.859921 -0.359837 -0.165861 0.482736 0.280772 0.047996 -0.755187 0.302477 -0.0326899 0.0611579 0.497147 0.0738807 -0.141628 0.215148 0.156903 0.401989 -0.471505 0.867011 0.385483 0.389007 -0.0726266 0.082243 0.128492 0.248639 0.398161 -0.482787 0.0434484 0.31924 0.19868 -0.266442 0.379206 -0.0302287 -0.0762932 0.251211 0.523597 -0.0475591 0.553789 0.839168 1.01387 -0.25419 0.388315 0.279367 -0.372869 -0.00925324 0.103451 0.261626 -0.0207237 -0.297273 0.231095 0.639209 0.0773603 0.299498 0.328705 -0.208479 0.048965 0.117612 0.18118 0.140515 -0.120365 -0.119797 -0.135196 -0.415618 -0.0978106 0.152776 0.161194 -0.252767 0.0996017 0.113 -0.109776 0.0801129 -0.213092 -0.12454 -0.204291 -0.394293 0.226828 -0.15717 -0.00618614 0.0734859 -0.163627 -0.0509625 -0.531362 -0.402481 -0.242577 -0.00790876 -0.108202 0.422421 0.417753 -0.728011 0.0375085 0.498189 -0.0757843 -0.544071 0.124599 -0.339124 0.225728 0.622177 0.238535 -0.786354 0.150433 -0.237227 -0.26594 0.236871 -0.28245 -0.124937 0.25519 0.137251 -0.126274 -0.237855 -0.0978884 -0.653143 -0.582157 0.420236 0.0110672 -0.0616136 -0.530612 -0.028149 -0.160633 -0.42644 -0.110431 
4 -0.148541 0.0122814 -0.175688 0.207161 0.313142 -0.288784 -0.0144007 -0.173769 -0.471478 0.0995788 -0.305801 -0.0870202 0.569146 0.00472234 -0.24121 -0.19815 0.364443 0.0272264 0.368423 0.237268 0.109539 0.146053 0.291406 0.61334 0.56671 -0.0368087 -0.0654216 0.791082 0.294655 0.0752144 -0.556684 0.00941636 -0.124392 -0.0619934 -0.113784 0.49827 0.294214 0.415478 0.154034 0.389805 0.302333 0.219614 0.234637 -0.167553 0.0364241 0.134194 0.424207 0.800546 0.254274 0.578985 -0.0751536 -0.121177 -0.181789 -0.358233 0.353254 -0.0604088 -0.343377 -0.23437 0.0289501 -0.208421 0.430592 0.159351 0.36857 0.345913 -0.228391 0.419803 0.0324541 -0.113074 -0.19006 0.236164 0.0123851 -0.0945339 -0.0964698 0.0376868 -0.44316 0.233135 0.211399 0.159402 -0.177178 -0.256049 0.37001 -0.231299 0.0835431 -0.0230201 -0.320564 0.0131276 0.468593 -0.318767 -0.336375 -0.262476 -0.481067 -0.387707 0.186946 0.199685 -0.109943 -0.220409 -0.422918 -0.384824 0.14177 0.0194627 -0.160239 0.415233 -0.0607925 -0.0996313 0.329735 0.186183 -0.289457 -0.0908947 0.554919 -0.178847 0.139481 -0.53897 -0.25451 -0.0159824 -0.500048 0.115339 0.339785 0.10678 -0.3105 -0.649383 -0.144278 -0.103343 0.234603 -0.16154 -0.53716 -0.377473 -0.113818 -0.522489 
5 -0.333958 -0.172204 0.0302739 0.287569 0.231782 -0.779389 -0.055336 -1.11194 0.113731 0.166067 -1.25467 -0.743835 -0.176951 -0.48721 -0.0654993 -0.352604 0.742434 -0.273053 0.140006 0.273767 -0.869596 0.485034 0.769396 -0.0408612 -0.053046 0.474096 0.789108 0.493897 0.15321 -0.149891 -0.42672 -0.283854 0.101226 0.553526 -0.0459216 -0.115453 0.807839 0.126602 0.313414 0.230483 0.277583 0.601838 -0.327135 0.175383 -0.119806 0.182254 0.647301 1.27321 -0.381127 0.131705 0.4089 0.0148019 -0.638092 0.0646678 0.601387 -0.23156 -0.786554 0.579625 0.722093 -0.562558 0.444726 0.347154 0.512374 0.140439 -0.497331 0.757469 0.682072 -0.79062 -0.620895 -0.663992 -0.770525 0.285376 -0.231222 0.170886 -0.506384 -0.453756 0.187626 -0.0106355 -0.323148 -0.538 0.364557 -0.436556 -0.199457 0.337624 0.265783 -0.110929 0.212524 0.0179264 -0.345604 0.0497912 -0.51475 -0.188658 0.177368 -0.311406 1.09282 -0.167825 -0.0611746 0.381007 0.511797 -0.216273 -0.423764 0.0755096 0.249999 0.274472 0.124247 -0.149565 -0.614557 -0.298235 0.0618215 -0.600858 -0.134182 -1.1164 -0.0709987 0.391226 -0.677599 -0.327942 -0.496288 -0.120997 0.162114 -1.08738 0.117911 -0.396509 -0.19145 -0.819845 -0.120804 -0.0417855 0.113709 -0.0478375 
6 0.0142343 0.0325399 0.0819522 0.398536 -0.130947 -0.869473 -0.0374355 0.0514598 0.273941 0.606404 -1.1296 -0.228618 -0.131829 -0.257452 0.750495 -0.899261 0.0477522 -0.274667 -0.371011 0.440239 -0.581998 0.109724 0.361816 -0.161739 0.488219 -0.210297 0.870552 -0.0485017 0.661584 -0.0968144 -0.44466 -0.070088 -0.260445 0.964309 0.388484 -0.284493 0.806468 0.0803088 -0.231711 0.163366 0.244608 0.202879 0.414936 0.27792 0.832804 0.0308914 1.04627 0.792881 -0.636133 0.341335 0.460448 0.731869 0.28849 -0.117986 0.200475 -0.505591 0.0430867 -0.437087 0.433705 -0.173212 0.915915 -0.118707 -0.575777 0.728303 -0.0974797 0.205438 -0.212373 -0.0698704 -0.553658 0.366911 -0.424231 -0.317657 0.26447 0.197034 -0.524273 -0.363993 0.23376 0.657387 -0.384474 -0.452643 -0.0595767 -0.0255234 -0.159877 0.451791 -0.250051 -0.0765869 0.696349 -0.62634 0.140014 -0.784254 -0.00770859 -0.408932 0.191991 0.114828 0.297119 -0.149271 -0.568096 0.371214 0.716574 0.147334 -0.321744 -0.31739 -0.201633 -0.347921 -0.376789 0.195934 -0.445717 0.204474 -0.049857 -0.0526285 -0.112373 -0.796147 0.154199 0.862987 -0.0439419 0.114075 -0.784181 -0.410041 -0.354273 -1.10629 -0.135616 -0.474677 0.310411 -0.313119 -0.477966 -0.798368 -0.0469008 -0.348735 
7 0.158808 0.285498 -0.796207 0.276607 -0.328162 0.0796802 0.500704 -0.00129561 0.119275 -0.0218357 0.805191 -0.504754 0.647854 -0.261264 0.774278 -0.5737 0.719613 -0.0730437 0.128413 0.392143 -1.32428 -0.549398 0.127074 -0.218898 -0.0223415 0.130633 1.0479 -0.206998 0.0160138 0.432587 -0.429162 0.455158 0.712065 -0.126198 0.588646 -0.0405998 0.461177 0.0278103 -0.389 0.0424769 1.26122 0.857513 0.155915 -0.539626 0.272274 0.47555 0.290044 1.19507 -1.26003 -1.00457 -0.336143 -0.209147 -0.337415 0.289677 -0.0602602 -0.846827 -0.513356 0.453489 0.761437 0.438913 -0.712074 -0.0865153 0.420081 0.398766 -0.192487 0.295042 0.436627 0.758789 -0.795971 0.606956 0.212603 -0.820445 0.0666302 0.508671 -0.861212 -0.521759 0.412168 0.0461623 0.40949 -0.340107 0.911435 0.238786 0.0172872 -0.246725 0.124092 -0.194232 -0.0326471 -0.0870107 -0.065989 -0.566133 -0.920641 -1.147 -0.710065 -0.271886 0.0524782 -0.182496 0.34783 0.0712149 0.479959 0.582157 -0.282627 -0.097285 0.0110194 -0.0917514 -0.00545748 0.0626593 0.00519975 0.800539 0.856492 -0.273927 0.108965 0.0331511 -0.227046 0.489125 0.322318 -0.24156 0.258224 -1.56844 0.189633 -0.425905 0.333505 0.55478 -0.288159 -0.499861 -0.239048 -0.354859 0.270514 -0.948034 
8 -0.206656 0.0164745 0.584619 0.264478 -0.0679561 -0.440058 -0.0735468 -1.07132 0.00692665 0.126748 -0.470033 -0.501856 0.758373 0.0752388 0.24675 0.110833 0.584018 -0.563067 0.242878 0.258431 -0.915947 0.124947 0.612361 -0.0402714 0.0536922 -0.377136 0.390513 0.124569 0.167553 -0.53435 -0.0488087 0.248687 -0.696746 0.506661 0.550217 -0.094613 0.975459 0.361485 -0.294858 0.410179 0.218681 0.445688 0.0498397 0.213574 0.253493 0.0583427 0.561971 0.618484 -0.198379 0.658205 0.218858 -0.0191993 -0.465509 -0.146083 0.656012 -0.343655 0.170891 0.0401867 0.263186 0.177454 0.461851 -0.269904 0.0140179 0.544955 0.209907 0.201888 0.249197 0.0198815 -0.713299 0.522453 0.458175 -0.348459 0.116921 -0.357426 -0.0640199 -0.37391 1.18187 0.651756 0.165283 0.0956836 0.112656 -0.336708 -0.0645148 -0.23278 0.126222 0.0983035 0.133222 0.308125 -0.784784 -0.565396 -0.632827 -0.142887 0.104495 -0.228439 0.0119113 -0.275479 -0.4575 -0.00470756 0.238015 -0.530507 0.0125583 0.216371 0.0595215 -0.0380963 -0.393185 -0.141711 -0.566837 -0.0924985 0.417692 -0.342678 -0.152652 -0.738523 -0.347798 0.533827 -0.422456 0.291383 0.114343 -0.0306916 -0.181922 -0.606907 -0.255642 0.18595 0.112004 -0.208817 -0.450125 -0.668011 0.0164965 -0.751432 
9 0.268056 -0.398625 0.150588 0.273935 -0.770921 -0.850618 -0.376123 -0.93269 -0.562759 0.202315 -0.35943 0.267737 0.356793 -0.560182 0.0724303 0.180262 -0.126216 -0.434409 0.395116 0.663626 -0.0661643 0.123409 0.682306 0.175143 -0.026531 -0.345773 0.387786 0.196685 0.983898 -0.42719 -0.77509 0.291767 -0.438436 0.0949456 0.325502 0.0289484 0.941068 -0.106601 0.194688 0.540129 0.571539 -0.33488 0.189399 0.457151 -0.0690004 0.355875 0.70542 0.899278 -0.609036 -0.250169 -0.413693 0.809152 -0.628912 -1.05516 0.17461 0.329679 -1.01521 0.346001 1.09748 -0.339344 0.206511 -0.266412 0.273408 -0.264974 0.015584 0.191891 0.264219 -0.379414 -0.365838 0.411334 -0.161239 -0.470167 -0.155228 0.156186 -0.164867 0.707109 0.441287 0.466141 -0.442733 -0.368364 -0.0627651 -0.353853 -0.504613 1.20798 -0.0603601 0.31047 0.189511 -0.871581 -0.12525 -0.78755 -0.20496 0.444848 -0.57869 -0.0496691 0.120242 -0.173832 -0.517256 -0.408216 -0.325869 -0.343647 -0.675758 -0.166144 0.342031 -0.304113 0.138977 0.236501 -0.439603 0.229847 0.010111 -0.590168 -0.356455 0.171141 -0.618372 0.328495 0.0370669 0.477962 -0.180178 -0.286523 -0.037399 -0.680321 0.526762 -0.283584 -0.163129 -0.680068 -0.328281 0.034261 -0.182098 -0.451831 
10 -0.270803 0.59113 -0.721256 0.474341 0.0723305 -0.170701 0.529717 -0.138138 0.0169231 -0.0651207 0.325761 -0.475233 0.431596 0.0585035 0.87044 -0.839939 0.162706 -0.312391 0.115044 0.692797 -0.996736 -0.0966079 -0.127862 0.116527 0.0850581 0.200327 0.812862 0.0186322 -0.130978 0.243846 -0.264681 0.185104 0.460083 0.506831 -0.122917 -0.157194 0.0806955 -0.371282 0.127572 -0.24419 0.814406 0.693242 0.399151 0.153579 0.00824063 0.318484 0.0559055 0.811831 -0.287288 -0.271569 0.438374 0.244179 -0.450891 0.175634 -0.102931 -0.801833 -0.397195 0.249546 0.508626 0.168682 -0.372278 0.0353844 0.421049 1.1481 -0.0711022 0.462351 0.0301811 0.408382 -0.471991 0.44651 0.283916 -0.388516 0.251979 0.190115 -0.619773 -0.489789 0.696221 0.684873 0.483662 -0.147798 0.961531 -0.0281841 -0.260458 0.0159922 -0.0333887 -0.276138 -0.176676 0.225825 0.113176 -0.239162 -1.15335 -0.14746 -0.346546 -0.511555 0.00145809 -0.0109114 0.0675521 -0.141796 0.415162 0.208152 -1.01403 -0.192434 -0.114329 -0.520146 0.101438 0.161623 -0.00344983 0.230052 0.736017 0.0511508 0.294751 -0.0402266 -0.38029 0.59289 0.0808488 -0.366566 0.0924658 -0.660904 -0.798147 -0.907752 0.330041 -0.00753214 -0.680686 -0.373822 -0.385336 -0.226883 0.0314743 -0.827181 
11 0.488198 -0.132613 0.287132 0.326184 -0.532803 -0.263002 -0.148618 -0.549671 -0.996702 0.2336 -0.15615 -0.0967475 0.588299 -0.387887 0.173462 -0.151537 0.0421271 -0.485564 0.0275147 0.734058 -0.268048 0.284321 0.114177 0.328684 -0.153186 -0.668083 0.160773 0.340435 0.419624 -0.103026 -0.233792 0.201524 0.027683 0.237211 0.438921 0.0693155 0.398841 -0.0468079 -0.000364168 -0.000870588 0.847299 -0.149528 0.144269 0.271413 0.0533248 0.363474 0.294746 0.839361 -0.176661 -0.0739154 -0.377599 0.392388 -0.308335 -0.185446 -0.0624873 0.262259 -0.850696 0.563979 0.24163 -0.0442135 0.280008 0.00131029 -0.209376 -0.214691 0.0628374 0.128776 0.248716 -0.3162 0.182763 0.135526 -0.63528 -0.113412 0.10807 0.301916 -0.600859 0.311631 0.28327 0.210558 -0.252196 0.100166 0.485733 -0.0858072 -0.536425 0.768373 -0.139673 0.076816 -0.0129247 -0.47337 -0.228433 -0.289886 -0.256589 0.0512443 -0.490758 -0.241344 0.138509 -0.501606 -1.03389 -0.22511 -0.0264653 -0.437957 -0.155214 -0.117961 0.528331 -0.139371 0.282815 0.482591 -0.346395 -0.0322841 -0.0141285 -0.421103 0.00174787 0.128997 -0.479095 0.438305 -0.290401 -0.154496 -0.119326 -0.329355 -0.442728 -0.555332 0.496205 -0.42023 -0.240713 -0.223344 0.134561 0.0596684 -0.485363 -0.410415 
12 0.50921 -0.0393916 0.0511992 -0.484038 -0.192337 0.154504 -0.35095 -0.113642 0.23714 0.65569 0.143946 -0.502703 0.427043 -0.0814213 0.808065 -0.356767 -0.354046 0.335825 -0.268888 0.170979 -0.056781 -0.126678 0.263648 -0.177837 0.100109 -0.0874611 0.251766 0.201724 -0.128209 -0.303681 -0.118699 0.0940945 -0.181133 0.520762 0.0426722 -0.469734 0.935075 0.514249 -0.0664431 0.595647 0.269387 -0.293196 -0.143495 -0.0834775 0.128656 -0.220787 1.00859 0.644288 -0.344678 0.567666 -0.304665 0.608912 -0.559196 0.126736 0.128064 -0.074156 -0.303451 0.118846 0.572952 -0.146811 0.108792 -0.148223 0.942852 0.557543 0.265437 0.136766 0.544323 -0.0867839 -0.0571154 0.251109 -0.356364 -0.033493 0.653551 0.442424 -0.485231 0.106275 0.770134 -0.172809 0.110147 -0.227386 0.111763 0.422383 0.0258237 0.47033 -0.164057 -0.0899049 0.51156 -0.631152 0.332384 -0.257642 -0.812165 -0.60521 -0.288538 0.0749145 0.0845437 -0.139862 -0.129324 -0.0014329 0.34442 0.0647951 -0.122973 0.375118 -0.023577 -0.0228704 0.356982 -0.296702 0.0885938 0.0369924 0.527931 -0.365516 0.0699678 -0.101732 -0.354142 0.792091 -0.295605 -0.150418 -0.496979 -0.638181 -0.102202 -0.511864 0.360036 -0.178872 -0.583922 0.345814 0.414281 0.261405 0.147372 -0.268144 
13 -0.221453 -0.172413 -0.187215 0.0772236 -0.0469944 -0.226506 -0.403373 -0.185551 -0.104639 -0.0877576 -0.409863 0.171038 0.158535 0.0595304 0.187896 -0.443592 -0.22542 -0.188968 0.263149 0.0070776 -0.0301072 0.355745 0.262876 0.0911386 0.359657 -0.195757 0.230225 0.258356 0.198234 0.206419 -0.0366156 0.309718 -0.386862 0.445237 0.23431 0.146744 0.37068 0.203645 -0.039366 0.10887 0.174955 0.287056 -0.120451 0.149909 0.294629 0.0655184 0.501114 0.486631 0.0208002 0.358001 -0.0901125 0.233881 -0.103559 -0.311122 0.281141 0.0264728 -0.207126 0.354694 0.0931286 -0.184781 0.335835 -0.0230556 0.215008 0.298995 0.149431 0.134597 -0.0169413 -0.0950045 -0.514607 0.280032 0.123832 0.145795 -0.146451 0.0811299 -0.18888 0.177938 0.331551 -0.056756 -0.0222514 0.086809 0.117187 -0.307624 0.322426 0.309248 0.0512093 0.275445 -0.134674 -0.130684 -0.517318 -0.215382 -0.150835 0.0275998 0.0630987 0.349465 -0.41392 0.228005 0.100695 -0.0610528 -0.0587692 -0.110821 -0.272236 0.106031 0.116695 -0.36889 0.0959619 0.2128 -0.27246 0.200913 0.459796 -0.535218 0.162937 -0.441489 -0.221858 0.397813 -0.202841 -0.0726499 -0.382825 -0.107495 -0.226888 -0.599314 0.339827 -0.20715 -0.179335 -0.248186 0.139161 -0.260571 0.320735 -0.359869 
14 0.0751985 -0.072834 0.83086 0.287845 -0.0556636 -0.486178 -0.0171536 -0.959375 -0.025467 0.169881 -0.671349 -0.506218 0.924625 0.146652 0.0829011 0.0053703 0.700418 -0.55381 0.286506 0.248694 -0.929807 0.156545 0.697725 -0.173611 0.107222 -0.237124 0.505077 0.215931 0.0483347 -0.457271 -0.0312319 0.443462 -0.559452 0.592732 0.418297 -0.164647 0.768859 0.431133 -0.467795 0.425618 0.378197 0.520513 -0.0818232 0.224971 0.117774 0.0904067 0.590822 0.538217 -0.202274 0.569015 0.285386 -0.0870852 -0.435036 -0.123163 0.657274 -0.205992 0.153559 0.0116418 0.17565 0.0901773 0.292901 -0.186262 0.0470194 0.633891 0.160885 0.204415 0.457034 0.151698 -0.757596 0.475404 0.395563 -0.0801819 0.156137 -0.416338 0.0753723 -0.479172 1.12826 0.73304 -0.143836 0.131269 0.124429 -0.257947 -0.28027 -0.126311 0.187002 0.386425 -0.00490487 0.244278 -0.755694 -0.635512 -0.687519 -0.167915 0.212897 -0.21094 -0.0533559 -0.509557 -0.549918 -0.174502 0.228231 -0.550061 -0.0372198 0.190253 -0.138905 -0.0414033 -0.51994 -0.115083 -0.388534 0.00167055 0.343817 -0.320966 0.120458 -0.764286 -0.416975 0.500626 -0.38349 0.41339 -0.055275 -0.195232 0.0176821 -0.395693 -0.278506 0.181575 0.116395 -0.102452 -0.334534 -0.840827 -0.212928 -0.631854 
15 -0.316494 0.494628 -0.753303 0.390279 0.0317892 -0.103098 0.53286 -0.0917272 -0.107623 -0.119205 0.437396 -0.530358 0.388774 -0.0404029 0.939418 -0.923119 0.0877475 -0.417081 -0.00629723 0.668609 -1.02653 -0.121753 -0.0609108 0.156282 0.089658 0.159844 0.863167 -0.0297066 -0.119866 0.320979 -0.100631 0.289558 0.439931 0.434622 -0.111849 -0.0687284 0.233788 -0.351232 0.0181017 -0.468498 0.916844 0.704969 0.265023 0.175332 0.0681846 0.294672 0.174777 0.859936 -0.433917 -0.37105 0.29343 0.319273 -0.376566 0.291021 -0.0943745 -0.81028 -0.264167 0.364911 0.614085 0.110444 -0.449225 -0.0103929 0.544931 1.13062 -0.0955198 0.38497 0.197208 0.362063 -0.516995 0.511637 0.200977 -0.505217 0.116094 0.294589 -0.563593 -0.454363 0.674451 0.806706 0.544094 -0.0252813 1.07838 -0.0325417 -0.337054 0.079507 -0.0622229 -0.128021 -0.139962 0.0842936 0.098739 -0.304912 -1.2526 -0.288975 -0.428986 -0.593368 0.0271981 -0.0368102 0.148704 -0.0941727 0.509469 0.1237 -0.749373 -0.298622 -0.225703 -0.392912 0.143375 0.0728273 0.0228482 0.190098 0.804116 0.134761 0.321296 0.0807567 -0.533516 0.577052 0.263242 -0.378576 0.205556 -0.787284 -0.746332 -1.01158 0.526361 0.0816255 -0.663178 -0.410543 -0.303324 -0.224172 0.10707 -0.860849 
16 0.405811 0.0534516 0.0686314 -0.401029 -0.0151281 -0.533438 -0.184585 -0.709248 0.0519697 -0.163057 -0.407437 0.116492 0.408094 -0.198393 -0.0679814 -0.392053 0.236339 -0.500232 -0.421678 0.287842 -0.396362 -0.292403 0.523246 0.466739 0.404247 0.0323796 0.223343 0.284996 0.199896 -0.0688202 -0.1657 0.593844 -0.476026 0.21058 0.0145077 -0.0620346 0.467015 0.273053 0.0674951 -0.0435827 0.11654 -0.00563172 -0.0951287 0.513075 -0.148693 0.203877 0.61345 0.557821 -0.280097 0.435436 -0.177478 0.282952 -0.271812 0.0188111 -0.148738 -0.119858 -0.326479 0.237188 0.366976 -0.0362654 0.162157 -0.104262 -0.0116726 0.286784 -0.345689 0.342107 0.881946 -0.230156 -0.435292 0.0923706 -0.343785 -0.0393816 0.307802 0.0340235 -0.514661 -0.210583 0.000980603 -0.195381 -0.357414 0.217187 0.306596 -0.628012 0.184565 0.634909 -0.376469 0.116336 -0.210672 -0.295473 -0.0421617 -0.00745982 -0.270745 0.197759 0.0486709 0.0893975 0.216972 0.0861594 -0.677805 0.0928296 0.259382 -0.433037 -0.622786 0.142517 -0.0123268 -0.492637 0.513763 0.299302 -0.0284193 -0.315219 -0.0632156 -0.316545 -0.243685 -0.15264 -0.263064 -0.131623 0.254941 0.0145241 0.625851 0.413354 -0.319582 -0.67538 0.436721 -0.165152 -0.0871446 -0.201095 -0.149193 0.0625901 0.35824 -0.424389 
17 -0.343825 -0.262842 -0.101309 0.12435 -0.0817365 -0.904671 -0.144583 0.243401 0.265411 0.719349 -0.704798 -0.135154 -0.32348 -0.552292 0.320398 -1.06353 0.171972 -0.124558 -0.120787 0.533766 -0.693414 -0.135416 0.444283 -0.261328 0.549989 -0.313583 0.709996 0.201815 0.764291 0.0875629 -0.832618 -0.146186 -0.0692731 0.608792 0.23077 -0.349209 1.24704 0.310124 -0.385347 0.0822712 0.362993 0.119508 0.59142 0.697778 0.3304 0.114561 0.711014 0.697961 -0.274344 0.320667 0.15506 0.376145 0.241216 -0.10885 0.522846 -0.187057 -0.0356337 -0.0553524 0.601007 0.248732 0.67983 0.0979821 -0.749851 0.640109 0.11382 0.453368 -0.321623 -0.185487 -0.851563 0.0544597 -0.0533582 -0.0345057 0.152441 -0.0549139 -0.529252 -0.515705 0.175353 0.0276894 -0.0532594 -0.550383 -0.0929156 0.0210943 -0.0292255 0.26842 0.0662799 0.112629 0.898955 -0.742684 -0.0447878 -0.587177 -0.0522443 -0.642791 0.290213 0.407833 0.30995 -0.260196 -0.325292 -0.432115 0.349217 0.472023 -0.315111 0.0385012 -0.457598 -0.568858 0.0846008 -0.0693055 -0.767612 0.276207 -0.142072 -0.125474 0.0583325 -0.917128 0.239449 0.915123 -0.284629 0.225881 -0.998606 -0.135145 -0.643054 -0.81551 -0.206251 -0.625722 0.141656 -0.274427 -0.110812 -0.554651 0.0496981 -0.942675 
18 0.629177 0.297526 0.603424 0.224704 -0.216837 -0.816559 -0.355296 -0.854583 -0.659229 -0.0236536 -1.20062 0.579931 0.191349 -0.0876332 -0.139846 -0.831249 0.0344621 -0.214219 -0.230557 0.423996 0.0291138 0.506733 1.18317 0.410144 0.333703 0.0973245 0.132889 0.709588 0.524379 -0.195036 -0.370727 0.42021 -0.547904 0.838271 0.421663 0.43402 0.636725 0.190797 -0.0886156 0.864602 0.580754 -0.298739 -0.448962 0.342618 -0.104865 0.534443 0.572667 1.12041 -0.342833 0.274151 -0.284859 0.456991 -0.502462 -0.326319 0.296019 0.357538 -1.0074 0.668734 0.665994 0.0982102 0.055411 0.00270163 0.232646 0.405915 -0.394129 0.424509 0.325037 -0.4638 -0.305323 -0.0851251 -0.58743 0.00898102 -0.254442 0.122675 -0.269655 0.0399083 0.406809 0.023788 -0.808386 0.0966615 0.436097 -0.813624 -0.527845 0.820173 -0.865614 -0.172053 0.283098 -0.0554599 -0.391089 -0.680793 -0.266541 0.0666383 -0.0959498 -0.00716839 0.208896 -0.240295 -1.1747 0.332082 0.233757 -0.663694 -0.369569 0.156515 -0.118047 -0.459364 0.434092 0.170484 -0.184095 -0.343706 0.266121 -0.799118 -0.0823805 -0.433306 -0.0705552 -0.0746397 -0.784934 0.16653 -0.0226357 0.190044 -0.260061 -0.941831 0.532154 -0.504015 0.227067 -0.461367 0.313032 0.0444161 0.390114 -0.157683 
19 -0.00784009 -0.281558 -0.317616 0.157943 -0.236891 -0.519822 -0.14198 -0.542743 0.0994978 -0.249699 -0.742824 0.581891 0.393783 -0.129257 0.498333 -1.16404 -0.181394 0.093028 0.454479 0.629066 0.0322915 0.144934 0.385545 -0.0989034 -0.189336 -0.299538 0.509443 0.480913 -0.412038 0.118331 0.271555 -0.0534431 -0.365451 1.01651 0.175812 0.307674 0.326258 0.148007 -0.236827 0.154103 0.26347 0.250642 -0.0735852 0.0361369 -0.0890092 0.0329755 0.858418 0.784374 -0.60953 0.291698 -0.271891 0.434479 0.072216 -0.10755 0.501609 -0.408451 -0.111354 0.0525581 0.531432 -0.139258 0.715829 0.478235 0.0342318 0.569593 0.200745 -0.179832 0.0434902 -0.247565 -0.34001 -0.23196 -0.0695783 0.112573 -0.00699843 -0.129641 -0.335676 -0.0899016 0.582858 0.0202508 -0.065615 -0.167054 0.185995 -0.0879277 0.189736 0.101741 -0.0122636 0.184145 -0.138153 -0.000542419 -0.0519816 -0.407742 -0.611975 -0.275999 0.154706 0.662495 -0.244133 -0.18336 -0.487347 0.0410895 -0.213838 0.206405 -0.517079 0.720505 0.222274 -0.587025 -0.0125462 0.0291566 -0.239843 -0.103326 -0.211645 -0.471378 0.292049 -0.507618 -0.43239 0.0992392 -0.332084 -0.258668 -0.211304 -0.156511 -0.615557 -1.19146 0.0258323 -0.26501 -0.0211771 -0.124392 0.457106 0.0400627 0.209598 -0.855931 
20 -0.00325927 -0.167981 0.0431033 0.340167 -0.0215991 -0.826065 -0.0756662 0.00650663 0.239884 0.498646 -0.969555 -0.199716 -0.203911 -0.340383 0.600798 -0.896516 0.0501728 -0.230628 -0.284728 0.4446 -0.51404 -0.0324853 0.237669 -0.26558 0.457016 -0.268699 0.762561 -0.00923377 0.439838 0.118053 -0.333468 -0.161586 -0.28147 0.862217 0.391049 -0.197037 0.847236 0.0381331 -0.301754 0.219812 0.13354 0.139949 0.32421 0.355198 0.732385 0.0167615 0.954815 0.60389 -0.471658 0.293989 0.277221 0.636993 0.276287 -0.10335 0.157009 -0.359104 0.100402 -0.353902 0.457788 -0.0491969 0.792768 -0.0728087 -0.477907 0.594444 -0.0496332 0.21795 -0.143673 -0.146271 -0.533658 0.270446 -0.125209 -0.139426 0.179489 0.168203 -0.475643 -0.373811 0.239729 0.339336 -0.247828 -0.308803 -0.00416497 0.0996048 -0.126529 0.368353 -0.189592 0.0387414 0.508367 -0.474367 0.125494 -0.755989 0.0157309 -0.450196 0.0765949 0.105706 0.275776 -0.230104 -0.393897 0.125552 0.529968 0.179717 -0.299995 -0.12264 -0.276096 -0.389598 -0.315454 0.176091 -0.361265 0.266138 -0.00113503 -0.168435 -0.129837 -0.779031 0.163039 0.740837 -0.146031 0.0759083 -0.79492 -0.282174 -0.371396 -0.939304 -0.0576373 -0.40817 0.294714 -0.126087 -0.220805 -0.636762 -0.0288856 -0.490267 
21 -0.0806575 0.202036 -0.134141 0.0518123 -0.0188333 -0.472632 0.387029 -0.791876 -0.182221 0.144799 -0.14212 -0.334675 1.22024 0.170479 -0.232878 0.21345 0.36426 -0.165428 0.0801491 1.23904 -0.419871 0.129768 0.0144544 0.0157369 0.302552 -0.0368678 0.639239 -0.450183 -0.146002 0.11097 -0.371689 -0.302371 -0.157328 0.257893 -0.112763 -0.333491 0.554204 0.552389 -0.164414 -0.141732 0.342961 0.158759 1.21895 0.0162067 -0.310047 -0.370706 0.903292 0.818951 -0.378738 0.119175 0.0496967 0.113628 -0.323634 -0.308064 0.653611 -0.87798 -0.29179 0.182319 0.440221 -0.327167 0.931929 0.111798 -0.0698849 0.385048 -0.249334 -0.0429965 -0.00978309 0.261269 -0.114774 -0.235642 0.367912 -0.488525 -0.350409 -0.724886 0.121069 -0.181429 0.612275 0.247959 0.0606577 -0.235691 0.37194 0.0144937 0.00584712 0.386488 0.181773 -0.446764 -0.424552 -0.679524 -0.184924 -0.25385 -0.824609 0.259936 0.349287 -0.213883 -0.236635 0.0861203 0.256799 -0.0186259 0.396629 -0.477557 -0.816657 0.289073 0.164948 -0.126641 -0.243655 0.734598 -0.410801 0.163286 0.684893 0.153757 -0.374981 -0.364778 -0.426129 0.0723317 0.196959 -0.0107372 0.0730659 -0.391022 -0.317531 -0.707386 0.921357 0.245136 -0.817175 -0.701353 -0.137529 -0.0648148 -0.169589 -0.756981 
22 -0.707835 0.504285 -0.741978 0.803327 0.449187 -0.264306 0.524931 0.137713 -0.513956 -0.0364575 0.310919 -0.479241 0.322022 0.0963942 0.791589 -0.613792 0.456065 -0.825434 -0.162712 0.26517 -0.81816 -0.772827 -0.457338 -0.655965 0.581312 0.0920152 0.613566 0.579984 -0.412577 -0.155562 0.0902456 0.19749 0.435899 -0.194035 -0.0134002 0.139832 0.50394 0.067619 -0.290468 -0.762421 1.1076 0.851477 0.313153 0.38668 -0.201011 0.0383968 -0.22226 0.658452 -0.172881 -0.638139 -0.377784 -0.295125 -0.353858 0.279603 -0.451143 -0.82655 -0.168291 0.281305 0.576813 0.343534 -0.232546 -0.0741888 0.391701 0.747352 0.108072 0.38635 0.425499 0.153431 -0.347546 0.457646 0.839017 -0.023062 -0.173385 0.319783 -0.954558 -0.303087 0.57895 0.434441 0.497132 0.257225 1.37793 -0.267094 -0.17633 -0.425235 -0.00707217 -0.113114 -0.288499 -0.158045 0.0680754 -0.694206 -1.10733 -0.552989 -0.437684 -0.936104 0.0304895 0.163722 -0.191649 0.0994712 0.256445 0.166522 -0.864273 -0.153391 0.197503 0.510363 0.515262 -0.0910873 -0.128355 -0.277809 0.39491 -0.253938 0.477003 0.387431 -0.764563 0.684462 0.613961 -0.366328 0.434054 -0.900166 -0.325364 -1.10049 0.633352 -0.366319 -0.0406366 -0.284116 -0.144454 0.186529 -0.241701 -0.848098 
23 0.303266 0.363783 0.637648 -0.0149714 0.115879 -0.46459 -0.0452655 -0.150185 -0.117265 0.78432 -0.800085 -0.397693 0.124525 0.0695014 0.641876 -0.476121 0.396244 -0.360315 -0.212593 0.256644 -0.698993 0.242941 0.406516 0.0792642 0.132087 0.383406 -0.123107 0.527954 0.659061 -0.102876 -0.0239915 0.0637889 -0.25867 0.752603 -0.173435 0.0421769 0.699182 -0.0888286 0.0690027 -0.0290862 0.4054 -0.0818112 0.832441 -0.207442 0.596262 0.213899 0.565964 1.03144 -0.0882279 0.31463 0.297506 -0.156147 -0.179339 -0.0542298 0.0020467 0.00115728 -0.267582 0.157513 0.426531 0.264472 0.32179 -0.166455 -0.269475 0.535719 0.288252 0.164286 -0.025927 -0.499347 -0.0878184 -0.0279697 -0.474577 -0.280318 0.0919079 -0.0960047 -0.231659 0.441921 0.0242199 0.092354 -0.156159 -0.0379591 0.321862 -0.109475 -0.799276 0.247184 -0.301441 0.418611 0.541801 -0.250205 -0.575216 -0.116964 0.0901251 0.371922 0.164807 0.100878 -0.0909533 -0.154498 -0.695708 0.259645 0.502976 -0.00723032 -0.487049 -0.595709 0.349087 -0.489638 0.0230446 0.0978473 -0.052211 -0.340354 0.244557 -0.325327 0.0286294 -0.360254 -0.339676 0.26336 0.0720639 0.0177079 -0.549974 -0.765603 0.205049 -1.10686 0.194435 -0.225737 0.0260877 -0.556092 -0.510773 -0.878055 0.145508 -0.0235592 
24 -0.383564 -0.14047 -0.121444 0.192686 0.349159 -0.228488 0.488061 -0.110237 -1.08418 0.522724 -0.460378 -0.207682 0.666821 0.0300302 -0.346987 -0.0546823 0.277175 -0.134576 0.326088 0.542844 0.11678 0.187811 0.83866 0.821697 0.589317 0.121803 -0.14765 0.788671 0.598845 0.0721884 -0.149323 -0.458748 -0.0369401 0.350392 -0.400317 0.194778 0.841516 0.615771 0.155718 0.65401 0.557034 0.260116 -0.0546691 -0.0805812 0.0330822 0.0568637 0.655957 1.05805 0.48037 1.31402 0.169039 -0.709102 -0.563776 -1.22171 0.359238 -0.37882 -0.615286 -0.229158 0.175505 -0.438246 0.62495 0.147334 0.425177 0.180508 0.222838 0.800234 -0.0369373 -0.162532 -0.168658 0.776103 -0.0215183 -0.134135 -0.0932579 -0.198875 -0.65145 -0.609934 0.439655 0.176889 -0.323732 -0.197739 0.613731 0.0174781 0.183155 -0.688092 -0.333663 0.155376 0.108759 -0.375941 -0.574734 -0.309314 -0.935635 -0.279215 -0.309071 0.225813 -0.282642 -0.157717 -0.547491 0.166806 0.464838 0.193715 -0.370029 0.630196 -0.0277093 -0.289664 0.324724 0.951343 -0.0939147 -0.19133 0.679726 -0.26977 0.391119 -0.954439 -0.462797 0.146262 -0.466989 -0.459429 0.49989 0.205918 -0.545091 -0.801034 -0.0851284 0.0645545 0.16142 -0.559549 -0.530983 0.0665798 -0.665198 -0.405802 
25 0.0413818 -0.0155247 -0.399332 -0.104141 -0.190587 0.356085 -0.49286 -0.341267 0.244559 0.45338 -0.436916 -0.321056 0.770979 0.033136 0.0931983 -0.864917 -0.283631 -0.0208598 0.367676 -0.154783 0.260298 -0.594404 1.21009 -0.0455406 0.370538 -0.495134 0.541138 0.380493 0.259382 -0.135914 0.193259 0.129462 0.409912 0.19577 -0.497197 -0.339081 0.961675 0.455881 -0.204934 0.458121 0.0726007 0.0841047 0.0671345 0.262171 -0.580327 -0.170499 0.273956 1.08564 -1.13857 0.496098 -0.102385 0.387024 -0.742086 -0.296703 0.553674 0.0897083 -0.295067 0.21779 0.453797 -0.271836 0.768499 -0.335426 0.576328 0.703467 0.182279 0.0255043 0.576677 -0.590497 -0.480133 0.447167 -0.509364 -0.212056 0.961273 0.952869 -0.454536 -0.108093 0.445735 -0.101512 0.15411 -0.546997 1.44992 -0.0838134 0.150396 0.413375 -0.31934 0.0306448 -0.03582 -0.40678 -0.423161 0.251234 -0.978122 -0.770519 -0.240063 -0.128881 -0.0921978 0.385385 -0.0832584 -0.17868 0.739505 -0.170615 -0.0537589 0.150418 0.329696 -0.0827029 0.558324 -0.133613 -0.325497 -0.328227 0.178643 0.0820072 0.263616 -0.401857 -0.371518 0.993191 -1.06442 -0.853866 -0.160695 -0.0511487 -0.768271 -0.807325 0.450733 0.135969 -0.214196 0.0389818 0.158593 -0.465909 0.355938 -0.289753 
26 0.364 0.246315 -0.288914 -0.0318689 -0.433608 0.234569 0.570975 -0.330276 -0.589981 0.583836 -1.11335 -0.833441 0.517649 -0.386063 0.167833 -0.6305 -0.274268 -0.0292087 -0.149926 0.116899 -0.0782941 -0.231724 1.12729 0.286597 0.485032 -0.163679 0.762204 0.501548 0.857739 0.228076 0.778264 0.59703 -0.455793 -0.00595397 -0.18431 -0.0267126 0.577209 0.532645 0.00942865 0.611749 0.411327 0.444767 0.505843 -0.208867 0.675298 0.618065 0.936487 0.599353 -0.201321 0.742969 0.114442 -0.0134173 -0.466331 -0.744259 0.369131 -0.480326 -0.0603536 0.213285 0.870556 -0.27124 0.494345 0.360265 -0.52337 0.531823 -0.229766 0.46569 0.19028 -0.284471 -0.346833 0.240273 -0.03976 -0.568234 0.58694 0.719716 -0.203028 -0.266168 0.699671 0.0870057 0.0141649 -1.09785 0.387353 -0.212944 0.182181 -0.00451327 0.0909874 0.132477 -0.499328 -0.668677 -0.698483 0.204551 -0.245616 -0.860324 -0.0461345 0.243336 0.0107367 -0.669341 0.0124517 0.318572 0.495927 -0.0791828 -0.296122 -0.329598 -0.588919 -0.156569 -0.19472 1.14498 -0.19928 -0.222609 0.0928712 0.0217504 -0.134807 -0.729693 -0.239307 0.413411 -1.32286 -0.23216 0.309746 0.256261 -0.841674 -0.825054 0.10352 0.662162 0.280675 -0.305171 -0.0556676 -0.134555 -0.623127 -0.0317883 
27 0.0120254 0.0940886 0.125272 0.225684 -0.213404 -0.120831 0.163139 -0.103583 -0.465093 0.0480931 -0.329068 -0.0923089 0.179624 -0.297862 0.199308 -0.0151642 -0.120733 -0.127466 -0.158789 0.442235 -0.189694 0.135636 0.470649 0.486312 0.167341 -0.0107083 0.2438 0.493692 0.30895 -0.35211 -0.329311 0.296367 -0.141758 -0.117457 0.143169 0.384589 0.299479 0.317129 0.122318 0.578964 0.434374 -0.234112 -0.0164033 0.0415174 0.0844548 0.623057 0.0975189 0.649267 -0.00885252 0.063847 -0.251623 0.252426 -0.331943 -0.208208 0.0669896 -0.033596 -0.318865 0.307852 0.0330629 -0.0895712 0.0977788 -0.0109089 -0.00347476 -0.00547634 -0.166354 0.186297 0.178649 -0.103354 0.0403186 -0.0133826 -0.240088 0.111137 -0.0455702 -0.0893486 -0.164004 0.0369474 0.239423 -0.121716 -0.573664 0.262403 0.300162 -0.150254 -0.222702 0.145962 -0.412539 0.029027 0.0739955 -0.0804702 -0.266315 0.11914 -0.259767 0.210192 -0.281432 -0.162333 -0.0326192 -0.255889 -0.351138 -0.166584 -0.0231583 -0.702263 -0.302422 0.114656 -0.0892356 -0.146531 0.076439 -0.0225348 -0.457176 -0.233971 0.0272068 -0.181094 0.019591 0.0190765 -0.134958 -0.0233631 -0.306299 -0.128271 0.178811 -0.232105 -0.117519 -0.545391 0.292688 0.16149 -0.213425 0.0137249 0.205185 -0.0485776 0.189816 -0.508599 
28 0.116068 0.400845 -0.959382 0.632895 -0.0598338 0.354895 0.761239 -0.418208 0.116766 -0.299208 0.247874 -0.651274 0.0452481 -0.236753 0.887859 -0.423744 0.547867 -0.80555 0.184073 -0.172304 -0.820114 -1.05832 -0.195897 -0.425856 1.04526 0.640857 0.975644 0.144481 0.153832 -0.0732488 -0.382092 -0.0219163 0.690278 -0.284706 0.292424 0.572535 0.173695 0.0132448 -0.210557 -0.660826 1.15349 0.596916 0.0503369 -0.104577 -0.731376 0.513129 -0.104826 0.905392 -0.753598 0.0872179 -0.058062 0.256761 0.0414843 0.602 -0.263166 -0.919738 -0.171256 0.625069 0.196073 0.093452 -0.247787 -0.0412391 0.435348 1.7219 0.0412763 0.214717 0.11471 0.466799 -0.209184 0.277004 0.469348 -0.200066 0.367777 -0.0928073 -1.42046 -0.193659 0.838704 0.24609 0.668224 0.113121 1.12966 -0.436871 0.103811 0.0882443 -0.259577 0.509862 0.0573041 0.22795 0.234843 -0.723395 -1.50066 -0.371515 -0.448668 -0.76517 0.150846 -0.156175 0.156432 -0.0504872 1.03055 0.155662 -0.718546 -0.241043 0.214283 -0.278772 0.10921 -0.320331 0.214501 -0.0172067 0.478537 -0.0193745 0.265563 -0.00877698 -0.247608 0.674213 0.867404 -0.454048 0.348824 -0.904997 -0.285088 -1.13081 0.23066 0.157989 -0.305998 -0.511335 -0.295152 0.35142 0.543375 -0.256705 
29 0.187813 0.445167 0.0096274 -0.458722 -0.287415 -0.678227 -0.691446 -0.03604 -0.456432 0.32804 -0.439575 0.601277 0.472451 0.317648 -0.00834345 -0.260417 -0.389903 -0.188964 0.239737 0.690541 -1.00115 0.186522 0.552126 0.446858 -0.272274 0.435467 0.288909 0.124507 0.224242 -0.555062 -0.484224 0.016913 0.0687227 0.508721 0.477718 0.0962576 -0.141135 0.542911 0.238296 0.0413081 0.242576 -0.247781 -0.171358 0.32029 0.0914197 0.328429 0.835507 1.10522 -0.218685 0.626403 0.0111816 -0.251538 -0.254605 -0.530798 0.191689 -0.0742676 -0.237193 -0.284643 1.2099 0.0141457 0.407613 -0.294212 0.133813 0.555418 0.0189785 0.946491 0.939793 -0.123106 -0.612715 0.503519 -0.0586466 -0.738383 0.437331 0.0737925 -0.622041 0.147472 0.196257 0.183142 -0.234094 -0.053354 0.910381 -0.102003 -0.23443 -0.0689788 0.150603 -0.159908 0.347718 -0.128354 -0.365145 -0.513712 -0.474097 -0.205851 0.080173 -0.25511 0.183118 -0.31939 0.193717 0.752323 0.360109 -0.798814 -0.559988 0.431687 0.345052 -0.153532 0.0181742 -0.18044 -0.27994 -0.671048 0.16217 -0.891513 0.4132 -0.068226 -0.210328 0.590253 -0.435869 -0.134931 -0.116987 0.421991 -0.111051 -0.329475 0.0714048 0.10103 -0.184442 -0.519979 0.00186969 0.0380188 -0.35561 -0.760795 
30 0.185125 -0.555081 0.55671 0.195374 -0.716523 0.810498 0.263507 -0.166993 0.692807 1.04007 -0.588179 0.158223 0.355317 -0.2067 0.58435 -0.510793 -0.163904 -0.0259562 -0.00220176 0.304464 -0.239338 -0.0881143 1.54656 -0.140066 0.0779699 -0.463775 0.513058 1.12333 0.743603 0.177662 -0.113684 -0.678224 -0.142229 -0.0341074 0.0696886 -0.355896 1.27027 0.254959 0.00371022 0.648447 1.035 -0.2398 -0.511382 1.00515 -0.35929 0.0169678 0.981216 0.56775 -0.353778 1.09938 -0.124213 -0.14075 0.0426226 -0.491702 0.590371 -1.36846 -0.283918 0.170465 0.459829 -0.343212 -0.00370148 0.0886437 -0.222604 0.610061 0.192063 0.551912 0.301035 0.545508 -0.223346 -0.0243044 -1.17452 0.0668948 1.23496 0.266935 -0.207416 -0.561823 0.389141 -0.302669 -0.215995 -0.384493 1.32446 0.282998 0.386401 0.146099 -1.08479 0.306685 0.170913 0.368888 -0.319324 0.0460028 -0.840669 -0.13205 -0.0875211 -0.666629 0.190773 -0.444257 -0.425223 0.678265 0.687367 0.0470429 -0.269548 -0.224009 -0.988822 -0.684688 -0.128502 -0.0594303 -0.698622 0.0215252 -0.413691 -0.0292328 0.572401 -0.2697 -0.567605 0.0673026 -0.701712 -0.00767227 -0.469288 0.227478 0.222624 -0.561543 0.0431815 -0.150556 0.0129676 0.325372 -0.16974 -0.179498 -0.328565 -0.15182 
31 0.105044 -0.0503432 -0.121131 -0.818185 -0.470873 0.242768 -0.181433 0.347381 -0.196594 0.848512 -0.803616 -0.365998 -0.128304 -0.494893 0.747671 0.111499 0.126964 0.418558 -0.243505 0.311904 0.461983 0.225043 0.755423 -0.0422575 0.0826934 -0.666086 1.01694 0.986168 0.463486 0.620107 -0.86491 -0.527036 0.590726 -0.309768 -0.29658 -0.370716 1.5853 0.815478 0.379244 0.619793 0.577864 -0.573462 0.0022884 0.906636 -0.133671 -0.0715634 1.10012 0.899185 0.204594 1.04172 -0.792587 -0.0347511 -0.299922 0.19743 0.649459 -1.10838 -0.39163 -0.337246 0.595618 -0.215902 0.202771 0.193738 -0.35003 0.611234 0.0758442 -0.316874 0.0787208 0.281609 0.209623 -0.118128 -0.702848 -0.454024 1.37072 -0.117797 -0.377725 -0.80259 0.616294 -0.512577 0.607696 -0.751906 0.772908 0.31464 -0.491307 -0.523271 -0.758297 0.162135 0.526031 -0.218297 -0.626594 -0.0996522 -1.52888 0.0295653 0.0201717 -0.189817 -0.228618 -0.547736 -0.46256 0.32634 0.0916148 0.530874 -0.58267 0.271823 -1.08547 -0.581416 0.109165 0.109805 -0.646619 0.173681 0.106441 -0.273047 -0.0216739 -0.730241 -0.273268 -0.217863 -0.83696 0.106705 -0.257343 0.0813252 -0.318981 -0.380425 0.29992 0.394429 -0.635858 0.0709579 -0.366575 0.0972771 -0.171672 -0.457396 
32 -0.541491 -0.0859549 -0.109019 0.353983 -0.314136 -0.237717 1.06533 0.173077 -0.515905 -0.0411309 -0.440694 -0.686689 1.62613 0.392357 -0.380119 -0.0654055 0.612454 0.0339257 0.366406 0.778895 -0.375282 -0.403796 -0.0464464 -0.0102769 0.702518 0.141808 -0.0102679 0.785031 0.230936 -0.579042 -0.247024 -0.315663 0.829297 0.349685 -0.13168 -0.0152143 0.804197 0.394953 0.039073 -0.804313 1.10232 0.8057 0.351126 -0.161621 0.358576 0.0148583 0.865771 1.04094 -0.509348 0.828587 -0.0228593 -0.348978 -0.568474 -0.0530323 -0.326968 -0.751449 -0.438756 -0.532379 0.517173 0.0560991 0.893442 -0.100658 0.0965548 0.0223448 -0.0176385 0.243853 -0.140239 -0.20518 -0.423381 0.217184 0.0719618 0.0549085 -0.384161 -0.582945 -0.201286 0.300591 0.37772 0.453539 -0.0137004 -0.616749 0.671133 -0.371065 0.199772 -0.799439 -0.379448 -0.0512301 -0.440236 -0.86042 0.248961 -0.402169 -1.00313 -0.168685 0.190199 -0.363722 -0.519857 -0.50817 -0.213575 -0.359814 0.296861 0.929376 -0.783834 0.346699 -0.0670534 -0.598256 0.0749681 0.869824 -0.438137 -0.112176 1.02625 -0.468406 -0.368991 -0.481058 -0.996743 0.0431536 -0.0399991 -0.442849 0.452991 -0.00155921 0.169319 -0.956294 0.140454 0.427381 -0.166624 -1.03047 0.154738 0.328409 -0.2889 -0.891255 
33 -0.0820487 -0.165422 -0.0693112 0.324935 -0.280061 -0.468942 -0.275244 -0.608396 -0.311747 -0.0261923 -0.099184 0.0448193 0.315122 -0.420607 0.146908 0.178413 0.0642578 -0.213917 0.183708 0.413282 -0.0488345 0.0861573 0.409767 0.119105 0.10327 -0.0674759 0.398268 0.0376636 0.620537 -0.278161 -0.422978 0.321582 -0.22441 0.254133 0.101986 -0.00479877 0.374694 -0.121374 0.147663 0.269173 0.365817 -0.108837 0.183947 0.162412 0.121196 0.240708 0.561766 0.745612 -0.290016 -0.0678206 -0.049549 0.459272 -0.418411 -0.689474 0.0586898 0.212507 -0.397271 0.273539 0.452589 -0.267838 0.125817 -0.157 0.167114 -0.0805156 0.0525811 0.0966544 0.0664208 -0.100436 -0.416058 0.27007 -0.111493 -0.286018 -0.0938598 0.133381 -0.249712 0.3778 0.419823 0.296894 -0.148812 -0.179396 0.113929 -0.19872 -0.117434 0.533927 0.196542 0.173203 0.113387 -0.449815 -0.334207 -0.490524 -0.186604 0.318794 -0.589644 0.0601326 0.0328887 -0.0745935 -0.137109 -0.269578 -0.143274 -0.198715 -0.304153 -0.0580779 0.190128 -0.269888 0.121388 0.206269 -0.310582 0.239947 0.352696 -0.444547 -0.219519 0.14754 -0.251012 0.218297 -0.0316978 0.0717927 -0.351943 -0.074158 0.0515794 -0.577826 0.354967 -0.0419516 -0.147403 -0.394509 -0.101815 -0.00643727 -0.0767101 -0.20653 
34 -0.471168 0.624904 -0.42824 -0.175695 -0.387765 -0.654686 0.299369 0.418984 -0.0745607 -0.485088 -0.106244 -0.753762 0.0460933 -0.727033 0.968795 0.297199 0.524988 -0.128564 0.511026 0.706186 -0.346963 -0.855797 0.262167 -0.0213723 0.997889 -0.257171 0.234863 0.793305 -0.432774 -1.0026 -0.224116 -0.0543523 1.24251 0.48022 -0.199421 0.46288 0.871245 0.297844 -0.429547 -1.08679 1.33709 0.574626 0.0140048 0.247472 0.440178 -0.341059 1.129 0.520758 -0.584506 1.06022 -0.00534494 0.307713 -0.603569 0.269449 -0.0701623 -0.425721 0.0886395 -0.622389 1.07658 -0.0977718 0.00893487 -0.305187 0.00556917 0.64873 0.243844 -0.589189 0.1573 -0.04434 -0.482026 0.54388 0.444188 0.271089 0.0237422 -0.0456331 -0.309838 -0.0348813 0.404425 0.534467 0.728907 -0.316121 1.12214 0.0169773 0.0521043 -0.77611 0.0630442 0.401452 -0.173902 -0.24139 -0.468243 -0.421894 -0.843261 0.242962 0.175562 -0.736626 0.0818435 -0.931343 0.133585 -0.149917 0.0580329 0.892077 -0.498665 0.441491 -0.264516 0.471321 -0.15215 0.0420142 -0.53955 0.326765 0.729194 -0.345083 0.292958 -0.529613 -0.764885 0.576416 0.0231611 0.185623 0.482819 -0.739787 0.00970248 -0.605137 0.526556 -0.000814889 -0.430844 0.0467462 0.184762 -0.292142 0.514308 -0.509049 
35 0.150368 -0.0815209 0.145202 0.218626 -0.399737 -1.09976 -0.348568 -0.530164 -0.164243 0.00295413 -1.23294 -0.546741 -0.0308265 -0.193515 -0.0257553 -0.654341 0.245663 -0.53599 -0.529376 0.26221 0.0140389 0.500107 0.888355 0.541709 0.349048 -0.09181 0.4632 0.560455 0.652169 -0.0321104 -0.613803 0.31507 -0.788308 0.879912 0.364612 -0.531337 0.900529 0.403121 0.00757287 0.640331 0.376678 -0.143817 -0.168702 0.279851 0.593543 0.416188 1.09405 0.994095 -0.312422 0.543247 0.122344 0.185789 -0.0678086 -0.129229 0.146617 -0.191362 -0.657251 0.100416 0.456032 0.09739 0.614309 -0.314275 -0.154224 0.688604 -0.387524 0.3398 -0.048967 -0.293626 -0.341059 0.16242 -0.474938 -0.263032 0.319393 0.0870962 -0.399723 -0.135572 0.327898 0.498109 -0.813928 -0.187194 0.0314615 -0.182051 -0.328665 0.609671 -0.489576 0.238787 0.413947 -0.411849 -0.0501234 -0.671595 -0.420703 0.00090628 -0.20973 0.133071 0.145617 -0.449913 -0.581875 0.67848 0.797857 -0.396407 -0.0470991 -0.574787 -0.460133 -0.261492 -0.262387 0.246775 0.102652 0.399983 0.665523 -0.199794 -0.188074 -0.392702 0.0218859 0.37992 -0.251639 -0.100395 -0.869629 0.516205 -0.15766 -1.09213 0.189811 -0.697903 0.967682 -0.370021 -0.0490644 -0.790936 0.233732 -0.0894645 
36 -0.260319 -0.197472 0.0584538 0.482062 0.129485 -1.01539 0.0201587 -1.08125 0.0852647 0.141305 -1.33608 -0.719648 -0.243625 -0.46789 -0.0783716 -0.669039 0.801104 -0.331421 -0.0179654 0.310655 -0.842097 0.624627 0.819567 0.0245641 -0.140961 0.484384 0.762949 0.514853 0.276664 -0.195613 -0.355599 -0.361613 -0.0197323 0.698266 0.184458 -0.207166 0.903678 0.138371 0.218868 0.358125 0.309751 0.516914 -0.153548 0.23387 0.0675742 0.249846 0.854847 1.34447 -0.387235 0.155533 0.393422 0.0819029 -0.509724 -0.0832637 0.642462 -0.262806 -0.546835 0.501333 0.685421 -0.401062 0.527488 0.264363 0.41295 0.308685 -0.609545 0.545865 0.57251 -0.745736 -0.739766 -0.604725 -0.783953 0.234831 -0.24306 0.144685 -0.454714 -0.393828 0.0802933 0.0404979 -0.45298 -0.592613 0.329233 -0.381823 -0.247002 0.432886 0.218195 -0.00525365 0.201799 -0.00241945 -0.203279 -0.124879 -0.42803 -0.236577 0.0908011 -0.175192 1.09329 -0.115766 -0.285934 0.620562 0.736809 -0.0077495 -0.443626 -0.0510437 0.184044 0.174541 -0.013513 -0.149737 -0.447678 -0.135522 0.200589 -0.662193 -0.208286 -1.05098 0.100903 0.448468 -0.569954 -0.352009 -0.746049 0.00424968 0.181945 -1.06721 0.185669 -0.638142 0.0627971 -0.895614 -0.219405 -0.14546 0.173082 0.166634 
37 -0.565707 0.279529 -0.0897911 -0.452493 0.113146 -0.010057 0.354221 -0.336597 -0.588652 -0.0452229 -0.107678 -0.912552 0.624466 -0.361627 0.548725 -0.747985 -0.0655415 0.229935 -0.0811961 0.420285 -0.525582 -0.551619 -0.103558 0.706515 0.554898 0.00678521 0.381032 0.941763 0.399423 -0.157521 -0.208854 0.202212 0.183208 0.441693 -0.0364395 -0.322418 1.51767 0.775855 0.0739347 -0.336434 0.126255 0.0456582 0.333649 0.373338 -0.101982 -0.794847 0.494829 0.599915 -0.854819 0.773791 0.0576815 0.728023 0.316517 -0.223126 0.0204011 -1.4771 -0.543957 -0.0801069 0.0711302 0.247051 0.0341537 0.339394 0.279935 0.597356 -0.0124833 -0.0324203 0.890223 -0.722586 -0.451352 -0.0540872 0.478727 -0.505549 0.361587 -0.173249 0.098902 -1.25377 0.513893 0.0989218 0.0851566 -0.111879 1.03613 -0.272439 -1.05823 -0.727087 0.105526 0.723828 0.0334991 -0.957005 -0.394437 -0.0686625 -0.563844 0.366857 -0.147769 -0.6532 -0.125384 -0.797613 -0.313175 -0.089735 0.556551 0.646274 -0.615973 0.398256 -0.104093 0.53315 0.249084 0.0625568 -0.37298 0.165257 0.0193342 0.187446 0.343384 -0.160354 -0.465552 0.725653 0.141244 -0.0990788 -0.0345327 -0.615015 -0.145566 -0.682597 0.76941 0.409185 -0.207059 -0.386878 -0.45939 -0.235358 -0.184826 -0.7369 
38 -0.0577514 -0.098575 0.0496118 0.210693 -0.255197 -1.13511 -0.129871 -0.326345 -0.235828 0.199274 -0.971647 -0.472616 -0.114411 -0.329632 0.219991 -0.784905 0.233975 -0.398138 -0.266369 0.267633 -0.33845 0.488578 0.734596 0.257946 0.288688 -0.00449986 0.519231 0.315003 0.694451 -0.0721483 -0.498592 -0.00256175 -0.6562 0.859209 0.280665 -0.558851 0.94784 0.247912 -0.150216 0.382547 0.331397 0.0102396 0.156522 0.212773 0.628681 0.434321 0.906235 0.983256 -0.379749 0.376666 0.220103 0.22548 0.0208241 -0.209314 0.184234 -0.14741 -0.397158 -0.0601211 0.515201 0.0573607 0.606349 -0.165793 -0.198495 0.798002 -0.408532 0.257239 -0.00706997 -0.186268 -0.462336 -0.131331 -0.551824 -0.255599 0.153205 0.212084 -0.371621 -0.392412 0.230854 0.519936 -0.602095 -0.304311 0.0542226 -0.024944 -0.222838 0.507188 -0.191266 0.379224 0.402546 -0.31787 0.013158 -0.684936 -0.320814 -0.117916 -0.112618 0.058531 0.274164 -0.34744 -0.555946 0.714175 0.882642 0.0294882 -0.271804 -0.417907 -0.451982 -0.333647 -0.256243 0.194108 -0.00606304 0.230455 0.59305 -0.258955 -0.159462 -0.415755 0.0896695 0.405929 -0.292575 -0.20935 -0.858962 0.199715 -0.0975689 -1.12903 0.108073 -0.699004 0.638984 -0.623267 -0.309726 -0.594889 0.256363 0.062804 
39 -0.208639 0.131925 -0.240905 -0.346859 -0.406634 -1.05814 -0.145695 0.271009 0.106971 0.516684 -0.54149 -0.0580598 0.00484352 -0.483436 -0.287888 -0.832367 -0.113583 -0.06186 -0.0854338 0.173049 -0.778489 0.0854307 0.536853 -0.134068 0.669027 -0.284518 0.26796 0.472856 0.605022 -0.0654844 -1.12052 0.121118 0.0799145 0.482265 -0.0300861 -0.420356 1.22703 0.115737 -0.21991 0.214954 0.772843 0.0793598 0.365203 0.362368 0.139969 -0.00419921 0.299666 0.897224 -0.37777 0.344667 0.136349 0.269699 -0.0675535 -0.154016 0.458976 0.0130191 0.037024 0.303067 0.578097 0.182493 0.455334 0.136157 -0.434546 0.700295 0.220786 0.194822 -0.117278 0.0700312 -1.02668 0.123517 0.0876845 -0.123107 0.138984 0.217136 -0.287986 -0.604545 0.537006 -0.0807508 -0.13204 -0.275545 0.320455 -0.333733 0.0103018 0.438649 0.259355 0.0854599 0.87108 -0.800724 -0.116276 -0.223083 -0.344431 -0.32021 0.383596 0.37176 0.601261 -0.278282 0.122193 -0.246359 0.293594 0.41351 -0.120582 0.0117791 -0.293832 -0.0900567 0.463495 -0.191405 -0.653863 0.105902 0.0214864 -0.142537 0.0647111 -0.496289 -0.0564718 0.996971 -0.104233 0.379436 -0.482623 -0.323426 -0.905682 -0.539641 -0.145754 -0.662473 0.146566 -0.359649 -0.194067 -0.429722 0.346437 -1.24024 
40 0.739926 0.236454 -0.0135037 -0.0142053 -0.0774906 -1.39305 -0.64498 -1.16827 -0.0326288 -0.160075 -1.20368 0.738833 0.393284 -0.12445 -0.412802 -0.516547 0.00399231 -0.00752704 -0.515093 0.568078 -0.146376 0.693701 0.983227 0.205782 0.741762 -0.112878 -0.353433 0.603546 0.128688 -0.37562 -0.222979 1.01889 -0.757405 1.19697 0.0914087 0.403273 0.505822 0.146453 -0.240646 0.95138 0.642512 0.0959268 -0.308037 0.146259 -0.0737932 0.190283 0.103661 0.625454 -0.361587 0.0876412 0.260537 0.664099 -0.593386 -0.431851 0.532882 0.415649 -0.958225 0.785053 0.837323 -0.0256496 0.268835 0.659094 0.173198 0.489706 -0.557342 0.608558 0.619854 -0.173709 -0.318179 -0.233851 -0.297923 -0.202432 0.0473798 0.602962 -0.193707 0.303298 0.485191 -0.279116 -0.696159 0.502799 0.23354 -0.712932 -0.24403 0.869565 -0.814492 -0.0620094 -0.453556 -0.166154 -0.151286 -0.653738 -0.946614 0.546818 0.302536 -0.0240355 0.334278 -0.0989224 -0.984303 0.179763 -0.208121 0.0204698 -0.554554 0.535223 0.122918 0.0469242 0.18923 0.26008 0.073078 -0.501221 -0.221142 -0.777227 -0.098272 -0.777252 -0.33545 -0.251178 -0.47396 -0.0175237 -0.0201251 0.128907 -0.68775 -0.762219 -0.0260797 -0.325156 0.21973 0.0432247 0.466735 0.41224 0.37341 -0.957256 
41 0.370293 -0.438314 -0.288793 -0.407961 0.0357692 -0.884792 -0.435293 -0.532437 0.363203 -0.0557764 -0.188538 -0.0338519 0.327032 -0.16053 0.0429809 -0.207258 0.0748456 -0.256993 -0.149674 0.331201 -0.960631 -0.277871 0.0891814 0.210496 0.620766 0.070268 0.274642 0.0251443 -0.120338 -0.160579 -0.119373 0.602024 -0.823386 0.13004 0.0193774 -0.265046 0.713483 0.221774 -0.00343396 0.0316215 0.226984 0.481708 0.032164 0.350962 -0.215053 -0.0878614 0.616854 0.605885 -0.106822 0.690133 0.233158 0.408788 -0.20923 -0.249687 0.395687 -0.0528247 -0.443968 0.483022 0.510422 0.156944 0.462894 0.0333059 -0.279831 0.266861 -0.597927 0.358164 0.823724 0.117281 -0.421798 0.145646 0.00372267 -0.181739 0.3176 0.0236325 -0.286962 -0.448566 -0.0407101 -0.289865 -0.367925 0.22407 0.305968 -0.394018 0.280843 0.429718 -0.242117 0.2963 -0.472134 -0.52171 -0.017367 -0.336863 -0.774661 0.393057 0.23984 -0.137114 0.00288488 -0.0450976 0.0317221 0.0806176 0.436531 0.208075 -0.837113 0.0753312 0.281973 -0.734293 0.249656 0.408376 -0.148531 -0.32289 -0.121337 -0.105703 -0.677735 -0.211382 -0.410886 -0.0889152 0.187803 0.0254524 0.410369 0.0142738 -0.787662 -0.854484 0.118435 0.10628 -0.303289 0.0983897 -0.585295 0.163035 0.43026 -0.545514 
42 -0.261805 0.124943 -0.167303 -0.217129 -0.400122 -1.03446 -0.0973932 0.206331 0.0457011 0.611615 -0.556413 -0.145487 0.0565512 -0.506314 -0.140791 -0.865584 -0.0483849 -0.136796 0.0117878 0.155699 -0.707486 0.112987 0.491746 -0.276563 0.620646 -0.251815 0.245641 0.475016 0.652657 -0.11941 -1.03159 0.0636805 -0.0967742 0.513694 -0.0291627 -0.410734 1.14876 0.153321 -0.0763107 0.0438226 0.820129 0.322723 0.436851 0.413712 0.158782 0.132444 0.339086 0.854998 -0.411958 0.354296 0.129751 0.404899 0.0160116 -0.122539 0.453696 0.0132711 0.0280825 0.276171 0.643569 0.0287353 0.598577 0.359406 -0.526984 0.803805 0.170555 0.275756 -0.111759 0.0768428 -1.11956 -0.082511 0.0808108 -0.101658 0.10617 0.299191 -0.381841 -0.585054 0.51793 -0.0649969 -0.0766128 -0.514658 0.259851 -0.284299 0.0553842 0.519608 0.251682 0.30288 0.816351 -0.719735 -0.213154 -0.181476 -0.380405 -0.368166 0.396702 0.421543 0.445361 -0.28724 0.132964 -0.191236 0.508992 0.418251 -0.163921 0.102384 -0.214541 -0.0850933 0.387542 -0.19451 -0.718107 0.205151 0.168192 -0.257103 0.0280149 -0.54005 -0.166328 1.05702 -0.117749 0.221879 -0.682246 -0.365089 -0.795467 -0.507622 -0.0999949 -0.754084 0.223285 -0.491289 -0.321789 -0.492484 0.276476 -1.03629 
43 0.645434 0.248478 0.596498 0.18986 -0.366128 -0.740062 -0.332848 -1.01116 -0.512625 0.0345326 -1.14746 0.521887 0.284668 -0.180381 -0.0463261 -0.831836 -0.0092866 -0.309697 -0.265582 0.53125 -0.0755271 0.662546 1.1715 0.585994 0.416582 -0.0117243 0.0633392 0.86759 0.542878 -0.199267 -0.367985 0.569917 -0.521071 0.95496 0.356976 0.27448 0.659357 0.224764 -0.00976676 0.827959 0.572709 -0.29182 -0.301717 0.311521 -0.107914 0.609984 0.569781 0.941881 -0.384068 0.409492 -0.28498 0.405649 -0.569016 -0.294064 0.303193 0.289945 -1.0122 0.619956 0.729396 -0.104782 0.19398 -0.0208071 0.259223 0.357263 -0.284585 0.436922 0.443383 -0.485783 -0.390111 0.0174819 -0.453631 -0.0311009 -0.0941949 0.226932 -0.315697 0.180021 0.416156 -0.0548785 -0.869904 0.0705408 0.296547 -0.842558 -0.440075 0.856117 -0.776955 -0.0845398 0.235332 -0.0833439 -0.562694 -0.528143 -0.226363 0.0819214 -0.0341479 0.191587 0.219151 -0.184169 -1.20806 0.221145 0.092903 -0.635425 -0.454164 0.210768 0.00704982 -0.405003 0.412266 0.138421 -0.239523 -0.217934 0.247575 -0.665137 0.0442759 -0.537358 -0.193051 0.04 -0.670802 0.132244 -0.182308 0.162085 -0.238017 -0.91357 0.424885 -0.498265 0.215433 -0.447465 0.417356 -0.0676246 0.304724 -0.470187 
44 -0.247123 0.0782133 0.635489 0.374029 -0.153277 -0.541822 -0.123308 -1.17926 -0.00668277 0.0856421 -0.508377 -0.506238 0.915962 0.00824531 0.249161 0.0871145 0.533165 -0.552024 0.334151 0.158142 -0.979212 0.305016 0.767512 -0.108625 0.000852687 -0.385709 0.32138 0.0585275 0.235524 -0.596819 -0.212308 0.229695 -0.780782 0.577068 0.59842 -0.124472 0.984001 0.366479 -0.362805 0.401573 0.196019 0.423165 0.101517 0.302346 0.163216 0.0865654 0.679838 0.753673 -0.183941 0.529366 0.239277 -0.118014 -0.38012 -0.347006 0.689225 -0.222844 0.287785 0.158377 0.266676 0.224231 0.462632 -0.171564 0.0987105 0.439054 0.361007 0.246102 0.264296 -0.0441051 -0.676473 0.435118 0.446942 -0.393238 0.124114 -0.406967 -0.0317675 -0.381351 1.11034 0.536399 0.157667 0.289204 0.187023 -0.510377 0.00952658 -0.173699 0.0801668 0.159586 0.142519 0.313187 -0.685662 -0.554831 -0.610656 -0.167848 0.0671847 0.00637466 0.0687578 -0.37361 -0.562124 0.00639607 0.265268 -0.548874 0.0228814 0.276142 -0.0186095 -0.0800816 -0.450741 -0.096817 -0.573027 -0.0539822 0.408019 -0.421821 -0.0481732 -0.929362 -0.427354 0.56129 -0.450817 0.372979 0.073154 0.0536185 -0.111183 -0.51193 -0.158873 0.169881 -0.0465959 -0.207672 -0.280223 -0.786196 -0.0858685 -0.716065 
45 0.248557 0.374662 0.750506 -0.01226 0.10979 -0.431582 0.0407578 0.0279641 -0.350403 0.671487 -0.708997 0.0207156 0.106157 -0.0539201 0.511749 -0.376797 0.30832 -0.162652 -0.242685 0.228234 -0.732974 0.507129 0.626188 0.326361 0.263746 0.254962 -0.00578991 0.672776 0.748187 0.0467145 0.0160819 0.497749 -0.216262 0.537665 -0.209629 0.0160984 0.534691 0.102021 0.293267 0.326572 0.461426 0.0126711 0.564778 -0.0620026 0.122525 0.170226 0.279952 0.817616 -0.0874613 -0.0497141 0.392433 0.0327983 -0.088906 -0.119322 -0.0802878 0.0231613 -0.572334 0.339819 0.376517 0.147071 0.137725 -0.21961 -0.237151 0.709368 0.169734 0.168167 0.396196 -0.410676 -0.320891 -0.044045 -0.339026 -0.476208 -0.182027 -0.342523 -0.254379 0.254393 0.0941552 0.0734577 -0.359407 0.164605 0.139184 -0.269254 -0.625937 0.366105 -0.244362 0.477955 0.451221 -0.32914 -0.615027 -0.283052 -0.00424215 0.0984942 -0.0800814 -0.0141824 -0.105223 -0.240499 -0.771818 0.204525 0.613654 -0.209611 -0.583871 -0.394207 0.32127 -0.22918 0.49834 0.134779 -0.0867812 -0.70919 0.15627 -0.434725 0.194929 -0.439283 -0.142445 -0.04481 -0.126922 0.260112 -0.522846 -0.533001 -0.0999951 -1.1342 0.447538 0.03861 -0.0533414 -0.397827 -0.0236349 -0.601433 0.143089 0.0613494 
46 0.655799 0.283447 0.633688 0.179139 -0.315988 -0.804142 -0.27756 -1.00896 -0.532315 0.0484418 -1.14116 0.568453 0.292521 -0.186099 -0.0908183 -0.816076 -0.0125373 -0.296863 -0.242553 0.508606 -0.0865095 0.607697 1.18546 0.498741 0.371375 -0.0268423 0.0753876 0.831634 0.509737 -0.201939 -0.430836 0.574857 -0.499511 0.921492 0.361923 0.331282 0.637522 0.19662 -0.0600874 0.834967 0.594789 -0.323631 -0.379397 0.304229 -0.157416 0.622911 0.51058 0.967865 -0.353148 0.378926 -0.295006 0.45625 -0.550258 -0.246726 0.311836 0.32181 -1.07662 0.66343 0.752039 -0.0927209 0.145034 -0.0874717 0.280334 0.400256 -0.309738 0.414347 0.450122 -0.449062 -0.336681 -0.0640532 -0.489448 -0.00610044 -0.148348 0.2763 -0.308762 0.206978 0.418561 -0.0595866 -0.859333 0.0953982 0.291558 -0.885893 -0.443248 0.804144 -0.778754 -0.176007 0.237444 -0.0730936 -0.49355 -0.540017 -0.265243 0.0816623 -0.08176 0.232337 0.254659 -0.211696 -1.215 0.214731 0.0827229 -0.568145 -0.409292 0.262417 0.0166667 -0.412439 0.374207 0.0832355 -0.296521 -0.268995 0.148054 -0.672423 0.0588516 -0.562283 -0.154601 0.06279 -0.701906 0.125542 -0.154966 0.176743 -0.206185 -0.850163 0.412936 -0.487925 0.226182 -0.439384 0.398662 -0.0808391 0.358195 -0.402754 
47 0.385582 0.259265 -0.0755885 0.00692676 -0.283877 -0.758969 -0.00875099 -0.434163 -0.0294183 -0.212066 -0.720665 -0.0319264 0.17729 0.224642 -0.224527 -0.795003 0.186576 -0.188616 -0.143902 0.286712 -0.538073 0.290954 0.945055 0.47698 0.0746214 -0.360238 0.411114 0.265918 0.445084 0.298251 0.00801931 -0.0394284 0.259353 0.600674 -0.567443 0.274762 0.370384 0.212083 0.0101516 0.795901 0.21496 -0.0143641 -0.114514 0.553798 0.378032 -0.419246 0.52438 1.07541 -0.421559 0.548977 0.398049 -0.123114 0.00593803 -0.558832 0.0981497 -0.0246372 -0.41826 -0.180129 0.435239 0.0871624 0.32973 -0.370517 0.832904 0.180748 0.17077 -0.525937 0.280976 0.207586 -0.115452 0.588686 0.256539 -0.57539 0.319117 -0.145433 0.0648725 0.164223 0.757905 -0.104966 -0.174475 0.217603 0.77879 -0.159347 0.0456487 0.406548 -0.243008 -0.149966 0.0164097 -0.135644 -0.0757192 -0.254385 -0.638797 0.102865 -0.345206 -0.119116 0.118018 0.144646 -0.198807 -0.0583019 -0.116688 -0.00351942 -0.371755 0.0274457 0.421494 -0.027257 -0.0249769 -0.180657 -0.276649 -0.0141274 -0.18838 -0.251161 -0.120907 -0.127892 -0.199809 0.736198 -0.677831 -0.402426 -0.0857068 -0.642999 -0.338409 -1.20715 0.123364 -0.187426 -0.339706 -0.0882852 0.296563 -0.165971 0.383182 -0.70346 
48 0.254096 0.14777 -0.274872 0.125686 -0.631245 -0.201278 0.177428 -0.351326 0.131301 -0.358411 -0.555496 -0.295383 0.340957 -0.176013 0.287073 -0.204847 0.155209 -1.01426 -0.187497 -0.295918 -0.63114 -1.23301 0.229538 -0.394643 1.32065 0.265429 0.774356 0.863319 0.497631 -0.608905 -0.921136 0.100438 0.713065 0.171314 0.628667 0.709428 0.135289 0.198958 -0.0790658 -0.201817 0.925758 0.474232 0.153554 -0.0164308 -0.544497 0.577547 0.656185 1.15085 -0.720741 0.408077 -0.338248 -0.35299 -0.313226 0.662322 -0.364123 -0.469574 -0.450881 0.290531 0.359655 -0.088718 0.305974 0.14834 0.0696069 1.25284 0.32858 -0.0257463 0.155934 -0.14424 -0.045103 0.474075 0.692185 -0.0195756 -0.102186 -0.286574 -1.28446 -0.476194 0.561325 0.275437 0.220482 0.16862 1.1369 -0.325302 0.0177542 0.516964 -0.613499 0.526991 0.345562 -0.38629 -0.330268 -0.356976 -1.04078 0.270793 0.128468 -0.632184 0.285545 0.00126653 0.180212 -0.0928154 1.08745 0.355458 -0.677524 -0.369471 0.424866 -0.437999 0.0382876 -0.0197525 -0.278998 -0.24822 0.428928 -0.419732 0.385489 -0.283863 -0.375407 0.542558 0.0694659 -0.305765 0.291104 -0.573103 0.324276 -1.5746 0.320444 0.300205 0.193666 -0.0348304 0.0841692 0.225181 -0.0262162 -0.109473 
49 0.625259 0.293872 0.615862 0.186014 -0.310028 -0.766344 -0.30205 -1.02833 -0.541257 0.050987 -1.10505 0.531814 0.362364 -0.201314 -0.0689523 -0.845785 -0.0283213 -0.336663 -0.266171 0.454368 -0.0568075 0.614217 1.14699 0.573496 0.449148 -0.0443707 0.0866612 0.823181 0.541793 -0.23553 -0.377125 0.579207 -0.498656 0.923244 0.333468 0.308548 0.673132 0.184538 -0.0605387 0.833199 0.609477 -0.309727 -0.349007 0.336865 -0.101727 0.583514 0.519216 0.896141 -0.366587 0.44899 -0.264184 0.356829 -0.530646 -0.284537 0.327981 0.293434 -1.06535 0.644814 0.711231 -0.0909752 0.116902 -0.114457 0.227314 0.363153 -0.286927 0.40729 0.42316 -0.446994 -0.361104 0.00262595 -0.450729 0.0128926 -0.141087 0.23626 -0.273559 0.202546 0.459611 -0.0471899 -0.885052 0.0837725 0.357723 -0.890622 -0.458634 0.791532 -0.797874 -0.181137 0.254792 -0.072811 -0.531813 -0.478459 -0.241737 0.0527347 -0.0941952 0.220843 0.235341 -0.147431 -1.21566 0.238246 0.135236 -0.642588 -0.379938 0.266787 -0.0489592 -0.386094 0.43609 0.11825 -0.264618 -0.254883 0.227897 -0.693111 0.00141422 -0.570257 -0.150225 0.0223414 -0.722994 0.153248 -0.16512 0.240861 -0.173931 -0.922535 0.450608 -0.464552 0.213381 -0.401351 0.404432 -0.084169 0.313355 -0.402294 
50 0.0693975 0.363808 0.0319232 -0.176665 -0.0644486 -0.518762 -0.00938894 -0.251163 -0.301758 0.12767 -0.394193 -0.0932405 0.334091 0.180576 -0.147242 -0.42667 -0.132593 -0.365885 -0.267778 0.554858 -0.704972 -0.156683 0.376786 0.114279 -0.0447425 -0.261065 0.378968 0.14525 0.191427 -0.0798355 0.00329074 0.0177878 0.11489 0.899523 -0.326151 0.0789107 1.01788 0.535637 0.116552 0.106088 0.0103917 0.277583 -0.10261 -0.23694 -0.0423132 -0.0458787 0.278131 0.46878 -0.532246 0.173263 -0.0352554 0.446432 -0.19329 0.308266 0.678378 -0.0500149 -0.648107 -0.128952 0.481028 -0.431752 0.310419 -0.114401 0.0949479 0.289007 -0.215302 -0.226143 0.621634 -0.215692 -0.531513 -0.140105 0.211469 -0.366428 0.231144 0.568543 0.302163 -0.199192 0.462104 0.189339 -0.528348 0.0704572 0.658347 -0.257131 0.191221 -0.0945766 0.0989011 -0.241914 -0.0251245 -0.115634 -0.147083 0.148796 -0.546369 0.218545 -0.461465 -0.497243 0.0422725 0.0700117 -0.362502 0.209851 0.111208 -0.0736523 -0.159865 0.422935 0.300752 -0.116555 0.222536 0.319452 -0.465659 0.14236 -0.308149 -0.174281 0.307242 0.117245 0.0759506 0.438524 -0.671433 -0.51976 -0.211729 -0.185257 -0.549088 -0.492684 0.598304 0.0937914 -0.291216 -0.290921 -0.340545 -0.445067 -0.029121 -0.622073 
51 -0.250087 0.0548362 -1.23993 0.233987 0.188697 -0.044386 0.796972 -0.187191 0.666618 0.155792 0.931619 -1.01288 1.1639 -0.127229 0.794887 -0.382598 0.517334 0.162576 0.531021 0.424305 -0.860708 -0.838809 -0.00192611 0.110805 -0.0906618 -0.477376 0.919469 -0.327196 0.180693 0.0495073 -0.324642 0.617314 0.615476 0.547652 0.06959 0.142225 0.8298 0.250058 -0.042122 -0.69183 1.26265 0.305355 0.386811 -0.599975 -0.0163049 -0.59272 0.521089 0.753312 -0.968505 -0.895998 -0.380546 0.173967 -0.650489 0.411427 0.10384 -0.747972 0.0461231 -0.358121 0.491704 -0.150003 -0.575543 -0.555235 0.0950516 0.628674 0.23502 -0.305326 0.340915 0.855352 -0.629597 0.259196 0.335319 -1.10239 -0.385006 0.693702 -0.462451 -1.06675 0.840094 0.336976 0.671471 0.0620557 1.57832 0.124459 0.55445 -0.149938 0.587552 0.00846871 0.315949 -0.0705953 -0.275026 0.376214 -0.669659 -0.559046 0.133947 -0.520071 0.0350864 -0.200001 0.590145 0.294601 0.594085 0.40445 -0.0951491 -0.212892 -0.427128 -0.392533 0.0975954 -0.0275228 0.240446 0.201183 0.919884 -0.173735 0.502586 -0.139252 -0.52461 0.158688 0.614936 -0.698532 -0.414325 -1.40393 0.145012 -0.878738 0.663141 0.0717054 -0.746384 -1.03215 -0.144608 -0.273688 0.456322 -0.762699 
52 0.1673 0.363786 0.0949806 -0.0753205 -0.504437 -0.703872 -0.204591 0.0559379 -0.178548 0.422987 -0.457535 0.158491 0.0876578 -0.216493 -0.161299 -0.594577 -0.328391 -0.325016 -0.0060498 0.446154 -0.448939 0.318539 0.522017 0.0258802 0.106928 -0.391254 0.102444 0.280795 0.616592 -0.422912 -1.03332 0.305974 -0.0736559 0.50367 0.0437422 -0.400717 0.888236 0.20439 -0.199408 0.214495 0.679352 0.174478 0.207281 0.434159 0.25704 0.281855 -0.0352442 0.701207 -0.269863 0.0714639 -0.2454 0.600755 0.0576246 -0.121212 0.278942 0.202889 -0.301407 0.218366 0.408423 -0.145706 0.314699 0.223 -0.378593 0.602065 -0.0598058 0.341827 -0.00315566 -0.0344371 -0.532272 0.162759 -0.140024 0.0622798 0.0149064 0.472869 -0.130342 -0.05713 0.324652 0.0855636 -0.37202 -0.407414 -0.0641942 -0.514109 0.00730164 0.728182 -0.206977 0.0994282 0.631482 -0.561046 0.0552061 -0.283059 -0.255029 -0.221188 0.373044 0.329657 0.282876 -0.338121 -0.299339 -0.114818 0.30242 -0.0688992 -0.147132 0.041525 -0.18029 -0.0882755 0.153713 0.0263863 -0.408353 0.10184 0.00949818 -0.273222 0.0181228 -0.386042 -0.135669 0.662637 -0.0421567 0.091757 -0.485261 -0.28755 -0.473985 -0.279959 0.0887569 -0.693615 0.0900374 -0.453805 -0.280128 -0.306633 0.238744 -0.754928 
53 0.313718 0.264485 0.396479 -0.0861194 0.211347 -0.461746 -0.12466 -0.313951 -0.178546 0.670088 -0.553268 -0.413423 0.344834 0.028598 0.385724 -0.551408 0.292595 -0.314457 -0.00645377 0.31061 -0.492143 0.0425582 0.327621 0.0250041 0.116916 0.274916 -0.112219 0.504906 0.401292 -0.137973 -0.0641639 -0.0740232 -0.398514 0.601081 0.0276017 0.249016 0.563392 -0.0858202 -0.158235 -0.0862821 0.362305 -0.155329 0.813957 -0.145007 0.582448 0.286356 0.508054 0.927571 -0.14764 0.416449 0.0780302 -0.127777 -0.387535 0.018847 -0.00571206 0.0721624 -0.136525 0.129891 0.240795 0.382494 0.261226 -0.0931899 -0.0719072 0.22446 0.396063 0.101156 -0.240892 -0.54635 -0.0839642 0.0871814 -0.359568 -0.0919211 0.192412 0.164342 -0.12531 0.432822 -0.0214375 0.0866006 -0.0126491 -0.0121672 0.447387 0.152043 -0.677368 0.104283 -0.414027 0.194808 0.367464 -0.215975 -0.493457 0.031162 -0.00589631 0.451229 0.277736 0.0578808 -0.176838 -0.0566208 -0.482898 0.0331483 0.250896 0.109656 -0.267465 -0.294808 0.124532 -0.478586 -0.217556 -0.0134943 -0.14418 -0.0460176 0.318491 -0.337539 -0.0785847 -0.284376 -0.536739 0.252504 0.0819128 -0.0396279 -0.354003 -0.670327 0.212187 -0.782515 0.0966288 -0.181307 0.0788199 -0.502819 -0.479124 -0.669939 0.195183 -0.161767 
54 -0.188438 0.339207 -0.961598 0.471308 -0.03311 0.322231 0.851031 -0.217372 0.0221793 -0.0751816 0.133913 -0.617096 0.171156 -0.0603554 0.606484 -0.553271 0.373458 -0.864523 -0.214821 -0.206894 -1.01153 -1.10636 -0.305081 -0.288515 1.24273 0.386145 1.00782 0.529194 0.21259 -0.333967 -0.213529 0.318255 0.524349 -0.261299 0.461244 0.582936 -0.179424 -0.151969 -0.183448 -0.680045 1.33455 0.657287 -0.447738 0.224021 -0.343805 0.659997 -0.0473478 1.05105 -0.916931 -0.257601 -0.116317 0.149625 -0.0150757 0.520854 -0.415482 -0.86632 -0.115849 0.438818 0.128535 -0.120331 -0.356275 0.182706 -0.038279 1.58318 0.0183646 -0.376415 0.459851 0.459914 -0.374787 0.441129 0.264507 0.040566 0.127464 -0.0205762 -1.19369 -0.346358 0.896318 0.263996 0.63172 0.237215 1.17855 -0.305922 -0.0229527 0.0256957 -0.446899 0.511531 -0.342378 0.0497289 0.229017 -0.40147 -1.27177 -0.700295 -0.321912 -0.640351 0.149723 -0.327765 0.125818 -0.126944 0.727629 0.535283 -0.59736 -0.30534 0.344022 0.0615296 0.157593 -0.336233 0.325649 -0.186819 0.840805 -0.273974 0.110924 -0.116096 -0.466712 0.853176 0.669786 -0.435812 0.327648 -1.20587 -0.643781 -0.79639 0.314369 0.291375 0.0613946 -0.219591 -0.414448 0.0680107 0.517144 -0.448752 
55 0.27346 0.158854 -0.217476 -0.0195246 -0.0940448 -1.10723 -0.210144 -0.012366 0.186012 0.223104 -0.312461 -0.472443 0.638245 0.0970873 0.0646696 -0.171921 0.161789 -0.274286 0.0322142 0.386456 -0.863547 -0.0392533 0.62016 0.727658 0.258093 -0.188195 0.628886 -0.0463968 0.256153 -0.326568 -0.534405 0.404649 -0.650239 0.871481 0.297198 0.218607 0.0155021 0.289586 0.148365 -0.157668 0.85245 0.47225 0.232129 0.0475725 -0.533803 0.0943339 0.676134 0.58061 -0.226669 0.449313 0.8063 0.157092 0.08398 -0.493206 0.706057 -0.108162 -0.392163 -0.0450774 0.654834 -0.233756 0.58378 0.269174 -0.278236 0.165668 -0.389122 0.0802033 -0.0131826 0.304879 -0.489726 0.228061 -0.329599 -0.0560157 -0.47589 -0.313552 -0.147355 -0.239019 0.582659 -0.22432 0.0254229 -0.308193 -0.158631 0.0816296 0.0615573 0.501143 -0.776025 -0.124994 0.831265 -0.474696 -0.0531936 -0.275704 -0.589679 -0.497703 -0.0913103 -0.424596 -0.387663 -0.169414 -0.360201 -0.119269 0.714814 -0.626638 0.230881 -0.069675 0.180231 -0.116715 0.236875 -0.206086 -0.269696 0.353103 -0.189242 -0.183599 0.599733 -0.171012 -0.580903 0.861198 -0.477659 -0.512225 -0.0222851 -0.189545 -0.288338 -0.65004 0.110113 -0.0139206 0.120545 -0.295737 0.14566 -0.206374 0.058698 -0.194735 
56 -0.00745513 -0.165801 0.23791 0.347661 0.16693 0.578685 -0.56146 -0.571465 0.273713 0.937734 -0.129444 0.161788 0.439872 -0.473335 0.456283 -0.882359 0.349083 0.359067 0.35376 0.399049 -0.24428 -0.42286 0.793773 0.199223 0.107492 -0.273327 0.899986 0.619996 0.719153 -0.19765 -0.368539 0.101158 0.0628212 0.534857 0.133405 -0.643969 0.974997 0.847449 -0.150888 0.479381 0.552755 0.117973 0.0018015 0.287043 -0.00968391 -0.292193 0.530026 0.555787 -0.304254 0.16567 -0.0334649 -0.0412207 -0.628158 -0.431528 1.01992 -0.196736 -0.176079 0.372539 0.399769 0.310535 0.528843 0.114691 0.0206632 0.535045 -0.015011 0.562107 0.00610913 -0.37609 0.0257652 -0.290573 -0.530708 -0.158168 0.580244 0.266879 -0.332081 0.474515 0.0033427 -0.213617 -0.200754 -0.0103304 1.1307 -0.321752 -0.126159 0.533952 -0.599484 0.0202684 0.603416 0.061473 -0.179608 -0.474016 -0.380614 -0.386235 -0.208019 -0.418628 0.459108 0.109496 -0.467681 0.0941805 0.619337 0.251025 -0.437487 -0.606237 -0.614167 -0.495829 0.332168 -0.454042 -0.993999 -0.289988 -0.180269 0.153426 0.47456 -0.3478 -0.0756301 0.302903 -1.01949 -0.0650682 -0.883107 0.582839 0.128772 -0.786121 0.454891 -0.045809 -0.0335811 -0.0711866 -0.0498241 -0.27536 -0.159899 -0.29134 
57 0.143623 -0.0354592 -0.0606549 0.00212216 0.262777 -0.325049 -0.553714 -0.561802 -0.256251 0.526164 -0.838102 0.381065 0.253837 -0.318131 0.304251 0.110818 0.456362 0.114322 -0.304086 0.618474 0.0647867 0.128881 0.923042 0.349129 0.746747 0.655965 0.369304 0.219324 0.39311 0.163095 -0.0190802 0.300284 -0.54747 1.424 -0.0717404 -0.574665 0.38615 -0.0099553 0.0547649 0.165775 0.3182 -0.255173 0.183119 0.593174 0.220565 0.524978 1.04674 1.33528 -0.112491 0.866913 -0.00790435 -0.0453718 -0.476312 -0.599145 0.116615 0.0218942 -0.305486 -0.0937958 0.772107 0.251761 -0.141857 0.220988 -0.0202448 -0.140307 0.128812 -0.180576 -0.279379 0.0368222 -0.774263 0.170457 -0.883661 -0.0746688 0.0662504 0.596461 -0.100064 -0.111661 0.778669 0.41881 0.269058 -0.157605 0.531636 -0.408273 -0.0374339 0.965649 0.0322052 0.308545 0.407064 -0.563089 -0.497762 -0.613289 -0.550764 0.105889 -0.503853 -0.310162 0.463047 -0.897472 0.052849 0.0147091 0.220449 -0.11295 0.092656 -0.0534429 0.193245 -0.21583 0.177122 0.109333 -0.457907 -0.0905363 1.06471 -0.218094 -0.991021 0.198025 -0.508357 0.656215 -0.567525 0.0308969 -0.230119 -0.27489 0.303868 -0.75591 0.582354 -0.00403615 0.186223 -0.262116 -0.31834 -0.19618 -0.0389255 -0.241552 
58 -0.417232 0.395488 -0.935036 0.336794 0.475832 -0.135806 0.921658 0.171003 -0.354908 -0.799469 -0.0735591 -1.18598 0.814757 -0.185501 0.583413 -0.4054 0.464066 0.0471693 -0.164974 1.08518 -0.868341 -0.424662 0.110745 -0.00435685 0.400387 -0.265134 0.451854 -0.31969 -0.249327 -0.126925 -0.439235 -0.107587 0.975341 -0.191521 -0.248608 0.174293 0.698847 -0.076304 -0.146986 -0.914965 1.51213 0.63372 -0.0597615 -0.187011 0.130125 -0.266528 0.602425 0.446453 0.0802095 -0.128281 -0.233912 0.177342 -0.801161 0.740549 -0.618936 -0.715705 -0.042039 0.0677908 0.277675 -0.331221 -0.0176666 -0.432653 0.274153 0.914102 -0.158954 0.671619 0.283022 0.340217 -0.312982 0.707406 0.91079 -0.164955 -0.751319 0.298302 -0.731307 -0.251065 1.19199 0.758562 0.422428 -0.00276053 1.04576 -0.0910157 -0.334627 -0.886772 0.185639 0.357997 -0.35813 -0.127149 -0.114163 -0.0788938 -1.24854 -0.279198 -0.1281 -0.629954 0.247759 0.287888 -0.22924 -0.135217 0.318786 0.196785 -0.637969 0.200939 0.0664123 -0.388572 0.0832993 -0.248611 0.0942173 0.0973184 1.09011 -0.0876187 0.240591 -0.214296 -0.762563 0.645212 0.599976 -0.851284 0.521472 -0.543254 0.0528078 -0.731462 0.566153 -0.324696 -0.501775 -0.671074 -0.180072 -0.125335 -0.213408 -0.661768 
59 0.552196 0.276898 0.537145 0.314961 -0.0268948 -0.808374 -0.423392 -0.760772 -0.709795 -0.0881 -1.31541 0.624281 0.0956435 -0.0220301 -0.102406 -0.848981 0.107444 -0.180626 -0.203009 0.37844 0.135924 0.418632 1.11058 0.240972 0.257056 0.152057 0.16255 0.546632 0.451927 -0.169034 -0.313724 0.276122 -0.614325 0.742426 0.621903 0.476227 0.679687 0.166233 -0.0864912 0.950814 0.51828 -0.258029 -0.579356 0.384385 -0.153093 0.44954 0.56292 1.31788 -0.408636 0.251266 -0.359706 0.464863 -0.481543 -0.379114 0.315196 0.359895 -0.949574 0.599128 0.608341 0.238813 -0.0193617 0.0689537 0.201335 0.502393 -0.468058 0.435226 0.246036 -0.401549 -0.290953 -0.226149 -0.671664 -0.0455858 -0.439998 0.00135723 -0.167412 -0.0843812 0.327072 -0.00127798 -0.796107 0.0713389 0.523272 -0.784747 -0.622864 0.809593 -0.996155 -0.287619 0.348235 0.00549064 -0.285929 -0.835555 -0.249311 -0.0598511 -0.132449 -0.0536748 0.189425 -0.367499 -1.04816 0.432552 0.276182 -0.641795 -0.270332 0.00851622 -0.0913334 -0.617316 0.415406 0.0773578 -0.207098 -0.482776 0.31614 -0.767913 -0.250731 -0.435792 0.121489 -0.0201284 -0.861174 0.163181 0.105226 0.196788 -0.279202 -1.02223 0.579806 -0.462057 0.264316 -0.452182 0.17558 0.0398263 0.402127 0.0749658 
60 0.213651 0.323955 0.00825111 0.306972 -0.634717 -0.186331 -0.117631 -0.188978 -0.304324 0.348079 -1.01723 -0.284301 0.591456 0.00730446 0.0355244 0.0477971 -0.112129 -0.739874 -0.0379811 0.173964 -0.0149382 -0.486751 0.305734 -0.0890936 0.855964 0.198203 0.42693 0.740594 0.101297 -0.291875 -0.481319 -0.0315435 -0.228607 -0.0351443 0.146296 0.27287 0.0467947 0.349522 0.0562543 0.34398 0.831872 0.547367 0.213512 0.324622 -0.292017 0.146916 0.263426 0.80965 -0.413061 0.602183 0.132537 -0.423006 -0.467595 0.23726 -0.281356 -0.395621 -0.228929 -0.167686 0.589509 -0.267081 0.584373 0.298892 -0.350675 0.373555 0.208205 0.238685 0.00289807 -0.167847 0.0592241 0.0912046 0.0424714 0.250037 0.015512 -0.129333 -0.703442 0.165824 0.263286 -0.146402 -0.105309 -0.0754426 0.566835 -0.473533 -0.490393 0.205711 -0.523742 0.02728 0.0446346 -0.255251 -0.582606 -0.407909 -0.680998 -0.0652643 0.435952 -0.427672 0.374658 0.0856654 -0.556057 0.277045 0.466698 -0.00986654 -0.772889 -0.118215 0.527103 -0.219852 0.130244 -0.144486 -0.624126 -0.265214 0.369037 -0.289036 0.0202161 -0.420806 -0.592411 0.461659 -0.697331 0.276689 0.35392 0.0563469 -0.163236 -0.548522 0.0326869 0.035509 -0.00876985 0.428996 0.215678 -0.0434421 0.206072 -0.288895 
61 0.198478 -0.176285 -0.563116 0.0148421 -0.674598 -0.300075 -0.0349332 -0.437896 0.0473673 0.00836757 -1.00294 0.507863 0.0382358 0.398727 0.421576 -0.970576 0.0140608 0.118502 0.43402 0.61279 -0.0630616 0.180927 0.773486 -0.230237 0.241836 -0.546921 0.548827 0.64215 -0.216187 0.226343 0.228373 0.169803 -0.396196 1.1168 0.182857 0.605566 0.614183 0.244243 -0.214808 0.339614 0.427357 0.240452 -0.0959624 0.304884 0.343327 0.288322 0.896221 0.866138 -0.507881 0.173055 -0.0827559 0.679113 -0.0112265 -0.166932 0.676833 0.0728532 -0.459722 0.275531 0.792604 -0.0197745 0.472477 0.806713 0.502106 0.381464 0.333052 -0.184179 -0.135317 -0.282078 -0.458483 0.0324622 0.174437 0.0939026 -0.0356929 -0.158027 -0.00322907 -0.109932 0.661883 0.15484 -0.0507716 -0.372403 -0.0509838 0.297584 0.0669522 0.357887 -0.192356 -0.0363004 -0.140178 -0.105407 -0.52984 -0.643273 -0.734286 -0.556599 0.167715 0.233348 -0.2837 -0.0991156 -0.479832 -0.133639 -0.53154 0.328502 -0.472802 0.79167 0.214878 -0.0907294 0.00541885 -0.29275 -0.117342 0.308406 -0.0742899 -0.765866 0.263022 -0.388746 -0.779171 0.103483 -0.168994 0.182781 -0.0521113 -0.482326 -0.530943 -1.05536 0.0539697 -0.23541 0.0048175 -0.0304386 0.478621 0.070234 -0.0244416 -0.836392 
62 -0.323501 -0.0581698 0.1654 -0.101212 0.0462955 -0.274581 0.178857 -0.117367 -0.290619 0.191857 -0.403167 -0.280998 -0.0489066 -0.581405 0.686265 -0.809049 0.121431 -0.0157192 0.138992 0.844238 -0.535418 0.348279 0.950164 -0.145203 0.629822 -0.103082 0.741192 0.519815 0.196888 0.271638 -0.0474097 -0.445972 0.65635 -0.00516436 -0.14654 -0.498229 0.802012 -0.11017 -0.389968 -0.00290404 0.381461 0.65141 0.521896 0.199316 -0.116894 0.0202289 0.840799 0.773817 -0.412608 0.33304 -0.276992 -0.609553 0.744819 -0.726675 0.332581 -0.412261 -0.144889 0.0246568 0.137918 -0.0929903 0.0811673 0.0727718 0.688784 0.18319 0.168666 0.273231 0.499781 0.366468 -0.457642 -0.258203 -0.0363336 -0.415768 0.635871 -0.353549 -0.206972 -0.833837 -0.278711 0.190174 0.0473392 -0.237636 0.849502 0.682551 0.123198 0.240283 -0.000737741 -0.179223 -0.243212 0.123252 -0.080376 -0.86259 -0.646425 -0.469779 -0.229356 -0.25681 -0.479238 -0.61777 -0.886522 0.782581 0.176984 0.101622 -0.145813 -0.114314 -0.676969 -0.180025 0.355442 0.127708 -0.0389144 0.435387 0.287693 -0.591546 0.206327 -0.0477454 -0.192841 0.284029 -0.333804 -0.56733 0.1642 -0.772023 -0.237407 -0.409698 0.516402 0.0152509 -0.535669 -0.248754 0.269887 0.25536 -0.265236 -0.486787 
63 -0.309624 -0.1566 0.0588975 0.479979 0.173835 -1.04114 -0.0192469 -1.0243 0.0436595 0.188541 -1.33307 -0.755068 -0.238727 -0.520056 -0.0499411 -0.647824 0.812969 -0.318908 0.00245013 0.303614 -0.868879 0.624817 0.767909 0.0384775 -0.134061 0.481056 0.771935 0.484542 0.243899 -0.124068 -0.352038 -0.386882 -0.0677095 0.656053 0.10062 -0.180665 0.936767 0.144306 0.262213 0.354863 0.251015 0.580524 -0.172926 0.238744 0.0612185 0.180697 0.823636 1.34811 -0.417689 0.153678 0.344999 0.00499594 -0.522848 -0.0541733 0.622111 -0.299504 -0.578634 0.505514 0.716436 -0.399464 0.581553 0.262713 0.40541 0.293805 -0.62235 0.623278 0.597729 -0.719694 -0.720763 -0.592114 -0.79836 0.18936 -0.28122 0.134112 -0.444712 -0.448025 0.0990048 0.0707911 -0.489527 -0.580959 0.284999 -0.326919 -0.184619 0.373942 0.212364 0.0399971 0.253993 -0.0646425 -0.225983 -0.110407 -0.47086 -0.225726 0.0926074 -0.187236 1.081 -0.144728 -0.191457 0.627491 0.724441 -0.0285572 -0.50867 -0.0210484 0.227129 0.190126 0.0102212 -0.122541 -0.513772 -0.0837677 0.187609 -0.583413 -0.143924 -1.04744 0.0985897 0.468424 -0.621038 -0.347785 -0.717605 -0.0040728 0.209724 -1.08699 0.152435 -0.60706 0.0372283 -0.812421 -0.169214 -0.144181 0.204843 0.171294 
64 0.18052 0.154179 0.171952 0.196476 -0.330376 -1.07245 -0.11366 -0.024598 -0.0799202 0.519997 -1.1244 -0.449679 -0.00921688 -0.135585 0.318194 -0.839444 0.213598 -0.4515 -0.385853 0.269658 -0.499105 0.53799 0.585192 -0.016757 0.258619 -0.0771602 0.224396 0.101927 0.921063 -0.43296 -0.64395 0.250992 -0.479117 0.913336 0.312631 -0.653198 0.718306 0.197848 -0.0309555 0.215196 0.504997 0.0489387 0.389476 0.0817003 0.819786 0.238571 0.712188 0.838823 -0.460456 0.254084 0.495873 0.486904 0.0267617 -0.147236 0.281388 -0.359716 -0.117874 -0.26349 0.646317 -0.111989 0.84926 -0.13709 -0.503907 0.838512 -0.446833 0.197052 -0.029794 -0.0999231 -0.566729 0.200648 -0.809479 -0.408835 0.237244 0.205692 -0.395471 -0.409206 0.166741 0.652866 -0.614352 -0.406981 -0.0825581 -0.329642 -0.288706 0.876462 -0.193789 0.193375 0.80655 -0.479916 -0.0232037 -0.523703 -0.160349 -0.150133 0.20075 0.155458 0.547918 -0.265212 -0.544212 0.8355 0.88949 0.0991775 -0.346575 -0.624331 -0.339571 -0.164947 -0.361828 0.101813 -0.262321 -0.0332943 0.196922 -0.266707 0.0483881 -0.670267 0.182139 0.646027 0.0087795 0.0889669 -0.845758 -0.326098 -0.213166 -1.15917 -0.161266 -0.855266 0.49925 -0.708714 -0.748795 -0.731039 0.0230537 -0.116988 
65 -0.0257359 0.00308867 0.336797 -0.416536 0.047296 -0.323551 0.335194 -0.645372 -0.528766 0.818169 -0.476222 0.124733 -0.185428 -0.0828171 0.641075 -0.069088 0.00299774 -0.516808 0.61077 0.603731 0.374453 0.00705215 0.80125 0.790267 0.347674 -0.0549762 0.465024 0.172621 0.219733 -0.256297 -0.489794 -0.114979 0.135295 0.865876 -0.492984 -0.82559 0.682879 0.511871 -0.154385 0.186265 0.158018 0.576478 0.511397 0.444305 0.119766 0.139467 0.706674 1.11735 0.104838 0.911043 0.150027 0.0954417 -0.058839 0.0370213 0.664507 -0.981688 -0.769307 0.205876 1.03418 -0.0360992 0.530186 0.606709 0.548189 0.338054 0.506884 0.162708 -0.00124349 -0.258369 -0.646234 0.758387 -0.224221 -0.394022 0.17938 -0.320643 -0.525501 -1.01595 -0.324533 0.212005 0.659549 -0.381957 0.347235 0.676505 -0.774616 -0.107374 -0.139098 0.784608 0.0456194 -0.330855 -0.576419 -0.524369 -1.2134 0.364944 0.247194 -0.318872 -0.757067 -0.388282 -0.361758 -0.0985163 0.921383 0.539257 -0.385878 0.227346 -0.757572 0.0716062 0.677085 0.353035 -0.766351 -0.37126 -0.0867307 -0.0917024 0.90532 -0.380981 -0.620223 0.463629 -0.00682669 -0.454597 -0.159622 -0.0470665 -0.152447 -0.900254 0.430461 0.918424 -0.422919 -0.157126 -0.109209 0.412175 -0.0960795 0.0459941 
66 0.00333578 0.100363 -0.00660978 0.0135316 -0.117049 -0.223494 0.15214 -0.0809505 -0.137082 0.00460187 0.0130917 0.0189598 0.245458 -0.115588 0.136228 -0.0549649 0.0471635 0.00675461 0.114936 0.129783 -0.0328733 0.00153201 0.124141 -0.0611995 0.056659 -0.0243105 0.138792 0.185991 0.163366 -0.0222999 -0.183401 -0.0326563 -0.182508 0.102131 -0.0522067 0.0763281 0.250312 0.0126895 -0.116881 -0.0110947 0.0936833 0.156623 -0.0443743 -0.0723859 -0.0473011 0.137258 0.261032 0.215726 -0.062391 -0.00433509 0.0570435 -0.0358979 -0.186712 -0.00121663 0.0333852 -0.212333 -0.0920911 0.13983 0.215977 0.0304877 0.113927 0.0729246 0.00400403 0.101404 0.149102 0.0656864 -0.00518735 -0.0372386 -0.0842732 -0.0559997 -0.169183 -0.143024 -0.0467178 0.181591 -0.138725 -0.0795779 0.132595 -0.00700324 0.0748378 -0.100029 0.121606 0.00723712 0.0535175 -0.0431319 -0.102788 -0.0207855 0.0976203 -0.0346859 0.0376661 -0.0506969 -0.225725 0.037376 -0.0937727 -0.0388958 0.141932 -0.104885 -0.104936 0.0331546 0.00835711 -0.0596464 -0.0918296 0.048313 0.0289843 -0.0730952 0.063063 -0.0645227 0.0045158 -0.0747472 0.0851978 -0.0816868 -0.1124 -0.0509729 -0.175828 0.0867954 -0.0953415 0.0310579 0.136605 -0.00937327 -0.174855 -0.25824 0.0854211 0.0476432 0.0297039 0.0913368 -0.03683 -0.121184 0.151863 -0.129603 
67 0.755081 0.414642 -0.582127 0.289807 0.117954 -0.289593 0.01551 -0.397798 -0.166834 -0.204177 -0.24331 -0.184787 0.235169 -0.696435 0.427349 -0.183807 0.471421 -0.97504 0.13846 0.16806 -1.21028 -0.958008 -0.100121 -0.477038 1.28627 -0.531825 0.588166 0.31856 0.577263 -0.471673 -0.276432 -0.255294 1.13955 0.212832 0.370987 0.236361 -0.00844168 0.0989857 -0.36245 -0.355619 1.13696 0.353496 0.332235 -0.587249 -0.409132 0.405125 1.10958 1.25222 -0.575527 -0.338689 -0.2306 0.458106 -0.457089 0.323231 -0.118075 0.175243 -0.274379 0.0964351 0.872155 0.280333 -0.481734 0.0273979 0.479908 0.566513 -0.217546 -0.0990306 0.899269 -0.118259 -0.622788 0.432581 0.520083 0.00510127 0.326838 -0.0220799 -1.8232 -0.968514 0.982607 -0.0234554 0.533474 -0.142597 1.28774 -0.393338 -0.122857 -0.13402 -0.747222 0.392516 -0.288025 -0.541626 -0.302894 0.127623 -0.54408 -0.367444 -0.618434 -0.166692 0.761305 0.324318 0.642677 -0.161094 0.516006 0.436997 -0.519787 0.0657294 0.214319 -0.232125 0.459464 -0.382386 0.286114 -0.221077 0.801904 0.00818754 0.645309 -0.46311 -0.646999 -0.0400284 0.437672 -0.170739 -0.251161 -0.345694 -0.375775 -1.47632 0.839865 1.06817 0.21123 -0.328427 0.0349589 0.123123 0.858673 -0.0127242 
68 0.189028 0.0984452 -0.155522 -0.421861 -0.0974402 -0.310061 -0.365786 -0.0953883 -0.199942 0.323764 -0.203231 -0.247186 0.0674513 0.153479 0.225297 -0.168339 0.12727 0.0220198 0.117646 0.282616 -0.346278 -0.0064837 0.132006 0.142375 0.391525 -0.067841 0.338182 0.0378191 0.112013 -0.175182 -0.1792 0.27834 -0.314576 0.0932263 0.220902 -0.176168 0.355343 0.184116 -0.0965617 -0.00258779 0.779574 0.272808 0.0365903 0.0419297 -0.084617 0.00898077 0.218057 0.487886 -0.120137 0.414834 0.291946 -0.0104453 0.104286 0.240275 -0.0163665 0.0762863 -0.175459 0.287724 0.238244 -0.548776 0.101639 0.467475 -0.196776 0.350352 0.004826 0.203571 0.0745756 0.258459 0.0485694 0.164205 -0.160009 0.129676 0.137471 0.00054783 -0.324854 -0.0704693 0.230802 0.291069 -0.186862 -0.475389 0.0228609 0.0169064 0.232464 0.0909924 -0.16515 -0.0374934 -0.453485 -0.145369 -0.137531 -0.198375 -0.240958 0.24285 0.0350748 -0.124276 0.135529 -0.365365 -0.454048 -0.0205478 -0.302165 -0.0779053 -0.392474 -0.185489 -0.0368056 -0.338213 -0.0261472 0.0426025 -0.414883 -0.301077 0.297454 -0.273121 -0.0257365 0.0453414 -0.258736 0.326788 -0.396432 -0.245926 -0.126096 -0.384328 0.00432608 -0.283892 -0.15065 -0.429605 0.126595 -0.0980703 0.0138224 -0.324938 -0.0221698 -0.280239 
69 -0.0658726 -0.126017 -0.00975754 0.597394 -0.0576882 0.975826 -0.497046 -0.421898 0.867822 0.153989 0.0182805 0.00203168 1.0886 -0.0568073 0.471175 -0.575132 -0.106091 0.182975 0.671201 0.25547 0.0727153 -0.718147 0.994202 -0.0351763 0.511622 -0.241432 1.39528 0.328449 -0.123686 0.0139918 -0.763444 -0.318022 0.828093 -0.171643 -0.176754 -0.00372329 1.25001 0.349089 -0.081018 0.141407 0.629308 -0.407101 0.136561 -0.142314 -0.420914 -0.28543 0.496146 0.620793 -0.97634 0.438882 -0.623328 0.00595313 -0.564927 0.196124 0.901681 -0.0158263 -0.481494 0.0499753 0.43168 0.0994296 0.875649 -0.170299 0.0359917 0.884163 0.227817 -0.110457 0.848991 -0.712825 -0.60782 -0.107691 -0.194051 -0.266988 0.698557 0.982278 -0.145666 -0.08588 0.699566 0.283132 -0.0678007 -0.110109 1.75421 0.10173 0.153041 -0.0338623 -0.540392 0.244131 0.0858696 -0.571047 -0.0521142 0.260008 -0.683419 -0.872044 -0.564273 -0.232918 0.131696 0.22817 -0.176173 0.0907701 0.849228 -0.140289 -0.340975 -0.108199 -0.354016 -0.258881 0.5417 0.3385 -0.408321 -0.0180804 0.301151 0.391106 0.562647 0.0164894 -0.157046 0.750275 -0.991658 -1.36476 -0.383418 -0.588171 -0.299524 -0.71884 0.337134 0.196079 -0.234601 -1.15021 0.398654 -0.179327 -0.188133 0.465795 
70 0.343621 -0.100569 -0.216681 0.289424 -0.66389 -0.766612 -0.415242 -0.903512 -0.268131 0.101624 -1.24545 0.671896 0.660222 -0.286879 0.0562874 -1.17115 -0.0142298 -0.0231928 0.163017 0.315529 -0.197109 0.443422 0.784816 -0.1818 -0.422104 -0.357744 0.11932 0.626492 -0.410159 0.0458253 0.199285 0.00732243 -0.595485 1.22731 0.164529 0.29614 0.319573 0.176326 0.0606567 0.511615 0.337992 0.543314 0.230455 0.0219142 -0.206453 0.0737166 0.741357 1.08222 -0.831998 0.64727 -0.255283 0.577489 -0.0859054 -0.338709 0.869799 -0.130414 -0.199452 0.453515 0.701062 -0.192688 1.06291 0.816665 0.305965 0.741652 0.133663 0.0319337 0.291616 -0.457101 -0.423653 -0.395501 -0.280495 0.246151 -0.0143158 -0.0213462 -0.198441 -0.062954 0.635141 0.0972099 -0.424183 -0.266083 0.464466 -0.458642 0.165357 0.547746 -0.193566 0.0201987 -0.0261887 0.10878 0.108182 -0.29801 -0.891241 -0.0100402 0.124187 0.527294 -0.0231102 -0.195337 -0.66943 0.246804 -0.13394 -0.184059 -0.521602 0.809028 0.518772 -0.220252 -0.176151 -0.331588 -0.188571 -0.111796 0.0791068 -0.6204 0.38056 -0.500664 -0.506452 -0.101524 -0.374632 0.00319941 -0.721579 -0.201261 -0.495732 -1.0915 0.287382 -0.388899 0.115123 -0.0273779 0.758111 0.351608 0.226285 -1.01454 
71 0.0336226 0.19123 0.076047 0.147466 -0.314556 -0.100406 0.191814 -0.0563113 -0.600229 0.0740604 -0.370705 -0.173937 0.239949 -0.537263 0.306646 -0.0875382 -0.207812 -0.0370408 -0.0641239 0.500925 -0.237401 0.2993 0.718503 0.558312 0.303348 0.0187616 0.233086 0.682249 0.270854 -0.450251 -0.481094 0.336128 -0.376404 -0.31139 0.16316 0.534549 0.460097 0.449569 -0.0101727 0.717635 0.663527 -0.175323 0.175093 0.103184 0.204068 0.775461 0.239011 0.869841 -0.0264149 0.0698075 -0.263127 0.307919 -0.436814 -0.337816 0.122611 -0.248396 -0.608883 0.55004 -0.0161219 -0.0171581 0.0316684 0.000171659 0.19205 0.036794 -0.27991 0.32754 0.36503 -0.111668 0.0835034 -0.0413275 -0.487857 0.159191 -0.0884915 -0.173132 -0.262871 -0.0920786 0.156914 -0.12914 -0.755113 0.313445 0.467698 -0.248446 -0.148865 0.335039 -0.562521 0.00301961 0.0638508 -0.00477736 -0.435657 0.0989498 -0.501079 0.349308 -0.394451 -0.274821 -0.147226 -0.196119 -0.422398 -0.193595 -0.105748 -0.859698 -0.404865 0.185043 -0.0996364 -0.0389275 -0.0373008 0.152954 -0.518537 -0.321533 0.0737354 -0.181701 0.191342 0.0680585 -0.194808 0.0633876 -0.552634 -0.236191 0.316796 -0.303044 -0.258642 -0.783534 0.309662 0.143833 -0.176997 0.0261667 0.285813 -0.0475295 0.226434 -0.667883 
72 -0.071371 -0.195797 -0.0520734 0.206182 0.154057 -0.644038 0.071751 -0.542805 0.0154789 0.0128699 -0.715064 -0.619191 0.0231068 -0.319169 0.02845 -0.468691 0.416826 -0.426148 -0.0119819 0.00127816 -0.467372 0.182847 0.247394 -0.0828425 -0.0977168 0.345285 0.411296 0.185791 0.207872 -0.0948916 -0.0911244 -0.440946 -0.066142 0.391592 0.207551 -0.163348 0.521033 0.0281283 0.215387 0.385627 0.145459 0.249737 -0.0473141 0.0995079 0.18021 0.150468 0.470009 0.717031 -0.200407 0.0133926 0.258895 0.0317521 -0.346523 -0.0832591 0.338686 -0.155 -0.0897627 0.318883 0.380938 -0.0212764 0.27068 0.210412 0.236903 0.285168 -0.258532 0.214274 0.241282 -0.459755 -0.320417 -0.248713 -0.390746 0.11725 -0.174008 -0.165612 -0.220805 -0.242301 -0.0551695 0.0340589 -0.231882 -0.356338 0.259765 0.0852531 -0.159939 0.320774 0.158237 -0.0179486 0.155431 0.040438 0.00963542 -0.170735 -0.313343 -0.142447 0.114585 -0.0576845 0.604516 -0.13295 -0.00145648 0.37341 0.239601 0.460961 -0.133957 -0.153394 0.167412 0.0107377 -0.113956 -0.00692835 -0.205998 -0.0251039 0.183095 -0.215087 -0.0750895 -0.45879 -0.0855698 0.351815 -0.254172 -0.34637 -0.366015 0.211314 0.0832445 -0.720987 0.216694 -0.468613 0.192555 -0.476512 -0.248104 -0.182749 0.00409103 0.120574 
73 -0.0140931 0.0132143 0.0732448 -0.0170848 -0.0133332 -0.0500142 -0.0542876 -0.0688458 0.0290221 -0.0529434 -0.131396 -0.0615659 0.144116 -0.148549 0.0205277 -0.181449 0.0908981 -0.0632025 0.0478597 -0.0551545 -0.129566 -0.0364249 0.127447 0.144509 0.131532 -0.0615839 0.107325 0.049757 -0.0521879 -0.0474246 -0.171681 -0.0261585 -0.0946309 0.0323933 0.0193385 -0.00147355 0.270616 0.0114853 0.0870321 0.081725 0.223077 0.00593793 -0.000686741 -0.0311008 -0.0696033 0.00502865 0.222682 0.236195 0.0267967 0.0997733 -0.00874521 -0.0117307 -0.166828 0.0181616 0.0016812 -0.166033 -0.0119235 0.120665 0.182415 -0.108718 0.169456 -0.00828834 0.0226315 0.0183998 0.0619741 0.137258 0.186652 -0.0315222 -0.189252 0.049463 0.125222 -0.0528584 0.0151198 0.0254177 -0.143858 -0.0193509 0.328229 0.0743508 -0.0777372 -0.150169 0.138021 -0.113974 0.116019 0.125855 -0.180085 0.0690532 0.0113297 -0.169783 -0.013462 -0.214125 -0.060213 -0.0260325 0.050847 -0.162974 0.106773 -0.0411023 -0.14468 0.0467441 0.00570641 -0.0880955 -0.230689 0.0283755 0.0878997 0.094745 -0.0178956 0.114205 -0.0532047 0.0170814 0.132349 -0.0388655 0.0175188 -0.013272 -0.251157 -0.0362511 0.0397817 0.0881236 -0.118871 -0.107434 -0.18314 -0.195229 0.148331 0.0408494 -0.0281797 -0.0242872 -0.0359109 -0.0346983 0.0682827 -0.0814931 
74 0.132006 0.0407414 -0.0561838 0.136493 -0.0347299 -0.219587 0.0505992 -0.152839 -0.122971 -0.0225233 -0.153383 -0.0456296 0.0542337 -0.0867645 0.110495 -0.104463 0.0255031 0.0165918 0.0787706 0.229632 -0.1962 -0.0621695 0.126386 -0.0936038 0.046311 -0.0702432 0.0294318 0.05443 0.0829262 -0.1276 -0.0914276 0.121026 -0.0650914 -0.00423566 0.00556779 -0.106725 0.117866 0.084152 -0.00343524 0.0518864 0.241089 0.140011 -0.0261951 0.0859019 -0.028598 0.0631881 0.217108 0.286337 -0.0153865 0.16875 0.0348723 0.110462 -0.0220253 -0.074316 0.0768315 0.0593603 -0.0851439 0.0886607 0.0213861 0.060675 0.0579287 -0.00325334 0.00859447 0.255103 -0.101823 0.0788485 -0.0887986 0.031706 -0.166255 0.0746423 -0.0220793 0.0602033 0.0390064 0.161926 -0.0896841 -0.0968378 0.0372942 0.156107 0.00629417 -0.0567254 0.276249 -0.00460508 -0.191948 -0.0170725 0.00117902 0.0190292 0.0527097 -0.0808927 -0.132734 -0.131265 -0.212897 -0.0702873 0.0550018 0.0194308 -0.108604 -0.144484 -0.0933558 0.0730779 0.0545255 -0.0196472 -0.109956 0.0504094 0.0536035 0.0172482 -0.00168622 0.120866 0.00387989 -0.136365 -0.0734258 -0.0194365 0.132371 -0.143308 -0.168009 0.178812 0.0632029 -0.0746198 0.0790573 -0.0524088 0.0389513 -0.178612 0.106016 0.058714 -0.00287053 -0.171265 -0.0389344 -0.150411 0.0208324 -0.148571 
75 0.0151244 -0.254433 -0.302845 0.151578 -0.223238 -0.520356 -0.189365 -0.51898 0.134959 -0.219489 -0.715182 0.594236 0.437144 -0.0760481 0.509365 -1.10884 -0.157381 0.0684397 0.445305 0.685705 -0.0560343 0.152749 0.415748 -0.0753258 -0.188462 -0.292099 0.515657 0.521586 -0.393932 0.0719625 0.311307 0.0116757 -0.343054 1.03164 0.169811 0.29197 0.333665 0.198451 -0.194732 0.102935 0.23505 0.25339 -0.081138 0.014522 -0.0878327 0.0235882 0.883754 0.745263 -0.626437 0.239427 -0.240287 0.442001 0.0502363 -0.147056 0.517369 -0.386815 -0.181425 0.052272 0.492872 -0.1188 0.676408 0.520138 0.0401891 0.565852 0.214481 -0.202676 -0.0144803 -0.278731 -0.385649 -0.21412 -0.0590792 0.165727 0.0128822 -0.153458 -0.31652 -0.0974057 0.646025 -0.0296912 -0.0110828 -0.201442 0.1458 -0.123725 0.212597 0.123001 0.0246488 0.202117 -0.168982 -0.0596532 -0.0768042 -0.405086 -0.582016 -0.336545 0.158694 0.631987 -0.246425 -0.131067 -0.50005 0.0357174 -0.209933 0.235577 -0.533433 0.761546 0.193461 -0.554154 -0.00175464 -0.00843378 -0.234665 -0.101149 -0.152052 -0.521531 0.330174 -0.520927 -0.485931 0.116695 -0.34795 -0.219809 -0.231036 -0.207968 -0.641295 -1.18504 0.0488423 -0.222299 -0.0405553 -0.150187 0.40253 0.012013 0.227781 -0.839371 
76 -0.0279163 -0.186581 -0.0165016 0.189846 0.166409 -0.584795 0.0628327 -0.572524 0.0299293 -0.0232486 -0.664569 -0.558327 0.070354 -0.286949 -0.0282145 -0.518495 0.408792 -0.397418 0.00298652 0.0357016 -0.489679 0.144865 0.253634 -0.11624 -0.104998 0.347079 0.403717 0.196154 0.156795 -0.0531897 -0.0614477 -0.422397 -0.0308035 0.38667 0.180924 -0.208054 0.553927 0.0189888 0.226988 0.402654 0.129403 0.278379 -0.034993 0.13745 0.182564 0.176781 0.388266 0.706856 -0.22411 0.05169 0.23737 0.0309122 -0.387711 -0.0555123 0.332625 -0.116912 -0.0973005 0.304419 0.379141 -0.00614859 0.22536 0.272418 0.207921 0.342387 -0.192505 0.231423 0.238721 -0.453234 -0.339986 -0.229389 -0.346913 0.120494 -0.214181 -0.178782 -0.221856 -0.278337 -0.103711 -0.000234455 -0.219322 -0.364619 0.301688 0.0372727 -0.152336 0.325492 0.145558 -0.0358782 0.147628 0.0762252 0.0160658 -0.149423 -0.345378 -0.172951 0.0688171 -0.0396216 0.653149 -0.12345 0.0466197 0.351909 0.227317 0.453719 -0.135822 -0.171232 0.162447 0.0652399 -0.115544 -0.0324191 -0.202111 -0.0481928 0.133841 -0.218358 -0.0408843 -0.454521 -0.0987724 0.391939 -0.28887 -0.338261 -0.338038 0.227547 0.0986742 -0.736623 0.205461 -0.428312 0.215828 -0.452878 -0.201808 -0.151108 0.0373022 0.130247 
77 0.0774879 0.143454 0.214374 0.426091 -0.219082 -0.630286 0.072629 -1.04273 0.229707 0.0910821 -1.14773 -0.577941 -0.0897038 -0.287447 -0.024926 -0.457602 0.647741 -0.146501 -0.0268304 0.291074 -0.666616 0.670176 0.736065 -0.132925 -0.169136 0.564198 0.508751 0.37014 0.249132 -0.0802168 -0.353058 -0.608827 -0.0312853 0.876781 0.228911 -0.0935444 0.702304 0.132392 0.158822 0.325707 0.403186 0.711893 -0.380107 0.146903 -0.215479 0.156426 0.754723 1.06818 -0.330922 -0.0464422 0.387646 -0.10291 -0.56686 0.0942932 0.501924 -0.0747586 -0.595002 0.576895 0.510359 -0.549378 0.274739 0.416071 0.623801 0.0508432 -0.410358 0.513567 0.448141 -0.584745 -0.695336 -0.325804 -0.590781 0.220776 -0.0523819 0.351728 -0.313651 -0.186441 0.129804 0.00727869 -0.411308 -0.359393 0.45248 -0.355092 0.0543544 0.229945 0.178478 -0.388147 0.0406925 -0.14307 -0.0265876 0.175057 -0.359361 -0.172501 0.285651 -0.200165 0.795434 -0.0671974 -0.275483 0.307791 0.240536 -0.0657536 -0.598606 -0.0152852 0.226134 0.243699 0.0833115 0.214975 -0.630422 -0.140018 0.192388 -0.539802 -0.0316559 -1.05435 -0.241706 0.337506 -0.511821 -0.0798151 -0.603738 -0.0699029 0.294337 -0.829393 0.156796 -0.213967 -0.0958862 -0.999234 -0.268762 -0.0236353 -0.000753194 0.0251196 
78 -0.0403082 -0.297806 0.173141 -0.0333994 0.124271 0.411293 -0.534058 -0.196709 0.250955 1.22516 -0.544583 0.224291 0.16423 -0.233321 0.628882 -0.427793 0.306317 0.121798 0.591875 0.40393 0.159883 -0.35409 1.04772 0.184172 0.136258 -0.38145 0.770468 0.672888 0.392365 0.0728374 -0.600961 -0.302132 0.594657 0.139565 -0.28596 -0.454633 1.3435 0.770512 -0.0741551 -0.113861 0.316724 0.17175 0.37832 0.381174 -0.242124 -0.462299 0.892662 0.815388 -0.171016 0.933969 -0.150281 -0.252777 -0.535741 -0.438186 0.809549 -0.62163 -0.321318 0.298481 0.54527 0.051983 0.638016 0.209569 0.0223454 0.262768 0.0841138 0.23723 0.107771 -0.406924 -0.1845 -0.209091 -0.445468 -0.124087 0.721682 0.089282 -0.45119 -0.141352 0.176672 -0.153882 0.170485 -0.480956 0.90841 -0.0697013 -0.221943 0.0530519 -0.821446 0.384404 0.677095 -0.492989 -0.330062 -0.994766 -0.922271 -0.373777 -0.317671 -0.548576 0.0909688 -0.0960523 -0.272388 -0.0594244 0.829856 0.417741 -0.60697 0.0693817 -0.776415 -0.464685 0.330674 -0.194672 -1.16544 0.0106061 0.0229369 -0.0253078 0.910227 -0.47144 -0.224291 0.271469 -0.574642 -0.377431 -0.732406 0.309518 0.0779098 -0.623372 0.13373 0.071479 -0.337745 -0.234424 -0.0714576 -0.210513 -0.0701023 0.232551 
79 -0.421455 0.210855 0.058382 -0.0174984 0.0598636 0.253224 0.397464 0.096363 -0.202708 -0.0831579 -0.11463 -0.609525 0.181686 -0.607203 0.622301 -0.498014 -0.593577 0.234819 0.288248 0.439304 -0.360451 -0.247229 0.118833 1.0987 0.727502 0.0846251 0.611237 1.08088 -0.0451827 -0.116987 -0.439873 0.278792 -0.121466 0.348433 0.178336 -0.455906 1.41225 0.879503 -0.0557193 -0.206707 0.299616 0.229621 0.398862 0.226692 -0.155863 -0.0730376 0.936555 0.55963 -0.679497 0.869002 0.237578 0.809697 0.370019 -0.872372 0.0366702 -0.867563 -0.384157 -0.221607 0.388316 0.0237735 0.199114 0.467863 0.353394 0.615525 0.0607773 -0.0197225 0.243396 -0.741482 -0.372024 0.223322 -0.097138 -0.700187 0.471251 -0.245224 0.302159 -0.981442 0.288496 -0.180218 0.262027 -0.436307 1.10675 -0.177915 -0.831801 -0.543761 0.285581 1.06252 0.015236 -0.62426 -0.488252 0.0885708 -0.883164 0.00791959 0.20179 0.168227 0.241274 -1.35182 -0.839478 -0.160605 0.97537 0.62144 -0.804195 -0.0488657 -0.463437 0.547224 0.305301 0.47562 -0.0808255 0.0222762 0.00113925 0.0462494 0.217018 -0.598816 -0.826822 0.793213 -0.424454 0.0836874 -0.0263808 -0.311266 -0.0857575 -0.564819 0.255052 0.379119 -0.247495 -0.311445 0.10641 -0.267637 0.181821 -0.425403 
80 0.166261 0.214379 -0.135225 -0.0979544 0.177089 -0.0932021 0.063792 -0.492824 -0.27925 0.346121 -0.712292 0.0294287 0.137592 -0.448995 0.171109 -0.170276 0.111356 0.207586 0.158874 0.324115 -0.380284 0.181588 -0.121313 -0.198375 0.266615 0.125913 0.377584 -0.0953072 0.0678708 0.244683 -0.622939 0.469052 -0.227369 0.346019 0.129609 -0.329581 0.316599 0.512971 -0.29466 0.698119 0.591149 -0.135201 -0.391998 -0.132512 -0.101314 0.360776 0.543267 0.0492851 -0.268881 -0.122536 0.342968 -0.0758036 -0.173027 -0.322621 0.261591 0.155494 -0.252461 0.51728 -0.140481 -0.22082 0.444665 0.472828 -0.0839693 0.281826 -0.115425 0.635718 0.211605 -0.0548004 -0.816732 0.211451 0.092407 0.0610863 -0.0317014 0.32252 -0.316907 -0.227799 0.0781638 0.207609 -0.258263 -0.0487299 0.331096 -0.175381 -0.0916777 0.516182 -0.146439 0.122799 0.634956 -0.37188 -0.511776 -0.489724 -0.744609 -0.00443853 0.388809 -0.248967 0.0809145 0.272816 0.270747 -0.469239 -0.10764 -0.144003 -0.666763 0.158755 0.252622 -0.368753 -0.213901 -0.16826 -0.529022 -0.834527 0.314263 -0.438182 0.446838 -0.100147 -0.375781 -0.15853 -0.478018 -0.204369 -0.345452 -0.257112 -0.437158 -0.670726 0.492654 -0.131164 -0.0989723 0.194794 -0.310795 -0.136735 0.233761 -0.502616 
