3312 128
0 -0.690445 -0.181946 -0.246117 0.275053 0.0539139 -0.625461 -0.407882 -0.781057 -0.267973 -0.245241 -0.557499 0.131579 0.607059 -0.168538 0.304393 -0.168029 -0.276303 -0.578912 0.511664 -0.12856 0.304765 0.54636 0.472346 0.23253 0.424556 -0.384051 0.281277 0.409134 0.735399 -0.411344 0.0250708 0.637398 -0.883346 0.194468 -0.0232288 -0.121644 0.922867 0.299809 -0.203164 0.730586 0.173454 0.371515 0.179478 0.372487 0.376366 0.218085 0.736117 1.08278 0.0774782 0.601896 -0.0227557 -0.021548 -0.39162 -0.824065 0.651182 0.103009 -0.0252192 0.50648 0.148289 -0.325942 0.536639 -0.217257 0.507026 0.497208 0.114711 0.231538 0.0234649 -0.166015 -1.09522 0.416195 0.123287 -0.426739 0.210748 -0.0431392 -0.269294 0.334192 0.58893 0.190065 -0.210929 0.163175 0.24514 -0.737507 0.442687 0.143185 -0.0641162 0.415958 -0.238081 -0.11164 -1.32013 -0.364853 -0.424294 -0.145781 -0.249575 0.664029 -0.0731692 0.120708 0.120683 -0.317227 0.36201 -0.195369 -0.159881 0.239421 -0.197862 -0.364647 0.0829753 0.347122 -0.354268 0.447779 0.740772 -0.539695 -0.107053 -1.04098 -0.297645 0.773568 -0.380398 0.0688357 -0.63949 0.225731 -0.52437 -0.743845 0.216246 -0.170707 -0.0324719 -0.509775 0.275474 -0.664155 0.277524 -0.618645 
1 0.159351 -0.146537 0.0636472 -0.0141456 -0.012758 0.247018 -0.00727717 -0.204095 -0.0961739 0.40582 -0.297381 -0.0358971 -0.0557801 -0.157631 0.760523 0.0727952 0.342645 -0.355858 0.245573 0.0389496 -0.204601 -0.82342 0.501844 -0.00310289 0.67714 -0.133547 0.75994 0.584496 0.102014 -0.0798784 -0.887133 -0.286108 0.838899 -0.474102 0.0939983 0.194278 0.521131 0.424605 -0.113899 -0.537524 0.212145 0.263224 0.42769 0.45139 -0.527289 0.260233 0.788485 0.996757 -0.246397 0.627385 -0.119071 -0.529961 -0.360792 0.261043 0.488382 -0.541122 -0.420127 0.352724 0.238099 0.233445 0.451597 0.253775 -0.0134482 0.70437 0.0196534 -0.0507648 -0.0192706 -0.164843 -0.189576 0.0481118 -0.07489 -0.159289 0.528367 -0.48803 -1.02851 -0.0071866 0.302104 -0.0320865 0.584338 -0.433817 0.698635 -0.31031 -0.324268 0.197674 -0.65387 0.558103 0.507478 -0.591105 -0.0355494 -0.841038 -1.28832 -0.185502 -0.367609 -0.822864 0.125359 -0.128535 0.265957 -0.410007 1.00768 0.326656 -1.00598 -0.120718 -0.570654 -0.274727 0.141859 -0.103059 -0.908752 0.0515119 0.106483 -5.07377e-05 0.749449 -0.191972 -0.0493214 0.175182 0.22927 -0.305744 -0.310656 0.0301688 0.0755692 -0.960087 0.377342 0.336888 -0.173568 -0.182126 -0.0757468 0.142277 -0.0300652 0.427682 
2 0.188323 0.0162248 0.100853 -0.0160647 -0.11144 -0.288239 0.0162529 -0.212739 -0.0637685 -0.170167 -0.257047 -0.169437 0.0604442 -0.0498434 0.0348624 -0.182028 -0.0764271 -0.246309 -0.0228538 0.109356 -0.336974 0.121173 0.0778042 0.0317985 0.00428733 -0.0993811 0.127048 0.0604493 -0.10569 -0.134067 -0.0519654 -0.140302 -0.0486562 0.0880254 0.0205988 -0.106942 0.0598186 0.165575 -0.0281152 0.0362395 0.241565 0.191266 -0.0479305 0.0132544 -0.222942 0.228177 0.391152 0.205102 -0.138124 0.0970295 -0.074101 0.206624 -0.322205 0.125584 0.107754 -0.270262 -0.318228 -0.0733413 0.0773443 0.00113475 -0.0557626 0.260351 0.146967 0.0125644 0.0570707 0.150335 0.0746152 -0.0552377 -0.093975 0.0200231 0.107609 -0.259616 0.017326 0.0975955 -0.153712 -0.283169 0.137198 0.0658587 -0.186374 -0.255782 0.239641 -0.304719 -0.103354 0.0481139 0.158083 0.208429 0.135362 -0.0730918 -0.0524315 -0.220094 -0.190312 0.00964755 -0.020378 0.0637478 -0.0256318 0.030291 -0.083593 -0.0566038 -0.0673745 -0.0860244 -0.24553 -0.16099 0.0509187 -0.139074 0.154745 0.166921 -0.195632 -0.224345 0.0544757 -0.135441 0.0953012 -0.114018 -0.217442 0.256757 0.0746267 0.100753 -0.0429413 0.0517344 -0.288216 -0.235225 0.101403 0.232657 0.0263971 -0.150143 -0.0722427 -0.107133 0.160262 -0.12695 
3 0.279134 0.0205079 -0.144631 0.0264041 0.0118664 -0.151161 -0.177394 -0.502116 -0.383877 0.728675 -0.279406 -0.141437 0.366578 0.224466 0.0513061 -0.607944 0.249662 -0.0138145 0.0573342 0.42541 0.0985542 -0.11594 0.206535 0.138273 0.326907 -0.396398 0.720407 0.301647 0.329905 -0.033087 0.068297 0.0807494 0.236155 0.305216 -0.414651 0.012546 0.285635 0.187825 -0.230834 0.303637 -0.0434756 -0.0842525 0.221407 0.454496 -0.0342096 0.440867 0.693396 0.812925 -0.199461 0.353834 0.216642 -0.330948 0.00412889 0.0878891 0.243108 -0.0464239 -0.26392 0.190503 0.552051 0.0615281 0.243381 0.266644 -0.153089 0.0442813 0.101416 0.157242 0.109739 -0.0961456 -0.0856992 -0.110397 -0.350667 -0.0801222 0.127592 0.092355 -0.222857 0.0892159 0.0669914 -0.109965 0.0992275 -0.202086 -0.106173 -0.155324 -0.333825 0.154129 -0.15772 0.015235 0.0934913 -0.145319 -0.0499995 -0.440914 -0.378647 -0.194902 -0.0278367 -0.0996727 0.345001 0.335913 -0.62059 0.0254829 0.415403 -0.0408311 -0.466835 0.0895458 -0.320631 0.160396 0.520155 0.201171 -0.672342 0.125424 -0.201336 -0.199249 0.217632 -0.220386 -0.0912085 0.19417 0.114399 -0.119046 -0.243544 -0.0635623 -0.528055 -0.474742 0.343422 0.0405012 -0.0613892 -0.451097 -0.018619 -0.10419 -0.381974 -0.073517 
4 -0.120867 0.00647173 -0.135897 0.15868 0.234048 -0.197995 0.0276079 -0.141458 -0.388089 0.061595 -0.263502 -0.0656469 0.445615 0.0132583 -0.215182 -0.120974 0.29514 0.0263669 0.26653 0.200594 0.0920368 0.088216 0.240713 0.468805 0.456465 -0.0294701 -0.0522972 0.617348 0.217137 0.0482842 -0.407081 -0.00717074 -0.0827537 -0.0520366 -0.0976464 0.358493 0.243438 0.332723 0.0971012 0.255971 0.236507 0.200294 0.19604 -0.151423 0.0387513 0.12844 0.358721 0.614725 0.196681 0.470228 -0.0557633 -0.0946952 -0.14141 -0.314466 0.264052 -0.0545438 -0.293078 -0.182776 0.0513161 -0.166517 0.358658 0.13427 0.259257 0.262835 -0.176547 0.356123 0.00808793 -0.0960561 -0.128252 0.203223 -0.010368 -0.0716069 -0.0801386 0.00920326 -0.323781 0.157888 0.162745 0.120463 -0.146811 -0.235688 0.290663 -0.187629 0.0636538 -0.0551035 -0.242145 0.0155645 0.325456 -0.272065 -0.267404 -0.213258 -0.381508 -0.342182 0.149869 0.136121 -0.102906 -0.190007 -0.324364 -0.262451 0.123292 0.0448248 -0.14254 0.314564 -0.0407212 -0.0866311 0.232819 0.187139 -0.228537 -0.0902231 0.429454 -0.141417 0.0748531 -0.418582 -0.215829 -0.0242941 -0.397811 0.0507756 0.283042 0.121293 -0.226235 -0.499988 -0.128093 -0.0425684 0.191756 -0.149094 -0.398704 -0.263658 -0.0900936 -0.392042 
5 -0.261937 -0.193597 -0.00229607 0.318519 0.215249 -0.772024 -0.0126729 -1.01492 0.102943 0.119962 -1.154 -0.713002 -0.160144 -0.429093 -0.0479013 -0.395525 0.707421 -0.314629 0.110423 0.179296 -0.793604 0.455459 0.620556 -0.135592 -0.108047 0.483827 0.71058 0.474702 0.152209 -0.134902 -0.317791 -0.423597 0.0792934 0.543536 -0.00717372 -0.103452 0.792592 0.0910987 0.291615 0.253483 0.245286 0.578531 -0.280954 0.155965 -0.109752 0.115654 0.618168 1.18101 -0.352433 0.0317567 0.393253 0.00797364 -0.572738 0.0402557 0.582995 -0.222337 -0.585769 0.542055 0.635245 -0.465686 0.388959 0.310265 0.472432 0.159984 -0.435253 0.607485 0.595659 -0.712779 -0.631806 -0.564625 -0.663292 0.251013 -0.274041 0.14358 -0.447124 -0.397072 0.0997942 0.00254209 -0.323883 -0.504286 0.370844 -0.317907 -0.17696 0.258738 0.234391 -0.131535 0.194174 0.0562447 -0.173192 0.0287051 -0.485827 -0.202042 0.200489 -0.283447 1.05529 -0.133544 -0.0728469 0.393403 0.46708 -0.029706 -0.392926 0.021281 0.306593 0.251493 0.0464773 -0.10779 -0.546462 -0.225939 0.064384 -0.528047 -0.141214 -0.970898 -0.0688288 0.432475 -0.585442 -0.382626 -0.545633 -0.063229 0.212396 -0.996874 0.12644 -0.381081 -0.0812901 -0.792435 -0.115869 -0.0756244 0.0725786 0.0485257 
6 -0.0435274 -0.00193106 0.0356974 0.328405 -0.140533 -0.829183 -0.0710669 0.0662091 0.1968 0.475295 -0.951855 -0.263801 -0.143329 -0.254102 0.583917 -0.762946 0.0425448 -0.256668 -0.337102 0.341238 -0.462455 0.135071 0.301021 -0.138818 0.390372 -0.166234 0.718607 -0.0254416 0.604586 -0.0835601 -0.457136 -0.0456056 -0.291298 0.84318 0.365321 -0.348434 0.745497 0.0645915 -0.214726 0.147371 0.231106 0.162275 0.339838 0.246777 0.743494 0.0660818 0.878887 0.704829 -0.544529 0.267948 0.385549 0.617467 0.279738 -0.116495 0.198006 -0.377542 0.0384166 -0.370634 0.400228 -0.104134 0.78996 -0.114527 -0.522781 0.696074 -0.12354 0.181693 -0.198788 -0.0249322 -0.530975 0.241014 -0.393384 -0.26856 0.213514 0.186241 -0.430609 -0.337442 0.192519 0.603669 -0.363199 -0.401031 -0.0532131 -0.0341359 -0.131462 0.430882 -0.190882 0.0113554 0.619828 -0.512267 0.150234 -0.668065 -0.0457021 -0.328933 0.151993 0.134918 0.302083 -0.157597 -0.428278 0.36271 0.659542 0.152941 -0.225035 -0.326928 -0.257736 -0.295757 -0.333717 0.179905 -0.337766 0.223042 0.0824485 -0.04943 -0.148559 -0.655822 0.184912 0.768468 -0.0125945 0.0754853 -0.783379 -0.280553 -0.291956 -0.950523 -0.102754 -0.51131 0.365658 -0.336462 -0.401497 -0.715967 -0.00327678 -0.269208 
7 0.129043 0.428279 -0.690653 0.168975 -0.134931 0.0778057 0.398476 -0.0883446 0.179918 0.0749394 0.670192 -0.492902 0.487249 -0.223571 0.732026 -0.613286 0.620282 -0.143916 0.199296 0.254022 -1.24163 -0.429024 0.088432 -0.274497 0.169234 0.0651772 0.991134 -0.0727085 -0.00216683 0.284564 -0.366474 0.264499 0.828871 -0.201478 0.362231 -0.0476634 0.397294 0.017405 -0.37463 0.0904915 1.17385 0.902636 0.152962 -0.53144 0.120887 0.316562 0.354785 1.10981 -1.05536 -0.806846 -0.227153 -0.114273 -0.240034 0.13456 -0.165743 -0.743242 -0.293728 0.233034 0.615974 0.377827 -0.663334 0.0335399 0.351455 0.363144 -0.0773782 0.340915 0.384034 0.616693 -0.665438 0.304211 0.395525 -0.761517 0.161149 0.421484 -0.959502 -0.597252 0.537011 0.0651212 0.484375 -0.248551 0.942076 0.338307 0.171359 -0.174162 -0.00429072 -0.206323 -0.0924479 -0.18456 -0.171171 -0.602854 -0.950384 -1.02465 -0.653049 -0.386706 -0.0110725 -0.247832 0.383396 0.00852174 0.465072 0.657625 -0.360398 -0.012825 -0.0279661 -0.09534 0.0832836 -0.0446198 0.0842255 0.608478 0.762266 -0.0945288 0.125899 -0.0316348 -0.240391 0.599661 0.32092 -0.312811 0.33555 -1.43519 0.0814081 -0.415669 0.344801 0.505183 -0.172514 -0.430309 -0.234355 -0.189324 0.138746 -0.668303 
8 -0.189752 0.0270477 0.529573 0.262699 -0.0529794 -0.398586 -0.0490821 -0.959039 0.0118662 0.0901108 -0.421932 -0.462068 0.711025 0.0634602 0.21204 0.0812181 0.520707 -0.494482 0.222231 0.245472 -0.822402 0.107656 0.554597 -0.0362047 0.021778 -0.330182 0.34148 0.103311 0.129249 -0.479118 -0.0540956 0.242588 -0.614797 0.44555 0.506643 -0.0747507 0.854342 0.307466 -0.28172 0.35398 0.210955 0.403142 0.039962 0.172954 0.219809 0.0497607 0.497146 0.534417 -0.184891 0.57603 0.194933 -0.0301764 -0.41151 -0.130699 0.584466 -0.296835 0.167012 0.0276197 0.233204 0.141632 0.386442 -0.243626 0.0166958 0.483459 0.203832 0.183298 0.235537 0.0360372 -0.619136 0.483036 0.424072 -0.28996 0.0855099 -0.315777 -0.0607689 -0.340268 1.05986 0.605671 0.151356 0.10139 0.0959564 -0.324181 -0.07005 -0.223583 0.126484 0.0967575 0.105181 0.273235 -0.702893 -0.509303 -0.579417 -0.147509 0.0843661 -0.201149 0.0246361 -0.2511 -0.409155 -0.0229432 0.191878 -0.484926 0.0146611 0.202071 0.0219877 -0.0504622 -0.361695 -0.109835 -0.499161 -0.0807769 0.388899 -0.311593 -0.127951 -0.658733 -0.331688 0.492851 -0.364024 0.268048 0.0932145 -0.037234 -0.141631 -0.510705 -0.232453 0.160138 0.0885489 -0.195186 -0.36299 -0.616661 -0.00402032 -0.666232 
9 0.307353 -0.351361 0.138135 0.284546 -0.682012 -0.704381 -0.344282 -0.815508 -0.518827 0.131866 -0.300905 0.206783 0.344126 -0.472716 0.04556 0.175704 -0.10441 -0.373064 0.357369 0.582712 -0.0637781 0.128492 0.619803 0.1953 -0.0539206 -0.347227 0.323621 0.150191 0.874612 -0.36118 -0.710397 0.279989 -0.36804 0.0897232 0.313269 0.064213 0.789466 -0.103802 0.151493 0.426502 0.554915 -0.344322 0.147374 0.365292 -0.0558289 0.295911 0.566589 0.800485 -0.557666 -0.272059 -0.372151 0.753409 -0.60772 -0.903733 0.113252 0.325469 -0.96219 0.346082 0.950469 -0.284918 0.121572 -0.279057 0.299854 -0.239699 0.0253669 0.138534 0.228066 -0.344366 -0.269803 0.39857 -0.124461 -0.396779 -0.18314 0.135837 -0.152848 0.609845 0.387085 0.450304 -0.404904 -0.265426 -0.0332743 -0.332142 -0.460135 1.0771 -0.0518321 0.236084 0.165836 -0.764524 -0.109772 -0.649661 -0.14039 0.422218 -0.523753 -0.0664625 0.115988 -0.0979104 -0.499465 -0.372495 -0.309716 -0.380004 -0.62771 -0.164268 0.343518 -0.265649 0.14786 0.256542 -0.336656 0.190868 0.00488191 -0.520273 -0.288358 0.140838 -0.525609 0.241719 0.0587799 0.377891 -0.171215 -0.244103 0.0141212 -0.635083 0.482889 -0.249638 -0.147575 -0.610357 -0.223751 0.0446859 -0.135331 -0.384865 
10 -0.28236 0.466812 -0.646824 0.422403 0.0534272 -0.155668 0.496864 -0.154648 -0.0908225 -0.0668173 0.256522 -0.489328 0.469329 0.0115728 0.888271 -0.860643 0.125557 -0.368071 0.0953255 0.666652 -1.04724 -0.129265 -0.0502854 0.0949057 0.183228 0.185754 0.849986 0.0251773 -0.141108 0.153852 -0.252479 0.208634 0.411938 0.397326 -0.0893281 -0.147167 0.218365 -0.238655 0.0921097 -0.299455 0.849657 0.679184 0.379075 0.0733471 -0.030298 0.254245 0.157022 0.844227 -0.380611 -0.324662 0.262832 0.220307 -0.426106 0.205749 -0.0713933 -0.708646 -0.270452 0.274328 0.564496 0.167138 -0.303434 0.0738619 0.466015 1.0562 -0.0771041 0.400592 0.110701 0.294811 -0.48723 0.393436 0.196331 -0.445093 0.187399 0.232003 -0.593978 -0.471653 0.662062 0.693566 0.569119 -0.0889539 1.01454 -0.0170298 -0.25134 0.0931846 -0.000996388 -0.169208 -0.158028 0.085907 0.0574759 -0.229684 -1.14375 -0.180351 -0.360812 -0.521588 -0.0505933 -0.00207862 0.0963036 -0.0830918 0.472357 0.125316 -0.814431 -0.166497 -0.194718 -0.408005 0.155605 0.118718 -0.0348803 0.150967 0.72044 0.0466553 0.331975 0.00376641 -0.426643 0.588782 0.158976 -0.428535 0.149079 -0.744069 -0.695 -0.963504 0.474992 0.0225666 -0.567259 -0.457045 -0.297467 -0.191578 0.0162477 -0.757062 
11 0.421873 -0.105123 0.218714 0.253671 -0.445776 -0.255788 -0.127709 -0.459998 -0.776803 0.152195 -0.134063 -0.0566572 0.454389 -0.313528 0.129536 -0.118304 0.028149 -0.400441 0.0258702 0.578879 -0.197406 0.236899 0.144517 0.276762 -0.130121 -0.532216 0.126662 0.270448 0.367386 -0.118092 -0.201077 0.218665 -0.014201 0.205744 0.370071 0.0702154 0.34236 -0.0653047 -0.0160076 0.0226624 0.65825 -0.158139 0.0983801 0.215101 0.0468643 0.279557 0.218485 0.640474 -0.161129 -0.096759 -0.289591 0.377848 -0.267111 -0.194027 -0.0243675 0.23435 -0.703789 0.449453 0.241077 -0.0346541 0.202178 -0.0170413 -0.122782 -0.131469 0.05899 0.0978461 0.223502 -0.288635 0.139292 0.126678 -0.488669 -0.111333 0.0538142 0.245982 -0.457999 0.291696 0.228099 0.185255 -0.235826 0.0948618 0.322497 -0.114824 -0.421612 0.641375 -0.112473 0.0696902 0.00773933 -0.392534 -0.142834 -0.279719 -0.166025 0.0558178 -0.388199 -0.175258 0.125875 -0.369561 -0.826216 -0.17262 -0.0513312 -0.360109 -0.13281 -0.101582 0.38675 -0.146067 0.229982 0.366831 -0.260137 -0.0191929 -0.00684396 -0.355335 -0.0161349 0.12403 -0.367831 0.310723 -0.19314 -0.0739671 -0.117294 -0.246423 -0.3383 -0.460918 0.395823 -0.370809 -0.189452 -0.230387 0.110682 0.0418398 -0.354594 -0.344916 
12 0.4735 -0.0598483 0.0205261 -0.425544 -0.104078 0.194548 -0.286665 -0.0724919 0.190551 0.583496 0.197767 -0.443237 0.403345 -0.0512259 0.719144 -0.286763 -0.222487 0.315851 -0.125183 0.139106 0.0173136 -0.169217 0.225196 -0.10389 -0.00648401 -0.116402 0.245378 0.130368 -0.0621433 -0.25898 -0.0458464 0.0782935 -0.0880306 0.417882 -0.0237766 -0.321973 0.771909 0.416944 -0.111505 0.371002 0.19468 -0.253824 -0.146314 -0.10008 0.0294038 -0.244508 0.814825 0.512044 -0.334336 0.456589 -0.273244 0.520849 -0.464865 0.115713 0.144056 -0.0880941 -0.228422 0.0931333 0.459757 -0.188875 0.0698778 -0.131931 0.741393 0.441631 0.240055 0.0843655 0.46547 -0.0179369 -0.0670963 0.175302 -0.272002 -0.047428 0.5358 0.478937 -0.390501 -0.00793292 0.672008 -0.0584048 0.0436332 -0.197132 0.171853 0.354491 0.018419 0.35355 -0.13103 -0.0875097 0.444043 -0.535169 0.210094 -0.198699 -0.670256 -0.487196 -0.240577 0.0851208 0.087957 -0.0565284 -0.0757417 0.0158982 0.26795 0.0213826 -0.0532897 0.287851 -0.0868703 -0.0418165 0.268965 -0.186458 -0.0159642 0.0160074 0.411181 -0.224162 0.0737275 -0.0471515 -0.221431 0.595236 -0.182417 -0.231484 -0.459621 -0.518146 -0.0992805 -0.393252 0.329888 -0.12331 -0.540815 0.248824 0.38402 0.172206 0.0772853 -0.20084 
13 -0.149613 -0.10689 -0.120327 0.0814617 -0.0489599 -0.208112 -0.286624 -0.176463 -0.0725423 -0.0749524 -0.316928 0.143564 0.140312 0.0147172 0.121696 -0.321929 -0.149555 -0.133167 0.189581 0.0166186 0.000198572 0.259221 0.223317 0.0759567 0.244089 -0.147261 0.163102 0.199656 0.159262 0.119903 -0.0144005 0.241918 -0.300662 0.347106 0.166499 0.100751 0.279819 0.131384 -0.0428619 0.113023 0.123042 0.200009 -0.0758223 0.119189 0.211634 0.0523326 0.365356 0.396483 0.00857398 0.248311 -0.0478695 0.17825 -0.0860962 -0.228938 0.221869 0.048227 -0.154608 0.257564 0.0729538 -0.141484 0.252419 -0.0163962 0.169036 0.226231 0.102732 0.0958099 -0.0149627 -0.0722585 -0.389457 0.187653 0.0709242 0.0653898 -0.0940927 0.0592538 -0.148537 0.144476 0.253092 -0.0220244 -0.0517913 0.0807966 0.0823846 -0.242505 0.216155 0.234688 0.0247481 0.200062 -0.0941511 -0.0904138 -0.370257 -0.182114 -0.12825 0.0123835 0.0336484 0.275682 -0.270195 0.15357 0.0476831 -0.0499602 -0.0352243 -0.0939274 -0.182693 0.105843 0.0781342 -0.263147 0.0539381 0.138997 -0.184434 0.137234 0.324378 -0.384503 0.106317 -0.330345 -0.169878 0.290078 -0.148152 -0.0352908 -0.275319 -0.0615504 -0.16755 -0.457789 0.25415 -0.169741 -0.10457 -0.189676 0.126275 -0.165015 0.221408 -0.289451 
14 -0.00206828 -0.0291608 0.654217 0.269101 -0.0274707 -0.427174 -0.00827453 -0.895104 -0.00507643 0.119523 -0.556274 -0.45109 0.830754 0.0939792 0.104009 0.0435632 0.599244 -0.498213 0.249535 0.234122 -0.825126 0.138086 0.587792 -0.112913 0.0464533 -0.235598 0.417224 0.124374 0.0575826 -0.471263 -0.0255839 0.329554 -0.523753 0.508388 0.447239 -0.0821533 0.732336 0.345153 -0.418509 0.374442 0.307077 0.448092 -0.0311436 0.180023 0.124126 0.0525838 0.526392 0.477825 -0.158058 0.517371 0.245432 -0.103728 -0.409853 -0.120065 0.592168 -0.201647 0.134403 0.00883091 0.174793 0.106504 0.262382 -0.191874 0.0335872 0.536002 0.197091 0.197513 0.382448 0.0953126 -0.650726 0.470619 0.387435 -0.133233 0.113861 -0.345954 0.0533261 -0.398507 1.03444 0.667044 -0.0450563 0.138246 0.0833075 -0.292204 -0.191545 -0.175187 0.172735 0.280043 0.0320352 0.24115 -0.706568 -0.521314 -0.596959 -0.147905 0.158232 -0.203677 -0.0244722 -0.406992 -0.476063 -0.120119 0.173054 -0.485602 0.0274884 0.19243 -0.0981504 -0.0485865 -0.480349 -0.0993961 -0.375136 -0.0248285 0.327737 -0.295367 0.0262196 -0.691866 -0.395288 0.487545 -0.343543 0.362105 -0.0203218 -0.143992 -0.0118487 -0.348885 -0.283029 0.168623 0.104573 -0.128966 -0.302173 -0.717746 -0.14541 -0.590311 
15 -0.318062 0.458759 -0.691798 0.378526 0.0507728 -0.1389 0.502073 -0.115675 -0.0571663 -0.0589935 0.348063 -0.53956 0.451666 -0.0809732 0.943658 -0.898774 0.0624682 -0.403592 0.0549797 0.662401 -1.00495 -0.110396 -0.0462152 0.10399 0.188334 0.178459 0.854176 0.00517503 -0.158665 0.236451 -0.207756 0.184631 0.446105 0.419982 -0.0809697 -0.113831 0.305855 -0.259169 0.0382916 -0.468988 0.944651 0.739061 0.291797 0.114114 0.0464271 0.263548 0.240271 0.849684 -0.402088 -0.317097 0.2687 0.274667 -0.40815 0.316574 -0.127437 -0.775277 -0.242716 0.314314 0.593106 0.0874129 -0.374816 0.0202401 0.468722 1.10019 -0.0598125 0.406347 0.227141 0.290619 -0.533609 0.470237 0.206884 -0.456397 0.195676 0.292285 -0.561052 -0.473882 0.711648 0.772214 0.540729 -0.0696946 1.13358 -0.030214 -0.27464 0.0655579 -0.0414981 -0.108256 -0.132299 0.0198751 0.0494598 -0.34322 -1.20092 -0.271486 -0.397221 -0.60092 -0.00732704 -0.0684548 0.132121 -0.0449169 0.511269 0.144477 -0.761896 -0.25317 -0.239861 -0.342393 0.173583 0.0820956 -0.0402593 0.177217 0.793999 0.109867 0.361675 0.0649993 -0.53902 0.579895 0.221429 -0.407914 0.221899 -0.781574 -0.693583 -0.98798 0.520167 0.04919 -0.651062 -0.436273 -0.304915 -0.238462 0.0789963 -0.793356 
16 0.32147 0.000873971 0.0174641 -0.294386 -0.039255 -0.492043 -0.168013 -0.585909 0.0296668 -0.138681 -0.32939 0.138227 0.335169 -0.185219 -0.0402864 -0.317457 0.167524 -0.395884 -0.315441 0.244916 -0.319612 -0.212267 0.385979 0.354305 0.319768 0.0184469 0.162729 0.228823 0.133384 -0.0570503 -0.105623 0.510731 -0.431642 0.187237 0.0280157 -0.0304139 0.399577 0.207968 0.0320022 -0.00363575 0.111432 -0.000752914 -0.0903708 0.384005 -0.109613 0.148875 0.481346 0.477471 -0.206041 0.334147 -0.109284 0.2953 -0.225296 -0.0285829 -0.0318073 -0.0812307 -0.31759 0.21677 0.316855 -0.0127217 0.185818 -0.0736222 -0.00866811 0.22474 -0.307872 0.26806 0.71668 -0.181277 -0.341472 0.0904114 -0.244975 -0.0432653 0.219886 0.0392527 -0.38557 -0.157903 -0.00712954 -0.157289 -0.305632 0.20632 0.236298 -0.518372 0.130243 0.523677 -0.314309 0.116104 -0.204748 -0.250092 -0.0222246 -0.0607031 -0.250121 0.158187 0.0506503 0.0873691 0.148955 0.0645969 -0.526169 0.0790074 0.192873 -0.322925 -0.511046 0.111809 0.0329571 -0.443572 0.387907 0.255113 -0.0223846 -0.241874 -0.0918815 -0.269904 -0.23649 -0.106039 -0.219512 -0.0994519 0.16742 0.0116965 0.443211 0.309804 -0.31445 -0.575816 0.314898 -0.11847 -0.0607986 -0.17004 -0.10989 0.0633297 0.29662 -0.369669 
17 -0.295584 -0.178862 -0.0990874 0.0796025 -0.117936 -0.840024 -0.15041 0.222829 0.205835 0.621175 -0.623532 -0.137007 -0.282128 -0.477832 0.24347 -0.912956 0.130951 -0.135775 -0.0963239 0.432182 -0.583293 -0.0582476 0.402834 -0.232758 0.473081 -0.293409 0.589062 0.195242 0.707742 0.015605 -0.773889 -0.0860076 -0.0821169 0.572909 0.197512 -0.367203 1.14714 0.272757 -0.343582 0.0882577 0.360823 0.130321 0.502424 0.595915 0.324031 0.11605 0.631673 0.651917 -0.260578 0.27848 0.132538 0.361049 0.199721 -0.114981 0.499427 -0.162411 -0.0417095 -0.00481904 0.555251 0.207747 0.624813 0.0734869 -0.650578 0.621499 0.0653238 0.421552 -0.256355 -0.117836 -0.802657 0.0258787 -0.0789633 -0.0571442 0.103959 -0.00140103 -0.422272 -0.44045 0.171931 0.0805566 -0.0978386 -0.502297 -0.0456986 -0.0357649 0.00123918 0.309273 0.0453381 0.123068 0.837038 -0.655559 -0.0350895 -0.495131 -0.0858965 -0.538669 0.265191 0.376479 0.321931 -0.253441 -0.25185 -0.30894 0.359234 0.407998 -0.261704 -0.037862 -0.431026 -0.477177 0.0965579 -0.0476111 -0.662307 0.258625 -0.081186 -0.116161 0.0436642 -0.800259 0.202846 0.863409 -0.196126 0.169192 -0.958013 -0.134713 -0.564846 -0.734825 -0.171382 -0.583456 0.176568 -0.336469 -0.14356 -0.519443 0.0611929 -0.816829 
18 0.581862 0.286983 0.607809 0.175824 -0.284292 -0.764958 -0.287748 -0.879095 -0.605804 0.0440967 -1.09206 0.492643 0.290872 -0.149705 -0.0785921 -0.776275 0.00535575 -0.251478 -0.24326 0.482035 -0.0446297 0.491541 1.12555 0.503238 0.391643 0.0582044 0.142478 0.750573 0.527987 -0.219544 -0.409668 0.505777 -0.513057 0.823458 0.346657 0.364563 0.631193 0.212566 -0.0656601 0.780533 0.612139 -0.297451 -0.321944 0.300503 -0.0916249 0.600516 0.567743 1.01858 -0.312342 0.344295 -0.259934 0.429879 -0.512056 -0.266875 0.287631 0.289201 -0.983336 0.63216 0.651805 0.00142687 0.115437 -0.0431547 0.209871 0.367402 -0.313727 0.424263 0.381753 -0.455011 -0.306808 -0.0156874 -0.523488 -0.00506744 -0.148918 0.180105 -0.317021 0.0711316 0.451434 0.0178269 -0.786842 0.112812 0.422645 -0.76725 -0.468733 0.776486 -0.784039 -0.10749 0.25072 -0.120593 -0.420687 -0.595679 -0.277683 0.0994723 -0.0898225 0.0559806 0.197726 -0.187956 -1.16215 0.246157 0.214786 -0.648986 -0.415912 0.18982 -0.0690326 -0.416329 0.408014 0.166071 -0.241043 -0.287257 0.212162 -0.71954 0.00309813 -0.414991 -0.179061 -0.0283171 -0.714163 0.127017 -0.0677629 0.148666 -0.241804 -0.922128 0.477285 -0.446717 0.174836 -0.415083 0.344841 -0.0433312 0.36191 -0.3156 
19 0.0308097 -0.242247 -0.313476 0.152363 -0.269694 -0.457975 -0.111746 -0.476766 0.0562182 -0.199763 -0.6709 0.505829 0.313378 -0.0885426 0.408763 -1.00306 -0.110982 0.0670391 0.351289 0.514983 0.00607026 0.117578 0.368252 -0.106274 -0.148569 -0.278953 0.416832 0.412316 -0.360022 0.1389 0.259946 -0.0296689 -0.346375 0.906248 0.169605 0.310116 0.29822 0.101734 -0.177987 0.172829 0.264382 0.206223 -0.0446118 0.0441762 -0.0382096 0.0599483 0.731099 0.68256 -0.527959 0.253463 -0.23814 0.411276 0.0724219 -0.111558 0.488574 -0.295436 -0.133657 0.082024 0.49978 -0.127669 0.621041 0.458609 0.085566 0.497586 0.159729 -0.150175 0.0677353 -0.210575 -0.277372 -0.21312 -0.0693059 0.0753305 -0.0370443 -0.104514 -0.246051 -0.0816923 0.491311 0.0238537 -0.10379 -0.160132 0.155565 -0.0775801 0.141343 0.147403 -0.0321018 0.135368 -0.128425 0.0258249 -0.0619284 -0.345151 -0.564943 -0.225485 0.145369 0.534551 -0.159703 -0.143469 -0.437661 0.0374298 -0.239327 0.180683 -0.431398 0.61131 0.223089 -0.432082 -0.0225906 -0.0223535 -0.188965 -0.0462538 -0.191204 -0.43422 0.259238 -0.391637 -0.376359 0.0420153 -0.267515 -0.190934 -0.20733 -0.159158 -0.495683 -1.02451 0.0344298 -0.261925 -0.001135 -0.113183 0.443643 0.0801005 0.177098 -0.765871 
20 0.00316702 -0.10052 0.0389879 0.264373 -0.0499029 -0.749956 -0.0675001 0.0273449 0.158352 0.401571 -0.811293 -0.236889 -0.18321 -0.288809 0.453452 -0.732614 0.0556691 -0.220863 -0.265743 0.334371 -0.40829 0.0408571 0.216737 -0.180068 0.380026 -0.207397 0.55846 0.0182274 0.422756 0.0401946 -0.361659 -0.0799926 -0.261709 0.749274 0.312459 -0.262381 0.730249 0.0305757 -0.240524 0.189797 0.173917 0.104755 0.264261 0.273752 0.632451 0.0528529 0.766709 0.543543 -0.39408 0.245728 0.240399 0.514444 0.228806 -0.0895311 0.138786 -0.272888 0.0622771 -0.271899 0.41182 -0.0365227 0.658604 -0.0997378 -0.405576 0.56052 -0.0944475 0.194904 -0.107562 -0.067204 -0.48226 0.196614 -0.165344 -0.162478 0.139721 0.18365 -0.363815 -0.341524 0.228503 0.328659 -0.260005 -0.254343 0.0197288 0.0256532 -0.115322 0.38011 -0.1612 0.088035 0.486825 -0.404652 0.115903 -0.611646 -0.0282526 -0.334546 0.0605431 0.107791 0.285198 -0.220044 -0.283013 0.174531 0.507643 0.132956 -0.23367 -0.17245 -0.272784 -0.285978 -0.247177 0.156409 -0.278722 0.223859 0.0883701 -0.15234 -0.124237 -0.614163 0.15565 0.656845 -0.0945135 0.0551889 -0.718542 -0.213432 -0.303393 -0.786453 -0.0348001 -0.427062 0.317501 -0.184728 -0.230643 -0.56511 0.0123857 -0.385413 
21 -0.0981632 0.183897 -0.11354 0.00290628 0.0230799 -0.36436 0.325074 -0.621692 -0.142497 0.154285 -0.060863 -0.369017 1.06987 0.128581 -0.178607 0.185581 0.372072 -0.140202 0.146997 1.02886 -0.33468 0.11161 -0.0138224 0.0434841 0.188494 -0.0344152 0.577543 -0.459148 -0.107128 0.144792 -0.302383 -0.259178 -0.07868 0.214377 -0.201511 -0.272854 0.450435 0.416131 -0.153617 -0.246776 0.31463 0.237305 1.02882 -0.0453126 -0.162984 -0.258773 0.762979 0.646384 -0.231859 0.0592229 0.0501242 0.130694 -0.279186 -0.321161 0.523057 -0.76277 -0.252027 0.100215 0.35041 -0.329953 0.751147 0.0358931 -0.019402 0.323478 -0.201265 0.0100731 0.00644294 0.312325 -0.103663 -0.205815 0.333779 -0.447925 -0.331968 -0.578996 0.141048 -0.203067 0.583532 0.220175 0.0935165 -0.226419 0.264312 0.0383988 0.0539412 0.286008 0.233044 -0.39266 -0.334267 -0.611503 -0.11861 -0.27531 -0.75882 0.156188 0.271541 -0.186639 -0.205939 0.0769097 0.269502 -0.0516656 0.247362 -0.36043 -0.719601 0.271678 0.0843538 -0.196114 -0.248533 0.611279 -0.318011 0.103756 0.626995 0.162555 -0.317424 -0.3181 -0.351099 0.0457894 0.220917 -0.0854259 0.0456394 -0.29191 -0.219749 -0.581391 0.731364 0.186262 -0.797967 -0.600471 -0.129626 -0.0451297 -0.132107 -0.676248 
22 -0.666653 0.341285 -0.715016 0.597676 0.166075 -0.208937 0.516474 0.0546209 -0.379187 0.0479418 0.185144 -0.578386 0.468181 -0.0142222 0.799388 -0.655067 0.294434 -0.733646 -0.0940395 0.244762 -0.760634 -0.73975 -0.34362 -0.520021 0.596351 0.125746 0.767466 0.525994 -0.326263 -0.15068 -0.0448888 -0.00725051 0.44348 0.00298872 -0.0903301 0.0338861 0.400126 0.0511968 -0.190103 -0.693199 0.988388 1.02196 0.21812 0.192631 -0.149291 -0.000133637 -0.0638457 0.682465 -0.17361 -0.462202 -0.262194 -0.429764 -0.30756 0.222154 -0.474003 -0.783615 -0.17247 0.260703 0.541568 0.182107 -0.250374 -0.0557404 0.344316 0.763142 0.0359762 0.376565 0.321234 0.163713 -0.342948 0.345951 0.77503 -0.0549929 -0.0664166 0.340877 -0.852819 -0.319899 0.618671 0.435961 0.541556 0.19932 1.28769 -0.233947 -0.112977 -0.268977 -0.0683786 -0.177221 -0.209176 -0.164232 -0.0366049 -0.640192 -0.89019 -0.590004 -0.379987 -0.910621 -0.0328738 0.0933647 -0.00247037 0.00762489 0.241808 0.201419 -0.822331 -0.157286 0.271133 0.366461 0.564036 -0.0849164 -0.196962 -0.100764 0.436455 -0.297925 0.488389 0.216485 -0.773461 0.621739 0.508296 -0.521762 0.460691 -0.922014 -0.412426 -1.00988 0.572139 -0.302133 -0.0954412 -0.165807 -0.206033 0.110552 -0.116481 -0.705121 
23 0.242606 0.31625 0.5192 0.0042443 0.0736752 -0.405733 -0.0165966 -0.086924 -0.0877529 0.606935 -0.692767 -0.296254 0.0412877 0.0429076 0.538281 -0.402268 0.329233 -0.30639 -0.227577 0.204897 -0.590844 0.269484 0.352142 0.0797777 0.129173 0.311777 -0.11945 0.432598 0.567898 -0.0851287 -0.0298975 0.10492 -0.203991 0.627331 -0.148325 -0.0119782 0.586758 -0.083688 0.0777803 0.0229128 0.333774 -0.0766284 0.652394 -0.165956 0.486178 0.171647 0.457985 0.845297 -0.0785272 0.200386 0.259686 -0.112898 -0.131543 -0.0600792 0.00817481 0.00377315 -0.259048 0.123585 0.383346 0.194331 0.259536 -0.1338 -0.226451 0.469075 0.182105 0.134244 0.00657374 -0.404652 -0.0821526 -0.0410923 -0.41038 -0.237936 0.0267499 -0.107097 -0.184694 0.339514 0.0314629 0.0841211 -0.166214 -0.0401782 0.216333 -0.15857 -0.664386 0.248737 -0.221883 0.354714 0.465009 -0.200903 -0.454522 -0.127539 0.0777374 0.274127 0.113254 0.126806 -0.0503591 -0.113116 -0.594158 0.251688 0.452048 -0.0172921 -0.41248 -0.531217 0.308383 -0.386677 0.0423151 0.0810469 -0.00893735 -0.313723 0.162625 -0.276866 0.0539563 -0.314288 -0.227599 0.207617 0.0423772 0.0258348 -0.497406 -0.591333 0.158513 -0.927903 0.178865 -0.218837 0.0486459 -0.473224 -0.377428 -0.719798 0.124419 0.00368688 
24 -0.273985 -0.0437019 -0.112721 0.1429 0.349116 -0.16756 0.3651 -0.214009 -0.939336 0.40793 -0.401209 -0.143909 0.602008 0.0171236 -0.35386 -0.0767435 0.241549 -0.141472 0.27853 0.496395 0.189408 0.244062 0.716439 0.82539 0.609739 0.141416 -0.171343 0.75091 0.554632 0.131238 -0.237166 -0.377647 -0.0439746 0.144002 -0.37477 0.185119 0.789453 0.582757 0.102778 0.554151 0.507307 0.32886 -0.0409158 -0.0972219 0.0934527 0.113418 0.617864 0.903734 0.456004 1.16258 0.0487553 -0.608169 -0.399938 -0.997571 0.367254 -0.343876 -0.449546 -0.25968 0.156922 -0.397477 0.507476 0.166717 0.399773 0.213633 0.135587 0.794598 0.00483072 -0.141387 -0.077727 0.589261 -0.0204527 -0.136762 -0.117515 -0.176639 -0.62189 -0.381343 0.298074 0.202277 -0.24146 -0.331268 0.490338 -0.0567846 0.231938 -0.58674 -0.326364 0.184706 0.171952 -0.348633 -0.526986 -0.259742 -0.813566 -0.280228 -0.170763 0.214252 -0.354115 -0.197294 -0.498337 0.0101903 0.297748 0.197876 -0.288642 0.643124 -0.0524813 -0.151103 0.271374 0.831664 -0.0854748 -0.0941237 0.564224 -0.151598 0.326104 -0.792339 -0.457769 0.0380808 -0.510031 -0.479263 0.459973 0.239264 -0.399343 -0.649843 -0.198916 0.0899909 0.207663 -0.513693 -0.464819 0.0636569 -0.654616 -0.365912 
25 0.0995487 0.0162657 -0.364996 -0.0120753 -0.206513 0.350605 -0.441969 -0.260036 0.331417 0.37488 -0.278157 -0.268841 0.711581 0.0457255 0.140779 -0.795972 -0.233628 -0.0108064 0.315078 -0.0703185 0.179707 -0.580221 1.11491 -0.00335814 0.261167 -0.451487 0.514437 0.364321 0.255418 -0.0612123 0.164784 0.145782 0.420834 0.153675 -0.369054 -0.244337 0.908437 0.359712 -0.282752 0.415214 0.155249 0.0519126 0.0204143 0.158867 -0.48774 -0.117237 0.299304 0.908883 -1.15272 0.388577 -0.129134 0.359388 -0.598258 -0.29797 0.550915 0.0860834 -0.254647 0.174587 0.479755 -0.190933 0.708348 -0.336838 0.466089 0.671855 0.105284 0.082094 0.486593 -0.544972 -0.512101 0.342831 -0.444205 -0.244269 0.913974 0.893969 -0.459838 -0.118538 0.497888 -0.0310442 0.0487567 -0.505196 1.32852 -0.0157316 0.119892 0.367357 -0.360654 -0.0670142 -0.108687 -0.376925 -0.452909 0.177407 -0.887132 -0.641148 -0.195698 -0.0919265 -0.0877039 0.326547 -0.11614 -0.146666 0.675024 -0.159606 -0.0194016 0.161888 0.279051 -0.160915 0.460209 -0.0637456 -0.312 -0.243967 0.26551 0.104223 0.172026 -0.230967 -0.347245 0.957691 -0.97371 -0.782349 -0.148056 -0.111793 -0.617229 -0.640366 0.461955 0.181734 -0.176435 0.0607428 0.232118 -0.460076 0.360312 -0.228374 
26 0.27801 0.221962 -0.353078 -0.000951462 -0.29381 0.201149 0.611276 -0.197489 -0.542404 0.540498 -0.98429 -0.827134 0.470842 -0.40868 0.113999 -0.61434 -0.193697 -0.00750226 -0.123138 0.125548 -0.0449487 -0.175906 1.01613 0.298089 0.479561 -0.0903084 0.656322 0.415439 0.744629 0.225161 0.702138 0.505857 -0.33088 -0.0679512 -0.199683 -0.0183986 0.56211 0.401941 0.0470589 0.500596 0.372546 0.372071 0.53083 -0.189025 0.539295 0.481357 0.820024 0.528962 -0.181161 0.739547 0.125651 -0.0593174 -0.397832 -0.616244 0.403013 -0.44053 -0.0862417 0.183686 0.776023 -0.201566 0.400776 0.31391 -0.458927 0.48598 -0.1894 0.371307 0.194235 -0.259593 -0.388286 0.302615 -0.0835201 -0.43272 0.572507 0.526063 -0.154193 -0.295158 0.639246 0.109177 0.123464 -1.03233 0.301122 -0.185373 0.110605 -0.146647 0.0457449 0.111899 -0.517909 -0.589733 -0.641313 0.218402 -0.276753 -0.862413 -0.100213 0.170807 0.0123765 -0.629272 -0.0705259 0.254032 0.368191 -0.074358 -0.329096 -0.278259 -0.444333 -0.0899867 -0.111833 1.09384 -0.199049 -0.23992 0.0752323 0.00323839 -0.136078 -0.710707 -0.320214 0.303335 -1.18276 -0.103621 0.390595 0.263754 -0.785884 -0.727695 0.0390333 0.617304 0.246451 -0.269904 -0.0962038 -0.152708 -0.535082 0.00502441 
27 0.0504619 0.0552531 0.10231 0.139768 -0.148459 -0.144611 0.0757621 -0.133447 -0.31251 0.0236157 -0.268228 -0.0326334 0.108992 -0.192173 0.10033 -0.048746 -0.079723 -0.102683 -0.123395 0.303469 -0.114184 0.124591 0.327998 0.337908 0.0952417 -0.0125729 0.135902 0.349282 0.228145 -0.217244 -0.223909 0.232298 -0.136052 0.00148735 0.105128 0.236742 0.21176 0.178318 0.0799771 0.402909 0.301515 -0.177735 -0.0398705 0.0510349 0.0559801 0.41161 0.0906583 0.437496 -0.040313 0.0394567 -0.162393 0.206482 -0.224178 -0.143863 0.0564526 0.0333748 -0.263257 0.21454 0.0683042 -0.0620382 0.071585 -0.000714965 0.0115107 0.0111915 -0.11434 0.122148 0.134338 -0.0953872 0.0202503 -0.0171106 -0.171547 0.0724126 -0.032227 -0.0436187 -0.1184 0.063632 0.158857 -0.0666859 -0.411627 0.156324 0.179308 -0.14771 -0.172152 0.1546 -0.274223 0.0214244 0.0419771 -0.0799687 -0.165415 0.0335346 -0.137535 0.1258 -0.183289 -0.0820796 0.00465117 -0.167341 -0.306026 -0.108744 -0.0206795 -0.450121 -0.211024 0.0610994 -0.0407549 -0.114466 0.0778017 0.00010325 -0.28309 -0.166814 0.0153485 -0.159015 -0.0079841 -0.0181889 -0.0911061 -0.0077211 -0.214012 -0.0508764 0.080941 -0.133087 -0.0966717 -0.393095 0.212115 0.0449226 -0.116792 -0.0173981 0.146451 -0.0249348 0.114671 -0.336068 
28 0.0287623 0.443582 -0.800464 0.503305 -0.109339 0.198758 0.690972 -0.409086 0.107439 -0.0228013 0.095001 -0.644398 0.31348 -0.209187 0.730398 -0.525243 0.416767 -0.874241 0.0452513 -0.107445 -1.03604 -1.02926 -0.338524 -0.629492 1.14754 0.601918 1.08657 0.0564036 0.0855643 -0.136957 -0.46388 -0.226121 0.871835 -0.0736789 0.194652 0.429143 0.0563839 0.105525 -0.0534177 -0.508759 1.15022 0.858362 0.090061 -0.203217 -0.654927 0.342059 0.0750723 1.01815 -0.536611 0.0517121 0.0296979 0.0296538 -0.182381 0.716734 -0.557939 -0.82169 -0.11344 0.304217 0.0372711 0.0729282 -0.293434 0.163631 0.342119 1.46587 0.042621 0.2546 0.164134 0.557264 -0.210911 0.286617 0.556079 -0.203829 0.49963 -0.0725369 -1.40031 -0.413122 0.96574 0.26112 0.783033 0.0777068 1.22038 -0.32586 0.339598 0.105363 -0.21276 0.469225 -0.00178446 0.0606521 -0.103071 -0.605076 -1.38747 -0.327433 -0.412345 -0.87809 -0.00501752 -0.182873 0.413892 -0.0329577 0.968189 0.398257 -0.857643 -0.206558 0.226234 -0.171248 0.178523 -0.315881 0.121442 -0.0186646 0.448602 -0.0145142 0.462325 -0.0183053 -0.332698 0.587433 0.858902 -0.430513 0.46801 -0.903582 -0.283954 -1.05991 0.245652 0.269137 -0.227277 -0.16564 -0.364472 0.170022 0.311832 -0.199406 
29 0.1454 0.421843 -0.0337878 -0.41779 -0.258324 -0.599978 -0.615757 -0.0101172 -0.418482 0.266898 -0.365436 0.552609 0.433303 0.293533 -0.00500251 -0.223548 -0.360682 -0.152709 0.213242 0.613018 -0.926526 0.140933 0.476937 0.410084 -0.268891 0.409393 0.239224 0.0863164 0.18378 -0.512765 -0.438926 0.0289467 0.0873038 0.461553 0.446993 0.0987381 -0.156144 0.472194 0.215521 0.00175703 0.224716 -0.240525 -0.159654 0.266086 0.101611 0.298289 0.740252 0.992713 -0.200224 0.540835 0.012444 -0.230607 -0.23731 -0.46551 0.161059 -0.0524877 -0.209117 -0.269032 1.10663 0.00885887 0.349978 -0.282439 0.124966 0.498469 0.0245933 0.86327 0.852466 -0.0869125 -0.552578 0.460435 -0.049645 -0.679414 0.389201 0.0788072 -0.572228 0.136991 0.166781 0.181967 -0.207824 -0.0179868 0.824367 -0.0966744 -0.205403 -0.089614 0.149486 -0.150598 0.309215 -0.0940243 -0.321093 -0.448136 -0.428576 -0.177419 0.0646304 -0.241557 0.174686 -0.272724 0.199531 0.68657 0.316461 -0.720548 -0.498465 0.403325 0.301013 -0.141499 0.00819717 -0.155539 -0.223962 -0.59538 0.148783 -0.811762 0.396283 -0.0360718 -0.174024 0.529275 -0.38183 -0.143717 -0.114644 0.390817 -0.0792776 -0.278883 0.0718582 0.0908478 -0.186924 -0.489015 0.0151403 0.0426616 -0.320803 -0.674943 
30 0.247636 -0.385456 0.368748 0.197065 -0.58985 0.632406 0.181689 -0.105545 0.549061 0.925109 -0.498508 0.0708049 0.248307 -0.302831 0.731824 -0.51412 -0.0843841 0.0142372 0.152143 0.391364 -0.258895 0.0446008 1.26617 -0.0897517 0.264418 -0.278363 0.485888 1.03247 0.63365 0.198213 -0.129723 -0.451415 -0.104151 0.020569 0.122007 -0.302066 1.18495 0.262714 -0.0531183 0.506664 0.968831 -0.213206 -0.429384 0.747375 -0.188463 0.00968863 1.00887 0.627453 -0.294902 0.913915 -0.112527 -0.160485 0.0518649 -0.337696 0.407134 -1.23042 -0.148585 0.177442 0.45644 -0.205113 -0.0144598 0.110511 -0.0989368 0.476035 0.195161 0.536601 0.149299 0.538277 -0.178573 -0.10162 -0.766642 0.0728241 1.0139 0.340651 -0.281158 -0.404971 0.33856 -0.308776 -0.202767 -0.376257 1.23235 0.236773 0.361401 0.0810407 -1.08204 0.206258 0.202009 0.238398 -0.370819 -0.10101 -0.779239 -0.178216 -0.0356515 -0.503997 0.26192 -0.366014 -0.353354 0.651571 0.554444 0.114427 -0.211744 -0.162435 -0.842937 -0.625161 -0.113962 -0.118474 -0.61182 0.0617461 -0.340906 0.0130642 0.579953 -0.189408 -0.500659 0.176936 -0.632448 -0.133006 -0.462776 0.085926 0.0548134 -0.571004 0.0612049 -0.0796188 0.0977296 0.167032 -0.201205 -0.179831 -0.339867 -0.116 
31 0.0416294 -0.0852025 -0.162591 -0.616751 -0.298856 0.106041 -0.119233 0.152753 -0.135573 0.714797 -0.662762 -0.423974 -0.0894596 -0.316314 0.673046 -0.0156029 0.0517753 0.213265 0.00523402 0.422634 0.209266 0.16369 0.644028 0.0843996 0.245316 -0.378763 0.888089 0.755152 0.343881 0.391554 -0.486657 -0.529237 0.477438 -0.270937 -0.307748 -0.212646 1.35925 0.612197 0.235731 0.480569 0.42945 -0.202957 0.148782 0.858194 -0.113282 -0.0265035 1.08107 0.829658 -0.121068 1.01313 -0.524226 0.0235857 -0.124839 0.141244 0.591953 -1.02502 -0.559123 -0.20771 0.628342 -0.0943307 0.192689 0.1037 -0.0985567 0.592929 0.181242 -0.213093 0.183397 0.0203991 -0.0310484 -0.0381435 -0.473592 -0.281122 1.11912 -0.147957 -0.400486 -0.522953 0.461829 -0.311551 0.457583 -0.684031 0.745382 0.400436 -0.439063 -0.431306 -0.734004 0.222369 0.414157 -0.260828 -0.434265 -0.249884 -1.34943 0.163064 -0.0235172 -0.228567 -0.145992 -0.561047 -0.525678 0.387583 0.153516 0.491176 -0.606128 0.134486 -0.876232 -0.383585 0.159769 0.191196 -0.558771 0.259869 0.176024 -0.199215 0.0805893 -0.586735 -0.27535 0.0233263 -0.575519 0.0464789 -0.177236 -0.114788 -0.198939 -0.327211 0.322711 0.360094 -0.581919 -0.0750709 -0.448232 0.00773658 -0.238776 -0.307532 
32 -0.340212 0.039004 -0.138512 0.243001 -0.133349 -0.131689 0.751021 0.00817294 -0.622202 -0.111517 -0.252783 -0.506428 1.35002 0.246752 -0.269639 -0.03232 0.600653 0.060748 0.268011 0.707077 -0.356734 -0.375442 -0.0296315 0.0574472 0.622376 0.162683 0.00749042 0.638533 0.17239 -0.373656 -0.320241 -0.242206 0.672006 0.192743 -0.205483 0.0251139 0.726016 0.383549 -0.0669702 -0.799966 0.97283 0.854815 0.295497 -0.245183 0.342975 0.0782553 0.867163 0.961097 -0.277947 0.6682 -0.00781638 -0.236802 -0.54194 -0.127619 -0.194388 -0.65005 -0.344608 -0.408046 0.551836 -0.130758 0.786531 0.0349306 0.0558627 0.1642 -0.0459651 0.354936 -0.137545 -0.139627 -0.286753 0.232426 0.203389 -0.0206667 -0.4884 -0.373299 -0.290097 0.15697 0.347302 0.409356 0.0204196 -0.563004 0.650343 -0.388731 0.215889 -0.684917 -0.31527 0.0464193 -0.31668 -0.739525 0.108099 -0.393699 -0.936067 -0.343241 0.180837 -0.335014 -0.475712 -0.468933 -0.0447027 -0.283406 0.295162 0.757021 -0.731685 0.357083 -0.0524849 -0.430943 0.0416713 0.670551 -0.307994 -0.0373618 0.836451 -0.247642 -0.340297 -0.368101 -0.95127 0.0596146 -0.132052 -0.572955 0.399982 0.0812048 0.115631 -0.835314 0.092397 0.380303 -0.0653515 -0.860654 -0.0449754 0.213027 -0.324179 -0.811641 
33 -0.0473565 -0.122314 -0.0342945 0.240442 -0.233894 -0.358843 -0.202964 -0.464743 -0.236846 -0.044874 -0.0837055 0.0481539 0.231953 -0.310071 0.0889364 0.100827 0.0494268 -0.168509 0.120779 0.313766 -0.0548971 0.0852712 0.311938 0.0965277 0.0645664 -0.0851325 0.273327 0.0488307 0.461552 -0.194996 -0.310773 0.270296 -0.188907 0.21888 0.109913 0.0343099 0.270792 -0.0991369 0.109074 0.213706 0.286829 -0.0996983 0.128765 0.122916 0.0905386 0.192401 0.402414 0.559181 -0.21359 -0.0561561 -0.0436292 0.364428 -0.314951 -0.5164 0.0468892 0.180334 -0.318921 0.228916 0.333363 -0.186391 0.108756 -0.124504 0.150004 -0.0433182 0.0424698 0.0815019 0.0704743 -0.110683 -0.305051 0.216535 -0.106813 -0.223884 -0.0844784 0.11071 -0.198878 0.298259 0.298359 0.232401 -0.131473 -0.0907491 0.0757956 -0.183304 -0.0889022 0.424687 0.124471 0.113523 0.0745065 -0.327618 -0.239315 -0.367529 -0.134705 0.227724 -0.422947 0.0721307 0.02994 -0.0367786 -0.146397 -0.193458 -0.116801 -0.174151 -0.212895 -0.0414957 0.145308 -0.218082 0.0912765 0.15928 -0.223343 0.176756 0.259793 -0.342485 -0.161837 0.125378 -0.176963 0.152054 -0.0461802 0.0438752 -0.280778 -0.046685 0.031939 -0.456387 0.278093 -0.0652527 -0.0991299 -0.316288 -0.044835 0.00130521 -0.0312227 -0.176994 
34 -0.379377 0.496207 -0.446992 -0.143307 -0.230131 -0.417923 0.330206 0.36291 -0.196059 -0.451214 -0.117235 -0.619797 0.120918 -0.571041 0.977302 0.123234 0.424676 -0.117704 0.425239 0.635359 -0.40635 -0.766884 0.344265 -0.0792731 0.99131 -0.0587212 0.369606 0.795726 -0.488627 -0.945351 -0.295425 -0.158658 1.10941 0.34291 -0.118257 0.460739 0.824265 0.27891 -0.42944 -1.06637 1.32347 0.571703 -0.0303926 0.300569 0.370514 -0.307582 0.975376 0.515347 -0.48127 0.868364 -0.0584913 0.0772326 -0.503848 0.404948 -0.00445981 -0.527629 -0.00619325 -0.638592 0.946672 -0.150937 0.00112809 -0.130728 -0.0793763 0.576502 -0.0018002 -0.59535 0.147024 0.00267595 -0.291688 0.383718 0.510771 0.221428 0.0367764 -0.0469006 -0.227189 -0.0914341 0.455994 0.607271 0.651466 -0.300018 1.02908 -0.157335 0.0269284 -0.776223 0.0333948 0.513977 -0.285319 -0.185649 -0.31758 -0.402148 -0.927842 0.157352 0.0485653 -0.598479 0.0495544 -0.929329 -0.0118935 -0.163114 0.149916 0.823481 -0.655438 0.382943 -0.276005 0.391073 -0.0838976 0.0869904 -0.414072 0.274838 0.731541 -0.237869 0.36096 -0.34669 -0.718433 0.499623 0.150009 0.0766427 0.276426 -0.653037 -0.059256 -0.707731 0.490035 0.126481 -0.398429 -0.135985 0.0489331 -0.238221 0.300076 -0.640086 
35 0.193713 -0.04149 0.185687 0.196583 -0.328244 -1.03145 -0.333486 -0.470182 -0.215427 0.0251114 -1.09392 -0.455171 -0.0256207 -0.187562 -0.00475447 -0.635202 0.213305 -0.440619 -0.426168 0.222565 -0.0696721 0.532386 0.812689 0.463945 0.299881 -0.0465586 0.378072 0.485659 0.637274 -0.103207 -0.579511 0.265148 -0.770865 0.88953 0.313908 -0.478736 0.84124 0.310653 -0.0126562 0.494409 0.377028 -0.129967 -0.103556 0.234635 0.54107 0.407541 0.947208 0.931719 -0.2994 0.417949 0.137136 0.21172 -0.0846933 -0.127761 0.160665 -0.159076 -0.629204 0.0719685 0.474296 0.0879903 0.538997 -0.255677 -0.12856 0.684102 -0.371624 0.294632 0.0205169 -0.279486 -0.362234 0.0492072 -0.520151 -0.217463 0.218581 0.140558 -0.356493 -0.140518 0.30045 0.476448 -0.767568 -0.125419 0.0296886 -0.211965 -0.302434 0.643152 -0.423366 0.217588 0.429528 -0.32519 -0.0323862 -0.639159 -0.312179 0.0348514 -0.195833 0.107499 0.187627 -0.392285 -0.62114 0.633175 0.727835 -0.357248 -0.122025 -0.504436 -0.417893 -0.253563 -0.17944 0.231912 0.0643844 0.253306 0.59837 -0.250752 -0.184886 -0.356033 -0.00133394 0.33584 -0.231988 -0.114001 -0.785373 0.419159 -0.0921021 -1.103 0.160513 -0.670364 0.803715 -0.415918 -0.0817868 -0.659109 0.211245 -0.0463744 
36 -0.217148 -0.189602 0.0186658 0.416398 0.0992645 -0.954851 0.0161881 -1.00266 0.0939097 0.115456 -1.23887 -0.730593 -0.138316 -0.44397 -0.0636394 -0.642923 0.729031 -0.344648 0.0384819 0.273203 -0.796858 0.537223 0.705924 -0.0488761 -0.106938 0.488358 0.741445 0.500731 0.258323 -0.183213 -0.330756 -0.404776 -0.0515417 0.6785 0.190602 -0.222519 0.914802 0.154696 0.202813 0.34796 0.328905 0.506073 -0.183721 0.178385 0.0601237 0.223875 0.838053 1.28414 -0.387067 0.133409 0.403329 0.0564857 -0.508721 -0.0914222 0.603663 -0.250108 -0.480066 0.498929 0.656413 -0.353333 0.450825 0.289162 0.389461 0.309678 -0.515699 0.519772 0.531955 -0.66436 -0.737857 -0.513301 -0.687686 0.217819 -0.223634 0.13103 -0.422939 -0.410659 0.0533121 0.0304595 -0.378497 -0.555276 0.400138 -0.279043 -0.212274 0.402702 0.173421 -0.057406 0.201805 0.00771639 -0.140205 -0.13086 -0.458078 -0.210198 0.115367 -0.211449 1.02545 -0.122207 -0.2626 0.55004 0.660332 0.0569892 -0.431664 -0.0722483 0.187915 0.15166 -0.00142506 -0.120488 -0.45686 -0.162436 0.21619 -0.616179 -0.189425 -0.956305 0.00337151 0.460106 -0.50998 -0.386897 -0.72028 0.0248236 0.148383 -1.07269 0.203102 -0.58436 0.0924617 -0.871552 -0.246185 -0.146452 0.14053 0.132351 
37 -0.488258 0.184592 0.00494531 -0.293006 0.139362 0.00384737 0.380005 -0.111024 -0.475005 0.0363811 -0.00488798 -0.808138 0.407686 -0.27318 0.700161 -0.626067 0.00975341 0.102486 0.085027 0.409021 -0.380477 -0.459056 -0.0520261 0.734568 0.538707 0.07165 0.349071 0.786215 0.268823 -0.189301 -0.215865 0.201908 0.166244 0.486007 -0.131609 -0.132804 1.28359 0.71617 0.0694673 -0.428195 0.194724 0.0430512 0.301382 0.372165 0.00603968 -0.591125 0.493103 0.529729 -0.751439 0.621453 0.0214567 0.798901 0.192233 -0.301115 0.0718589 -1.30842 -0.534574 -0.214307 0.0756435 0.0629624 0.0666114 0.239876 0.27891 0.509471 -0.0722873 -0.0668296 0.717964 -0.675557 -0.452154 0.00711891 0.360626 -0.419659 0.259368 -0.169037 0.0838608 -1.01248 0.475873 0.101079 0.117427 -0.029779 1.00968 -0.222397 -0.915123 -0.603716 -0.00304628 0.663211 0.0866619 -0.698622 -0.261938 -0.162011 -0.751138 0.373029 -0.118051 -0.635453 -0.0937357 -0.741622 -0.309647 -0.190931 0.469161 0.520383 -0.666754 0.252655 -0.203343 0.228597 0.243286 0.119933 -0.32777 0.0791001 0.123339 0.138011 0.281704 -0.242557 -0.399039 0.77196 0.113119 -0.103135 0.107927 -0.596742 -0.247369 -0.590912 0.802475 0.397307 -0.323856 -0.364617 -0.388162 -0.281708 -0.104643 -0.628855 
38 -0.0160756 -0.0747624 0.0240523 0.197504 -0.205356 -1.02138 -0.0814369 -0.276329 -0.206743 0.180791 -0.883211 -0.486554 -0.0861142 -0.287435 0.222305 -0.697937 0.227649 -0.370511 -0.254809 0.239222 -0.317467 0.43397 0.642616 0.231349 0.284022 0.0347369 0.469521 0.263432 0.625489 -0.0654149 -0.423732 -0.0219319 -0.582902 0.784291 0.254079 -0.51141 0.831827 0.204308 -0.107625 0.328898 0.297641 0.0143868 0.133446 0.162459 0.602341 0.365809 0.82819 0.91631 -0.345194 0.322078 0.225337 0.19384 0.00345423 -0.196837 0.153652 -0.184016 -0.33068 -0.079141 0.434291 0.0437638 0.538483 -0.194643 -0.161749 0.73012 -0.391358 0.243049 -0.00859358 -0.169491 -0.408804 -0.0809297 -0.521511 -0.265574 0.133203 0.184261 -0.343401 -0.347751 0.192369 0.501583 -0.5323 -0.291583 0.0758705 -0.0271979 -0.193021 0.481179 -0.17486 0.312558 0.377544 -0.279991 0.0349725 -0.612584 -0.300172 -0.0807913 -0.112986 0.0127175 0.256035 -0.295158 -0.497279 0.676404 0.801258 0.0166034 -0.235291 -0.424532 -0.385498 -0.284086 -0.239708 0.184336 -0.0024953 0.187594 0.549853 -0.235326 -0.158913 -0.361707 0.0939442 0.374349 -0.228088 -0.222568 -0.752637 0.166355 -0.0624022 -1.05005 0.107865 -0.623364 0.578036 -0.574666 -0.314635 -0.551106 0.209592 0.0826159 
39 -0.214323 0.114459 -0.227151 -0.276266 -0.371004 -0.923218 -0.122407 0.271412 0.113642 0.489372 -0.462354 -0.0394512 0.00919681 -0.450181 -0.219801 -0.741467 -0.128491 -0.068911 -0.0519807 0.189898 -0.723733 0.0279903 0.439232 -0.195457 0.570003 -0.268726 0.257545 0.391968 0.543922 -0.102424 -1.00884 0.118417 0.0814824 0.441015 0.0145756 -0.390242 1.11129 0.114405 -0.2137 0.130632 0.708351 0.119779 0.35085 0.332154 0.147116 0.0141017 0.242789 0.786415 -0.346904 0.252282 0.0810444 0.334323 -0.0308618 -0.107307 0.429658 0.00695978 0.0197887 0.285042 0.54713 0.122964 0.430683 0.170953 -0.468126 0.642546 0.19064 0.194808 -0.112968 0.0563587 -0.920784 0.101458 0.0532292 -0.0462241 0.106649 0.233178 -0.290512 -0.529241 0.460838 -0.0628656 -0.107573 -0.31698 0.239791 -0.317545 0.0443992 0.399264 0.236047 0.107798 0.786957 -0.725763 -0.0583796 -0.225386 -0.308904 -0.310837 0.368318 0.341328 0.51506 -0.269602 0.0886482 -0.239184 0.268947 0.386862 -0.128866 0.0322377 -0.260895 -0.0828155 0.388199 -0.151378 -0.59327 0.0976285 0.00711283 -0.147118 0.0562992 -0.467349 -0.0697181 0.90132 -0.0580738 0.323828 -0.512811 -0.3419 -0.794124 -0.444619 -0.10737 -0.615897 0.115518 -0.376489 -0.213859 -0.394174 0.289283 -1.10424 
40 0.845157 0.136648 -0.0912312 -0.00447333 -0.158795 -1.29853 -0.576965 -1.0122 -0.140041 -0.150378 -1.01044 0.596748 0.414195 -0.1694 -0.292199 -0.593079 -0.00566191 -0.0271391 -0.397867 0.533938 -0.231246 0.504085 0.85863 0.207305 0.638284 -0.1206 -0.123703 0.543762 0.145567 -0.218143 -0.111507 0.860922 -0.839261 1.02722 0.0719095 0.309198 0.576633 0.136784 -0.221668 0.847896 0.527185 0.0377686 -0.277178 0.201173 4.96059e-05 0.262565 0.233035 0.813695 -0.318579 0.240611 0.24742 0.660335 -0.440011 -0.557059 0.578373 0.257628 -0.89658 0.731152 0.655014 -0.104519 0.354234 0.532695 0.123712 0.519728 -0.504519 0.631822 0.68675 -0.185966 -0.273498 -0.145206 -0.344109 -0.19615 0.135779 0.399785 -0.293085 0.223433 0.381082 -0.320055 -0.689185 0.295197 0.196806 -0.755193 -0.0622416 0.963405 -0.603419 0.0565904 -0.399623 -0.207675 -0.208366 -0.485315 -0.806168 0.4856 0.272738 0.0153898 0.287153 -0.117972 -0.985739 0.0917669 -0.193572 -0.0676762 -0.457724 0.494214 0.158838 -0.0279669 0.302437 0.178658 0.0232117 -0.475168 -0.256903 -0.673234 -0.0242975 -0.641487 -0.299975 -0.21231 -0.427684 0.0904219 0.00766452 0.175862 -0.659254 -0.844567 0.0107585 -0.318872 0.175745 0.0362022 0.394064 0.376431 0.407737 -0.943105 
41 0.28353 -0.364592 -0.248681 -0.345325 0.00627046 -0.74055 -0.369018 -0.469251 0.268153 -0.0945723 -0.1646 -0.00578042 0.288968 -0.182976 0.0345489 -0.25211 0.115678 -0.254145 -0.169639 0.222918 -0.709315 -0.275855 0.100172 0.219609 0.489846 0.0428335 0.214413 0.035561 -0.0747739 -0.0953462 -0.0939449 0.56512 -0.742281 0.129184 0.0383223 -0.199083 0.58086 0.193952 -0.00199619 -0.0151744 0.206784 0.358294 -0.00632705 0.340132 -0.180585 -0.0804803 0.555667 0.542251 -0.109773 0.567521 0.160248 0.343333 -0.200386 -0.196994 0.319166 -0.0801816 -0.364699 0.374147 0.414391 0.0834445 0.404154 0.0486695 -0.21815 0.239692 -0.500638 0.287843 0.731864 0.00783996 -0.381025 0.122266 -0.0527477 -0.142881 0.280051 0.0141722 -0.305344 -0.343544 -0.0351081 -0.262189 -0.294445 0.247968 0.268541 -0.408006 0.272402 0.41442 -0.214901 0.287321 -0.417448 -0.424632 -0.0155312 -0.259229 -0.615059 0.290302 0.217688 -0.0744355 0.00602226 -0.0190312 -0.0284367 0.0768488 0.347385 0.0981705 -0.72086 0.0729058 0.216145 -0.640964 0.231995 0.336683 -0.126938 -0.231983 -0.120945 -0.111603 -0.555581 -0.19152 -0.352712 -0.10159 0.169492 -0.0245572 0.358915 0.0866725 -0.62402 -0.736397 0.14412 0.060377 -0.216629 0.034801 -0.454725 0.117975 0.398631 -0.454046 
42 -0.233342 0.104072 -0.168156 -0.209511 -0.368007 -0.926328 -0.0734427 0.26752 0.0806991 0.587439 -0.474493 -0.114988 0.0213075 -0.484423 -0.122144 -0.818216 -0.0418072 -0.103353 -0.00349502 0.202858 -0.714106 0.0405144 0.424722 -0.278879 0.553438 -0.267476 0.243159 0.395658 0.595604 -0.111524 -0.982956 0.0446867 -0.00487471 0.460362 -0.0101291 -0.360834 1.05757 0.145943 -0.122485 0.00316982 0.759958 0.256352 0.418142 0.423041 0.160547 0.0746085 0.273654 0.736818 -0.384275 0.295158 0.11171 0.389761 0.0388164 -0.0761244 0.397554 -0.0260308 0.0565236 0.215742 0.591177 0.0730731 0.501899 0.304585 -0.537044 0.717315 0.170598 0.236501 -0.114378 0.0559489 -1.0015 -0.0328294 0.0694666 -0.081113 0.109207 0.266962 -0.37054 -0.535893 0.448869 -0.080971 -0.0548376 -0.471833 0.20485 -0.253869 0.0315146 0.445377 0.218038 0.240881 0.791765 -0.693869 -0.120345 -0.176054 -0.326977 -0.349815 0.370221 0.377799 0.429247 -0.263106 0.079269 -0.242323 0.398744 0.415385 -0.144867 0.117228 -0.222569 -0.0916509 0.343503 -0.196663 -0.683963 0.175088 0.0657589 -0.22307 0.0579579 -0.497031 -0.109038 0.973986 -0.0392557 0.227302 -0.637906 -0.384367 -0.742928 -0.451025 -0.127163 -0.678963 0.17038 -0.433391 -0.286937 -0.439804 0.226627 -1.01849 
43 0.624593 0.245827 0.53954 0.181114 -0.356754 -0.735055 -0.304307 -0.975124 -0.507944 0.0439295 -1.06386 0.446924 0.303261 -0.189139 -0.055806 -0.74936 -0.0058486 -0.30214 -0.249485 0.548208 -0.109579 0.616012 1.10948 0.574746 0.411792 -0.00573502 0.0857534 0.82211 0.519307 -0.205505 -0.386957 0.549362 -0.512908 0.864357 0.32987 0.250111 0.659709 0.23051 -0.0267152 0.803874 0.554571 -0.275652 -0.264597 0.301392 -0.0984038 0.58439 0.549106 0.936334 -0.347005 0.387171 -0.253136 0.379197 -0.553987 -0.311238 0.293687 0.242739 -0.969166 0.594918 0.658902 -0.116074 0.1978 -0.0248539 0.252085 0.321795 -0.275766 0.450836 0.44534 -0.462778 -0.350885 0.0378518 -0.459832 -0.0654375 -0.058032 0.221892 -0.340681 0.164084 0.389875 -0.0457044 -0.823709 0.0703251 0.297357 -0.782533 -0.400792 0.834709 -0.749413 -0.0666211 0.229322 -0.115883 -0.505036 -0.515616 -0.235598 0.092589 -0.0342256 0.143458 0.233269 -0.189705 -1.13499 0.183409 0.0895124 -0.618182 -0.424701 0.193228 0.00224999 -0.370449 0.391408 0.128781 -0.241145 -0.228486 0.210143 -0.63252 0.0323314 -0.479439 -0.200455 0.0596678 -0.622947 0.124762 -0.120393 0.15668 -0.254698 -0.894405 0.409578 -0.47469 0.166134 -0.426199 0.385295 -0.06424 0.273061 -0.493343 
44 -0.19128 0.0571954 0.557041 0.310484 -0.0895922 -0.492995 -0.0716755 -1.02724 0.0302488 0.0842049 -0.493731 -0.48351 0.833952 0.0195122 0.210018 0.0693561 0.547245 -0.523365 0.281923 0.178189 -0.869525 0.223805 0.652871 -0.0925881 -0.0165363 -0.348403 0.321971 0.0377296 0.164392 -0.541525 -0.153448 0.215646 -0.649298 0.544141 0.517909 -0.111565 0.897305 0.358259 -0.341981 0.338825 0.230527 0.403271 0.0786186 0.244142 0.164321 0.0701257 0.576185 0.631662 -0.176073 0.506704 0.222307 -0.100948 -0.356406 -0.249539 0.615527 -0.239381 0.22838 0.0656035 0.272893 0.195223 0.369574 -0.181734 0.0784993 0.456912 0.31063 0.198171 0.258164 -0.0280782 -0.621891 0.426972 0.407072 -0.35488 0.104195 -0.354431 -0.0161785 -0.374971 1.03297 0.535985 0.132495 0.220744 0.144215 -0.415448 -0.0479634 -0.172609 0.0931847 0.133969 0.130206 0.286588 -0.62217 -0.51608 -0.602141 -0.168459 0.0896969 -0.0832134 0.0364364 -0.349746 -0.499986 0.00625742 0.224562 -0.483141 0.0237334 0.236075 -0.0189437 -0.0604366 -0.447897 -0.0918966 -0.518944 -0.0479406 0.352501 -0.337337 -0.0848648 -0.793949 -0.428053 0.505737 -0.38515 0.332366 0.0882205 0.00555305 -0.100124 -0.461276 -0.208199 0.149766 0.0042502 -0.168097 -0.312224 -0.704078 -0.0646136 -0.655728 
45 0.229276 0.338443 0.60537 -0.00353967 0.0932751 -0.391467 0.0451066 0.0406332 -0.28337 0.538768 -0.606163 0.00121666 0.0719278 -0.0332612 0.410162 -0.33566 0.264164 -0.161583 -0.235358 0.197025 -0.605836 0.476219 0.521395 0.281262 0.230145 0.215257 -0.0289323 0.552379 0.627957 0.00989412 -0.0222427 0.424213 -0.192825 0.450472 -0.174412 -0.00577619 0.473442 0.0461863 0.214226 0.300135 0.3751 -0.00997755 0.470608 -0.0607943 0.139097 0.163041 0.240943 0.67099 -0.0680874 -0.0614682 0.327771 0.0276713 -0.0918943 -0.0941951 -0.0667096 0.0280465 -0.504523 0.284191 0.306967 0.108915 0.101137 -0.177716 -0.184476 0.57412 0.107651 0.132397 0.314267 -0.365715 -0.233241 -0.0374669 -0.3149 -0.378532 -0.172357 -0.282085 -0.163592 0.200959 0.0761011 0.0646748 -0.329903 0.1208 0.0945406 -0.240973 -0.545952 0.323075 -0.204862 0.387208 0.406347 -0.29226 -0.498805 -0.232995 0.0177519 0.0875043 -0.0592013 0.0314775 -0.0900089 -0.160428 -0.646274 0.187379 0.528519 -0.189292 -0.468418 -0.382508 0.288107 -0.200775 0.396232 0.0776683 -0.0545986 -0.59176 0.0824672 -0.371974 0.173348 -0.353482 -0.129297 -0.038995 -0.103874 0.213957 -0.460403 -0.426563 -0.0717889 -0.92782 0.354105 0.000695955 -0.0200539 -0.354779 -0.00653393 -0.496489 0.140961 0.0619185 
46 0.601896 0.25401 0.570694 0.155631 -0.326969 -0.756476 -0.251483 -0.964443 -0.55882 0.0756187 -1.0409 0.475676 0.352022 -0.19312 -0.0482037 -0.733772 -0.0193619 -0.298268 -0.217807 0.537328 -0.113958 0.53056 1.11658 0.504349 0.386187 -0.0328058 0.121681 0.780025 0.48918 -0.201035 -0.449104 0.581179 -0.515408 0.811004 0.342768 0.309967 0.636807 0.223216 -0.083102 0.793641 0.612104 -0.284477 -0.31755 0.302688 -0.14516 0.597033 0.554175 0.979416 -0.32197 0.379821 -0.28753 0.428948 -0.538409 -0.248677 0.287038 0.250964 -1.02499 0.634488 0.713563 -0.0886878 0.174042 -0.109164 0.267013 0.394002 -0.271944 0.421309 0.449335 -0.406526 -0.305253 -0.00987259 -0.474885 -0.0625129 -0.0789537 0.258509 -0.341293 0.175133 0.408942 -0.0385697 -0.787672 0.111164 0.345328 -0.792857 -0.411803 0.780101 -0.775894 -0.135382 0.210571 -0.120685 -0.451309 -0.557227 -0.309548 0.102972 -0.112827 0.180588 0.209246 -0.214543 -1.12641 0.181386 0.0996381 -0.575909 -0.424264 0.220821 -0.000403877 -0.414043 0.337128 0.0999043 -0.303279 -0.265388 0.169674 -0.63358 0.0488059 -0.469536 -0.203923 0.0888097 -0.66257 0.100118 -0.083033 0.142687 -0.237558 -0.877573 0.445011 -0.432184 0.163282 -0.409457 0.357205 -0.118573 0.327372 -0.430602 
47 0.318579 0.21671 -0.107172 0.0250459 -0.269116 -0.6535 0.00827638 -0.350672 -0.0408541 -0.223715 -0.609548 -0.0231068 0.143467 0.19397 -0.162199 -0.711876 0.166852 -0.172808 -0.128134 0.266323 -0.485674 0.25809 0.837471 0.419052 0.0598812 -0.323597 0.353825 0.252364 0.374749 0.265003 0.0281042 0.00455071 0.218955 0.544518 -0.471905 0.250034 0.34374 0.141033 -0.00528353 0.669234 0.225359 -0.0268028 -0.101966 0.482182 0.327723 -0.341089 0.467206 0.924259 -0.383628 0.435626 0.323249 -0.0825442 -0.0012091 -0.473857 0.1192 -0.0280545 -0.382351 -0.122895 0.410317 0.0614984 0.260872 -0.315163 0.750995 0.195377 0.149581 -0.446215 0.241148 0.180589 -0.124962 0.523744 0.214623 -0.487806 0.248471 -0.123454 0.0676977 0.145831 0.648572 -0.0754396 -0.15429 0.206035 0.686329 -0.136391 0.0261159 0.358115 -0.205594 -0.130673 0.0064595 -0.101163 -0.0630091 -0.22293 -0.583982 0.0900938 -0.287575 -0.108775 0.102622 0.123959 -0.185461 -0.0551932 -0.108695 -0.00119483 -0.324826 0.0220494 0.350373 -0.044139 -0.0426677 -0.136456 -0.224905 0.00750788 -0.120997 -0.253507 -0.101094 -0.104999 -0.191153 0.633976 -0.578485 -0.336581 -0.0757508 -0.559922 -0.309041 -1.06942 0.132188 -0.174237 -0.304889 -0.0778461 0.284152 -0.14091 0.350789 -0.646812 
48 0.243526 0.187538 -0.326398 0.122931 -0.519088 -0.140583 0.172957 -0.405661 0.121071 -0.306757 -0.55097 -0.314523 0.301647 -0.214023 0.348947 -0.147278 0.1923 -0.901479 -0.0704096 -0.190193 -0.623395 -1.08731 0.192207 -0.336287 1.27392 0.20954 0.764038 0.80093 0.349639 -0.526668 -0.828791 0.0814125 0.670583 0.0785174 0.551376 0.651575 0.0811522 0.213615 -0.0989064 -0.275191 0.922495 0.522132 0.156892 -0.0712064 -0.480452 0.56296 0.562626 1.10875 -0.668332 0.325894 -0.264965 -0.22975 -0.298054 0.628991 -0.326907 -0.46537 -0.381257 0.244328 0.35733 -0.0259798 0.231339 0.0968869 0.0359276 1.18314 0.236987 -0.0511219 0.154754 -0.097272 -0.11982 0.412414 0.589811 -0.00930608 -0.0465186 -0.261315 -1.26408 -0.343467 0.546619 0.29024 0.30393 0.0818645 1.06247 -0.344175 -0.0338247 0.418792 -0.573792 0.48035 0.224091 -0.34002 -0.27831 -0.321088 -0.935122 0.0734994 0.00427829 -0.548368 0.292128 -0.0222376 0.21259 -0.094317 0.936557 0.36619 -0.649225 -0.349405 0.358022 -0.352231 0.117638 -0.110755 -0.232087 -0.220637 0.447455 -0.357208 0.388595 -0.326327 -0.424832 0.535614 0.100391 -0.322419 0.243447 -0.556374 0.220219 -1.38921 0.324893 0.2949 0.203095 -0.0395285 0.0397862 0.192634 0.0641383 0.00287036 
49 0.579789 0.268042 0.566588 0.158375 -0.314836 -0.762897 -0.270781 -0.976377 -0.54386 0.0896459 -1.02085 0.473497 0.377899 -0.214873 -0.0392439 -0.772326 -0.0306336 -0.316192 -0.253851 0.475499 -0.0911485 0.540846 1.07415 0.540483 0.458425 -0.0519077 0.126649 0.777511 0.533485 -0.231463 -0.383812 0.59396 -0.512492 0.848956 0.303263 0.282329 0.674216 0.199902 -0.0773311 0.803275 0.60459 -0.290986 -0.299561 0.309283 -0.0976129 0.552712 0.52686 0.924087 -0.331261 0.447992 -0.224906 0.344156 -0.493598 -0.309247 0.331771 0.251275 -1.02092 0.626427 0.680256 -0.0979307 0.163158 -0.122081 0.181921 0.358492 -0.278985 0.420305 0.440969 -0.397346 -0.337718 0.0306512 -0.439614 -0.049171 -0.0944773 0.222185 -0.288973 0.185289 0.426051 -0.0539682 -0.829342 0.0610093 0.366239 -0.835912 -0.422759 0.768697 -0.771264 -0.130654 0.229161 -0.118072 -0.495181 -0.469894 -0.273023 0.066638 -0.0897454 0.183307 0.208489 -0.1645 -1.14589 0.213945 0.151059 -0.611581 -0.396503 0.240796 -0.0465506 -0.381209 0.407362 0.128853 -0.266993 -0.269124 0.201824 -0.645355 -0.0132645 -0.504899 -0.168657 0.0502836 -0.684547 0.163456 -0.132156 0.199872 -0.209705 -0.910733 0.444406 -0.414716 0.169748 -0.379076 0.347064 -0.113554 0.296752 -0.409201 
50 0.020438 0.303241 -0.0291636 -0.138564 -0.0148049 -0.384396 0.0209122 -0.19028 -0.209767 0.0824447 -0.247808 -0.123038 0.332054 0.131403 -0.0434477 -0.380452 -0.0912332 -0.293836 -0.209419 0.478838 -0.552227 -0.172763 0.278191 0.0976533 -0.0473516 -0.210904 0.326293 0.108752 0.129267 -0.0630211 -0.00284773 0.0431143 0.115407 0.754301 -0.241191 0.0733405 0.868169 0.393679 0.0644899 0.0275505 0.0749931 0.210664 -0.058357 -0.199339 -0.049971 -0.0636108 0.219078 0.353379 -0.451829 0.105658 -0.0603425 0.402293 -0.187397 0.283101 0.566485 -0.0754927 -0.527982 -0.0968774 0.404142 -0.361398 0.203956 -0.131817 0.0993151 0.303408 -0.164782 -0.178611 0.553949 -0.159239 -0.446395 -0.0922539 0.189619 -0.313249 0.166508 0.513901 0.221215 -0.211251 0.414656 0.194579 -0.420495 0.0670751 0.591435 -0.188462 0.149498 -0.11261 0.118132 -0.190885 -0.0274138 -0.125718 -0.0744447 0.122156 -0.461652 0.160203 -0.376915 -0.416399 0.0352425 0.0709508 -0.286544 0.178812 0.106101 -0.0724123 -0.116936 0.342976 0.230161 -0.105253 0.172215 0.276744 -0.368892 0.143505 -0.176506 -0.13883 0.268828 0.113796 0.0354971 0.368473 -0.500038 -0.465985 -0.192944 -0.193822 -0.448397 -0.400116 0.52348 0.0567325 -0.281293 -0.290738 -0.264567 -0.367219 -0.0357389 -0.52804 
51 -0.132078 0.0069154 -0.952214 0.118034 0.134216 -0.014398 0.671828 -0.301204 0.474299 0.215574 0.583888 -0.903108 1.03659 -0.27979 0.848472 -0.518991 0.416579 0.0508041 0.669685 0.440189 -0.889938 -0.801784 0.071088 -0.0861588 0.1822 -0.307549 1.05859 -0.18726 0.112956 -0.133979 -0.431545 0.411847 0.612682 0.342322 0.0300637 0.126977 0.78434 0.424886 -0.0510172 -0.526284 1.3107 0.457516 0.329923 -0.531465 -0.0974781 -0.324618 0.619245 1.01638 -0.903824 -0.581237 -0.440952 0.123874 -0.589544 0.373653 -0.0129491 -0.81836 0.0153238 -0.24805 0.648455 -0.157355 -0.308176 -0.368357 0.127018 0.690897 0.276773 -0.0675087 0.346914 0.785675 -0.615656 0.28136 0.322734 -0.94175 -0.228615 0.669811 -0.713759 -0.946374 0.94811 0.259643 0.607774 0.0275075 1.55269 0.101338 0.477144 -0.139246 0.385891 0.0623048 0.190798 -0.352364 -0.33848 0.118125 -0.836455 -0.609871 0.0636808 -0.405565 -0.036506 -0.130312 0.521346 0.218356 0.626276 0.400181 -0.245356 -0.111093 -0.37866 -0.352965 0.289254 -0.0843083 0.157052 0.190237 0.805332 -0.0611589 0.521935 -0.129507 -0.476926 0.386275 0.543255 -0.725349 -0.323738 -1.25403 0.0369022 -0.947752 0.640841 0.112399 -0.631205 -1.05316 -0.183653 -0.284973 0.288707 -0.659378 
52 0.117291 0.279255 0.0435332 -0.0749052 -0.390443 -0.61741 -0.168949 0.0662208 -0.114173 0.36776 -0.403992 0.0904222 0.0523507 -0.197335 -0.142026 -0.558432 -0.228111 -0.221278 -0.0530681 0.3483 -0.399702 0.264979 0.425568 0.0342915 0.141663 -0.31956 0.102134 0.240968 0.517508 -0.314879 -0.860533 0.261634 -0.0728489 0.438728 0.0208286 -0.328403 0.757484 0.145019 -0.175466 0.153073 0.580211 0.106139 0.185028 0.351797 0.243735 0.215668 0.0152996 0.580718 -0.24166 0.0991392 -0.154229 0.466717 0.050142 -0.100911 0.23456 0.145243 -0.227112 0.146769 0.334696 -0.0827086 0.265115 0.159586 -0.31922 0.536685 -0.048712 0.277586 -0.0148921 -0.030822 -0.462567 0.103172 -0.114434 0.0169996 0.0318659 0.365256 -0.124987 -0.0816025 0.287187 0.0653059 -0.304532 -0.302746 -0.0446703 -0.398717 -0.0269977 0.598715 -0.153684 0.0617416 0.557516 -0.489667 0.0268349 -0.250045 -0.182926 -0.204596 0.291905 0.292287 0.28027 -0.27088 -0.220857 -0.105098 0.245152 -0.00393828 -0.0998509 0.017573 -0.176557 -0.0880481 0.139835 -0.0251466 -0.349607 0.10217 -0.00442018 -0.211443 0.0203677 -0.315918 -0.0751091 0.571171 -0.0425362 0.104917 -0.434539 -0.220358 -0.433091 -0.284108 0.0042483 -0.603187 0.0962318 -0.370052 -0.211792 -0.282002 0.216404 -0.658272 
53 0.231784 0.201349 0.29655 -0.0547864 0.168084 -0.362001 -0.0904427 -0.20729 -0.137993 0.480832 -0.426962 -0.292498 0.228967 0.0116934 0.289897 -0.410652 0.231256 -0.239214 -0.0193555 0.220389 -0.367608 0.0665396 0.242999 0.0192851 0.0987103 0.202541 -0.121066 0.375992 0.316985 -0.10635 -0.0453401 -0.0163498 -0.314453 0.447542 0.0307371 0.179719 0.4165 -0.0781897 -0.116517 -0.0395664 0.257847 -0.147303 0.621644 -0.12111 0.458667 0.207466 0.357991 0.681226 -0.11487 0.276839 0.0623408 -0.096566 -0.28222 0.0236256 -0.0122145 0.0635435 -0.120398 0.0779237 0.181378 0.289904 0.193283 -0.0773694 -0.0557467 0.172149 0.287436 0.0499938 -0.184922 -0.423583 -0.0620566 0.0577348 -0.284102 -0.0697589 0.113495 0.118461 -0.0791604 0.336015 -0.034973 0.0686146 -0.0335638 -0.00452669 0.29961 0.0983819 -0.519307 0.0870401 -0.297707 0.148738 0.284895 -0.152768 -0.358455 0.0170006 0.0225183 0.344314 0.217248 0.065398 -0.131945 -0.033937 -0.366017 0.0460424 0.20347 0.0812464 -0.18421 -0.257145 0.104572 -0.353097 -0.164909 -0.0107771 -0.0798774 -0.0435874 0.228126 -0.263211 -0.0512429 -0.211657 -0.373944 0.188421 0.0591034 -0.0226082 -0.300662 -0.491116 0.173256 -0.578495 0.0735127 -0.160178 0.0822302 -0.400619 -0.336962 -0.518954 0.156032 -0.089238 
54 -0.179429 0.439561 -0.820104 0.391363 -0.0899378 0.166151 0.800588 -0.308816 -0.00375202 0.175708 0.140845 -0.704434 0.433954 -0.11839 0.536068 -0.629948 0.323735 -0.91339 -0.104058 -0.0854832 -1.12947 -1.12132 -0.334688 -0.362596 1.21955 0.443383 1.0757 0.380333 0.143545 -0.296772 -0.306611 0.0386783 0.687959 -0.0908014 0.243078 0.426335 -0.0568166 -0.0619703 -0.125201 -0.481457 1.37687 0.906066 -0.23295 0.176144 -0.374932 0.464428 0.119771 1.03831 -0.680043 -0.210267 0.0281888 -0.0270622 -0.187594 0.576287 -0.555954 -0.803191 -0.0992595 0.310456 0.0600457 -0.111745 -0.39659 0.232843 -0.0156911 1.44963 0.0828167 -0.151435 0.472921 0.532319 -0.427723 0.512897 0.338101 -0.0691956 0.363614 -0.0403217 -1.1908 -0.641088 1.06962 0.234042 0.68012 0.0912699 1.3556 -0.0871268 0.125031 0.0549667 -0.394257 0.37184 -0.291651 -0.0400822 -0.0110319 -0.496926 -1.1419 -0.699102 -0.346566 -0.824508 -0.0372629 -0.389468 0.381928 -0.0988257 0.737496 0.609861 -0.74626 -0.306171 0.342021 0.100878 0.268887 -0.220872 0.157978 -0.112077 0.753654 -0.294186 0.207093 -0.186115 -0.494131 0.793459 0.569523 -0.551966 0.486913 -1.26284 -0.620257 -0.842922 0.291136 0.312057 -0.0118212 -0.0794104 -0.597688 -0.00609731 0.42209 -0.463787 
55 0.227724 0.14627 -0.214379 -0.00999519 -0.0751161 -0.961847 -0.185273 0.0235639 0.18539 0.177042 -0.230727 -0.425185 0.560227 0.104728 0.0584023 -0.134496 0.13558 -0.230559 0.0199424 0.31791 -0.751734 -0.0467229 0.510324 0.647606 0.207398 -0.166409 0.531853 -0.0685234 0.204919 -0.27813 -0.464339 0.368838 -0.566118 0.756032 0.268125 0.202389 -0.0235796 0.232327 0.121022 -0.183082 0.741803 0.404937 0.209284 0.0145736 -0.468143 0.0822744 0.54975 0.45278 -0.199599 0.362485 0.727166 0.145175 0.0958915 -0.424682 0.619922 -0.0924737 -0.317617 -0.0557467 0.551665 -0.198046 0.492221 0.234764 -0.242693 0.139948 -0.353753 0.0625003 -0.0243782 0.295297 -0.419494 0.187151 -0.279987 -0.0537597 -0.445629 -0.276348 -0.115386 -0.209761 0.504556 -0.186849 0.0286849 -0.25657 -0.167111 0.0752627 0.0480293 0.424987 -0.670389 -0.113064 0.741344 -0.413147 -0.022503 -0.221918 -0.508904 -0.448768 -0.0895468 -0.37731 -0.341432 -0.137149 -0.298318 -0.106513 0.639341 -0.553567 0.237726 -0.0754979 0.159018 -0.0901497 0.204186 -0.183442 -0.20924 0.33011 -0.16857 -0.143659 0.530352 -0.121512 -0.493326 0.763263 -0.38581 -0.474384 -0.0248039 -0.182576 -0.240345 -0.535221 0.0864928 -0.0187366 0.112938 -0.2591 0.140256 -0.184418 0.0527129 -0.15097 
56 -0.0438068 -0.191149 0.201302 0.2907 0.159125 0.524047 -0.517436 -0.458686 0.25369 0.809787 -0.103486 0.138925 0.322774 -0.403982 0.410015 -0.73684 0.287605 0.306463 0.306352 0.348696 -0.181536 -0.431404 0.746377 0.178594 0.0849984 -0.31163 0.805771 0.568273 0.647785 -0.166812 -0.325588 0.0922327 0.104229 0.391188 0.101386 -0.573137 0.890129 0.716038 -0.148197 0.394635 0.471688 0.0733671 0.0316854 0.277004 -0.0580656 -0.299174 0.454523 0.466471 -0.270104 0.177431 -0.0365024 -0.0348965 -0.502091 -0.363632 0.96191 -0.161087 -0.154557 0.315677 0.369075 0.27493 0.444339 0.0680355 -0.00845233 0.449411 0.04797 0.441015 -0.00462604 -0.333258 0.054268 -0.271559 -0.517298 -0.180174 0.545134 0.255216 -0.266672 0.39221 0.0172566 -0.224104 -0.193459 -0.0185338 0.987587 -0.231787 -0.126328 0.401274 -0.520255 0.0239251 0.532371 0.0055706 -0.153832 -0.379004 -0.368974 -0.34323 -0.158594 -0.34482 0.397999 0.140285 -0.409353 0.0307173 0.540972 0.190339 -0.345849 -0.476602 -0.563065 -0.418641 0.322026 -0.380907 -0.914462 -0.237221 -0.169968 0.120022 0.416611 -0.279896 -0.0361882 0.305824 -0.874629 -0.0815923 -0.845271 0.510556 0.0994759 -0.646918 0.448569 -0.0341002 -0.0613908 -0.0537344 -0.0361366 -0.246359 -0.114917 -0.240339 
57 0.15066 0.0121524 -0.0775735 -0.00937673 0.278273 -0.265116 -0.489236 -0.475023 -0.225442 0.483691 -0.787987 0.356733 0.248711 -0.278728 0.309113 0.0951436 0.425755 0.121274 -0.318247 0.567937 0.028235 0.106534 0.873771 0.3449 0.680556 0.622912 0.32121 0.226027 0.349838 0.162564 0.00839913 0.290238 -0.487803 1.35693 -0.050368 -0.508876 0.327603 -0.0254459 0.055522 0.143947 0.317604 -0.266146 0.173824 0.535044 0.196038 0.464994 0.940262 1.20221 -0.106132 0.797899 -0.0168159 -0.0503041 -0.463545 -0.501304 0.112644 0.0104452 -0.302597 -0.0912702 0.759205 0.266747 -0.186096 0.20064 -0.0127152 -0.157208 0.138877 -0.188295 -0.278834 0.0334878 -0.703224 0.170821 -0.837723 -0.0378968 0.0418954 0.581879 -0.107148 -0.119931 0.711387 0.418343 0.302555 -0.116152 0.521323 -0.388628 -0.0369353 0.89104 0.00479514 0.247153 0.357849 -0.489937 -0.457657 -0.535034 -0.517238 0.0566427 -0.454311 -0.289474 0.4282 -0.848262 0.0676216 0.0154397 0.199285 -0.100761 0.099175 -0.038286 0.166123 -0.173246 0.148355 0.124251 -0.377088 -0.106146 0.965122 -0.181218 -0.909333 0.203166 -0.465317 0.592412 -0.528817 0.0204713 -0.197088 -0.277008 0.258687 -0.695883 0.54037 0.00898013 0.167897 -0.231387 -0.278111 -0.177506 -0.0138846 -0.22787 
58 -0.185206 0.31183 -0.833441 0.191145 0.276818 0.0487398 0.855525 -0.114636 -0.27547 -0.513407 -0.0743751 -1.04184 0.748639 -0.150327 0.634125 -0.378659 0.38455 0.0364286 -0.0169905 0.936006 -0.730048 -0.400458 -0.0237582 -0.0504149 0.523088 -0.0801862 0.669969 -0.158847 -0.302092 -0.109318 -0.435783 -0.112551 0.860126 -0.115178 -0.228121 0.097103 0.669851 0.129745 -0.0985082 -0.752105 1.39316 0.775756 0.109635 -0.252282 0.0045803 -0.22799 0.527406 0.547162 0.0934221 -0.0181325 -0.223709 0.13067 -0.728253 0.77577 -0.706171 -0.869279 0.00949629 -0.169315 0.300492 -0.270155 0.0372685 -0.39994 0.220009 0.860715 -0.203121 0.623423 0.256735 0.265453 -0.194479 0.595611 0.976689 -0.124483 -0.628669 0.229079 -0.658794 -0.292898 1.0408 0.771461 0.373209 0.0919632 0.98516 -0.161454 -0.1485 -0.782767 0.172682 0.288615 -0.205369 -0.270447 -0.174513 -0.196959 -1.21796 -0.385574 -0.214466 -0.685 0.192807 0.150048 -0.039608 -0.0728114 0.343062 0.327314 -0.713093 0.089454 0.116465 -0.276195 0.172126 -0.160934 -0.011381 0.185594 1.0036 0.127368 0.296148 -0.241309 -0.625856 0.525212 0.503917 -0.753758 0.415609 -0.526593 -0.120417 -0.612648 0.456837 -0.180721 -0.468606 -0.529243 -0.153622 -0.101532 -0.366192 -0.540671 
59 0.523057 0.316994 0.55645 0.265779 -0.0936977 -0.765496 -0.333007 -0.73636 -0.671648 -0.0360455 -1.16165 0.467848 0.169648 -0.0787907 -0.0708373 -0.762882 0.102932 -0.170969 -0.230726 0.406821 0.028037 0.436324 1.06357 0.36313 0.309842 0.114556 0.121011 0.571292 0.495224 -0.194053 -0.349349 0.321171 -0.563106 0.775204 0.516933 0.344485 0.682115 0.192418 -0.0360124 0.815768 0.552846 -0.247884 -0.42432 0.304693 -0.0819489 0.491728 0.521847 1.18832 -0.401054 0.267417 -0.301482 0.411836 -0.529404 -0.322517 0.286461 0.341881 -0.975974 0.545914 0.563844 0.143894 0.0234819 0.0230793 0.210628 0.460599 -0.410499 0.42771 0.294161 -0.444905 -0.299097 -0.199831 -0.623207 -0.0499927 -0.330504 0.0577843 -0.220895 -0.018079 0.393994 0.024225 -0.759351 0.0840713 0.501905 -0.70631 -0.547002 0.766906 -0.859271 -0.172385 0.324828 -0.0878639 -0.265976 -0.742085 -0.266372 -0.0201416 -0.142724 -0.0424665 0.192615 -0.306661 -1.03972 0.352512 0.291404 -0.62349 -0.295163 -0.00052689 -0.0401437 -0.528712 0.43173 0.0803079 -0.213139 -0.454145 0.270589 -0.666732 -0.13645 -0.438363 -0.0253754 -0.00763766 -0.73219 0.0844385 0.0240283 0.148511 -0.235346 -1.05431 0.489367 -0.42557 0.220363 -0.457858 0.159654 -0.0156753 0.346996 -0.112421 
60 0.194211 0.281448 -0.0276937 0.239745 -0.565752 -0.141576 -0.0761988 -0.173586 -0.227046 0.229648 -0.867833 -0.248746 0.457279 -0.0283232 0.0282998 0.0693866 -0.0297139 -0.667348 -0.000170928 0.0919802 -0.0552423 -0.473123 0.239255 -0.103313 0.817748 0.155694 0.380596 0.651009 0.10852 -0.265153 -0.433794 -0.0264354 -0.0718963 -0.0636979 0.192615 0.315536 0.0012329 0.267203 0.0266428 0.23293 0.768731 0.442096 0.191189 0.23285 -0.251373 0.196297 0.255862 0.716426 -0.341862 0.49937 0.0533813 -0.318404 -0.389323 0.265437 -0.238743 -0.320198 -0.195941 -0.139968 0.439319 -0.206402 0.453913 0.219663 -0.305467 0.353534 0.193598 0.173982 0.015492 -0.111268 0.0590389 0.0846599 0.090877 0.247248 0.00529457 -0.144041 -0.682379 0.144491 0.248145 -0.143066 -0.038725 -0.0282113 0.505617 -0.401261 -0.337545 0.144913 -0.462561 0.0784961 0.0315033 -0.228739 -0.4853 -0.334668 -0.616761 -0.0764578 0.334908 -0.397775 0.324224 0.0188365 -0.404853 0.209903 0.417067 0.0460708 -0.6577 -0.121014 0.467915 -0.185096 0.106295 -0.140307 -0.444868 -0.247201 0.305998 -0.258137 0.0192362 -0.38012 -0.474192 0.396082 -0.518702 0.197178 0.30571 0.000593169 -0.0863481 -0.498977 0.0407062 0.0699664 0.040861 0.379888 0.135593 -0.0330927 0.203513 -0.162294 
61 0.130834 -0.173778 -0.519896 0.0380452 -0.561319 -0.324808 -0.0906775 -0.383107 0.0792107 -0.0427437 -0.874068 0.494194 0.0796378 0.314795 0.393777 -0.890122 -0.00633839 0.0504428 0.387519 0.539593 -0.0856911 0.122811 0.642427 -0.193078 0.147579 -0.463649 0.445766 0.540147 -0.258775 0.224134 0.250793 0.171055 -0.389019 0.995873 0.216967 0.536648 0.50248 0.211815 -0.195676 0.285811 0.340056 0.244608 -0.0700925 0.220654 0.304211 0.234956 0.810691 0.726714 -0.449607 0.168575 -0.0991769 0.592442 0.0325697 -0.18596 0.597928 0.0130144 -0.364946 0.243632 0.687905 -0.0609191 0.466249 0.710565 0.424255 0.372612 0.282047 -0.158858 -0.105129 -0.254897 -0.397487 0.0222749 0.103552 0.108074 -0.0425522 -0.124373 -0.0506148 -0.0722874 0.577821 0.106396 -0.0458883 -0.285637 -0.0517029 0.17887 0.097335 0.319269 -0.136394 0.00790781 -0.144155 -0.0696297 -0.415906 -0.531654 -0.642339 -0.467697 0.165712 0.281138 -0.221104 -0.0787854 -0.372235 -0.0982083 -0.49188 0.304871 -0.401927 0.667272 0.188897 -0.141577 -0.0471976 -0.228166 -0.141059 0.268637 -0.103081 -0.698241 0.221286 -0.354522 -0.660356 0.077388 -0.140133 0.0954945 -0.100091 -0.416417 -0.488998 -0.983216 0.0651008 -0.251066 -0.0480763 -0.0603121 0.459818 0.0729349 0.0294179 -0.785118 
62 -0.177908 -0.0353376 0.176753 -0.0669256 0.0339942 -0.126639 0.114355 -0.156843 -0.261519 0.221567 -0.202249 -0.27412 -0.0466294 -0.412563 0.61022 -0.649128 0.175102 0.00311411 0.178744 0.711789 -0.520797 0.333839 0.778551 -0.0892051 0.450984 -0.0295563 0.68252 0.371243 0.133369 0.284419 -0.0690631 -0.408663 0.539026 -0.0845533 -0.188955 -0.417561 0.654489 -0.0485437 -0.295047 -0.00346398 0.319916 0.566638 0.386911 0.232048 -0.100792 0.103146 0.688708 0.716835 -0.296376 0.209242 -0.200751 -0.476865 0.556505 -0.551121 0.288813 -0.44449 -0.104037 0.0117615 0.17373 -0.0379277 0.0578065 0.1205 0.618255 0.155952 0.131628 0.276018 0.349705 0.379877 -0.364667 -0.141937 -0.0701089 -0.336 0.469891 -0.249808 -0.206707 -0.60178 -0.238276 0.119707 0.0986453 -0.275337 0.733059 0.573646 0.100444 0.210536 -0.0106353 -0.097464 -0.154638 0.124599 -0.0474248 -0.686453 -0.671818 -0.389687 -0.224902 -0.259492 -0.451479 -0.56046 -0.663904 0.558071 0.124685 0.129639 -0.198127 -0.137786 -0.568024 -0.120305 0.248843 0.154525 -0.0262375 0.361947 0.215724 -0.383141 0.141307 -0.0133233 -0.128743 0.275423 -0.259691 -0.488325 0.146648 -0.609432 -0.187646 -0.331519 0.382698 0.0386579 -0.487127 -0.173537 0.228218 0.22292 -0.284595 -0.469258 
63 -0.250279 -0.163189 0.0210616 0.430117 0.168597 -1.00654 -0.0114281 -0.956639 0.0677743 0.15216 -1.26754 -0.773774 -0.146142 -0.507322 -0.0350145 -0.638341 0.743305 -0.339006 0.0135725 0.255227 -0.838778 0.554328 0.671726 -0.0359549 -0.116822 0.493855 0.743156 0.459385 0.246654 -0.120678 -0.30325 -0.441519 -0.0913665 0.635365 0.130751 -0.201951 0.935649 0.14331 0.266262 0.374617 0.261901 0.564856 -0.190263 0.206205 0.0941219 0.170966 0.788065 1.28297 -0.402204 0.11724 0.357401 0.00789225 -0.537384 -0.0636402 0.593574 -0.27843 -0.517346 0.509647 0.688872 -0.335714 0.515652 0.303236 0.389215 0.306116 -0.545775 0.584635 0.554313 -0.683315 -0.715887 -0.517861 -0.739767 0.179809 -0.268463 0.0912619 -0.417015 -0.436589 0.0615872 0.057732 -0.428846 -0.558038 0.33724 -0.243905 -0.175871 0.365988 0.180583 0.00377205 0.244902 -0.0441388 -0.179577 -0.102869 -0.493728 -0.219544 0.127478 -0.215157 1.05862 -0.160303 -0.158784 0.587498 0.631074 0.0655487 -0.468838 -0.0730414 0.229204 0.178648 0.00721935 -0.0820103 -0.499613 -0.101962 0.206401 -0.549382 -0.132148 -0.992575 0.0261243 0.49498 -0.558674 -0.382886 -0.699031 0.0363534 0.195053 -1.09931 0.159111 -0.574985 0.0881009 -0.821042 -0.209046 -0.139807 0.152782 0.143118 
64 0.121928 0.150257 0.142601 0.19756 -0.328324 -1.05327 -0.0796227 -0.0313189 -0.0601143 0.487315 -1.01832 -0.456895 -0.0440917 -0.164333 0.311772 -0.744932 0.182396 -0.418345 -0.358425 0.276828 -0.465433 0.473141 0.526852 0.0262917 0.300883 -0.0653643 0.31529 0.11985 0.85984 -0.40434 -0.647166 0.197825 -0.434976 0.867473 0.276876 -0.608673 0.73403 0.154544 -0.0488921 0.195566 0.464508 0.0603379 0.322602 0.102527 0.704992 0.203016 0.689032 0.870364 -0.482795 0.256825 0.434715 0.443845 0.0767209 -0.112625 0.216298 -0.316958 -0.125851 -0.201999 0.543835 -0.10864 0.774674 -0.175265 -0.449244 0.828117 -0.369573 0.211111 -0.0625318 -0.0566771 -0.532787 0.175921 -0.692286 -0.368757 0.194388 0.238349 -0.371194 -0.382395 0.162232 0.621491 -0.611724 -0.383409 -0.0619629 -0.288352 -0.232947 0.754599 -0.175909 0.172215 0.790356 -0.50819 0.0438728 -0.547013 -0.169318 -0.124975 0.148141 0.109327 0.50958 -0.217968 -0.478407 0.734391 0.834109 0.0753869 -0.282139 -0.560716 -0.330206 -0.144603 -0.269377 0.0982527 -0.264812 0.0631931 0.263552 -0.197624 9.89787e-05 -0.536217 0.158497 0.659247 -0.00996985 0.0733649 -0.837993 -0.256108 -0.210268 -1.0439 -0.0877633 -0.800369 0.46835 -0.621655 -0.664977 -0.760566 0.0848283 -0.0888168 
65 0.0094566 -0.0300933 0.248915 -0.336177 0.110633 -0.287467 0.290063 -0.537557 -0.616465 0.744125 -0.420252 0.0553327 -0.142514 -0.0536925 0.497478 -0.0309751 0.0839653 -0.498348 0.470519 0.597587 0.303305 -0.0391087 0.703042 0.704191 0.320201 -0.0993019 0.453785 0.176406 0.279499 -0.170574 -0.377384 -0.145513 0.183708 0.712682 -0.430379 -0.673592 0.607715 0.41131 -0.12677 0.152469 0.0610986 0.392129 0.462365 0.427335 0.00382484 0.0605635 0.671371 1.04284 0.0563977 0.780389 0.202778 0.0800052 -0.0828633 -0.0141134 0.632069 -0.847741 -0.71612 0.301459 0.899637 -0.000971665 0.511944 0.528488 0.433701 0.297868 0.471749 0.0887768 -0.034835 -0.316873 -0.62976 0.679368 -0.254141 -0.385188 0.211551 -0.368386 -0.449868 -0.907388 -0.319654 0.21487 0.586767 -0.347565 0.293943 0.567741 -0.721502 -0.0750482 -0.193722 0.69611 -0.0120069 -0.376654 -0.50908 -0.511287 -1.08612 0.306383 0.211184 -0.362945 -0.680821 -0.23264 -0.348444 -0.194002 0.816235 0.479233 -0.404464 0.22061 -0.675717 0.00152859 0.622812 0.36097 -0.664543 -0.349555 -0.016339 -0.102041 0.794428 -0.315255 -0.57721 0.385838 0.106633 -0.300453 -0.1606 0.0637374 -0.114599 -0.820288 0.407324 0.867902 -0.431954 -0.196252 0.00886548 0.382731 -0.0299162 0.104712 
66 0.00785984 0.0409663 0.00377285 0.0187286 -0.0696029 -0.134899 0.055164 -0.0925014 -0.0930302 0.0340395 -0.0641672 -0.0263916 0.188873 -0.0721083 0.0922208 -0.0725331 0.0501834 -0.00747191 0.0827554 0.130354 -0.0789156 -0.00245512 0.123294 0.00779695 0.0748556 -0.0197456 0.124992 0.105179 0.0848529 -0.0479225 -0.106841 -0.00570334 -0.0935561 0.115102 -0.0169138 0.0315773 0.182302 0.03281 -0.0600913 0.0389202 0.10362 0.0845422 0.0134045 -0.00387981 -0.0383731 0.0792842 0.20282 0.18594 -0.044919 0.0341092 0.00653607 0.0110929 -0.111235 -0.00658017 0.0361831 -0.120574 -0.101874 0.0965671 0.171289 0.00962037 0.0840783 0.052985 0.0205988 0.111933 0.0552778 0.0590502 0.0551966 -0.0442844 -0.0793263 -0.0051854 -0.0753665 -0.101275 0.0130033 0.0789101 -0.105867 -0.0750926 0.122657 0.00439429 0.0209202 -0.0653985 0.127269 -0.00487541 0.00998384 0.0237369 -0.0823812 -0.0120359 0.0556159 -0.058836 -0.0053334 -0.0776577 -0.184078 -0.00766582 -0.0485706 -0.044623 0.0533724 -0.0598556 -0.0727394 0.0371322 0.0308903 -0.0431439 -0.101337 0.0305187 0.00225124 -0.0530706 0.0651158 -0.00903781 -0.0495259 -0.0501759 0.058053 -0.0867838 -0.0221642 -0.060947 -0.14128 0.0743476 -0.0756315 -0.0192579 0.0459425 -0.0444699 -0.10006 -0.207573 0.0824159 0.0192012 -0.0182294 -0.00206414 -0.0458415 -0.0675108 0.0564571 -0.124297 
67 0.647334 0.385297 -0.570712 0.16158 -0.1027 -0.108651 0.161215 -0.382278 -0.131113 -0.212237 -0.273746 -0.275359 0.140277 -0.586945 0.632328 -0.214042 0.459655 -0.820852 0.206501 0.0713471 -1.05868 -0.862541 -0.0678258 -0.488881 1.23056 -0.305685 0.567966 0.299715 0.476644 -0.502007 -0.305608 -0.178248 1.00976 0.153035 0.361273 0.318096 -0.0247806 0.150888 -0.406158 -0.48885 1.13934 0.484227 0.264095 -0.622498 -0.279524 0.353179 0.828933 1.32787 -0.621481 -0.369252 -0.261885 0.359731 -0.471748 0.378727 -0.317854 -0.0912916 -0.342778 0.146484 0.69892 0.234186 -0.35655 0.0505355 0.275696 0.592593 -0.0514396 -0.0931581 0.668013 -0.0331681 -0.444868 0.406149 0.44117 -0.0643968 0.186303 0.0638395 -1.58701 -0.828948 0.948709 0.116186 0.632345 -0.0105187 1.16503 -0.415994 -0.0838676 0.0113946 -0.604975 0.486404 -0.313211 -0.435163 -0.215442 0.0468994 -0.578809 -0.335324 -0.517218 -0.130039 0.56621 0.18924 0.596169 -0.153173 0.58418 0.40229 -0.617399 0.0532854 0.121022 -0.171122 0.436505 -0.365879 0.271859 -0.221983 0.62165 -0.0671863 0.547118 -0.374049 -0.620566 0.126168 0.396776 -0.364073 -0.125841 -0.501744 -0.260936 -1.35344 0.706217 0.915644 0.219376 -0.394245 -0.203806 0.0916889 0.660769 -0.00369423 
68 0.109534 0.0586691 -0.110727 -0.25534 -0.0622611 -0.202607 -0.221037 -0.0645109 -0.146997 0.196379 -0.13577 -0.155752 0.0547023 0.0929982 0.139925 -0.128339 0.0687806 -0.00242599 0.0661718 0.198991 -0.218037 -0.00612215 0.10407 0.0882554 0.23164 -0.0295769 0.216406 0.0377789 0.0811629 -0.121549 -0.110748 0.172016 -0.18438 0.0679895 0.124499 -0.108772 0.230732 0.116569 -0.0429311 -0.00477574 0.51799 0.18725 0.0111444 0.0194213 -0.0526712 -0.00544885 0.15353 0.306282 -0.0859398 0.255264 0.1741 -0.0121771 0.0529256 0.154183 -0.000692688 0.0300419 -0.112201 0.1571 0.161181 -0.338569 0.0669489 0.285449 -0.110996 0.23881 0.0150865 0.14411 0.0652569 0.145479 0.0131363 0.121162 -0.111134 0.0914903 0.0965451 0.0165299 -0.203562 -0.0611158 0.160369 0.187487 -0.108377 -0.309973 0.0369253 -0.0160413 0.145839 0.0658137 -0.112046 -0.00385999 -0.264433 -0.100332 -0.0798379 -0.142209 -0.178896 0.142118 0.0344035 -0.076969 0.0716835 -0.224428 -0.287796 -0.0012965 -0.156508 -0.0365664 -0.258916 -0.111466 -0.0306795 -0.197158 -0.013248 0.0426358 -0.248052 -0.188884 0.184102 -0.188387 -0.0306147 0.0217272 -0.154812 0.191684 -0.262605 -0.160024 -0.0642187 -0.235471 -0.0268636 -0.201836 -0.0619885 -0.263879 0.0646519 -0.0799265 0.00527092 -0.204717 -0.0153174 -0.187216 
69 0.0181306 -0.104184 -0.217746 0.348197 -0.0686254 0.834346 -0.474395 -0.321165 0.73627 0.257636 0.119248 -0.215019 0.912729 -0.0252258 0.453624 -0.706835 -0.121949 0.177683 0.549167 0.128677 0.0577648 -0.853011 0.904953 -0.0151655 0.233982 -0.296478 1.11177 0.342672 0.000164503 -0.00111044 -0.517662 -0.0933203 0.729804 -0.0558925 -0.214801 0.0449783 1.08879 0.327961 -0.0596674 -0.102039 0.587703 -0.127303 0.196414 -0.0257566 -0.487492 -0.374159 0.427464 0.599282 -0.897494 0.344298 -0.494484 0.010943 -0.65362 0.0818935 0.843614 -0.0846352 -0.224049 -0.065508 0.470976 0.042943 0.649248 -0.158826 0.149236 0.7933 0.234326 0.0123807 0.659944 -0.509086 -0.369512 -0.0253736 -0.179539 -0.322354 0.609137 0.857369 -0.386454 -0.160899 0.715631 0.278245 -0.00581128 -0.240891 1.66636 0.10742 0.116939 0.0208501 -0.457669 0.154619 0.189728 -0.623086 -0.129989 0.0831675 -0.887454 -0.791609 -0.332885 -0.31669 0.0747996 0.271772 -0.072253 0.0235858 0.821412 -0.0178575 -0.248858 -0.0984591 -0.286431 -0.338616 0.479106 0.203726 -0.385708 -0.0366077 0.483519 0.367175 0.558928 -0.0905142 -0.243843 0.68548 -0.708467 -1.12319 -0.435421 -0.464329 -0.348973 -0.673183 0.401718 0.159821 -0.333119 -0.893319 0.344586 -0.203354 -0.0457041 0.205827 
70 0.252746 -0.145057 -0.255908 0.210092 -0.59326 -0.731457 -0.376766 -0.770293 -0.241005 0.0450701 -1.0114 0.637134 0.627592 -0.201542 0.179447 -1.11185 -0.0319244 0.00138866 0.213079 0.307915 -0.150657 0.305115 0.633492 -0.147171 -0.331939 -0.345908 0.174093 0.52417 -0.407671 0.0988344 0.243737 0.0381632 -0.657868 1.13258 0.21067 0.296925 0.284333 0.147526 0.0376589 0.387109 0.321244 0.498306 0.233311 0.00181722 -0.197744 0.0507218 0.746055 0.977548 -0.740019 0.586134 -0.24336 0.529183 -0.0351119 -0.338233 0.793938 -0.128006 -0.166063 0.359425 0.637366 -0.221654 0.989011 0.737257 0.260321 0.703339 0.126975 0.0252976 0.258984 -0.383877 -0.425391 -0.35585 -0.18798 0.174273 0.000346585 -0.0301674 -0.20523 -0.0609206 0.618089 0.0636566 -0.314047 -0.227382 0.421921 -0.362973 0.163344 0.473992 -0.134963 0.138764 -0.100525 0.0627256 0.0985795 -0.313729 -0.839888 -0.0441045 0.102276 0.538865 -0.0481801 -0.169013 -0.538781 0.222009 -0.147318 -0.0768309 -0.504189 0.716406 0.451631 -0.277328 -0.146835 -0.314979 -0.181269 -0.0709295 0.0219735 -0.567592 0.365857 -0.45973 -0.482508 -0.0759431 -0.328661 -0.0291442 -0.598464 -0.219094 -0.508927 -1.10148 0.243791 -0.33011 0.0934911 -0.0485174 0.652708 0.308443 0.255172 -0.986742 
71 0.0868878 0.146216 0.10179 0.117017 -0.26544 -0.130373 0.100571 -0.117621 -0.487399 0.0219263 -0.342746 -0.0675634 0.156049 -0.400796 0.197558 -0.107124 -0.16154 -0.0556581 -0.089553 0.389156 -0.156491 0.29218 0.604139 0.459259 0.233881 -0.00908029 0.134676 0.57065 0.22733 -0.337991 -0.359615 0.318258 -0.327289 -0.171918 0.163673 0.424431 0.358326 0.305646 -0.0223684 0.593912 0.505147 -0.191102 0.0761945 0.107348 0.146057 0.618022 0.189168 0.674796 -0.048749 0.0577965 -0.198729 0.267477 -0.345832 -0.296073 0.121775 -0.139655 -0.54534 0.465603 0.0171814 -0.0295162 0.0182534 -0.0113601 0.160681 0.0384407 -0.227415 0.274029 0.293776 -0.129355 0.0646192 -0.0482922 -0.407338 0.133086 -0.0888126 -0.0990211 -0.211157 -0.00657689 0.10672 -0.101905 -0.644029 0.254338 0.328884 -0.270383 -0.141633 0.337215 -0.489953 0.011591 0.0540063 -0.00647951 -0.346025 0.0395219 -0.345162 0.27725 -0.299639 -0.167277 -0.0726082 -0.143336 -0.42337 -0.1377 -0.0956779 -0.683125 -0.305494 0.143447 -0.0703025 -0.0494881 0.00267932 0.1271 -0.356089 -0.265332 0.0491161 -0.199835 0.129455 0.0197252 -0.12713 0.0291224 -0.459749 -0.142039 0.212385 -0.172827 -0.197604 -0.603249 0.243402 0.0406629 -0.0962657 -0.0234526 0.274585 -0.0197974 0.188462 -0.504244 
72 -0.0877562 -0.134538 -0.0282261 0.179944 0.118577 -0.524944 0.0476162 -0.425718 0.0233183 0.0142235 -0.574808 -0.469662 -0.0288117 -0.243574 0.0203345 -0.347276 0.344119 -0.321538 -0.027126 0.00541559 -0.363757 0.186321 0.223257 -0.0609419 -0.0912994 0.257828 0.307854 0.148892 0.180168 -0.0686909 -0.0872666 -0.35398 -0.0472566 0.334839 0.176615 -0.117389 0.409325 0.0155669 0.157234 0.279608 0.10846 0.2104 -0.0327027 0.0608487 0.140556 0.101999 0.380715 0.566804 -0.152667 -0.0169798 0.217434 0.00936621 -0.253991 -0.0709032 0.266323 -0.12394 -0.0978319 0.245499 0.303075 -0.0430208 0.211898 0.149753 0.199929 0.199527 -0.241131 0.186243 0.203739 -0.375718 -0.283225 -0.213611 -0.321679 0.103747 -0.136506 -0.0912066 -0.179777 -0.175673 -0.0295104 0.0500825 -0.189827 -0.273237 0.177377 0.0209699 -0.11583 0.253603 0.140023 -0.00118936 0.135913 0.029234 0.0225633 -0.112165 -0.237341 -0.115896 0.0972347 -0.0390081 0.468392 -0.109938 -0.0429928 0.29941 0.212915 0.309213 -0.114263 -0.122897 0.135225 0.016617 -0.0805588 0.0031517 -0.160627 -0.0302451 0.151255 -0.172248 -0.0617859 -0.396864 -0.0499365 0.259904 -0.181818 -0.256875 -0.32176 0.13706 0.0688568 -0.555442 0.151496 -0.366561 0.145326 -0.416317 -0.187392 -0.138362 -0.000638463 0.104547 
73 -0.0110439 0.0229056 0.02021 -0.0204736 -0.0189495 -0.0854982 -0.00822851 -0.0780271 -0.0218866 -0.00224175 -0.114621 -0.0300874 0.106251 -0.0809879 0.0359864 -0.166027 0.0640108 -0.0405697 0.0495292 0.0427931 -0.128239 -0.0161283 0.112821 0.0721009 0.112318 -0.0234151 0.0944246 0.081699 0.0192158 -0.0162385 -0.0883709 0.00269792 -0.0430838 0.0830485 0.0203033 -0.00612775 0.195578 0.0339351 0.0366218 0.0602395 0.176493 0.0440259 0.00201582 0.0144253 -0.027686 0.016647 0.17278 0.217041 -0.0366624 0.0822218 -0.00890725 -0.00844343 -0.115298 -0.0209503 0.063426 -0.0928374 -0.0467329 0.0685352 0.130708 -0.052344 0.117971 0.00248651 0.0529304 0.0777272 0.0136839 0.0745595 0.103648 -0.00441322 -0.146039 0.0568368 0.040165 -0.0285456 0.0117059 0.0266192 -0.104308 -0.0202793 0.193599 0.04897 -0.0393723 -0.0693124 0.152845 -0.0538219 0.0325189 0.0840512 -0.0947796 0.024405 0.0207686 -0.101122 -0.0415243 -0.122655 -0.113501 -0.0367447 0.0284584 -0.0999511 0.0485503 -0.053642 -0.0912558 0.0476446 0.0296795 -0.050427 -0.155253 0.0301082 0.0448729 0.00528373 0.013689 0.0450553 -0.0682992 -0.0102233 0.0890434 -0.0756804 0.00224188 -0.0375431 -0.151539 0.0424707 -0.0415822 0.0160668 -0.0467604 -0.0654215 -0.101283 -0.193012 0.102507 0.0019609 -0.0452622 -0.0364989 -0.0198532 -0.0363978 0.0259386 -0.0911981 
74 0.0707214 0.0347957 -0.0225411 0.0670689 -0.0163146 -0.139652 0.0201885 -0.109663 -0.0949155 0.0255944 -0.136819 -0.0323325 0.0891701 -0.0569402 0.105282 -0.114618 0.0184778 -0.0266043 0.0433157 0.156082 -0.143709 -0.00972876 0.118501 -0.0173316 0.0774123 -0.0161699 0.0803274 0.0481691 0.0808177 -0.0587627 -0.0519199 0.0676882 -0.0340113 0.0700004 0.0216091 -0.0331406 0.114607 0.0609392 -0.00054088 0.0390933 0.174005 0.0814518 -0.0142333 0.0478013 -0.00861304 0.0304268 0.16397 0.213182 -0.0554094 0.0870895 0.0151252 0.0494852 -0.0683331 -0.0393741 0.0639172 -0.012121 -0.0917952 0.0753147 0.0792934 0.015567 0.06833 -0.000623151 0.0379688 0.175271 -0.0505106 0.0740123 -0.0040448 0.00616319 -0.111289 0.0548468 -0.0186754 -0.0103488 0.0528085 0.075251 -0.0843374 -0.0765302 0.0797521 0.0788126 -0.0197939 -0.0524284 0.185419 -0.0348957 -0.0955447 0.0414439 -0.030928 0.00678029 0.047904 -0.0767394 -0.0658261 -0.126378 -0.146204 -0.0356423 0.0111348 -0.0152911 -0.0382696 -0.0810477 -0.0638689 0.0439897 0.0645651 -0.00768085 -0.113439 0.0380051 0.0289062 -0.00943709 0.024657 0.074756 -0.0577493 -0.0679417 0.0117009 -0.0596012 0.0706466 -0.0840603 -0.132691 0.11515 -0.0219758 -0.0583631 0.0172959 -0.0636018 -0.0306705 -0.205113 0.0875066 0.0274144 -0.0036133 -0.0989955 -0.0293072 -0.0920601 0.0356756 -0.117983 
75 0.0478726 -0.225558 -0.299791 0.146502 -0.251982 -0.466702 -0.177307 -0.446096 0.0815878 -0.177114 -0.632357 0.52649 0.354917 -0.0392008 0.426286 -0.943174 -0.0909864 0.0458672 0.330678 0.560252 -0.0767994 0.130893 0.378334 -0.08449 -0.154128 -0.255328 0.427468 0.436754 -0.349757 0.113488 0.313424 0.039037 -0.333206 0.920855 0.162388 0.297986 0.276055 0.1346 -0.138873 0.114069 0.222296 0.21778 -0.0568637 0.0209483 -0.0430944 0.037444 0.735662 0.636325 -0.533164 0.210594 -0.198071 0.412777 0.0614638 -0.15483 0.508407 -0.266404 -0.17475 0.0597008 0.444053 -0.102619 0.579226 0.50681 0.0858878 0.492183 0.183114 -0.168964 0.010849 -0.246463 -0.321952 -0.200953 -0.0392469 0.138227 -0.0233879 -0.119822 -0.229894 -0.0845847 0.546198 -0.0265802 -0.0489879 -0.185619 0.11713 -0.122945 0.180418 0.150189 0.0350616 0.181319 -0.171686 -0.0388103 -0.0692402 -0.340577 -0.538381 -0.274481 0.150369 0.529979 -0.153135 -0.0920296 -0.437737 0.0366449 -0.241563 0.21308 -0.442793 0.64847 0.220642 -0.421625 -0.0123504 -0.0658584 -0.171009 -0.0450812 -0.133943 -0.482032 0.291812 -0.4189 -0.402127 0.0657211 -0.284727 -0.174854 -0.243691 -0.218887 -0.527719 -1.01503 0.0471113 -0.216945 0.00159896 -0.133078 0.394617 0.0567892 0.21789 -0.753783 
76 -0.0458164 -0.114985 0.0118895 0.159855 0.108657 -0.469626 0.0425804 -0.443233 0.0404121 -0.0211448 -0.525626 -0.409739 0.0203369 -0.214108 -0.0298702 -0.400358 0.32961 -0.289989 -0.0164851 0.0632925 -0.387633 0.148223 0.24995 -0.0877836 -0.0759421 0.253913 0.312565 0.160235 0.138602 -0.0315684 -0.0843066 -0.320774 -0.0179663 0.33717 0.15018 -0.174259 0.448914 0.0219815 0.157417 0.295389 0.111752 0.23323 -0.0262712 0.107027 0.154391 0.134788 0.320165 0.563779 -0.183303 0.0377794 0.194519 0.00073545 -0.287789 -0.0373824 0.24638 -0.0806329 -0.115807 0.21522 0.294356 -0.029192 0.167279 0.193645 0.158765 0.259609 -0.173638 0.205722 0.192096 -0.350639 -0.301542 -0.183984 -0.285377 0.0988161 -0.150968 -0.0844504 -0.187615 -0.225975 -0.0662783 0.0252969 -0.1808 -0.275857 0.225814 -0.0260429 -0.0937647 0.250944 0.121863 -0.0100692 0.13434 0.0386735 0.0283181 -0.0983612 -0.273423 -0.13642 0.0471688 -0.0298975 0.496362 -0.100552 -0.00943232 0.285554 0.223411 0.280094 -0.127916 -0.143085 0.115218 0.0577026 -0.0780473 -0.00640053 -0.166886 -0.0474033 0.11555 -0.1854 -0.0184421 -0.393579 -0.0578148 0.294913 -0.216859 -0.238613 -0.29884 0.147422 0.0690084 -0.576534 0.13942 -0.322442 0.171967 -0.399649 -0.156635 -0.124009 0.0401349 0.113091 
77 -0.00535823 0.010373 0.103609 0.39214 -0.0648835 -0.632482 0.0645742 -0.911338 0.167254 0.0829277 -1.02745 -0.578314 -0.0714082 -0.320867 -0.0169916 -0.471319 0.615561 -0.18651 0.000909319 0.202979 -0.631029 0.545556 0.59734 -0.14055 -0.164209 0.511927 0.510109 0.352068 0.220516 -0.0766859 -0.234356 -0.559913 -0.0227628 0.707464 0.187055 -0.0883275 0.659879 0.0628607 0.174777 0.282136 0.329031 0.609142 -0.292344 0.117712 -0.138585 0.137083 0.663604 0.986813 -0.292547 -0.0459345 0.33772 -0.0349786 -0.490279 0.0568813 0.490947 -0.120163 -0.462756 0.496593 0.481128 -0.429969 0.264442 0.361236 0.520464 0.12609 -0.370809 0.436347 0.420692 -0.541948 -0.61676 -0.365217 -0.532609 0.19839 -0.139695 0.241931 -0.29181 -0.209518 0.0709729 0.00917402 -0.357616 -0.342026 0.40454 -0.276825 -0.0129034 0.211271 0.177267 -0.281689 0.0637174 -0.0657137 -0.0320944 0.0966076 -0.34156 -0.195849 0.213495 -0.19329 0.812513 -0.0500497 -0.196187 0.338152 0.273351 0.069105 -0.469574 -0.025014 0.228955 0.191694 0.0343346 0.0969698 -0.493026 -0.110868 0.16331 -0.504908 -0.0774251 -0.892438 -0.125372 0.343513 -0.472198 -0.190656 -0.570079 -0.0457904 0.264395 -0.792566 0.131518 -0.276306 -0.0378211 -0.850126 -0.199862 -0.0490179 0.00533408 0.0583873 
78 0.0178793 -0.268357 0.225334 -0.0407635 0.0930077 0.396971 -0.493202 -0.195173 0.186436 1.08999 -0.44049 0.1288 0.182978 -0.22427 0.5585 -0.386251 0.279509 0.112884 0.516636 0.363139 0.139951 -0.316027 0.928613 0.18456 0.139954 -0.32024 0.77652 0.564763 0.391477 0.0422032 -0.536883 -0.29857 0.503907 0.0691077 -0.268571 -0.40593 1.23246 0.666982 -0.107697 -0.0394593 0.29712 0.10497 0.32942 0.398127 -0.229698 -0.292124 0.842932 0.76234 -0.167936 0.79853 -0.13777 -0.236032 -0.459349 -0.336555 0.775392 -0.568507 -0.346965 0.253173 0.565088 0.0734507 0.539101 0.190358 0.0408671 0.306409 0.0945425 0.214416 0.136221 -0.365699 -0.177148 -0.177583 -0.442826 -0.149743 0.613671 0.00486415 -0.456443 -0.081718 0.150932 -0.158644 0.198376 -0.482365 0.787189 -0.0678227 -0.261944 0.0883733 -0.714132 0.353376 0.64102 -0.46105 -0.206484 -0.840178 -0.879305 -0.344558 -0.239425 -0.500783 0.0485517 -0.089991 -0.273915 -0.121149 0.720363 0.363391 -0.608294 0.0657434 -0.710245 -0.392762 0.330394 -0.144271 -1.0576 0.0334332 -0.00754256 0.00955291 0.792344 -0.385144 -0.200996 0.226114 -0.507173 -0.304675 -0.672561 0.244776 0.0516982 -0.603346 0.145157 0.0743949 -0.286643 -0.251325 -0.0256562 -0.142692 -0.118886 0.14707 
79 -0.409055 0.153361 0.0903814 -0.109378 0.037976 0.375623 0.462138 0.12354 -0.293832 0.1383 -0.103445 -0.661838 0.291177 -0.529381 0.595764 -0.525879 -0.348623 0.249333 0.443924 0.449227 -0.357712 -0.273428 0.152406 1.02038 0.659916 0.0886102 0.604046 0.881356 0.0270951 -0.1507 -0.306499 0.214862 -0.125574 0.4055 -0.118563 -0.262507 1.17871 0.763168 -0.0598429 -0.164575 0.291081 0.126037 0.307615 0.300824 -0.0907533 -0.168832 0.811673 0.66177 -0.68391 0.862375 0.196812 0.793175 0.220669 -0.809281 -0.00748301 -0.895266 -0.318927 -0.216563 0.340596 -0.017217 0.251436 0.29582 0.369307 0.538118 0.0542118 0.0517405 0.230745 -0.583442 -0.402539 0.292241 -0.110771 -0.60505 0.406207 -0.186763 0.297294 -0.897486 0.401564 0.0623171 0.309262 -0.384443 0.993197 -0.243095 -0.667387 -0.509136 0.143376 0.86726 -0.0342345 -0.554431 -0.409165 0.0410727 -0.918172 -0.0174531 0.0600921 -0.0362207 -0.0285949 -1.17664 -0.69744 -0.0766292 0.796014 0.562764 -0.852826 -0.101402 -0.405913 0.306852 0.221724 0.529443 9.98444e-05 0.0730692 0.0406573 0.0737053 0.176554 -0.610481 -0.582299 0.648653 -0.319696 0.159172 0.157208 -0.326763 -0.21848 -0.627819 0.255445 0.378304 -0.204417 -0.312821 0.0574135 -0.272085 0.108112 -0.379812 
