3312 128
0 -0.581978 -0.39803 -0.547863 0.220968 -0.0434479 -0.773435 -0.995908 -0.849987 -0.330311 -0.184791 -0.879881 0.347399 0.768536 -0.0989258 0.223158 -0.146462 -0.289023 -0.590081 0.641318 -0.259744 0.397447 0.636286 0.644569 0.364883 0.377891 -0.449757 0.458045 0.357744 0.8815 -0.334563 -0.139953 0.563404 -1.06568 0.219882 0.0304727 -0.117509 1.09011 0.356313 -0.294173 0.686658 0.094154 0.304845 0.204528 0.422456 0.377308 0.113953 0.613083 1.22747 -0.200443 0.658356 -0.125525 0.0203853 -0.422214 -0.718732 0.921358 0.315544 -0.00086632 0.324775 0.294599 -0.219024 0.404003 -0.0212531 0.540942 0.816501 0.342424 0.17831 -0.0329581 -0.393384 -1.08195 0.556771 0.117984 -0.527876 0.0784075 -0.166684 -0.359059 0.475804 0.404914 0.485159 -0.116506 0.278093 0.22613 -0.832443 0.547182 0.305611 -0.0812739 0.54829 -0.0403077 -0.0683953 -1.40298 -0.501823 -0.384693 -0.0973863 -0.254563 0.554706 0.101111 -0.0266464 -0.00311058 -0.530097 0.237106 0.0782309 -0.384309 0.278811 -0.247518 -0.214025 0.192731 0.257969 -0.0577652 0.544575 0.636642 -0.612473 -0.337601 -1.22609 -0.381616 0.555279 -0.306065 0.108918 -0.524224 0.186532 -0.636011 -1.06987 0.163183 -0.115108 -0.0885763 -0.559453 0.126597 -0.55837 0.258986 -0.658321 
1 -0.0963561 -0.26106 -0.118825 0.112248 0.165959 0.11112 0.294303 -0.165298 0.00793084 0.341466 -0.397103 0.131351 0.00537494 -0.00334605 0.819419 0.116027 0.262703 -0.325031 0.150487 0.1524 -0.405657 -1.0997 0.825878 -0.0486346 0.65392 -0.243434 0.710031 0.67907 -0.0511367 -0.0116264 -1.02123 -0.0199615 1.10396 -0.479256 0.240559 0.0542649 0.72755 0.416758 0.0168851 -0.580379 0.122368 0.109546 0.606646 0.639454 -0.580419 -0.0167228 1.09576 1.20152 -0.54185 0.761856 -0.214154 -0.856895 -0.410372 0.345627 0.704109 -0.634763 -0.74964 0.500326 0.10358 0.411744 0.579149 0.221734 -0.0629256 0.808584 -0.0259624 -0.2568 -0.0736563 -0.185269 -0.257509 -0.0157528 -0.198627 -0.290836 0.76094 -0.548747 -1.14775 0.0745729 0.43846 -0.053666 0.59096 -0.51802 0.895111 -0.213009 -0.260082 0.229279 -0.736574 0.489358 0.518682 -0.815432 -0.0966244 -0.963187 -1.50836 -0.111729 -0.473392 -0.875341 0.0764404 -0.0365861 0.286036 -0.502156 1.34992 0.267656 -0.949804 0.0293054 -0.729177 -0.475087 0.010676 -0.0237545 -1.29217 0.313652 0.350345 -0.302526 1.02008 -0.271879 0.0281049 0.251327 0.487637 -0.357403 -0.490806 -0.029517 0.00871367 -1.2094 0.591156 0.381672 -0.152736 -0.341911 -0.0351518 0.201389 -0.00825501 0.525996 
2 0.344586 0.0602264 0.238203 -0.0145317 -0.207657 -0.521386 -0.0384895 -0.376072 -0.107325 -0.287189 -0.536551 -0.290061 0.115043 -0.0563277 0.0361973 -0.302147 -0.150157 -0.437427 -0.0734536 0.177884 -0.629332 0.282851 0.131585 0.0588657 -0.036357 -0.183292 0.239259 0.114028 -0.230683 -0.266534 -0.0662755 -0.321642 -0.112937 0.163839 0.0126147 -0.205761 0.120939 0.300501 -0.0534017 0.0944765 0.422931 0.287726 -0.108331 0.0246633 -0.397556 0.419395 0.743526 0.329077 -0.190832 0.18946 -0.132369 0.385578 -0.575463 0.241025 0.17945 -0.475915 -0.55951 -0.200655 0.119003 0.0199888 -0.119862 0.48648 0.23564 -0.047125 0.132892 0.257447 0.0741005 -0.094256 -0.162513 0.0116079 0.241731 -0.484768 0.0786354 0.150003 -0.245657 -0.538178 0.254621 0.105491 -0.343928 -0.480636 0.408724 -0.541876 -0.179488 0.102894 0.292129 0.41442 0.269523 -0.143482 -0.107747 -0.412633 -0.321698 0.0226423 -0.0403661 0.150646 -0.0884885 0.0566076 -0.153612 -0.125313 -0.148488 -0.175469 -0.40578 -0.289172 0.110263 -0.270487 0.292008 0.314381 -0.414473 -0.425741 0.0693337 -0.23337 0.191258 -0.204615 -0.373858 0.47633 0.0909866 0.224203 -0.0815229 0.092956 -0.548256 -0.39176 0.123811 0.414248 0.0941964 -0.273754 -0.118928 -0.157385 0.296302 -0.225103 
3 0.445664 0.078248 -0.219839 0.0718006 -0.0108694 -0.262395 -0.288658 -0.682456 -0.524168 0.924611 -0.407843 -0.181856 0.541902 0.317595 0.0412852 -0.831999 0.330369 -0.0537793 0.0660302 0.534305 0.0518794 -0.159508 0.211416 0.168403 0.445136 -0.518811 0.953687 0.45021 0.417643 -0.101897 0.0853002 0.158525 0.260423 0.435572 -0.523744 0.0615985 0.336875 0.198491 -0.279612 0.411711 -0.0212759 -0.0632459 0.265436 0.556553 -0.0635138 0.609703 0.93487 1.13396 -0.285658 0.405098 0.325421 -0.38483 -0.0151503 0.111133 0.269238 -0.0120226 -0.311854 0.244129 0.683492 0.090926 0.329624 0.368251 -0.256024 0.0486596 0.137579 0.18272 0.152503 -0.138662 -0.130248 -0.157258 -0.461049 -0.104505 0.176435 0.212793 -0.251519 0.0933814 0.141728 -0.109533 0.0603473 -0.206844 -0.132989 -0.233438 -0.4191 0.270432 -0.148682 -0.0231426 0.0453504 -0.17411 -0.0527702 -0.575569 -0.400062 -0.264305 0.0153844 -0.119182 0.459906 0.472379 -0.773431 0.0397942 0.543164 -0.096622 -0.58166 0.158423 -0.350141 0.272578 0.676024 0.260043 -0.8401 0.176595 -0.256988 -0.306058 0.243426 -0.322399 -0.138493 0.290559 0.154005 -0.120228 -0.215595 -0.109803 -0.719908 -0.619428 0.459318 -0.0119254 -0.068176 -0.566376 -0.0354392 -0.197083 -0.434866 -0.11819 
4 -0.138283 0.00956091 -0.19137 0.221437 0.322416 -0.349921 -0.0486334 -0.19649 -0.484611 0.143037 -0.343819 -0.116255 0.636729 -0.00730539 -0.224185 -0.265687 0.408303 0.0184136 0.424718 0.25031 0.0937791 0.175401 0.330926 0.665442 0.617282 -0.0506632 -0.0264171 0.867851 0.326939 0.0833925 -0.631528 0.0234425 -0.154568 -0.0486567 -0.114596 0.580749 0.313543 0.448435 0.181537 0.472972 0.344905 0.211767 0.264067 -0.152851 0.0251777 0.138713 0.459335 0.906115 0.265482 0.619254 -0.0862952 -0.115017 -0.20385 -0.336266 0.397673 -0.0648941 -0.36807 -0.251646 0.0348095 -0.215825 0.454241 0.164718 0.417907 0.395793 -0.257596 0.438979 0.0650748 -0.10605 -0.246959 0.235782 0.0278047 -0.108703 -0.0772346 0.0616962 -0.511461 0.275024 0.248151 0.16898 -0.182778 -0.259108 0.420253 -0.241616 0.0807754 0.0417396 -0.363503 0.00274405 0.557186 -0.34271 -0.376489 -0.290493 -0.539614 -0.382178 0.196685 0.212802 -0.0821649 -0.220225 -0.48425 -0.452622 0.136039 -0.0127671 -0.182789 0.451507 -0.0741346 -0.102198 0.3921 0.163651 -0.336514 -0.0838891 0.60257 -0.217424 0.180338 -0.605029 -0.250061 -0.00160823 -0.543612 0.180772 0.348357 0.0723318 -0.357227 -0.742545 -0.125833 -0.154148 0.241735 -0.156884 -0.590391 -0.447795 -0.103644 -0.587877 
5 -0.375581 -0.168379 0.0681193 0.268726 0.260239 -0.773039 -0.0961398 -1.16294 0.11341 0.18187 -1.33032 -0.757791 -0.228948 -0.504009 -0.0457784 -0.306734 0.769603 -0.230667 0.145278 0.311794 -0.91624 0.491999 0.868079 0.00148599 -0.00862563 0.456263 0.847286 0.494611 0.163648 -0.154153 -0.498497 -0.210288 0.11146 0.562351 -0.0832103 -0.117732 0.815626 0.12833 0.332353 0.200457 0.297007 0.632892 -0.338107 0.200243 -0.123683 0.221429 0.642577 1.32804 -0.383876 0.169189 0.42053 0.0460076 -0.680452 0.100932 0.635013 -0.240625 -0.922833 0.582596 0.783021 -0.620846 0.499346 0.356971 0.536859 0.127965 -0.546274 0.853319 0.720184 -0.856567 -0.623792 -0.736802 -0.837791 0.301412 -0.214766 0.193156 -0.542417 -0.474426 0.264358 -0.0118948 -0.319676 -0.564313 0.351827 -0.514201 -0.207879 0.374851 0.292874 -0.103159 0.219229 -0.00024499 -0.454667 0.0811493 -0.541416 -0.211608 0.178011 -0.336847 1.12951 -0.214463 -0.0130846 0.379321 0.527943 -0.327109 -0.43443 0.0748969 0.201282 0.301377 0.169971 -0.15916 -0.659073 -0.331473 0.0520717 -0.627388 -0.147866 -1.2364 -0.0704264 0.390999 -0.738527 -0.2886 -0.458324 -0.167259 0.149259 -1.15811 0.0891415 -0.380936 -0.258287 -0.840962 -0.126983 -0.0207885 0.105789 -0.119151 
6 0.0541707 0.0713069 0.13373 0.426281 -0.0848942 -0.88777 -0.0304587 0.0450446 0.351752 0.690557 -1.23489 -0.181215 -0.14223 -0.270835 0.83503 -0.964948 0.0418497 -0.261972 -0.409756 0.468262 -0.656923 0.08881 0.390127 -0.192751 0.575446 -0.229823 0.950219 -0.0651886 0.700979 -0.103177 -0.444339 -0.0954025 -0.219196 1.03079 0.401662 -0.226356 0.834342 0.0724504 -0.208712 0.157451 0.241277 0.231338 0.457543 0.310648 0.887434 -0.0262946 1.132 0.83944 -0.679288 0.390655 0.522464 0.80807 0.276559 -0.111029 0.200925 -0.573853 0.0346437 -0.474012 0.436193 -0.221622 0.978508 -0.107548 -0.629901 0.727025 -0.0725384 0.207023 -0.223108 -0.115548 -0.578914 0.445503 -0.418717 -0.329549 0.280123 0.198583 -0.582576 -0.348868 0.259316 0.665433 -0.400185 -0.473505 -0.068304 -0.0418933 -0.176871 0.476056 -0.290839 -0.155369 0.768986 -0.69636 0.117356 -0.851036 0.0510137 -0.466791 0.227432 0.112705 0.293026 -0.135427 -0.637199 0.352606 0.741619 0.122696 -0.355216 -0.309964 -0.132467 -0.378495 -0.369873 0.173275 -0.527128 0.176833 -0.163686 -0.0478632 -0.106669 -0.896687 0.123178 0.949954 -0.0541684 0.167287 -0.783521 -0.492191 -0.391755 -1.18851 -0.185168 -0.444535 0.263984 -0.283528 -0.513266 -0.857016 -0.0772621 -0.411966 
7 0.223861 0.213135 -0.884222 0.274468 -0.403538 0.0294473 0.463559 0.00628787 0.0993004 -0.0704218 0.863237 -0.544733 0.736898 -0.298295 0.763621 -0.617869 0.77459 -0.0444896 0.105802 0.490709 -1.25255 -0.540958 0.202646 -0.127692 -0.0986663 0.122502 1.06119 -0.136495 0.0067642 0.479116 -0.420772 0.491179 0.653665 -0.0292574 0.714552 -0.0656261 0.51573 -0.134391 -0.459291 0.164869 1.23174 0.681231 0.285413 -0.487936 0.284257 0.461899 0.215844 1.14321 -1.3121 -1.07461 -0.326919 -0.230283 -0.249933 0.324961 0.0567191 -0.795905 -0.620369 0.625246 0.84891 0.413343 -0.795746 -0.175823 0.517134 0.358275 -0.238806 0.297818 0.569052 0.748346 -0.877287 0.701038 0.137958 -0.766425 0.0891528 0.481969 -0.710431 -0.487958 0.23264 -0.0457823 0.459366 -0.333778 0.906295 0.236572 -0.0873002 -0.285381 0.185085 -0.284911 -0.00112091 -0.0366571 -0.063147 -0.505156 -0.857554 -1.16691 -0.663051 -0.259529 0.10035 -0.172797 0.250999 0.0473654 0.487211 0.475711 -0.171091 -0.193634 0.0765795 -0.0231336 -0.0499049 0.150097 -0.0295514 0.85708 0.99596 -0.377258 0.123609 0.0627788 -0.149089 0.388243 0.278749 -0.103107 0.20564 -1.54447 0.177549 -0.445215 0.331778 0.653303 -0.372591 -0.453637 -0.199758 -0.428417 0.384482 -1.0304 
8 -0.190044 0.00908897 0.619111 0.251056 -0.0925793 -0.461324 -0.0788738 -1.11792 -0.00617632 0.166412 -0.511496 -0.526658 0.760884 0.0824342 0.277031 0.103327 0.614671 -0.596041 0.248846 0.280647 -0.978306 0.131609 0.659149 -0.0341954 0.10516 -0.389915 0.430565 0.158581 0.195629 -0.547217 -0.0558881 0.241621 -0.727124 0.556199 0.561175 -0.1122 1.03786 0.407015 -0.286098 0.436732 0.239122 0.489529 0.0551432 0.235699 0.273565 0.069899 0.61801 0.687554 -0.219541 0.707795 0.230009 0.00874607 -0.49893 -0.151658 0.679775 -0.389713 0.149649 0.0463345 0.299995 0.190333 0.527672 -0.272053 0.00712932 0.58451 0.191841 0.219799 0.259755 0.00641014 -0.767214 0.530131 0.466517 -0.378895 0.139976 -0.371178 -0.0881944 -0.408643 1.24884 0.65994 0.164982 0.0635282 0.144335 -0.328735 -0.0698911 -0.210746 0.113317 0.0994835 0.153251 0.296202 -0.804678 -0.60152 -0.670359 -0.141087 0.119189 -0.24847 -0.000399841 -0.29391 -0.486172 0.0145434 0.27571 -0.542336 -0.0173201 0.220529 0.0931955 -0.0294165 -0.382548 -0.158091 -0.606741 -0.109331 0.431135 -0.361129 -0.153368 -0.773966 -0.357718 0.552166 -0.453973 0.284315 0.12798 -0.0313967 -0.212989 -0.702738 -0.247729 0.1976 0.122839 -0.214121 -0.512288 -0.687621 0.028304 -0.795332 
9 0.2555 -0.412869 0.156126 0.240913 -0.838475 -0.916838 -0.376931 -0.976919 -0.591072 0.246694 -0.388438 0.303899 0.333061 -0.592911 0.0702195 0.176428 -0.174049 -0.45201 0.394797 0.705575 -0.0491018 0.168184 0.686373 0.151778 -0.03286 -0.344894 0.381829 0.241065 1.01516 -0.459743 -0.815859 0.297548 -0.46931 0.0913347 0.332672 0.0108 1.0389 -0.102511 0.226532 0.573821 0.575612 -0.318479 0.215182 0.505664 -0.0523725 0.420383 0.72996 0.922927 -0.622229 -0.246871 -0.468037 0.837991 -0.605861 -1.09197 0.18602 0.358433 -1.01294 0.353826 1.1218 -0.326496 0.241223 -0.220019 0.268311 -0.285493 0.0276708 0.190469 0.283123 -0.422554 -0.385338 0.383934 -0.207856 -0.481663 -0.152588 0.162642 -0.186337 0.764626 0.461425 0.480511 -0.493016 -0.388912 -0.105897 -0.374633 -0.516075 1.25734 -0.0871721 0.332558 0.178841 -0.90032 -0.134074 -0.840816 -0.211494 0.444056 -0.601186 -0.0353915 0.117328 -0.234872 -0.543374 -0.436951 -0.341517 -0.337614 -0.639505 -0.169813 0.340521 -0.349463 0.159036 0.240866 -0.485481 0.249188 -0.00385094 -0.63033 -0.371833 0.207032 -0.651095 0.378279 0.0169772 0.502016 -0.208945 -0.329613 -0.0683947 -0.704265 0.555095 -0.324054 -0.18785 -0.732764 -0.363114 0.0200725 -0.218425 -0.507761 
10 -0.33625 0.670662 -0.788701 0.550096 0.0569562 -0.26088 0.599443 -0.072182 0.0525227 -0.0891429 0.374141 -0.532262 0.462627 0.111538 0.872401 -0.835093 0.162715 -0.248503 0.077194 0.766336 -1.00188 -0.0856963 -0.179351 0.185341 0.0279872 0.217764 0.789275 0.0372499 -0.139132 0.269807 -0.223919 0.23548 0.464586 0.549951 -0.169315 -0.265731 0.00207616 -0.513625 0.099829 -0.213337 0.689366 0.70924 0.447064 0.189479 -0.0421169 0.376627 -0.0230042 0.814362 -0.266377 -0.295799 0.548074 0.245477 -0.476985 0.0581913 -0.0588186 -0.806922 -0.462253 0.316677 0.507469 0.221918 -0.371167 0.148087 0.454732 1.22567 -0.0384907 0.490485 -0.0551151 0.484412 -0.449807 0.488493 0.335633 -0.416618 0.341397 0.102318 -0.569598 -0.484244 0.594858 0.639557 0.433956 -0.197353 0.950544 0.00978298 -0.318916 0.0209523 -0.0507312 -0.397986 -0.159924 0.315486 0.120132 -0.168781 -1.19902 -0.264624 -0.307516 -0.488961 -0.0140014 0.039798 -0.00508285 -0.156322 0.384242 0.188241 -1.1161 -0.194063 -0.149682 -0.541725 0.0780334 0.196958 -0.000744135 0.326569 0.809672 0.0745389 0.285336 -0.0333892 -0.316096 0.593755 0.073011 -0.344592 0.0899276 -0.653755 -0.957564 -0.842467 0.20966 -0.0426182 -0.651097 -0.384203 -0.419518 -0.174901 0.0561515 -0.768641 
11 0.520131 -0.15089 0.328183 0.360744 -0.565976 -0.284582 -0.171193 -0.61173 -1.0946 0.275881 -0.183659 -0.0971037 0.650397 -0.420299 0.176376 -0.175749 0.0582657 -0.522601 0.0318505 0.803083 -0.296288 0.303895 0.0970243 0.363591 -0.150963 -0.720133 0.171439 0.379639 0.460859 -0.0879101 -0.236236 0.178231 0.0419303 0.260018 0.480988 0.0690829 0.426099 -0.0335696 0.0130695 -0.000267595 0.938217 -0.125291 0.166023 0.296895 0.0413512 0.40513 0.348362 0.936977 -0.194457 -0.0488822 -0.416529 0.391039 -0.338293 -0.193868 -0.0893008 0.273095 -0.922918 0.617592 0.255232 -0.0455517 0.329579 0.00506326 -0.255614 -0.26436 0.0478357 0.146306 0.247787 -0.332266 0.198783 0.137883 -0.684603 -0.112041 0.138819 0.326494 -0.663051 0.323957 0.319428 0.216992 -0.259835 0.0986426 0.560053 -0.084098 -0.585689 0.832789 -0.163401 0.0759702 -0.0248635 -0.509905 -0.275938 -0.309831 -0.291766 0.0477631 -0.531575 -0.272172 0.155839 -0.559832 -1.1265 -0.248746 -0.0178376 -0.474772 -0.179474 -0.12423 0.616012 -0.13897 0.313798 0.525283 -0.382322 -0.0456344 -0.024428 -0.452893 0.00837942 0.115033 -0.538033 0.491772 -0.349883 -0.192689 -0.122786 -0.360788 -0.483734 -0.613465 0.537335 -0.443008 -0.257428 -0.229246 0.137015 0.0768188 -0.54136 -0.426655 
12 0.499444 -0.0397744 0.0780139 -0.516934 -0.254756 0.145559 -0.367093 -0.129892 0.312263 0.638893 0.109446 -0.51826 0.453209 -0.102216 0.860683 -0.402341 -0.469952 0.342493 -0.33294 0.219492 -0.108676 -0.104552 0.286751 -0.220979 0.177267 -0.0605152 0.26476 0.261693 -0.182464 -0.33306 -0.170941 0.0867544 -0.203266 0.556564 0.11392 -0.550038 1.05576 0.575156 -0.0151036 0.7205 0.311455 -0.298705 -0.0903147 -0.11242 0.214926 -0.221882 1.1007 0.695081 -0.369235 0.626576 -0.329336 0.627444 -0.623694 0.132829 0.124555 0.0159462 -0.330715 0.112189 0.598265 -0.100509 0.129683 -0.192609 1.05956 0.568056 0.326438 0.139374 0.605372 -0.130627 -0.0308584 0.279243 -0.412208 -0.0596423 0.704601 0.399778 -0.478893 0.173692 0.791495 -0.264569 0.180261 -0.230443 0.0440647 0.472149 0.0785229 0.536369 -0.165273 -0.0943906 0.510543 -0.69371 0.397598 -0.269814 -0.856338 -0.629722 -0.306413 0.0592211 0.0748115 -0.218684 -0.147067 -0.0119004 0.382732 0.0831134 -0.176739 0.454474 -0.0121463 -0.0230497 0.399799 -0.30527 0.180223 0.06747 0.59562 -0.418402 0.0879656 -0.13243 -0.445921 0.903973 -0.418101 -0.0892644 -0.514908 -0.685248 -0.0719863 -0.576133 0.342374 -0.196831 -0.568273 0.353471 0.439837 0.315795 0.15614 -0.267402 
13 -0.257153 -0.204213 -0.212239 0.0680069 -0.0347057 -0.233321 -0.46588 -0.185183 -0.133799 -0.0757728 -0.447594 0.169898 0.166099 0.0764957 0.216589 -0.497888 -0.256928 -0.224829 0.293635 0.00167504 -0.0507452 0.407624 0.274687 0.094791 0.430229 -0.209334 0.27273 0.280517 0.224367 0.247688 -0.0631056 0.344701 -0.424237 0.489594 0.278119 0.161996 0.426544 0.249869 -0.0281699 0.0969267 0.212323 0.338202 -0.145703 0.164086 0.33646 0.0741987 0.564592 0.520565 0.0440001 0.422324 -0.114882 0.26536 -0.122037 -0.345229 0.30738 0.00906581 -0.241749 0.409299 0.0985802 -0.198259 0.373529 -0.0356605 0.234903 0.334511 0.166357 0.165657 -0.0142579 -0.104905 -0.580189 0.336868 0.148813 0.195918 -0.180526 0.101823 -0.212879 0.193216 0.375359 -0.0829444 -0.00432177 0.0826201 0.136903 -0.345872 0.382453 0.349208 0.0714695 0.31785 -0.151511 -0.159262 -0.595263 -0.227519 -0.155958 0.0455528 0.0854304 0.378511 -0.511205 0.266875 0.13732 -0.0595303 -0.0619211 -0.126525 -0.329425 0.0904613 0.150101 -0.432223 0.124625 0.262751 -0.32811 0.228021 0.539648 -0.616211 0.18918 -0.492643 -0.24737 0.450754 -0.229482 -0.0889249 -0.436642 -0.1293 -0.255825 -0.666843 0.391921 -0.225682 -0.217895 -0.273683 0.120557 -0.319283 0.383689 -0.385917 
14 0.0900197 -0.105772 0.909516 0.29295 -0.027419 -0.524458 -0.0240853 -1.02954 -0.0319707 0.188589 -0.748645 -0.515209 0.983367 0.194305 0.0594534 0.0241759 0.77866 -0.612557 0.324925 0.242262 -0.945264 0.167329 0.707438 -0.222353 0.141171 -0.256997 0.554172 0.232129 0.0366312 -0.483844 0.000237183 0.524512 -0.605864 0.613389 0.40372 -0.213609 0.780109 0.489467 -0.51224 0.484681 0.421099 0.591161 -0.109878 0.231284 0.128163 0.119302 0.607187 0.557317 -0.19538 0.618002 0.320018 -0.0958928 -0.472771 -0.125268 0.696711 -0.192071 0.181037 -0.00226003 0.161647 0.0929815 0.29556 -0.208162 0.0424939 0.685353 0.142049 0.194758 0.481082 0.17741 -0.849697 0.496872 0.413278 -0.0641547 0.17699 -0.461352 0.102746 -0.49483 1.20977 0.814651 -0.214875 0.121245 0.0837332 -0.226332 -0.301782 -0.123292 0.21947 0.465117 -0.0414989 0.271908 -0.850091 -0.694097 -0.738022 -0.186626 0.238524 -0.21984 -0.0879393 -0.541564 -0.568753 -0.210576 0.261817 -0.593008 -0.0510562 0.197673 -0.175632 -0.0303859 -0.567918 -0.117785 -0.401533 0.034872 0.345879 -0.330824 0.142414 -0.814604 -0.433168 0.519873 -0.421415 0.450484 -0.0879724 -0.216933 0.030649 -0.387508 -0.326837 0.190592 0.157859 -0.0973842 -0.383668 -0.919128 -0.229132 -0.663926 
15 -0.312021 0.543793 -0.764576 0.425352 0.00688005 -0.112467 0.509578 -0.105074 -0.0788857 -0.129475 0.490919 -0.501123 0.419773 -0.0534522 0.901137 -0.930899 0.0418132 -0.436239 0.0126388 0.684361 -1.00609 -0.188712 -0.0387874 0.176507 0.0831706 0.126538 0.853457 0.0230334 -0.119319 0.313871 -0.107366 0.295217 0.409697 0.53065 -0.117551 -0.0685585 0.240837 -0.391975 -0.0105273 -0.397489 0.886212 0.602199 0.268098 0.249614 0.083654 0.282665 0.175948 0.860388 -0.426474 -0.347367 0.325122 0.356828 -0.372513 0.318263 -0.0375621 -0.784474 -0.330324 0.406783 0.630541 0.0992769 -0.506132 -0.0338749 0.535556 1.13781 -0.168559 0.339416 0.274679 0.328504 -0.539629 0.578772 0.169296 -0.482392 0.117479 0.244601 -0.519082 -0.44303 0.698844 0.825673 0.51957 -0.0130224 1.13588 -0.00892536 -0.382541 0.038952 -0.0838873 -0.168198 -0.170493 0.15438 0.10073 -0.287527 -1.20546 -0.271162 -0.413238 -0.574781 0.043759 -0.0893482 0.119741 -0.137651 0.49711 0.105783 -0.752215 -0.295963 -0.181694 -0.403728 0.15727 0.16342 0.00252863 0.154423 0.767436 0.0895978 0.314957 0.0876701 -0.479946 0.550832 0.223342 -0.351324 0.145542 -0.812538 -0.721954 -0.94224 0.521151 0.067669 -0.702517 -0.412409 -0.330835 -0.272947 0.170452 -0.847849 
16 0.443825 0.105064 0.135039 -0.45531 -0.00488529 -0.526643 -0.188564 -0.781514 0.0420276 -0.157669 -0.471712 0.0966793 0.451131 -0.184938 -0.081017 -0.441147 0.28014 -0.549713 -0.466573 0.312397 -0.429649 -0.325414 0.619495 0.525567 0.437351 0.0384459 0.273916 0.319014 0.256512 -0.0712741 -0.208207 0.61417 -0.489829 0.235165 0.0121902 -0.0724829 0.496414 0.305189 0.103262 -0.0555281 0.123978 0.00124799 -0.0895996 0.581261 -0.16952 0.251939 0.688753 0.59099 -0.335324 0.49456 -0.233575 0.262584 -0.296793 0.0420412 -0.237348 -0.142713 -0.328962 0.243824 0.402484 -0.056059 0.127549 -0.125142 0.00162725 0.321541 -0.345735 0.393989 0.944762 -0.260264 -0.483686 0.0807006 -0.400897 -0.0220382 0.348835 0.031171 -0.571998 -0.236396 0.0332217 -0.203208 -0.377202 0.191291 0.343438 -0.672288 0.20083 0.692452 -0.403589 0.101118 -0.1867 -0.317917 -0.0623043 0.0188145 -0.276206 0.206174 0.0384324 0.094065 0.263902 0.103471 -0.775625 0.1042 0.29184 -0.51442 -0.662744 0.157767 -0.0452112 -0.499331 0.596209 0.296946 -0.0450323 -0.362547 -0.0253139 -0.347244 -0.218572 -0.190202 -0.283989 -0.141359 0.302255 0.0298184 0.717105 0.462464 -0.307321 -0.731324 0.519629 -0.204363 -0.0985538 -0.216852 -0.169192 0.0579778 0.380466 -0.44415 
17 -0.339553 -0.270188 -0.0977363 0.157643 -0.0466725 -0.934855 -0.164408 0.246984 0.309803 0.758555 -0.774388 -0.12303 -0.315797 -0.592555 0.386211 -1.14704 0.167189 -0.120162 -0.13912 0.551028 -0.755226 -0.16817 0.478227 -0.257005 0.617092 -0.336279 0.748886 0.219815 0.80031 0.108387 -0.871605 -0.158593 -0.0509936 0.642289 0.234855 -0.320354 1.26377 0.316712 -0.349791 0.0744465 0.393781 0.131666 0.643317 0.730297 0.317367 0.115031 0.732141 0.734728 -0.269204 0.361095 0.187754 0.391394 0.23556 -0.110203 0.533477 -0.202253 -0.0358171 -0.0951304 0.627629 0.243896 0.705395 0.12443 -0.799833 0.660988 0.149504 0.444332 -0.356395 -0.213457 -0.890517 0.0966765 -0.026329 -0.0397533 0.189515 -0.065137 -0.5977 -0.558086 0.218152 0.00387095 -0.0417166 -0.538829 -0.0832233 0.00874921 -0.0444204 0.263383 0.0696315 0.0834189 0.933639 -0.795743 -0.059362 -0.623274 -0.0313287 -0.699085 0.312124 0.429247 0.289739 -0.257542 -0.341984 -0.500381 0.356591 0.458389 -0.341306 0.0975007 -0.431108 -0.587307 0.107579 -0.0882462 -0.847034 0.260974 -0.163323 -0.140753 0.0546723 -0.997271 0.222067 0.958782 -0.337876 0.282561 -0.987895 -0.166149 -0.693596 -0.871306 -0.221104 -0.661349 0.0941816 -0.22824 -0.0896826 -0.581933 0.0626113 -1.02745 
18 0.646986 0.276409 0.585305 0.244083 -0.206681 -0.830661 -0.415358 -0.87125 -0.667042 -0.0692345 -1.26738 0.632455 0.152538 -0.077247 -0.153438 -0.8641 0.0492647 -0.237728 -0.201403 0.42566 0.0558884 0.48855 1.22886 0.361795 0.288473 0.103169 0.156563 0.703486 0.519808 -0.187512 -0.356736 0.399909 -0.552566 0.79691 0.461586 0.469953 0.636331 0.193077 -0.12685 0.919546 0.572847 -0.280353 -0.519135 0.414931 -0.0950429 0.492536 0.603567 1.18928 -0.336338 0.257315 -0.293918 0.488762 -0.48891 -0.370973 0.300614 0.360339 -1.01005 0.696568 0.703704 0.126396 0.0545484 0.0414124 0.2455 0.453837 -0.397775 0.427264 0.307212 -0.477084 -0.311024 -0.0764003 -0.631881 0.0135128 -0.257328 0.0826481 -0.279146 -0.0113722 0.372303 -0.00224683 -0.802462 0.0795764 0.443478 -0.833026 -0.557 0.865435 -0.915379 -0.217912 0.289381 -0.0354246 -0.430451 -0.722292 -0.265419 0.0460811 -0.103625 -0.0111553 0.209234 -0.284289 -1.17108 0.360325 0.224669 -0.670279 -0.352041 0.170202 -0.192951 -0.4691 0.430869 0.185653 -0.177604 -0.365223 0.294495 -0.846299 -0.136613 -0.459461 -0.0325217 -0.0777985 -0.853713 0.196226 0.0194128 0.220583 -0.291707 -0.955374 0.552387 -0.540838 0.229513 -0.485048 0.330293 0.0847809 0.380296 -0.111103 
19 -0.0310699 -0.315548 -0.292904 0.152745 -0.210409 -0.550175 -0.171223 -0.58129 0.131823 -0.279654 -0.77247 0.608897 0.434861 -0.131225 0.57128 -1.28401 -0.244658 0.119649 0.557495 0.690039 0.0662241 0.164951 0.406653 -0.0596426 -0.228247 -0.29711 0.584644 0.534688 -0.433489 0.0866682 0.278707 -0.0870468 -0.397926 1.05224 0.17039 0.296352 0.354476 0.177527 -0.288316 0.12878 0.278429 0.277486 -0.0825218 0.0475437 -0.109635 0.0133294 0.951724 0.853508 -0.653529 0.285309 -0.297322 0.426315 0.0646243 -0.0939064 0.477811 -0.483165 -0.112426 0.0345445 0.55886 -0.146427 0.764978 0.491018 0.0119219 0.595873 0.238415 -0.212846 0.00629843 -0.287896 -0.358113 -0.238543 -0.0723268 0.144774 -0.00330786 -0.16871 -0.392335 -0.07796 0.628045 0.0312827 -0.0393575 -0.157053 0.190233 -0.0471382 0.190812 0.0628756 -0.0197124 0.244205 -0.144878 -0.0370439 -0.0518699 -0.474431 -0.62187 -0.326813 0.131893 0.715794 -0.305307 -0.222987 -0.510426 0.0712289 -0.178866 0.238869 -0.568012 0.787162 0.176178 -0.698535 -0.0153329 0.076906 -0.268378 -0.138489 -0.210519 -0.496211 0.286485 -0.575955 -0.481469 0.159198 -0.393323 -0.324388 -0.174863 -0.169073 -0.685202 -1.316 0.0210483 -0.267576 -0.0255468 -0.156586 0.447091 -0.0119142 0.205361 -0.902365 
20 0.0059641 -0.195739 0.0498829 0.369804 -0.0161468 -0.870815 -0.070668 -0.0280179 0.263977 0.547279 -1.06488 -0.188298 -0.202153 -0.366347 0.683091 -0.968757 0.0449333 -0.243752 -0.297349 0.50765 -0.573357 -0.0609626 0.256701 -0.299634 0.500344 -0.287461 0.876616 -0.0188 0.444142 0.145315 -0.310997 -0.211216 -0.287386 0.907714 0.427599 -0.15908 0.896927 0.0478303 -0.329454 0.249909 0.103505 0.172395 0.34414 0.389172 0.770486 -0.00502734 1.0629 0.651462 -0.522797 0.323151 0.292759 0.703708 0.290352 -0.118162 0.161395 -0.409696 0.115539 -0.385873 0.479539 -0.0602601 0.873443 -0.060114 -0.50501 0.611707 -0.0273304 0.2262 -0.149913 -0.1964 -0.553185 0.304627 -0.124237 -0.138692 0.203016 0.158147 -0.537747 -0.386816 0.24102 0.356111 -0.24807 -0.339438 -0.00812051 0.136485 -0.139418 0.368056 -0.224186 0.00763897 0.514476 -0.508715 0.118872 -0.832612 0.0219071 -0.490513 0.0720855 0.0844878 0.26697 -0.230174 -0.454989 0.116624 0.550054 0.206569 -0.342196 -0.100278 -0.258161 -0.4347 -0.351779 0.199018 -0.39531 0.275121 -0.0384277 -0.178614 -0.136584 -0.85993 0.155362 0.779458 -0.17863 0.0785601 -0.821302 -0.313571 -0.398845 -1.02701 -0.068781 -0.389104 0.282541 -0.0906922 -0.223682 -0.674896 -0.0551282 -0.522108 
21 -0.0408926 0.21114 -0.120139 0.0859716 0.0010953 -0.506647 0.391616 -0.903424 -0.195096 0.153617 -0.142139 -0.301675 1.27407 0.207649 -0.273597 0.213573 0.359904 -0.157614 0.0945456 1.36507 -0.473901 0.131901 0.0379649 0.00554315 0.348816 -0.0510262 0.628782 -0.446311 -0.143839 0.0761801 -0.403418 -0.345545 -0.204333 0.261248 -0.0862159 -0.359732 0.581686 0.64345 -0.167111 -0.0529753 0.318606 0.11343 1.29853 0.0420056 -0.421866 -0.435754 0.929913 0.964351 -0.484767 0.133945 0.0382581 0.111924 -0.342255 -0.324973 0.742323 -0.934609 -0.294298 0.216395 0.511484 -0.304614 0.988025 0.174136 -0.114935 0.371197 -0.242582 -0.0640635 -0.00290569 0.256612 -0.105325 -0.211724 0.337882 -0.536139 -0.353214 -0.773315 0.0920905 -0.175002 0.620868 0.251991 0.00730399 -0.225269 0.425025 0.0223169 0.017987 0.413623 0.142977 -0.465287 -0.490794 -0.733118 -0.209748 -0.227853 -0.856014 0.284513 0.376901 -0.24137 -0.292498 0.0826736 0.226864 0.00626913 0.490863 -0.517508 -0.850843 0.28866 0.210795 -0.0477794 -0.233454 0.828889 -0.461595 0.163397 0.682122 0.167455 -0.397521 -0.383418 -0.422208 0.111274 0.201817 0.0282522 0.0999419 -0.448826 -0.36955 -0.750622 1.00025 0.280753 -0.819413 -0.743594 -0.151178 -0.0669352 -0.197923 -0.761495 
22 -0.76371 0.515679 -0.765329 0.891552 0.389041 -0.256427 0.511131 0.263067 -0.557592 -0.0966995 0.408962 -0.382359 0.201203 0.158107 0.724758 -0.652069 0.473343 -0.892752 -0.223179 0.202129 -0.832427 -0.799933 -0.435679 -0.782355 0.519738 0.152339 0.622275 0.599325 -0.498394 -0.112565 0.220182 0.353652 0.341509 -0.157205 0.0116451 0.151221 0.560359 0.0139641 -0.373744 -0.767092 1.13234 0.649173 0.376566 0.547267 -0.230272 0.0362897 -0.334052 0.606829 -0.199028 -0.687565 -0.427385 -0.235796 -0.387389 0.322056 -0.338856 -0.813291 -0.302578 0.401989 0.623744 0.376531 -0.312147 -0.132555 0.473647 0.801787 0.153709 0.308017 0.539171 0.14598 -0.430085 0.5659 0.726538 -0.0515627 -0.211002 0.200909 -0.88134 -0.240805 0.447069 0.46229 0.489755 0.32731 1.43585 -0.275763 -0.256068 -0.452613 -0.0129831 -0.155621 -0.352946 -0.115986 0.129968 -0.66107 -1.17181 -0.517947 -0.446818 -0.933468 0.0923963 0.0814778 -0.330694 0.0445672 0.321158 0.0511473 -0.806293 -0.230002 0.166847 0.645473 0.369399 -0.0297805 -0.207242 -0.302164 0.445591 -0.28304 0.543564 0.484739 -0.636013 0.63661 0.592855 -0.174121 0.363665 -0.889096 -0.342524 -1.16368 0.566021 -0.410163 -0.113526 -0.36574 -0.0439584 0.239583 -0.144745 -0.959144 
23 0.340351 0.387839 0.695416 -0.0290937 0.121737 -0.498804 -0.064519 -0.182372 -0.143919 0.866737 -0.849997 -0.444738 0.161429 0.0842913 0.685572 -0.509103 0.429351 -0.389866 -0.209764 0.286293 -0.746449 0.254305 0.43806 0.0953554 0.140576 0.419307 -0.112317 0.563079 0.714901 -0.110459 -0.0480941 0.0521011 -0.293893 0.809689 -0.195326 0.0449735 0.7719 -0.0801507 0.0599102 -0.0364081 0.431072 -0.0678158 0.900311 -0.22066 0.642749 0.237893 0.616025 1.11037 -0.0780865 0.363524 0.327871 -0.172917 -0.182653 -0.0654733 0.00418158 -0.00787522 -0.286525 0.170945 0.441508 0.274284 0.357783 -0.17534 -0.288655 0.585999 0.323643 0.191987 -0.0304501 -0.536617 -0.0852803 -0.0280478 -0.504983 -0.310997 0.131272 -0.0889433 -0.251808 0.473172 0.0343031 0.095949 -0.174683 -0.0464824 0.350448 -0.0871789 -0.847759 0.252661 -0.325608 0.450904 0.581193 -0.284077 -0.629374 -0.13106 0.108399 0.40602 0.178795 0.0903931 -0.111901 -0.185202 -0.746619 0.264111 0.542337 -0.0149515 -0.529392 -0.636296 0.368872 -0.527967 0.0289894 0.101488 -0.0719976 -0.359534 0.279368 -0.346793 0.027265 -0.37883 -0.385718 0.287137 0.0805533 0.013654 -0.582084 -0.830702 0.210962 -1.20271 0.201048 -0.233074 0.0174633 -0.591661 -0.565789 -0.950781 0.156426 -0.0404043 
24 -0.415107 -0.180966 -0.104649 0.26635 0.378547 -0.198194 0.513786 -0.0601427 -1.15779 0.571277 -0.426123 -0.216812 0.662139 0.102511 -0.417644 0.00226802 0.369302 -0.0973757 0.370054 0.539584 0.0865605 0.152451 0.877911 0.830343 0.538835 0.0927248 -0.182866 0.81526 0.606135 0.0836759 -0.181563 -0.525274 -0.00870548 0.422716 -0.427088 0.227367 0.7957 0.645952 0.214771 0.68676 0.508894 0.204066 -0.0261896 -0.0976647 -0.0157519 0.0485031 0.664237 1.1702 0.511166 1.34751 0.202781 -0.757038 -0.63358 -1.3858 0.389867 -0.358096 -0.734362 -0.231296 0.176971 -0.4648 0.716464 0.139096 0.438938 0.150658 0.207976 0.797161 -0.0673261 -0.184943 -0.189623 0.921007 -0.0473356 -0.135071 -0.111924 -0.215554 -0.637715 -0.685958 0.475427 0.117144 -0.387965 -0.1285 0.690614 0.0652619 0.171744 -0.719302 -0.392316 0.113464 0.111356 -0.383216 -0.590996 -0.349561 -0.987831 -0.333209 -0.39368 0.241765 -0.267055 -0.158442 -0.592963 0.212501 0.57621 0.197786 -0.453902 0.599553 0.0387716 -0.381226 0.344452 1.01154 -0.111483 -0.283346 0.755809 -0.260925 0.399888 -1.04696 -0.47236 0.199481 -0.462408 -0.384501 0.557977 0.244627 -0.626421 -0.884159 -0.0802287 0.0587097 0.163132 -0.49678 -0.589018 0.0721888 -0.657417 -0.46935 
25 0.0650563 -0.0251845 -0.41208 -0.148334 -0.217902 0.318364 -0.57959 -0.428223 0.224539 0.537017 -0.573761 -0.377364 0.799811 -0.00895359 0.0970037 -0.884537 -0.32543 -0.0635531 0.430652 -0.213226 0.316896 -0.559796 1.31904 -0.0903908 0.413837 -0.520016 0.57448 0.369627 0.264592 -0.171149 0.180061 0.0753999 0.370514 0.205915 -0.600859 -0.387465 0.960963 0.520484 -0.15638 0.465313 0.0754513 0.126713 0.101165 0.309649 -0.5725 -0.192704 0.310828 1.21032 -1.10374 0.55369 -0.0769561 0.402586 -0.855315 -0.249646 0.561054 0.0755101 -0.308952 0.214815 0.466499 -0.288316 0.782418 -0.320518 0.611065 0.696463 0.273631 0.00939348 0.640641 -0.603883 -0.456312 0.494047 -0.579579 -0.136558 0.960938 0.977931 -0.484187 -0.0989778 0.455955 -0.114832 0.224687 -0.580141 1.51064 -0.110263 0.177496 0.464806 -0.310138 0.0956207 0.0308008 -0.423158 -0.393192 0.240881 -1.08122 -0.855406 -0.268425 -0.159076 -0.114752 0.381189 -0.0534899 -0.181932 0.759367 -0.169828 -0.0898666 0.138357 0.383972 -0.0747834 0.600335 -0.179875 -0.315531 -0.387772 0.131429 0.031391 0.318783 -0.530473 -0.397731 1.01296 -1.06593 -0.878182 -0.173124 -0.0190571 -0.868944 -0.920673 0.419667 0.106591 -0.226777 0.0388071 0.109413 -0.478685 0.397446 -0.323395 
26 0.333618 0.239443 -0.266622 -0.0380416 -0.516552 0.204043 0.572685 -0.374296 -0.660133 0.638146 -1.22317 -0.832618 0.578812 -0.37201 0.168707 -0.645816 -0.344676 -0.0468313 -0.180224 0.117722 -0.107788 -0.239235 1.20129 0.230702 0.4774 -0.166676 0.834504 0.508476 0.933344 0.16427 0.816073 0.66077 -0.520871 0.00627845 -0.176507 -0.0424069 0.54754 0.630832 -0.0357669 0.611941 0.43346 0.50624 0.501333 -0.267361 0.758873 0.741201 0.955807 0.665857 -0.255022 0.765466 0.11382 0.0281358 -0.534477 -0.822145 0.36479 -0.472308 -0.121852 0.244845 0.936011 -0.297675 0.623831 0.393823 -0.549686 0.533338 -0.285646 0.467261 0.189428 -0.306554 -0.331795 0.233535 -0.0291515 -0.609474 0.562921 0.799551 -0.20095 -0.25407 0.713025 0.119856 -0.0449422 -1.12046 0.388455 -0.284351 0.19997 0.0582901 0.167237 0.177771 -0.490385 -0.720104 -0.71023 0.189351 -0.207677 -0.930911 -0.0705798 0.298851 0.0231247 -0.708359 0.0228596 0.362747 0.599454 -0.0715342 -0.337318 -0.383819 -0.66063 -0.157419 -0.207043 1.19132 -0.17606 -0.187823 0.121217 0.018769 -0.138411 -0.778063 -0.188783 0.453295 -1.37552 -0.29159 0.308275 0.292682 -0.856749 -0.927764 0.133388 0.654628 0.318369 -0.345369 -0.0237194 -0.167717 -0.652403 -0.0339203 
27 -0.0129162 0.115431 0.12937 0.264922 -0.235189 -0.105849 0.205804 -0.082701 -0.539486 0.0737746 -0.351337 -0.14736 0.232336 -0.356974 0.256384 -0.00372648 -0.136002 -0.13061 -0.157926 0.514685 -0.236585 0.131479 0.529282 0.559407 0.209962 -0.00596166 0.309173 0.550709 0.357124 -0.421461 -0.386407 0.305225 -0.144678 -0.173513 0.144355 0.436996 0.351318 0.403421 0.149534 0.65972 0.507707 -0.235597 0.0114102 0.0269035 0.105857 0.723128 0.10896 0.764353 0.00659106 0.0715592 -0.288643 0.271388 -0.39689 -0.235435 0.0622304 -0.0658755 -0.337217 0.347439 0.015355 -0.103216 0.11789 -0.0107614 -0.00300115 -0.0143995 -0.192065 0.219001 0.193314 -0.106005 0.0368015 -0.00540064 -0.267563 0.127287 -0.0460786 -0.11439 -0.185717 0.0107054 0.298654 -0.143105 -0.633645 0.307587 0.370459 -0.130161 -0.241948 0.137568 -0.456629 0.034223 0.0873726 -0.0932909 -0.317332 0.151973 -0.32835 0.242077 -0.3294 -0.213867 -0.065887 -0.300924 -0.358382 -0.199344 -0.0110825 -0.818489 -0.356888 0.140344 -0.101138 -0.159935 0.0834867 -0.0409499 -0.552946 -0.267224 0.0375111 -0.185197 0.0367214 0.0337617 -0.176168 -0.0260437 -0.345346 -0.179339 0.222 -0.288725 -0.129413 -0.646324 0.3302 0.232668 -0.275238 0.0362776 0.20206 -0.0679873 0.226692 -0.604652 
28 0.0353824 0.41922 -1.0398 0.835551 -0.108452 0.346584 0.720641 -0.390007 0.145226 -0.569053 0.261517 -0.587247 -0.043025 -0.282392 0.850464 -0.383369 0.489733 -0.829267 0.103334 -0.175869 -0.706543 -1.01932 -0.169101 -0.29173 0.919207 0.64527 0.868067 0.225239 0.155541 -0.0398612 -0.349482 0.0925186 0.549011 -0.224714 0.442339 0.620684 0.222581 -0.112958 -0.214632 -0.703261 1.10154 0.268999 0.110238 -0.0527773 -0.807042 0.545068 -0.208138 0.752284 -0.780735 0.0434514 -0.0778471 0.333001 0.239757 0.521666 -0.0784382 -0.864849 -0.273638 0.772703 0.320315 0.082919 -0.393728 -0.0943646 0.638039 1.81993 -0.00475181 0.116951 0.179485 0.426343 -0.160671 0.335624 0.362661 -0.174279 0.21488 -0.224393 -1.28379 -0.0346812 0.666923 0.147496 0.664597 0.194606 1.04635 -0.497551 -0.0522356 -0.00953542 -0.271553 0.438728 0.145503 0.391437 0.428607 -0.698991 -1.45602 -0.32114 -0.366562 -0.682864 0.271592 -0.13944 -0.153716 -0.0381493 1.03407 0.019936 -0.626533 -0.255026 0.261558 -0.293265 0.0175881 -0.239472 0.250297 0.0332934 0.46282 -0.140689 0.253514 0.0597401 -0.231408 0.545172 0.717977 -0.288737 0.313965 -0.869222 -0.240655 -1.1172 0.281771 -0.0223556 -0.32985 -0.60986 -0.146269 0.464483 0.630281 -0.231201 
29 0.217724 0.45528 0.0453138 -0.478943 -0.304723 -0.717833 -0.736878 -0.0537605 -0.476547 0.365258 -0.481164 0.62838 0.488762 0.331049 -0.0160108 -0.277604 -0.403674 -0.211099 0.256487 0.72224 -1.03099 0.216353 0.5928 0.464156 -0.268048 0.453175 0.314348 0.143323 0.245615 -0.57461 -0.506184 0.000825598 0.0557022 0.524126 0.49515 0.0943465 -0.138802 0.585781 0.252666 0.0679695 0.249315 -0.247149 -0.180201 0.345862 0.0873743 0.345927 0.882012 1.15757 -0.225907 0.672945 0.00767953 -0.265346 -0.260512 -0.568605 0.201913 -0.0847901 -0.242349 -0.296918 1.25084 0.0188314 0.43899 -0.295993 0.132971 0.577353 0.013666 0.99395 0.97932 -0.147084 -0.636969 0.51901 -0.0635798 -0.763474 0.463531 0.0682866 -0.643785 0.157757 0.207534 0.173917 -0.249701 -0.0790252 0.945487 -0.109316 -0.245783 -0.052508 0.149151 -0.161805 0.367818 -0.142925 -0.38753 -0.548271 -0.489007 -0.22101 0.0858389 -0.260687 0.185033 -0.347425 0.194615 0.786667 0.381379 -0.839334 -0.589546 0.447572 0.371627 -0.160552 0.0253935 -0.197578 -0.309668 -0.711655 0.163943 -0.931655 0.41825 -0.0892849 -0.225645 0.623327 -0.461535 -0.126881 -0.111636 0.437753 -0.127719 -0.34779 0.0614897 0.107088 -0.173612 -0.537172 -0.00947479 0.0400422 -0.374815 -0.80168 
30 0.193629 -0.706071 0.65631 0.124877 -0.774453 0.813175 0.348646 -0.291966 0.838716 1.07257 -0.642434 0.162288 0.38247 -0.14813 0.514995 -0.480155 -0.18847 -0.059802 -0.0728892 0.259661 -0.223831 -0.128053 1.67374 -0.15709 -0.0555045 -0.546177 0.477052 1.22225 0.810442 0.105605 0.0245062 -0.761526 -0.22309 -0.0910624 0.0701171 -0.335583 1.27104 0.361166 0.0312554 0.74016 1.02097 -0.174992 -0.579863 1.11862 -0.504088 0.0629876 1.02511 0.622926 -0.50071 1.30957 -0.199078 -0.105681 0.00484868 -0.619018 0.731156 -1.39839 -0.362053 0.12181 0.465843 -0.450035 -0.0675968 0.132358 -0.272679 0.665558 0.132135 0.527774 0.41334 0.547305 -0.222611 -0.0720693 -1.42171 0.0523808 1.35349 0.196465 -0.273632 -0.62405 0.498786 -0.293501 -0.272696 -0.483423 1.37967 0.304276 0.450856 0.179047 -1.09795 0.264533 0.310785 0.421421 -0.353562 0.063321 -0.928677 0.00222983 -0.108604 -0.668724 0.164181 -0.480145 -0.418927 0.627967 0.721753 -0.0743692 -0.29479 -0.189605 -1.0005 -0.732718 -0.0700524 0.0383521 -0.812927 0.00714255 -0.508207 -0.0290615 0.555692 -0.322876 -0.525294 -0.0196461 -0.693702 0.133757 -0.50483 0.273058 0.328397 -0.518079 0.0694697 -0.182553 -0.0773375 0.470777 -0.248431 -0.1573 -0.316862 -0.142713 
31 0.133804 0.0728158 -0.139289 -0.863261 -0.527467 0.243116 -0.240345 0.332763 -0.190567 0.890903 -0.950452 -0.31835 -0.23199 -0.485247 0.714622 0.104343 0.14417 0.486667 -0.309835 0.276809 0.578177 0.227054 0.83872 -0.134892 0.0508236 -0.739641 1.03292 1.16316 0.46394 0.700719 -1.00734 -0.562859 0.678512 -0.322659 -0.31675 -0.453464 1.70349 0.930043 0.459916 0.672382 0.600933 -0.659795 -0.0310901 0.963614 -0.158712 -0.0538 1.13803 0.936651 0.315892 1.11122 -0.897325 -0.119881 -0.337752 0.218897 0.67799 -1.15834 -0.395691 -0.356007 0.639377 -0.31551 0.23381 0.26041 -0.408911 0.641776 0.0854612 -0.343615 0.0638122 0.344576 0.336737 -0.159461 -0.774921 -0.461505 1.47717 -0.213384 -0.425966 -0.860465 0.645309 -0.66017 0.667862 -0.850088 0.866349 0.342958 -0.532407 -0.508247 -0.870652 0.137872 0.610561 -0.1624 -0.703197 -0.134426 -1.58692 0.0220373 0.061362 -0.135 -0.244022 -0.578896 -0.492522 0.34153 0.0900879 0.558464 -0.568617 0.300418 -1.14634 -0.690701 0.120986 0.0784257 -0.743637 0.206512 0.131515 -0.319509 -0.0512035 -0.832411 -0.254042 -0.281142 -0.962507 0.125729 -0.253047 0.151815 -0.400138 -0.38504 0.241653 0.396262 -0.62312 0.136455 -0.324145 0.165063 -0.164708 -0.525303 
32 -0.605491 -0.113818 -0.123347 0.452715 -0.380081 -0.351283 1.21439 0.21626 -0.54228 -0.0883012 -0.562979 -0.766512 1.74493 0.366961 -0.405052 -0.0899624 0.534607 0.0271287 0.393441 0.884714 -0.419275 -0.402875 -0.027321 0.0208752 0.750768 0.117837 -0.0799188 0.854653 0.169403 -0.706808 -0.227193 -0.314653 0.93711 0.482 -0.117824 -0.014697 0.902888 0.432038 0.149961 -0.823159 1.16711 0.729604 0.403301 -0.144654 0.335228 -0.0874935 0.845949 1.12669 -0.602186 0.873088 -0.0385341 -0.470418 -0.633416 0.0110311 -0.366683 -0.759772 -0.428664 -0.584894 0.501805 0.141975 0.894932 -0.153757 0.131251 -0.0139553 -0.0230384 0.179917 -0.113357 -0.269754 -0.366602 0.290061 0.00434498 0.0666971 -0.370756 -0.75502 -0.128282 0.369387 0.414568 0.545332 -0.0253602 -0.594067 0.640867 -0.32377 0.136215 -0.888209 -0.392985 -0.105904 -0.411889 -0.909039 0.219498 -0.417978 -1.01533 -0.0808748 0.24688 -0.265509 -0.527929 -0.521835 -0.323352 -0.437495 0.343003 0.925577 -0.842866 0.393503 -0.0700973 -0.530485 0.0812258 0.972547 -0.507508 -0.148104 1.19585 -0.567239 -0.31803 -0.534191 -1.01371 -0.0326017 -0.0188244 -0.368808 0.530641 0.00607386 0.115488 -1.01585 0.167501 0.441814 -0.203652 -1.04595 0.246299 0.378302 -0.293409 -0.913188 
33 -0.0983395 -0.186337 -0.0770405 0.368402 -0.303224 -0.529131 -0.316462 -0.681981 -0.343771 -0.017053 -0.108573 0.0460024 0.354008 -0.47297 0.171146 0.212479 0.0688215 -0.239339 0.223039 0.456717 -0.0356761 0.0836117 0.460288 0.129272 0.125594 -0.0539921 0.462584 0.0343287 0.707356 -0.328536 -0.486976 0.334847 -0.23892 0.270202 0.0982163 -0.022844 0.422684 -0.127683 0.173751 0.303776 0.403606 -0.109619 0.208169 0.183152 0.131727 0.262807 0.639581 0.830624 -0.332747 -0.0715405 -0.0569423 0.505681 -0.467024 -0.777362 0.0586741 0.235266 -0.42764 0.288019 0.507362 -0.314429 0.132524 -0.172755 0.170125 -0.100682 0.0536923 0.107475 0.0540519 -0.0991048 -0.471794 0.290961 -0.103668 -0.310413 -0.097887 0.140902 -0.26812 0.42184 0.483423 0.32599 -0.160313 -0.239185 0.125359 -0.209517 -0.132313 0.592828 0.234012 0.204375 0.142819 -0.5068 -0.388791 -0.554398 -0.206113 0.370236 -0.669212 0.0524833 0.035095 -0.0900805 -0.121609 -0.305822 -0.159657 -0.207099 -0.357969 -0.0678402 0.216763 -0.293753 0.134328 0.223649 -0.359819 0.268981 0.392459 -0.496163 -0.24366 0.149337 -0.290082 0.253229 -0.0292125 0.089721 -0.383101 -0.0848503 0.0649215 -0.636851 0.384748 -0.0284573 -0.169151 -0.428446 -0.138013 -0.00910394 -0.0968131 -0.218114 
34 -0.580284 0.663142 -0.513491 -0.193892 -0.531206 -0.888872 0.23524 0.403467 -0.0109704 -0.525697 -0.0722531 -0.81022 0.017316 -0.761349 0.982524 0.421682 0.530641 -0.148318 0.459244 0.728395 -0.297476 -0.960687 0.279531 -0.0425552 1.03806 -0.402616 0.215233 0.784485 -0.435552 -0.984116 -0.157723 0.0853573 1.34567 0.529233 -0.278606 0.432502 0.97406 0.299277 -0.420008 -1.07172 1.32173 0.665243 -0.0168197 0.200408 0.349868 -0.419077 1.17661 0.493356 -0.622416 1.20005 0.0697921 0.415235 -0.621065 0.19936 -0.0573853 -0.355544 0.177612 -0.648538 1.0961 -0.102931 0.0275736 -0.419085 0.064308 0.795693 0.268219 -0.629352 0.160665 -0.162536 -0.616133 0.590039 0.32186 0.271623 0.0490221 -0.104746 -0.331599 0.0859279 0.41075 0.619096 0.805028 -0.363533 1.16286 0.105035 0.0762905 -0.758891 0.0559821 0.263955 -0.0706641 -0.248207 -0.570405 -0.51141 -0.759945 0.27907 0.230382 -0.848514 0.120342 -0.962913 0.294368 -0.20052 -0.0420995 0.88082 -0.37977 0.514619 -0.292354 0.51776 -0.171478 -0.0262769 -0.63993 0.392554 0.808341 -0.412527 0.257302 -0.64249 -0.795983 0.570189 0.0206488 0.355177 0.617532 -0.745551 0.0393256 -0.561559 0.533987 -0.111866 -0.404408 0.0690425 0.26059 -0.28691 0.70213 -0.440368 
35 0.135286 -0.0916699 0.123111 0.211374 -0.468432 -1.15913 -0.367482 -0.536655 -0.0980585 0.0460488 -1.32525 -0.544546 -0.0126918 -0.163789 -0.00282154 -0.645267 0.255271 -0.603875 -0.598045 0.300636 0.0611294 0.390779 0.918275 0.522819 0.392429 -0.0845068 0.522938 0.613831 0.647186 0.054391 -0.594047 0.342674 -0.797754 0.864219 0.476448 -0.531267 0.95794 0.470553 0.0540782 0.767938 0.36935 -0.148091 -0.188131 0.316611 0.558345 0.40333 1.15599 1.08768 -0.35504 0.590216 0.0644544 0.201613 -0.0374483 -0.138872 0.160898 -0.150297 -0.667395 0.159086 0.384023 0.100637 0.645213 -0.318216 -0.218242 0.702501 -0.375641 0.385266 -0.11195 -0.340954 -0.300545 0.227934 -0.42558 -0.273588 0.341206 -0.00740776 -0.410373 -0.0910222 0.317535 0.466488 -0.8014 -0.263926 0.0271147 -0.206438 -0.330431 0.5837 -0.519118 0.297633 0.436309 -0.483449 -0.0664161 -0.685275 -0.528481 -0.0577038 -0.135241 0.177819 0.124897 -0.478941 -0.525288 0.682669 0.795452 -0.409291 0.0124576 -0.617464 -0.412699 -0.277453 -0.244146 0.19235 0.100863 0.484888 0.634643 -0.201795 -0.137138 -0.422968 0.0264231 0.360415 -0.217092 -0.025698 -0.893775 0.556224 -0.245376 -1.06558 0.258456 -0.723002 1.05343 -0.315612 -0.0332492 -0.874004 0.26605 -0.17073 
36 -0.226778 -0.165872 0.138426 0.517568 0.126508 -1.0307 0.0231685 -1.16074 0.0592723 0.187979 -1.36511 -0.678725 -0.233991 -0.433563 -0.102401 -0.703184 0.837552 -0.359806 -0.0329153 0.325171 -0.850769 0.643635 0.85459 0.0673544 -0.16363 0.481247 0.762595 0.536259 0.264595 -0.20577 -0.389505 -0.342548 0.00130437 0.734528 0.184004 -0.161124 0.918047 0.15621 0.231712 0.368728 0.345087 0.552672 -0.110689 0.222452 0.0121683 0.239654 0.913708 1.37608 -0.410102 0.166501 0.37373 0.0780693 -0.516624 -0.0744388 0.676313 -0.303455 -0.513396 0.499311 0.718615 -0.418557 0.565409 0.208002 0.413119 0.347634 -0.649411 0.546211 0.568228 -0.725402 -0.77256 -0.58652 -0.773891 0.228765 -0.258995 0.157482 -0.460635 -0.376934 0.0818127 0.0381777 -0.524494 -0.628987 0.375409 -0.412676 -0.264662 0.448073 0.176601 -0.0311763 0.247415 -0.000395499 -0.186249 -0.148231 -0.402788 -0.247137 0.0839984 -0.157529 1.07139 -0.0959724 -0.311872 0.63911 0.781063 -0.00805549 -0.532766 -0.0321271 0.231287 0.165094 -0.0119573 -0.159588 -0.478804 -0.132099 0.188264 -0.658577 -0.21933 -1.05369 0.126025 0.475763 -0.573393 -0.353612 -0.752536 -0.0132017 0.211276 -1.06198 0.246142 -0.624433 0.0283313 -0.856091 -0.190414 -0.174276 0.197916 0.220076 
37 -0.630683 0.357755 -0.103029 -0.460551 0.0400037 -0.0651858 0.359578 -0.49196 -0.663572 -0.106204 -0.192478 -0.970481 0.744172 -0.394886 0.516701 -0.852914 -0.0932089 0.296372 -0.137535 0.435277 -0.629405 -0.582961 -0.0719118 0.726984 0.578427 -0.0354884 0.393903 1.05355 0.466693 -0.107029 -0.184477 0.2128 0.140996 0.449401 0.00675069 -0.432026 1.65674 0.819957 0.064876 -0.26654 0.170038 0.0853487 0.383437 0.401648 -0.0762435 -0.933747 0.517614 0.670777 -0.928354 0.869952 0.0844495 0.681919 0.371267 -0.232066 -0.0241335 -1.58129 -0.555201 -0.0286629 0.0559799 0.341661 -0.0037859 0.378803 0.260251 0.641519 0.0101247 0.0353224 0.973999 -0.765385 -0.479384 -0.121113 0.521908 -0.535627 0.425296 -0.180059 0.101465 -1.38037 0.539782 0.127312 0.00810864 -0.149244 1.14778 -0.302782 -1.18812 -0.768322 0.1022 0.740153 0.0394887 -1.0634 -0.506155 -0.010208 -0.485262 0.433941 -0.133503 -0.667203 -0.125844 -0.872536 -0.290191 -0.0696236 0.587929 0.694982 -0.651896 0.469259 -0.0357595 0.676501 0.218678 -0.0116019 -0.361353 0.181843 -0.0492293 0.170075 0.360864 -0.146819 -0.497416 0.724061 0.0867249 -0.104476 -0.0789931 -0.61798 -0.125745 -0.7891 0.826336 0.473206 -0.142051 -0.349972 -0.558049 -0.254448 -0.203166 -0.8773 
38 -0.10654 -0.0909036 0.0489287 0.216478 -0.330695 -1.20487 -0.135132 -0.337458 -0.304098 0.235119 -1.00927 -0.455068 -0.131041 -0.352047 0.219032 -0.857288 0.234434 -0.411534 -0.215923 0.288098 -0.355616 0.535032 0.813266 0.279668 0.306117 -0.0286991 0.551329 0.352251 0.748047 -0.0790311 -0.558682 -0.0077592 -0.726703 0.915288 0.268391 -0.595369 1.03884 0.289184 -0.195182 0.404607 0.37311 0.0338226 0.202104 0.227565 0.621919 0.512934 0.953217 1.06669 -0.404014 0.412914 0.207181 0.231136 0.0558009 -0.259268 0.219193 -0.0940813 -0.426162 -0.0483948 0.566234 0.0625619 0.65652 -0.137981 -0.185866 0.825674 -0.424128 0.289599 -0.0155381 -0.179854 -0.504461 -0.187417 -0.543447 -0.257491 0.163428 0.258659 -0.3837 -0.454396 0.286943 0.550187 -0.629958 -0.327627 0.0436719 -0.0163317 -0.199734 0.479976 -0.161898 0.463918 0.394504 -0.372033 0.00527185 -0.735354 -0.358736 -0.149224 -0.114516 0.0830318 0.257146 -0.386431 -0.61151 0.737691 0.962394 0.0597524 -0.32584 -0.382151 -0.496644 -0.372809 -0.250739 0.207729 -0.0153548 0.264995 0.62073 -0.263604 -0.133744 -0.435778 0.0819634 0.413538 -0.360784 -0.218537 -0.908141 0.197683 -0.13994 -1.16969 0.0972199 -0.747512 0.672477 -0.676464 -0.327679 -0.591213 0.309077 0.0379988 
39 -0.162368 0.152045 -0.212229 -0.382888 -0.435696 -1.12557 -0.166363 0.237186 0.0851139 0.538765 -0.606625 -0.0480945 -0.00569633 -0.48237 -0.325735 -0.885576 -0.100593 -0.0682885 -0.112693 0.19815 -0.794991 0.129938 0.626934 -0.0477614 0.727138 -0.30312 0.287455 0.529044 0.648685 -0.0434585 -1.18572 0.105777 0.087769 0.500512 -0.0588575 -0.414887 1.29532 0.124998 -0.246276 0.3148 0.791436 0.0291176 0.347289 0.391582 0.12108 -0.0225618 0.341856 0.983011 -0.395724 0.409172 0.157662 0.212691 -0.0911105 -0.197453 0.454547 0.0147813 0.0280541 0.300811 0.586149 0.223837 0.459979 0.0743815 -0.379654 0.718798 0.243441 0.201681 -0.120327 0.0711233 -1.04717 0.170218 0.104564 -0.175076 0.166195 0.19546 -0.283964 -0.630564 0.57382 -0.0855581 -0.170613 -0.232855 0.371823 -0.35664 -0.0301325 0.467069 0.227156 0.0444233 0.924686 -0.844817 -0.147238 -0.252471 -0.3555 -0.314258 0.369546 0.369127 0.64422 -0.278007 0.0779079 -0.259446 0.287427 0.389951 -0.138552 -0.0101107 -0.318704 -0.120319 0.501857 -0.205737 -0.685509 0.10326 0.00973294 -0.115608 0.0743343 -0.512228 -0.0273418 1.03635 -0.147548 0.395052 -0.439415 -0.294319 -0.963999 -0.615898 -0.160822 -0.666924 0.163759 -0.319509 -0.168123 -0.446137 0.37561 -1.30904 
40 0.661311 0.240129 0.0118719 -0.0152704 -0.0208161 -1.49734 -0.662049 -1.35944 0.0778024 -0.146144 -1.29242 0.85748 0.424368 -0.0792844 -0.46699 -0.52802 -0.0359057 -0.0843157 -0.567799 0.57547 -0.160043 0.835067 1.07952 0.255444 0.842068 -0.0735929 -0.489923 0.665147 0.0666371 -0.491486 -0.335432 1.12229 -0.756266 1.27826 0.154711 0.484445 0.520739 0.186633 -0.254144 1.01995 0.722715 0.111961 -0.251599 0.106016 -0.219282 0.124605 0.123451 0.525787 -0.423225 -0.0266602 0.184829 0.63525 -0.701248 -0.359832 0.467442 0.460576 -0.930979 0.82647 0.917441 -0.0680963 0.309126 0.735352 0.186125 0.49638 -0.574149 0.59928 0.556738 -0.247693 -0.369259 -0.289082 -0.326209 -0.18562 0.0242725 0.711954 -0.24149 0.338313 0.554224 -0.265094 -0.706493 0.674569 0.287901 -0.708264 -0.35077 0.834705 -0.941238 -0.135448 -0.461622 -0.158052 -0.0989553 -0.713891 -0.979841 0.607594 0.322817 -0.0588772 0.379716 -0.143079 -0.972515 0.23283 -0.217916 0.0143954 -0.672732 0.579829 0.120502 0.0252856 0.141942 0.340156 0.0402565 -0.549656 -0.248107 -0.890907 -0.15797 -0.89108 -0.363929 -0.275024 -0.530712 -0.128482 0.0334367 0.128743 -0.670118 -0.817399 -0.0145282 -0.384597 0.228139 0.0226555 0.562789 0.365472 0.332909 -1.00161 
41 0.429687 -0.451372 -0.270627 -0.44134 0.0585785 -0.965013 -0.465926 -0.563885 0.412197 -0.0271332 -0.228262 -0.060557 0.350925 -0.131927 0.0655254 -0.176969 0.047287 -0.257911 -0.111652 0.400541 -1.11479 -0.257194 0.103504 0.204601 0.713775 0.096579 0.318983 0.0364227 -0.131056 -0.21603 -0.152668 0.58442 -0.851302 0.139681 0.0241021 -0.306126 0.801279 0.239832 -0.00194312 0.081365 0.26294 0.587621 0.0653765 0.341626 -0.228114 -0.0692369 0.649909 0.650795 -0.116446 0.76058 0.271035 0.424258 -0.22476 -0.276153 0.420832 -0.0186193 -0.496357 0.543818 0.582382 0.200781 0.486826 0.0309336 -0.305025 0.299127 -0.633151 0.40586 0.841811 0.204297 -0.441523 0.146117 0.0495736 -0.203878 0.331814 0.0409718 -0.279643 -0.528587 -0.00461638 -0.287103 -0.409968 0.189047 0.339854 -0.352716 0.278737 0.41369 -0.261124 0.279839 -0.478367 -0.578922 -0.0311362 -0.39833 -0.874712 0.456176 0.220489 -0.180202 0.0110066 -0.0662036 0.0683749 0.0802124 0.510234 0.287191 -0.903155 0.078032 0.299665 -0.762367 0.254113 0.421276 -0.16661 -0.381673 -0.0982368 -0.106746 -0.730112 -0.234028 -0.457117 -0.0633841 0.190388 0.046735 0.422744 -0.0608473 -0.875825 -0.943986 0.110794 0.117628 -0.349393 0.136495 -0.658215 0.177138 0.434621 -0.609197 
42 -0.28186 0.150742 -0.155083 -0.243321 -0.406048 -1.08174 -0.112967 0.189198 0.0442314 0.653227 -0.584355 -0.147432 0.0684958 -0.531024 -0.17227 -0.889958 -0.0536376 -0.124358 0.0278964 0.109525 -0.708678 0.127971 0.513105 -0.300605 0.677925 -0.240162 0.231584 0.524088 0.670255 -0.107915 -1.07348 0.0564485 -0.120864 0.53799 -0.0498735 -0.435949 1.20764 0.147642 -0.036871 0.0425491 0.862941 0.377584 0.469013 0.394551 0.135127 0.150491 0.357864 0.904908 -0.429628 0.385384 0.146695 0.428324 0.00413444 -0.136839 0.49834 0.0411768 0.0305358 0.315485 0.688718 -0.00112191 0.654744 0.422168 -0.553817 0.859908 0.188967 0.301864 -0.12407 0.098579 -1.21307 -0.126876 0.118906 -0.0974947 0.0898184 0.314317 -0.383486 -0.619825 0.562391 -0.0767663 -0.0610664 -0.569313 0.303289 -0.308407 0.077336 0.562177 0.29547 0.328143 0.850424 -0.726504 -0.272157 -0.160203 -0.396078 -0.401263 0.441024 0.462231 0.466539 -0.306631 0.19732 -0.200156 0.558718 0.444914 -0.177334 0.101058 -0.200283 -0.0624238 0.4486 -0.209399 -0.764857 0.215767 0.19985 -0.258791 0.00114308 -0.575302 -0.206009 1.13126 -0.159068 0.228273 -0.710714 -0.369288 -0.844626 -0.510901 -0.100954 -0.786693 0.24869 -0.511943 -0.348957 -0.515215 0.290801 -1.07164 
43 0.625372 0.234806 0.654534 0.207575 -0.376965 -0.762718 -0.340067 -1.08192 -0.521178 0.0243513 -1.21245 0.56264 0.260134 -0.214241 -0.0896182 -0.845683 -0.0114801 -0.327465 -0.307924 0.502924 -0.0385154 0.717527 1.22017 0.599749 0.405661 -0.000352777 0.0585113 0.900389 0.552285 -0.205366 -0.384384 0.591536 -0.50488 0.93809 0.387564 0.296435 0.633166 0.209594 0.0109464 0.871166 0.562377 -0.32614 -0.348617 0.336629 -0.128234 0.670216 0.55092 0.944834 -0.387795 0.446155 -0.324711 0.417105 -0.57903 -0.290145 0.328004 0.347229 -1.03563 0.652957 0.732943 -0.125987 0.183015 0.00846956 0.273743 0.314718 -0.303726 0.440201 0.468838 -0.485103 -0.379224 -0.0268587 -0.477491 0.0199517 -0.122631 0.236223 -0.291582 0.180049 0.393395 -0.0958686 -0.94358 0.0518937 0.281509 -0.901356 -0.453434 0.880838 -0.808117 -0.105153 0.241533 -0.0592893 -0.597212 -0.483787 -0.219012 0.106458 -0.0409097 0.257385 0.258602 -0.170557 -1.24812 0.254172 0.0708792 -0.677402 -0.449132 0.229525 0.0187174 -0.401269 0.413893 0.136395 -0.255547 -0.209259 0.238029 -0.683804 0.0493603 -0.576118 -0.139889 0.0439118 -0.725348 0.161841 -0.216212 0.209377 -0.21186 -0.844321 0.400924 -0.525171 0.2779 -0.454263 0.474046 -0.0473407 0.345242 -0.446951 
44 -0.277456 0.0955684 0.65054 0.395772 -0.178352 -0.583876 -0.153582 -1.29851 -0.0410851 0.111044 -0.532673 -0.484288 0.963171 0.00520947 0.27764 0.0901274 0.519399 -0.587782 0.368735 0.183133 -1.00751 0.331771 0.805687 -0.0977396 0.0168685 -0.403136 0.345291 0.0483454 0.264078 -0.63889 -0.249557 0.218441 -0.86287 0.574719 0.652001 -0.106792 1.03049 0.37035 -0.382818 0.460729 0.188904 0.454658 0.121308 0.306965 0.145172 0.127684 0.742643 0.856449 -0.179323 0.562405 0.269464 -0.123954 -0.433747 -0.393645 0.730039 -0.204758 0.291578 0.212724 0.289082 0.235837 0.494287 -0.16345 0.0956496 0.423002 0.396561 0.28302 0.268892 -0.09109 -0.722716 0.455805 0.451025 -0.418212 0.128068 -0.41579 -0.048798 -0.36796 1.15364 0.562233 0.158746 0.310165 0.194064 -0.533487 0.060914 -0.177767 0.0795023 0.169808 0.145211 0.32631 -0.752368 -0.582605 -0.625811 -0.183744 0.0435705 0.0366688 0.0823879 -0.383366 -0.615344 0.0329946 0.29316 -0.570293 -0.0067911 0.30577 -0.0238033 -0.082337 -0.440725 -0.0879043 -0.620687 -0.0554969 0.411002 -0.485034 -0.0546863 -0.982986 -0.451518 0.592448 -0.520097 0.377958 0.0563933 0.0782284 -0.129441 -0.547692 -0.15745 0.164688 -0.0644054 -0.23386 -0.28381 -0.802344 -0.0763102 -0.771973 
45 0.266028 0.38914 0.845022 -0.0212812 0.12009 -0.453799 0.0292571 0.0185636 -0.391887 0.740624 -0.761696 0.0387776 0.120845 -0.0601591 0.548601 -0.383917 0.328075 -0.154186 -0.244407 0.238263 -0.777107 0.533797 0.679559 0.36046 0.279641 0.280884 -0.00182301 0.73823 0.812609 0.069795 0.0377384 0.535826 -0.238157 0.577513 -0.227473 0.0280621 0.556892 0.134292 0.342969 0.348109 0.493935 0.0203055 0.604194 -0.0602158 0.108009 0.17766 0.280038 0.872345 -0.0887694 -0.0452831 0.427053 0.036923 -0.0789867 -0.134694 -0.0935576 0.0435344 -0.606346 0.365493 0.399624 0.174989 0.149249 -0.240759 -0.270486 0.772382 0.199326 0.188771 0.43617 -0.433525 -0.361722 -0.0645247 -0.347046 -0.522887 -0.191227 -0.374579 -0.295662 0.29203 0.0974563 0.073623 -0.392993 0.195528 0.15006 -0.28193 -0.661178 0.384082 -0.265631 0.522258 0.473994 -0.339886 -0.674978 -0.305491 0.00283795 0.104848 -0.0921934 -0.0410333 -0.113348 -0.287216 -0.843751 0.214082 0.648936 -0.223319 -0.636238 -0.394602 0.335881 -0.234067 0.559654 0.170906 -0.100015 -0.772375 0.19876 -0.466863 0.199759 -0.484089 -0.132438 -0.0630747 -0.149708 0.28641 -0.551934 -0.571028 -0.113289 -1.23131 0.492795 0.0615173 -0.0612706 -0.400849 -0.0207749 -0.650367 0.144223 0.076915 
46 0.651588 0.273248 0.674121 0.17519 -0.312864 -0.810113 -0.3062 -1.04139 -0.530677 0.0198079 -1.19799 0.594753 0.264728 -0.188257 -0.101463 -0.854047 -0.00225949 -0.323393 -0.270048 0.483813 -0.0668413 0.63918 1.23254 0.511258 0.389167 -0.0436799 0.0890821 0.852567 0.52824 -0.207422 -0.417977 0.60786 -0.518747 0.94824 0.352312 0.322012 0.625275 0.188078 -0.0453962 0.858581 0.589682 -0.315245 -0.414557 0.316598 -0.141519 0.642268 0.545798 0.974161 -0.349877 0.43339 -0.277318 0.446192 -0.5452 -0.275638 0.327886 0.322829 -1.07877 0.67013 0.801924 -0.0999571 0.170417 -0.0851041 0.276851 0.412432 -0.328442 0.426469 0.451819 -0.445881 -0.373473 -0.0482072 -0.499728 -0.00240708 -0.122251 0.276998 -0.300693 0.1989 0.406013 -0.0921224 -0.892206 0.0847246 0.285124 -0.923323 -0.430226 0.827222 -0.779804 -0.177521 0.227625 -0.0615756 -0.553178 -0.54141 -0.261993 0.0744881 -0.0772878 0.275775 0.253469 -0.198169 -1.23675 0.241316 0.0970898 -0.56471 -0.416489 0.267519 -0.0091412 -0.411433 0.376036 0.0920414 -0.286198 -0.260984 0.172692 -0.6685 0.0468728 -0.630496 -0.135926 0.0736007 -0.73175 0.150052 -0.185831 0.212093 -0.21224 -0.847704 0.401356 -0.488923 0.272857 -0.430844 0.404952 -0.093156 0.380291 -0.380937 
47 0.429642 0.271078 -0.0506689 -0.00841963 -0.300094 -0.833023 -0.0134139 -0.483536 -0.0284421 -0.210935 -0.786517 -0.0308504 0.199829 0.219516 -0.236569 -0.835713 0.212108 -0.19611 -0.14503 0.305013 -0.571355 0.334696 1.01998 0.517489 0.09739 -0.36287 0.430654 0.304583 0.490149 0.307261 -0.013648 -0.0604521 0.232527 0.624486 -0.594073 0.290766 0.388173 0.248332 0.0046125 0.884219 0.23885 0.00383086 -0.125638 0.588919 0.414963 -0.438472 0.566408 1.15857 -0.433895 0.603221 0.437496 -0.131324 0.0214279 -0.636657 0.105865 -0.0250629 -0.434847 -0.191177 0.456035 0.103561 0.363621 -0.391765 0.872993 0.181761 0.189955 -0.54152 0.295914 0.212696 -0.120004 0.608368 0.266034 -0.608381 0.348093 -0.160366 0.0396186 0.171659 0.810422 -0.140993 -0.197858 0.21106 0.820471 -0.170675 0.0432057 0.451507 -0.263802 -0.152891 0.013655 -0.163763 -0.0828928 -0.286704 -0.639557 0.118598 -0.357938 -0.111711 0.105037 0.139172 -0.229502 -0.0651699 -0.142219 -0.0111074 -0.38142 0.0243216 0.455085 -0.0296504 -0.0210969 -0.21411 -0.301627 -0.0340576 -0.206292 -0.273151 -0.130949 -0.143433 -0.222058 0.787394 -0.720633 -0.42126 -0.0917372 -0.669032 -0.340641 -1.28788 0.114163 -0.206259 -0.338532 -0.0933318 0.308889 -0.162209 0.417733 -0.742582 
48 0.27783 0.151409 -0.323873 0.132005 -0.706692 -0.197554 0.224969 -0.36029 0.149828 -0.400373 -0.599261 -0.295119 0.35658 -0.146789 0.249707 -0.260399 0.123524 -1.03807 -0.2732 -0.305065 -0.61479 -1.26329 0.234724 -0.389658 1.37976 0.317061 0.749479 0.860382 0.560686 -0.68167 -0.925238 0.106002 0.746989 0.22141 0.686284 0.705756 0.16046 0.175991 -0.12557 -0.172281 0.92117 0.449171 0.157128 0.0363263 -0.52679 0.567012 0.695235 1.12888 -0.766484 0.509437 -0.407915 -0.426152 -0.292323 0.70984 -0.339322 -0.478277 -0.489101 0.376887 0.358048 -0.0955972 0.321496 0.172861 0.0432072 1.25401 0.376938 -0.0200083 0.237101 -0.174146 8.1698e-05 0.472444 0.777863 0.02091 -0.150046 -0.316295 -1.28805 -0.51123 0.613103 0.24028 0.172426 0.221494 1.1333 -0.295433 -0.00758747 0.541524 -0.617798 0.558309 0.338067 -0.396086 -0.361928 -0.340209 -0.999331 0.326965 0.178381 -0.590068 0.263814 0.00667356 0.166281 -0.0675834 1.1616 0.298815 -0.689033 -0.356135 0.430478 -0.382579 0.0413009 0.00864407 -0.270909 -0.236819 0.413739 -0.412195 0.36506 -0.287271 -0.330807 0.583551 0.0856646 -0.342303 0.303582 -0.64123 0.315532 -1.63702 0.29689 0.328195 0.176139 -0.08412 0.0858354 0.234411 -0.0315711 -0.143375 
49 0.608375 0.256062 0.619215 0.20791 -0.332325 -0.802354 -0.315483 -1.07704 -0.522543 0.0672719 -1.1408 0.554996 0.352869 -0.258633 -0.0911477 -0.874549 -0.00640724 -0.329145 -0.262279 0.470095 -0.0821716 0.627091 1.15832 0.526847 0.435193 -0.0427395 0.119662 0.831208 0.543869 -0.244499 -0.359388 0.550093 -0.491364 0.938163 0.354033 0.306126 0.685952 0.213929 -0.0333714 0.838339 0.612374 -0.288795 -0.377775 0.35776 -0.115252 0.599923 0.567716 0.94733 -0.403808 0.466391 -0.274836 0.390726 -0.553396 -0.311733 0.372115 0.311734 -1.05852 0.702618 0.735234 -0.0928698 0.157291 -0.0767832 0.264011 0.335465 -0.306063 0.382926 0.431874 -0.452074 -0.38788 -0.00598687 -0.448928 0.0271697 -0.146885 0.23133 -0.267816 0.187081 0.458796 -0.0612833 -0.892069 0.044203 0.36348 -0.920133 -0.487313 0.820306 -0.812103 -0.208773 0.237513 -0.0778878 -0.522524 -0.496919 -0.267466 0.044206 -0.106559 0.220077 0.226812 -0.163159 -1.24504 0.257049 0.150203 -0.640751 -0.424187 0.283872 0.0116084 -0.413061 0.424143 0.117412 -0.266181 -0.259193 0.195784 -0.690886 -0.00215156 -0.581797 -0.160555 0.0592887 -0.75675 0.167548 -0.207853 0.250861 -0.186185 -0.909514 0.438468 -0.477913 0.223266 -0.435264 0.373673 -0.0374846 0.322427 -0.390379 
50 0.129076 0.395165 0.087613 -0.193024 -0.102214 -0.602739 -0.0338803 -0.313105 -0.358833 0.176474 -0.506853 -0.0756661 0.327737 0.201972 -0.18103 -0.4548 -0.142578 -0.406828 -0.27678 0.595051 -0.802876 -0.120702 0.446217 0.121949 -0.0156922 -0.25853 0.435668 0.169128 0.23565 -0.0777467 -0.0249637 0.00582974 0.0928437 0.947677 -0.358501 0.0724637 1.08339 0.642319 0.142474 0.168179 0.0143143 0.354403 -0.124663 -0.259 -0.0467883 -0.00379704 0.350184 0.564242 -0.565229 0.230774 -0.0335397 0.460429 -0.201204 0.287811 0.728243 -0.0555039 -0.698162 -0.141116 0.542577 -0.45074 0.401956 -0.0629888 0.090014 0.2977 -0.243764 -0.215816 0.622285 -0.263022 -0.576941 -0.186786 0.214188 -0.388737 0.258056 0.582565 0.30199 -0.191152 0.50667 0.182075 -0.588996 0.0415924 0.690459 -0.297137 0.203288 -0.0450151 0.0583198 -0.245053 -0.0143012 -0.13398 -0.211685 0.129513 -0.613043 0.229298 -0.494277 -0.515846 0.0362734 0.0424622 -0.396821 0.231616 0.126896 -0.0701797 -0.212601 0.45517 0.329745 -0.144429 0.251139 0.335323 -0.508687 0.128849 -0.3672 -0.192375 0.31908 0.0929221 0.0664596 0.475324 -0.751489 -0.527551 -0.209314 -0.166934 -0.601659 -0.583771 0.609579 0.112307 -0.286186 -0.305058 -0.380894 -0.480059 -0.0125798 -0.674132 
51 -0.274106 0.0227199 -1.31415 0.284638 0.116943 -0.162926 0.716444 -0.213364 0.721543 0.106696 0.860104 -0.843956 1.11967 -0.0284627 0.713566 -0.404725 0.460177 0.237408 0.438027 0.472167 -0.838901 -0.685531 0.105912 0.241777 -0.225728 -0.477667 0.850963 -0.275106 0.231085 0.0282804 -0.325087 0.716282 0.272896 0.618187 0.0872488 0.190922 0.885973 0.150979 -0.0929725 -0.539989 1.07392 0.132987 0.343706 -0.446665 -0.0161429 -0.476084 0.409185 0.701079 -0.990605 -0.852131 -0.358394 0.224097 -0.601361 0.360224 0.358342 -0.639036 -0.110025 -0.193849 0.613072 -0.130112 -0.624383 -0.625177 0.0908299 0.631833 0.162043 -0.385662 0.381053 0.732815 -0.608622 0.243668 0.148131 -1.09891 -0.502364 0.636454 -0.311255 -0.883249 0.617601 0.282992 0.622843 0.134584 1.49006 0.0947495 0.404653 -0.0209743 0.616768 -0.0748516 0.459328 0.057813 -0.161632 0.412239 -0.527125 -0.526245 0.234976 -0.435264 0.13254 -0.242937 0.345122 0.3257 0.63357 0.287784 -0.0121198 -0.266933 -0.397907 -0.468912 0.00218872 0.00609351 0.189232 0.094459 0.958327 -0.330022 0.465361 -0.177296 -0.496185 0.0233576 0.577079 -0.477632 -0.487305 -1.24148 0.112588 -0.913013 0.649808 -0.0970306 -0.706945 -1.01181 0.00286238 -0.240904 0.554015 -0.821943 
52 0.210892 0.418678 0.145946 -0.059032 -0.5798 -0.744535 -0.231284 0.0177496 -0.241407 0.440888 -0.500542 0.20574 0.120854 -0.221332 -0.158245 -0.599665 -0.390365 -0.402021 0.0330656 0.515337 -0.46106 0.350122 0.590684 0.0361077 0.0663163 -0.424505 0.110758 0.303125 0.670252 -0.485872 -1.11353 0.321025 -0.0857633 0.53752 0.0671176 -0.435964 0.957953 0.246265 -0.205628 0.265705 0.723786 0.225545 0.207651 0.467677 0.250093 0.344191 -0.0646887 0.786021 -0.289293 0.0410735 -0.31404 0.680165 0.0583977 -0.14271 0.300963 0.255345 -0.363349 0.264688 0.45398 -0.195192 0.331064 0.261259 -0.394477 0.630564 -0.0729904 0.385718 0.0169988 -0.0525303 -0.545435 0.196128 -0.15741 0.101486 -0.0048455 0.531474 -0.125175 -0.0246845 0.340743 0.109032 -0.419474 -0.481759 -0.0651111 -0.587929 0.0291154 0.79821 -0.258127 0.128408 0.642168 -0.584152 0.0643566 -0.309114 -0.304175 -0.223226 0.40779 0.330532 0.27126 -0.379237 -0.37058 -0.103166 0.35237 -0.130857 -0.200307 0.047402 -0.166675 -0.0959155 0.154923 0.0723151 -0.42668 0.0917727 0.0325638 -0.310233 0.0106455 -0.429894 -0.184026 0.680935 -0.0560304 0.0522502 -0.505891 -0.320289 -0.466373 -0.285496 0.16686 -0.721372 0.0823387 -0.50524 -0.325544 -0.310628 0.247774 -0.768559 
53 0.360374 0.282767 0.436954 -0.101226 0.223466 -0.504282 -0.152871 -0.388553 -0.207427 0.752154 -0.601887 -0.462546 0.413029 0.0328006 0.405452 -0.613576 0.312722 -0.350104 0.0114894 0.350228 -0.532985 0.0136197 0.366844 0.029664 0.13153 0.302107 -0.091045 0.563085 0.427937 -0.14999 -0.0836084 -0.112878 -0.446127 0.655327 0.0365824 0.285842 0.620929 -0.0734534 -0.184402 -0.101045 0.410057 -0.139442 0.88169 -0.141873 0.622966 0.3302 0.577197 1.03679 -0.170253 0.49128 0.0694598 -0.139334 -0.441581 0.00914045 0.00959843 0.0787699 -0.143136 0.152432 0.261557 0.418994 0.294728 -0.081452 -0.0673398 0.238582 0.434078 0.135888 -0.273673 -0.594567 -0.0974313 0.101755 -0.378264 -0.0919988 0.2406 0.197389 -0.156403 0.463917 -0.00160456 0.0819031 -0.00443873 -0.0275291 0.52552 0.173156 -0.730071 0.120647 -0.469697 0.203729 0.395682 -0.241137 -0.552123 0.0311944 -0.0348349 0.488008 0.299017 0.0451233 -0.200063 -0.0675373 -0.521022 0.00875923 0.25239 0.125642 -0.303372 -0.284064 0.127826 -0.52694 -0.237078 -0.02142 -0.185601 -0.032507 0.356017 -0.364383 -0.0995345 -0.316714 -0.616281 0.29005 0.0832432 -0.0488732 -0.350708 -0.740727 0.220158 -0.862513 0.102776 -0.185115 0.0777779 -0.528449 -0.538807 -0.718233 0.211374 -0.213386 
54 -0.283172 0.371307 -1.08915 0.525168 -0.0233162 0.296557 0.886973 -0.101947 0.00228956 -0.203714 0.171518 -0.569075 0.164393 -0.029561 0.565622 -0.57837 0.342663 -0.731678 -0.325255 -0.157226 -1.00816 -1.01796 -0.181061 -0.198268 1.15874 0.356783 0.891485 0.544308 0.236216 -0.34653 -0.130863 0.552951 0.494037 -0.140567 0.572802 0.5475 -0.119249 -0.240659 -0.179347 -0.71351 1.16621 0.429903 -0.505187 0.275142 -0.372563 0.686227 -0.0729469 0.955517 -1.02639 -0.224207 -0.101359 0.192589 -0.00458819 0.439841 -0.231338 -0.783611 -0.160291 0.619378 0.191445 -0.150164 -0.403456 0.134796 0.0570047 1.53752 -0.0362451 -0.543462 0.529451 0.419986 -0.381051 0.409307 0.189837 0.121982 0.0979391 -0.0942007 -1.03131 -0.223441 0.777739 0.25931 0.551345 0.342634 1.14527 -0.303677 -0.0925457 -0.0629044 -0.417033 0.474462 -0.347958 0.13289 0.372027 -0.346423 -1.29672 -0.717186 -0.239616 -0.574806 0.252889 -0.39518 -0.0490997 -0.13957 0.762011 0.371213 -0.501723 -0.318405 0.350933 0.171511 0.107064 -0.335325 0.315602 -0.189656 0.863025 -0.337931 0.0930964 -0.104826 -0.360982 0.765658 0.717754 -0.287977 0.232763 -1.20061 -0.724384 -0.820164 0.40516 0.230533 0.0101125 -0.218383 -0.347043 0.0528247 0.622128 -0.527861 
55 0.300734 0.166716 -0.216508 -0.0301145 -0.0975586 -1.18886 -0.232052 -0.0162566 0.201682 0.243277 -0.340512 -0.500029 0.665025 0.102409 0.0520944 -0.167207 0.175994 -0.298646 0.0365998 0.400555 -0.914459 -0.0296241 0.66652 0.776099 0.275246 -0.202137 0.670636 -0.0547281 0.282291 -0.353008 -0.569863 0.420379 -0.705682 0.926832 0.319232 0.231505 0.00606424 0.314979 0.168458 -0.154727 0.896478 0.509036 0.244138 0.0533164 -0.575969 0.096141 0.723396 0.62253 -0.230949 0.48943 0.864814 0.156699 0.0974363 -0.535359 0.746997 -0.104987 -0.419652 -0.0587597 0.690672 -0.251664 0.632393 0.295626 -0.313799 0.156944 -0.414507 0.079732 -0.0209263 0.316902 -0.517282 0.241577 -0.35443 -0.0467542 -0.504145 -0.342558 -0.152735 -0.246055 0.611641 -0.255489 0.0192876 -0.335082 -0.190587 0.0903199 0.0787345 0.540147 -0.834674 -0.135263 0.889567 -0.499459 -0.0620798 -0.291774 -0.608599 -0.526712 -0.0928648 -0.448119 -0.426078 -0.180085 -0.386353 -0.13066 0.749454 -0.672375 0.254333 -0.069194 0.196115 -0.121123 0.252232 -0.22766 -0.291717 0.375984 -0.224809 -0.190168 0.638657 -0.183284 -0.612689 0.911348 -0.524509 -0.532847 -0.0179437 -0.183484 -0.303526 -0.676177 0.10475 -0.00743068 0.138342 -0.306161 0.155521 -0.21448 0.0541365 -0.194189 
56 0.0520665 -0.136677 0.265516 0.333729 0.144554 0.59319 -0.58767 -0.635011 0.291331 1.00856 -0.130755 0.179398 0.527051 -0.507884 0.495667 -0.947063 0.372391 0.380664 0.393631 0.416809 -0.237354 -0.384272 0.800704 0.211974 0.123098 -0.249691 0.943181 0.643428 0.731296 -0.203836 -0.388409 0.0807098 0.0475827 0.622418 0.131592 -0.655172 1.0313 0.884307 -0.159678 0.508333 0.592028 0.163285 -0.0138881 0.285213 0.0310139 -0.276051 0.583417 0.604988 -0.325189 0.185755 -0.0333182 -0.0483574 -0.70944 -0.467763 1.01642 -0.233184 -0.174428 0.388718 0.410823 0.324588 0.577327 0.157787 0.0543715 0.568916 -0.0629942 0.634969 0.0346937 -0.384684 0.00445023 -0.304835 -0.504593 -0.138988 0.586355 0.284312 -0.383844 0.502818 0.0142562 -0.197046 -0.201813 -0.0138919 1.21093 -0.370841 -0.118019 0.616186 -0.651799 0.0284651 0.627392 0.0908525 -0.188043 -0.550767 -0.405147 -0.404271 -0.240089 -0.474525 0.484201 0.0746417 -0.491731 0.160459 0.664095 0.296384 -0.47785 -0.660447 -0.644497 -0.541152 0.323939 -0.497463 -1.01046 -0.298423 -0.183939 0.184318 0.507377 -0.384071 -0.119792 0.299087 -1.07634 -0.0792023 -0.889221 0.589657 0.142523 -0.843727 0.418821 -0.0372697 -0.000428915 -0.0862774 -0.0453384 -0.289621 -0.177494 -0.292157 
57 0.143752 -0.0727661 -0.0283888 0.00669986 0.226961 -0.338599 -0.605066 -0.597611 -0.272382 0.561835 -0.85675 0.413963 0.260678 -0.331389 0.284605 0.106852 0.45432 0.0992217 -0.265876 0.628407 0.0874348 0.141363 0.94432 0.348051 0.758494 0.669868 0.378419 0.221386 0.401173 0.164011 -0.0351916 0.273313 -0.582302 1.431 -0.089808 -0.601689 0.411803 0.0233619 0.044548 0.177795 0.323166 -0.229799 0.170253 0.608953 0.233512 0.569574 1.08971 1.39202 -0.108176 0.896817 -0.0132534 -0.064202 -0.454455 -0.629977 0.109238 0.00554823 -0.288901 -0.10089 0.74501 0.231972 -0.128342 0.249799 0.00484808 -0.109852 0.122359 -0.178828 -0.268527 0.0220692 -0.80734 0.148617 -0.899542 -0.0842226 0.0815693 0.588308 -0.075048 -0.0977535 0.814527 0.402667 0.234343 -0.176562 0.505294 -0.411976 -0.0406156 1.01397 0.0473476 0.346587 0.430567 -0.613123 -0.516529 -0.64404 -0.554704 0.144069 -0.51187 -0.333214 0.473125 -0.899862 0.0416209 0.012581 0.235929 -0.127401 0.0803196 -0.067053 0.214177 -0.24971 0.186622 0.091677 -0.506929 -0.101822 1.10326 -0.232286 -1.02286 0.180468 -0.525354 0.688892 -0.575132 0.0325609 -0.221367 -0.266002 0.335118 -0.769453 0.614924 -0.00901226 0.204951 -0.298779 -0.33517 -0.188716 -0.0477534 -0.271187 
58 -0.507012 0.434044 -1.06145 0.442014 0.563701 -0.242959 1.0133 0.320544 -0.306759 -0.934965 -0.0653481 -1.22951 0.891249 -0.121487 0.481062 -0.465414 0.306797 0.149784 -0.284761 1.19846 -0.927545 -0.427322 0.268392 0.0702151 0.236055 -0.352003 0.343356 -0.398599 -0.158072 -0.16984 -0.401032 0.0354705 0.974485 -0.156204 -0.204698 0.1919 0.84934 -0.295994 -0.197216 -0.953423 1.46187 0.245231 -0.0299047 -0.211552 0.116115 -0.403783 0.561917 0.25283 0.0878475 -0.288327 -0.216952 0.222146 -0.79071 0.797322 -0.52536 -0.629345 -0.11116 0.326942 0.285352 -0.294356 -0.198894 -0.514071 0.377224 0.914632 -0.122145 0.574848 0.429853 0.337313 -0.355895 0.822978 0.845556 -0.0760409 -0.796325 0.261259 -0.532554 -0.280186 1.06968 0.739081 0.416796 0.14882 1.10961 -0.0551811 -0.497978 -0.985577 0.215311 0.27052 -0.30868 -0.0228014 0.00329515 -0.00720656 -1.13773 -0.157471 -0.0375657 -0.636397 0.303236 0.326362 -0.417292 -0.0763872 0.380734 0.0361818 -0.504715 0.0337572 0.119709 -0.425751 -0.0441819 -0.223644 0.0855853 0.109689 1.1451 -0.18674 0.331683 -0.111441 -0.78575 0.580624 0.619952 -0.799325 0.458471 -0.548637 0.0311066 -0.915733 0.656793 -0.384586 -0.502795 -0.692762 -0.117856 -0.12581 -0.126255 -0.741953 
59 0.607434 0.238149 0.550419 0.347716 -0.0204799 -0.829651 -0.525437 -0.809945 -0.724712 -0.10714 -1.36911 0.675289 0.0739527 0.00496403 -0.133809 -0.86298 0.0907825 -0.17239 -0.138791 0.3556 0.180232 0.46349 1.15011 0.201668 0.21763 0.169819 0.165311 0.55297 0.472789 -0.174306 -0.31677 0.254071 -0.601144 0.715864 0.649226 0.525373 0.665526 0.157844 -0.0951013 1.01892 0.521106 -0.253721 -0.661542 0.469395 -0.163397 0.417667 0.543141 1.35584 -0.410865 0.206093 -0.345554 0.48071 -0.478351 -0.395356 0.319207 0.392631 -0.942188 0.659219 0.634736 0.25821 -0.0821264 0.0924891 0.245873 0.518864 -0.464454 0.44758 0.212041 -0.406064 -0.298456 -0.208638 -0.674869 -0.0336631 -0.498767 -0.001999 -0.134172 -0.0653298 0.298219 -0.00844894 -0.828019 0.0963925 0.517365 -0.833749 -0.68484 0.860419 -1.03467 -0.358393 0.348857 0.0523396 -0.357108 -0.874638 -0.193201 -0.0449896 -0.134748 -0.0448937 0.223664 -0.383817 -1.07771 0.422618 0.248517 -0.653515 -0.226807 0.0315637 -0.101921 -0.596299 0.428309 0.0760975 -0.207507 -0.489199 0.35224 -0.824308 -0.283864 -0.468761 0.189424 0.0203876 -0.931917 0.225394 0.0822155 0.222073 -0.28161 -0.976181 0.613583 -0.489503 0.2464 -0.435722 0.245572 0.0803804 0.390561 0.153842 
60 0.220532 0.346202 0.0323901 0.339675 -0.64192 -0.216554 -0.141468 -0.189235 -0.333935 0.413126 -1.09655 -0.288173 0.66158 0.0211195 0.038478 0.0441341 -0.160163 -0.765522 -0.0629531 0.227086 -0.0112671 -0.504374 0.328249 -0.0834412 0.871185 0.219047 0.438623 0.798788 0.102195 -0.305597 -0.497394 -0.051072 -0.319284 -0.0279723 0.111316 0.220647 0.0792102 0.400375 0.0667549 0.397333 0.859942 0.607268 0.21067 0.376963 -0.300407 0.100947 0.263365 0.863377 -0.46149 0.660268 0.17857 -0.484865 -0.502908 0.213798 -0.326609 -0.429292 -0.225367 -0.165259 0.683785 -0.301454 0.655578 0.332676 -0.375277 0.384185 0.222955 0.286 -0.0237431 -0.197249 0.0548469 0.0973992 0.00725233 0.246519 0.0210322 -0.109081 -0.714387 0.16935 0.273376 -0.142744 -0.151487 -0.101578 0.60418 -0.528955 -0.575481 0.24678 -0.544255 0.0163912 0.0419212 -0.266758 -0.631936 -0.45831 -0.709302 -0.046443 0.504033 -0.435216 0.377938 0.130988 -0.614841 0.311226 0.503625 -0.0263773 -0.817974 -0.096668 0.565822 -0.234927 0.140497 -0.146792 -0.736063 -0.257191 0.386934 -0.311431 0.0371086 -0.428261 -0.667931 0.478359 -0.793476 0.308582 0.386036 0.088126 -0.206424 -0.571268 0.0266566 0.00681329 -0.0351553 0.435252 0.242796 -0.0538896 0.219182 -0.374097 
61 0.240038 -0.184295 -0.592592 -0.00815871 -0.743465 -0.275709 -0.00913551 -0.465106 0.0248138 0.0428654 -1.09078 0.500684 0.00866102 0.425334 0.429367 -0.987269 0.050981 0.150946 0.469388 0.655569 -0.0539779 0.227297 0.856943 -0.271086 0.305323 -0.608425 0.614234 0.700453 -0.177693 0.233484 0.194838 0.159747 -0.411138 1.19721 0.157627 0.641122 0.689151 0.277517 -0.224089 0.362612 0.455934 0.247574 -0.114919 0.372758 0.389104 0.315982 0.938701 0.945926 -0.541949 0.16804 -0.0679879 0.745959 -0.0410286 -0.157742 0.727168 0.10009 -0.509991 0.288365 0.828513 0.00795544 0.473985 0.871921 0.53583 0.397644 0.374518 -0.179058 -0.15375 -0.29862 -0.497091 0.0280576 0.216976 0.0992297 -0.0158281 -0.158951 0.0301774 -0.135311 0.704338 0.192823 -0.065023 -0.432897 -0.0697237 0.361119 0.0686585 0.40561 -0.218235 -0.0543153 -0.135007 -0.127863 -0.60762 -0.715562 -0.784437 -0.590957 0.167428 0.200361 -0.332359 -0.101242 -0.546763 -0.173362 -0.548691 0.331495 -0.520302 0.862937 0.219135 -0.0577667 0.0530925 -0.331014 -0.103257 0.330905 -0.0544992 -0.80428 0.288086 -0.41776 -0.854587 0.0993862 -0.165782 0.237655 -0.0401813 -0.504458 -0.553576 -1.07931 0.0282247 -0.227813 0.0461622 -0.0183121 0.483346 0.0908015 -0.0762932 -0.870441 
62 -0.333887 -0.0249171 0.176372 -0.124868 0.0513584 -0.39724 0.157417 -0.154442 -0.304817 0.226638 -0.530211 -0.277419 -0.0132097 -0.721585 0.671619 -0.855426 0.089018 -0.0259708 0.131718 0.880534 -0.555156 0.339803 0.992444 -0.157488 0.741598 -0.151504 0.768972 0.600495 0.25886 0.256243 -0.0729398 -0.452346 0.648649 0.107903 -0.11511 -0.53939 0.894836 -0.0818665 -0.405264 0.00694036 0.414041 0.675492 0.601585 0.162878 -0.0980162 0.0275321 0.915984 0.879473 -0.48247 0.365979 -0.32416 -0.612686 0.793262 -0.807341 0.34757 -0.394647 -0.19474 0.0628057 0.18168 -0.0686459 0.0964458 0.0807602 0.728791 0.235523 0.175984 0.282995 0.572946 0.317186 -0.530053 -0.264947 0.0018563 -0.475024 0.708948 -0.379358 -0.216579 -0.933893 -0.261881 0.21942 0.0199287 -0.187371 0.905721 0.696699 0.1326 0.268427 0.0397667 -0.243031 -0.274308 0.0617534 -0.112425 -0.943882 -0.644503 -0.523881 -0.212085 -0.249807 -0.497821 -0.671147 -0.962312 0.881403 0.228857 0.120333 -0.120434 -0.0939928 -0.66269 -0.205952 0.405486 0.121174 -0.0890321 0.459642 0.310835 -0.659881 0.27217 -0.1069 -0.245196 0.275088 -0.37024 -0.593703 0.142732 -0.826341 -0.282844 -0.488588 0.564445 0.0102983 -0.552293 -0.250795 0.246696 0.236705 -0.218937 -0.513511 
63 -0.332956 -0.157698 0.0997416 0.526006 0.21847 -1.07093 -0.0399803 -1.09111 0.00789851 0.203121 -1.35028 -0.727623 -0.275138 -0.512496 -0.116596 -0.662958 0.862285 -0.327803 0.0183322 0.305379 -0.857723 0.650497 0.825048 0.0800646 -0.164206 0.490023 0.783774 0.508813 0.220655 -0.119409 -0.394956 -0.414858 -0.0591709 0.653646 0.119873 -0.143457 0.970792 0.157577 0.272471 0.374429 0.260509 0.613733 -0.159506 0.268943 0.00385335 0.176709 0.869234 1.40234 -0.424035 0.154354 0.299739 0.000211072 -0.528993 -0.0538982 0.658323 -0.315913 -0.573676 0.48615 0.717168 -0.40301 0.609154 0.213398 0.417406 0.29545 -0.690834 0.620094 0.591236 -0.717334 -0.733645 -0.622159 -0.778915 0.216641 -0.303818 0.156141 -0.445058 -0.456425 0.115795 0.0674065 -0.559032 -0.623417 0.297341 -0.345581 -0.16656 0.380609 0.202575 0.0329374 0.263246 -0.0399008 -0.19368 -0.12996 -0.471491 -0.240093 0.0610498 -0.178943 1.07134 -0.159083 -0.194703 0.655072 0.785218 -0.0530092 -0.549213 0.0310208 0.243192 0.194022 0.0220341 -0.130048 -0.522579 -0.0533659 0.189261 -0.57995 -0.183408 -1.05196 0.159856 0.471815 -0.662347 -0.364026 -0.704068 0.0245313 0.237372 -1.07316 0.185902 -0.613391 0.0184332 -0.757176 -0.122737 -0.145479 0.250798 0.234752 
64 0.213012 0.134185 0.177153 0.212274 -0.315739 -1.0919 -0.204297 -0.0255778 -0.136161 0.478685 -1.16754 -0.44922 0.0161289 -0.110685 0.297141 -0.888386 0.256931 -0.554232 -0.384262 0.266013 -0.485759 0.582166 0.613129 -0.0503319 0.1942 -0.10475 0.169684 0.102384 0.975461 -0.457979 -0.696311 0.331175 -0.535943 0.94285 0.36204 -0.706877 0.735784 0.263649 -0.0586264 0.225431 0.557044 0.0612218 0.407109 0.0621666 0.901509 0.326941 0.719734 0.785628 -0.424515 0.233507 0.506765 0.481533 -0.0202219 -0.160574 0.318934 -0.383787 -0.0870599 -0.31558 0.738755 -0.0970034 0.854597 -0.139836 -0.542065 0.855504 -0.496291 0.188869 -0.0223237 -0.0831213 -0.60431 0.227646 -0.84993 -0.407484 0.244777 0.223542 -0.412653 -0.45362 0.184337 0.656001 -0.601564 -0.414905 -0.07515 -0.353721 -0.291964 0.967939 -0.200627 0.213463 0.806038 -0.439186 -0.046709 -0.529357 -0.148227 -0.181454 0.201811 0.197016 0.573005 -0.341235 -0.551287 0.858692 0.899831 0.130472 -0.39636 -0.680992 -0.414401 -0.22962 -0.443374 0.115238 -0.252528 -0.047671 0.179478 -0.305617 0.0501463 -0.718137 0.239909 0.637086 0.0203141 0.0152085 -0.86046 -0.350077 -0.189124 -1.21487 -0.155345 -0.909885 0.541176 -0.774235 -0.805812 -0.709335 -0.00662164 -0.123652 
65 -0.00813968 0.0344378 0.39849 -0.491646 -0.025848 -0.343065 0.29743 -0.712294 -0.533468 0.844676 -0.501439 0.265777 -0.210182 -0.144499 0.719507 -0.0803298 -0.0644186 -0.499805 0.651305 0.559071 0.436175 0.0631296 0.868515 0.805587 0.293769 -0.0470335 0.492835 0.175407 0.184084 -0.260263 -0.618733 -0.0486927 0.0820819 0.958312 -0.492905 -0.894455 0.778326 0.58938 -0.160037 0.211235 0.185097 0.69424 0.519767 0.462014 0.17417 0.224365 0.678221 1.19507 0.0905603 0.930001 0.0887859 0.0564431 -0.09429 0.138459 0.735415 -1.04533 -0.827461 0.139763 1.09722 -0.0316786 0.574566 0.659208 0.584181 0.362199 0.522147 0.203767 0.00448258 -0.225122 -0.610388 0.815205 -0.209384 -0.422035 0.157454 -0.291061 -0.612527 -1.0463 -0.314643 0.20763 0.626811 -0.374445 0.392399 0.696858 -0.835516 -0.0813885 -0.132526 0.793552 0.128811 -0.307866 -0.658984 -0.552751 -1.31594 0.330783 0.24369 -0.318401 -0.807811 -0.434561 -0.395292 -0.0877039 1.01918 0.574672 -0.33744 0.220323 -0.836662 0.0790155 0.696447 0.305876 -0.873356 -0.399743 -0.0913607 -0.0811596 0.984054 -0.404106 -0.623482 0.529383 -0.0630726 -0.603051 -0.21655 -0.0965109 -0.165121 -0.9444 0.439292 0.940799 -0.425853 -0.133151 -0.191822 0.439833 -0.167652 0.0137408 
66 0.019559 0.187113 0.00352262 -0.0119926 -0.205984 -0.380621 0.31335 -0.0931863 -0.215713 -0.00939585 0.119199 0.0972924 0.36562 -0.198974 0.225525 -0.0444812 0.0557412 0.0138859 0.176985 0.142766 0.0678034 0.0112283 0.145762 -0.174294 0.0359213 -0.0372432 0.167877 0.338526 0.329368 0.0164981 -0.312727 -0.0893468 -0.377754 0.102655 -0.112534 0.146312 0.427922 -3.51419e-05 -0.204003 -0.0693963 0.0930793 0.284459 -0.134608 -0.158629 -0.0520188 0.225953 0.398208 0.284168 -0.101401 -0.070667 0.129439 -0.092729 -0.320421 -0.0158668 0.057503 -0.36569 -0.114427 0.211399 0.287129 0.0336927 0.176877 0.0905433 -0.00472114 0.0879598 0.314437 0.123179 -0.0642945 -0.0561148 -0.114862 -0.168244 -0.333728 -0.217612 -0.126654 0.345812 -0.216186 -0.104597 0.158382 -0.0408459 0.131777 -0.174441 0.124104 0.0267715 0.129861 -0.119265 -0.1525 -0.0176075 0.175733 -0.0302933 0.109825 -0.0280581 -0.292484 0.136106 -0.164731 -0.0353437 0.293274 -0.175649 -0.170873 0.0367018 -0.0456434 -0.0975099 -0.0975232 0.0912719 0.0994692 -0.12952 0.0594593 -0.157033 0.0420274 -0.13396 0.137984 -0.077455 -0.270516 -0.0568966 -0.254392 0.128314 -0.15189 0.0820323 0.297099 0.0434329 -0.314435 -0.371624 0.107271 0.093222 0.100333 0.235232 -0.0237313 -0.198688 0.295074 -0.158506 
67 0.839532 0.359843 -0.648534 0.293704 0.190629 -0.312162 -0.0134967 -0.462301 -0.16108 -0.342732 -0.232568 -0.0789728 0.120523 -0.73661 0.383329 -0.123046 0.477358 -1.09913 0.103563 0.169459 -1.21066 -0.975062 -0.0265383 -0.470101 1.26508 -0.619405 0.528737 0.321915 0.618491 -0.449917 -0.302463 -0.206976 1.20815 0.257657 0.422591 0.25413 -0.0646669 0.0195322 -0.440851 -0.401934 1.1616 0.232527 0.367619 -0.612357 -0.417346 0.442141 1.16799 1.2291 -0.591351 -0.358831 -0.247115 0.497959 -0.405049 0.369702 -0.0253218 0.297267 -0.28512 0.0702821 0.928375 0.237923 -0.531337 -0.0186232 0.500929 0.557287 -0.257983 -0.108371 0.986847 -0.171928 -0.705374 0.462284 0.543671 0.0207746 0.323698 -0.0548152 -1.87954 -1.02164 0.99413 0.0455769 0.491854 -0.136747 1.25834 -0.397768 -0.225207 -0.125998 -0.774795 0.325722 -0.288617 -0.450222 -0.350482 0.249037 -0.448666 -0.34757 -0.652938 -0.0833588 0.862735 0.41936 0.627041 -0.165751 0.56514 0.366858 -0.458209 0.0634514 0.289508 -0.282112 0.360412 -0.418205 0.357037 -0.245172 0.864732 -0.00787573 0.664514 -0.495398 -0.57839 -0.0839907 0.426171 -0.0998042 -0.259476 -0.284071 -0.405049 -1.53841 0.919124 1.17642 0.17963 -0.324337 0.109564 0.12029 0.953489 -0.0249672 
68 0.223447 0.114925 -0.165471 -0.488051 -0.10809 -0.366685 -0.429529 -0.129847 -0.229284 0.385482 -0.239909 -0.286349 0.0793044 0.175717 0.249146 -0.202368 0.155347 0.0225486 0.143913 0.320461 -0.406149 -0.00148958 0.151489 0.172818 0.461959 -0.0905604 0.397096 0.0365982 0.13693 -0.195042 -0.216094 0.328954 -0.376038 0.114673 0.252819 -0.210269 0.417194 0.219657 -0.110069 0.0122778 0.890622 0.312666 0.053039 0.0569245 -0.101865 0.0190317 0.254333 0.583555 -0.142326 0.477156 0.331056 -0.00222463 0.122673 0.266367 -0.0185943 0.0893 -0.20619 0.343112 0.285111 -0.629737 0.12714 0.548393 -0.221705 0.407711 -0.00761731 0.23714 0.0805175 0.296729 0.0518456 0.189611 -0.18374 0.133076 0.159687 -0.00559104 -0.378917 -0.0872633 0.266792 0.3311 -0.221993 -0.542947 0.0255428 0.0297971 0.266722 0.115584 -0.188738 -0.0476775 -0.526465 -0.176307 -0.165045 -0.232626 -0.278074 0.281347 0.0388577 -0.142154 0.154186 -0.420358 -0.526058 -0.0293332 -0.351653 -0.0996133 -0.463942 -0.21405 -0.0296131 -0.405064 -0.0242752 0.0391186 -0.48251 -0.353237 0.341459 -0.312238 -0.0231458 0.0412779 -0.312248 0.3871 -0.45702 -0.281876 -0.149411 -0.449072 0.0153178 -0.340497 -0.180003 -0.491508 0.147656 -0.112534 0.00993693 -0.381862 -0.0206081 -0.324528 
69 -0.183823 -0.0986005 0.0800973 0.796881 -0.0684841 0.970347 -0.503544 -0.513755 0.974893 0.152488 -0.0235933 0.054545 1.27357 -0.140368 0.528079 -0.587382 -0.108509 0.228461 0.773691 0.389331 0.0699659 -0.682155 1.04013 0.00540959 0.582419 -0.207571 1.49325 0.3389 -0.13904 -0.00682207 -0.870335 -0.433368 0.921483 -0.166243 -0.163783 -0.0446823 1.3788 0.353023 -0.112578 0.378718 0.67703 -0.540222 0.189154 -0.251482 -0.402077 -0.305957 0.562742 0.673724 -1.05148 0.488975 -0.663205 0.0106256 -0.537265 0.179153 0.920111 0.0486675 -0.620361 0.213061 0.421222 0.145405 0.993477 -0.201649 -0.0782081 1.01644 0.260211 -0.125895 0.848561 -0.866629 -0.796866 -0.139196 -0.235332 -0.285943 0.777173 1.07317 0.038405 -0.0729354 0.690994 0.294048 -0.0912969 0.0155584 1.74756 0.0629691 0.173579 -0.0480024 -0.528076 0.172468 0.0549135 -0.55042 -0.0528934 0.388295 -0.55769 -0.877937 -0.572197 -0.223723 0.173103 0.178352 -0.138249 0.0814295 0.89577 -0.162231 -0.423979 -0.0682349 -0.358555 -0.219777 0.538077 0.368468 -0.531233 -0.0616706 0.20962 0.329454 0.624673 0.00916272 -0.145 0.779104 -1.21191 -1.49114 -0.378986 -0.66344 -0.364936 -0.896407 0.320751 0.158867 -0.167217 -1.23406 0.395136 -0.198622 -0.255345 0.558982 
70 0.409854 -0.0679822 -0.198761 0.346914 -0.714988 -0.77558 -0.477221 -0.960648 -0.245374 0.15776 -1.40891 0.693407 0.632025 -0.327733 -0.0292581 -1.19787 0.026263 -0.0669852 0.0841672 0.280474 -0.287411 0.501607 0.872463 -0.221648 -0.438659 -0.349342 0.0814898 0.648803 -0.404107 0.0290435 0.164244 -0.00350022 -0.575574 1.26507 0.137458 0.285981 0.367819 0.195042 0.0870653 0.597187 0.35179 0.584554 0.245412 0.052139 -0.181237 0.0508753 0.778729 1.13243 -0.855328 0.697389 -0.234516 0.590168 -0.0999535 -0.342093 0.894916 -0.141425 -0.180784 0.477677 0.746372 -0.168451 1.12134 0.867747 0.327782 0.746259 0.128893 0.0355961 0.312451 -0.504021 -0.434089 -0.396347 -0.316741 0.280949 -0.0129306 -0.0128929 -0.204519 -0.1098 0.630494 0.123387 -0.487958 -0.276357 0.477411 -0.513247 0.134636 0.601138 -0.21983 -0.100753 0.038933 0.104746 0.125961 -0.314647 -0.888224 0.0089237 0.143964 0.482476 -0.00718411 -0.23896 -0.72121 0.284281 -0.104242 -0.269415 -0.527807 0.857204 0.567592 -0.19864 -0.193325 -0.314999 -0.213137 -0.105861 0.0975128 -0.631975 0.310129 -0.520026 -0.483631 -0.111718 -0.379931 0.0157761 -0.79148 -0.193518 -0.483271 -1.07745 0.292725 -0.420555 0.151324 0.00938023 0.784639 0.363868 0.20002 -1.00967 
71 0.0137177 0.229992 0.0753925 0.155521 -0.327424 -0.0876439 0.228871 -0.0371161 -0.653447 0.110159 -0.397217 -0.215139 0.277887 -0.602808 0.343565 -0.0883267 -0.228482 -0.0240172 -0.0486952 0.545823 -0.259855 0.310818 0.774112 0.605429 0.346996 0.0387136 0.269846 0.738051 0.293227 -0.510496 -0.547587 0.331331 -0.407605 -0.370982 0.158689 0.58779 0.504228 0.53178 -0.00079998 0.787645 0.732646 -0.156455 0.218256 0.100404 0.229152 0.856578 0.267692 0.960524 -0.0235902 0.0873602 -0.295091 0.322418 -0.486839 -0.351187 0.108895 -0.288976 -0.636798 0.588067 -0.0318077 0.000137963 0.0310864 0.00584405 0.211733 0.0313307 -0.320544 0.356202 0.390279 -0.103209 0.0845165 -0.0453841 -0.523464 0.178092 -0.0955957 -0.209077 -0.291663 -0.131033 0.186986 -0.139289 -0.816109 0.336944 0.530103 -0.250508 -0.144614 0.331099 -0.587239 -0.0134998 0.0728506 0.00346227 -0.484935 0.114357 -0.56542 0.37371 -0.434851 -0.320277 -0.192762 -0.207917 -0.426654 -0.218907 -0.110203 -0.936288 -0.453095 0.210572 -0.101747 -0.0319733 -0.0450921 0.15445 -0.602462 -0.344101 0.0862593 -0.158623 0.220989 0.0780814 -0.222819 0.0838714 -0.598561 -0.27677 0.36582 -0.357633 -0.283776 -0.864565 0.323704 0.18567 -0.202181 0.0581612 0.287978 -0.0698135 0.253643 -0.736194 
72 -0.0350011 -0.229635 -0.0681335 0.198652 0.181282 -0.67901 0.0883974 -0.601481 -0.0183995 0.0249872 -0.765085 -0.703345 0.0943504 -0.351687 0.053178 -0.549298 0.437089 -0.505099 0.0165816 -0.00626714 -0.521643 0.13533 0.234723 -0.0880859 -0.0926137 0.39061 0.469619 0.195066 0.214961 -0.120535 -0.0940496 -0.476243 -0.0763363 0.414168 0.212661 -0.174308 0.573038 0.03632 0.247065 0.452795 0.174763 0.269674 -0.0373885 0.122406 0.188844 0.187971 0.51217 0.799516 -0.217494 0.0393658 0.26865 0.0582414 -0.410835 -0.0852695 0.376615 -0.180542 -0.0654516 0.367863 0.437201 0.00814927 0.312135 0.233959 0.249089 0.364357 -0.238084 0.220781 0.256555 -0.493783 -0.316359 -0.245012 -0.397936 0.102706 -0.193187 -0.241164 -0.238691 -0.285579 -0.0610095 0.0125213 -0.255829 -0.404504 0.336339 0.166716 -0.19299 0.371515 0.14975 -0.0374421 0.159175 0.0484644 -0.00301867 -0.242062 -0.355362 -0.139739 0.110984 -0.057912 0.652413 -0.149135 0.0488107 0.392494 0.221197 0.586672 -0.145812 -0.156251 0.185149 -0.00915489 -0.128548 -0.00944842 -0.225445 -0.0140957 0.19857 -0.214103 -0.0762792 -0.450615 -0.136912 0.417857 -0.293243 -0.407119 -0.342186 0.268279 0.0731959 -0.822555 0.282771 -0.519563 0.198906 -0.45697 -0.282739 -0.221242 0.00998744 0.102896 
73 -0.0319162 -0.0180797 0.166266 -0.0167025 -0.0125201 -0.00205671 -0.149704 -0.063912 0.0979428 -0.145675 -0.201951 -0.118503 0.240565 -0.255175 -0.0125266 -0.245743 0.149045 -0.092637 0.0555035 -0.221685 -0.13137 -0.0609707 0.198576 0.282257 0.16735 -0.122477 0.148117 0.03611 -0.156845 -0.093196 -0.311828 -0.065233 -0.194211 -0.0501218 -0.010922 0.00350544 0.434804 -0.0223784 0.159054 0.135249 0.31811 -0.0319342 0.0154213 -0.0918272 -0.109764 -0.0161335 0.329169 0.303195 0.140784 0.162819 -0.00780168 -0.0316579 -0.265984 0.0691991 -0.0884839 -0.276585 0.0565393 0.202206 0.286619 -0.2031 0.271987 -0.02827 0.0159755 -0.0912766 0.138995 0.243851 0.324143 -0.0676557 -0.281717 0.0367685 0.272096 -0.110245 0.0213352 0.0186722 -0.199355 -0.018545 0.556305 0.107418 -0.132407 -0.288515 0.114604 -0.207525 0.275215 0.222262 -0.344973 0.1237 -0.0114021 -0.288891 0.0186237 -0.381614 -0.00623442 0.00109867 0.0738729 -0.276317 0.197167 -0.0186429 -0.258848 0.0741216 -0.0259192 -0.157966 -0.348882 0.0237693 0.142119 0.228272 -0.0747643 0.226443 -0.0464328 0.0692059 0.211363 0.0214757 0.0231283 0.0114069 -0.412853 -0.14814 0.114644 0.20721 -0.244951 -0.181265 -0.326179 -0.244692 0.208355 0.099519 -0.00606327 -0.015631 -0.0636994 -0.040981 0.139129 -0.0961949 
74 0.250615 0.0284364 -0.0922632 0.244503 -0.0823154 -0.397569 0.0908969 -0.247439 -0.179302 -0.121809 -0.221453 -0.0794025 0.0176298 -0.1503 0.107958 -0.112256 0.0532658 0.101299 0.123736 0.363988 -0.294435 -0.145068 0.182454 -0.214722 0.0149178 -0.163968 -0.0273403 0.0900248 0.102474 -0.271668 -0.162813 0.204642 -0.151352 -0.10207 -0.000667914 -0.227709 0.156911 0.13452 -0.0240553 0.0969226 0.37115 0.246607 -0.0576603 0.163827 -0.0693132 0.119357 0.357222 0.440004 0.0734115 0.334602 0.0590265 0.193907 0.0502625 -0.142231 0.119952 0.218793 -0.09915 0.118391 -0.0807777 0.121079 0.0635193 0.00954821 -0.0413655 0.386678 -0.207793 0.086398 -0.232869 0.0464438 -0.257707 0.107089 -0.0291411 0.183912 0.0238077 0.292709 -0.101497 -0.129922 -0.039031 0.255969 0.0380103 -0.0813715 0.451949 0.0382579 -0.348841 -0.0855507 0.0318735 0.033319 0.0627878 -0.107456 -0.241503 -0.171368 -0.329123 -0.144755 0.141493 0.0654944 -0.25581 -0.254007 -0.156888 0.116154 0.0401711 -0.041924 -0.113314 0.098809 0.101915 0.0694817 -0.0437801 0.204592 0.08846 -0.263604 -0.223097 0.0372272 0.239834 -0.256535 -0.251526 0.283163 0.194578 -0.100882 0.198349 -0.0285142 0.150611 -0.181781 0.15158 0.107585 -0.000408054 -0.290871 -0.052329 -0.233723 0.000912433 -0.211439 
75 0.000590993 -0.276371 -0.283903 0.146376 -0.201775 -0.555083 -0.228873 -0.575329 0.162203 -0.23194 -0.764077 0.616024 0.488843 -0.097192 0.551953 -1.21092 -0.198455 0.0931412 0.530664 0.742664 -0.041443 0.176867 0.435073 -0.0435721 -0.250891 -0.27919 0.568504 0.563416 -0.427021 0.0537258 0.316905 -0.0241677 -0.373285 1.08124 0.145632 0.277022 0.355956 0.219686 -0.239959 0.0825305 0.243549 0.303014 -0.0795414 0.0231556 -0.127157 -0.0123604 0.960486 0.812774 -0.671993 0.244053 -0.255685 0.438097 0.0376764 -0.130369 0.512048 -0.473308 -0.179043 0.0423159 0.528911 -0.12161 0.729532 0.555357 0.0166058 0.594015 0.250641 -0.2326 -0.0308837 -0.314505 -0.403357 -0.22738 -0.0718436 0.193997 0.0193367 -0.174019 -0.37193 -0.087736 0.684642 -0.0150513 -0.00079324 -0.188166 0.170651 -0.0974863 0.213366 0.0949104 0.0152475 0.254363 -0.172382 -0.0834421 -0.05036 -0.465257 -0.614683 -0.366442 0.148097 0.675689 -0.288878 -0.169009 -0.525454 0.0693855 -0.167824 0.256097 -0.581342 0.825218 0.175634 -0.655145 -0.00520828 0.0258096 -0.253018 -0.144797 -0.157 -0.550962 0.312429 -0.579829 -0.537683 0.161402 -0.401366 -0.290872 -0.207062 -0.220574 -0.70697 -1.30003 0.0419046 -0.222269 -0.0404539 -0.178558 0.400937 -0.0138356 0.221838 -0.89874 
76 0.0187807 -0.217415 -0.033661 0.17391 0.184714 -0.619606 0.0696693 -0.625868 -0.0201258 -0.00522917 -0.703273 -0.629153 0.171063 -0.313395 0.00948693 -0.601646 0.427784 -0.47318 0.0462089 0.0468532 -0.54511 0.0756246 0.249102 -0.109772 -0.0847296 0.379329 0.466913 0.212617 0.166911 -0.0766629 -0.0647549 -0.454944 -0.0473366 0.407519 0.192461 -0.20394 0.617677 0.0429896 0.252091 0.471122 0.179999 0.305909 -0.0158895 0.162349 0.182848 0.2125 0.446592 0.802673 -0.235017 0.0909932 0.234633 0.0633921 -0.464008 -0.0702803 0.380012 -0.155695 -0.0778167 0.353235 0.444631 0.021739 0.272382 0.302446 0.225303 0.432544 -0.153813 0.239703 0.25168 -0.478743 -0.34336 -0.198773 -0.3369 0.0952144 -0.215914 -0.247223 -0.245773 -0.328438 -0.0821879 -0.0296149 -0.227974 -0.416062 0.400547 0.114656 -0.183195 0.387053 0.132235 -0.0514555 0.145153 0.0712339 0.00146595 -0.241079 -0.421251 -0.171015 0.0598512 -0.0425928 0.686824 -0.148497 0.087001 0.355146 0.196753 0.581031 -0.156846 -0.164079 0.185865 0.0331849 -0.123355 -0.0280634 -0.22887 -0.0387976 0.145283 -0.221934 -0.037463 -0.44074 -0.182339 0.459891 -0.330164 -0.40874 -0.293018 0.26841 0.0666346 -0.859188 0.286812 -0.467442 0.210907 -0.419746 -0.241331 -0.18105 0.0346463 0.0744247 
77 0.126461 0.212186 0.287382 0.4441 -0.332342 -0.631829 0.0686623 -1.10754 0.274545 0.0920045 -1.24753 -0.610559 -0.118123 -0.279115 -0.0167027 -0.470526 0.667378 -0.12463 -0.0680638 0.333431 -0.679169 0.743927 0.825606 -0.116155 -0.167218 0.601068 0.532376 0.345647 0.279273 -0.0735557 -0.422663 -0.615609 -0.07263 0.991419 0.262371 -0.13235 0.699606 0.169881 0.147468 0.354979 0.438066 0.752947 -0.440342 0.168125 -0.217775 0.214966 0.802372 1.09716 -0.366999 -0.0202427 0.411607 -0.134223 -0.594456 0.115097 0.511723 -0.0290227 -0.686719 0.60574 0.527263 -0.605621 0.295094 0.487 0.679712 0.0220624 -0.449082 0.567003 0.441953 -0.624843 -0.702152 -0.336272 -0.668404 0.23589 0.00645283 0.401959 -0.33483 -0.182857 0.157734 0.0190223 -0.43235 -0.377515 0.442811 -0.400446 0.081781 0.252282 0.201862 -0.418652 0.0323083 -0.213241 -0.0561471 0.221443 -0.365407 -0.188957 0.332069 -0.187986 0.801193 -0.0858142 -0.292294 0.323752 0.226358 -0.133413 -0.64945 -0.0564465 0.175731 0.245718 0.0866801 0.262936 -0.702667 -0.141798 0.220588 -0.567144 0.000308025 -1.16039 -0.285225 0.318633 -0.548141 -0.00231746 -0.635841 -0.0775553 0.308477 -0.874683 0.154798 -0.201376 -0.0845777 -1.11838 -0.341989 -0.0135364 -0.00288786 0.00424871 
78 -0.044845 -0.277823 0.184422 -0.0274661 0.110162 0.437275 -0.550467 -0.249251 0.298552 1.30933 -0.540358 0.26996 0.192713 -0.23111 0.682411 -0.504467 0.345867 0.136159 0.57084 0.425802 0.155161 -0.340732 1.07535 0.214065 0.150863 -0.390247 0.833 0.688809 0.396222 0.0658764 -0.684308 -0.319434 0.622235 0.238335 -0.308364 -0.414981 1.38704 0.851713 -0.0661243 -0.102711 0.297775 0.223769 0.427589 0.436138 -0.254004 -0.513506 0.89117 0.81361 -0.147424 0.99589 -0.12269 -0.272545 -0.562151 -0.465036 0.819207 -0.585566 -0.333993 0.349796 0.517823 0.0763586 0.665948 0.230547 0.00424909 0.274496 0.0607367 0.278227 0.156949 -0.454012 -0.218243 -0.23057 -0.420563 -0.103047 0.753043 0.0896466 -0.498855 -0.129763 0.201918 -0.177844 0.159657 -0.490239 0.971837 -0.0929347 -0.205417 0.080721 -0.857212 0.421529 0.712116 -0.471613 -0.379438 -1.08804 -0.908853 -0.369162 -0.378366 -0.604247 0.15069 -0.115341 -0.338139 -0.049304 0.861123 0.458857 -0.68931 -0.00691454 -0.849503 -0.511078 0.320572 -0.191656 -1.20873 -0.049037 0.0312884 -0.0182594 0.929116 -0.510782 -0.193265 0.305285 -0.575963 -0.383187 -0.769011 0.327746 0.101171 -0.627725 0.139506 0.0544908 -0.363717 -0.25002 -0.0704467 -0.221726 -0.0844856 0.247807 
79 -0.365398 0.279778 0.0491031 0.0269588 0.0146076 0.0797015 0.405915 0.0543686 -0.113684 -0.265564 -0.180248 -0.595585 0.171998 -0.734479 0.679322 -0.526915 -0.78104 0.210033 0.17303 0.489387 -0.405907 -0.185331 0.125394 1.04138 0.84375 0.140639 0.67005 1.20514 -0.0740704 -0.175338 -0.481548 0.307032 -0.0693265 0.367926 0.365575 -0.577809 1.6086 0.971496 -0.104734 -0.171037 0.364869 0.295321 0.446814 0.172751 -0.211496 -0.00876836 1.0828 0.5338 -0.673648 0.775515 0.28186 0.800154 0.374026 -0.904028 -0.091362 -0.792139 -0.435435 -0.255648 0.343649 0.0261509 0.183369 0.532388 0.281743 0.656182 0.137911 -0.105164 0.268434 -0.808591 -0.364047 0.253154 -0.0966781 -0.753723 0.556035 -0.320565 0.291 -1.05251 0.32003 -0.291071 0.241111 -0.470907 1.2075 -0.123902 -0.921894 -0.509125 0.394366 1.10477 -0.0452745 -0.662785 -0.626029 0.118238 -0.811189 -0.0175962 0.263909 0.323523 0.431629 -1.42137 -0.96534 -0.264744 1.1118 0.605949 -0.816296 -0.0896287 -0.408378 0.67473 0.369638 0.501265 -0.224109 -0.0146704 0.058979 -0.0413152 0.307012 -0.608927 -1.00863 0.883665 -0.508909 0.0868836 -0.0948654 -0.376271 -0.138848 -0.58628 0.270624 0.320955 -0.20697 -0.229864 0.131698 -0.352569 0.329067 -0.444118 
80 0.191812 0.265262 -0.109068 -0.100405 0.185785 -0.111868 0.0707082 -0.567929 -0.294413 0.352693 -0.790922 0.033623 0.129451 -0.467226 0.197827 -0.167381 0.159833 0.202973 0.21293 0.331836 -0.42786 0.200612 -0.122358 -0.185141 0.331026 0.130859 0.417819 -0.0720929 0.0952963 0.267151 -0.675436 0.506591 -0.267527 0.39735 0.153727 -0.378152 0.368954 0.567939 -0.340838 0.758757 0.637407 -0.135582 -0.428222 -0.143761 -0.0926063 0.410129 0.62864 0.0388443 -0.305192 -0.146412 0.380657 -0.0752126 -0.182705 -0.344243 0.285068 0.170355 -0.223449 0.554026 -0.130545 -0.27756 0.488432 0.530301 -0.0834402 0.301962 -0.130373 0.726995 0.241234 -0.0764215 -0.908858 0.246058 0.076908 0.0540658 -0.0526332 0.374224 -0.341981 -0.253816 0.0575364 0.225397 -0.293967 -0.0535688 0.353364 -0.227585 -0.120469 0.58847 -0.180975 0.151785 0.707189 -0.429701 -0.562078 -0.55955 -0.845647 -0.000492671 0.436194 -0.268043 0.0615833 0.29566 0.307466 -0.531167 -0.113353 -0.117805 -0.729451 0.170781 0.27868 -0.414935 -0.237264 -0.175366 -0.602609 -0.939517 0.339401 -0.464428 0.472746 -0.096794 -0.392795 -0.16598 -0.524651 -0.244972 -0.395334 -0.263112 -0.46715 -0.711826 0.526413 -0.114759 -0.0907579 0.238904 -0.33483 -0.1087 0.25369 -0.55039 
