34 128
0 -0.159774184715 -0.29921260026 -0.139895170094 -0.109954100813 0.16762415371 0.0929985872405 -4.57800030738e-05 -0.18670217366 0.00465000742457 -0.16468052118 -0.0356628203188 0.113597116314 -0.105065741382 0.00483827027199 -0.0585024256876 -0.044214275045 0.0712383322402 -0.164080477958 -0.138990378758 -0.168893156103 -0.0310025593387 0.150348512653 0.0774594631462 0.00873483379983 -0.0202637678404 0.165651881022 -0.126366147912 -0.144087464565 -0.00784741743246 0.101740089576 -0.0011479288468 -0.0758813993635 -0.235590401962 0.120619791933 0.163428964122 0.0312055721287 -0.24407858883 -0.121751113679 -0.0385866451491 0.0227898989466 -0.0848341083996 0.224810931271 0.167967445164 -0.0143726042054 -0.137379972557 -0.13709017086 -0.266497637214 0.144358309926 0.133656763768 -0.115354214262 -0.151329106794 -0.16318692091 0.0715950325684 -0.103675278707 -0.217363505036 -0.0858678257474 0.150880254392 -0.0240581391718 0.0156271867101 -0.0976771011825 0.243562953384 -0.0227227648889 0.0953777462865 -0.0298046721383 0.130348831656 0.0833822828464 -0.137153875759 -0.0310172050865 0.0839164419743 -0.0352225293262 -0.119264751016 0.132602129504 -0.235219527168 0.0715091290677 -0.158643257942 0.118163814425 -0.046394187628 -0.252998596969 -0.0374599022312 -0.0565520666691 -0.0713768230597 0.118454004943 0.100355449824 0.042172809 0.195021025375 -0.0852184759426 -0.134072317243 0.164501994425 0.133233354813 -0.0899163443593 0.0467838811932 -0.182831981273 -0.0794665439623 0.258526674045 0.165240314787 -0.242660356197 0.227856792744 -0.142388629822 0.141433572833 -0.0407844864136 0.139029620222 -0.240350082695 -0.0228397967577 -0.0905581541606 0.219397006967 -0.0434787799966 0.135261362712 -0.166198218721 -0.00669296803636 0.156016200124 0.0708658939135 0.078068867893 -0.0421019122389 -0.00915127363384 0.118664128559 0.0192466603015 -0.0695139682739 -0.13826069946 0.0406600763761 0.00531260443667 0.061005866475 -0.258352692185 0.0882293471784 -0.242219023553 0.0142109206261 -0.0444169402885 0.106755885567 0.169738548551
1 -0.127223553511 -0.226855324805 -0.096480958056 -0.0921317270158 0.257995979302 0.141784722064 -0.0504024990268 -0.221480246569 -0.052919285628 -0.141283247362 -0.0151744796564 0.0936502074574 -0.0657653869602 0.00750372962632 -0.157997727992 -0.0178249275043 0.0577644871634 -0.1275335038 -0.166325141932 -0.201011114304 0.0186986729269 0.174114921081 0.170885522772 -0.00304099003513 -0.0587486374642 0.162015783403 -0.164992670973 -0.107971072353 0.0664373909872 0.0740215847631 -0.0184454559081 -0.0729416122454 -0.224424776407 0.0996096810559 0.0386900017928 0.0202280265735 -0.285445194888 -0.0756092644464 -0.0529347885115 0.064443140141 -0.108766064972 0.126798867341 0.101615608533 -0.0124039534049 -0.0503894369366 -0.07697498529 -0.284708440741 0.197627091941 0.154568646834 -0.155674261953 -0.153731284012 -0.0505871138301 0.125126876921 -0.156113484242 -0.229540750391 -0.1454044047 0.129423047062 -0.0228576701292 0.0615716524406 0.0274850981765 0.249909598234 0.0451216933489 0.143203966524 -0.0197578779471 0.0332159849962 0.0325305855509 -0.103313546776 0.0286394850585 -0.00143275088046 -0.0543759743327 -0.104133870767 0.0899966049451 -0.160270842712 0.0956315736884 -0.142902519641 0.119051840012 0.0236714603827 -0.196948230361 -0.110009604545 0.0171315925223 -0.033085066091 0.188897540714 0.0386035383987 0.0827063284896 0.18748409926 -0.0425538734969 -0.114568885052 0.0872504286275 0.170923565579 -0.0870256128554 0.0917416049283 -0.185657674634 -0.0491024136895 0.249065578953 0.151854275491 -0.170176822668 0.110693165769 -0.0313444939303 0.0628176524796 0.0329211982086 0.123322926241 -0.293918384287 -0.0665020506668 -0.0786137869396 0.0887280911118 -0.00925424021755 0.173467593462 -0.227270007324 -0.0264045829258 0.160875892945 0.0717691045232 0.186468131622 -0.067055985962 -0.00569870382191 0.102498599146 0.12652304773 0.0499508377772 -0.110459573798 0.019529791718 0.0346946185647 -0.0248436620784 -0.181256118893 0.0212310195145 -0.226183787817 0.0992435524463 0.054764631626 0.129877547039 0.248422672942
2 -0.134913709987 -0.20216700554 -0.161967158283 0.0152980239402 0.207750030326 0.096656151672 -0.0338326645622 -0.171872648135 -0.102544336353 -0.121345415386 -0.00928442502994 0.10210432076 -0.0750186764411 -0.018433635241 -0.0248328463251 -0.0406728285632 0.0656283246311 -0.153041013957 -0.229834314978 -0.11195047216 -0.0015340356934 0.181131402567 0.0865447971445 0.0160482675846 -0.02370131252 0.159643618992 -0.141306776057 -0.171263647048 0.123049036835 0.0238186036959 -0.0498570589934 0.035739849817 -0.192165279214 0.126600812015 0.0537962623021 -0.00780931795406 -0.229427067755 0.00129834010166 -0.0559467430625 0.0551015245147 -0.0150447001166 0.173305691746 0.0812145683968 0.0898414554759 -0.0404944002351 -0.134761551795 -0.251679760906 0.161564090132 0.177165465482 -0.138079638794 -0.0362605890204 -0.145373425769 0.0964076734125 -0.173326765722 -0.193011582112 -0.0937879206918 0.0533280362327 -0.0499905980329 0.0485798652111 0.0777865215567 0.228149495151 0.0294083415437 0.17223224955 -0.0622676190784 0.0550731823834 0.0799983484195 -0.0839395427529 0.0297712208935 -0.0299378768396 0.0248307093049 -0.124649365472 0.0462450958797 -0.0418144778596 0.0850394357712 -0.0530859506569 0.0932411956465 0.105979206968 -0.134877824338 -0.0650006496758 0.0755107468394 -0.0917027875383 0.142445966973 0.084568169152 0.10975356648 0.160425807759 -0.11640752271 -0.087508750296 0.122236982187 0.116313590142 -0.12811757099 0.100882615178 -0.179975591933 0.035517405786 0.181265904435 0.0657484459782 -0.163979412672 0.166215915675 -0.0883525478969 -0.0349187439443 -0.0187410554971 0.0368654649565 -0.234823459149 -0.0307088336786 -0.0518258704382 0.0983206553612 -0.0746918305927 0.116387448114 -0.200287483976 -0.00355516346179 0.0872238061698 0.111617360642 0.0629245648293 -0.0624486094155 0.0318867107464 0.081925473698 0.147379200638 -0.0415347887389 -0.144751042451 -0.0402820103809 0.0443063576848 0.0897650202559 -0.10387019894 -0.0694847043429 -0.24379749316 0.148551469123 0.0226138598329 0.133950474041 0.185572803786
3 -0.104128953451 -0.205733299061 -0.0444675688268 -0.133621400808 0.274696707868 0.138736915725 0.0105662475857 -0.168744515034 -0.0727377344776 -0.0410142630614 0.0206572991728 0.0654045481598 -0.0695644857638 0.0219881126528 -0.0912922842883 -0.0183434950883 0.074831304704 -0.140967438806 -0.171723763687 -0.158026265471 0.0457468662451 0.0982425946012 0.260266538059 -0.0163341213375 0.00338024092085 0.163181085293 -0.211591239951 -0.171953233073 0.186121128661 0.119567208862 0.0584395144592 -0.0507374058549 -0.247966878482 0.180558121594 0.00504626830983 -0.0138996326369 -0.327574723033 0.0371766065264 -0.0568414333842 -0.0392100334314 -0.0971501935466 0.0442843464941 0.11127065188 0.0194370896971 -0.0132260179077 -0.117398765264 -0.337640356115 0.23287793315 0.158466135512 -0.19183182719 -0.118160539977 -0.0821474678224 0.138863120836 -0.263970195311 -0.224486415266 -0.161571963816 0.094749878951 -0.0657323746442 0.039578390157 0.0521118527689 0.233967138238 0.0608828290942 0.203301976191 -0.0428827345374 0.0290107319226 0.0893374519122 -0.126440483243 -0.00764631711961 -0.0674727341633 -0.0263730280846 -0.0828521806393 0.0930894072449 -0.0659038433376 0.030671768467 -0.136734398317 0.0607551294088 0.0165924481866 -0.189481175569 -0.105089260168 0.0473248892207 -0.0280843451169 0.182525203836 0.0888606952862 0.0602481687476 0.228141480873 -0.0695366597958 -0.038461774105 0.112399129349 0.181734074505 -0.108492802756 0.140699641946 -0.159680150135 -0.0289995629789 0.217668036679 0.0778650170952 -0.128972422873 0.142974066066 -0.0625672376479 -0.00406400188958 0.0210891370656 0.0314182538392 -0.326468636847 -0.0558783513173 0.0132536413641 0.0614104028408 -0.113811890514 0.11446743668 -0.287589783904 0.00559238433917 0.176728467059 0.120312903727 0.230032622537 -0.0998414571835 0.0767797917665 0.141855658033 0.147303349283 0.11189868106 -0.135010107581 0.021167972141 -0.00405738840237 0.0609106544093 -0.161458100274 0.00244382492941 -0.257085393111 0.167301760265 0.0598995390266 0.130456364744 0.313180935274
4 -0.0951372598788 -0.211957868623 -0.00415527727773 -0.182173140179 0.314463311852 0.14574267697 0.0108746052336 -0.164781632439 -0.0775323624391 -0.0273227935066 0.0907225312363 0.0399268008711 -0.0776438846148 0.0675856530167 -0.130695639148 0.0157152928904 0.064538375975 -0.157535448489 -0.134598565387 -0.18796939217 0.0556072514669 0.056398806924 0.443839850827 -0.0631272881171 -0.011598032892 0.260354214084 -0.317643877343 -0.141809257253 0.264670094479 0.170147084706 0.14916994979 -0.0761418169804 -0.34524743429 0.2930728669 -0.0649748172744 -0.0765959296448 -0.433432678125 0.11877116175 -0.103948757847 -0.0333266920738 -0.142076760712 -0.00882865215403 0.152858641523 -0.0461081267723 0.0375853605992 -0.120216038371 -0.383378978087 0.338289575377 0.165196256899 -0.278582927085 -0.126767313999 0.000820556060143 0.228907632871 -0.324821168214 -0.260283397763 -0.251032171512 0.112415771452 -0.0845910287112 0.140017994674 0.10394731411 0.263401315005 0.0935141842121 0.235265295617 -0.0194797614374 0.00180323191268 0.0765738711688 -0.0892534807787 -0.0380018019223 -0.117211052471 -0.05221551173 -0.0358197750821 0.1319129052 -0.0666520554252 0.0190058347896 -0.1417088703 0.0633739795736 -0.0588330454848 -0.22156354321 -0.137724842349 0.0540217432981 -0.0241827323513 0.259437598712 0.0888738845561 0.0668524236238 0.287168808155 -0.047951085409 0.00826927102231 0.0882136434726 0.246538265619 -0.108507254645 0.163674635452 -0.186691826465 -0.0661972440202 0.215465913303 0.128182786497 -0.126087284712 0.0842452995281 0.0340269322218 -0.0210753821504 0.035250789753 0.0309169067127 -0.422559604341 -0.0823807945019 0.061517954564 -0.0250286270519 -0.199819498174 0.169170966981 -0.384595164994 0.0191221814834 0.240119573735 0.158264876445 0.336089332513 -0.158089041955 0.116170866262 0.222334399628 0.206986196008 0.229439967937 -0.187795472766 0.081674011868 0.042062746361 0.0820952720122 -0.169262719936 -0.00988184344321 -0.287846533781 0.19115569809 0.0645166596654 0.108558677674 0.389119454276
5 -0.0991459355075 -0.207137688895 -0.000521783870769 -0.191016616204 0.319574406752 0.150479348448 0.00918242492187 -0.165503747531 -0.0906295436446 -0.0159747439403 0.100157465488 0.0406887217341 -0.0740216964641 0.0650553271941 -0.125253531339 0.0187915471959 0.0610634394809 -0.160606984389 -0.14441683997 -0.185135605259 0.0524312076498 0.0486292971401 0.449078301677 -0.0657278536777 -0.00740831613342 0.256770573327 -0.323998287886 -0.147281281759 0.276301321731 0.166861361138 0.153617526062 -0.070306960974 -0.346965995834 0.298720058515 -0.0753891615025 -0.0732493018736 -0.435254120721 0.112776632008 -0.0976425225192 -0.0366778929167 -0.142824183522 -0.0185474749098 0.154709891073 -0.0427283082684 0.051466882502 -0.114469767877 -0.389474929791 0.335334331903 0.168703292376 -0.278060167662 -0.123572734299 0.00407926034357 0.228194459077 -0.330345657244 -0.255975699504 -0.247781310294 0.100959078899 -0.0871666283003 0.145325781083 0.100781689532 0.259169410031 0.0862289952356 0.241433159805 -0.0120078502073 0.000451281788489 0.0843782661005 -0.0897213505554 -0.0431976641168 -0.120917442637 -0.0508186686903 -0.0389859753453 0.129544746515 -0.0606437936342 0.0252468765409 -0.13014871478 0.0527809042129 -0.048413201048 -0.224028132774 -0.140405320376 0.0611188085957 -0.0229889535584 0.254334977335 0.0890457438509 0.0676827084573 0.285432135301 -0.0487877260574 0.00753816717952 0.0925998747386 0.24277154854 -0.106986806174 0.168553120534 -0.1780808949 -0.0592615597749 0.219253049702 0.120986032664 -0.126694240499 0.0874662045348 0.0292583443529 -0.0277888502117 0.0305401077612 0.0298518266988 -0.421649523531 -0.0767204068259 0.0578588406562 -0.0295018800447 -0.204379184989 0.160473512897 -0.39427071577 0.0194547505867 0.230513960927 0.154975868328 0.336962331756 -0.155179123528 0.118495453009 0.222311651262 0.208153085759 0.235897347747 -0.191969684053 0.0785772039297 0.0417692497476 0.0828957165873 -0.167318621022 -0.0185511547503 -0.289809366224 0.1994327908 0.0658684298769 0.104868377828 0.396664426457
6 -0.0941113303409 -0.211276224924 -0.00795940702367 -0.185333668486 0.313786838878 0.147876947349 0.0102779370985 -0.159993144421 -0.0806965206419 -0.0264768404597 0.100761692645 0.0476302894992 -0.0834922740014 0.065302355647 -0.129332930718 0.0190307564638 0.0647064664184 -0.153795073172 -0.134870629864 -0.188957517512 0.0524164708584 0.0543494791973 0.443556207681 -0.0631586591918 -0.00934924656689 0.258165320692 -0.311981781183 -0.144028224107 0.270213817646 0.165926592356 0.156787196609 -0.0790900221951 -0.339456138677 0.29327678286 -0.0735975492111 -0.0746997536839 -0.427881801421 0.116789072247 -0.103541826769 -0.0384211446929 -0.143840582064 -0.0110062941619 0.158819899252 -0.0363407908358 0.0480364388225 -0.118848250919 -0.390778559761 0.343722770705 0.172607213532 -0.270557241557 -0.125526890087 0.00399776403116 0.221483779098 -0.324585735763 -0.25852038889 -0.242744958955 0.108431292136 -0.0813994259424 0.142650682444 0.106117959747 0.265017537515 0.0901785555637 0.23405393554 -0.020722478792 0.0076794070042 0.0754104117056 -0.0919439704046 -0.0391817626955 -0.127897883716 -0.0563358005502 -0.0394510474616 0.121115451989 -0.0736761741775 0.0183519745316 -0.136006208677 0.0535763520366 -0.0452534410578 -0.225209367743 -0.13931886488 0.0581901763581 -0.0282197991103 0.260142846198 0.0920786655853 0.0679275777509 0.29521122348 -0.049424370255 0.00878078372209 0.0840096024592 0.236317680909 -0.113196819795 0.175102189444 -0.190419036706 -0.0678988569285 0.209846170393 0.12732670842 -0.122797674583 0.0885742005337 0.0318750576493 -0.0312114629373 0.0369492553791 0.0319832789335 -0.422873265432 -0.0812993719113 0.0568953158806 -0.0300480463862 -0.194998233124 0.170204831128 -0.391819324319 0.0232469586194 0.23401795078 0.157125973569 0.336271728659 -0.157776102662 0.112360182765 0.226040755653 0.201022808728 0.227977981383 -0.186782907823 0.0769618038666 0.0339509760985 0.0809573803782 -0.168356412826 -0.0162459664444 -0.284778011041 0.193739205669 0.0673269896384 0.1155187789 0.395966057261
7 -0.128334426094 -0.181108595259 -0.0196093819179 -0.143157963679 0.283944751485 0.140129024752 0.031288718595 -0.144401623705 -0.101181629196 -0.0290086556797 0.0471805815271 0.0447288190177 -0.070557048794 0.0369972447863 -0.0585825942715 -0.0222081143691 0.0779407649406 -0.144564031267 -0.171581626841 -0.165624491777 0.0457029284345 0.0721434572134 0.344464361603 0.0159510638465 -0.0107177857482 0.179040022403 -0.273441617307 -0.16932454865 0.213129366293 0.119542590912 0.0977503073911 -0.0407782948909 -0.285938237897 0.23127255325 -0.0549243444562 -0.000710844155216 -0.338724839168 0.0589755169664 -0.108437929391 -0.0588265879828 -0.14275827732 0.0102417021593 0.112647126221 0.00230434552972 0.0223381872945 -0.114797598021 -0.364258257253 0.2423130242 0.184142516246 -0.200705352213 -0.08105028275 -0.0756063481523 0.172427439655 -0.324102549893 -0.214262508126 -0.144332192578 0.0950917927711 -0.094030427072 0.0602928193494 0.112524511261 0.187688161684 0.0430290912769 0.243736321847 -0.0091038381425 0.0252471559312 0.0756851638537 -0.11758903332 -0.0134548452499 -0.0874889249687 -0.0561307736302 -0.0586845076934 0.106010285118 -0.0523233031157 0.0155868765373 -0.123176494657 0.0496655985342 0.030569606984 -0.215365788054 -0.096534044314 0.0592597039513 -0.0242513525951 0.192825515265 0.0945596337313 0.0801488223992 0.220626343867 -0.0513759397727 -0.0316357798701 0.0993675974512 0.170792018388 -0.0760126428518 0.201907494972 -0.169334020957 -0.00944583882047 0.237191422133 0.0613529744804 -0.0930009875427 0.12633980876 -0.0236368748267 -0.0734050524993 0.0109882486718 -0.000927267950336 -0.397003741261 -0.0315220733177 0.0359434925852 0.017557727126 -0.163791713179 0.121104874884 -0.331821419664 0.00168412264141 0.190931524674 0.131070264995 0.251236511563 -0.0689725621075 0.0942544950238 0.181942313422 0.164060665598 0.15157976323 -0.182470304577 0.0494585233832 -0.00435300515051 0.123154136647 -0.11906172891 -0.0346474602088 -0.243472968787 0.190802356916 0.0955301450278 0.167869900444 0.35714866906
8 -0.166553180183 -0.147653459685 -0.104314340328 0.0260081077869 0.199922463734 0.0969029499274 0.0413468307821 -0.171331117651 -0.111831141208 -0.0456901868129 -0.0851324889974 0.085342803563 -0.0322134397665 -0.0792869972486 0.0663467624376 -0.0533825497662 0.0631163697917 -0.126627089236 -0.273540875862 -0.118676964665 0.0217025315746 0.150042836114 0.0887763547063 0.141753008682 -0.00856230516605 0.0455502771083 -0.149866748296 -0.201919440749 0.122038061181 0.0202944458647 -0.0634162063101 0.0434971849838 -0.178725786736 0.0852632688836 0.0189926580755 0.106146278888 -0.175021153107 -0.0583499471403 -0.0685229369067 -0.0182233932034 -0.0890433480409 0.113800804583 0.0384135058186 0.0621945085401 -0.0258296737214 -0.095906081946 -0.29126810891 0.0836817908375 0.197341939635 -0.0489449155427 -0.0243073341755 -0.206301923167 0.0710397999883 -0.245518176165 -0.168259182464 -0.00207798691346 0.0554637187986 -0.124837490955 -0.0317521822377 0.120957652782 0.113388448085 -0.0230377096967 0.236015346237 -0.0283893375788 0.0698538479308 0.115363671616 -0.11943047938 0.0906634697945 -0.0191290090372 -0.0409002798011 -0.102418060035 0.0658475999296 -0.00748486483215 0.0322626140588 -0.0985854836679 0.0614535735725 0.218011827992 -0.151168282913 -0.0160481222441 0.10921361295 -0.0587530884683 0.106318288016 0.0664090357154 0.136161809008 0.102049505587 -0.0902635712151 -0.142542045187 0.104916409528 0.0721192570516 -0.0612783228806 0.22268534855 -0.162623161421 0.0799356574404 0.273943690191 -0.00459897995672 -0.0946076446056 0.183669266475 -0.125440658894 -0.166691635568 -0.0398435545974 -0.0078081458179 -0.316709776996 0.0455253692059 -0.0746056242701 0.117983439622 -0.0471115029765 0.0217306765559 -0.190550798354 -0.0399612982581 0.0817864762923 0.07210355475 0.0779901767204 0.0317643107822 0.00852395867435 0.10806703043 0.108007847097 -0.0334714451064 -0.134498053919 -0.0353017163787 -0.038631186629 0.163176770747 -0.0306830542192 -0.0697268957959 -0.194924157121 0.136324791262 0.1035179171 0.24394728583 0.234831170862
9 -0.195180901976 -0.156304552384 -0.131546588852 0.0388296106861 0.21965727186 0.093449335104 0.0545330754587 -0.193115087689 -0.105721745698 -0.0562648525373 -0.11040528222 0.10807874825 -0.0349149797722 -0.099488044061 0.0700589104967 -0.0779731342548 0.0774256832511 -0.137813841257 -0.310226607299 -0.131259466242 0.0196766302023 0.193938081734 0.0386655356237 0.174672705159 -0.00998757685211 0.0152807070006 -0.133796008469 -0.221222068436 0.0952816321169 0.0152262072978 -0.0978529756232 0.0365540520639 -0.173398487635 0.050027833559 0.0368321601729 0.138107777606 -0.166449220301 -0.0974412553463 -0.0769744157784 -0.0170655094553 -0.0978372209121 0.131954389802 0.0154358161734 0.0793055948916 -0.0464931038521 -0.106882620817 -0.304368291756 0.0529751955 0.210314971014 -0.0302895803332 -0.0406962351036 -0.242783975623 0.0632423590855 -0.25631483179 -0.167995053961 0.0243048571755 0.0706323162792 -0.132353846784 -0.072452950861 0.122169701088 0.109766146779 -0.0379809597607 0.252387296719 -0.0273920622243 0.0761059910758 0.118485596459 -0.152277745895 0.11896091601 0.0096653918323 -0.0464906500472 -0.119608242191 0.0619715530328 -0.0224868668214 0.0361878438811 -0.118419609745 0.0671552712666 0.258426607125 -0.169676253265 -0.0148922436247 0.105933479047 -0.053054012448 0.0909278928592 0.0669203828229 0.150150914739 0.0843554267129 -0.0921982505362 -0.172943360513 0.116970690746 0.0536612658286 -0.0517031926529 0.236786618823 -0.184229148097 0.104408506735 0.305689577269 -0.00655719338476 -0.0976026038335 0.225968141921 -0.149411315854 -0.179062238227 -0.0583424579408 0.00538094742952 -0.326663122208 0.0616531073556 -0.0918469721799 0.149805216103 -0.0100031491351 0.0145180791677 -0.178145939652 -0.0571361874655 0.0749438798429 0.0715181943884 0.0689453063435 0.0670682575276 -0.0110987788715 0.0955071053409 0.101330197409 -0.060599401161 -0.129961792681 -0.0544710792911 -0.0549809759338 0.159596244465 -0.0264050616089 -0.0747077899568 -0.204843495048 0.133304827862 0.12613650166 0.279147131964 0.245703490981
10 -0.0982212896036 -0.210373269797 -0.000155609570101 -0.184914011403 0.311292518796 0.14392891001 0.00872634790472 -0.157591981059 -0.0817598875349 -0.0267927942007 0.091128980858 0.0383331370709 -0.0740125100668 0.0687152167586 -0.132863564213 0.0163313474975 0.0691754524165 -0.162106134047 -0.132802603135 -0.187864535418 0.0485143964938 0.0528089243743 0.444632754609 -0.0627541713646 -0.0094301246658 0.259737177564 -0.32006861883 -0.138558675576 0.268846778149 0.167225159469 0.157396085415 -0.0739671719282 -0.349455777036 0.287033941263 -0.0696606642944 -0.0783338350692 -0.430736377298 0.11695588864 -0.0962653581555 -0.041261402863 -0.14592199095 -0.0093779242121 0.152448510965 -0.0473507820088 0.037210822086 -0.109469317362 -0.388811141174 0.340184731842 0.163657300827 -0.270046688855 -0.128019471062 0.00200296737537 0.226248342187 -0.32288861281 -0.251736948506 -0.242347261297 0.109916642809 -0.0819732592884 0.138470552207 0.0971117880868 0.264389836919 0.089580312863 0.233626745938 -0.0164915473326 0.00729378913072 0.0818358750921 -0.0966992292976 -0.0462496585405 -0.123013030939 -0.0517431779343 -0.0351329563238 0.126917719376 -0.0669995439127 0.020125648067 -0.141571507707 0.0530819328787 -0.0580153445288 -0.218604040859 -0.133486823572 0.0596215183561 -0.0319519924341 0.250434972063 0.084641714047 0.0608107451455 0.292786847617 -0.0488558069716 0.00374173476491 0.0865811442253 0.246752830559 -0.112582403215 0.171625356462 -0.184437926009 -0.0618001277549 0.21634066575 0.129146375436 -0.13245065924 0.0876729654568 0.029387082762 -0.0182034561127 0.0303075970104 0.0359363668243 -0.410556118797 -0.0761872469954 0.0548987629113 -0.0176609092142 -0.201710216875 0.168868348154 -0.380476700072 0.0293721550211 0.23646131596 0.151964797001 0.332528404541 -0.148720597164 0.112867970162 0.22358199546 0.198236033311 0.229356861073 -0.18946936302 0.081016149223 0.0380213938972 0.0843367336522 -0.1705736283 -0.0152553279885 -0.284445206058 0.189767287398 0.0645839330827 0.112188457177 0.392214672855
11 -0.110587513969 -0.179383424434 -0.0205848836072 -0.140183972565 0.296207717279 0.131893807178 0.0262496655055 -0.155494019926 -0.094991276859 -0.0101841681919 0.0615229548236 0.0553753751787 -0.0604093352834 0.038899218662 -0.0681954814154 5.15922992111e-05 0.0659234133624 -0.15310418539 -0.176774539979 -0.163309615613 0.0492892258167 0.0632887879475 0.386839928877 -0.00876437131661 -0.00488721205034 0.198860037652 -0.296448567245 -0.16541075528 0.256932024456 0.141369398869 0.118582061799 -0.0453266844587 -0.315196119905 0.261961727697 -0.0653458340636 -0.0345550661862 -0.378537386362 0.0928829347162 -0.106561737623 -0.0466611606637 -0.13609726818 -0.00264332782139 0.121521892615 -0.0126178241722 0.0399644999401 -0.111343018685 -0.377794535795 0.283544926427 0.17594994917 -0.223077126911 -0.0951048696496 -0.0498096453788 0.202336323714 -0.333814971164 -0.228477395983 -0.193673019667 0.08288703691 -0.109495646984 0.104324393296 0.123634790257 0.210791280425 0.0689502183853 0.252751580896 -0.0189564542596 0.0167110909845 0.095524761864 -0.0965770291081 -0.00973759683713 -0.114835675793 -0.056448763921 -0.0427578162253 0.110238224638 -0.0377441953091 0.0139087151515 -0.121930244037 0.0475181211304 0.0163861386091 -0.203186942423 -0.11112778494 0.0797385916362 -0.032192647283 0.224522913099 0.0852470930546 0.0905740194861 0.250148257394 -0.0564611597528 -0.0158968950285 0.0868956980444 0.198482721462 -0.0932832304918 0.207574979391 -0.178559898853 -0.0206776342609 0.225613869176 0.0788628344872 -0.102329488309 0.10524261655 0.0037950554475 -0.0909373037315 0.00997658505736 -0.000846507076053 -0.415571844405 -0.04760799192 0.0367275163145 -0.0105597529442 -0.181613161456 0.121130332606 -0.359136508427 0.0108721817522 0.201564892138 0.139247727216 0.289504107206 -0.104801079973 0.0970907382909 0.211394420184 0.192777807448 0.18961745454 -0.182720036541 0.0526222885128 0.015144435135 0.118921129631 -0.124061951892 -0.0397522071492 -0.265974578622 0.199014721388 0.0816115699873 0.148068585276 0.370760847562
12 -0.110840718628 -0.202081744907 -0.0152610917613 -0.167084914992 0.303598207896 0.139400843127 0.0214414863398 -0.16034365801 -0.0910743900022 -0.0125205912298 0.0738137614635 0.0566816010061 -0.071095364869 0.0536979773246 -0.089373734633 0.000514377437256 0.0703239003448 -0.164567282428 -0.164997016079 -0.173623049564 0.052275386039 0.0586566596105 0.413296083501 -0.0336545253942 -0.00656225243999 0.225387985102 -0.310657907768 -0.157139046977 0.258510851559 0.158346312972 0.130545133047 -0.0664188423713 -0.335398933274 0.281822886355 -0.0628540919091 -0.0487533500217 -0.399301025565 0.0952088850045 -0.105976202583 -0.0502724516965 -0.140030987203 0.00782811093791 0.150687348191 -0.0279809689663 0.0381855208658 -0.114445112985 -0.387440863872 0.308820533937 0.179941505541 -0.24431474071 -0.106552875916 -0.0376841896319 0.211069977689 -0.34008734872 -0.24490120682 -0.213930376247 0.0955551621166 -0.096384310141 0.115248432274 0.108139170527 0.237647197253 0.0766106390059 0.246374950166 -0.0174370630326 0.0211093705977 0.0945738743188 -0.106786711735 -0.0230226172482 -0.112390022007 -0.0608059554672 -0.0431075740928 0.122337460968 -0.0585633677652 0.0186879099481 -0.133482959361 0.0589027032496 -0.0128267504998 -0.22770606682 -0.120461724292 0.0664433168623 -0.031146125282 0.241178224472 0.0976225048124 0.0775640836689 0.269170156378 -0.054100646208 -0.00704508942501 0.0923121992912 0.221604944458 -0.107887216205 0.196197418703 -0.190402794218 -0.0436965329904 0.232890154997 0.0981422899704 -0.115624586077 0.114355455049 0.00188914280197 -0.0600308606458 0.0146554147804 0.0147590006551 -0.428399544542 -0.0555331093615 0.0441753054816 -0.00456073139132 -0.192846786832 0.143193262021 -0.371665478545 0.0198207150804 0.218216295964 0.146719451615 0.305924678314 -0.122474923263 0.0972311170883 0.223692430616 0.188215565647 0.201823043355 -0.192854474477 0.0623199081842 0.0211877410961 0.113735044179 -0.157107172659 -0.0216376337098 -0.281329877168 0.193143828479 0.0754974653704 0.135907461931 0.384087474703
13 -0.13756360191 -0.141520414637 -0.0427317833628 -0.0504905421426 0.233376118048 0.089118087957 0.0653376819504 -0.141732873709 -0.0815072007978 0.00998667761378 -0.0110369941501 0.0771674000329 -0.0421001635859 -0.0330721753548 0.0202001180143 -0.021428720008 0.0670069439043 -0.134429799216 -0.213577058698 -0.1369505628 0.041798919291 0.102084115853 0.228761470136 0.0797419239743 -0.00484412414779 0.0836622760002 -0.220786649864 -0.183260322296 0.189995084212 0.0930237100712 0.0353598081455 -0.0153895148845 -0.249116200134 0.16308335364 -0.0415483406493 0.0378729100468 -0.255959166806 0.0264345180876 -0.084857464864 -0.0482948159673 -0.119295062829 0.0230389773138 0.0674002089431 0.0174521619301 0.0246747744333 -0.10570563965 -0.321401025591 0.154005027566 0.17472853619 -0.129119832415 -0.0614329728869 -0.133732679274 0.1342166859 -0.299751146064 -0.174308732502 -0.0857107237812 0.0587243962974 -0.135836974235 0.0126656385104 0.12913530902 0.123704018007 0.0118647414544 0.253246442802 -0.0191246208567 0.0378517581237 0.117425763323 -0.0983845196027 0.0661160505587 -0.056601806899 -0.0613864069945 -0.0580176341374 0.0807811571088 -0.00962440399887 0.0144652650326 -0.133129206395 0.0356625443884 0.124834248508 -0.176870821409 -0.0659061722531 0.10764843444 -0.0235310138295 0.140772131556 0.0652758385005 0.128389252777 0.163183542558 -0.0639588406426 -0.0839573181723 0.0817113159411 0.129564482713 -0.0652874635811 0.230868049574 -0.17052288323 0.0470334016489 0.246593983597 0.028345606252 -0.0804915833583 0.143013938614 -0.0479169000091 -0.160985439261 -0.0236110356267 -0.00938188975376 -0.360274681169 0.00944137525002 -0.00459254225471 0.034663376228 -0.0961043878937 0.0424486031139 -0.265901909727 -0.0246042528514 0.122756265187 0.114605786007 0.190218429574 -0.0179291187049 0.0421033888276 0.164778463486 0.124172489617 0.096939813721 -0.147366904036 -0.000876243992994 -0.0144672459104 0.148794979788 -0.0523134892113 -0.0524814222935 -0.215236351609 0.151244486548 0.109433496669 0.195988911763 0.302806930502
14 -0.291978315199 -0.167074285032 -0.2424550153 0.163238868647 0.238657261037 0.0879232790078 0.0758228458312 -0.249954988973 -0.146215344066 -0.101694852145 -0.228291941148 0.171228710784 -0.0196111646755 -0.183744466935 0.147159070355 -0.12896114784 0.105324852404 -0.178344338951 -0.461913223154 -0.126764322644 0.00817643285821 0.316385957244 -0.141876902685 0.282815801809 -0.00991497159654 -0.0661366734907 -0.0770300168338 -0.310066066673 0.0453095558084 -0.0668993131669 -0.248904795392 0.108199391416 -0.127153862284 -0.0283611641864 0.105733682554 0.223350999665 -0.0898679178921 -0.193083231523 -0.0797229643535 0.00948643855029 -0.0710523236587 0.255972039979 -0.0438442435476 0.172960333495 -0.106431515368 -0.147895716409 -0.324946129789 -0.047671854347 0.274836934987 0.0515723456896 -0.00891149846149 -0.40145284968 0.00429203915299 -0.266318197488 -0.182956267708 0.122430302206 0.0669939564552 -0.160037920224 -0.16297225709 0.155044957139 0.105661434324 -0.0810574477339 0.297095466431 -0.0574333641109 0.11775248444 0.155230305052 -0.211425661893 0.218404692841 0.0740116069776 -0.027959406171 -0.181793961144 0.0468673366237 -0.00426775461466 0.065037941793 -0.138287752103 0.0967975042669 0.444947978101 -0.168632268539 0.0353375478571 0.159455881215 -0.0831337194198 0.055995752127 0.0779170916816 0.216020758022 0.0124017918699 -0.147842275657 -0.286676466811 0.148758527212 -0.0155968602234 -0.0674927891292 0.304760620182 -0.239389487249 0.202294735797 0.400831325008 -0.0511128905567 -0.118176171885 0.34084751454 -0.261676652456 -0.268295693189 -0.112948094941 -0.00273444359147 -0.341078600627 0.118138852176 -0.191120764745 0.255229141283 0.0730450515927 -0.021118503526 -0.116376183116 -0.102307454021 0.00867063702823 0.0595913001019 -0.040677323109 0.161016511718 -0.0615097602932 0.0441553542953 0.0999758980743 -0.213882008569 -0.126250368468 -0.123903487194 -0.0886657686507 0.201744220806 0.0228591440348 -0.129662894906 -0.242868315004 0.138461423678 0.160879077356 0.391998615141 0.216423014749
15 -0.289455671266 -0.166362798519 -0.241454190171 0.157128767108 0.240263690694 0.0906303774427 0.0717078054874 -0.247657475724 -0.142669191537 -0.102028109861 -0.225389249174 0.177943637812 -0.0193327749557 -0.185196340352 0.14583196961 -0.132291855264 0.106298240568 -0.173179010367 -0.462451801122 -0.135418275784 0.00386627754971 0.31161451978 -0.14221987041 0.286375497977 -0.0143213957664 -0.0622315750208 -0.078160580048 -0.30740585684 0.0454503877128 -0.0615652596693 -0.250143884721 0.100230088394 -0.125570390084 -0.0367845835955 0.109908887514 0.224877107639 -0.0907366035004 -0.198846070719 -0.0738940899779 0.011339468864 -0.0703023707878 0.253751247787 -0.0364507695217 0.172022827629 -0.103678331281 -0.147933420134 -0.326334187852 -0.0434449492614 0.279425680732 0.0516882659213 -0.0122603638872 -0.401585407426 0.00148518994487 -0.262731397441 -0.185106642808 0.117374419756 0.0697872846912 -0.161270295745 -0.158153547546 0.152460812319 0.108475035059 -0.0764805535939 0.301223565217 -0.0561036643601 0.121075736413 0.15993375182 -0.211945010261 0.214904900377 0.0736805142865 -0.0282083541978 -0.182808090459 0.052016718325 -0.00883517483145 0.0650131079763 -0.135039330327 0.0919350069632 0.447297691826 -0.164632127597 0.0405703731179 0.155818949501 -0.089347888906 0.0572572763765 0.0815773851874 0.219194912948 0.0175835071628 -0.144381061559 -0.287757939113 0.148942813236 -0.00952221193289 -0.067926615573 0.30296965324 -0.235520377682 0.207924271627 0.394279655306 -0.0478515384483 -0.125270638336 0.344544296716 -0.262448763967 -0.260652172626 -0.114002188656 0.000228368043308 -0.340613790598 0.125324825707 -0.191464630313 0.252881207201 0.0719952435325 -0.0233102388145 -0.114739633817 -0.0995370204348 0.0108974172165 0.0644387675976 -0.0424589956034 0.162148271815 -0.0637653756274 0.0365570913794 0.0948093973171 -0.212939933677 -0.123782153112 -0.126554830782 -0.0856983725782 0.195829850275 0.0245204021499 -0.128345317628 -0.243566206258 0.137000404495 0.158862486673 0.398218543788 0.21864772223
16 -0.0773627132578 -0.211095585268 -0.00850954517856 -0.187319307784 0.286471454103 0.139988161363 -0.00867502277685 -0.158310138818 -0.0571355638115 -0.0485328088 0.091878604975 0.0364556710737 -0.0874561653555 0.0709858804287 -0.155288460233 0.0214863564021 0.0569269889753 -0.146997587891 -0.10413486768 -0.181838293305 0.0449221411045 0.0545287777764 0.401539986458 -0.0819283448477 -0.0211897551224 0.262329667377 -0.275066306501 -0.114697356769 0.228916440285 0.154013627702 0.141417568945 -0.0901727659756 -0.317641504898 0.269717299643 -0.0473710316657 -0.0832538034281 -0.404864942032 0.0951159319413 -0.077016480102 -0.0164659751719 -0.126176242616 0.000383662880314 0.156596399843 -0.044161672841 0.0240976456655 -0.105471371469 -0.343689994537 0.327000107931 0.142100761637 -0.260299430591 -0.131654188845 0.0228261791298 0.204840035793 -0.267346186675 -0.242491747831 -0.246218326504 0.112013543686 -0.0498381782176 0.145419848506 0.0661060573105 0.265414612849 0.0928914451145 0.185009910429 -0.0205948332952 0.00215535995346 0.0619955243878 -0.0850566427067 -0.0544320830604 -0.104197495467 -0.045786434928 -0.0416836821341 0.122102116357 -0.0909963442884 0.0310018143721 -0.124943259817 0.0604142828525 -0.089768233503 -0.205109840915 -0.133791259481 0.0296844454317 -0.0294692730008 0.237768956718 0.0771962785035 0.0453766946928 0.275647053616 -0.0442195419468 0.00911337712311 0.0860876428804 0.232456643284 -0.106919368487 0.120000852231 -0.171431156513 -0.0882557022988 0.190672870803 0.144248922834 -0.144013149557 0.0750804658656 0.035179386794 0.0315351530039 0.0442676409742 0.0546894344099 -0.36042624403 -0.0934202069223 0.0503981328001 -0.0136581097339 -0.168768931435 0.181305252668 -0.353206735139 0.0217961739852 0.219592658359 0.138372109834 0.310067019855 -0.163629688981 0.103472074105 0.198986114462 0.181435780577 0.203077523635 -0.162302137365 0.0816274696967 0.0468926402819 0.0419945283728 -0.189207892214 0.0109562237574 -0.267512564076 0.161516068649 0.0392875907859 0.0695839194736 0.347501610538
17 -0.115593752637 -0.191833331617 -0.0102125371726 -0.156385557557 0.301178287965 0.133079850474 0.0370446738607 -0.152507640763 -0.105933497972 0.00206388721927 0.0756894027261 0.0523681588606 -0.062332467303 0.043869712025 -0.0714519945264 -0.00227478118035 0.0729616596174 -0.16554932321 -0.179275785999 -0.163989536996 0.050348046674 0.0585450492453 0.418348358851 -0.0121005155635 -0.00907253035966 0.209723471638 -0.317244597239 -0.167609043886 0.267320898485 0.155431444488 0.136340277115 -0.0509727551363 -0.336686239912 0.285059812889 -0.0727225637757 -0.0425189855193 -0.396778856333 0.10399127622 -0.114279909222 -0.053917412351 -0.144259530742 -0.00484282543226 0.136038449033 -0.0218417460585 0.0451675689721 -0.119691719197 -0.390175661381 0.305314941846 0.181574455986 -0.239798349168 -0.0959391394495 -0.0479584885185 0.217728148778 -0.360624956953 -0.243702438871 -0.19864439001 0.0929577017292 -0.111351398015 0.111677949732 0.129703881215 0.213206824496 0.071829056719 0.264299776393 -0.0138646847165 0.0185937519589 0.102356406711 -0.103620021703 -0.0185174890869 -0.114684502688 -0.0599179870077 -0.0449097818106 0.124038852783 -0.0339225502685 0.0147066501031 -0.128258989668 0.052222681017 0.00783311101999 -0.217932181346 -0.118736726307 0.0781362562921 -0.0295997125553 0.228211549167 0.10169808521 0.087044251142 0.266750485208 -0.0630716518148 -0.00946196156698 0.0947905830569 0.209243342892 -0.100032138035 0.216455779881 -0.185871006168 -0.021684625886 0.23145268707 0.086271740767 -0.104549219417 0.110237237586 0.00783244751783 -0.0894276277925 0.0121710792775 -0.00533756798818 -0.435665578972 -0.0459424692806 0.0519181563784 -0.0146465309595 -0.198206628717 0.125894722976 -0.376452651966 0.0170740978269 0.214934123778 0.154537375916 0.304475375001 -0.109209880607 0.103762942455 0.221221511684 0.199235429966 0.203693368796 -0.198327046061 0.0542749183833 0.0191093144519 0.126472640054 -0.134592449947 -0.0374794868661 -0.275903325833 0.208202238941 0.0847508202286 0.1515164395 0.391470957518
18 -0.292339333196 -0.168489227743 -0.237571605759 0.158618077236 0.239568156075 0.0873814801181 0.071825979325 -0.251668250789 -0.145388810654 -0.0989477267243 -0.2317813374 0.178646248844 -0.0208194368774 -0.18284236573 0.146978963314 -0.13399871544 0.112335696124 -0.174140955404 -0.461254620238 -0.136394517457 0.00349791845426 0.312846022801 -0.136725040284 0.282728273484 -0.0113340650321 -0.0655236469529 -0.0795020828808 -0.309066195801 0.0490817061661 -0.0610616850957 -0.249015265714 0.104261139521 -0.126374393525 -0.03446647909 0.108871734758 0.224466298173 -0.0922247942624 -0.200682333166 -0.0767497189774 0.00680490619909 -0.0770183925092 0.252024600914 -0.0393104350333 0.171628377213 -0.108696825551 -0.146117762023 -0.320232462453 -0.0480900444103 0.280093280481 0.0528072218062 -0.0113105363809 -0.399414010683 0.00742367224658 -0.263937420047 -0.180344540933 0.12294303314 0.0686323008418 -0.158122934098 -0.160788054155 0.157346411377 0.105023357821 -0.0790028841107 0.297248297956 -0.0545581019226 0.117687326059 0.157981843772 -0.209169494061 0.217819336438 0.0711987924239 -0.0327085751237 -0.190281439446 0.0501874257638 -0.00921258421916 0.0651941713371 -0.131596600317 0.0953215603451 0.446056130877 -0.170020514279 0.0433028691525 0.160566762721 -0.0836370950288 0.0502826007005 0.0809069703672 0.220877434129 0.0173848160808 -0.153133261454 -0.284511950629 0.149278879651 -0.0142142023903 -0.0656947501853 0.296520906668 -0.238029805287 0.200709970208 0.397601532886 -0.0521761496388 -0.124640590267 0.339963090797 -0.259385847015 -0.263269416601 -0.110592645671 -0.000258727034222 -0.339765858058 0.123522740028 -0.189332792601 0.2500141504 0.0698130175206 -0.0226129253617 -0.122630603909 -0.100627884593 0.0143354543136 0.0638366635762 -0.0452178185333 0.16261302519 -0.0659515215079 0.0359289060368 0.0922796259655 -0.21589495112 -0.122893567239 -0.119929158188 -0.0894871313213 0.199923003142 0.0231679391198 -0.126667229108 -0.239576374538 0.138841209927 0.157244491128 0.399358213659 0.215792907005
19 -0.144278026473 -0.127659633245 -0.0515009090198 -0.0263037430324 0.2347770317 0.0940977577863 0.0635638019996 -0.14388532412 -0.107430990373 0.00749735326549 -0.0253644621793 0.0719602363739 -0.0292846727673 -0.035404454847 0.0359002616039 -0.0371655147503 0.0704651937311 -0.144546637573 -0.240792555002 -0.122289204351 0.0428346548388 0.096368008975 0.218202255541 0.0968929461425 0.00607803596404 0.0742158509462 -0.223877222032 -0.185693141401 0.196167205962 0.0699486354193 0.0203910425918 0.0114984316344 -0.228641736134 0.156939199284 -0.0455032916071 0.0527840220885 -0.248191669167 0.0228344446931 -0.101011077425 -0.0454260413705 -0.111509725548 0.0382844888365 0.0527191045705 0.0326987915787 0.0234869995153 -0.100313513636 -0.32245250901 0.153816046783 0.187734521243 -0.111023519881 -0.0399856893699 -0.146069763959 0.136418467485 -0.320571397319 -0.175213103944 -0.0656605881489 0.0562399683088 -0.142553583543 0.0123107252573 0.149382927779 0.119303934514 0.0119623839101 0.253380541368 -0.0183908522721 0.031855453103 0.118321645344 -0.116124240554 0.073089878016 -0.0678548819555 -0.0468936490407 -0.060074246984 0.0869752951612 0.0181176071356 0.00475392836891 -0.113269639648 0.0301284519006 0.16265279185 -0.163141148871 -0.0419252675946 0.11156041935 -0.0341374171941 0.144029825574 0.0723967713695 0.130392818382 0.140428095466 -0.0691096823065 -0.0816924216183 0.0837184566386 0.104566864829 -0.0617855956819 0.243712281882 -0.171021134991 0.0683834196047 0.246714689285 0.0104213417772 -0.0592805185412 0.155839135626 -0.0621586397358 -0.194674444361 -0.0357958698949 -0.0285132162434 -0.366236476655 0.0323425950027 -0.0135515955321 0.035583893479 -0.111324151355 0.0335596634188 -0.258634805756 -0.0208986328445 0.12368184055 0.106439802518 0.169670078208 0.0024389770477 0.0407411520494 0.159255777728 0.143479369859 0.0744994971736 -0.146035897735 -0.00671930674703 -0.0300720225624 0.162755710602 -0.0246926724473 -0.0791777989554 -0.221981055935 0.165456728604 0.112282416513 0.2216922949 0.300663477212
20 -0.287864227613 -0.170060129504 -0.243043238004 0.161814291106 0.235720896607 0.0884344573986 0.0692441585353 -0.246645038146 -0.150551206445 -0.0969631195643 -0.227954455484 0.175056127431 -0.0166673523998 -0.185152175919 0.143595668511 -0.128736187278 0.110934017134 -0.173288706348 -0.463524875423 -0.129979800343 0.00789962533031 0.315188061396 -0.13582643067 0.29029382864 -0.00738728830059 -0.0701569084742 -0.0795306687532 -0.305458286958 0.0443589069766 -0.0592339591963 -0.243885093113 0.107133099682 -0.124279767513 -0.0330329118562 0.112301840969 0.228760017261 -0.0966304951053 -0.196971533227 -0.078382035914 0.00623394306458 -0.0716830418561 0.256981457332 -0.0446455298209 0.173529386055 -0.108566688258 -0.140453809834 -0.325230383315 -0.0503284889129 0.277832605688 0.0552500627429 -0.0131689610488 -0.403249950956 0.00827313491365 -0.267459257437 -0.180889882091 0.121722557911 0.0647970505866 -0.159034832933 -0.163180476409 0.152101415474 0.101111274367 -0.08048139424 0.295270596178 -0.0595085732593 0.119879290019 0.161762283054 -0.21238712351 0.218382923942 0.067995768657 -0.033945925434 -0.189294174992 0.0447955263254 -0.00270545081291 0.067443649884 -0.135872042835 0.0970000358679 0.451361337281 -0.16557592753 0.0387978796297 0.154832430551 -0.0878729262437 0.0535840900807 0.0808166064418 0.224168545388 0.0189355642258 -0.15196953383 -0.287803220313 0.146770334559 -0.0141252371162 -0.063880975813 0.306135176006 -0.240767427228 0.209974062101 0.398980667872 -0.0550572747264 -0.119614556083 0.344036870926 -0.26159296144 -0.261781396527 -0.110459985035 -0.00311154658843 -0.338041914703 0.12716329234 -0.194561148888 0.255687444202 0.0665547220548 -0.021187436707 -0.116994285516 -0.102722793229 0.0125035336364 0.0628968153083 -0.0402029868667 0.163181651583 -0.068728651581 0.0380589541103 0.0960129719432 -0.211274147834 -0.121452252239 -0.12728252136 -0.0876445724249 0.197815157552 0.0220266896478 -0.123360266547 -0.242054513559 0.145088272955 0.154986033851 0.400351179971 0.217235072026
21 -0.120335679187 -0.197323939554 -0.0157776313567 -0.1600816743 0.306239092626 0.139014432127 0.0362735592306 -0.150189015717 -0.102674388646 -0.000715764450411 0.0723146616844 0.0547346084881 -0.069979353399 0.0439728224282 -0.0675848014978 0.000867842320863 0.0739294870116 -0.159508078495 -0.174944413307 -0.165252498497 0.0557153590446 0.0541785080005 0.408735707628 -0.0136333308524 -0.00849119333124 0.214498761544 -0.314145544618 -0.173581784584 0.267417896453 0.152777407912 0.130241779972 -0.0479250039417 -0.33759971429 0.283761914808 -0.0733200336927 -0.0364668147371 -0.396407153131 0.106545882732 -0.111863086952 -0.0589967630915 -0.144749837999 -0.00487550639332 0.140272067278 -0.0202157059704 0.0445790831048 -0.114334983007 -0.390862911979 0.3037998804 0.178968691201 -0.237030033886 -0.0970121877509 -0.0480000968821 0.213903951589 -0.358620908172 -0.240652640113 -0.204463710392 0.0935053185087 -0.112993503337 0.111919789601 0.121147559336 0.215046329215 0.073072503884 0.262287545483 -0.0114260137214 0.0207361295269 0.0962555944661 -0.103731725477 -0.0182644083683 -0.115955469585 -0.0566024959667 -0.0489361475979 0.124193548569 -0.0443575831605 0.0138090158744 -0.129148065185 0.0548561607623 0.0111631262609 -0.221107043051 -0.119519035308 0.0773867319278 -0.0273334253817 0.236041362635 0.100933187551 0.0872819997175 0.262823593124 -0.0591160099482 -0.0132045664537 0.0919938777197 0.209081096702 -0.097358782979 0.210905169369 -0.186027665262 -0.0241792701571 0.233599165118 0.0898992153103 -0.104384290372 0.11772584805 0.00558499796987 -0.0872732641426 0.0172570633211 0.00166973614186 -0.435844791069 -0.048755157389 0.0441049346898 -0.00996540698447 -0.20149170073 0.132346109902 -0.376196141695 0.0164325223736 0.217380326014 0.147304613706 0.298619891437 -0.109121560337 0.0981571007052 0.227384563461 0.197054463006 0.201286118763 -0.198684007639 0.0529563471855 0.0201056288866 0.130821367148 -0.137436571042 -0.038077774072 -0.279484232427 0.201617588988 0.0828239640724 0.15141524011 0.387358384617
22 -0.289654655479 -0.169794835315 -0.242924648176 0.160912329868 0.238516756755 0.0867730938463 0.0750946954324 -0.253619812016 -0.146288284584 -0.10371016986 -0.229226635346 0.177933686177 -0.0257091951861 -0.185398281967 0.141983968711 -0.126019303733 0.113090038525 -0.176985462365 -0.453043930614 -0.131309359189 0.010679987847 0.315813678455 -0.139190132535 0.283939482176 -0.0111551812347 -0.0662494324687 -0.0761717225173 -0.307769811322 0.0452944629775 -0.0677159051978 -0.247086854695 0.101603039909 -0.121334335519 -0.0311174214095 0.114865362101 0.227644082095 -0.0894512498918 -0.200447063018 -0.0797010167706 0.00791784073601 -0.069123141403 0.256765833382 -0.0437181992715 0.167796899326 -0.104927154589 -0.14299245371 -0.323472116721 -0.0446198377108 0.275365872756 0.0509306437019 -0.00949632299262 -0.399759031533 0.00477849848465 -0.260539308091 -0.178325566558 0.122093332951 0.0697791888186 -0.158295570073 -0.160295094576 0.153243735941 0.108956331709 -0.0837345572095 0.296155286261 -0.058658246512 0.124814469648 0.161841595303 -0.20862716968 0.21899805657 0.0750574163309 -0.0319914150474 -0.183999145605 0.0473295257009 -0.0074660664904 0.061121424191 -0.135668266774 0.0926614864276 0.446055732113 -0.167532164444 0.0398773350233 0.15856821558 -0.0872019064562 0.0506399269189 0.0755451066674 0.218880087686 0.0171074586778 -0.147384110705 -0.286084001526 0.151202526989 -0.0154076979825 -0.0690080459954 0.301408703615 -0.239579094472 0.207804760875 0.397592880641 -0.0473619539209 -0.128218141616 0.338269077611 -0.25911650087 -0.262758685438 -0.113086763949 -0.000907693795956 -0.33421205979 0.125147988789 -0.194702702806 0.256482215515 0.0707605530209 -0.0237823227273 -0.112640707349 -0.100700625429 0.00871991309396 0.0635152590578 -0.0442068369836 0.156246333289 -0.0642462978109 0.037270053336 0.0980993810112 -0.215037732769 -0.123790402706 -0.123506457794 -0.0885406963721 0.195193712158 0.0235822229144 -0.124286966335 -0.24410820782 0.13950260867 0.156248361775 0.393113504836 0.216120610183
23 -0.2860444996 -0.191303808377 -0.257417276896 0.145126609632 0.231769012516 0.0991282401012 0.0440572572893 -0.255052961336 -0.137269764661 -0.143799483983 -0.228673349117 0.179249843123 -0.0272605570871 -0.166596031398 0.105964435851 -0.123994983104 0.109487574435 -0.177980645391 -0.439121991923 -0.140544975328 -0.00328875626173 0.327926097776 -0.173105977386 0.254652336432 -0.0122135147959 -0.039030640124 -0.0606061102832 -0.29411588278 0.0112800433478 -0.0672597840276 -0.264196510783 0.0941581097761 -0.105456344682 -0.0464475625781 0.143267790486 0.213935532106 -0.0913934905229 -0.218046122161 -0.06473341132 0.0377507256723 -0.0605135971564 0.29377516737 -0.0306496173795 0.163537843379 -0.132143274865 -0.143893611991 -0.302566406322 -0.0510434592375 0.262988657935 0.0404201899965 -0.035057947043 -0.37765742752 -0.00320704033725 -0.212067245008 -0.189911072164 0.111404971517 0.0740125704751 -0.120407077667 -0.151485547248 0.119016201509 0.136041035241 -0.0674945408436 0.255462909798 -0.0632852992329 0.133332509762 0.136132193871 -0.20845143501 0.196366909681 0.0930033831396 -0.0259454799668 -0.193962539393 0.050807390535 -0.0394972178252 0.0797423749065 -0.126175227363 0.112962363998 0.410473595614 -0.174993075845 0.0399867368237 0.134934861009 -0.0862882062836 0.0528693839474 0.0795956615971 0.206099888636 0.0129521897486 -0.155317269773 -0.280222134094 0.148825217777 -0.00958130891155 -0.0818852152941 0.245517378289 -0.244023195318 0.180286967507 0.383678054591 -0.0311255041269 -0.14570590569 0.344506328598 -0.267759111724 -0.190905474444 -0.0959140735356 0.0361489393117 -0.301423067484 0.103814783481 -0.202659474372 0.269905350352 0.0852965954689 -0.00108393281669 -0.0941509385138 -0.0953472527435 0.00170366267624 0.0522480914654 -0.0575738358119 0.147331639661 -0.077799359649 0.0119058180632 0.0894873190103 -0.232710194985 -0.119757794403 -0.117601159885 -0.068294543827 0.150945909352 -0.00986908114869 -0.0957332933234 -0.243666673858 0.122386035984 0.124970558509 0.359950707264 0.188374977596
24 -0.207106464252 -0.209305751373 -0.209987825598 0.0698955706466 0.202272194915 0.0967558107013 0.00651719124827 -0.223865641292 -0.0779498064072 -0.148175171786 -0.147732443761 0.143746792214 -0.0574505704127 -0.102567544667 0.00860480772349 -0.0865634714513 0.0838403347344 -0.144816810868 -0.30118226381 -0.136829551996 0.000388837199554 0.262656563457 -0.0915620822238 0.142996631253 -0.0272349011649 0.0343922625808 -0.0557079299866 -0.204551741338 -0.000328687687445 -0.0211537692906 -0.173370399657 0.0327045596264 -0.130090941582 0.00141072082582 0.132822513197 0.121093126482 -0.134472735528 -0.167754610095 -0.037856623203 0.0471995068698 -0.0477900206427 0.242531299735 0.0279197548217 0.110487348565 -0.118908489856 -0.130963000779 -0.246929594425 0.0272135377102 0.20366116966 -0.0127305608303 -0.0655177260415 -0.256035325372 0.0113604490625 -0.131060199888 -0.181734735052 0.0212688083602 0.0900630467947 -0.0688862594234 -0.077508441201 0.0434942818208 0.178475478853 -0.0366048827205 0.173043761632 -0.0540835730866 0.0981506658867 0.0966266231174 -0.163837758771 0.110767228953 0.0803874132436 -0.0251912574812 -0.162494667594 0.0539356762722 -0.10511464559 0.085138209325 -0.122895603129 0.109648930109 0.234807211534 -0.170080319649 -0.00474120518808 0.0648439324009 -0.0789068350995 0.0782868666667 0.0655978450499 0.129075101167 0.0653639128795 -0.104527312331 -0.211499130515 0.135662243015 0.0424720130975 -0.0863447785866 0.148626448793 -0.199595614168 0.0775606683599 0.301374953077 0.0443403974063 -0.166233794459 0.253205210318 -0.192976975872 -0.0466109859999 -0.0580239182328 0.0681988083986 -0.244657187692 0.0302907960234 -0.159564375755 0.228390403968 0.0573068438295 0.0600484753953 -0.107651486424 -0.0647358285664 0.0429803174965 0.056165257464 -0.00570858433407 0.0450761646192 -0.0437263053096 0.0218631391392 0.0688601729845 -0.155807540292 -0.094727505695 -0.0638009476622 -0.023479687037 0.0747295314854 -0.08786685849 -0.0277475188898 -0.211306732681 0.079473322827 0.064582953843 0.229678539371 0.152542850385
25 -0.213442198202 -0.223902477309 -0.222850527377 0.0800829113012 0.202831577288 0.101855830263 0.0049930090185 -0.242251745847 -0.0782842818253 -0.168680042878 -0.16524723645 0.150830304574 -0.0650887133387 -0.121654512937 0.0203025546778 -0.0998480883512 0.08267593629 -0.141439723036 -0.32950705888 -0.150036477378 -0.00571431789483 0.289868930649 -0.133569751609 0.164465829941 -0.0365493281375 0.0198948519973 -0.0316808885667 -0.21788617424 -0.0257985688803 -0.0402508009371 -0.200030518078 0.0420080467678 -0.11656385342 -0.0303361421049 0.155175284548 0.15623386378 -0.109028852776 -0.199476660433 -0.0294160328512 0.0543014020945 -0.0567545530284 0.263840479175 0.0188662768185 0.115070440767 -0.134441325486 -0.129912672843 -0.247972958034 -0.00345479885908 0.215118577727 0.00271903349883 -0.0759761089667 -0.287208244194 -0.00842822325532 -0.117622775486 -0.178796771033 0.0494555182766 0.0934437949617 -0.0673115766359 -0.10178497626 0.0402003998087 0.178567179412 -0.0522270424821 0.176679763343 -0.0539786790385 0.1101379504 0.0914074821631 -0.17283276662 0.123629454688 0.0931126601771 -0.0246020687624 -0.176284189791 0.0486697091639 -0.117348136317 0.0991814754377 -0.128617287374 0.120393677144 0.25480339125 -0.169934986002 0.00356053007316 0.0529498987384 -0.0759596400299 0.065094317617 0.0636075579171 0.136787951609 0.05051233379 -0.120331313448 -0.246914694588 0.149886824474 0.0304906931791 -0.0834657536408 0.141844684553 -0.200600402953 0.0846655223523 0.326288311688 0.0360552501693 -0.182244819441 0.279721117947 -0.221147192519 -0.0363001309616 -0.0596324358316 0.086516242903 -0.242165292777 0.0352071392151 -0.17654073869 0.256818408837 0.0899873334256 0.0517182667947 -0.0890338303344 -0.0755809839573 0.0378527829868 0.0495278861823 -0.0241671946328 0.0650099450267 -0.0597799951201 0.00630286144329 0.0531573826476 -0.199591842551 -0.0948371996503 -0.0696197522838 -0.0317394890744 0.0792435092696 -0.0982884918692 -0.0283565580576 -0.213998400896 0.08189672613 0.0748042390441 0.248238284508 0.152822046644
26 -0.28848344981 -0.19544861568 -0.264694812436 0.155352552469 0.236557867727 0.0964380386653 0.0520220381183 -0.266338077538 -0.133870196 -0.130979836878 -0.237666586643 0.185754012567 -0.0357342862745 -0.190238251445 0.12431385874 -0.137097109041 0.110258275295 -0.170675250077 -0.452523824036 -0.143213005374 -0.00379212888018 0.333587366214 -0.181995542608 0.284666902786 -0.0208494696478 -0.0616093266831 -0.0528229681419 -0.299287611719 0.00485959990492 -0.0744123475644 -0.265407889256 0.0969442990732 -0.12135728259 -0.0570344309365 0.144682957595 0.232031861148 -0.0830002975491 -0.230226136977 -0.0653894005464 0.0281922365703 -0.0707271286647 0.287960993919 -0.0370251313357 0.168467243926 -0.129493439578 -0.149493920033 -0.313693026928 -0.0538773875345 0.279430423474 0.0620454845429 -0.0262082076264 -0.404228405735 -0.0178292492642 -0.222150291923 -0.18634058929 0.128652214283 0.0830205136039 -0.141022690124 -0.166676217806 0.119061854241 0.122356383188 -0.0843930848842 0.278194584907 -0.0552406365671 0.13323754459 0.14825672992 -0.210478090115 0.213201816 0.0932155737771 -0.0380096958087 -0.202443263608 0.0479996798706 -0.0489853645537 0.0854471851052 -0.13974108299 0.105226617942 0.432284290395 -0.175706464432 0.0438656375078 0.136175649341 -0.0956424006609 0.0477157417829 0.0696407675521 0.207873322902 0.0132958402553 -0.143656589869 -0.305300214022 0.161008309994 -0.0174214985147 -0.068929459992 0.273012675134 -0.243448667995 0.189221694668 0.404128778998 -0.0294932440654 -0.15574164178 0.347435721637 -0.278246794619 -0.210250623941 -0.110896761415 0.0281270102303 -0.320579004055 0.106409702248 -0.213738717101 0.285357951017 0.100549255074 -0.0118270348891 -0.0952328818975 -0.107568363269 0.00404536297398 0.0510354153674 -0.0585957545006 0.148630753845 -0.0736736786706 0.0185500932779 0.0745779817201 -0.241794637042 -0.11337674193 -0.120440456745 -0.0814592297476 0.171882272336 -0.00561993396571 -0.0987140219468 -0.236604920305 0.122028160639 0.139558172764 0.379687172802 0.189894863401
27 -0.208673892506 -0.17133642943 -0.176861712895 0.0701893789632 0.220557437375 0.0909636291943 0.0470789736475 -0.215908559377 -0.106524886469 -0.0927996203464 -0.139920312546 0.126167709322 -0.0419737581542 -0.114822267262 0.0648920954718 -0.0877322328604 0.0833672850376 -0.141245599596 -0.338398269911 -0.141441742345 0.0103203208049 0.231903589534 -0.0448716587135 0.192448833744 -0.0171289967439 0.000725835009051 -0.0952715570355 -0.230832693843 0.0466061843923 -0.0151715822671 -0.152568261199 0.0523980770103 -0.146519420267 0.00706821178505 0.086861564145 0.159080807823 -0.135562782934 -0.147621032673 -0.056059781348 0.0118773703006 -0.0834162300353 0.18925237883 0.000348583631466 0.106167839451 -0.0809373787695 -0.120019917625 -0.293325156123 0.0166742424719 0.226693112217 -0.00116969133476 -0.0446018765519 -0.272840154499 0.0276130221302 -0.215151500378 -0.166072216069 0.0439795692374 0.0732686189948 -0.117978100218 -0.0988869116267 0.098446948029 0.122111141816 -0.050549698587 0.241078701541 -0.0384937718033 0.0921820423549 0.111322131095 -0.165973754244 0.13899611337 0.0394511321615 -0.0420004337949 -0.147423331371 0.0610141087907 -0.0409191400757 0.0598414229933 -0.11855066008 0.0782108752084 0.285426341976 -0.163111642933 0.00318879666351 0.0944205575586 -0.0695272713798 0.0784461345797 0.0623840258053 0.15366481331 0.0615386791381 -0.104228800707 -0.217710569127 0.125316390288 0.0391138468475 -0.0599367974706 0.221951490595 -0.190762393377 0.115487736305 0.325154893151 0.00455177012127 -0.121313358388 0.249028430861 -0.181326971489 -0.151298669461 -0.061586649494 0.0265668873735 -0.308018130246 0.064921135594 -0.138389641225 0.193651989964 0.032633148513 0.0209215055691 -0.141205389637 -0.0734438956894 0.0505015896264 0.0611335647663 0.0234290373707 0.0831412762885 -0.0308192127655 0.0620756933053 0.0788945828846 -0.123614644917 -0.11075925237 -0.0678067876392 -0.0570411510142 0.141846357879 -0.0444559939949 -0.0612004541029 -0.21375064936 0.117032933425 0.116980471173 0.290769562808 0.212913194676
28 -0.187209476956 -0.178136681804 -0.146351708164 0.0309526936609 0.213767940775 0.100081245214 0.0295762830422 -0.200285172667 -0.0853932834866 -0.087924398273 -0.112949595708 0.112102861796 -0.0523750609465 -0.0883654944605 0.0356979067605 -0.0757801391624 0.076749768611 -0.137433885426 -0.290822148521 -0.140334771799 0.010617084641 0.210688782058 0.00554914856631 0.151737440717 -0.0139913150846 0.0340662837991 -0.108805244978 -0.202443401508 0.0592018768261 0.0106368274543 -0.109668500018 0.0242771778107 -0.163489413383 0.0323267591028 0.0752334086547 0.125038880066 -0.160287611555 -0.119267619904 -0.0529389435266 0.00434385248689 -0.0795276538566 0.160365006319 0.0256390052422 0.0836780034598 -0.0679870751159 -0.113460692332 -0.275586883338 0.0493417222662 0.204072169511 -0.0286320702358 -0.0588759501709 -0.230299628801 0.0438407261238 -0.198297637656 -0.174203863369 0.0156286855786 0.0779691356502 -0.0962896165528 -0.0663450289922 0.0803856342221 0.142535005995 -0.0316722912613 0.217030519462 -0.0312101443473 0.0800845387213 0.103297381181 -0.1493217216 0.107266268104 0.0280958163239 -0.0415934844644 -0.129245968522 0.0609794113228 -0.056145488457 0.0537659726111 -0.118197513541 0.0804982300828 0.220519254323 -0.162166067997 -0.0159689893273 0.0768932078404 -0.0618468507565 0.0899970617164 0.0653339669873 0.132063370465 0.0838978843604 -0.0879745664939 -0.182362380113 0.123709000885 0.0549317302827 -0.0667355444265 0.192904648741 -0.179312715565 0.0800304318653 0.294809620736 0.0273384783593 -0.131663704006 0.22323155031 -0.159148731383 -0.104385864462 -0.0443962177197 0.0336448758223 -0.294986275802 0.0435848206949 -0.108180843758 0.167569369804 0.0134392854836 0.0388055728882 -0.156135665345 -0.0595506631779 0.0701438370501 0.0688169788415 0.0548825221905 0.0429070433816 -0.0226816354914 0.0751722591115 0.0818649681287 -0.0861198004246 -0.114757421686 -0.0442883319247 -0.0441350672041 0.121037382118 -0.0662838672214 -0.0431158270948 -0.204535829806 0.111477405702 0.0977029521197 0.245376925704 0.211076589927
29 -0.292841690441 -0.200178559652 -0.26768696905 0.150533987908 0.235067615725 0.0962415727963 0.0474808895541 -0.268296977127 -0.126619846324 -0.149729864034 -0.243133703861 0.187490227632 -0.0370194927864 -0.180984266224 0.118571005163 -0.135906696292 0.116089148035 -0.170892117744 -0.446291328995 -0.141126923718 0.00162449755846 0.336368298361 -0.189875365133 0.276935657102 -0.018604085081 -0.0518587812999 -0.0526214967624 -0.305214367884 -0.0043583799938 -0.0694475236142 -0.270991175621 0.100172439858 -0.115030830649 -0.0647178068543 0.155807840659 0.229897895507 -0.0833824870901 -0.230218333597 -0.0609754749546 0.0308438257539 -0.0609116215495 0.305328762278 -0.0264248401453 0.180026286521 -0.138953758474 -0.142644509107 -0.303827404776 -0.0562442858986 0.268139041631 0.0604640377267 -0.0401373695145 -0.405112269961 -0.0211114443297 -0.213854229032 -0.182103866654 0.119444944276 0.0775649920766 -0.131527590532 -0.173749908782 0.116471596181 0.141389531568 -0.0871335894422 0.267566938371 -0.0579008772281 0.142402974919 0.141652347196 -0.209054420941 0.198474198987 0.108363781209 -0.0232096756494 -0.203365432451 0.0410284532818 -0.055986478709 0.0846021740706 -0.139975658194 0.122417998323 0.425587190209 -0.171691782844 0.0391284453652 0.124414851253 -0.0964571131513 0.0400205673303 0.0756511767029 0.20903184698 0.00952342501673 -0.160506610823 -0.309995229609 0.164431913462 -0.0141366923471 -0.0706045399587 0.252949289437 -0.245067776123 0.184675882844 0.40568477846 -0.0263293039361 -0.163853002606 0.358939998959 -0.275203710315 -0.195271078301 -0.108930528461 0.0319934779458 -0.301420089249 0.11168234535 -0.219677612341 0.295540401887 0.106943330862 -0.000678189822222 -0.0967418742162 -0.108379850831 0.00442489205726 0.0519853299272 -0.0633001136934 0.154915340331 -0.0840548435505 0.0180856198875 0.0817011340749 -0.248839028582 -0.120039761601 -0.128924199201 -0.0776323867706 0.167523231652 -0.0136182627269 -0.0993098747825 -0.241499097387 0.124790262221 0.125945441723 0.372167409924 0.187752845828
30 -0.195526066851 -0.144501322152 -0.151147362107 0.0604208279114 0.208589451935 0.0860951961539 0.0373817980913 -0.188772496202 -0.111585015254 -0.069667839639 -0.114520051464 0.115079272689 -0.026363456725 -0.0977812306942 0.065742760643 -0.0803809600413 0.0841770448222 -0.148505712476 -0.308984632999 -0.116880437937 0.0127794191883 0.203957409974 0.0175941556262 0.15100042453 -0.0159971997374 0.0186947255595 -0.124749135309 -0.21776716028 0.0941020490829 0.000714405300954 -0.107399731475 0.0480295942399 -0.152795972682 0.0594633441086 0.0454506749993 0.113082493057 -0.162869359412 -0.0937489637459 -0.0735639788772 0.00126556782332 -0.0695683695092 0.153212638081 0.0109617661943 0.0938535704638 -0.0564540568503 -0.113155957512 -0.278723047206 0.0549389386861 0.208432543611 -0.036807936039 -0.0321777054679 -0.246036969034 0.0639661427862 -0.239839165858 -0.173381529752 0.01407219351 0.0563548120403 -0.124628291227 -0.0516543220873 0.11409612971 0.120707032082 -0.031382258395 0.226277081064 -0.0359066005164 0.0767136165915 0.115069021186 -0.143876182815 0.124800093073 0.0144275692762 -0.0369029792189 -0.128655412614 0.0655086052811 -0.0170529445347 0.0431297355518 -0.115345296354 0.074310419204 0.263056401966 -0.159396622376 -0.0148714380977 0.114872735289 -0.0576696628251 0.0927978683033 0.0725522660143 0.157254430638 0.0840418491445 -0.0940178549632 -0.16375482499 0.105895579795 0.0501537682022 -0.0706481084147 0.227322837483 -0.193525491199 0.110196298869 0.292625004918 -0.00201790053144 -0.10564934572 0.220057913308 -0.144417055412 -0.168999652921 -0.0547224207062 0.00714982621055 -0.299098561329 0.0542268716925 -0.105185727516 0.149642928092 -0.00287206274898 0.0225722784658 -0.164452696761 -0.0599396894534 0.0608513052398 0.0795850591024 0.0462659777341 0.0609380988508 -0.0176767463618 0.0787376026563 0.10372775339 -0.0790168166757 -0.122867572167 -0.0591954513343 -0.0455775824331 0.139615519516 -0.0180159768327 -0.0788214568689 -0.218369995619 0.125106791516 0.113179376631 0.266265322033 0.217658576665
31 -0.198823300731 -0.132578979151 -0.135179472155 0.0518295831326 0.214989997923 0.0790069477796 0.0599595609673 -0.172751168906 -0.118465991169 -0.0342161468849 -0.112880320638 0.112509531028 -0.0200888257813 -0.0984704261494 0.0825551877868 -0.0767592183008 0.0788570124257 -0.148756279748 -0.310994294612 -0.101531704527 0.0203927494017 0.18828156588 0.0550920457809 0.159730777846 -0.00813140054691 0.010050522802 -0.1431657212 -0.225883077478 0.117136085687 -0.00271296100702 -0.096487129874 0.0546586388113 -0.164802766295 0.0716704850101 0.0253201804565 0.112768452552 -0.151680271662 -0.0667269931754 -0.0871946250562 -0.0193170679225 -0.0748207878771 0.126059076578 0.0135536374818 0.0949870035359 -0.0341380262553 -0.113827037719 -0.282120726355 0.059148492063 0.210430732817 -0.0388770477352 -0.0189973091442 -0.23350561612 0.0633273784436 -0.253589441602 -0.158857716226 0.0123014937727 0.046960574405 -0.131727409591 -0.0526522364411 0.143424039207 0.100420588973 -0.027869045701 0.246764666025 -0.0276866804161 0.0663437377342 0.126299020178 -0.143233953654 0.128431151608 -0.00586711978428 -0.0308935614707 -0.10494142038 0.0564758799048 -0.000368774748222 0.0264461244503 -0.108479457457 0.0607784594542 0.266114151651 -0.147960320254 -0.00394255031678 0.126513006585 -0.0590642953164 0.0960010943429 0.0678448770437 0.151265513217 0.0835011767811 -0.102284660877 -0.148564250707 0.102019018854 0.0379862595303 -0.0683330522348 0.249649616526 -0.182521634749 0.125586886092 0.279224939372 -0.0183049531461 -0.0842503394329 0.220319112258 -0.130389990472 -0.204619512562 -0.069788728536 -0.0227390425944 -0.319473336154 0.0589134891306 -0.0918506100859 0.116927878286 -0.0319621533474 0.0137591981276 -0.170131430974 -0.056523376276 0.0664806777919 0.0750214809037 0.0662636377577 0.0564702351579 -0.00589839432255 0.0935908675451 0.115052003569 -0.0612173500203 -0.1322282544 -0.05546939489 -0.0388017797434 0.165714937309 -0.000186670086484 -0.102643466107 -0.211338201914 0.147661264606 0.120235072157 0.274484518057 0.22901842067
32 -0.204124854189 -0.299524016397 -0.234743058397 -0.0385414554211 0.220391446582 0.174488540453 -0.071456684374 -0.230459684225 -0.0910196933444 -0.265151366906 -0.114598432719 0.12988297152 -0.109764868025 -0.0612347753697 -0.0744343552859 -0.0795071630153 0.097048000377 -0.107456211828 -0.276511113794 -0.197283744398 -0.0717696320522 0.287424776156 -0.100391796311 0.0973899758957 -0.0770744989403 0.0829276057298 -0.0139749814466 -0.224389348373 -0.0695634038318 -0.0120280503152 -0.182861166162 0.0496387484685 -0.0990333816407 -0.0334890527616 0.206070084373 0.162464524898 -0.137123415563 -0.190917492557 -0.0156931934463 0.0628133268893 -0.0734420702254 0.277225671736 0.0826366095878 0.134649620317 -0.158844512571 -0.145866864906 -0.247525077187 0.0528974799462 0.227516670635 -0.0452681315356 -0.10865632771 -0.231251109129 -0.0224004225384 -0.057267200251 -0.176821073023 0.03853942501 0.0867851582917 0.0124098067097 -0.0949696774096 0.00456826118811 0.238839382155 -0.0110510903706 0.120815120168 -0.0828259997967 0.152433163918 0.00983921298239 -0.188090658016 0.0235254750085 0.103129753919 -0.00142513603052 -0.206826316356 0.010954222118 -0.178764217645 0.144243108123 -0.0774051317286 0.167627977772 0.115344285433 -0.22238413384 -0.051793593448 -0.0240760372015 -0.0571496955857 0.0659185679996 0.0886586054666 0.0394232650323 0.138914090804 -0.146029547182 -0.244233432522 0.185143491974 0.0828116959961 -0.0855405875148 0.0606096510221 -0.177206805779 -0.0108114779792 0.333430938727 0.0547989080831 -0.249048969935 0.263894476945 -0.225529419125 0.131523887403 0.030085133705 0.127713046511 -0.196181199398 -0.00595672562788 -0.164138134752 0.286646387154 0.0894774171865 0.148190360971 -0.11059319222 -0.0518568773314 0.0774593755256 0.00579274397064 -0.0127849408161 0.0232752710065 -0.00393839635115 -0.0279316400517 0.0535759374376 -0.213653811347 -0.133333142216 -0.0529032291075 -0.0216912337438 0.0428246857283 -0.19940452333 0.00516225330885 -0.170915958575 0.126805423315 0.0466120028374 0.196827110193 0.170229239584
33 -0.16038165758 -0.27599178556 -0.229904847596 0.065830804378 0.207746089229 0.0614237303238 0.0109034225921 -0.267224845359 0.0156300697526 -0.126126451529 -0.134575865782 0.184574887755 -0.088749911918 -0.0794037389776 -0.0785912429046 -0.0903054044847 0.0675318431205 -0.199104548122 -0.251246302888 -0.13673301897 0.0500239203052 0.284486910982 -0.103070295681 0.0740150783092 -0.0119053630609 0.128750073215 -0.0521560417363 -0.13813848423 -0.0296789846862 -0.00201403161902 -0.142532611767 -0.0583748663549 -0.213777660816 0.0427432121305 0.189795153377 0.0113183513195 -0.194485664237 -0.196428903389 -0.0236503682024 0.109659950501 -0.00861122111937 0.293230466432 0.0676793878782 0.0458990244258 -0.17255404202 -0.148653600493 -0.23615519927 0.0620987854722 0.150918200994 -0.0491237195589 -0.123216644525 -0.217058464731 0.0342184682221 -0.0304047714735 -0.214224667791 -0.0921514423982 0.15263844679 -0.0241916432241 -0.0082781082604 -0.0852944366774 0.264085464085 -0.0212011800268 0.136221585022 -0.0478470425425 0.0694407359375 0.107401881925 -0.151218346387 0.0803092049587 0.127868292805 -0.0644096353205 -0.134019530761 0.128456948096 -0.224146191993 0.116493267339 -0.198913477034 0.110372153945 0.147916385952 -0.188281132576 -0.0168804184603 0.00093509533414 -0.114759004685 0.151504405907 0.0225295521654 0.152440880929 0.0706145169762 -0.0476357888877 -0.177517295891 0.159631567002 0.0390112087141 -0.146363083922 0.0698500419757 -0.23644039917 0.0245948217454 0.237687843823 0.158913857575 -0.222004597897 0.258718873101 -0.176254150212 0.0964068616103 -0.09348261866 0.152715335591 -0.263489674034 -0.068671316921 -0.186901379055 0.24891297122 0.0456454279284 0.0953256564565 -0.0725743208641 -0.0701930452063 0.0536816464486 0.110104809534 0.0439157090406 -0.0621032166047 -0.100359852101 0.0423203839001 0.00571039890034 -0.134026962685 -0.0552184767478 -0.0114064518383 0.0449758591268 -0.0208152840736 -0.215169355887 0.0925532065526 -0.284839419256 -0.0177155422817 -0.0187303978192 0.135554041074 0.0838239669104
