34 128
0 -0.162831072541 -0.177172765229 -0.114729175614 -0.0161085960127 0.214663605535 0.0955745169633 0.0273061067992 -0.174998346573 -0.0812739907049 -0.0740390734367 -0.0602768196447 0.0972476686161 -0.0494703873132 -0.0468374178924 0.00378118681876 -0.0503742726854 0.0722993312863 -0.140450820419 -0.237287322011 -0.135221359068 0.0138638864377 0.158932766405 0.0978769164233 0.0878055109331 -0.0121212619237 0.0820070136411 -0.148702404581 -0.182771280054 0.0988962760971 0.0437204592699 -0.0455184348436 0.00403614233556 -0.191303072725 0.0974529256198 0.0451086768097 0.067002121317 -0.207887331047 -0.0581872311328 -0.0659917858762 -0.00275444123907 -0.0849753495711 0.128702789694 0.059905694904 0.049577316011 -0.0474761289283 -0.111447831063 -0.284172776617 0.111690564563 0.178485403033 -0.0851333538193 -0.0681055128016 -0.173944403452 0.0833904341062 -0.216037719382 -0.182582428028 -0.0453996267194 0.0812673657568 -0.0893166796888 -0.0129703317871 0.0740883886613 0.16043075406 -0.00529870033587 0.199279974045 -0.0310562915663 0.0674051606085 0.0964245404657 -0.127778001547 0.063607469199 0.000787751021824 -0.033966744939 -0.102347292409 0.0775754996324 -0.061719194094 0.0439921430072 -0.116759291757 0.0728691708626 0.143302004607 -0.172186410057 -0.0355350515059 0.0681202654025 -0.0522752715438 0.118740665299 0.0728460038814 0.110105163755 0.12840033616 -0.0848276699892 -0.12658909313 0.109200266527 0.0927256353906 -0.0741618577155 0.172034649887 -0.175790435812 0.0438480390011 0.257305854242 0.0465736186494 -0.125103406037 0.189498968813 -0.109615305595 -0.0824377976791 -0.0358476391316 0.0321703630614 -0.295268872354 0.0160702679692 -0.0690107709558 0.121342204972 -0.0416720051572 0.0658823645934 -0.192536977626 -0.0321487752403 0.101979305317 0.0823929803517 0.100541976409 0.00448830595551 0.00952538239342 0.102443637381 0.103418014586 -0.0198688337477 -0.127665596917 -0.0165974788994 -0.0187452102188 0.10832930382 -0.0859584022445 -0.03761075318 -0.218312096634 0.117134601282 0.0722072502917 0.198727986671 0.230480633414
1 -0.158276622288 -0.1734615214 -0.108458813624 -0.0182543246294 0.225967983208 0.103808631928 0.0194806200637 -0.17995959939 -0.0881600943058 -0.0717974826725 -0.0560016365533 0.0963999687664 -0.0460050952727 -0.0436622024659 -0.0101615185864 -0.0478107666624 0.0712343598236 -0.137114578948 -0.239015012832 -0.140126115366 0.0202636883604 0.161406539117 0.11261247402 0.0850888372142 -0.0187848677341 0.0830073631188 -0.156191026242 -0.177873607591 0.10613280002 0.0433155586296 -0.0453008761442 0.00134806322818 -0.194403291945 0.0964013427388 0.0308612641151 0.0655442164941 -0.215372706354 -0.053381578008 -0.0687786926664 0.00271549866682 -0.088499790869 0.118799681218 0.0567881526655 0.0481367794902 -0.0377685109104 -0.103643622399 -0.28853760117 0.121462133707 0.180816210522 -0.09241999842 -0.0701445103344 -0.160440833103 0.0917410506009 -0.223306359817 -0.185993313167 -0.054797228821 0.0801362835406 -0.0881880850579 -0.00657683820366 0.0859108396492 0.162594765781 0.00396215376515 0.205068548123 -0.0294822122198 0.056840936611 0.0901526344365 -0.123501254986 0.0682929501177 -0.00904338631236 -0.0376378464475 -0.101927622755 0.0735859016231 -0.0575080441153 0.0498997282043 -0.116784235324 0.0761328698984 0.147240501966 -0.168976037479 -0.0478600567263 0.0744675155637 -0.0476869309038 0.12971626258 0.0661045282124 0.115228229725 0.132144677241 -0.078780939873 -0.123957590232 0.10227505965 0.0999990788285 -0.0750687187131 0.176758052898 -0.176545048253 0.0444071358546 0.256639907317 0.0472930954955 -0.118423204693 0.174871030987 -0.096114078781 -0.0874141668037 -0.0249686091181 0.0315339231899 -0.304397347222 0.00789106820278 -0.0674754522147 0.106590977345 -0.0395471165684 0.0732115468974 -0.201888505489 -0.0330708934471 0.106373292821 0.0824717839786 0.11514711223 0.00030307335756 0.008134202467 0.102915431116 0.115057701333 -0.00422625614929 -0.126472700842 -0.0197716157134 -0.0138658335258 0.0979745301882 -0.0830069539762 -0.0423129373118 -0.21686718181 0.128032088709 0.0829435688195 0.201017417822 0.240342083525
2 -0.1585884683 -0.176745480331 -0.118810565836 -0.00748157386892 0.221918449834 0.0994372113234 0.0207416680681 -0.177606356741 -0.0902310773376 -0.0730554668048 -0.0546818636684 0.0982891557511 -0.0519997955103 -0.0464965499798 0.00234938253862 -0.0517140745722 0.0724289910153 -0.141767620309 -0.246255467177 -0.132870042894 0.0180598585869 0.165796142218 0.0997147086692 0.0860891479882 -0.0145033894464 0.0873312593985 -0.151856798643 -0.185479723957 0.110400863319 0.0387914391872 -0.0488891905232 0.0111451494008 -0.193948666942 0.0992662373256 0.0372349018712 0.0613956177361 -0.212093558 -0.0473283568663 -0.0670895034229 0.00297333884813 -0.077489655431 0.127402980316 0.0566641657772 0.0601311043784 -0.0399689757339 -0.113415242505 -0.28647373939 0.117862882348 0.184483515738 -0.0918899217423 -0.0598778279273 -0.17268027641 0.0872343340147 -0.221598009882 -0.183246823389 -0.0505194261375 0.0738759742335 -0.0895890539735 -0.0090379796885 0.0867089415757 0.165680271065 0.00100931949407 0.20817876917 -0.0350916729344 0.0605081787069 0.0955951141044 -0.123279943801 0.0662220901221 -0.0100806557158 -0.0290868707718 -0.10628545151 0.0695360015559 -0.0494732934581 0.0502599557911 -0.108504767105 0.0737142962471 0.152917087359 -0.165007954142 -0.043561292927 0.0772189743662 -0.0563387835343 0.124881176944 0.071586447598 0.117552671705 0.130611112032 -0.0871335861492 -0.122452084054 0.110396971366 0.0951305224734 -0.0818860059892 0.173705880218 -0.177620726693 0.0511596632112 0.250219193057 0.0412857842096 -0.123249543678 0.185095412575 -0.105880819708 -0.0905920341636 -0.0312916906158 0.0262581477298 -0.29813845293 0.00927810418856 -0.0646836042769 0.112875108415 -0.0458148364161 0.0687556313797 -0.199458536434 -0.0310125833937 0.0986476814731 0.0893111592478 0.10157341965 -0.00302577794321 0.0124700424464 0.100815733747 0.114437415382 -0.0172561897936 -0.130788994306 -0.0252762819928 -0.0119892404447 0.110002062094 -0.080921590739 -0.0480614035561 -0.221922754993 0.131816458192 0.0771781130565 0.199163551236 0.233343588943
3 -0.158178623329 -0.180813687352 -0.109187349259 -0.0234565459952 0.235863951647 0.107962342784 0.0256729304178 -0.182858835514 -0.0899167635519 -0.064955971936 -0.0568179101295 0.0968464987222 -0.0504371217395 -0.0444475918899 -0.00709456948156 -0.050817772679 0.0759839246297 -0.143611022323 -0.247252618439 -0.139296591434 0.0255692982912 0.161502356158 0.116745877534 0.0829849001495 -0.0093452236707 0.087152203864 -0.159377736445 -0.192443717038 0.120545984564 0.0488815697629 -0.0417177098084 0.00290934646295 -0.199497118818 0.10491959857 0.0359523792901 0.0616767193621 -0.22732540225 -0.0452419703665 -0.0656233149481 -0.00852940921087 -0.0849184603278 0.117061225487 0.0592631763662 0.0569484152701 -0.04070815014 -0.114527308766 -0.302389151037 0.127785601396 0.185721554095 -0.0992074423765 -0.0716117834269 -0.171357608407 0.0911590374697 -0.23550930188 -0.192938629444 -0.0601025517041 0.080024198686 -0.0917864723808 -0.0130350647389 0.0832372163394 0.172801220562 0.00664028814029 0.214863437293 -0.0367725584679 0.0583033202027 0.100488713126 -0.133728451039 0.064493310743 -0.0143354592418 -0.0327906830078 -0.106134970007 0.07614538397 -0.051395057428 0.0444697967381 -0.121833462694 0.0717908272079 0.149306018358 -0.17218508544 -0.0485314317667 0.0772007325712 -0.0502236627012 0.132051199782 0.0743850935982 0.113123363852 0.140817590846 -0.0855432281684 -0.118724872632 0.112258306075 0.104189611085 -0.0844108843258 0.18078038901 -0.178140904397 0.0458865058343 0.259367442795 0.0413593577188 -0.121781111638 0.188444394685 -0.109820742526 -0.0868582897762 -0.0264195835887 0.0251821720703 -0.311622319196 0.00538145712608 -0.0603984045092 0.114328404919 -0.0492707237288 0.0685411119308 -0.211065076904 -0.0307110812628 0.110041351401 0.09166362496 0.121669331809 -0.00887954999361 0.0184130593609 0.105240988323 0.11815741293 -0.00268555158501 -0.128629930651 -0.0209785810269 -0.0196392359153 0.104514506661 -0.0897602208381 -0.0396927290101 -0.230397927207 0.137800987871 0.0822316497491 0.203293609854 0.25137484473
4 -0.158015509325 -0.170678788087 -0.110117107552 -0.011059133656 0.224506882154 0.0987551440702 0.0273082241741 -0.17767560355 -0.0835953956029 -0.067854264245 -0.0609884829996 0.0914284163296 -0.046853524078 -0.0474682857646 -0.00315554131254 -0.0491974617384 0.0712748598108 -0.136587066386 -0.239702861686 -0.13656485466 0.0221467396797 0.161725083846 0.109282606451 0.0875758042742 -0.0128947316402 0.086415289707 -0.153493737063 -0.181949560124 0.109610610704 0.0437307872495 -0.0478857408865 0.00809309780216 -0.192054162283 0.0996568703003 0.0364778944219 0.0621231246007 -0.215414914631 -0.0449796365752 -0.0704641022872 -0.000416421018327 -0.0850382539058 0.117052820025 0.0512751506513 0.0492941568469 -0.0417659813388 -0.113054788218 -0.284380220647 0.116579384329 0.180450570424 -0.0934500967739 -0.0652062409859 -0.165915101016 0.0901302517717 -0.222300144594 -0.184794449096 -0.0546879451349 0.0801771460422 -0.0918960888798 -0.0104588419314 0.0906046973048 0.16216838598 0.0038194303407 0.208607093192 -0.0331495566238 0.0559822555895 0.0908637254932 -0.12376776933 0.0692073585507 -0.00507591603636 -0.0347252118926 -0.0964492229587 0.0767533012886 -0.0481439792644 0.0413700597684 -0.117865546081 0.0744758349683 0.1475477386 -0.166173087977 -0.0410167694635 0.0739668551527 -0.0473118959863 0.128491361371 0.0680135354246 0.113555152171 0.125271742514 -0.0805887987108 -0.120706523847 0.104258581268 0.0973872321479 -0.0744077519302 0.174449282575 -0.176839112536 0.0472960028853 0.254792371589 0.0422526293241 -0.116057562574 0.178865458526 -0.0993850348722 -0.0898026911979 -0.0289502980293 0.025882232858 -0.306112484303 0.0100419083333 -0.0612428809308 0.108935692847 -0.0443079446831 0.0675864804959 -0.197003909369 -0.0368879204669 0.104543983753 0.0885928655631 0.114332444315 -0.00495109245698 0.016434437327 0.100546984483 0.115999486045 -0.00671567993625 -0.126646017808 -0.0147718244233 -0.0142283210309 0.105686591301 -0.0760113227666 -0.041629641939 -0.218221012279 0.126350237106 0.081900342651 0.19986449437 0.237640090756
5 -0.161968074796 -0.170680623626 -0.110220248478 -0.0177951212297 0.227760202455 0.101743498687 0.0256815079564 -0.179523747518 -0.0907178638666 -0.063385699942 -0.0550274205218 0.0932679839185 -0.0457856355293 -0.0491428796907 -0.00121752486165 -0.0469918241947 0.0692454102197 -0.139912373532 -0.245768117843 -0.135957702907 0.0184872236534 0.158009275359 0.110727516799 0.0843930309524 -0.00964794651275 0.0863204338442 -0.156419812047 -0.185745543292 0.115265943156 0.0418309439192 -0.0451807099742 0.0108832995172 -0.193698431119 0.103457572096 0.0330244664107 0.0636070591723 -0.217651576582 -0.0513487745327 -0.065458941277 -0.00152454177526 -0.0852980381908 0.114392793622 0.0544729018287 0.0512427230452 -0.0351039592429 -0.110594414548 -0.289073095308 0.115455642125 0.18279398912 -0.0930982953546 -0.06531667392 -0.164364773738 0.0887783296297 -0.223108326316 -0.1835694081 -0.0529108321556 0.0746157131804 -0.0919459721412 -0.00632106258848 0.0849244717614 0.162989944159 -0.00180343891167 0.210645502495 -0.0287769153484 0.0570695907053 0.0961763424222 -0.125359943623 0.0644250006968 -0.00535690393726 -0.0333253648859 -0.0995926983701 0.0762232022212 -0.0483654495285 0.0461929727662 -0.11131412885 0.0681328016053 0.152511734109 -0.169807400064 -0.0421343687474 0.0767055292652 -0.0478505801402 0.125322373501 0.0689239060741 0.112922926447 0.125572047429 -0.0822104083414 -0.122563280778 0.108572380877 0.095033400386 -0.0745488413143 0.175544996833 -0.172628527509 0.04977806059 0.258244422018 0.0407605343929 -0.120051297549 0.183650734422 -0.104478986409 -0.0899258348904 -0.0331000100253 0.0284430814189 -0.304342982749 0.0135459263234 -0.0657659993312 0.109307356613 -0.0463469520519 0.0637553584478 -0.202760746997 -0.0363768558172 0.0986382499353 0.0862723458634 0.113946652406 -0.00395900815564 0.0173565254202 0.100484599685 0.115343969001 -0.00504052084324 -0.129426353517 -0.0158157968055 -0.0143305293752 0.104714133456 -0.0782815479623 -0.0455900529947 -0.221406178369 0.12936638546 0.0801236807577 0.196546097362 0.241771046248
6 -0.158108748938 -0.171931254978 -0.112908378585 -0.0151018966167 0.224306176619 0.100068103666 0.0271595400912 -0.174492597827 -0.0851214167532 -0.0679041819842 -0.0531709855253 0.0968154140288 -0.051456911603 -0.0484632619874 -0.00284493186917 -0.046356839639 0.0716464288478 -0.135310985208 -0.23916302974 -0.138120102945 0.018892448158 0.159622420447 0.11082487888 0.0861153620606 -0.01053677095 0.0872595225875 -0.150777973619 -0.183754913081 0.114153955236 0.0421293644251 -0.0406975305803 0.00538079979873 -0.190035318162 0.10168106736 0.0314861186321 0.0621301038624 -0.21382000563 -0.0462645458646 -0.0698779392085 -0.00439190212239 -0.0869353278246 0.116352115351 0.0571366004256 0.0547990949851 -0.035243958431 -0.112874069736 -0.291067960428 0.121952395266 0.185418985639 -0.0890402298807 -0.0657079576891 -0.16360037295 0.085656980177 -0.222081015053 -0.184602048095 -0.0499553673235 0.0784923223188 -0.0894562086492 -0.00742639534017 0.0901210343655 0.165366938107 0.00107807867925 0.207443927794 -0.0339104395962 0.0611980785923 0.0909220347918 -0.126251710702 0.0665262300329 -0.0119834762401 -0.0374008919452 -0.0987446114579 0.0706456932882 -0.0547342868761 0.0407660163613 -0.114745673431 0.0672367734804 0.154545871756 -0.1703795441 -0.0417512821313 0.0760843477914 -0.0507944901612 0.12925908734 0.0709370825634 0.113324208108 0.1326844632 -0.0822288180792 -0.120358154975 0.102308394586 0.0914537718223 -0.07821941122 0.181778747701 -0.180125953163 0.0447712806139 0.251666996232 0.0435269783348 -0.116052499084 0.18329848435 -0.101534020898 -0.0946854418514 -0.0287907273751 0.0281806479263 -0.306510001003 0.0109448753287 -0.0645098729587 0.106713830544 -0.0423790012017 0.0691436814464 -0.203051490606 -0.0332671379029 0.101270405338 0.0882841457231 0.115320133839 -0.00562000931425 0.0145700977558 0.104372113283 0.111360077067 -0.0072521996093 -0.126976475602 -0.0164847556501 -0.0196685006324 0.105203834692 -0.0774801318016 -0.0451946139897 -0.217757559018 0.127183014089 0.0821716136883 0.20378503819 0.243381098793
7 -0.171958111487 -0.184492546627 -0.114168218566 -0.022278448579 0.243847052404 0.111880192892 0.0286196070129 -0.185148660312 -0.096271159727 -0.0739773790541 -0.057509489113 0.0973166468694 -0.0561890678833 -0.043636419324 -0.00402960592472 -0.0570757961641 0.0805527207177 -0.149118382458 -0.254532557317 -0.146745235277 0.0254881180762 0.169594673005 0.124135032288 0.0942990802721 -0.0152198767175 0.095070953814 -0.169249897334 -0.197010955454 0.118561890039 0.043303333307 -0.0429181998877 0.00496829579763 -0.209036309794 0.113416006722 0.0315696321962 0.0678446955394 -0.22991392559 -0.0515300207513 -0.0776095259979 -0.00842353513314 -0.0951409389372 0.122735018565 0.0596633040956 0.0592999330773 -0.0421414388102 -0.120715166328 -0.312538436114 0.125622389134 0.197955159138 -0.100591433903 -0.0648693471571 -0.179903473465 0.0943903615728 -0.243953925595 -0.195127317909 -0.0532723609426 0.0860271615827 -0.093993545414 -0.0135213039897 0.0933856590842 0.170689580532 -0.000720759604313 0.225172423448 -0.0311825651694 0.0609774188159 0.0958092275061 -0.138684798394 0.0643354483358 -0.00993065370884 -0.0405351521255 -0.107734872123 0.0802141190009 -0.0592941047271 0.0469257231285 -0.123621576847 0.0742402625452 0.158338663007 -0.184927214851 -0.0453582211072 0.0771923109772 -0.0528613675519 0.134715508671 0.0768738262358 0.120988079587 0.136667323063 -0.0834563068013 -0.125766931683 0.115885761062 0.0988403035261 -0.0804044696582 0.193630235618 -0.18774241386 0.0520893032461 0.272473754559 0.0404723464794 -0.122012713923 0.195613877918 -0.110106748375 -0.0935345691254 -0.031076495254 0.0241862887365 -0.330469856168 0.00877676583052 -0.0627122211286 0.116992417141 -0.0543369843998 0.0762808250542 -0.218819956754 -0.0357868638733 0.111073604875 0.0965843645189 0.121138436969 -0.000478546646125 0.019987078686 0.108242800907 0.119427161507 -0.00541769571134 -0.140945349179 -0.0147523073339 -0.0186953347803 0.115560813986 -0.0864856968411 -0.0454154704859 -0.233110686341 0.141916355744 0.0905467010226 0.216472057003 0.260329984249
8 -0.171201547933 -0.183684521262 -0.119991367637 -0.00273531830632 0.230375473498 0.108724671041 0.0275329019316 -0.191163877952 -0.0969077995265 -0.0721621325962 -0.0743817240055 0.101071917375 -0.0487464092983 -0.0599638018779 0.0112096062683 -0.0544684070619 0.0741688186469 -0.144724731989 -0.265923074311 -0.141305458578 0.0230155594773 0.173466255975 0.0992303272673 0.10760844424 -0.0140072460616 0.0815321033359 -0.155818284528 -0.199383435078 0.112992606013 0.0358813848664 -0.059670417776 0.0155099785496 -0.199805754917 0.0971285168255 0.0405992842789 0.0800171078006 -0.21443761096 -0.0633230573517 -0.0679821336152 -0.00198596219459 -0.0885404283702 0.134243268999 0.056556197126 0.0595853612939 -0.0455657003737 -0.112952661545 -0.305663400407 0.113342114913 0.196521870974 -0.0822610600235 -0.0606347743924 -0.191640318715 0.0843842164873 -0.233242915414 -0.193501406875 -0.041080903772 0.0798186653166 -0.0998711310099 -0.0182509115918 0.0929322976047 0.16497480492 -0.00507269752071 0.223958738709 -0.0356961467891 0.0679761865136 0.10508362905 -0.133956407594 0.0753377034977 -0.00513441831503 -0.0394055731642 -0.11141869137 0.0772818778796 -0.0513285245542 0.049585217245 -0.120686917758 0.0775738024471 0.178327309828 -0.174977401153 -0.0375847667678 0.0859617919752 -0.0580954851983 0.128969979651 0.0712524193145 0.127790497118 0.128292556808 -0.090015694363 -0.13970695236 0.116314706525 0.0937857687952 -0.0809617885843 0.194852280178 -0.18468478252 0.0562939358553 0.277527937894 0.0347858339994 -0.125754252874 0.1972318245 -0.122211055789 -0.104427798707 -0.0328605470317 0.0253926940969 -0.322099657665 0.0166465492277 -0.0779013432981 0.129017106819 -0.0421439628223 0.0617806626853 -0.203894692126 -0.0381350731791 0.100855589942 0.0863482977478 0.104521618982 0.00499479778473 0.00792435207739 0.104646032528 0.113861022212 -0.023937173896 -0.134699421316 -0.0251859214758 -0.0214822622389 0.121117418205 -0.0796817636837 -0.0457675526127 -0.226451797086 0.133670097746 0.0875982248079 0.222793888854 0.24600479464
9 -0.180008317678 -0.19253065096 -0.130497527537 -0.00443749041862 0.24330982889 0.109055712269 0.0302293319503 -0.201635894751 -0.0961528192201 -0.0769066231746 -0.0729749452918 0.107280437255 -0.0536756379146 -0.0637343246854 0.00972392923953 -0.0626174584012 0.0778443042198 -0.151584452808 -0.278602258193 -0.14739593133 0.021493255669 0.188609770047 0.0979280771924 0.11287501114 -0.01513171904 0.0836600711314 -0.159412879796 -0.206606927493 0.114134232983 0.0411442345599 -0.062151834851 0.0111804583952 -0.209533049153 0.0966105379669 0.0407274536199 0.0852984929565 -0.226730877744 -0.0676528990068 -0.0765925139961 -0.00162244845192 -0.0945075549166 0.136002731491 0.05406406335 0.0619513772114 -0.0486600040755 -0.118851465468 -0.318252394726 0.116636301042 0.202837284471 -0.0871399817284 -0.0682424655907 -0.19732547487 0.0918286988067 -0.244838650587 -0.197355574088 -0.0409314719235 0.0862853881958 -0.105552614167 -0.0233446485218 0.098857794076 0.170710820915 -0.00787096275662 0.235067344617 -0.0342232489593 0.0688504085667 0.106388096711 -0.145146738486 0.0786713474736 -0.00180226478337 -0.0405813388381 -0.11643456969 0.0759822701932 -0.05725177389 0.0493058281415 -0.124031982767 0.0807232436105 0.185206585335 -0.188329410805 -0.0442039816756 0.0849897508605 -0.0578038330073 0.130587503324 0.0739612991933 0.131182089533 0.132629944946 -0.0915869584898 -0.142459240735 0.123401681212 0.0951807705858 -0.0791496198796 0.199154178616 -0.196103997993 0.0605521098133 0.287651634866 0.0373032259631 -0.12918754343 0.211647383854 -0.123956477758 -0.109670352207 -0.0399138901165 0.0310948857698 -0.333816520403 0.0185654129667 -0.0759975244374 0.136215245663 -0.0398177402567 0.064588022312 -0.212692440317 -0.0404144116417 0.106578236768 0.0904622927662 0.111876575587 0.0086655025271 0.0078957547006 0.109391249473 0.121204304277 -0.0235540577545 -0.142535982213 -0.0298954511011 -0.0224730451651 0.124906396601 -0.0811009437773 -0.051829710281 -0.235103572942 0.139352145551 0.0961911941574 0.232715413419 0.260994354937
10 -0.160744962727 -0.17037445823 -0.107843272455 -0.0129131456007 0.224036465769 0.0982481615035 0.0257009515012 -0.173179317043 -0.0878492423618 -0.0676748310296 -0.0604613867713 0.090730275096 -0.0447286956263 -0.0466623164763 -0.00508935444314 -0.0489073172937 0.0753012692525 -0.140727289257 -0.239944798948 -0.137091779504 0.0174189058918 0.159977103785 0.111591552377 0.0881313259243 -0.0112768854508 0.0871360730138 -0.156568249328 -0.180773034907 0.11465727444 0.0415680722624 -0.0415678733364 0.0101463546759 -0.196443849076 0.0963981682082 0.0323991495536 0.0605148948395 -0.215141004031 -0.0452304339845 -0.0655148205098 -0.00648741082159 -0.0882043813005 0.116957426203 0.0512620500825 0.0493909624757 -0.0416171303765 -0.105907779436 -0.290569960862 0.119839806472 0.180883395531 -0.0880661958457 -0.0659887349279 -0.165459287281 0.0889354092628 -0.222792812988 -0.179650061248 -0.048996237809 0.0784387338038 -0.0904060023543 -0.0111486771184 0.0873378080314 0.164387062619 0.00160073160327 0.209137424478 -0.031509467006 0.0600794602947 0.0951407795371 -0.129901300436 0.0633335204762 -0.0108192978867 -0.0344527150465 -0.0964558288217 0.0728731116608 -0.0479374354174 0.0422248789172 -0.117879955503 0.0669973077282 0.149541572801 -0.164454416564 -0.0383639624589 0.0792164283749 -0.0538078793472 0.123221239165 0.0653905897814 0.109853038965 0.130777412653 -0.0820596010879 -0.124007739452 0.103374716575 0.0981056019597 -0.0785802571292 0.181975359806 -0.176512604925 0.0509917937637 0.256147429374 0.0428555856514 -0.120991971286 0.182052009346 -0.102894398677 -0.0890426439135 -0.0323660691016 0.0290032731021 -0.299557127628 0.0141734342927 -0.0660049080223 0.114088349789 -0.0466855595454 0.0681402122472 -0.195985921161 -0.0290814632917 0.102528467059 0.0849602706225 0.112995227696 0.00111633144456 0.0146108364885 0.102295325872 0.111090081163 -0.00622180404925 -0.128858134236 -0.0155145901378 -0.0171780439843 0.108187674622 -0.0770244737492 -0.0466188716446 -0.217129133002 0.127300288476 0.0826994373139 0.203949146116 0.242021563974
11 -0.166448828437 -0.177645611047 -0.122516586818 -0.0128840118156 0.237568257878 0.104377029113 0.0254715417956 -0.187964842686 -0.0892375163869 -0.0736497681512 -0.063071034586 0.105067454268 -0.0490244450805 -0.0488294699147 0.0034604719933 -0.0528048323736 0.074598119381 -0.14502719563 -0.260058452131 -0.141853033113 0.018888632717 0.169673322817 0.110965571222 0.0975782662953 -0.0123300077913 0.0836803598822 -0.160389680898 -0.196667561642 0.11645944292 0.0451419265802 -0.0474681036066 0.00854316338119 -0.203138875833 0.105515159467 0.0409930473103 0.0701000892281 -0.224348558293 -0.0550238395288 -0.0734238401106 -0.00318374739997 -0.0905135286892 0.125117109481 0.0533339941036 0.0603182785455 -0.0444723657549 -0.115992132319 -0.306858454107 0.119543460627 0.191475285131 -0.0886786167849 -0.0692197337109 -0.18264159385 0.0921796894364 -0.233379570452 -0.188881003021 -0.0534287500184 0.076683408209 -0.100065700623 -0.0106972215281 0.0908025492826 0.166779044336 0.0016603797364 0.221048641637 -0.0360865585768 0.0657032517041 0.101469301713 -0.132090805483 0.0693932199486 -0.0104174405017 -0.0409777779529 -0.104146312334 0.0745609821602 -0.0564907671789 0.0461387945533 -0.117018940181 0.0733254345342 0.160186232648 -0.174408622328 -0.0420017258015 0.0793742722914 -0.056235388756 0.131706955422 0.0704569575904 0.123037017916 0.135226347871 -0.0860965842131 -0.130581062851 0.111799782568 0.0952943664495 -0.0772953925689 0.193713606583 -0.184537637716 0.0510137099855 0.269993446003 0.0387745432256 -0.125050163835 0.191689997814 -0.110780582892 -0.100640617976 -0.0363208965654 0.0235435212354 -0.322753842587 0.011167424941 -0.0732131473735 0.119110830122 -0.0454583995028 0.0654564794402 -0.211717739756 -0.0357413028738 0.105104892993 0.0870927429349 0.116871987466 0.00170733936309 0.014025460398 0.109412148432 0.119801441014 -0.0103985637903 -0.133675056175 -0.0181797811355 -0.0207364299503 0.11490626465 -0.0838813029742 -0.0461083754995 -0.228595989491 0.138134610306 0.082708883471 0.212178813872 0.249954457778
12 -0.170397959727 -0.181750388023 -0.120200511297 -0.0161422565841 0.24073127018 0.106814599409 0.0251269999585 -0.189872188064 -0.0949504238472 -0.0693108637811 -0.0620977503565 0.105160212029 -0.0513384138562 -0.0479498224058 0.000432253400307 -0.0552247113326 0.0778275442044 -0.150700846918 -0.263366624145 -0.143959266449 0.0227361131648 0.170297039256 0.118774913086 0.0915075469736 -0.0132871903572 0.0903540645176 -0.166057624932 -0.193972730412 0.120621078665 0.0463332122241 -0.0515686224005 0.00421412128765 -0.20760127752 0.110347799292 0.0353949624406 0.0683518089945 -0.225117470656 -0.0533158840583 -0.0733191695768 -0.00691274111031 -0.0906088583868 0.131285906188 0.0631000970834 0.0570872254215 -0.0395814333256 -0.115131897841 -0.309224816841 0.126594433363 0.199852973196 -0.0940295646839 -0.0652813914844 -0.180769152061 0.0930408966525 -0.24408318934 -0.194800932088 -0.0551574608957 0.0787807609179 -0.095653236002 -0.0107951674894 0.0956746410954 0.175534328303 0.00407959071692 0.223374972478 -0.0348257345335 0.066230234338 0.102800729577 -0.139608026919 0.0732129024486 -0.0115435867499 -0.0416023250713 -0.105020196753 0.0761744750978 -0.0538579594418 0.0477149288358 -0.119473311912 0.078819861041 0.163794899785 -0.182669006033 -0.0427382572394 0.0821510268331 -0.0555658705214 0.137669677132 0.0776642617812 0.119905320566 0.135590415452 -0.0872068126216 -0.129049237879 0.110814952286 0.104016279553 -0.0857436870328 0.195552738316 -0.192761107286 0.0495176588823 0.277111874109 0.0396910721277 -0.124715261749 0.199743734539 -0.11473855253 -0.101749319375 -0.0359447421395 0.0258931322689 -0.330351412766 0.0154449071545 -0.0697344324455 0.120143788887 -0.0476396419242 0.0724961392299 -0.214436662938 -0.0327603279207 0.106398093957 0.0907015224046 0.11914054814 -0.000609487075992 0.0117514835704 0.112781287108 0.119783075959 -0.00853846331418 -0.13897996535 -0.0202151343343 -0.0199973163647 0.1191275835 -0.0875830859205 -0.0472319239287 -0.234619283261 0.138592371772 0.0892534975785 0.214856534582 0.258314756162
13 -0.172177648969 -0.185128698158 -0.117031706007 -0.016104535722 0.238549339319 0.105904596262 0.0318356102994 -0.185427010408 -0.0908886006396 -0.0687774864646 -0.0610604384343 0.105475244774 -0.0536788032549 -0.0530114168193 0.00381337995041 -0.0504454744667 0.0790613517566 -0.147515141709 -0.259075877626 -0.147803081485 0.0209804649547 0.173853286474 0.115983629869 0.0977385329957 -0.0171566399808 0.0838323581507 -0.166161980744 -0.201891683987 0.120039006114 0.0487574702652 -0.0470184785005 0.00630363070487 -0.211009764691 0.107679495753 0.0340358723797 0.0707274438739 -0.22595794396 -0.0499653416462 -0.071967382498 -0.0059931113163 -0.0946367408881 0.122567824467 0.0607104336961 0.0582473401947 -0.0382775835299 -0.121145222874 -0.310272929479 0.120885037481 0.196813006256 -0.0979502390152 -0.0695126949374 -0.184325397993 0.0932833371911 -0.242163260181 -0.191623996512 -0.0520402286401 0.077228613919 -0.102074415868 -0.0162359346147 0.0967603024559 0.166598917442 -0.000542747813562 0.227357165676 -0.036254980237 0.0670052212407 0.103873035891 -0.132103674888 0.0747992832869 -0.00684415569171 -0.0420177978023 -0.107508682164 0.0744895735975 -0.054850690744 0.0500967246351 -0.127349441556 0.0752641712469 0.162412092023 -0.184590607338 -0.0483539299616 0.0858618447509 -0.0497498365655 0.129360049925 0.0729778449359 0.127388899705 0.14079691997 -0.0899789106763 -0.135396138876 0.113149032717 0.10428738082 -0.0816603041327 0.196643095817 -0.191063642814 0.0536176803392 0.27789715647 0.0400961921459 -0.128078726626 0.196473393831 -0.109697891986 -0.102897156613 -0.0310223592511 0.0275678880268 -0.327138726174 0.0117649706737 -0.0671845102634 0.117092450592 -0.0437012204717 0.0675193631696 -0.217128252246 -0.0379722350978 0.104340195697 0.094417626738 0.120706090046 0.00131145574406 0.0138052199426 0.11134557811 0.115096660705 -0.00658245827948 -0.139868524552 -0.0232236490354 -0.0160065578155 0.119733206808 -0.082994286214 -0.0459741947826 -0.230435676309 0.138889931633 0.0907392905172 0.215936158315 0.259215358741
14 -0.189624766754 -0.189185538279 -0.136917041985 0.00418835726997 0.245962765191 0.10797265314 0.0351598773047 -0.200972704286 -0.0996968297476 -0.0802721930883 -0.0802877309667 0.109337752832 -0.0501642011094 -0.0639453490947 0.0121473218575 -0.0613145951461 0.0792085482559 -0.158169260636 -0.28802670784 -0.1446187005 0.0204286483049 0.194463104166 0.0880981251686 0.11263071249 -0.0143252799443 0.077269999857 -0.155780208251 -0.214268159019 0.110564562041 0.0324107300364 -0.072450781252 0.0192229851745 -0.2056772918 0.0986630193048 0.0444751202713 0.0840289744682 -0.218134103259 -0.0672415674903 -0.0757503672481 -0.000229566751733 -0.0907703875721 0.146502882437 0.0493893540752 0.0717725685879 -0.0526825297013 -0.127305990693 -0.319329486518 0.110554105329 0.205706225146 -0.0835965766826 -0.0641176392802 -0.208963358402 0.086082816117 -0.24750045776 -0.201649013995 -0.0370020229955 0.0853564789432 -0.103769860951 -0.0287896732108 0.0986496878181 0.172983900905 -0.00717858534407 0.233915660911 -0.039696658853 0.0691850435758 0.105132536281 -0.14956028297 0.0871920205185 0.00379867202142 -0.0347866560475 -0.116133921008 0.076819900197 -0.0533156057537 0.0537257405667 -0.131052366077 0.0834234955458 0.190422006839 -0.185558311667 -0.0420640523218 0.0892661790392 -0.0557649121737 0.132190531066 0.0764754834516 0.130073825234 0.126473300042 -0.0958288429797 -0.152765491849 0.121784126779 0.0910629994923 -0.0835307421803 0.20773324246 -0.199429559274 0.0633368364353 0.296505519975 0.0377911077189 -0.127785251826 0.216662393102 -0.13201279109 -0.115834503119 -0.041899361411 0.0274337702425 -0.335580302873 0.0181485322704 -0.0843344057066 0.140365688182 -0.0323186205569 0.0681930052531 -0.207332089344 -0.0435011774008 0.100397005013 0.088473670952 0.105565871412 0.0157969483039 0.00900019199296 0.108200684719 0.12255830718 -0.0334323687554 -0.140056676774 -0.0304227862842 -0.0262774134345 0.126392127651 -0.0816116677069 -0.0570680307758 -0.241599839074 0.137640965623 0.0980030981272 0.234615717624 0.257018399572
15 -0.187272501019 -0.186958283418 -0.134786225184 -0.000969636525247 0.247390634619 0.110210087754 0.0322576040023 -0.198104898596 -0.0973540044047 -0.0789116972923 -0.0774984724461 0.114718889374 -0.0491277044895 -0.0654465260281 0.0123622341323 -0.0642048443055 0.0800489743394 -0.153331210461 -0.288794039709 -0.151715252577 0.0170931056787 0.189031141327 0.0894734267719 0.116480433171 -0.017926483108 0.0799913359022 -0.157858867496 -0.212167240822 0.112472759732 0.0373028512334 -0.0727697583571 0.0126062245608 -0.20429133591 0.0918678391241 0.0463500700495 0.0855623033298 -0.218897961075 -0.0710217645935 -0.0711102404502 0.000278794239486 -0.0904555235834 0.142745847853 0.0553876562994 0.0708182009388 -0.0488825119648 -0.126832840962 -0.320991856557 0.114495676446 0.209906036012 -0.0834503678036 -0.06610048577 -0.209094363079 0.0842047994436 -0.246432843579 -0.203298922217 -0.0412191915063 0.0872109497789 -0.106094403301 -0.0244009012681 0.0980820341401 0.17406517238 -0.00304066394896 0.23877490477 -0.0381601207805 0.0716584202543 0.109914093641 -0.149735160677 0.0845780715676 0.00224061771614 -0.0351360360942 -0.116366412905 0.0813823659795 -0.0553261618743 0.052649680974 -0.127882338489 0.0782998444141 0.193832637404 -0.181364433026 -0.0372020699871 0.0873623397244 -0.0609640885003 0.133295445197 0.0799003423508 0.133428364679 0.130848570875 -0.0925380793035 -0.152951137739 0.121216365002 0.0964012893323 -0.0834884469636 0.207893270964 -0.195626487392 0.0694262485425 0.290484524527 0.0393545584526 -0.132512596931 0.219345773066 -0.132065666046 -0.111922398944 -0.0429639958013 0.0284611204727 -0.336060485381 0.0253878024092 -0.0836438900377 0.136832083745 -0.034301665022 0.0650864693995 -0.206656530886 -0.0408548421307 0.102415560229 0.0930858123788 0.104569373466 0.0174176246126 0.00749709546317 0.102133598712 0.118787840228 -0.0311971673846 -0.138167245558 -0.0329637277376 -0.0241725056874 0.122447645023 -0.0781013655984 -0.0571636044728 -0.241933251481 0.137233186522 0.0973206881981 0.241111655372 0.260078997168
16 -0.137686567559 -0.143877022857 -0.0953738687865 -0.0114052334661 0.19089758366 0.0844629910471 0.024246406397 -0.153030381729 -0.0718743150195 -0.0605119283969 -0.0555247395509 0.0783622655695 -0.0441606108708 -0.0446175517304 -0.00192664404668 -0.0414845868671 0.0623822406312 -0.120876387741 -0.209031399629 -0.117279363064 0.0173780812187 0.1381031665 0.0894512594703 0.0795835888477 -0.014546366618 0.0729660525556 -0.12570800582 -0.157892871946 0.0954900822177 0.0313116337067 -0.0426039455291 0.00335166250523 -0.163231350544 0.086072054995 0.0293157596632 0.0576418204657 -0.180649816185 -0.0455828619015 -0.0546073947796 -0.00200926765388 -0.074043875174 0.0995417746278 0.0449417519257 0.048489208096 -0.0360803045427 -0.0930781476411 -0.245608118261 0.101054037702 0.1552840588 -0.0721860009136 -0.0530946424095 -0.144061314618 0.0736936378347 -0.193190871142 -0.156095428177 -0.0424174134279 0.0681820888557 -0.0754459939098 -0.00801454213203 0.0774480756732 0.135804590545 0.00205285688317 0.174088141083 -0.0289410280914 0.0499367835106 0.0828120862179 -0.112620542175 0.0593585741413 -0.00728829991455 -0.0297278437843 -0.0874853525498 0.0654457374341 -0.040759213026 0.0356417150348 -0.095428362543 0.0584930484391 0.130471882268 -0.140043887589 -0.030977363836 0.06537552583 -0.0454081027676 0.102674737534 0.0580553552503 0.097336351389 0.106173410274 -0.0742518485148 -0.106719811821 0.0906920165717 0.0777617762249 -0.0623990841012 0.154051139443 -0.153532204612 0.0406304497348 0.222657652001 0.0360081169286 -0.105379399216 0.159823049612 -0.0873569861486 -0.0815092125077 -0.0250316105588 0.0225788286505 -0.255061355851 0.0128978268676 -0.0552303715966 0.0967133328255 -0.0314520118688 0.0595079877186 -0.17196585508 -0.0318836351273 0.0828107076432 0.0713179391795 0.0941347093892 0.00128573968597 0.0121495555624 0.0882563672002 0.0981314015096 -0.0130994430653 -0.105519746002 -0.0156195026584 -0.0173043032214 0.0901643945654 -0.0651143927891 -0.037986922815 -0.188522053678 0.107255844094 0.0698270968559 0.171891753149 0.20587724267
17 -0.173326668695 -0.189953572307 -0.121052758346 -0.0165307048358 0.2436728081 0.106760335553 0.0316466682008 -0.192695674919 -0.100043313717 -0.0690623530208 -0.0595393222656 0.104971318084 -0.0507734382826 -0.0519306242293 -0.00283236869643 -0.0565522669014 0.0800290407254 -0.154830110443 -0.270008672883 -0.14447265276 0.0205147912884 0.177170379559 0.12250493687 0.100024555232 -0.0185535269738 0.0907676388187 -0.16946046874 -0.198987458298 0.118912378711 0.0478998535738 -0.0462301867915 0.00771468900816 -0.21590323028 0.114385439131 0.0395048633424 0.0678774967164 -0.233596452552 -0.0545450276408 -0.0761799727687 -0.00181670370108 -0.0948294360033 0.131295086885 0.0602637106795 0.0569062006187 -0.0438647915632 -0.122917323688 -0.314371083676 0.131945058484 0.19979358495 -0.0972948786251 -0.0694988276622 -0.184140397008 0.0990151954128 -0.247582003355 -0.202583652545 -0.0533464919895 0.0865133117309 -0.0986151822087 -0.00834745074543 0.0979283818477 0.17242364049 0.0029666371418 0.230903225333 -0.0334709765398 0.0663338809731 0.10571469472 -0.13980487454 0.0688265496007 -0.00571351860424 -0.0430819024426 -0.110429176554 0.0833535848032 -0.0540251453162 0.0520175592334 -0.12259840998 0.08033659858 0.164603862486 -0.183153927411 -0.0465016913516 0.0803315544055 -0.0565288427191 0.133949417367 0.0800922095565 0.123021468122 0.142116375774 -0.0934838308678 -0.133945633274 0.119168998175 0.100832147707 -0.0850684112904 0.199206994292 -0.192996023112 0.0545055906856 0.278825949756 0.0456397152399 -0.130259901579 0.198407378432 -0.111830094105 -0.0975258272529 -0.0342909797402 0.024271499836 -0.336920507502 0.0120630507477 -0.0689941148248 0.121648618447 -0.0484887741751 0.0705542324381 -0.218997215315 -0.0349582539846 0.110429590948 0.0980833265792 0.123694016723 -0.00132237795454 0.0150358454857 0.109122064787 0.125174047437 -0.00887887966403 -0.142595932499 -0.0208385070565 -0.0154767070369 0.11528599433 -0.09087844317 -0.0455316623479 -0.236621447653 0.144614383366 0.0878618130425 0.218715129474 0.26277877309
18 -0.189920907542 -0.188796033768 -0.131470070591 0.00101907049676 0.246758028249 0.106402268969 0.0330561711152 -0.201692845763 -0.0993474292156 -0.0753777462172 -0.0830673600226 0.115760276242 -0.0504043215751 -0.0632222920892 0.0136713317799 -0.0657521508484 0.0854460323179 -0.155190502329 -0.287770825898 -0.152078956375 0.0172680233123 0.19013980847 0.0947535951368 0.11280278932 -0.014709695136 0.0775927543673 -0.159661981391 -0.213556484067 0.116445346897 0.037938787035 -0.0713473930953 0.0157980991417 -0.20597081289 0.0949928178602 0.0452373905715 0.0839222683117 -0.220824224365 -0.0720524018872 -0.0740074177497 -0.00358360873226 -0.0959404698643 0.141464152294 0.0528817930695 0.0702419024168 -0.0533853078539 -0.125691715278 -0.315692355878 0.110635077594 0.210117204724 -0.0829384500211 -0.0650893945424 -0.207311511811 0.0902007684259 -0.247932985994 -0.199333623293 -0.037105607579 0.0864359286615 -0.103540280212 -0.0261519276723 0.102294952105 0.171281435046 -0.00526710098881 0.23545104019 -0.0368147246221 0.0682010766104 0.108954164802 -0.147049049142 0.0874513721997 1.12097616021e-05 -0.0390612983994 -0.122612684588 0.0803833583538 -0.0555248617882 0.0526035111874 -0.125316442572 0.0809749787185 0.192695121811 -0.186096917251 -0.0345444886949 0.092011923262 -0.0562631799165 0.127496816729 0.0792751999208 0.135664607817 0.130569280694 -0.100376185017 -0.149397511843 0.121535221034 0.092042285163 -0.0820313396865 0.202234148044 -0.198511990925 0.0633224591643 0.292783886327 0.0359890085039 -0.131874650492 0.215582344004 -0.128994998201 -0.114951769639 -0.0409157385014 0.027896399826 -0.33567159897 0.0235325377624 -0.0814557339145 0.133815939952 -0.0370569622781 0.0655650334839 -0.21387950163 -0.0417231776114 0.105369762592 0.0934473391023 0.10233349807 0.0174078592384 0.00534216961817 0.102261504634 0.116661959544 -0.0333986277061 -0.13733258644 -0.0268788820555 -0.0270366571072 0.126283161584 -0.0792885700121 -0.0556855342464 -0.239474936323 0.138387747814 0.0953045343272 0.241722114512 0.257230789313
19 -0.173723036031 -0.191212874356 -0.123054382169 -0.00812571081824 0.24427997311 0.1122561926 0.0304433861709 -0.193721849183 -0.096645076389 -0.0738823872518 -0.0681010958291 0.107459421921 -0.0536503376974 -0.0539481535611 0.00239362935312 -0.0572969304925 0.0816315904487 -0.156207399946 -0.273106384257 -0.149134238105 0.0228303442317 0.175419520525 0.110810450461 0.104557873894 -0.0122218413918 0.0835127144768 -0.169047935215 -0.202574284861 0.120748473246 0.0428140742095 -0.0528461411559 0.0135221633307 -0.209658453522 0.104046402793 0.0382469584794 0.0778752191574 -0.231486135214 -0.0555661302858 -0.0779370642534 -0.000163154413064 -0.0940603195593 0.13452312943 0.0598962324803 0.0622207067708 -0.0417754179443 -0.122382481637 -0.316578860135 0.126050808439 0.205484691894 -0.0928928249301 -0.0693371423812 -0.190276032456 0.0965448672746 -0.249554843031 -0.196333674343 -0.0477616211207 0.0805226717797 -0.105411855144 -0.0161478031644 0.100102057606 0.175222904041 0.0012355333175 0.226512776721 -0.0386858558749 0.0648267547383 0.105567018021 -0.144203281967 0.0774414010983 -0.00851371993594 -0.0380466009843 -0.109847029375 0.0811846220854 -0.0515612384648 0.0504170853133 -0.126385446962 0.0739059860975 0.173570925901 -0.185700256868 -0.0398642354619 0.0813704311025 -0.0544331148108 0.135495323034 0.0740396791229 0.129116224727 0.134865930882 -0.091733252894 -0.140816995807 0.119953920672 0.0975331599172 -0.0831321554447 0.198141633928 -0.196692326909 0.0568613578344 0.284651813131 0.0407022518824 -0.126869253698 0.207571875023 -0.120191561483 -0.107416958118 -0.0355368231308 0.0284921953708 -0.336444967077 0.0181231016061 -0.0747543486268 0.123104722735 -0.0479791198595 0.0663537973385 -0.217418250162 -0.0370764950112 0.109398171847 0.0925625561023 0.118146340261 0.00485170383056 0.0101668532666 0.111577132063 0.12005392868 -0.0170368612354 -0.137983913188 -0.0237528271587 -0.021596830319 0.12196479287 -0.081854657467 -0.049326996857 -0.239241205963 0.143034663378 0.0886668577982 0.225308661843 0.262227648895
20 -0.185707473105 -0.191427567243 -0.137303632393 0.00353087693504 0.243343333653 0.107955726597 0.0295698747273 -0.197848169757 -0.10371110773 -0.0753426875811 -0.0796718934803 0.112701898961 -0.0474249427376 -0.0650859433257 0.0093876956987 -0.0610603362576 0.0842222368932 -0.154146166348 -0.289507830867 -0.146841579198 0.0207444480106 0.192986411065 0.0943947965884 0.118998852629 -0.0116211985993 0.0743000826996 -0.158690132614 -0.210082627873 0.110965180051 0.0393359407952 -0.0673953699116 0.018371974187 -0.203676662132 0.0955395521889 0.0497296205882 0.0878288975403 -0.224759686865 -0.0695828154958 -0.0748135437686 -0.00328628450503 -0.0907686945715 0.147243673723 0.0486800254717 0.0723197812987 -0.0541361952106 -0.120724863221 -0.319740468174 0.108902873381 0.208203571645 -0.0807207110072 -0.0673390133569 -0.210559533639 0.0902470481979 -0.249346473308 -0.200022847306 -0.0383527706894 0.0832702223509 -0.103258037723 -0.0282533901094 0.0965416637308 0.169224719173 -0.00646316104617 0.232709267386 -0.0416226328842 0.0706997717175 0.111631058105 -0.150067551445 0.087147515784 -0.00223641007152 -0.0398342543056 -0.12245063494 0.0751792051879 -0.0510140378001 0.0554393026543 -0.128780509374 0.0832802663079 0.196469339157 -0.18225087095 -0.0388529515608 0.0857805297253 -0.0605000991454 0.130444563244 0.0792311444794 0.137828705303 0.132329431841 -0.0996105110315 -0.152953957897 0.119899524778 0.0924494162341 -0.0807733725184 0.209317273017 -0.200916865814 0.0706438255731 0.294136004256 0.0342149023014 -0.128782702104 0.219401661847 -0.131534068657 -0.111086075819 -0.0402236068434 0.0263915014764 -0.333112345381 0.0262218860817 -0.0868777598503 0.140146516112 -0.0391487515995 0.0679226347186 -0.208375952576 -0.0435456696887 0.103790303375 0.0922280090736 0.106224283362 0.0171931549508 0.00278390976056 0.103352270278 0.119746815259 -0.0304306995087 -0.135933842882 -0.0334747558657 -0.0250790630686 0.123377815091 -0.0817912468831 -0.0519766262536 -0.241583033551 0.143815589408 0.0924707843908 0.241841930324 0.257844434486
21 -0.17695640834 -0.192245567075 -0.124816092562 -0.0193317823602 0.248559308453 0.112060827719 0.0315043561464 -0.189151593207 -0.0987783349098 -0.06930298115 -0.0619900568905 0.106117382391 -0.056645849537 -0.0519586976324 0.00204634332063 -0.0536708801823 0.0809588020163 -0.148542713586 -0.266853365772 -0.144406295259 0.0258154337487 0.171953797598 0.11537518057 0.099279100904 -0.0176054692215 0.0937836129041 -0.167280873145 -0.205000932393 0.121415808391 0.0450416924576 -0.051305716815 0.0120837588889 -0.215603587005 0.113569458573 0.0365983987194 0.0734171631233 -0.232587733953 -0.049729374947 -0.0746182955266 -0.00772812885993 -0.095172968714 0.128553112191 0.0624745240178 0.0595059190863 -0.0424186494637 -0.1177342743 -0.314924565506 0.130415462166 0.197811790544 -0.0947277798838 -0.0685452867581 -0.183806729988 0.0958569338204 -0.248135372502 -0.198697896958 -0.0579644579594 0.0852530787619 -0.101001417452 -0.00848116542048 0.0932286221805 0.172027740896 0.0047910798091 0.230601294826 -0.0313602023545 0.0672225456734 0.100126921633 -0.139487960531 0.0696105999788 -0.008962276189 -0.0397035217171 -0.113303845441 0.0823485164522 -0.059616308706 0.0501834635106 -0.121835255464 0.0815272464292 0.169532614764 -0.18435759608 -0.0472074073439 0.0813932569508 -0.053834698876 0.140683378043 0.0794928422685 0.123433122693 0.137930169179 -0.0900760000453 -0.135892932072 0.11561426185 0.100052370524 -0.0821762719595 0.196050639561 -0.192232497998 0.053987079112 0.279646772483 0.0460982565274 -0.127499727573 0.204022705402 -0.112946731586 -0.0992354417344 -0.0292546814887 0.0278279388231 -0.337450389384 0.0101794708647 -0.0743637418633 0.123391037336 -0.0525142721893 0.0750062379623 -0.219435382429 -0.0354361743444 0.111924608228 0.091797437648 0.119011718502 -0.0007366967621 0.0113625394285 0.114454983113 0.124700643304 -0.0094863018744 -0.143014097873 -0.0227104681581 -0.0152163402581 0.12052524929 -0.0904091754718 -0.0482975078331 -0.238870030293 0.141083662075 0.0878228471172 0.219487279845 0.260203862432
22 -0.188616240223 -0.190651413399 -0.136932595163 0.00249901782222 0.247284639551 0.107333238827 0.0353849346723 -0.204142136112 -0.101865200725 -0.0808149361527 -0.0809299149739 0.115134053409 -0.0550573444235 -0.0658754972331 0.00953856311483 -0.0588348691849 0.0866836047853 -0.15750355097 -0.282269249113 -0.148544426532 0.0229848373674 0.1935988191 0.0932281179229 0.114929518298 -0.0151898488413 0.0767352905934 -0.157311279932 -0.214107001647 0.113663673435 0.0319085494078 -0.0703253640076 0.0146975347604 -0.201478418786 0.0977494178308 0.0505119624434 0.088542032469 -0.218912757484 -0.0718639222018 -0.0769965893081 -0.00302605929383 -0.0897910352489 0.145928254995 0.0490472314254 0.068055878717 -0.0496505648177 -0.123212735008 -0.320223754276 0.114351641023 0.20772645433 -0.0848245779332 -0.0633599717524 -0.208560755615 0.0877901279939 -0.24666787557 -0.198045184695 -0.0370092271631 0.0870216839014 -0.104242895576 -0.0264354732903 0.100447375677 0.175182848859 -0.00942099291251 0.235917761307 -0.04077949553 0.0754066395652 0.112225645945 -0.147356047777 0.0887081528563 0.0027899097171 -0.0381039511833 -0.11813140826 0.0769894444172 -0.0532818820274 0.0493234731689 -0.128222552117 0.0793194493984 0.194026214668 -0.184606061883 -0.0380928421273 0.0908269685229 -0.0594264941644 0.127827208311 0.075257336966 0.133750491076 0.131351317627 -0.0964024026633 -0.152027492399 0.123826732087 0.0917593415727 -0.084791597419 0.207942978708 -0.200237394941 0.0701202008429 0.294891385186 0.0393570222856 -0.135606420343 0.214815813244 -0.12947539934 -0.115551709005 -0.0423497452323 0.0267883672551 -0.332001889656 0.0257647676851 -0.0864865145761 0.140168639302 -0.0361012441712 0.0650389199708 -0.206488659623 -0.0419123582404 0.100931757448 0.0927412066973 0.103416387745 0.012416804223 0.00777100019794 0.103481739826 0.12326866913 -0.0331190613074 -0.139448306676 -0.0308232093195 -0.0268420369603 0.123402879498 -0.078560918722 -0.0550121748121 -0.243617619306 0.141298600131 0.0957159266912 0.238015086879 0.259664479187
23 -0.181884180867 -0.179827855578 -0.129955608183 0.000800713980136 0.233756340034 0.105816707904 0.0295776386729 -0.190598185109 -0.0989577824628 -0.0796123038513 -0.080711870306 0.107145539993 -0.0454783713538 -0.0606397737385 0.0114124325457 -0.05839390711 0.0796027965732 -0.15100517883 -0.274523117877 -0.142561590359 0.0183804732951 0.184992747551 0.0796082082739 0.1106076123 -0.0105141140658 0.0737155751731 -0.152182426092 -0.204601472293 0.104547807862 0.0312641538195 -0.07336614123 0.0163771546406 -0.18804015661 0.087346148196 0.0470848878613 0.0855643724665 -0.207667495287 -0.0715373762567 -0.0709218971439 0.00176708012039 -0.0880496580735 0.144216504255 0.0460077214234 0.0646522396895 -0.0513552482585 -0.117146350209 -0.302381807871 0.0991739462739 0.198061289582 -0.0803744198428 -0.0655796659141 -0.195528044017 0.0822661896715 -0.23252902478 -0.192474725591 -0.0322686959003 0.0788708864335 -0.0963899626092 -0.0271327628317 0.0952851442015 0.162449094401 -0.00487642699931 0.220762716237 -0.0360385962017 0.0722026245616 0.1024786187 -0.141841148698 0.0845315653659 0.00211138958101 -0.0374136387321 -0.113892048162 0.0762135688487 -0.0493869563962 0.0475793508948 -0.118723687085 0.0776865830415 0.187716546192 -0.177457791178 -0.0306652635706 0.0882890394167 -0.0541853341178 0.121175241067 0.0745168828865 0.130625627962 0.117107820831 -0.0955771876857 -0.141859527618 0.111938038298 0.0858092449412 -0.0813536799626 0.192270399551 -0.192636266796 0.0665975917008 0.279958013681 0.0313840184828 -0.122506176627 0.210356751944 -0.12752717944 -0.107305886827 -0.0372993628602 0.0299807091072 -0.316042026212 0.0239683886615 -0.080919051915 0.130851262619 -0.03307443798 0.0584605532277 -0.195127528465 -0.0406654439482 0.0913501277167 0.0843945346358 0.096466852022 0.0188177010694 0.00164056039321 0.0950415229915 0.115734777501 -0.0332160755782 -0.133933733799 -0.0294731904341 -0.0226568362836 0.114191153123 -0.0721466118678 -0.0496390049078 -0.230689380872 0.133022139056 0.0890838106474 0.227202485562 0.244538709698
24 -0.163641580886 -0.168665675673 -0.119417149068 0.000230261884852 0.215038144217 0.0973646438587 0.0262076202098 -0.17506832397 -0.0854462892109 -0.0733228105836 -0.0694446611469 0.0976306136862 -0.0474618527811 -0.0537710845146 0.0022181458064 -0.0523798673855 0.0727505675591 -0.134438715077 -0.241447050681 -0.128904469733 0.0216107379382 0.166827566225 0.0825472775204 0.0957292663781 -0.0135518679731 0.0699210688579 -0.139522885825 -0.180832015457 0.0963600785917 0.0351444593259 -0.059983590668 0.00939074244829 -0.180151460962 0.0894572056878 0.0397563747416 0.0693590931551 -0.198826046516 -0.0612342673995 -0.0624100606692 -0.0023232059499 -0.0787553992453 0.127119045006 0.0502634979185 0.0623450074039 -0.0445540396429 -0.111675991811 -0.274142809359 0.103899577132 0.182715199571 -0.0751885637239 -0.0592053914819 -0.173614374982 0.0750156077587 -0.211208079873 -0.178563124308 -0.0396623690225 0.075455320533 -0.0918214237919 -0.0204540856352 0.0838963849483 0.155289480744 -0.00494116490876 0.198736514903 -0.0329994987194 0.0605442590417 0.0973376401688 -0.130655438469 0.072607614128 0.00236190436514 -0.0354659987912 -0.106793737664 0.0673494088463 -0.0545318178704 0.042966098436 -0.113341511468 0.0721626475681 0.163353305573 -0.165613733958 -0.034319722949 0.0783645236639 -0.0526313183931 0.113363391765 0.0706498023799 0.110874075734 0.114297077938 -0.0793689131797 -0.128776481546 0.103176678375 0.087259712337 -0.0746145262346 0.177175862587 -0.173855952575 0.0530533064981 0.25770461489 0.0378974761275 -0.114130525302 0.184291047885 -0.111611653699 -0.0911379066785 -0.0351234429599 0.0230712202853 -0.291459780233 0.0171315516977 -0.0738270261811 0.122273811306 -0.0326818957528 0.0605042550234 -0.188169976901 -0.0354733861398 0.0902036770982 0.0806240654191 0.092704224763 0.00514643568042 0.00932490474069 0.0894804721011 0.107668715568 -0.0209049526987 -0.118961319812 -0.0252794950653 -0.0180874489247 0.101769999995 -0.0700898756926 -0.04172588486 -0.207292931338 0.1182486948 0.0794181548275 0.199718163815 0.22309850205
25 -0.155280675337 -0.168972174283 -0.113414066151 -0.000501313286181 0.211904031464 0.0958764330903 0.0262929638365 -0.175556498925 -0.0856139854838 -0.0728847751796 -0.0637141433378 0.0953435394071 -0.0494416677762 -0.055965005915 0.00811278535004 -0.0549146062876 0.067722071752 -0.131760478812 -0.246352161485 -0.130154258114 0.0213516703908 0.166982896657 0.0821696970351 0.0932970600232 -0.0173902338637 0.0700670829969 -0.134980186023 -0.180257757835 0.0965125888147 0.0289487085165 -0.0568125320055 0.011891632329 -0.177021800893 0.086886014968 0.0386081116424 0.0747201272023 -0.189902511781 -0.0590997269587 -0.0606062908002 -0.00139221712185 -0.0831386884757 0.123705183261 0.0483079114079 0.055217900461 -0.0420988236979 -0.106947775361 -0.27124983691 0.0974000271947 0.181319287798 -0.0786767211656 -0.0626652194359 -0.176696453901 0.0741853886118 -0.209269724968 -0.174747246979 -0.0359065031482 0.0733351806444 -0.091142495416 -0.0191185520305 0.0853323638519 0.152811965005 -0.00735364779651 0.19856437033 -0.0300969487229 0.059044348056 0.0930290261505 -0.125694344849 0.0728777807977 -0.00385667494404 -0.0330898852804 -0.10376449183 0.0666606012388 -0.0532443338093 0.0467901543193 -0.112692573702 0.0726879394059 0.159751435449 -0.158918641069 -0.0331693683988 0.0718294087221 -0.0471318364524 0.11225044676 0.0698173681708 0.113393315543 0.111052812657 -0.0859786081006 -0.131637580941 0.104831661414 0.0847520083628 -0.0749716647255 0.169707027348 -0.169141975408 0.0532797904187 0.255400642271 0.0326161985877 -0.115268404604 0.18734587895 -0.113000960016 -0.0878102113036 -0.0342502156229 0.0287662773355 -0.289613766153 0.0135341189109 -0.0689587422149 0.118460251835 -0.028773330113 0.0553917497165 -0.183722039329 -0.0347471601138 0.0924530467226 0.0828440883526 0.093265856283 0.00733570500706 0.00577156139635 0.0879800436674 0.103476957338 -0.0287161241014 -0.120902679293 -0.0218833196666 -0.0166138353274 0.104636032781 -0.0744349067111 -0.0453938939298 -0.210446779718 0.123318316027 0.0826459104709 0.198208522616 0.226338642735
26 -0.180072945633 -0.185481025459 -0.134211619033 -0.00302070602138 0.242227309017 0.107816888204 0.0262989813583 -0.1953391081 -0.100076569274 -0.0754076678616 -0.0752364328828 0.111426629928 -0.0511989950913 -0.0649212349578 0.00971401285007 -0.0622665338456 0.0818773051097 -0.148605386331 -0.275610971751 -0.145092183974 0.0163094932286 0.183443457678 0.0891903455275 0.11353701377 -0.016534519495 0.0736476366479 -0.155212401011 -0.204487744045 0.107553902495 0.0315527936597 -0.0659603182378 0.01586921293 -0.202554343197 0.0921423022472 0.0454766964663 0.0831261632934 -0.214836283545 -0.0665924746915 -0.0742721824889 -0.000686111800109 -0.0931892193179 0.141415585002 0.0481008106956 0.0643579211593 -0.0469384833186 -0.121446045152 -0.31164959286 0.113551049525 0.205621295539 -0.0806695108673 -0.0630758695349 -0.199924589584 0.0816175564648 -0.241328486386 -0.196336114687 -0.0351229186352 0.0857097992535 -0.102522196908 -0.0232580330321 0.0943558761492 0.165124427401 -0.00424043735427 0.230686601544 -0.0329122590951 0.0710830387457 0.105404385629 -0.138649797022 0.0857757200156 -0.00379765675259 -0.0417405055237 -0.117689652828 0.0757251277767 -0.0571594214064 0.054489012227 -0.122904147393 0.0753441256467 0.186491410708 -0.179173421882 -0.0340523411885 0.0880356957858 -0.0598080251019 0.126401320524 0.0710957844606 0.127066319907 0.127208263198 -0.0898179346028 -0.146708783195 0.117209905499 0.0895117985008 -0.0785832340846 0.201453379151 -0.195779677505 0.0648235307991 0.284621141857 0.0382358115069 -0.132340416452 0.206352784943 -0.126064281266 -0.109111463432 -0.041999088679 0.0272814131065 -0.326405290199 0.0170168484711 -0.0818739270525 0.131920386839 -0.0320878404372 0.0622848651282 -0.203450033917 -0.0416492504417 0.0973373785655 0.086379547702 0.103862917025 0.00922805471641 0.0103722830628 0.100084246499 0.116248676884 -0.0271804199436 -0.133501036341 -0.0276275042529 -0.0231590894932 0.118526953848 -0.0758844554579 -0.0515609912066 -0.231505043618 0.138634901212 0.0906609105532 0.227759273124 0.248430943103
27 -0.174078730336 -0.181370844269 -0.130963264495 -0.00282787865173 0.238404510105 0.101910488954 0.0328585639526 -0.193986776227 -0.0978887580063 -0.0766227179673 -0.070064326262 0.103432486256 -0.0512751154662 -0.0580273928096 0.00881706798847 -0.0576315011756 0.0780355684205 -0.147193011365 -0.272406098126 -0.145995129786 0.0191091745907 0.17832560596 0.0872659522589 0.10908847819 -0.0151117854349 0.0751280923918 -0.153382430024 -0.20234737117 0.104171779895 0.0346038571298 -0.0654275512114 0.0162402450743 -0.195947520176 0.0895800382387 0.0472533500732 0.0840439050629 -0.213345498219 -0.0697904430923 -0.0670633235162 0.00106691346714 -0.0905852240165 0.138468156232 0.0477051014902 0.0663414944634 -0.049227692722 -0.119442939422 -0.308029944176 0.107752508319 0.202714493175 -0.0807091780837 -0.0658211131193 -0.191133304416 0.0811929059965 -0.235958624462 -0.188448640319 -0.0412501783853 0.0797111402288 -0.101135678717 -0.0268673241532 0.0912699339555 0.162626329107 -0.0090058382105 0.2266763089 -0.0340178869365 0.0685650018559 0.100571663751 -0.141401348122 0.082378700757 -0.00415332128539 -0.0378033433267 -0.11651893677 0.0781532083688 -0.0511255565256 0.049429269677 -0.118552692725 0.07366240948 0.179134820902 -0.175755521401 -0.0355704536062 0.0801371080105 -0.0591824181291 0.125140538142 0.0725579278053 0.123701461088 0.12686992684 -0.0915124271431 -0.145921930068 0.113513425175 0.0945705889923 -0.0779798076848 0.195247860294 -0.186054186579 0.0622181059908 0.281315298401 0.0406326435429 -0.124224749152 0.201965359721 -0.118830705041 -0.105509760256 -0.0358531173301 0.0279411975552 -0.323102847993 0.0208522828089 -0.0820132030921 0.130492430349 -0.0354699356555 0.0652325083189 -0.203194245286 -0.0421940574159 0.100019000724 0.0863744881817 0.102183116034 0.0134463901423 0.00963044554563 0.103051800889 0.112307246089 -0.0291940926514 -0.131113528629 -0.0278771431349 -0.0247047974235 0.119404830794 -0.0826937497941 -0.0470746582696 -0.233791412505 0.134770741247 0.0916600813473 0.228378754515 0.250280000423
28 -0.173058439731 -0.181466713916 -0.12257964389 -0.00598368208066 0.23414858719 0.107607640209 0.0257516196078 -0.190061929115 -0.0908246011249 -0.0735411458229 -0.0728923951862 0.101952834807 -0.0535634762052 -0.0569723991217 0.00777109219771 -0.058646572928 0.0767975916794 -0.14687613532 -0.266246655381 -0.142861633263 0.019368690525 0.181080996557 0.0925556635357 0.107004935246 -0.0110553410886 0.0787606805779 -0.153370742786 -0.195410925484 0.107477190616 0.0391460638994 -0.0603488286265 0.0100666632332 -0.197772476673 0.0899174180938 0.0449971333548 0.0802564295855 -0.213854928258 -0.0662703799684 -0.0660726293615 -0.00371043819769 -0.085522164605 0.131051971347 0.0507169119899 0.0650599645457 -0.0453079054276 -0.116605766505 -0.297239281707 0.108315463876 0.197729232413 -0.0796628869999 -0.0663443384584 -0.188590881786 0.082756451454 -0.228853539343 -0.19225589264 -0.037759464165 0.079345815382 -0.0947722988911 -0.0220114659576 0.0903071936059 0.167429016215 -0.00421842679464 0.221784537915 -0.0316073680024 0.0654299202016 0.102363141892 -0.138255255722 0.0794322316969 -0.00376393234698 -0.0387905988887 -0.111573892309 0.0731546532971 -0.0511494615414 0.0465517082681 -0.118474885819 0.0769559508852 0.173767797642 -0.17150044935 -0.0386741005606 0.0802502613195 -0.0571160797405 0.12439947613 0.0744858375165 0.123131503653 0.12430890725 -0.0856132747538 -0.140013619711 0.115679818811 0.0895262481325 -0.0808132622647 0.191782551063 -0.184056094171 0.0582548540388 0.275244833287 0.0417251708917 -0.12796596512 0.200248667495 -0.122535995075 -0.0973312235331 -0.0324937338296 0.0267736381195 -0.318879031748 0.0206622176041 -0.0752224050745 0.126604865761 -0.0349723090764 0.0632894686789 -0.202294088417 -0.0408441283249 0.0998049603128 0.0888886204461 0.105867601824 0.00500659654602 0.00455299083441 0.103503851559 0.113041597779 -0.0253844752428 -0.132400902099 -0.0242436229442 -0.0251271741977 0.116380052448 -0.0806175983473 -0.0455006780046 -0.226010530099 0.132880062649 0.0893221699178 0.220017741826 0.245071381235
29 -0.181181692919 -0.181214176118 -0.131579150501 0.00128173459809 0.236609515623 0.103345452476 0.0299266723589 -0.194553531009 -0.0935662206941 -0.0789777927567 -0.0818295154327 0.109903996453 -0.0493772129508 -0.0633351445449 0.0137899711529 -0.0613292450773 0.0829476455697 -0.147115278302 -0.273136739653 -0.140811443592 0.0230065825751 0.183362482329 0.081990851017 0.115184408131 -0.0131569203233 0.0729948624954 -0.153283507984 -0.207115771406 0.103878953297 0.0335702485895 -0.0699282611768 0.0189765396061 -0.196276847716 0.0848151285077 0.0477273799691 0.0850180487827 -0.209734930634 -0.0678124369521 -0.0707029770407 -0.00156888241883 -0.0865753653834 0.145171890706 0.0500211718194 0.071522482629 -0.050159119925 -0.114780997297 -0.302724121329 0.104774096511 0.197317248694 -0.0755343844609 -0.0673436059426 -0.202269799105 0.0788726385555 -0.237007711961 -0.188323002928 -0.0365845136956 0.0790427004703 -0.101689243558 -0.0312382036213 0.0966046731306 0.16808845568 -0.0102246167362 0.226788268058 -0.0337038501283 0.0734293014156 0.104016407494 -0.137493125686 0.0814406977054 0.00569935560055 -0.0347232405505 -0.114747287398 0.0712699881387 -0.0541164905127 0.049500332522 -0.123936769159 0.081619665575 0.190110674476 -0.173102952277 -0.0349784301125 0.0838982258943 -0.0590230696669 0.118825004435 0.0719553358152 0.131962740804 0.118712143259 -0.0970438896131 -0.150353014972 0.11714372461 0.0870578124664 -0.0765668935982 0.194799406525 -0.19326624682 0.0666330395131 0.284927499245 0.0354799986051 -0.129812737015 0.211433797649 -0.123152262135 -0.110741954328 -0.0423527880861 0.0254655881389 -0.315890199162 0.0250263325503 -0.0851931656073 0.136024738202 -0.0276654661013 0.0617686035797 -0.201566242918 -0.0448468648019 0.0944529599206 0.0873869379218 0.0997137347394 0.0174236594751 0.00131120843841 0.101595715323 0.116877457868 -0.0314238717412 -0.13475482453 -0.0340489077983 -0.0241661329983 0.120944968783 -0.0731930634573 -0.0532185059857 -0.230694681324 0.136790963083 0.0873612388744 0.22768752392 0.246126732277
30 -0.177892546676 -0.17897944421 -0.131009930613 0.000252685660247 0.234283768349 0.104801622055 0.0256533063659 -0.192691101377 -0.0971053719702 -0.0780989472951 -0.0747731616205 0.106126634468 -0.0474451866433 -0.0615072646601 0.011022395748 -0.061993576512 0.0819858522586 -0.151512904594 -0.271898919424 -0.141698120185 0.0167450631361 0.184258719234 0.0906543039532 0.103862525574 -0.0175507292825 0.076435649855 -0.154614424894 -0.203606094435 0.11136177828 0.0361472460998 -0.0616014498724 0.0160389477641 -0.194558232508 0.098570583146 0.0430160983849 0.0777536099733 -0.219064590846 -0.0662584430446 -0.0725105167163 -0.000116300935929 -0.085777422663 0.137032619887 0.0493415831225 0.0667840556958 -0.0509567172203 -0.119465691282 -0.3030981655 0.111766629094 0.200792421914 -0.0855856855458 -0.0643612754739 -0.198475970918 0.088567355568 -0.238651654662 -0.194501680892 -0.0404965955416 0.0767269224341 -0.103449345693 -0.0183654678377 0.0929648336422 0.166054913804 -0.00699962233328 0.220675247485 -0.0358507179353 0.0700408125723 0.102612467224 -0.140243924023 0.0821402222355 5.82312623837e-05 -0.0398900247627 -0.117461938627 0.0786876097691 -0.0516888964396 0.0487673541312 -0.124791978602 0.0792342578929 0.183552369456 -0.18175368743 -0.0415218439529 0.0868175798188 -0.0543932572819 0.125865941028 0.0761975553657 0.130747107543 0.13057418541 -0.0884280672409 -0.139740891388 0.113732492255 0.0924408845919 -0.0821259856967 0.198955345206 -0.194340713162 0.0621326990797 0.283530161335 0.036352258196 -0.12847954581 0.203835285976 -0.120451840379 -0.106218029903 -0.0346052362392 0.0285550463959 -0.319156220268 0.0193116264089 -0.0806547627145 0.133018417775 -0.0334250925636 0.0637967515418 -0.204515409987 -0.0437079773504 0.0993434433538 0.0915491118203 0.10225264934 0.0115161650327 0.0063445263771 0.101481877565 0.114698536582 -0.0291507431507 -0.13549449433 -0.0280420412295 -0.0254835967 0.116987033182 -0.0744112689315 -0.0501192918361 -0.234905972989 0.133117713909 0.0932583141373 0.227563410757 0.248547277327
31 -0.181165881235 -0.184122247229 -0.129201651816 -0.00576273210275 0.238694790426 0.104214277147 0.033067673049 -0.191612105548 -0.097635666611 -0.0707561439606 -0.0769668367524 0.108285642378 -0.0491768350453 -0.0616193597186 0.0124061594988 -0.0619257700908 0.0790937258168 -0.153518763303 -0.272900439658 -0.138652977233 0.0201542944391 0.185072667874 0.0986658242477 0.106917297528 -0.0162709523216 0.074428111505 -0.159067063751 -0.206983307843 0.111268999883 0.0326640183691 -0.0630280163508 0.0147638615375 -0.200799637931 0.0980833172281 0.0426622122124 0.0804039971718 -0.212645110326 -0.0638624019611 -0.0754285966836 -0.00395233554608 -0.0873938169617 0.134877387714 0.0547089779601 0.0675239145231 -0.0471300914292 -0.121755524502 -0.303954571191 0.111831443361 0.203050397044 -0.087251165236 -0.0648278337725 -0.192507470364 0.0835007282655 -0.234825158042 -0.190993340822 -0.0420978175086 0.0769379243057 -0.101059187017 -0.021929648419 0.0984671176501 0.163266561883 -0.00700659145316 0.226025318734 -0.0317916158155 0.067310771911 0.106714787124 -0.142824052454 0.083903151683 -0.00422209228379 -0.0364066139301 -0.111866604701 0.0747859736763 -0.0562851848873 0.0458855144502 -0.124456495184 0.0780324715264 0.180736128414 -0.180172572225 -0.0366582081403 0.0865164458409 -0.0575899257991 0.127531997161 0.0734526989843 0.126192073897 0.131186211913 -0.0940754256427 -0.137580419321 0.116066810515 0.0881944015546 -0.0845060657011 0.200926014453 -0.19036450336 0.0656968276855 0.279870308208 0.0358427837753 -0.12576935344 0.208494724632 -0.118212685234 -0.108769248769 -0.0409924766276 0.0228666767372 -0.326661002148 0.017201141648 -0.0798979033097 0.125212649588 -0.0416854440653 0.0648385065633 -0.203740198179 -0.0430274242129 0.103523397035 0.0872400534471 0.108373117053 0.00704845301061 0.00725616387551 0.105077487779 0.116296371779 -0.0292734537495 -0.138893402177 -0.0272580277547 -0.0185933681517 0.122594142095 -0.0770050068684 -0.0545446045279 -0.234083604397 0.140380704038 0.0926446367993 0.229641416752 0.249708687279
32 -0.165508490674 -0.175855185589 -0.124940475659 -0.00588386062296 0.218188473802 0.102675001014 0.0215086367836 -0.177445910043 -0.088791089253 -0.0794041209722 -0.0709630544848 0.100351129195 -0.0495678160361 -0.0554788141574 0.00154638942334 -0.054953920495 0.0752269655423 -0.133665871271 -0.251740192847 -0.135490108204 0.010603017798 0.174154104832 0.0742941409722 0.0996040445774 -0.0180748222168 0.071332050747 -0.132688435026 -0.189960096619 0.0907050253301 0.0298425892992 -0.0667203555063 0.0183630138222 -0.175718561256 0.0786855359869 0.0508612841996 0.0799163628455 -0.192193891657 -0.0657559254484 -0.0639096965668 0.00203590653792 -0.0815897099787 0.132827522462 0.0490339604477 0.0666171507756 -0.0509418857167 -0.112359985793 -0.278667688599 0.0984356346796 0.186602311239 -0.0735987032345 -0.0605061933062 -0.18192068979 0.071578869859 -0.206071469024 -0.173161667477 -0.030411750359 0.072744727053 -0.0837545764091 -0.0264141370262 0.0840807262259 0.156786340086 -0.00272608788488 0.201660024166 -0.0383945310881 0.0689234081697 0.0870586087618 -0.133884599351 0.0688445013844 0.00663086622937 -0.0329882144672 -0.10867452698 0.0636917970906 -0.0551873517405 0.0532221726534 -0.108409925381 0.076624465404 0.162396747776 -0.168076801442 -0.037030312917 0.0702102603938 -0.0501058285118 0.112793933936 0.0677472257605 0.110633073092 0.118749808883 -0.0883029355352 -0.138111280802 0.112312677733 0.0814774517809 -0.0737678967724 0.173946678658 -0.174968663474 0.0521076983163 0.261865350578 0.0322097921903 -0.124002691824 0.193434498568 -0.119405891816 -0.082134327269 -0.0283983089289 0.030415187569 -0.289792718953 0.0159949171849 -0.0784608535134 0.129332730394 -0.0260469454098 0.0653240884666 -0.180284769501 -0.0385882599603 0.0892325760412 0.0749248427333 0.0903796869065 0.0106248121523 0.00775963435143 0.0840560980366 0.101642656014 -0.036455497376 -0.124680961492 -0.0269766060222 -0.0211613954999 0.105345110079 -0.0795988285141 -0.0436109290441 -0.206464887103 0.126761044751 0.082021155262 0.207082675915 0.225534855165
33 -0.161023456032 -0.176678268056 -0.124376505576 0.00116091192822 0.218692680191 0.0945050893431 0.0272961191933 -0.18236234787 -0.0796742346323 -0.0692833879191 -0.0712503484247 0.104489643756 -0.0494878549684 -0.0554618975891 -0.000675209216156 -0.0565147985149 0.0724930060777 -0.142537696341 -0.248910346909 -0.131175809901 0.0224917472549 0.174231295601 0.0759343446439 0.0956253670996 -0.0122877120439 0.079359820779 -0.137364155141 -0.182383239183 0.0946301400848 0.0313218003435 -0.061915591801 0.00743466576814 -0.187816945486 0.0870344800438 0.0499693504422 0.0653555769122 -0.200212411009 -0.066291068362 -0.0641365997107 0.00649710344363 -0.0757751992787 0.13555504724 0.0496991084345 0.0583680764 -0.0529890708039 -0.113007041714 -0.279493587761 0.101660787114 0.180110121712 -0.0765915449355 -0.0631481226962 -0.180077981798 0.0771312449885 -0.203812334674 -0.179072700702 -0.0443027601617 0.0803738496032 -0.0857115695071 -0.0176009400975 0.0743204350358 0.162505236252 -0.00344645793666 0.20330400217 -0.0348005468275 0.0613900400185 0.0954895658033 -0.130763431539 0.0714503201431 0.00777370789011 -0.0379282255312 -0.103627537125 0.0751313533744 -0.0615375464095 0.0512814996668 -0.119409156276 0.0727098710553 0.162971583715 -0.165864429967 -0.0349806734005 0.0710460081354 -0.0564147304728 0.122049210288 0.0631307972433 0.120245380218 0.114479420226 -0.079924785539 -0.130963912226 0.111725296232 0.0795596832673 -0.0807058445515 0.172523475795 -0.180227372276 0.0535971387583 0.253060377848 0.0430420908135 -0.123367472312 0.19346932081 -0.115600857355 -0.0813966575758 -0.0386059315912 0.0337377320994 -0.29665800529 0.00828438720959 -0.0792831170432 0.126914674798 -0.0316929072296 0.0626712349679 -0.179224233909 -0.0393096202361 0.0893051566055 0.0856923035078 0.0964553995479 0.000565847595559 2.57501788344e-05 0.0908712895042 0.098595235671 -0.0289253341938 -0.119027073373 -0.0224728006101 -0.0142780643005 0.0988141087602 -0.0844335047013 -0.0345453376426 -0.218944987014 0.11501917552 0.075084242858 0.200549921103 0.219132942233
