34 128
0 -0.147223380869 -0.223019040473 -0.107038918517 -0.0733686180202 0.21185406326 0.102646616243 0.0105208915855 -0.176678518367 -0.0504196856304 -0.099837446091 -0.0267923384764 0.0942115159226 -0.0728906503734 -0.00987608312916 -0.044294410595 -0.037188154139 0.0693503541495 -0.148858677841 -0.18410949552 -0.153240637383 0.00477416502912 0.140936716065 0.138741144043 0.0329563084563 -0.0162807728746 0.138335137169 -0.16174439236 -0.158387102628 0.0840605603769 0.0799403400886 -0.00212113040585 -0.0365822866504 -0.225297365487 0.131390687909 0.0690885477948 0.0298125449488 -0.251399992863 -0.0542772319493 -0.0592384820337 0.00542738301662 -0.0899213981105 0.14084970742 0.110266325872 0.0142405646088 -0.0652141814502 -0.11863143131 -0.287168309606 0.156761353014 0.157995778879 -0.124282608171 -0.105993991936 -0.137577480122 0.0992688999009 -0.185512352198 -0.203633410619 -0.0921600566999 0.108078356515 -0.0605580587077 0.022229089132 0.016116452626 0.205977441523 0.00584179441741 0.163051388219 -0.0292268041648 0.0765620643885 0.0850149550028 -0.122945080286 0.0136900038238 0.0112167148077 -0.0361068224658 -0.0984843182842 0.101403920507 -0.123910182788 0.0529571957477 -0.131554993948 0.0869141648283 0.0445947960349 -0.203571018752 -0.0539556584595 0.0212384078855 -0.0545400875161 0.139605996019 0.0818506200312 0.078241023348 0.173890321716 -0.077377226805 -0.106520476676 0.123101250432 0.128562536661 -0.0862265451727 0.121266283313 -0.177168842162 -0.0171439758664 0.24488388962 0.101057157289 -0.165510054625 0.1821320338 -0.0965971951266 0.0109886213807 -0.0238148674669 0.0713444336675 -0.287740090994 -0.016518328115 -0.0579688095176 0.130810520537 -0.0626094552857 0.10781142911 -0.208630987815 -0.0148275135612 0.138334312278 0.0879819385212 0.126781237611 -0.0388880218256 0.0173020535615 0.121284491755 0.0888997649306 0.000345745292869 -0.136422261772 0.0167526678163 0.00152157326209 0.0794953930203 -0.159794862758 0.0113948911366 -0.233891984447 0.0917067242419 0.0287274563705 0.147218891738 0.227922369448
1 -0.125821957473 -0.200376919089 -0.0699562175939 -0.0948822138482 0.252041233216 0.125026222029 -0.0057861759564 -0.180977016781 -0.0713185296131 -0.0783853632555 0.00526749644655 0.0782937551991 -0.0615620759367 0.00936061271614 -0.0889227814955 -0.0185466230685 0.0635155675469 -0.138137205077 -0.175927974204 -0.168392414787 0.0270609129276 0.126013420127 0.226636017409 0.00979552057717 -0.0288307755289 0.156948188358 -0.20393451094 -0.140365466537 0.13530699055 0.092094226621 0.0267903288493 -0.048025877454 -0.245797594352 0.154921799052 0.0052395025068 0.00822899231461 -0.295110669501 -0.0105927622039 -0.0718520696961 0.00909439629627 -0.108554036263 0.0826067164098 0.103931274279 -0.00107388899839 -0.0187331685029 -0.0960318349949 -0.308783017313 0.207048570115 0.161649318481 -0.164007003666 -0.112036226588 -0.0756892860817 0.14001782175 -0.226512976173 -0.21583441886 -0.138016261663 0.102599089302 -0.0636160399229 0.05873275457 0.0636007017036 0.21365733714 0.0407344759648 0.186331750725 -0.021241740393 0.0358246259699 0.0679114951766 -0.104054655852 0.0181932340679 -0.0379995491621 -0.0466288682869 -0.0821991640514 0.0946323083792 -0.0963354180389 0.0552646143081 -0.128640511287 0.0834916462145 0.0386958615525 -0.192575751772 -0.0933711773934 0.0456186258778 -0.0360598073481 0.180889616813 0.0650985016835 0.0863803225723 0.196428877125 -0.0567029437617 -0.0780475370078 0.0931438848388 0.162806397269 -0.0870009293498 0.141180890496 -0.176245276465 -0.0216235506077 0.234364438471 0.104222185129 -0.136180606255 0.125396827802 -0.0369116241034 -0.0153123830759 0.0106325245394 0.060340439505 -0.325602864393 -0.0415631809622 -0.0314628686987 0.0615760227788 -0.0790227421299 0.130837979331 -0.259419203674 -0.0112514717974 0.161516783498 0.0975871208516 0.196593067322 -0.0651011710846 0.0330578981059 0.138846443223 0.13768760305 0.0804792367779 -0.138486773391 0.0220587813169 0.017066050188 0.0546625910288 -0.143106135401 -0.00915087721513 -0.234586707626 0.132314508179 0.0625965176977 0.144677343846 0.278898495497
2 -0.140544846617 -0.18698250754 -0.112513172283 -0.0272187314717 0.224364019281 0.102780527761 0.0043862009511 -0.170342317228 -0.0886937409017 -0.0789807820888 -0.0210064474735 0.0907757555246 -0.061819101727 -0.02171325411 -0.0222211567441 -0.0394133603595 0.0684966755827 -0.144593378985 -0.220478958409 -0.132156087951 0.0166538217665 0.151157985027 0.137982461087 0.0454773540816 -0.0160723680036 0.126904966547 -0.167327507831 -0.17180689639 0.129123738304 0.0527958321663 -0.0203795243251 0.00332471717373 -0.210410225893 0.129404525081 0.0291680165069 0.0243264750405 -0.241000012736 -0.0143043601929 -0.0665826267391 0.0110676603007 -0.0680213816274 0.120618317984 0.0771621618071 0.0522978429238 -0.0302302906919 -0.117262816641 -0.284737707634 0.155455629397 0.17532315369 -0.126158792727 -0.0628097193279 -0.140232517965 0.105585991586 -0.216907564298 -0.191917185369 -0.0863929315306 0.0728329139159 -0.0755420451628 0.0247992748522 0.0798560508252 0.191726019154 0.0191172863804 0.196399754971 -0.038891192047 0.0519793739177 0.0877185207416 -0.106699806247 0.0394472799424 -0.0280067276205 -0.0177329490611 -0.101107315343 0.0704799259224 -0.0526302110452 0.0554143419351 -0.0967014043293 0.0758909577596 0.106663391039 -0.163181095285 -0.0612704700714 0.0695636495507 -0.0607306954225 0.143193947559 0.0767896024872 0.105560194815 0.158042568712 -0.0876270275257 -0.0939399522897 0.110141888259 0.118697400474 -0.0960600523399 0.148134123219 -0.175164746633 0.0288013322112 0.222136463894 0.0598248375821 -0.133675673858 0.164757385808 -0.0826434050828 -0.0612390109017 -0.0190307900699 0.0308999406604 -0.290010178325 -0.0136769373699 -0.0437149341758 0.0910315282026 -0.0725604648226 0.0932279304421 -0.219712498237 -0.0152987706886 0.11271543332 0.101921960369 0.11863421402 -0.0380188058748 0.0294008768983 0.110572446462 0.12951529208 0.007945282079 -0.139444974664 -0.0150860908333 0.00934596584365 0.0984767402049 -0.101229288215 -0.0449656889702 -0.23191114533 0.139622145691 0.0575906994625 0.164841548568 0.235464260637
3 -0.111645815846 -0.201168831127 -0.0448004598715 -0.124882655926 0.272246976112 0.131734004796 0.0137199034654 -0.166878077357 -0.0782557711371 -0.0397126279074 0.0287985991507 0.0651963241981 -0.067674795915 0.0230417522385 -0.080492972834 -0.0148370635771 0.070433802793 -0.147292723346 -0.173643077814 -0.159561758549 0.0429489083528 0.0946132663669 0.285263071234 -0.00913190156326 -0.00468287017423 0.174772733406 -0.233685026977 -0.163783742579 0.194298190398 0.119210958938 0.0687430935568 -0.0481389351062 -0.268703617679 0.200284308536 -0.0121039845236 -0.0170110211618 -0.334509248041 0.0423925326478 -0.0732466815362 -0.0308119109113 -0.107411686748 0.0442041268846 0.115904709403 0.00574078415227 -0.00153964590869 -0.114207202813 -0.341551668669 0.241376979279 0.164480521274 -0.195312404412 -0.107852393754 -0.0753103042766 0.155950117504 -0.274739312082 -0.225211336353 -0.164520463653 0.094607654 -0.0775696635865 0.0618609340764 0.0709466421981 0.224415824289 0.0559544227203 0.212844656786 -0.0313339316039 0.0285554211052 0.0893435292448 -0.113995510781 -0.00362297634653 -0.0721395025026 -0.0373520697124 -0.0731772868302 0.101407845713 -0.0652129165219 0.0311800378712 -0.132069158538 0.0619328930694 0.0210688326152 -0.195719692013 -0.102013845686 0.0552706983448 -0.0337858632872 0.193064200914 0.0854486404119 0.0747332560627 0.227452059717 -0.0645070087642 -0.0401408722099 0.104522236295 0.181764291974 -0.102690470463 0.157320428307 -0.169712034029 -0.0243503186838 0.222300496533 0.0857804285667 -0.12562978706 0.133059223755 -0.041945305128 -0.0287511503928 0.0131463532782 0.0294738810392 -0.350133437568 -0.049727631174 0.0108954601951 0.0450604911977 -0.128778587089 0.119285443931 -0.299613228138 0.00420176616129 0.179999191809 0.123924179471 0.234641237398 -0.0953587177447 0.0724260903213 0.161683241926 0.15445115741 0.122147507589 -0.150844456422 0.029810984307 0.00722046094941 0.0795829205583 -0.149114759868 -0.0101471951477 -0.25798787309 0.165110695269 0.0634659780764 0.137829517435 0.318529633509
4 -0.104841037518 -0.186768147632 -0.0317213176716 -0.124522685805 0.266889080857 0.122854061048 0.0152562309589 -0.155535893857 -0.0737168322958 -0.0347312083007 0.0444363917605 0.05110689338 -0.064445375782 0.0322995148282 -0.0851591636027 -0.0034660993425 0.0618166708286 -0.140931711654 -0.15295125753 -0.160002608612 0.0425405998208 0.0793920736178 0.323049969375 -0.0174986795517 -0.0111947809091 0.194516658461 -0.251723457351 -0.142958751237 0.203979082786 0.124991234944 0.0872679812447 -0.0481919429237 -0.280835790796 0.221444163611 -0.0329979230317 -0.0332631919594 -0.343761543602 0.0661818684209 -0.0881020379535 -0.0233115561246 -0.116889544678 0.0252466547588 0.116207079047 -0.0173980436125 0.0137228346472 -0.110000977344 -0.329915053243 0.254389428592 0.157758285754 -0.208740687165 -0.100437135449 -0.0451801924115 0.17531526475 -0.274715889977 -0.220639323685 -0.179595034908 0.0949945315704 -0.0813271099777 0.0892715592349 0.0917606114413 0.215745567524 0.0618997320586 0.211905912235 -0.0212674338318 0.0172372035808 0.0754619732648 -0.092307088554 -0.00776579932245 -0.0785321855975 -0.0448930596872 -0.0496460927476 0.108153753523 -0.0577190538576 0.0238251697865 -0.125160277859 0.0616340163638 4.69828832064e-05 -0.192554096328 -0.102293997923 0.054591229164 -0.0286535247196 0.205507557122 0.0775396217881 0.0746600412267 0.224131731491 -0.0527127130715 -0.0265450254458 0.0875285810714 0.188295219929 -0.0915224451241 0.155795591284 -0.17011034676 -0.0313851071697 0.21066770423 0.0951216540097 -0.114209386534 0.104172443914 -0.00509204684616 -0.0378496654766 0.0154250432532 0.0265895853475 -0.362514656136 -0.0518293716915 0.0245562954014 0.013383421539 -0.145502127202 0.12876596129 -0.307158346009 0.00301087608561 0.187010410666 0.128340227096 0.252265607188 -0.105545254315 0.0808883838141 0.175016053469 0.165787974381 0.149538177978 -0.159234289254 0.0499596655739 0.0235328499392 0.0848526593072 -0.13354555328 -0.0164924859445 -0.247976417463 0.160229850814 0.0643796448465 0.125511777311 0.3205000566
5 -0.107937225536 -0.186040499159 -0.0302361874789 -0.133551921602 0.270601140031 0.12661865464 0.0127798971867 -0.156880183395 -0.0820786717126 -0.0284999913326 0.0528783125436 0.0523723448723 -0.0630984861603 0.0314182950985 -0.0837359942462 -0.000344983031351 0.0589893398533 -0.144138960161 -0.158544322667 -0.158894760504 0.0388064300106 0.0736291416554 0.326742050502 -0.0225724164566 -0.00769199369899 0.194881272358 -0.255829646417 -0.146353501169 0.211440310633 0.123376752061 0.0917541059821 -0.0454029109456 -0.282994386131 0.226658364925 -0.0383892935209 -0.0325965144565 -0.346865066258 0.0603271337704 -0.0820520214732 -0.0247350017702 -0.117027994118 0.0201619618627 0.120196608043 -0.0157742636859 0.0227230820118 -0.106409229971 -0.334655683178 0.25390003485 0.159657072783 -0.209536003671 -0.10037705052 -0.0413852490721 0.174434463048 -0.275738586641 -0.218692136801 -0.178868722426 0.0877970166066 -0.0810704968219 0.0950817251668 0.0852389693732 0.216230138224 0.0562305674949 0.213996074869 -0.0158365317012 0.0173859734515 0.0811586207033 -0.0930232454293 -0.0142294006447 -0.0799654634771 -0.0432192084534 -0.0526388353556 0.107264859149 -0.0572270040757 0.0295463397161 -0.116811784363 0.0539821363221 0.00397759739609 -0.196074857836 -0.104628394742 0.0576177857839 -0.0286310410745 0.202157864995 0.0782457496452 0.0734392828258 0.224855652103 -0.0538358787299 -0.0270993394921 0.0920432081729 0.186437365838 -0.09157284787 0.156195740394 -0.16403444682 -0.0290810842826 0.213168878321 0.0931245268818 -0.118099426977 0.107774107786 -0.00944555992843 -0.0373102399073 0.0116030315159 0.0290351802734 -0.360003124423 -0.048768987351 0.0207719065151 0.0118829453823 -0.148828752901 0.124441740452 -0.31453633071 0.00404049096327 0.180433250121 0.125797537753 0.252989061534 -0.105520512088 0.0826447630764 0.175052177321 0.165487815375 0.153607348405 -0.162386626253 0.0489975675604 0.0242256227017 0.0830347997402 -0.136284154473 -0.0208598229038 -0.250985928876 0.16443999368 0.0622779448136 0.119928311499 0.325387256896
6 -0.104348403639 -0.188287326342 -0.0349269590282 -0.129210298474 0.266684076066 0.124581352318 0.0147047539897 -0.151925842552 -0.0753302561885 -0.0348719640526 0.0537743424344 0.0574848221661 -0.070048901874 0.0314319788471 -0.0852380050465 -0.000155879151237 0.0620955138772 -0.13911399947 -0.151986985524 -0.161734626588 0.0391834907842 0.077138008063 0.324824768317 -0.0195142495736 -0.00884278156103 0.195446919666 -0.248341380059 -0.144723779928 0.2089997529 0.123159213351 0.095447913673 -0.0517501127353 -0.27829325223 0.223660657769 -0.0389273075813 -0.0333996655431 -0.34177511696 0.0649002292032 -0.0874687365845 -0.0275627660434 -0.118725740205 0.0243111482586 0.123145738541 -0.0108031867201 0.0215048447043 -0.109736435811 -0.337234567926 0.260844188777 0.163443325241 -0.203924612512 -0.101008349758 -0.0420209135624 0.170141362973 -0.274196081646 -0.220476458913 -0.174607431635 0.092915518773 -0.0782056650011 0.0929112665433 0.0913393250629 0.219503533772 0.059173303137 0.210327141794 -0.0222936570944 0.0229010246619 0.0751226045601 -0.0947884341767 -0.0106597486112 -0.0868285849771 -0.0480378973905 -0.0524362530093 0.100726767994 -0.0655186651573 0.0233534591824 -0.121425350592 0.0536602904166 0.00786306586252 -0.197186161955 -0.103758856627 0.0568652961673 -0.0325344348224 0.206816545623 0.0808521576612 0.0745252080557 0.232865928334 -0.0543447672738 -0.025759618266 0.085072832497 0.1815805991 -0.0961433207452 0.163900968296 -0.173820055908 -0.0346141331615 0.206444727894 0.0966968206439 -0.113893331068 0.108658196997 -0.00706081950652 -0.0432533542383 0.0162577733342 0.0291215237205 -0.362980577049 -0.0514661123719 0.0210211421941 0.0102345576168 -0.143022936488 0.130932879598 -0.31424922757 0.00716178324191 0.183370730291 0.128076911393 0.253574284667 -0.106843011206 0.0785074597713 0.179369079729 0.160589198552 0.149087250565 -0.159359737378 0.0476413309421 0.0175333291647 0.0837693112261 -0.13550299385 -0.0203805965715 -0.247236356768 0.161412286764 0.0647930226774 0.129713644389 0.326858549035
7 -0.126660874647 -0.196261710999 -0.0399540812744 -0.128207769687 0.281167687546 0.13533570001 0.0210917852027 -0.160121072201 -0.0909953055535 -0.0420013307781 0.0386828820031 0.058534694097 -0.0729022888217 0.0297911981006 -0.0709612058055 -0.019673232459 0.0743331073039 -0.151739230175 -0.176538330611 -0.166754424058 0.0435851063493 0.0915675442609 0.318107123478 0.00584669169224 -0.0132518454279 0.187532302299 -0.259639515824 -0.164931005256 0.202302300037 0.115563127784 0.0815259784939 -0.0441134144045 -0.287269177375 0.223321934254 -0.0343757849326 -0.0115491703494 -0.340940346933 0.0471979610688 -0.0971534164628 -0.0362694325888 -0.127628364322 0.0361918855325 0.117145755749 0.00218653246485 0.00923654779481 -0.118142895271 -0.355750809922 0.24449126894 0.180140881471 -0.201155526911 -0.0917021518303 -0.0763641393979 0.168998010443 -0.297542748109 -0.223221240391 -0.156927895808 0.0983291753551 -0.0862149776162 0.0696652003191 0.0962669773002 0.210129672488 0.0469901029983 0.231492825514 -0.0174660321758 0.0278721775643 0.0805017112023 -0.113637753444 -0.00740723919112 -0.0762556557931 -0.051633194852 -0.0661125097394 0.107596433694 -0.0666983048261 0.028749204017 -0.128346166513 0.0598628489652 0.0288072708105 -0.21196135722 -0.0985825531323 0.0582077028889 -0.0341593053786 0.199173447283 0.0885312599122 0.0853455412653 0.223001439766 -0.0567290738137 -0.0405524288231 0.102752987415 0.175324994995 -0.0910110472149 0.182937703694 -0.178818960789 -0.0153034175532 0.23464130952 0.0805318083132 -0.114621287088 0.131085609936 -0.0284628498061 -0.0518394165912 0.00814829842972 0.0189475070635 -0.384071189301 -0.0424996830315 0.0178890143491 0.031450565696 -0.148786321197 0.128097498754 -0.319217795177 3.33995538372e-06 0.185003675166 0.131723415688 0.242440404577 -0.0831874834477 0.0802181671544 0.17538651197 0.160933780289 0.134567866391 -0.173745617208 0.0436981414175 0.00954832166516 0.104329968171 -0.134898049528 -0.0247348165263 -0.255463040032 0.175974659926 0.0793319351166 0.155343263702 0.33789016078
8 -0.176421130927 -0.166702270724 -0.122603284204 0.021250015745 0.217020742384 0.101844708715 0.0350076926685 -0.18667462468 -0.104714612225 -0.0644697409358 -0.0909741271504 0.100294960747 -0.0394271670195 -0.0763997198549 0.0402760037971 -0.0596009235276 0.0721142587938 -0.13807125881 -0.280467113536 -0.130329427348 0.0218238617652 0.174903482288 0.0724084389261 0.132761624387 -0.0115481441965 0.0548959208148 -0.143775994836 -0.205947067548 0.107864034095 0.0207304237789 -0.0771403237554 0.0323437252311 -0.181766336053 0.0789891238096 0.0385587171538 0.100292104182 -0.186233975962 -0.072777297717 -0.0671562368954 -0.00624718247189 -0.0854838331983 0.135569862123 0.0404442995197 0.0691412798321 -0.0435251988365 -0.107041631549 -0.296685937925 0.0869082236121 0.199921602854 -0.0575465528941 -0.0433574668158 -0.2108769372 0.0708277558529 -0.235168045018 -0.180674871328 -0.0132248996866 0.0691531648782 -0.11105762119 -0.0353870103857 0.105875099362 0.139773541953 -0.0171779170524 0.230259585371 -0.0344564240723 0.0716221508479 0.111000220802 -0.133081171622 0.0916013411237 -0.0029453616503 -0.0387695378848 -0.113008616517 0.0692546639389 -0.0317972057074 0.044423313165 -0.11264077305 0.0725607783085 0.212791263089 -0.162494187409 -0.0230813630381 0.0988704346029 -0.0594970535746 0.112584325668 0.0683415270856 0.136631842087 0.106525234571 -0.0933368390796 -0.150889197156 0.11286933377 0.0753322497513 -0.0719230543079 0.20955141128 -0.178364985628 0.0762691273482 0.281675675034 0.0129142953324 -0.112348482867 0.201098604864 -0.133392127527 -0.136705007548 -0.0407302767705 0.0115789473137 -0.315523300849 0.0346384384644 -0.0857570274145 0.133966141691 -0.0323522175478 0.0395940181337 -0.187651067066 -0.0438070101724 0.0842256065776 0.0776120479636 0.0811581460342 0.0271590323087 0.00108765132006 0.0971501885662 0.108467158478 -0.0429082686654 -0.130527581378 -0.0370792291133 -0.0325263290872 0.138280658043 -0.0527070437121 -0.0593158412541 -0.212704890202 0.132882079884 0.0976148073513 0.24077198966 0.234916853383
9 -0.194559073336 -0.17916711778 -0.145697557225 0.0294137980331 0.230064332272 0.100652282448 0.0391966117041 -0.203905799195 -0.101628208234 -0.0773744641139 -0.103204806122 0.115014390215 -0.0450102815004 -0.0888663128009 0.0417915710213 -0.0754406044459 0.0797019727803 -0.147067719453 -0.30496018505 -0.138878962009 0.0174785655246 0.206121000846 0.042192624217 0.150162826918 -0.0140591341831 0.0447083882948 -0.134587031162 -0.218717774119 0.0925049611824 0.0184844426673 -0.0979048664609 0.0295307533688 -0.183101349576 0.0610694275317 0.0519302073232 0.117947957648 -0.18666763526 -0.0958990320864 -0.0737911614557 -0.00152857027723 -0.0896696139478 0.151796522951 0.030517319863 0.079886361114 -0.0578766772235 -0.116349793382 -0.306822701947 0.0736613729582 0.209989640721 -0.0502778501277 -0.0536486835201 -0.232721584531 0.0684873904297 -0.239649159286 -0.182975034905 0.000318398733082 0.0789857471822 -0.115434635792 -0.0556235003887 0.106956545212 0.144159584684 -0.0265594044063 0.240603464419 -0.0348521558643 0.0777051125715 0.112670424201 -0.153102022706 0.104944971699 0.0143198900757 -0.0400454125884 -0.126208128952 0.0659083539586 -0.0444423693488 0.0489681057521 -0.120819399624 0.0794603390056 0.234539494567 -0.177852224978 -0.0248296207295 0.0955131665506 -0.0600069377763 0.105737075003 0.0702921533567 0.144372096111 0.10072748434 -0.0974958561402 -0.16871609068 0.12459529818 0.0670318254439 -0.0685069166744 0.214011257263 -0.194592278951 0.0883249729102 0.301442499564 0.0146457987007 -0.12042527235 0.229639879646 -0.148454468881 -0.140225986029 -0.0531307365981 0.0232132270463 -0.322385123683 0.0422511430184 -0.0961850943469 0.157234796328 -0.0128204831434 0.039384269571 -0.18343692589 -0.0526768853568 0.0823893455789 0.0782276327778 0.0747865072107 0.0437066314385 -0.00888519998195 0.0916102201777 0.107918610411 -0.062567590832 -0.133349307471 -0.0492262505851 -0.0384666157412 0.138870720393 -0.0541416843644 -0.064144946209 -0.221712775088 0.132776065842 0.108725602102 0.260461255627 0.242532476049
10 -0.107512983179 -0.186903567545 -0.0292956054403 -0.127143315053 0.265343418457 0.122040404451 0.0127315226878 -0.150498659599 -0.077277441526 -0.0355263656437 0.0449787669059 0.0502996711362 -0.0621976300299 0.0335339679394 -0.0885076671083 -0.00294876593231 0.0659817132569 -0.145237090594 -0.151790121702 -0.160802268969 0.0366414299299 0.0774718115905 0.324113760816 -0.0177986693672 -0.00969787730144 0.195505126458 -0.253924877709 -0.140399883513 0.207592855155 0.12260164046 0.0940686006472 -0.0467289238005 -0.285164008406 0.216769200776 -0.0363242574886 -0.0352900660086 -0.342762177246 0.0645564173012 -0.0816675379802 -0.0292846491593 -0.120148947978 0.0258801402781 0.116568564175 -0.0181217991513 0.012917600038 -0.101551981145 -0.335437827231 0.257358056461 0.157172397807 -0.202372277119 -0.102211439907 -0.043933482816 0.17331147997 -0.272751113362 -0.214485294439 -0.173300641115 0.093507647034 -0.0784728570003 0.0885758416167 0.085881988397 0.218584433395 0.0591859408425 0.210606826676 -0.0192542789364 0.0220444243848 0.0795732878554 -0.09897301168 -0.0150452801231 -0.0835920666373 -0.0445833440329 -0.049635369339 0.103977850434 -0.0592177137254 0.0254247510586 -0.125375065561 0.0536127751432 0.000324914743786 -0.190722030542 -0.0993196826708 0.0590116096921 -0.0357747238891 0.19906228161 0.0741027028085 0.0695830135253 0.229982702392 -0.0537921687408 -0.0305872815063 0.0865875071401 0.189170051575 -0.095950815968 0.16216883091 -0.169202946793 -0.0284253112557 0.211774160666 0.0969952081415 -0.120715575666 0.107431467473 -0.00910520123561 -0.0340526295155 0.0117240535935 0.0316778131265 -0.353223484328 -0.047625525631 0.0185489606919 0.0200878464732 -0.147011479983 0.129946564292 -0.304488537462 0.0117427978884 0.184523898971 0.123493158594 0.250007205907 -0.0988653791725 0.0781659824724 0.176159617858 0.158901291704 0.149329324642 -0.160935680727 0.0495718667726 0.0206294954272 0.0859964710194 -0.136085049461 -0.0206164267129 -0.246100853869 0.159504214253 0.0641625105916 0.128530561399 0.323740160844
11 -0.129513052798 -0.184466104935 -0.065985239503 -0.0900962362094 0.265842028629 0.120000425292 0.0197687075838 -0.169490590714 -0.0850617817922 -0.0452012987161 0.0104291430733 0.0766332643589 -0.0592336186746 0.00552448448548 -0.0478088744843 -0.0214168503511 0.0679470716913 -0.147354409942 -0.201716934377 -0.155059212483 0.0338839914877 0.109543583239 0.260821228358 0.0279674847221 -0.0101355116438 0.154592541366 -0.230156099663 -0.170998918006 0.185163560012 0.100615845618 0.0473898466639 -0.0278936984393 -0.264014542684 0.190847082569 -0.0113561681002 0.00562495256585 -0.310468912372 0.0243902879974 -0.0872194034261 -0.022203360319 -0.112987472693 0.0576594672603 0.0966410136811 0.0153193568743 -0.00245259337537 -0.112588807424 -0.33865172486 0.21303037719 0.176354513587 -0.166316675282 -0.0896172573005 -0.100240387295 0.15123727766 -0.273967613376 -0.210624000553 -0.137030773848 0.0835061054335 -0.0958411762878 0.0572774606778 0.0956919669894 0.197963045976 0.0410088689862 0.226492881682 -0.0268306157043 0.0385024905432 0.0922829756531 -0.109772486751 0.0172214069854 -0.0637881348876 -0.0488626058801 -0.0700852788635 0.0950350671278 -0.0579322965392 0.032138036479 -0.11996092545 0.0617652972889 0.0629910913068 -0.19124091321 -0.0833072574244 0.0691171538392 -0.0427085869084 0.183636618922 0.0771123155839 0.0977168202433 0.201729965049 -0.0665221401354 -0.0640432150448 0.0989179814852 0.155393379875 -0.0878103489739 0.186014948986 -0.178341572261 0.000315449154215 0.238442125499 0.0701590888618 -0.118835355273 0.139403692666 -0.0450368606307 -0.0729814582948 -0.00676946249454 0.0190394824535 -0.363768320221 -0.0291777991951 -0.0124676566709 0.0497521539594 -0.118092433994 0.103468644983 -0.288531665946 -0.00785210624474 0.160261960386 0.114347003448 0.211983448109 -0.0650384492056 0.0589598377333 0.162257556524 0.154404606466 0.099629927531 -0.15722103177 0.0252074801459 0.00385623177908 0.105236836255 -0.118565289045 -0.032091349015 -0.246960187827 0.164154897938 0.0731817753117 0.163319733596 0.308394939164
12 -0.120637891647 -0.194257845787 -0.0463300797667 -0.121359882941 0.275565001953 0.127341507217 0.0158519150568 -0.165403341387 -0.0860638086162 -0.0348375346147 0.0355810383507 0.0682352767313 -0.0664266151577 0.0260039181132 -0.0702146372496 -0.0140055383714 0.0690436891123 -0.15400075661 -0.1821129306 -0.16185455846 0.0410546267027 0.0906893592834 0.313873788123 -0.00386112942152 -0.010706360167 0.185714510886 -0.255746339966 -0.157793744607 0.206141550674 0.121197526017 0.0744095151789 -0.0471553242862 -0.287544699484 0.222339892236 -0.0291597227074 -0.0180624237517 -0.338540258201 0.0485109832156 -0.0899933143436 -0.0309751378521 -0.119265069513 0.0456250096383 0.123503127387 -0.00405792649112 0.012285612415 -0.110909105227 -0.348814897143 0.249960847246 0.177566840125 -0.196852221134 -0.0950585069059 -0.0711894498626 0.169681041504 -0.292222102894 -0.223849491626 -0.16643507576 0.0896794825577 -0.0865910018818 0.0791162580947 0.0949444882414 0.219126588763 0.0557432062682 0.225336195736 -0.0227746355688 0.0322052465842 0.0893396292834 -0.11071085624 0.00100115587338 -0.0785308497837 -0.0520701131329 -0.0608191547451 0.104394924677 -0.0619802742646 0.0304926089765 -0.124494747422 0.0652938851735 0.0285674493968 -0.207203764102 -0.0976646405056 0.06353624755 -0.0377591307048 0.205562317203 0.0872062829737 0.0834473844117 0.224820991173 -0.0605596811225 -0.0408068708103 0.0953172059288 0.184047046519 -0.100278967247 0.179811709445 -0.184123037926 -0.0220138145223 0.234329574486 0.0846514693856 -0.119840321382 0.131584629724 -0.0294436346104 -0.0559386210529 0.00353635423075 0.0238419600154 -0.380571499898 -0.0396218832537 0.00961593118994 0.0322515461961 -0.142278378996 0.124934137715 -0.313198860089 0.00495876041707 0.180242496542 0.12564630902 0.242971790197 -0.0900861348459 0.0696650749711 0.181588110116 0.161460806813 0.134372863129 -0.169193006189 0.0384779761428 0.012926269027 0.102968371685 -0.139663901992 -0.0234317791753 -0.258575510555 0.168714637145 0.0725729682319 0.146220089765 0.331721309954
13 -0.143675802334 -0.172658695866 -0.0674407992871 -0.0623211271106 0.247330579802 0.10797039273 0.0378325311603 -0.160972209433 -0.086785698357 -0.0330296618619 -0.0111826161944 0.0821666290502 -0.054305426476 -0.0212876705515 -0.0142475448499 -0.0266248143596 0.0720922881392 -0.141904815714 -0.216190259074 -0.149490112371 0.0324447928811 0.123054706566 0.216947982891 0.0595566406552 -0.013042818774 0.114290036481 -0.212396348102 -0.183589623645 0.1711316847 0.0867530576181 0.0210347081865 -0.0155132514809 -0.246198634288 0.161038065733 -0.0135881238871 0.0322229434289 -0.27100226739 0.0105854783857 -0.0812976402656 -0.0278806726049 -0.111674260429 0.0599702607003 0.081541317134 0.0263292921544 0.00103087092348 -0.113503999748 -0.324647185579 0.171824134743 0.181830315856 -0.142089786209 -0.0751534910707 -0.129792869861 0.131173332114 -0.276537514863 -0.193738439676 -0.098075620158 0.0727225981483 -0.108920823091 0.0224104890832 0.109444513498 0.165511178825 0.0212922877304 0.235138217637 -0.0269797439499 0.0457900380678 0.101527883874 -0.110168825048 0.0473731125148 -0.0467467936022 -0.049631993516 -0.0770160515337 0.0829542515861 -0.0397198362164 0.0327976658683 -0.127358765329 0.0578877573398 0.105088413424 -0.187812023232 -0.0728042607707 0.0873435400102 -0.0341500234369 0.153571713551 0.0739035209827 0.114039916723 0.177063198828 -0.0736969851712 -0.0885802864565 0.0964812067456 0.138976090993 -0.0798826497697 0.201163542538 -0.179318833946 0.0282168924357 0.251725439949 0.0487817789184 -0.109443267339 0.154151752547 -0.0600113089826 -0.107311116564 -0.0133485007778 0.0134112288391 -0.350614951107 -0.00644387235483 -0.0189232828479 0.05899782415 -0.0914458445969 0.0770600135797 -0.265274058487 -0.0204879725533 0.133776680311 0.111102768393 0.182625961955 -0.0333447313499 0.0438544804826 0.149336288584 0.133575577947 0.0742664925003 -0.152344316017 0.00226464357334 -0.00485136830846 0.12353843457 -0.0874022777506 -0.0430172240756 -0.230447074468 0.155143924331 0.092157441355 0.186039267426 0.297322841304
14 -0.250839065303 -0.172960953194 -0.210287517282 0.113923128387 0.224326091812 0.0897209520066 0.0549218018232 -0.229200733882 -0.121116398709 -0.103880424256 -0.181894181152 0.149034545789 -0.0306298343785 -0.143838913016 0.0977032570033 -0.105764404933 0.0924773397988 -0.16295019765 -0.390153794387 -0.128240985876 0.00643956570078 0.275959655035 -0.090995682733 0.221680140364 -0.0137187942301 -0.0231708505811 -0.0828987445953 -0.266122337446 0.0449029883041 -0.0405175222285 -0.197860535468 0.0772723268039 -0.13659627854 -0.00279467125747 0.097329888826 0.177671200325 -0.114060917206 -0.162414715529 -0.0691153293431 0.0142300972178 -0.0696303212171 0.227037225317 -0.0145958112142 0.137988987509 -0.0967387082943 -0.135737059661 -0.300605319078 -0.00845375153819 0.240997558271 0.0171608103496 -0.0282867707396 -0.332286054152 0.0184592965016 -0.231011988049 -0.179295171673 0.0769140628821 0.0724206844717 -0.129186756673 -0.121828428454 0.120162788339 0.124775862773 -0.059862646805 0.25527070583 -0.0515529438079 0.103571167669 0.129960299529 -0.185483615201 0.170511261954 0.0616727832568 -0.0270123122327 -0.160745936207 0.0516691264674 -0.029913698052 0.0652061963983 -0.130134395271 0.0942156904465 0.349366120614 -0.166370221132 0.0138937599297 0.124294413497 -0.073991877039 0.0700262498125 0.0723083032016 0.178666692729 0.0403578090558 -0.127593688678 -0.244132880429 0.138111720929 0.0123645921195 -0.069360057946 0.251214875251 -0.216968428988 0.149194288746 0.354628671034 -0.0177950607457 -0.125124265976 0.294182000598 -0.220399301279 -0.195736512083 -0.0873348262049 0.0163020810959 -0.311713352931 0.0829466760796 -0.161472798143 0.224175614168 0.0521617869018 0.00873048914115 -0.124983474093 -0.0830435979852 0.0303523115091 0.0597963450853 -0.00931242074114 0.113847299528 -0.0449698464456 0.0514398060077 0.0935393618824 -0.168982591238 -0.11998901883 -0.0932222240791 -0.065923625418 0.162889800681 -0.0161690626106 -0.0960083639901 -0.228585439633 0.122644125266 0.129284675013 0.325573131217 0.205520030932
15 -0.248495403383 -0.17100159566 -0.207740583939 0.107726934864 0.226626573634 0.0923490985519 0.0520614803456 -0.226497958751 -0.118689980979 -0.10224670218 -0.178613250862 0.154671816057 -0.0296648758483 -0.145056104191 0.0974380684468 -0.108663881277 0.093493073173 -0.158242644464 -0.390943616451 -0.136075581921 0.00322819959226 0.270105824983 -0.0880372635181 0.225365231925 -0.0174222856328 -0.0197592290129 -0.0859986861147 -0.264139881612 0.0475953822981 -0.0348002839245 -0.197476239989 0.0699068975311 -0.136083508945 -0.00903375972678 0.0989365894912 0.178944553475 -0.116024774138 -0.1659623683 -0.0645829238982 0.0144863638392 -0.0697727040452 0.222729311908 -0.00790102584662 0.136693958113 -0.092566710248 -0.135416163728 -0.303296753705 -0.00340288829958 0.245568105078 0.0165435033379 -0.0308426841855 -0.33212576137 0.0171502686166 -0.230796628347 -0.181570547998 0.0716831401258 0.0746951144784 -0.131794390516 -0.11688085317 0.119689277111 0.126445744661 -0.0553053634418 0.260848424162 -0.0498636344958 0.106008391425 0.1351056883 -0.18586315523 0.167571212698 0.0597209731416 -0.0275940564853 -0.160853792152 0.0568298668931 -0.0323029820438 0.0639831137263 -0.127352658812 0.0888916951342 0.352443378415 -0.162574895334 0.0185391630002 0.122294881989 -0.0793098210776 0.0718511667702 0.0760175566453 0.182197392625 0.0456959521477 -0.124095815101 -0.244080727933 0.137626060521 0.0185593399007 -0.0694430735175 0.25180132875 -0.213337264407 0.1552238785 0.348756085179 -0.0157650985664 -0.130174447113 0.297010329305 -0.2200986527 -0.191668378828 -0.0883769624597 0.0173927358094 -0.313293008137 0.0902196989295 -0.160451450597 0.220168873391 0.0495207576238 0.00592484467662 -0.125347322654 -0.080234487078 0.0332069716877 0.0649748869382 -0.0091448348624 0.115104615598 -0.0462078754107 0.0458298638725 0.090056544148 -0.16565075044 -0.118371668543 -0.095507749167 -0.0636911915569 0.158818078016 -0.0130138293874 -0.0959864908846 -0.229595307788 0.122627444259 0.128719737556 0.332457980682 0.209791757362
16 -0.106820770108 -0.16305618508 -0.0495234679894 -0.0878413439687 0.225144933659 0.104159259813 0.0135142036404 -0.146278902563 -0.0651183764048 -0.0462801473655 0.01174460428 0.0553795486205 -0.0591939258013 0.00689966754368 -0.061889197039 -0.0122791851094 0.0578967504319 -0.127865437857 -0.156784392238 -0.138995541115 0.029910625549 0.0915385066298 0.228886560432 0.00959229296981 -0.01508353398 0.149465196439 -0.190869498677 -0.135325198358 0.156268551574 0.0852914656163 0.0431744450037 -0.0361538896616 -0.226124934692 0.166519532221 -0.0110975749905 -0.00446305934478 -0.271846510678 0.0219795611449 -0.0650015308525 -0.0135673161877 -0.0962981124424 0.0464136142601 0.0907554654602 0.00574267123908 -0.00404861701818 -0.094222544479 -0.282064934437 0.195901271764 0.144435346044 -0.150998460709 -0.0819222838516 -0.0674391634169 0.130496076579 -0.227316206554 -0.186543250197 -0.127807661483 0.0826309682179 -0.0666745400233 0.0584510434516 0.0751327272533 0.181004881864 0.0406621751509 0.177271595033 -0.0228174458682 0.0266395211848 0.0737211076272 -0.0961548652799 0.00911176788467 -0.0532307272044 -0.0365377517883 -0.0617185992781 0.0883091471716 -0.0544182668225 0.0280686173272 -0.104273922552 0.0538086318153 0.0333214635638 -0.16268805826 -0.0733453157598 0.0513916725139 -0.0355834306441 0.156943375959 0.0654391245444 0.0728159903941 0.175965820328 -0.0583536633091 -0.0500151715853 0.0837837996296 0.14158280379 -0.0771879664464 0.140856049715 -0.154707300339 -0.0136000522541 0.200996172585 0.077091343005 -0.112936580559 0.116427606099 -0.0291978545356 -0.0404937057695 0.00456016284631 0.0296130333523 -0.296063955856 -0.0299824889353 -0.00329494409926 0.0405756673571 -0.09493295096 0.105752972019 -0.248203483073 -0.0067706315585 0.139975152253 0.0988128120533 0.18699975719 -0.0674422450656 0.0535532071554 0.137672913546 0.132493687328 0.0862589066981 -0.12838978961 0.0271880337177 0.00844299123346 0.0730868136999 -0.110645907639 -0.019193561875 -0.21534866501 0.129828339648 0.0574538279148 0.124972939847 0.264534965229
17 -0.122995993695 -0.19950607097 -0.0452771089421 -0.121063699888 0.277943913279 0.126338823294 0.0238471019536 -0.165829339795 -0.0929201322278 -0.0314930870509 0.0397713021918 0.0668758345054 -0.064770597027 0.0220180433692 -0.0707585690965 -0.015044888755 0.0712283011467 -0.157609901624 -0.18906710749 -0.160624963617 0.0390493914093 0.0953930221478 0.320451105787 0.00571823128234 -0.0157214365672 0.184713438646 -0.260928296291 -0.163215207884 0.20742339129 0.122946550423 0.0816987257118 -0.041987706375 -0.295890202466 0.227928080369 -0.0283840446348 -0.0187948480121 -0.346635862695 0.0507555633141 -0.0941255276211 -0.0274339982473 -0.123742702918 0.0422038443962 0.119343091729 -0.00380072512861 0.0108162324996 -0.118423508165 -0.353803833886 0.255530929004 0.177487882681 -0.200288039159 -0.0968611265333 -0.0741809260134 0.17696450472 -0.299227918366 -0.230289621952 -0.163769185973 0.0955748009541 -0.0915147755885 0.0819712834617 0.100810373267 0.212653775068 0.054809768655 0.234847815497 -0.0208783261991 0.0313202977452 0.0928113423341 -0.109606455903 -0.0030259112081 -0.0750048782454 -0.0532912426991 -0.0650717629459 0.110884336849 -0.0576972722212 0.0334376083448 -0.125856681411 0.0652115925056 0.03093250097 -0.206029281584 -0.101416985473 0.0637618298984 -0.0381032769062 0.200990911304 0.0900636773602 0.0873091657373 0.231032191963 -0.0670925119303 -0.0440194786264 0.102588640683 0.180158578721 -0.0986073005894 0.186013773292 -0.183355165207 -0.0148152353358 0.234485882276 0.0880888991723 -0.122475778497 0.128583370863 -0.0245453452013 -0.0568372111079 0.00512359930409 0.0187913991697 -0.387893958772 -0.0417329414853 0.0128468113511 0.0302583873926 -0.145315462474 0.12096265958 -0.319163620589 0.0031948457324 0.183788306748 0.133883810066 0.248079474782 -0.0897721976664 0.0743943852884 0.178845438995 0.16849264929 0.136375600418 -0.173698527606 0.0371986452465 0.0171765865715 0.101782791884 -0.139140721923 -0.0245463507267 -0.259411066184 0.177047579779 0.0726796929505 0.150910940539 0.337495153761
18 -0.250998696723 -0.172057399115 -0.204468933055 0.110934708324 0.225109347994 0.0878628858449 0.0528818174462 -0.229905218486 -0.120636824596 -0.0983104275264 -0.184970280438 0.155807672722 -0.030584147488 -0.1432172705 0.0993488767982 -0.110419299898 0.0989127967112 -0.15975755595 -0.389873974897 -0.13581153296 0.00344142350182 0.271339389863 -0.0843251337517 0.221956248985 -0.0139264391507 -0.0231752554706 -0.086829363625 -0.265194052734 0.0510852921526 -0.0348851928117 -0.196838796156 0.073601611657 -0.136650807858 -0.00686952372233 0.09792365567 0.177457580256 -0.116640262981 -0.167518925639 -0.0672412217328 0.0107406249731 -0.0748685339623 0.221552964153 -0.0113153252061 0.136348205119 -0.0973654275834 -0.133828087727 -0.296606124789 -0.00867128949453 0.24538675226 0.0181105607402 -0.0292679414361 -0.330461685706 0.0226877843438 -0.231398817892 -0.176738002478 0.0767478506125 0.0734981746317 -0.129040098426 -0.119125919961 0.123939551986 0.122736196136 -0.0578714436505 0.256898197608 -0.0484396679321 0.102268374249 0.13402741975 -0.18276851775 0.171090268951 0.0577121646544 -0.0315960948865 -0.167319791465 0.0554412365177 -0.0320273161372 0.0638766026127 -0.124280492918 0.0914101628924 0.352221301897 -0.16658712449 0.0218708172979 0.127358684076 -0.0744576333628 0.0651515094539 0.0749860325816 0.184754053444 0.0441889922321 -0.132035279223 -0.240472358539 0.137537033179 0.0130988419178 -0.0677504123519 0.245596562928 -0.215928923112 0.149478654597 0.350437949966 -0.0197854943903 -0.128951263569 0.292889939427 -0.217113522644 -0.195195963421 -0.0864699090061 0.0166765917059 -0.311734163858 0.088586844747 -0.158576779266 0.217082328281 0.0473872001679 0.00564327105323 -0.131528297785 -0.08130773819 0.0352805322834 0.0650214186046 -0.0126566803493 0.115630079773 -0.0490622796386 0.0451142167685 0.0872910385578 -0.168735320985 -0.116734497414 -0.0896025933181 -0.066767826507 0.162459654566 -0.0133611870441 -0.0945419818603 -0.226328985058 0.12318755357 0.126560087156 0.333024334062 0.205504135448
19 -0.151479698329 -0.1733725199 -0.0834158092006 -0.0386742290221 0.248072139856 0.111961912599 0.0365667326461 -0.171282679233 -0.0978743949288 -0.0423342323076 -0.0315940200227 0.0868155148367 -0.0496494623107 -0.0303065510835 -0.00551102812001 -0.0410343382992 0.0758075485882 -0.15088543378 -0.242150598263 -0.144626025258 0.032338512831 0.132170391562 0.186710773019 0.0788595035736 -0.00679970564848 0.101891156294 -0.203920700815 -0.18754589474 0.161560777726 0.0673937822678 -0.00205478104755 0.00174909810323 -0.230404728263 0.143503537426 -0.00224048577312 0.050451418997 -0.260270278437 -0.00771592010237 -0.0876479397894 -0.0189597662543 -0.105316790212 0.0842316058763 0.0707331517924 0.0397900435713 -0.00953199814235 -0.113469124588 -0.324312825454 0.161833837137 0.193614128558 -0.121628641242 -0.067010961207 -0.149052551871 0.124820872204 -0.279300585967 -0.194476067539 -0.077959750171 0.0744226076615 -0.112433665977 0.0126262646946 0.114689597508 0.167389172003 0.0172291502112 0.232551686126 -0.0299895159835 0.0463563423176 0.103602043929 -0.127912151524 0.0581846066673 -0.0420923974697 -0.0420830786639 -0.0844023882827 0.0872102812643 -0.0316325567325 0.0331261881257 -0.12126521616 0.0574828900691 0.137078707145 -0.182587199486 -0.0537621625984 0.084980394957 -0.0429259515393 0.152101317925 0.0750715122179 0.118911789321 0.156128447422 -0.0784531433239 -0.101754564893 0.104348822495 0.117718544238 -0.0790630383681 0.205340359584 -0.184611581738 0.0429228573621 0.260870504168 0.0408823336662 -0.104299213953 0.173749341191 -0.0818573312466 -0.120723404428 -0.024353498549 0.0108292236147 -0.352810220364 0.00907032863989 -0.0370831199425 0.075128233034 -0.0873474665573 0.069018413656 -0.250825474632 -0.0231073815614 0.129628576742 0.103241661973 0.161160067843 -0.0164834481739 0.0334459100458 0.139164524482 0.136443755934 0.0434596959832 -0.146092121508 -0.00544532395057 -0.016373279447 0.128192251252 -0.0759861637243 -0.0529110570365 -0.236314148178 0.157116910851 0.0917763135172 0.206075189059 0.288969818074
20 -0.244031602743 -0.176480970944 -0.208141910684 0.108703642455 0.222651802736 0.090346809058 0.048162084328 -0.225084965333 -0.12382944558 -0.0978538688605 -0.177201934124 0.151375366464 -0.02874409827 -0.141595276157 0.0903680453513 -0.103816572314 0.0971647089973 -0.158815316934 -0.387285019143 -0.131205668086 0.00762135024309 0.271563792494 -0.0778523652047 0.223299153895 -0.0108670487917 -0.0217304901208 -0.0884509630281 -0.259295893613 0.047383191455 -0.0303928477532 -0.187739941882 0.0735080800698 -0.137412906157 -0.00201326333321 0.101381379897 0.177137317954 -0.125358739429 -0.161425907143 -0.0682065429354 0.0109994368667 -0.0700665003423 0.225091933571 -0.0126119233702 0.135774148649 -0.0971130202722 -0.128768313435 -0.301471436653 -0.00539462073218 0.241804911275 0.0158930468449 -0.0336324880574 -0.328654083896 0.0254114823634 -0.232451729811 -0.178615993218 0.0701581174194 0.0711372357085 -0.126979649217 -0.117288063862 0.116001689719 0.123491864416 -0.0567223512614 0.252614077624 -0.0531889950028 0.103556969558 0.135509242221 -0.18471702307 0.166832386116 0.0536478907993 -0.0327526869067 -0.16550985455 0.0512912666107 -0.0295175017104 0.0669334225513 -0.128271940094 0.0937691162486 0.348678741953 -0.163855297266 0.0148368828369 0.118617406808 -0.0782761355134 0.0711363865331 0.0750699173616 0.184735122254 0.0498275137119 -0.12990350199 -0.240445997973 0.135643945318 0.016790427374 -0.0675389890224 0.2502414821 -0.218007346435 0.152989693987 0.3492930848 -0.0186079025825 -0.126610563802 0.294099952753 -0.216405428095 -0.186005020077 -0.0838439805175 0.0163783039407 -0.309900108978 0.0878770853143 -0.16141690861 0.220897160133 0.0418569274652 0.0112470525238 -0.128811515789 -0.0816000507204 0.0366220441244 0.0650667910681 -0.00382326473507 0.110641512898 -0.0496950416279 0.0482306725251 0.0912669702377 -0.160490977706 -0.116016354896 -0.0936308569811 -0.0625343645012 0.157074342762 -0.0200358679975 -0.0881801327863 -0.229474653128 0.129067049233 0.121630830431 0.328667414795 0.207731797281
21 -0.126476581021 -0.202249289974 -0.0484608538482 -0.124991905399 0.28360716105 0.132030672872 0.0238198422626 -0.16212106215 -0.0914281688321 -0.0313317232951 0.0382340455607 0.067846954749 -0.0711132581979 0.0226497988221 -0.0663374326544 -0.0114781967198 0.0720926500419 -0.151389896436 -0.185080513288 -0.160916127133 0.0449139335543 0.0892274655233 0.315507269278 0.0040090817202 -0.0147327497001 0.189087442521 -0.260049762535 -0.169210439855 0.211270147207 0.120950140769 0.0779121001332 -0.0381223925153 -0.297045089193 0.228685079605 -0.0322741441588 -0.0140340891438 -0.347252261513 0.0569076438951 -0.0927993099148 -0.0337903234001 -0.124584328664 0.0384956899346 0.122502805727 -0.00198138393973 0.0130013096616 -0.113061247779 -0.355203260578 0.255561659502 0.175295763632 -0.19890985024 -0.0963398171942 -0.0727451796507 0.174820258842 -0.300659802636 -0.226831008959 -0.170058924372 0.0945091571882 -0.0942790628692 0.0830696002755 0.0960605002744 0.212919018086 0.0571741098423 0.234861001905 -0.0184877633674 0.0319246975682 0.0871750913115 -0.108930734649 -0.00279931635201 -0.0790878219187 -0.0500493225166 -0.0675266722754 0.110386931443 -0.0637550963681 0.0313176334707 -0.125480147236 0.066338560259 0.0347683712773 -0.207835107767 -0.102813983571 0.0649324501761 -0.0351897609461 0.209002400965 0.0895054138499 0.087693578976 0.227808106988 -0.0632546608089 -0.0453041309204 0.0987411191148 0.180451381018 -0.0958594542362 0.182909402364 -0.182820480279 -0.0160870941921 0.235277546878 0.0893764891382 -0.119740736548 0.133824628612 -0.0246665253078 -0.0585083352312 0.0105947590459 0.0226076967787 -0.389560764927 -0.0442555197908 0.00796725548898 0.0311297032693 -0.150675945875 0.126174483557 -0.321089009709 0.00305859728365 0.186288628917 0.127914066506 0.244843596113 -0.0902124820294 0.0710717957499 0.185633086035 0.168609901184 0.137533521392 -0.174686546872 0.0359409940286 0.0179617893031 0.107313626865 -0.139216310582 -0.0272272096102 -0.262395086649 0.173587608083 0.0725041613747 0.151119488817 0.335947053569
22 -0.248471329484 -0.17436342848 -0.209213611093 0.110888481256 0.225243888953 0.0889764679722 0.0547275725443 -0.231827507152 -0.122495722327 -0.104106328633 -0.181398972734 0.154488783947 -0.0358446611751 -0.144761143547 0.0934846281311 -0.102521578169 0.0998667876128 -0.161780635717 -0.382007391402 -0.132209714514 0.00929878157329 0.273851366865 -0.0843393933991 0.222318387463 -0.014576164253 -0.0227625236199 -0.0845128089761 -0.264566289578 0.0481160143856 -0.0403701833463 -0.194218501251 0.0715523170608 -0.132286566724 -0.00312668089814 0.103300951418 0.180947772623 -0.115382717587 -0.166418266565 -0.0700906725767 0.0114026078931 -0.0684649571309 0.225374935925 -0.0143566651215 0.133062395239 -0.0933141479691 -0.131018493782 -0.300662753396 -0.00364147440631 0.241923925283 0.0150422591639 -0.0280672549497 -0.329808285704 0.0205916123386 -0.22895231293 -0.175279995176 0.0755543463241 0.0742762300279 -0.128765328517 -0.11827735913 0.120906803219 0.127419337988 -0.0615622273373 0.256076954204 -0.0525114357515 0.109424812842 0.13663354627 -0.182462294778 0.170868346939 0.0603582405807 -0.0305956991758 -0.162018863213 0.0520362983909 -0.0305774076019 0.0605268270271 -0.127179854483 0.0896808463947 0.350571574327 -0.16516978825 0.017460031216 0.124954896039 -0.0773900339931 0.0659150289048 0.0706635433659 0.181548476606 0.0459589929929 -0.127347784007 -0.241991421427 0.13976251296 0.0136075093383 -0.0707397332126 0.249961734675 -0.217091425769 0.154861395484 0.351391875653 -0.0153297886955 -0.133137795538 0.29081841633 -0.216529032601 -0.193420024059 -0.087125670322 0.0161288601088 -0.307098373144 0.0897650674512 -0.162937158836 0.222936709095 0.0477283118498 0.00607362685164 -0.124053295868 -0.0809456886454 0.0313633390977 0.0642699798124 -0.0105376014685 0.10897203729 -0.0459652369165 0.0465735025482 0.093882538565 -0.167218951771 -0.118841310352 -0.0927120315143 -0.0659078292127 0.158341165218 -0.0139821385719 -0.0927235179137 -0.230207872193 0.125795771502 0.126055694676 0.327164012318 0.207758601174
23 -0.251448294789 -0.174888869549 -0.218549950496 0.116423573639 0.214311789078 0.0912580456336 0.0438368179901 -0.228604062537 -0.120646359365 -0.119141197832 -0.19335895214 0.155266436835 -0.0286321781115 -0.144858593364 0.0929181094752 -0.107316779527 0.0962484159992 -0.160149541201 -0.386821610044 -0.131297725403 0.000601626636379 0.283115229626 -0.123212485048 0.223811228914 -0.0117296694278 -0.02628402051 -0.0699587591067 -0.261907357034 0.0248337000138 -0.0479717534561 -0.216127042041 0.0764743257037 -0.113437638875 -0.0250822154487 0.116798396677 0.186115315832 -0.0995454471326 -0.183694384271 -0.0612199647644 0.0256196516248 -0.0636827889715 0.246484729418 -0.018398643914 0.137029736816 -0.108875493256 -0.12980712697 -0.283698806381 -0.0282679781341 0.237876462886 0.0249946197117 -0.0348739973036 -0.33000558408 0.00768378253774 -0.204399275884 -0.174896323065 0.0876041620947 0.0696726504169 -0.115479104266 -0.126749707971 0.1093961615 0.123794284849 -0.0593862322446 0.238055725507 -0.0523577811169 0.114827318268 0.125940514399 -0.184576401558 0.170837283942 0.0723722227347 -0.0287360862609 -0.168445715577 0.0511907407327 -0.0369159982621 0.0671647875491 -0.119577442629 0.096964566915 0.354387709994 -0.163479200867 0.0284309363266 0.120154296856 -0.0761561595519 0.0568141527354 0.0716431325075 0.18240190614 0.0268920093362 -0.133494231616 -0.245173640102 0.134471490867 0.00360091609356 -0.0720232674663 0.228736712997 -0.217643473031 0.153604445859 0.346919957383 -0.0212393828489 -0.131176721654 0.301139880591 -0.229670422189 -0.174291917567 -0.0836622084595 0.0295917966963 -0.287909608109 0.0888029515397 -0.171272735914 0.23212453931 0.0632144053644 0.00256829537991 -0.103669454215 -0.0834895615371 0.0160269173322 0.0529944311684 -0.0305527641664 0.1211158527 -0.0606594243096 0.0279077748207 0.0831037433359 -0.188201197601 -0.113276292276 -0.0966951308729 -0.0612377401674 0.143598300523 -0.0147610932505 -0.0836788370211 -0.222477916315 0.114246194157 0.116071602766 0.321947044182 0.185918071366
24 -0.189227779297 -0.174661927255 -0.162308372869 0.0473538019187 0.203154162715 0.0915511287391 0.0253977298566 -0.193855267178 -0.0871809436812 -0.0996631274904 -0.116573537355 0.119606820147 -0.0452922908787 -0.0871339617326 0.0253726679094 -0.0727406510333 0.0784562401399 -0.1368013263 -0.280776944638 -0.12550771468 0.0118877707692 0.212488208268 -0.0134114245588 0.13557495811 -0.0170974168496 0.0338424090744 -0.0953118197893 -0.198373624208 0.0506870434244 0.000558444042114 -0.1229098388 0.0303718066519 -0.146497029472 0.0379317679159 0.0796969634408 0.106790620485 -0.151923100019 -0.115128851117 -0.0527615392627 0.0151925797386 -0.0637238362011 0.178800314797 0.0276097190224 0.0919349822593 -0.0766722444317 -0.118267606066 -0.258160528128 0.0507020790028 0.195398073082 -0.0308767709343 -0.0513544731803 -0.226117183562 0.0385178680054 -0.180857875098 -0.171408584226 0.00688865568983 0.0754631059639 -0.0905038040582 -0.0600648029629 0.0760571067575 0.147933056775 -0.0273393314675 0.194127154827 -0.0416385459063 0.0795192841557 0.102194212768 -0.147811443878 0.102947361656 0.0396871721932 -0.0307004419511 -0.132602775578 0.0565227753641 -0.063192136226 0.0573269977894 -0.114663972606 0.084593814813 0.221227468066 -0.160618676704 -0.0112455663073 0.0817725385845 -0.0641357455592 0.0861633633463 0.0673034855444 0.126548161445 0.0772698108798 -0.0932124532721 -0.173853892062 0.11568317765 0.0534677399887 -0.0735289226886 0.177571684313 -0.183378690423 0.0805087427201 0.28178840883 0.0253353277541 -0.127242311638 0.221386965041 -0.15615839038 -0.0963065093455 -0.0526234529062 0.0329971220646 -0.268716888958 0.0367031384496 -0.116955461529 0.172851629355 0.0145388783758 0.0445166123357 -0.142040604354 -0.053424507107 0.0579151014582 0.065493703648 0.0346189169676 0.0405996220746 -0.0193762251179 0.0546392721887 0.0871341714111 -0.0933084535114 -0.105508153334 -0.0513395176064 -0.0293753441986 0.101979838406 -0.0585046081135 -0.0459919024307 -0.202239813228 0.101568120763 0.0817036723836 0.22824466496 0.186968236334
25 -0.189483035273 -0.177554637602 -0.167933606121 0.0592378891337 0.198641473477 0.0901072353934 0.0262937680901 -0.201642147191 -0.0886896792967 -0.107352325964 -0.125865257 0.123224933085 -0.0474136695045 -0.100851941443 0.039711592627 -0.0820498122207 0.0753307590848 -0.133938990009 -0.300323844856 -0.128451263632 0.00877559247449 0.227301004192 -0.0416430401281 0.14866359538 -0.0226168594878 0.0215092087278 -0.0781968077815 -0.205433821688 0.0373511680834 -0.0159055207144 -0.13895112196 0.0397008809358 -0.134022018232 0.0179722869769 0.0900234967029 0.128121154181 -0.128820315468 -0.130723620839 -0.0480796763621 0.0196518170192 -0.067105863827 0.189260555975 0.0180954331384 0.0936618830217 -0.083202039981 -0.115066355544 -0.253609507301 0.0268560514933 0.200082758591 -0.0203157195554 -0.0538086256688 -0.247011566005 0.0261225604878 -0.172715172713 -0.165352340998 0.0271115419157 0.0735832446089 -0.0910884007591 -0.0736563401719 0.0774307701329 0.142149779285 -0.0379282136582 0.195995161591 -0.0405014093431 0.0845048700701 0.0992094100935 -0.149333488767 0.113525576238 0.0439681960692 -0.0280272527058 -0.137938192344 0.0520751494102 -0.0640850522411 0.0653198536317 -0.11539391489 0.0889324046326 0.237123258212 -0.153513222446 -0.00332025920312 0.0761000571066 -0.0609325557078 0.0760916996253 0.0653209607761 0.134393991069 0.0629535087056 -0.104952646657 -0.193495149629 0.122207169312 0.0412246343044 -0.0718434564454 0.172770347988 -0.181337430193 0.0896720910818 0.291170362594 0.0146709430458 -0.132556116798 0.237217708087 -0.172345971741 -0.0965780547621 -0.0561609417268 0.0417587123401 -0.263495756898 0.0404412283021 -0.124877380311 0.185180328299 0.0342756951903 0.0335169472187 -0.125715735033 -0.0593957766865 0.0516792547209 0.0626693131862 0.0196823893422 0.0556073851281 -0.0313079265962 0.0436944206182 0.0766980029844 -0.123225453158 -0.104749247065 -0.0557733746582 -0.0335087478449 0.107599718842 -0.0592990007043 -0.0517029787046 -0.203667067441 0.104181409406 0.0890566823566 0.239084568783 0.183918194059
26 -0.235166031631 -0.178426093133 -0.205472037408 0.094721788282 0.22262774015 0.0933177673197 0.0400745961074 -0.225292637967 -0.115558870808 -0.104281593667 -0.169031601645 0.149601593416 -0.0376000873302 -0.137367297407 0.0807522020308 -0.103591194805 0.0939682969224 -0.1528004489 -0.366385072203 -0.133782649363 0.00205823980249 0.262473760029 -0.0810979066775 0.210582334606 -0.0180167306795 -0.0138373943239 -0.0837402793145 -0.249623272202 0.0394970328711 -0.0353925503624 -0.183136004577 0.0656235403781 -0.139813901452 -0.00396428007398 0.101980427564 0.168313775518 -0.120490570502 -0.160456907403 -0.0648462207169 0.0170189618267 -0.0731197726652 0.22180533096 -0.00715034855074 0.123963502236 -0.0931678436472 -0.130589350909 -0.292853581922 0.00482892209233 0.237610753577 0.0113094385046 -0.0352482306069 -0.311977838232 0.01649783335 -0.215915651877 -0.177728497577 0.0674171403877 0.0776978508858 -0.120324507503 -0.108208211251 0.10515955517 0.127740667576 -0.0526389148123 0.245195787914 -0.0444672222743 0.104706407746 0.125412377568 -0.172533985407 0.158634310292 0.0543669000891 -0.0356985451667 -0.161712527536 0.053616613837 -0.0463645267136 0.0695018402126 -0.123922078132 0.0885209049607 0.325403594928 -0.164653781276 0.0161827659744 0.113415251575 -0.0782213318736 0.0700782201163 0.0661772121909 0.168706530442 0.049891075339 -0.117981748579 -0.233496079778 0.135698927829 0.0186767402389 -0.0674961470629 0.233068038438 -0.212614781933 0.137605827442 0.338755547203 -0.00623259318417 -0.137806453323 0.278854216044 -0.210059473621 -0.166837066203 -0.0819309862547 0.0248782587945 -0.301341819268 0.0716390362588 -0.156554118863 0.215683718631 0.0498897434 0.0126734729835 -0.124919109197 -0.0786061052091 0.0339027462871 0.05918869607 -0.00279658987893 0.0944637646801 -0.0410255430815 0.044585045772 0.0849782321682 -0.156285988185 -0.113444907151 -0.0831579140515 -0.0571253484051 0.145034577741 -0.0259071229463 -0.0794469729423 -0.220015906384 0.120513489875 0.114556804051 0.30632665001 0.196874465981
27 -0.205128510902 -0.174080292323 -0.17364764583 0.0594903681814 0.222175622276 0.0915205838394 0.0418617250438 -0.210860673516 -0.105808160199 -0.0936568080576 -0.12877453106 0.125105974227 -0.0425731413234 -0.103807610454 0.0541644894585 -0.0831308928494 0.0839084402023 -0.145637891719 -0.3266088663 -0.138240948708 0.0100530221496 0.225410533391 -0.0249022321182 0.172167302746 -0.0162053843472 0.016509174546 -0.104051168028 -0.227276595189 0.0568011934932 -0.00857393226727 -0.139840984067 0.047777401779 -0.152421510066 0.0238240049827 0.0831049330543 0.140402507278 -0.148541377226 -0.131360749602 -0.058787980376 0.0123433292479 -0.0784029529303 0.186739545826 0.0104406721446 0.102735839895 -0.0781123686544 -0.122340679004 -0.291951586603 0.0343196995272 0.220697316849 -0.0181163482678 -0.047443634424 -0.259734471196 0.0369873353657 -0.21549522588 -0.17188541971 0.0267983344077 0.0734872782354 -0.111510835623 -0.0832361897017 0.0960346758342 0.134173002028 -0.0410855981385 0.233585427625 -0.0402715211774 0.0891658243783 0.11035285819 -0.161386152852 0.127815263697 0.0335024482969 -0.0354716725495 -0.143138395333 0.062886403188 -0.0435192376217 0.0587658224443 -0.11707956762 0.080175710168 0.265695830168 -0.163949985212 -0.00285787275152 0.0931992277784 -0.0695506850503 0.0864638226986 0.0669915418745 0.14803715464 0.0740035638492 -0.106512671783 -0.201697010537 0.123745007347 0.0476806116771 -0.0676318091501 0.212749610956 -0.192371391174 0.107160024323 0.313189025106 0.0113309564024 -0.124787797555 0.244200887856 -0.171317223166 -0.140259727917 -0.0594383191141 0.0267915656032 -0.303564294338 0.0560395691647 -0.129287045679 0.183328653758 0.0193343290295 0.0314676284958 -0.149291410612 -0.0660870408652 0.0576599933771 0.0665092585155 0.0324817295563 0.0692177186509 -0.0239410643958 0.0659611311602 0.0880308165649 -0.111544689928 -0.115207559291 -0.0627343304511 -0.0477596972527 0.135056963967 -0.0507246436763 -0.0619375675338 -0.220762278093 0.120383261149 0.107173714257 0.276299529416 0.214184113309
28 -0.192111277076 -0.177173795827 -0.149946833501 0.0337490153037 0.22055248085 0.100364815096 0.030443194538 -0.200420309037 -0.0930706379169 -0.0860562034408 -0.111858487043 0.115567443259 -0.0488779151889 -0.0868667558995 0.0366027810055 -0.0755203402004 0.0798812182141 -0.144277821366 -0.298215315854 -0.137486212979 0.0124887631903 0.211979405542 0.0153073084576 0.147729067714 -0.0120947881902 0.0394260945441 -0.11769586704 -0.209287992002 0.0720000286643 0.0106139097342 -0.109370700543 0.028911537428 -0.167275144674 0.043560779439 0.0707420515832 0.117795422261 -0.168401629059 -0.109154241692 -0.0587234728414 0.00411917544189 -0.0766482228419 0.162961426593 0.02666557291 0.0880210825593 -0.065573853133 -0.1174580224 -0.2826218705 0.0578246966379 0.207291812294 -0.0368456614653 -0.0555474119543 -0.232450627155 0.0512281839911 -0.21005937543 -0.179929206322 0.00843537508831 0.0758513548113 -0.0991544925118 -0.0600991190944 0.0895549330972 0.148229459766 -0.0263293842113 0.222640634812 -0.0348052352066 0.0792945058964 0.107540548303 -0.150509180804 0.108215032106 0.0230660958789 -0.0371962998752 -0.129036456227 0.0622695164494 -0.0490940452591 0.0528947284159 -0.117453832158 0.0815994339009 0.227069780652 -0.162860064476 -0.0169012373309 0.0858355422798 -0.063637250316 0.0965923280684 0.0699495215064 0.137010211346 0.0883897431164 -0.0942057094764 -0.176887905164 0.12274627283 0.057548859363 -0.0730886270171 0.199284580176 -0.186166524213 0.0857114069947 0.294421617095 0.0240704874815 -0.129829116229 0.227152604556 -0.157414431464 -0.114959995476 -0.0474053195086 0.0279810333773 -0.301401926199 0.0432867201384 -0.106476983313 0.162623763948 0.00384573035039 0.0411435373328 -0.163591739377 -0.0568306497872 0.0713286533433 0.0742984734395 0.0581917583958 0.0412009168068 -0.0189569579311 0.0775781844006 0.0938364933355 -0.0815460772962 -0.120238562736 -0.0465936387046 -0.0403855516598 0.124243521532 -0.0613881193871 -0.0525227222982 -0.214633524366 0.120291462473 0.0977187673499 0.248599285929 0.217503583605
29 -0.252106407224 -0.177184698054 -0.222477585979 0.11931158471 0.216412622516 0.0877334554385 0.0450711874848 -0.234659203763 -0.113141516189 -0.119818624067 -0.198313470309 0.159375880162 -0.034039915679 -0.151194249004 0.0986825757636 -0.112860005571 0.100257279002 -0.154558511721 -0.387029437487 -0.129097021258 0.00583207565043 0.283799750485 -0.12717134403 0.233576918179 -0.0154434795623 -0.0310083385316 -0.0677313546265 -0.266087278786 0.0195483916007 -0.0475563289567 -0.215615498147 0.0804424240528 -0.121499537234 -0.03284006413 0.120406857056 0.189755942004 -0.0975445230429 -0.183913245733 -0.0596658397774 0.0213463539144 -0.0619060051516 0.250058576753 -0.0148576040249 0.14702653052 -0.109492327648 -0.12706057178 -0.282672425961 -0.0262794341324 0.237941814273 0.0350819347689 -0.0370309528531 -0.342323092835 -0.000580082061379 -0.20727775834 -0.168508114408 0.0867942708698 0.0702687279951 -0.122548751304 -0.136125652897 0.109773986106 0.128772357625 -0.0692033216999 0.245420648623 -0.0487408893512 0.117762770333 0.128468847147 -0.180556459079 0.169261039523 0.0793930960939 -0.0256100045203 -0.171204837724 0.0441076821662 -0.0445545431553 0.0697193884029 -0.126882523998 0.102177096232 0.360777635776 -0.157759006114 0.0253664578983 0.11394477529 -0.0828482241151 0.05072939129 0.0679789447147 0.184231880503 0.0258344372811 -0.135706160266 -0.259625783071 0.142147650601 0.00244165450693 -0.0648833017346 0.232165053792 -0.217743256493 0.155374322743 0.355537214024 -0.0170773461311 -0.141128816348 0.305232268018 -0.227759859658 -0.178564306126 -0.0915632075018 0.0245344619166 -0.286305915083 0.0918589656437 -0.179257061887 0.242605189296 0.073902263208 0.00458779399358 -0.108209721196 -0.0904512353385 0.0181852652753 0.0550496110138 -0.0304342622174 0.12221428868 -0.0629634612308 0.0341070863952 0.0815488521494 -0.191455106309 -0.113210102274 -0.10361393422 -0.0646899492383 0.153033369036 -0.0154591095281 -0.0877552231062 -0.220991137786 0.117266701604 0.114741205321 0.324910623538 0.185533559486
30 -0.199139134509 -0.164296111313 -0.158432437103 0.048888234266 0.217411871721 0.0937511005571 0.0329328587056 -0.198482349949 -0.105603330515 -0.0846949662828 -0.116045230743 0.119833706917 -0.0359858924131 -0.0944587816628 0.049909717234 -0.0802900040962 0.0861170008184 -0.15001598379 -0.308813106597 -0.128992046802 0.0103352711505 0.213377265601 0.0124703589742 0.147626077151 -0.0174941383447 0.0296284298316 -0.120599825698 -0.220391592564 0.082341493768 0.00382768693512 -0.112482185167 0.041562052348 -0.158537663372 0.0544309023249 0.0618439117348 0.115296298703 -0.169045176717 -0.104165644659 -0.0689960182992 0.00561805700345 -0.0734983299213 0.166470469348 0.0196237913095 0.0937139465046 -0.0673924931735 -0.119037180002 -0.285944388274 0.0581642268917 0.21090091624 -0.0404545170157 -0.0454011044269 -0.246728640342 0.0590438720221 -0.228186393468 -0.179848742524 0.00980224889165 0.0669188568234 -0.11387017016 -0.0560899755217 0.10135266592 0.13845015134 -0.0296553814008 0.223700140968 -0.0393743555062 0.0826705935692 0.110975419228 -0.151136454184 0.116889419363 0.0235808278058 -0.0363226005062 -0.134055298461 0.0664916117745 -0.0374278939166 0.0513192383443 -0.120721744199 0.0816257781679 0.249546833699 -0.168779665682 -0.0171559007472 0.101899203274 -0.0599903760303 0.0957906537106 0.0733677011193 0.150006776887 0.0904449402721 -0.0984882384454 -0.173141522479 0.115980590715 0.0559697901699 -0.0740415209884 0.214901545608 -0.197158070896 0.09895835239 0.300669126028 0.00960465839101 -0.121781132286 0.230049832797 -0.153676192599 -0.141549064056 -0.0524465202664 0.0210926209339 -0.300527941306 0.0474074429116 -0.11103724642 0.163950347208 0.00287177167241 0.0349544036695 -0.164660840893 -0.0597744319179 0.0663593131046 0.0777580511335 0.0494816081261 0.0544636179679 -0.0174841666904 0.0749701295923 0.0999561551218 -0.0857068135696 -0.123879283818 -0.0552176740197 -0.0426671434217 0.130530017498 -0.040797926755 -0.0669659515267 -0.223223838621 0.123601960152 0.1058483437 0.261875476742 0.21990592981
31 -0.199808513377 -0.162882032762 -0.148342249996 0.0385858271047 0.223893682728 0.0913868365985 0.0452380226941 -0.191121198467 -0.108119588406 -0.0653532549905 -0.112907004846 0.11867665869 -0.0350450659917 -0.0919689715684 0.0537563413544 -0.0772120741474 0.0817748828088 -0.151253397453 -0.306842222435 -0.121882289741 0.0166240323563 0.205077687071 0.0384962333831 0.148808077529 -0.0137422933661 0.0287382831104 -0.133438220533 -0.223436432336 0.0942174635383 0.00294410372342 -0.104661192233 0.0410668786173 -0.169637613474 0.0626106647653 0.0510828453345 0.112996355143 -0.165252401141 -0.0886533061576 -0.0762191750649 -0.00475371413778 -0.0771379043613 0.151415687348 0.0255803343912 0.0921326187442 -0.0544183282227 -0.120021497633 -0.288779909349 0.0644065676832 0.211791688705 -0.0462537843778 -0.0419143911696 -0.233481533812 0.0587402976943 -0.232517365862 -0.173337586308 0.00333727025443 0.063860482648 -0.114603020889 -0.0549159062603 0.115649013753 0.130814224872 -0.0261671294963 0.234583568724 -0.0332156611812 0.0750234154967 0.116971800687 -0.150806932537 0.116994958015 0.0105091548078 -0.032449242334 -0.120058425275 0.0617091427381 -0.0339868993853 0.0428713564897 -0.11817722641 0.0751864204312 0.244184189324 -0.163709775864 -0.0125448891243 0.105681190556 -0.0617446046582 0.100864259313 0.0696946114591 0.144047548665 0.0934987706985 -0.103447765181 -0.162437535797 0.114801008049 0.0519422615321 -0.0753330319136 0.223492811002 -0.190144586921 0.104397586215 0.291079986277 0.00509308286036 -0.111438222156 0.229472283171 -0.143100728064 -0.154757471825 -0.0602230893086 0.00647864557849 -0.314277796336 0.0451932798993 -0.102561650227 0.142933619297 -0.016223715373 0.0342377827483 -0.169897211987 -0.0567940580599 0.073465356159 0.0749717155926 0.065618193359 0.046284169752 -0.0106854635768 0.0850380864869 0.10697701823 -0.0731000609347 -0.129916127539 -0.0513633043759 -0.0342587283819 0.142059469212 -0.0373710439693 -0.0775537133291 -0.221016050504 0.137463915332 0.107632288674 0.263125589016 0.227256314625
32 -0.196059127753 -0.222627877654 -0.193781495535 0.0226510175601 0.210180711494 0.115927841604 -0.00369013140382 -0.211649854675 -0.0840939092873 -0.152336635274 -0.122160148129 0.130999189499 -0.0677301810942 -0.0832893561995 -0.00579590269679 -0.0798745517021 0.085797624102 -0.133337298636 -0.28906316949 -0.150765560954 -0.0171600307417 0.246310232753 -0.0552564758846 0.128496044539 -0.0364436069997 0.0509077044301 -0.0634758783252 -0.211176556802 0.00480818518926 -0.00821057321215 -0.149429330235 0.0376241083942 -0.133909596818 0.00812681950051 0.133177553131 0.127806459115 -0.142829519727 -0.149126338429 -0.042050482314 0.0370546560521 -0.0652285934253 0.221524243019 0.043924258185 0.105872568667 -0.11285945753 -0.129908044948 -0.2576487077 0.0437055055991 0.206203616432 -0.0314235841196 -0.0726948768681 -0.238750294078 0.0163709310393 -0.133019779902 -0.171280819212 0.0201330696084 0.0817931740225 -0.0534644797635 -0.0749635673347 0.0454005082139 0.180006085801 -0.0235262469785 0.173493033793 -0.05737966943 0.107770253873 0.0712673784301 -0.164294922018 0.0790619520553 0.0694125796327 -0.0238674026456 -0.156425479836 0.0460494682255 -0.107717914261 0.0928325635207 -0.107694660515 0.113276092397 0.19120524038 -0.183266296516 -0.0224260695286 0.0412563303622 -0.0643191831913 0.0820613392762 0.0690490129748 0.105395002995 0.0948085241151 -0.112655086741 -0.20431523806 0.146256783898 0.0536581062513 -0.0806202639885 0.138089023867 -0.187267190949 0.053453895832 0.300110298087 0.0365251692952 -0.174915109983 0.247207055722 -0.186854353376 -0.0158373462644 -0.030028695191 0.0722078088227 -0.248515781946 0.0196956217366 -0.141079501771 0.21915953519 0.0442082311963 0.0776009091799 -0.12085107646 -0.0577940710945 0.0608601939496 0.0469508510681 0.0168438466594 0.0368237940577 -0.0237676311636 0.0261076801553 0.0657421310023 -0.145687774238 -0.114544928995 -0.052008706792 -0.0262374105913 0.0828833665526 -0.114357723294 -0.0238921405998 -0.198534454305 0.106144534657 0.0679539639841 0.222619512271 0.176352680857
33 -0.174449793009 -0.217877106941 -0.179721070538 0.0347704318241 0.210522307865 0.0879971257474 0.0160679261205 -0.217660757387 -0.0528712817234 -0.110184098922 -0.111157035758 0.138547068558 -0.0648796390877 -0.0753127480931 -0.01846914696 -0.0765698467575 0.075311590973 -0.158200275298 -0.266731071424 -0.13612845692 0.020043941414 0.231848680304 -0.0266613570609 0.105498768538 -0.0175581146614 0.0800543715603 -0.0870201779758 -0.179772028931 0.0278656076641 0.00571105890675 -0.118046240091 -0.00116789905933 -0.176808047383 0.0457617223592 0.118542574938 0.0715974793583 -0.175696338435 -0.13496299942 -0.0454823893065 0.046774051133 -0.0504742144523 0.212992404397 0.0493302376563 0.0712631148687 -0.108851549235 -0.128795815603 -0.25893967721 0.065173519081 0.179688408932 -0.0489046919378 -0.0812483558718 -0.21639625253 0.0431677356826 -0.131328619851 -0.186549560783 -0.033604676403 0.102690379636 -0.0603945261082 -0.0367155880686 0.0182430279048 0.19447169878 -0.0188416430194 0.176221014133 -0.0449583331844 0.0786184644986 0.0952782660029 -0.148023281542 0.0816882075887 0.0650922977681 -0.0413550315458 -0.130041611037 0.0828436998627 -0.121977716743 0.0822859417197 -0.140747735318 0.095454786909 0.176997525235 -0.17557414225 -0.0212190103535 0.0440013911592 -0.0782268598617 0.115551974102 0.0526549963227 0.130071689269 0.0888911241141 -0.0808788584029 -0.170376616657 0.136864372906 0.0543645540746 -0.0996239933242 0.134486848203 -0.200219416563 0.0510956560051 0.264014820068 0.0730168149722 -0.166514458023 0.233567347043 -0.159712742799 -0.0156925482598 -0.0575066344576 0.0791656510103 -0.271491041969 -0.00707308497223 -0.133373898283 0.194835850727 0.0170241273777 0.0715899204294 -0.125101747179 -0.0559131865693 0.0659766325917 0.0815149044486 0.0499810685685 -0.00141852612996 -0.0412184081697 0.0553807168753 0.0591685437756 -0.101704474453 -0.0969094619331 -0.0312509468692 -0.00231016330113 0.0611719693271 -0.127576688409 0.00472159880224 -0.233367139865 0.0699868948292 0.0456813074594 0.192667646202 0.161868378964
